~o
<STREAMINFO> 1 39
<VECSIZE> 39<NULLD><MFCC_D_A_0><DIAGC>
~s "silst"
<MEAN> 39
 -7.308048e+00 -3.270350e+00 -7.386470e+00 -5.109823e+00 -6.704654e+00 -6.178202e+00 -5.670356e+00 -1.506953e+00 -1.847577e+00 -1.125488e+00 -3.404007e+00 -2.069133e+00 4.777615e+01 -3.657591e-01 -3.022300e-01 -7.853433e-01 -4.751169e-01 -6.021791e-01 -6.936104e-01 -6.511731e-01 -1.943804e-01 -2.573850e-01 -2.522884e-01 -3.728695e-01 -2.719139e-01 3.988733e+00 3.961017e-01 2.069093e-01 3.058692e-01 2.642840e-01 3.387726e-01 2.975775e-01 2.927477e-01 1.303063e-01 1.082448e-01 2.895873e-02 1.594106e-01 9.042062e-02 -2.028914e+00
<VARIANCE> 39
 1.645658e+01 1.637247e+01 2.776407e+01 2.233443e+01 2.532087e+01 3.232573e+01 2.933606e+01 2.792714e+01 2.696623e+01 1.969256e+01 1.809512e+01 1.501157e+01 1.257504e+02 2.026560e+00 1.332282e+00 2.438194e+00 1.916874e+00 2.351956e+00 2.659346e+00 2.596764e+00 2.086830e+00 1.942416e+00 1.719383e+00 2.057363e+00 1.470022e+00 3.390932e+01 2.495855e-01 2.357529e-01 4.647568e-01 3.402499e-01 4.297911e-01 5.147418e-01 4.718777e-01 4.399537e-01 3.918144e-01 3.643459e-01 4.212565e-01 3.041889e-01 2.703518e+00
<GCONST> 1.149630e+02
~h "a"
<BEGINHMM>
<NUMSTATES> 5
<STATE> 2
<MEAN> 39
 2.246856e+00 -2.922997e+00 -8.169827e+00 -1.005563e+01 -5.193038e+00 -3.247088e+00 -1.254835e+01 5.462775e+00 -4.335812e+00 1.377919e+00 -7.235014e+00 -4.657164e+00 7.023777e+01 6.981766e-03 -8.986358e-02 -2.480322e-01 -2.433054e-01 1.508296e-02 -3.547436e-02 1.036133e-01 2.947529e-02 -6.460761e-02 3.756248e-02 -2.720451e-02 -7.149342e-02 -4.656934e-02 -6.400598e-02 6.164780e-02 9.002288e-02 7.869600e-02 1.915285e-02 -6.918494e-02 -1.480156e-02 -4.584057e-02 -3.421072e-02 -3.353229e-02 9.062301e-02 9.350134e-02 -2.136308e-02
<VARIANCE> 39
 2.139905e+01 4.379646e+01 6.532986e+01 5.429533e+01 4.216718e+01 7.291550e+01 4.939466e+01 7.785725e+01 8.288564e+01 5.107866e+01 7.497332e+01 5.077668e+01 9.698547e+01 1.023409e+00 1.508860e+00 1.642572e+00 1.785168e+00 1.762988e+00 2.320031e+00 2.020269e+00 2.053333e+00 2.155878e+00 2.227290e+00 2.341403e+00 2.147686e+00 1.922806e+00 1.895328e-01 2.175867e-01 1.968390e-01 2.295864e-01 2.920681e-01 3.774461e-01 4.475444e-01 3.981736e-01 3.968873e-01 3.826122e-01 3.713437e-01 3.320511e-01 3.146145e-01
<GCONST> 1.169796e+02
<STATE> 3
<MEAN> 39
 -5.619243e-01 -1.250289e+00 -7.786439e+00 -9.968369e+00 -3.955637e+00 -5.380350e+00 -1.194064e+01 4.713296e+00 -1.861319e+00 7.666167e-01 -8.408840e+00 -3.054884e+00 6.636215e+01 1.383835e-01 3.845922e-01 3.853184e-01 1.197279e-01 -2.985723e-01 -1.528036e-01 -8.042797e-02 -3.079161e-01 -1.751154e-01 -2.607749e-01 4.318079e-01 1.213374e-01 -1.018314e-01 -1.627262e-02 -1.764831e-02 8.781745e-02 1.875342e-02 -1.200120e-01 1.024672e-01 1.051126e-01 -6.789373e-02 1.227123e-02 -4.106189e-02 4.437188e-02 -5.506370e-02 -2.990015e-02
<VARIANCE> 39
 6.474524e+01 4.125087e+01 5.283089e+01 5.423102e+01 4.164133e+01 7.817082e+01 6.906324e+01 8.551059e+01 6.791278e+01 5.315916e+01 4.924581e+01 3.732819e+01 8.642496e+01 4.605078e+00 3.115149e+00 2.751565e+00 3.708323e+00 3.455331e+00 5.083502e+00 6.189416e+00 4.988881e+00 4.353895e+00 3.074610e+00 3.674928e+00 2.590288e+00 6.450572e+00 7.071520e-01 4.483670e-01 4.531751e-01 5.801280e-01 5.839854e-01 7.429454e-01 1.040543e+00 8.286459e-01 7.085046e-01 5.570822e-01 6.866820e-01 4.923112e-01 6.249977e-01
<GCONST> 1.365086e+02
<STATE> 4
<MEAN> 39
 -9.448326e-02 3.072791e+00 6.701984e+00 -8.059490e+00 -1.390993e+01 -6.740972e+00 -1.228454e+01 -1.598339e+00 -6.574774e+00 5.586074e-01 -2.870191e+00 -2.226941e+00 6.849185e+01 -1.283410e-01 2.595190e-01 6.056575e-02 2.749665e-01 -3.430039e-02 2.495638e-01 4.417135e-01 -3.225817e-01 -1.763005e-02 -8.192270e-02 5.607333e-02 1.281876e-02 -1.825337e-01 -2.657214e-02 -1.113673e-01 -1.944010e-01 1.279184e-02 1.876704e-01 1.209086e-02 1.825510e-02 1.249770e-01 7.803766e-02 -1.877271e-03 -1.369702e-01 -1.311013e-02 1.653438e-02
<VARIANCE> 39
 2.753864e+01 2.703792e+01 1.030566e+02 5.793230e+01 7.810621e+01 7.237010e+01 5.345466e+01 8.828820e+01 7.399448e+01 4.415444e+01 4.129702e+01 3.376850e+01 4.541570e+01 1.443788e+00 1.766377e+00 3.658470e+00 3.120085e+00 5.413058e+00 3.517285e+00 3.725560e+00 3.497906e+00 3.366331e+00 3.168828e+00 3.037317e+00 2.781282e+00 2.352746e+00 2.221065e-01 2.914145e-01 4.045179e-01 5.273025e-01 7.033426e-01 6.614106e-01 6.238300e-01 5.611962e-01 5.297410e-01 4.814839e-01 4.709707e-01 4.632255e-01 2.839076e-01
<GCONST> 1.272281e+02
<TRANSP> 5
 0.000000e+00 1.000000e+00 0.000000e+00 0.000000e+00 0.000000e+00
 0.000000e+00 6.992444e-01 3.007555e-01 0.000000e+00 0.000000e+00
 0.000000e+00 0.000000e+00 7.467087e-01 2.532913e-01 0.000000e+00
 0.000000e+00 0.000000e+00 0.000000e+00 7.846602e-01 2.153398e-01
 0.000000e+00 0.000000e+00 0.000000e+00 0.000000e+00 0.000000e+00
<ENDHMM>
~h "b"
<BEGINHMM>
<NUMSTATES> 5
<STATE> 2
<MEAN> 39
 2.517680e+00 4.914830e+00 1.269685e+01 -7.253717e+00 -1.674859e+01 -1.919070e+00 -1.141346e+01 -6.215034e+00 -7.997737e+00 6.050131e+00 -3.910982e+00 -3.803976e+00 6.467125e+01 8.768396e-02 2.171333e-01 -8.327715e-01 4.555860e-01 7.586043e-01 1.894768e-01 3.916581e-01 -3.012152e-01 4.911636e-02 7.407332e-02 -1.601301e-01 -3.900876e-01 -5.925503e-01 -6.914072e-03 3.174859e-02 -1.301756e-01 1.156776e-01 1.428581e-01 4.165282e-03 4.322970e-02 -1.985406e-02 1.028427e-01 -1.669779e-01 -1.438775e-02 5.710772e-02 -8.800999e-02
<VARIANCE> 39
 1.084116e+01 1.382174e+01 9.780418e+01 4.764508e+01 1.014600e+02 2.885658e+01 2.269776e+01 6.544418e+01 8.312221e+01 2.171714e+01 4.259395e+01 3.193441e+01 1.760085e+01 5.106615e-01 6.480575e-01 1.824945e+00 1.564172e+00 2.023759e+00 1.998640e+00 1.064076e+00 1.549035e+00 2.358676e+00 1.252653e+00 1.171880e+00 1.064132e+00 4.776154e-01 6.515401e-02 1.379371e-01 3.041590e-01 2.813399e-01 2.694857e-01 4.029156e-01 1.642943e-01 2.409890e-01 6.013901e-01 2.621014e-01 2.195929e-01 3.023304e-01 8.381882e-02
<GCONST> 1.007476e+02
<STATE> 3
<MEAN> 39
 4.015153e+00 6.569679e+00 2.586047e+00 -4.639718e-02 -7.899999e+00 -4.831240e+00 -1.080408e+01 -1.044183e+01 -6.976039e+00 2.720297e-01 -7.611368e+00 -2.156982e+00 5.927767e+01 -4.567726e-01 3.916664e-01 -1.645706e-01 7.224512e-01 1.165062e+00 2.601812e-01 3.948190e-01 1.600414e-01 -5.544126e-03 -9.659308e-01 -1.680531e-03 1.606497e-01 -9.285024e-01 -1.266368e-01 -1.401944e-01 -6.951016e-02 -1.815831e-03 8.469488e-03 2.445541e-02 2.097276e-01 2.926207e-01 -3.185049e-02 6.874651e-02 -1.467772e-03 -3.488407e-02 -1.539389e-02
<VARIANCE> 39
 1.043734e+01 1.447983e+01 2.142421e+01 8.647856e+00 3.579536e+01 3.215688e+01 4.308410e+01 6.487141e+01 5.283149e+01 3.424551e+01 2.010493e+01 2.334724e+01 7.449305e+00 1.972869e-01 7.238672e-01 8.452076e-01 8.618379e-01 1.259958e+00 1.949571e+00 2.687737e+00 1.648259e+00 9.040062e-01 1.303309e+00 1.031946e+00 2.401927e+00 3.094705e-01 4.331929e-02 1.021032e-01 1.966821e-01 9.536815e-02 2.259601e-01 2.355651e-01 3.792910e-01 2.275260e-01 1.828146e-01 2.647837e-01 1.674223e-01 2.343989e-01 3.286188e-02
<GCONST> 8.812249e+01
<STATE> 4
<MEAN> 39
 2.870142e-02 5.217129e+00 2.105610e+00 3.444117e+00 -1.787269e+00 -9.957651e-01 -2.494158e+00 -6.979162e-01 -3.646544e+00 -4.889038e-01 -5.975471e+00 -3.204424e+00 5.518219e+01 -6.611091e-01 -4.180387e-01 -5.092641e-01 3.003746e-01 6.067358e-01 3.300267e-01 9.756162e-01 1.097021e+00 1.568187e-01 -6.169974e-01 2.409352e-01 2.353170e-01 -6.294137e-01 -4.367173e-02 -2.028538e-01 -1.250688e-01 -2.389478e-01 -2.442954e-01 -3.398448e-02 -2.228529e-01 -1.167285e-01 -5.411018e-02 -7.522964e-02 5.948711e-02 1.024680e-02 1.179930e-01
<VARIANCE> 39
 8.684988e+00 1.487603e+01 1.390364e+01 1.158291e+01 2.060558e+01 1.128834e+01 3.438940e+01 6.275389e+01 2.965583e+01 2.355913e+01 1.306845e+01 2.760368e+01 3.871853e+00 4.103944e-01 7.439964e-01 1.283029e+00 9.543412e-01 1.430532e+00 1.578398e+00 2.088520e+00 2.542504e+00 1.897420e+00 1.750651e+00 1.137170e+00 2.215000e+00 2.519065e-01 3.242438e-02 1.214557e-01 2.343264e-01 1.875047e-01 2.556463e-01 4.007891e-01 4.465943e-01 6.287821e-01 2.807446e-01 1.761127e-01 1.929533e-01 5.653997e-01 4.611653e-02
<GCONST> 9.027389e+01
<TRANSP> 5
 0.000000e+00 1.000000e+00 0.000000e+00 0.000000e+00 0.000000e+00
 0.000000e+00 7.715701e-01 2.284299e-01 0.000000e+00 0.000000e+00
 0.000000e+00 0.000000e+00 6.719403e-01 3.280597e-01 0.000000e+00
 0.000000e+00 0.000000e+00 0.000000e+00 7.246822e-01 2.753178e-01
 0.000000e+00 0.000000e+00 0.000000e+00 0.000000e+00 0.000000e+00
<ENDHMM>
~h "c"
<BEGINHMM>
<NUMSTATES> 5
<STATE> 2
<MEAN> 39
 -1.596680e+00 3.540200e+00 1.204634e+01 -9.589734e+00 -1.723281e+01 -9.769979e+00 -1.298587e+01 -1.077863e+01 -7.020915e+00 -1.473678e-01 -8.135298e+00 -2.840605e+00 7.029375e+01 3.358641e-01 2.951825e-01 -3.460426e-03 3.761743e-02 3.837552e-02 2.454462e-01 -7.089122e-02 -3.252622e-01 9.035128e-02 4.704100e-01 -3.525537e-01 -3.191131e-01 -5.616856e-01 -3.251853e-02 2.514526e-02 -3.229505e-01 1.483602e-01 3.139120e-01 4.093041e-02 1.227513e-01 2.234355e-02 9.625197e-02 -1.056025e-01 -4.376032e-02 9.936169e-02 -1.388782e-01
<VARIANCE> 39
 2.550790e+01 1.756523e+01 6.529939e+01 1.391123e+02 5.480444e+01 6.001443e+01 5.117154e+01 4.549332e+01 5.133183e+01 3.575426e+01 7.220958e+01 1.813265e+01 2.126145e+01 1.661799e+00 2.019825e+00 4.430523e+00 6.662683e+00 4.658413e+00 3.615875e+00 2.671432e+00 1.815709e+00 1.714398e+00 3.043695e+00 1.939084e+00 2.327127e+00 1.341123e+00 2.402715e-01 2.607639e-01 7.866617e-01 8.648617e-01 7.408560e-01 8.644402e-01 4.510919e-01 3.795452e-01 3.719485e-01 5.405312e-01 4.090036e-01 3.711266e-01 2.078206e-01
<GCONST> 1.225219e+02
<STATE> 3
<MEAN> 39
 1.000940e+00 3.611495e+00 6.174853e+00 -5.030173e+00 -1.145710e+01 -5.640073e+00 -8.366418e+00 -9.895482e+00 -5.087322e+00 5.905549e-01 -6.514894e+00 -3.268675e+00 6.241904e+01 -2.419461e-02 -3.981027e-01 -7.251055e-01 8.409683e-01 8.467635e-01 6.654977e-01 4.882728e-01 -2.279308e-01 5.714774e-01 -4.959887e-01 3.525513e-01 6.105987e-01 -8.046352e-01 -6.436127e-02 9.010640e-03 -1.142273e-02 1.105164e-01 6.984621e-02 -8.374495e-02 7.898028e-02 2.196103e-01 -1.011517e-01 -1.096359e-01 1.119978e-01 6.090612e-02 1.238043e-02
<VARIANCE> 39
 3.596904e+01 3.762205e+01 4.656504e+01 5.002096e+01 2.036869e+01 7.404094e+01 6.460288e+01 6.870715e+01 4.583162e+01 6.725773e+01 4.898477e+01 2.380243e+01 6.458670e+00 1.348109e+00 1.840813e+00 1.245946e+00 1.315657e+00 2.004817e+00 4.008720e+00 1.859535e+00 3.397293e+00 3.045781e+00 2.926368e+00 2.361134e+00 1.280733e+00 6.906117e-01 2.286422e-01 3.257855e-01 2.650431e-01 3.519853e-01 2.968779e-01 6.757923e-01 4.878971e-01 5.586616e-01 4.668574e-01 6.806358e-01 5.105200e-01 3.577479e-01 1.178117e-01
<GCONST> 1.147114e+02
<STATE> 4
<MEAN> 39
 2.031683e+00 4.189433e+00 3.226081e+00 2.293792e+00 -6.017946e+00 -4.114438e+00 -6.680495e+00 -8.564981e+00 -6.141531e+00 -8.772488e-01 -6.105081e+00 -1.326586e+00 5.904842e+01 -5.647893e-01 -7.303795e-02 -3.246990e-01 8.872719e-01 9.968541e-01 1.551874e-01 6.556202e-01 7.265949e-01 1.629896e-02 -4.237874e-01 3.605358e-01 5.870393e-02 -8.517439e-01 -1.207827e-01 -2.809293e-02 -5.066436e-02 -1.974851e-01 -1.011338e-01 -7.243950e-02 -1.437738e-02 2.301663e-01 7.541027e-02 1.258726e-01 -3.043548e-02 -7.290242e-02 8.620451e-03
<VARIANCE> 39
 1.067256e+01 2.860322e+01 2.190412e+01 1.546976e+01 4.459413e+01 2.161358e+01 4.810339e+01 4.102777e+01 2.961433e+01 3.610082e+01 4.018828e+01 1.588920e+01 6.664315e+00 3.396882e-01 1.428351e+00 1.534814e+00 1.533070e+00 1.089131e+00 2.852614e+00 1.803933e+00 2.047127e+00 1.961207e+00 1.500909e+00 1.987085e+00 1.211128e+00 1.992100e-01 3.562680e-02 1.807543e-01 1.931552e-01 2.000634e-01 2.695276e-01 2.966180e-01 3.140526e-01 2.662871e-01 2.969520e-01 2.097336e-01 4.332124e-01 1.945198e-01 3.109535e-02
<GCONST> 9.390301e+01
<TRANSP> 5
 0.000000e+00 1.000000e+00 0.000000e+00 0.000000e+00 0.000000e+00
 0.000000e+00 8.781203e-01 1.218797e-01 0.000000e+00 0.000000e+00
 0.000000e+00 0.000000e+00 7.862587e-01 2.137413e-01 0.000000e+00
 0.000000e+00 0.000000e+00 0.000000e+00 7.985647e-01 2.014353e-01
 0.000000e+00 0.000000e+00 0.000000e+00 0.000000e+00 0.000000e+00
<ENDHMM>
~h "h"
<BEGINHMM>
<NUMSTATES> 5
<STATE> 2
<MEAN> 39
 -1.697178e+01 3.309367e+00 -5.908919e+00 -7.671701e+00 1.678443e+00 -5.722436e+00 -8.709805e+00 7.129354e+00 -5.941676e+00 -8.802895e-02 -3.300660e+00 4.776176e-01 5.894912e+01 -1.048603e+00 2.711577e-01 1.798713e-01 -6.134155e-01 -4.401538e-02 2.061372e-01 -7.912396e-01 1.859004e-01 -2.404581e-01 -2.015024e-01 -1.177994e-01 2.374330e-01 1.711163e+00 4.097745e-01 -2.983767e-01 2.244668e-02 5.135860e-02 -2.382961e-01 1.008198e-01 -5.028912e-02 -1.295572e-01 1.693630e-01 -4.279179e-02 -4.122581e-02 4.658824e-02 4.727633e-02
<VARIANCE> 39
 6.454670e+01 1.951060e+01 5.123618e+01 3.711588e+01 3.535420e+01 3.167305e+01 4.660331e+01 4.945370e+01 2.182617e+01 2.834138e+01 2.165696e+01 2.807881e+01 2.923534e+01 3.528938e+00 2.210460e+00 1.953438e+00 1.782406e+00 3.690006e+00 3.723099e+00 4.054242e+00 3.563914e+00 2.876617e+00 2.421965e+00 2.023364e+00 2.212789e+00 1.268242e+00 2.690441e-01 3.508705e-01 2.926869e-01 4.033687e-01 5.258896e-01 6.188373e-01 5.687010e-01 4.906365e-01 3.585691e-01 4.178535e-01 3.757237e-01 4.340821e-01 4.517414e-01
<GCONST> 1.182111e+02
<STATE> 3
<MEAN> 39
 -7.095422e+00 -7.267711e-01 -4.859578e+00 -6.610225e+00 -3.266278e+00 -4.674205e+00 -1.427306e+01 1.901307e+00 -3.595862e+00 -8.144308e-01 -4.868688e+00 8.465226e-01 6.310296e+01 3.407337e+00 -6.025053e-01 -2.381115e-02 -9.733851e-01 -3.641329e-01 6.555207e-01 -2.248097e+00 -8.750718e-01 -6.225246e-01 1.808326e-01 -3.556848e-01 -3.348419e-01 2.079461e+00 1.868033e-01 1.848333e-01 -9.076921e-02 -3.827319e-01 -4.191120e-02 2.813848e-01 1.266590e-02 -1.871121e-02 -2.826087e-01 2.869861e-02 1.587657e-01 -7.263816e-02 1.650337e-01
<VARIANCE> 39
 1.128991e+02 4.029856e+01 4.317418e+01 2.832034e+01 4.443469e+01 7.088086e+01 9.296593e+01 5.274498e+01 4.245210e+01 6.433141e+01 3.114719e+01 2.719318e+01 3.569324e+01 6.523588e+00 4.757533e+00 3.582461e+00 7.436228e+00 4.905064e+00 8.484824e+00 7.238794e+00 7.129372e+00 5.904423e+00 6.051501e+00 3.915806e+00 3.643378e+00 7.358916e+00 1.428420e+00 7.336652e-01 5.289702e-01 9.942423e-01 7.185612e-01 9.682311e-01 1.884411e+00 1.031191e+00 9.377664e-01 1.032044e+00 5.272714e-01 7.217230e-01 5.260093e-01
<GCONST> 1.426748e+02
<STATE> 4
<MEAN> 39
 6.048754e+00 -5.917108e+00 -1.098658e+01 -1.925900e+01 -4.964238e+00 9.102936e-01 -1.771002e+01 4.454138e+00 -5.440659e+00 -2.133390e+00 -6.778155e+00 -2.423819e+00 7.417278e+01 7.761065e-02 1.505895e-02 -2.307341e-01 -1.616042e-01 -7.442596e-02 -1.354652e-02 2.084410e-01 2.471863e-01 1.013906e-01 -6.173181e-02 -1.513933e-01 -2.567353e-01 4.663372e-02 -1.602585e-01 4.348661e-02 1.685656e-02 1.930977e-01 1.528834e-03 -1.288927e-01 1.551343e-01 -1.431098e-02 1.087804e-01 -1.524898e-02 2.692386e-02 -3.838682e-03 -2.231667e-01
<VARIANCE> 39
 1.228380e+01 7.060261e+01 2.346919e+01 3.954473e+01 3.778851e+01 1.163159e+02 5.626785e+01 8.524668e+01 5.341758e+01 1.176719e+02 4.972436e+01 5.872630e+01 2.897580e+01 9.131839e-01 2.014932e+00 7.271971e-01 3.156595e+00 1.590484e+00 2.161216e+00 3.180680e+00 2.217256e+00 2.739077e+00 2.437014e+00 2.209853e+00 1.961038e+00 3.214912e+00 1.728065e-01 2.560750e-01 1.149462e-01 4.438487e-01 2.495321e-01 3.309317e-01 5.502266e-01 4.255981e-01 4.141300e-01 3.953583e-01 4.282211e-01 3.092153e-01 3.796891e-01
<GCONST> 1.165540e+02
<TRANSP> 5
 0.000000e+00 1.000000e+00 0.000000e+00 0.000000e+00 0.000000e+00
 0.000000e+00 7.247778e-01 2.752222e-01 0.000000e+00 0.000000e+00
 0.000000e+00 0.000000e+00 7.392061e-01 2.607938e-01 0.000000e+00
 0.000000e+00 0.000000e+00 0.000000e+00 9.364228e-01 6.357730e-02
 0.000000e+00 0.000000e+00 0.000000e+00 0.000000e+00 0.000000e+00
<ENDHMM>
~h "i"
<BEGINHMM>
<NUMSTATES> 5
<STATE> 2
<MEAN> 39
 -3.093407e+00 1.023211e+00 -3.793354e+00 -1.189103e+00 -3.023792e+00 -3.877220e+00 -4.077620e+00 6.731979e-01 -1.883899e+00 -1.940406e+00 -4.624888e+00 -1.101707e+00 5.497166e+01 -6.136841e-01 -2.899643e-01 -7.018005e-01 -2.544357e-01 2.571812e-01 1.231101e-01 1.538598e-01 2.108350e-01 1.581203e-02 5.615065e-02 3.050070e-01 9.627245e-02 -4.615569e-01 -4.363820e-03 5.635651e-03 7.837621e-02 -1.886501e-01 -4.216717e-02 -1.191456e-01 -2.522244e-01 -7.506601e-02 -1.746948e-01 8.270817e-02 -7.375889e-02 -7.127629e-02 2.165096e-01
<VARIANCE> 39
 2.301559e+01 2.736446e+01 3.387648e+01 3.527620e+01 2.368216e+01 2.679273e+01 2.362395e+01 4.259672e+01 2.835066e+01 3.931696e+01 2.815273e+01 2.696705e+01 2.851428e+01 9.510577e-01 1.153947e+00 1.541919e+00 1.963868e+00 2.199899e+00 1.757699e+00 2.148108e+00 3.001918e+00 2.447875e+00 2.830254e+00 1.851414e+00 2.027164e+00 7.864431e-01 1.831477e-01 2.284880e-01 2.515419e-01 4.255424e-01 3.882993e-01 3.600028e-01 4.057260e-01 5.300986e-01 5.431273e-01 4.328636e-01 3.611833e-01 4.437014e-01 1.382280e-01
<GCONST> 1.088393e+02
<STATE> 3
<MEAN> 39
 -4.487756e+00 1.371032e+00 -5.019349e+00 -1.652598e+00 -2.369692e+00 -3.083678e+00 -3.288713e+00 -4.244094e-01 -1.629329e+00 -3.474650e-01 -3.884985e+00 -1.416553e+00 5.373216e+01 -5.686995e-01 -1.548646e-01 -3.259669e-01 -3.161969e-01 1.459805e-01 -4.269517e-02 -6.301744e-02 1.005213e-01 -1.548181e-01 1.119733e-01 -1.319597e-01 -1.681150e-01 -1.026062e-01 9.604526e-02 -7.369643e-02 1.206338e-01 -1.163966e-01 -5.720994e-02 -9.199473e-02 -1.793972e-01 5.733523e-02 -1.109798e-01 -2.055447e-02 -7.996059e-02 -7.991016e-03 2.614490e-01
<VARIANCE> 39
 2.236645e+01 1.568791e+01 2.393929e+01 2.995989e+01 1.968090e+01 2.549712e+01 2.486233e+01 3.861568e+01 3.164673e+01 3.378420e+01 2.176961e+01 1.728526e+01 2.704685e+01 9.778113e-01 1.205505e+00 1.627473e+00 1.645152e+00 1.847306e+00 2.001192e+00 1.974862e+00 2.861636e+00 2.251255e+00 1.847862e+00 1.345498e+00 1.590799e+00 6.606828e-01 2.320741e-01 1.787403e-01 2.290266e-01 3.013156e-01 3.528036e-01 3.972549e-01 4.272545e-01 5.974156e-01 4.952820e-01 3.288501e-01 3.605479e-01 3.382995e-01 1.385410e-01
<GCONST> 1.042796e+02
<STATE> 4
<MEAN> 39
 -6.845478e+00 2.218966e-01 -5.218829e+00 -3.108367e+00 -1.647178e+00 -3.612546e+00 -3.771003e+00 7.910501e-01 -2.072957e+00 -5.397972e-01 -4.283001e+00 -1.334144e+00 5.605563e+01 -1.831014e-01 -2.953241e-01 -1.752823e-01 -4.910053e-01 3.750750e-02 -2.225598e-01 -5.138011e-01 3.767883e-01 -2.930406e-01 3.464738e-02 -1.272314e-01 3.568888e-02 2.959108e-01 3.325478e-01 1.939067e-02 3.325648e-02 -1.045754e-01 -5.366066e-02 8.548584e-03 -2.267644e-01 9.039199e-02 -2.658645e-02 7.292535e-03 -4.017507e-02 -7.756642e-03 3.087664e-01
<VARIANCE> 39
 4.210743e+01 3.461820e+01 2.619997e+01 3.425620e+01 2.893448e+01 2.823405e+01 2.266076e+01 4.707989e+01 3.359859e+01 3.203070e+01 1.661542e+01 2.134999e+01 3.964212e+01 1.876617e+00 1.799490e+00 2.236232e+00 1.720072e+00 1.810669e+00 2.387744e+00 2.499660e+00 3.529305e+00 2.337139e+00 2.220107e+00 1.783772e+00 1.880958e+00 1.280709e+00 3.328865e-01 3.794770e-01 3.606452e-01 3.847648e-01 4.269753e-01 5.464118e-01 5.488617e-01 7.522016e-01 4.957563e-01 4.837123e-01 3.362652e-01 3.733890e-01 4.778176e-01
<GCONST> 1.146564e+02
<TRANSP> 5
 0.000000e+00 1.000000e+00 0.000000e+00 0.000000e+00 0.000000e+00
 0.000000e+00 3.237797e-01 6.762204e-01 0.000000e+00 0.000000e+00
 0.000000e+00 0.000000e+00 3.964772e-01 6.035228e-01 0.000000e+00
 0.000000e+00 0.000000e+00 0.000000e+00 3.413810e-01 6.586190e-01
 0.000000e+00 0.000000e+00 0.000000e+00 0.000000e+00 0.000000e+00
<ENDHMM>
~h "j"
<BEGINHMM>
<NUMSTATES> 5
<STATE> 2
<MEAN> 39
 4.856473e-02 7.512647e+00 9.089646e+00 -4.770923e+00 -1.011553e+01 -8.057892e+00 -9.455263e+00 -5.398110e+00 -1.221353e+01 2.213863e+00 -2.566818e+00 -3.961272e+00 6.512435e+01 5.201848e-01 6.442807e-01 -8.153896e-01 7.423103e-01 7.300354e-01 8.093314e-01 7.888623e-01 -1.057449e+00 4.912991e-01 4.636391e-01 -6.040173e-01 -2.533057e-01 -1.112262e+00 4.285727e-02 -1.822810e-01 -2.449440e-01 4.722068e-02 2.424611e-01 2.085121e-01 -1.151261e-01 2.345255e-02 2.204922e-01 -2.092063e-01 -2.804017e-02 5.518747e-02 9.672860e-03
<VARIANCE> 39
 1.513537e+01 1.546530e+01 2.987163e+01 5.372803e+01 3.449992e+01 3.522926e+01 3.266335e+01 5.216243e+01 7.182149e+01 3.381519e+01 4.771906e+01 3.710254e+01 9.861753e+00 1.541706e+00 1.169835e+00 1.476111e+00 1.870006e+00 4.181660e+00 2.311581e+00 1.305545e+00 2.276282e+00 3.202921e+00 3.793597e+00 2.973779e+00 1.490011e+00 7.129437e-01 2.751283e-01 1.466878e-01 3.032602e-01 4.387141e-01 6.738165e-01 2.887418e-01 2.928885e-01 5.165826e-01 4.634746e-01 4.340946e-01 5.689190e-01 2.826696e-01 1.574623e-01
<GCONST> 1.111983e+02
<STATE> 3
<MEAN> 39
 3.642694e+00 7.072755e+00 2.393824e+00 -2.836527e+00 -9.074695e+00 -6.221882e+00 -1.345519e+01 -1.310055e+01 -8.541050e+00 -4.857545e+00 -9.999564e+00 -4.127406e+00 6.071107e+01 -1.506385e-01 -1.067776e-01 -2.099482e-01 7.296495e-01 5.871718e-01 7.603735e-01 -4.049903e-02 1.133104e-02 3.779825e-01 -6.685014e-01 2.122665e-01 4.544989e-01 -9.384440e-01 -2.260563e-01 -2.784363e-01 1.002179e-01 -1.824959e-01 -2.772053e-02 5.375853e-02 1.092508e-01 4.930351e-01 -1.912860e-02 1.868380e-01 1.838271e-01 3.406127e-02 5.669916e-02
<VARIANCE> 39
 6.067591e+00 2.099443e+01 1.963142e+01 2.798901e+01 2.701022e+01 4.349945e+01 6.063416e+01 7.426083e+01 3.106211e+01 7.275411e+01 4.590790e+01 3.704738e+01 1.042342e+01 7.222297e-01 1.177346e+00 8.640077e-01 1.331713e+00 1.980991e+00 1.536273e+00 1.484221e+00 3.232399e+00 4.229214e+00 2.112709e+00 2.353616e+00 1.873225e+00 4.052778e-01 6.411447e-02 1.220103e-01 1.591671e-01 1.748413e-01 3.849691e-01 4.320858e-01 3.596916e-01 3.437296e-01 5.110293e-01 2.321120e-01 2.450289e-01 3.466188e-01 6.087823e-02
<GCONST> 1.015372e+02
<STATE> 4
<MEAN> 39
 1.984343e+00 4.459767e+00 9.255906e-01 1.703959e+00 -1.840123e+00 -5.219215e-01 -5.604260e+00 -5.307343e+00 -2.728397e+00 2.112020e+00 -1.250803e+00 -1.405222e+00 5.826508e+01 -5.926307e-01 -4.036187e-02 -2.964716e-01 2.630945e-01 7.302888e-01 4.070621e-01 5.137495e-01 6.907251e-01 3.267158e-01 -1.429523e-01 1.959137e-01 -1.336344e-02 -7.677850e-01 -1.715241e-01 -6.345667e-02 -1.518755e-01 -1.075173e-01 -4.286308e-02 -1.469226e-01 7.474843e-02 2.589233e-02 -7.364060e-02 3.352607e-02 -8.560003e-02 -8.937926e-02 -1.845729e-02
<VARIANCE> 39
 8.354519e+00 3.206062e+01 3.282972e+01 2.585338e+01 2.583306e+01 2.448093e+01 4.944944e+01 5.456525e+01 3.226765e+01 3.424600e+01 3.207451e+01 1.782147e+01 9.779793e+00 6.586253e-01 1.582734e+00 1.664141e+00 1.538029e+00 1.163150e+00 2.166351e+00 1.731632e+00 2.391969e+00 1.433583e+00 1.272336e+00 1.824931e+00 1.988306e+00 3.289063e-01 1.107768e-01 2.899158e-01 3.325567e-01 2.768478e-01 2.276889e-01 3.537871e-01 2.343619e-01 3.633760e-01 3.657008e-01 3.083856e-01 3.671938e-01 3.743445e-01 6.086877e-02
<GCONST> 1.003308e+02
<TRANSP> 5
 0.000000e+00 1.000000e+00 0.000000e+00 0.000000e+00 0.000000e+00
 0.000000e+00 7.279959e-01 2.720042e-01 0.000000e+00 0.000000e+00
 0.000000e+00 0.000000e+00 7.243600e-01 2.756400e-01 0.000000e+00
 0.000000e+00 0.000000e+00 0.000000e+00 7.991310e-01 2.008690e-01
 0.000000e+00 0.000000e+00 0.000000e+00 0.000000e+00 0.000000e+00
<ENDHMM>
~h "k"
<BEGINHMM>
<NUMSTATES> 5
<STATE> 2
<MEAN> 39
 4.438323e+00 -8.394732e+00 -9.787022e+00 -1.650157e+01 -6.563125e+00 1.095756e+00 -1.620920e+01 8.989020e+00 -1.431489e+00 6.804142e-01 -1.202510e+01 -4.672697e+00 7.552640e+01 -5.010923e-02 -1.843791e-01 -4.062461e-02 1.166987e-01 1.119324e-01 -1.176351e-01 1.804909e-01 2.680106e-01 3.803741e-02 -1.093695e-01 -3.332218e-01 -2.262764e-03 1.433340e-01 -2.272579e-02 1.585725e-01 6.740306e-02 1.360714e-01 -4.855362e-02 -1.576369e-01 4.921606e-02 -5.160080e-02 -2.242782e-02 3.346056e-05 6.588146e-02 1.093123e-01 -1.561008e-01
<VARIANCE> 39
 1.165738e+01 3.857383e+01 1.958698e+01 4.448053e+01 4.146148e+01 8.908377e+01 6.976104e+01 5.986474e+01 7.485504e+01 1.073341e+02 4.623834e+01 3.574787e+01 2.499461e+01 4.245667e-01 1.468129e+00 9.114208e-01 2.007771e+00 1.891224e+00 2.933283e+00 2.722964e+00 2.286053e+00 2.072879e+00 1.740576e+00 2.136323e+00 1.886466e+00 1.630467e+00 8.081827e-02 2.166708e-01 1.783674e-01 2.842916e-01 2.974505e-01 3.697506e-01 4.533463e-01 3.099895e-01 3.285699e-01 2.288957e-01 3.426585e-01 3.204888e-01 2.311605e-01
<GCONST> 1.101095e+02
<STATE> 3
<MEAN> 39
 2.118797e+00 -3.725241e+00 -4.555820e+00 -1.036981e+01 -1.229985e+01 -1.016010e+01 -9.554826e+00 5.389077e+00 -1.967921e+00 -4.438913e+00 -1.077148e+01 -1.402760e+00 7.019489e+01 -2.002584e-01 1.358642e+00 1.149074e+00 9.567361e-01 -7.062762e-01 -1.294988e-01 5.278994e-01 -1.107331e+00 -2.367461e-01 1.847708e-01 5.351170e-01 5.150251e-01 -1.498889e+00 -8.975792e-02 -5.499865e-03 -5.320536e-02 -8.872911e-02 2.578694e-01 3.080957e-01 -2.164364e-02 -2.330536e-01 2.723574e-03 3.247168e-03 3.151229e-02 -1.818804e-01 2.103838e-02
<VARIANCE> 39
 1.277082e+01 2.424370e+01 5.615868e+01 5.168353e+01 4.459027e+01 5.561604e+01 7.258306e+01 1.151579e+02 5.155902e+01 9.193237e+01 3.852584e+01 3.858150e+01 7.246251e+01 9.901537e-01 1.587387e+00 3.482998e+00 2.837874e+00 2.822893e+00 4.405143e+00 3.787035e+00 6.532776e+00 4.367099e+00 4.100834e+00 3.426098e+00 3.764017e+00 2.285296e+00 1.542700e-01 2.582902e-01 4.327435e-01 4.622457e-01 3.367678e-01 7.494195e-01 7.991811e-01 1.083256e+00 6.846349e-01 5.971251e-01 4.872104e-01 6.306764e-01 3.692909e-01
<GCONST> 1.276009e+02
<STATE> 4
<MEAN> 39
 -2.607161e+00 3.969070e+00 -1.844087e-01 -9.288490e+00 -8.936453e+00 -7.449817e+00 -1.195344e+01 -3.304865e+00 -4.743100e+00 2.003680e+00 -4.386438e+00 -2.047093e-02 6.493292e+01 -2.193306e-01 3.135076e-02 3.574100e-01 3.373540e-02 1.258032e-01 -1.931584e-01 7.746273e-02 -1.172285e-01 -1.916416e-02 2.408762e-02 1.189174e-02 1.926703e-01 1.382300e-01 5.119304e-02 -1.166676e-01 -6.827769e-02 -3.030854e-02 -2.424635e-02 7.613577e-03 -1.312917e-02 1.554589e-01 1.295510e-02 -1.078841e-02 -5.121211e-02 -3.395697e-02 6.774163e-02
<VARIANCE> 39
 7.145930e+01 3.229868e+01 8.598185e+01 4.552628e+01 8.021413e+01 7.299174e+01 6.357076e+01 5.957069e+01 3.364299e+01 4.467093e+01 4.374503e+01 2.107140e+01 5.815381e+01 6.126625e+00 3.909381e+00 5.751037e+00 4.784037e+00 4.856566e+00 5.032630e+00 6.568228e+00 5.084702e+00 3.327286e+00 4.120656e+00 2.607195e+00 2.200113e+00 5.263485e+00 9.953698e-01 7.877972e-01 9.577567e-01 9.037148e-01 8.134627e-01 9.611175e-01 1.116275e+00 9.423038e-01 6.108103e-01 7.744454e-01 4.929146e-01 4.512026e-01 8.387327e-01
<GCONST> 1.390231e+02
<TRANSP> 5
 0.000000e+00 1.000000e+00 0.000000e+00 0.000000e+00 0.000000e+00
 0.000000e+00 9.318584e-01 6.814165e-02 0.000000e+00 0.000000e+00
 0.000000e+00 0.000000e+00 8.118405e-01 1.881595e-01 0.000000e+00
 0.000000e+00 0.000000e+00 0.000000e+00 9.043381e-01 9.566190e-02
 0.000000e+00 0.000000e+00 0.000000e+00 0.000000e+00 0.000000e+00
<ENDHMM>
~h "l"
<BEGINHMM>
<NUMSTATES> 5
<STATE> 2
<MEAN> 39
 -6.612875e+00 -2.386861e+00 -6.139284e+00 -5.519081e+00 -6.046010e+00 -6.826952e+00 -5.281635e+00 4.454989e-01 -1.575833e+00 -2.003439e-01 -5.867394e+00 -6.244725e-02 5.442224e+01 -1.472988e-01 -7.320789e-02 1.858047e-01 3.663289e-01 2.607808e-01 -1.921802e-01 2.619881e-01 1.906558e-01 7.955640e-02 -4.200726e-02 -2.457311e-02 2.298684e-01 7.822110e-02 6.773627e-02 3.002455e-02 2.520159e-03 -4.853617e-03 1.131639e-03 9.841125e-02 4.340603e-02 -2.481210e-02 1.420999e-02 7.413577e-02 3.248637e-02 -3.377032e-02 -2.835050e-02
<VARIANCE> 39
 4.430310e+01 2.894148e+01 2.552581e+01 2.476168e+01 2.717227e+01 3.402143e+01 2.363112e+01 3.896031e+01 4.003192e+01 2.642634e+01 3.292652e+01 2.654386e+01 3.527861e+01 1.660241e+00 1.726954e+00 1.691092e+00 1.150296e+00 2.077197e+00 2.189686e+00 2.272537e+00 3.144042e+00 2.136691e+00 2.309332e+00 1.905024e+00 1.741612e+00 1.321876e+00 3.285823e-01 3.477356e-01 3.481749e-01 2.435929e-01 4.135678e-01 4.565538e-01 4.973658e-01 6.779964e-01 4.064652e-01 4.382710e-01 3.750952e-01 3.748867e-01 2.580319e-01
<GCONST> 1.120795e+02
<STATE> 3
<MEAN> 39
 -4.558250e+00 -3.919652e+00 -3.762723e+00 -3.222058e+00 -7.445075e+00 -8.500546e+00 -5.283055e+00 -7.724825e-01 -3.580411e+00 -1.840729e+00 -2.929253e+00 2.915641e-01 5.552987e+01 3.356618e-02 1.186404e-01 2.553285e-02 1.764321e-01 9.233543e-02 2.645660e-02 1.646324e-01 -6.838530e-03 5.311131e-02 9.968396e-02 2.932116e-02 4.908691e-02 -2.172054e-01 -1.099901e-02 2.644738e-02 -1.942928e-02 -6.421319e-02 1.909607e-02 4.735492e-02 -2.111248e-02 2.973076e-02 1.378070e-02 -9.622544e-03 -1.365884e-02 -1.501830e-02 -6.370980e-03
<VARIANCE> 39
 2.588982e+01 2.176727e+01 1.928688e+01 1.277291e+01 4.757510e+01 5.276915e+01 3.322422e+01 2.912633e+01 2.808143e+01 2.485270e+01 3.359509e+01 3.339832e+01 2.288043e+01 6.379467e-01 9.521347e-01 8.368256e-01 7.358388e-01 1.417088e+00 2.399229e+00 1.685506e+00 1.334385e+00 1.616827e+00 2.292603e+00 1.895076e+00 2.107674e+00 5.984411e-01 1.272100e-01 1.844880e-01 1.547572e-01 1.510360e-01 2.358519e-01 4.568784e-01 3.187518e-01 2.570266e-01 3.393668e-01 4.487168e-01 3.817755e-01 4.313866e-01 1.003120e-01
<GCONST> 9.993184e+01
<STATE> 4
<MEAN> 39
 -5.432137e+00 -8.193744e-01 -5.101672e+00 -1.671210e+00 -2.581491e+00 -4.572307e+00 -3.415671e+00 1.946835e+00 -3.326270e-01 -1.387098e-01 -3.792061e+00 -1.728348e-01 5.039423e+01 1.456104e-02 7.008312e-02 2.527297e-03 1.299006e-02 4.299563e-02 3.797220e-02 -2.308751e-03 -1.985196e-02 -3.256235e-02 -1.397413e-02 -1.100401e-02 -5.726538e-02 -1.000740e-01 -2.499979e-02 -2.453333e-02 -1.881039e-03 -2.437682e-02 1.677404e-02 -2.794839e-02 -4.765460e-02 3.597922e-03 -3.809752e-02 -3.623391e-02 -4.487079e-03 1.342265e-02 4.709169e-02
<VARIANCE> 39
 1.400189e+01 1.089177e+01 1.354343e+01 1.295681e+01 1.297380e+01 1.769650e+01 1.772477e+01 2.353507e+01 2.068672e+01 2.170342e+01 1.942182e+01 1.491240e+01 1.244121e+01 4.969718e-01 4.561905e-01 6.248250e-01 9.210215e-01 1.027077e+00 1.580357e+00 1.624568e+00 1.748478e+00 1.443801e+00 1.826592e+00 1.394622e+00 1.151561e+00 3.137656e-01 9.597842e-02 9.097517e-02 1.147018e-01 1.766543e-01 2.157903e-01 3.067477e-01 3.325818e-01 3.596895e-01 3.048715e-01 3.918776e-01 2.627714e-01 2.384837e-01 5.137701e-02
<GCONST> 8.607285e+01
<TRANSP> 5
 0.000000e+00 1.000000e+00 0.000000e+00 0.000000e+00 0.000000e+00
 0.000000e+00 7.894084e-01 2.105915e-01 0.000000e+00 0.000000e+00
 0.000000e+00 0.000000e+00 7.364811e-01 2.635189e-01 0.000000e+00
 0.000000e+00 0.000000e+00 0.000000e+00 9.136351e-01 8.636495e-02
 0.000000e+00 0.000000e+00 0.000000e+00 0.000000e+00 0.000000e+00
<ENDHMM>
~h "m"
<BEGINHMM>
<NUMSTATES> 5
<STATE> 2
<MEAN> 39
 4.618191e+00 5.622913e+00 2.843115e+00 -1.374661e+00 -9.714344e+00 -4.450099e+00 -1.131407e+01 -7.285056e+00 -6.522153e+00 2.137380e+00 -8.167870e+00 -2.393032e+00 6.228862e+01 -1.141988e-01 -4.977316e-03 -2.705138e-04 8.759583e-01 7.232478e-01 2.495976e-01 7.068304e-01 -5.594772e-01 4.353973e-01 -1.072933e+00 -1.279979e-01 3.222585e-01 -8.200459e-01 -3.532770e-01 -1.359353e-01 1.953877e-01 -3.497097e-01 -1.294004e-01 1.477449e-01 2.414828e-02 4.756614e-01 1.466605e-02 -1.117658e-01 6.898981e-03 -1.532782e-01 1.309118e-01
<VARIANCE> 39
 8.357617e+00 2.202051e+01 5.365710e+01 1.828847e+01 5.224193e+01 4.825220e+01 5.589804e+01 7.116182e+01 6.208356e+01 3.622960e+01 5.570057e+01 3.821479e+01 1.339105e+01 7.272714e-01 1.317448e+00 1.804597e+00 1.355545e+00 1.526015e+00 1.570454e+00 2.426915e+00 2.588239e+00 2.387982e+00 2.022557e+00 1.725363e+00 1.492033e+00 5.004829e-01 1.054700e-01 2.610539e-01 3.343543e-01 1.674058e-01 3.187155e-01 4.059497e-01 3.884236e-01 5.072033e-01 5.392052e-01 4.033512e-01 3.682873e-01 3.272152e-01 9.789474e-02
<GCONST> 1.071596e+02
<STATE> 3
<MEAN> 39
 2.832835e+00 3.861923e+00 3.105701e+00 -1.057623e+00 -5.777242e+00 -5.603657e-01 -7.369535e+00 -6.304790e+00 -3.778108e+00 -2.044693e-02 -5.969017e+00 -4.573851e+00 6.047623e+01 -6.304185e-01 -9.741908e-02 -7.343142e-02 3.759261e-01 5.090757e-01 2.000760e-01 6.554765e-01 4.763595e-01 3.876120e-01 -7.908848e-02 3.284212e-02 2.692425e-01 -7.720097e-01 -7.708095e-02 -7.401100e-02 -1.495532e-01 -1.028366e-01 -5.568399e-02 -1.629845e-01 -6.620777e-02 9.585323e-02 -6.984484e-02 9.273914e-02 5.719270e-02 2.274942e-02 2.688667e-02
<VARIANCE> 39
 7.676600e+00 1.804548e+01 5.221206e+01 1.857386e+01 5.877386e+01 3.999752e+01 2.434077e+01 4.921303e+01 8.109549e+01 3.683429e+01 3.069318e+01 2.927713e+01 1.785974e+01 3.739295e-01 9.294422e-01 9.971415e-01 7.872235e-01 1.210722e+00 1.462649e+00 1.282374e+00 1.355256e+00 1.458569e+00 1.711591e+00 1.404566e+00 1.866782e+00 2.630447e-01 5.015693e-02 1.742146e-01 1.338605e-01 1.333637e-01 2.426574e-01 2.481869e-01 3.678940e-01 3.370247e-01 2.914958e-01 2.825696e-01 3.015596e-01 2.913055e-01 5.409591e-02
<GCONST> 9.488156e+01
<STATE> 4
<MEAN> 39
 -4.056973e+00 1.345400e+00 -1.197694e+00 -3.405786e-01 -1.591511e+00 -1.004759e+00 -1.256795e+00 3.936529e+00 2.804087e-01 -4.360907e-01 -3.718594e+00 -4.685314e-01 5.427022e+01 -2.514797e-01 -2.877564e-01 -3.310286e-01 -6.581783e-02 5.316082e-04 -1.771951e-01 1.155589e-01 1.594821e-01 8.931807e-02 -6.244330e-03 9.907186e-02 -6.089480e-02 -2.773095e-01 4.128313e-02 4.251572e-02 -1.966330e-02 -5.051788e-02 -5.823530e-02 -2.501385e-02 -9.215508e-02 -6.451663e-02 -6.500765e-02 1.936251e-02 8.389666e-03 -4.930438e-03 1.390829e-02
<VARIANCE> 39
 1.343209e+01 1.488120e+01 3.200434e+01 2.157460e+01 3.006150e+01 2.415046e+01 2.681401e+01 4.738622e+01 3.853291e+01 2.459810e+01 2.551340e+01 2.054994e+01 1.342975e+01 5.924085e-01 1.116711e+00 1.632357e+00 1.735528e+00 1.717629e+00 1.789465e+00 1.912063e+00 1.826335e+00 1.927356e+00 1.911463e+00 1.294616e+00 1.389577e+00 1.663870e-01 8.639964e-02 1.427269e-01 2.674580e-01 3.243492e-01 3.070878e-01 2.904226e-01 3.562647e-01 2.718533e-01 3.124783e-01 3.515126e-01 2.714914e-01 3.028388e-01 2.698484e-02
<GCONST> 9.614866e+01
<TRANSP> 5
 0.000000e+00 1.000000e+00 0.000000e+00 0.000000e+00 0.000000e+00
 0.000000e+00 5.431831e-01 4.568169e-01 0.000000e+00 0.000000e+00
 0.000000e+00 0.000000e+00 6.667763e-01 3.332237e-01 0.000000e+00
 0.000000e+00 0.000000e+00 0.000000e+00 8.573320e-01 1.426680e-01
 0.000000e+00 0.000000e+00 0.000000e+00 0.000000e+00 0.000000e+00
<ENDHMM>
~h "n"
<BEGINHMM>
<NUMSTATES> 5
<STATE> 2
<MEAN> 39
 1.370341e+00 5.358267e-01 -8.307993e+00 -1.113932e+01 -4.540660e+00 -5.901748e+00 -1.510734e+01 -4.436346e+00 -4.748368e+00 -9.987473e-01 -5.390940e+00 -1.671427e+00 6.688436e+01 -2.236907e-01 -1.295527e-01 3.891357e-01 -5.101729e-04 6.699717e-02 -2.921644e-01 -2.096442e-01 1.552936e-02 -1.252884e-01 2.757323e-01 -9.472355e-02 2.702504e-02 5.752293e-01 2.928841e-02 1.413773e-02 1.558751e-01 -1.266617e-01 -7.356840e-02 -2.770842e-02 3.168087e-02 -1.373329e-02 -6.868267e-02 1.364841e-02 1.653065e-02 4.292910e-02 4.105708e-02
<VARIANCE> 39
 4.913689e+01 5.078949e+01 3.886864e+01 7.329669e+01 5.656731e+01 7.597645e+01 7.260329e+01 5.023118e+01 7.387616e+01 6.370108e+01 4.962847e+01 3.649483e+01 6.943800e+01 3.905738e+00 3.081172e+00 5.271322e+00 6.738924e+00 4.782011e+00 6.026566e+00 7.195118e+00 4.372182e+00 6.195494e+00 4.976879e+00 3.218648e+00 3.597115e+00 6.021271e+00 6.209956e-01 5.025172e-01 8.015783e-01 1.183584e+00 9.422263e-01 1.113953e+00 1.240248e+00 7.610276e-01 1.140971e+00 9.192500e-01 6.131694e-01 6.263485e-01 9.094917e-01
<GCONST> 1.425304e+02
<STATE> 3
<MEAN> 39
 -9.995166e-01 2.682158e+00 6.133787e+00 -1.136006e+01 -8.453115e+00 -9.003181e+00 -1.306417e+01 -4.383904e+00 -6.951434e+00 3.292716e+00 -5.969512e+00 -1.942907e+00 6.983469e+01 4.018749e-02 1.752028e-01 1.074432e+00 3.868853e-01 -4.481893e-01 -5.262059e-01 -7.328483e-02 -7.476807e-02 -6.214335e-01 -2.823104e-01 5.451189e-01 3.415210e-01 1.798800e-02 1.239822e-01 6.271449e-02 -3.277928e-01 2.715754e-01 -7.486963e-03 1.567619e-01 -9.699213e-03 -1.484316e-01 2.417419e-01 -2.500927e-01 3.397540e-02 -9.206248e-02 -2.016879e-01
<VARIANCE> 39
 4.548490e+01 3.887843e+01 8.687071e+01 9.257822e+01 1.027809e+02 5.752465e+01 3.174685e+01 1.079117e+02 1.696373e+02 2.443180e+01 4.420108e+01 2.672147e+01 2.386388e+01 3.155859e+00 2.018565e+00 5.266981e+00 7.301958e+00 3.619902e+00 3.383013e+00 2.530615e+00 3.320209e+00 4.579034e+00 2.782098e+00 3.023870e+00 2.726971e+00 2.515722e+00 5.211698e-01 3.652054e-01 7.877750e-01 8.112231e-01 7.290078e-01 5.995761e-01 5.447764e-01 7.149625e-01 7.267140e-01 2.750546e-01 5.862314e-01 6.052417e-01 3.750165e-01
<GCONST> 1.317553e+02
<STATE> 4
<MEAN> 39
 -2.405750e+00 -3.308640e+00 4.975340e+00 -1.191683e+01 -1.098856e+01 -8.201254e+00 -7.780732e+00 -5.054884e+00 -2.178417e+00 -6.677495e+00 -4.134706e+00 -2.166872e+00 7.404934e+01 4.757306e-01 1.378870e-01 3.066467e-01 3.272960e-01 -4.843060e-01 2.129304e-01 -6.877104e-02 -5.571497e-01 5.986638e-02 -4.156938e-02 8.896228e-02 -3.077918e-01 -3.752488e-01 5.635041e-02 1.091779e-01 -1.209308e-01 5.023620e-02 1.407130e-01 7.151689e-02 3.283544e-02 7.568017e-03 5.513451e-02 1.976306e-01 -1.805427e-01 -7.627203e-02 -1.676485e-01
<VARIANCE> 39
 1.796500e+01 8.300986e+01 1.386560e+02 8.267105e+01 7.908643e+01 4.145418e+01 6.713724e+01 2.639345e+01 7.174860e+01 8.091383e+01 3.993533e+01 1.753181e+01 3.879808e+01 1.254900e+00 2.325304e+00 2.550037e+00 2.083526e+00 3.684172e+00 2.204362e+00 3.345898e+00 1.563829e+00 2.238189e+00 4.325900e+00 1.249858e+00 2.074722e+00 1.002486e+00 3.189504e-01 2.764873e-01 2.506591e-01 4.012805e-01 4.468926e-01 3.756726e-01 4.410949e-01 2.032144e-01 4.792445e-01 5.849524e-01 3.086256e-01 2.536992e-01 1.246620e-01
<GCONST> 1.176761e+02
<TRANSP> 5
 0.000000e+00 1.000000e+00 0.000000e+00 0.000000e+00 0.000000e+00
 0.000000e+00 9.224490e-01 7.755101e-02 0.000000e+00 0.000000e+00
 0.000000e+00 0.000000e+00 8.145406e-01 1.854594e-01 0.000000e+00
 0.000000e+00 0.000000e+00 0.000000e+00 8.018072e-01 1.981927e-01
 0.000000e+00 0.000000e+00 0.000000e+00 0.000000e+00 0.000000e+00
<ENDHMM>
~h "p"
<BEGINHMM>
<NUMSTATES> 5
<STATE> 2
<MEAN> 39
 -1.635560e+00 2.710429e+00 -7.826260e-01 -1.855397e+00 -5.417662e+00 -4.940364e+00 -5.255399e+00 -2.991709e+00 -5.561363e+00 1.428653e+00 -4.437654e+00 -2.155844e+00 6.133792e+01 -4.668634e-01 -1.807594e-01 -2.278968e-01 7.586503e-01 1.147316e+00 5.144971e-01 7.772888e-01 3.944077e-01 6.327883e-01 -4.764947e-01 -2.433716e-01 2.463297e-01 -4.460494e-01 -5.758154e-02 -2.946302e-02 1.073744e-01 -1.224004e-01 5.051428e-04 1.386583e-01 -7.546086e-02 1.603598e-01 -4.265130e-03 4.453622e-03 -4.560433e-02 -4.096039e-02 5.883427e-02
<VARIANCE> 39
 7.057442e+01 3.247252e+01 5.122562e+01 4.601800e+01 3.781077e+01 5.830784e+01 3.906035e+01 1.034884e+02 4.670597e+01 3.195992e+01 2.228411e+01 3.176300e+01 4.397314e+01 1.260117e+00 1.070235e+00 2.331542e+00 1.358652e+00 2.159810e+00 2.382240e+00 1.749553e+00 3.336077e+00 2.490537e+00 2.159241e+00 2.632671e+00 1.445863e+00 1.131180e+00 1.777060e-01 2.259217e-01 2.872695e-01 3.281162e-01 3.423163e-01 4.630784e-01 3.646715e-01 5.124168e-01 5.081260e-01 3.548257e-01 5.032070e-01 3.220880e-01 1.113763e-01
<GCONST> 1.140093e+02
<STATE> 3
<MEAN> 39
 -4.075162e+00 -1.021972e+00 -2.128837e+00 -3.913561e-01 -3.342599e+00 -2.233060e+00 -3.268409e+00 1.632044e+00 -1.177333e+00 -7.127992e-01 -3.664508e+00 -2.275365e-01 5.683479e+01 -4.084331e-01 -1.679562e-01 -2.294801e-01 2.179764e-01 5.138176e-01 -2.617030e-02 2.167493e-01 2.752198e-01 4.651850e-02 -1.619537e-01 -1.632050e-01 3.021895e-02 -6.707482e-02 1.930578e-02 6.937736e-02 -5.871408e-02 -1.769305e-01 -1.458501e-01 -1.042943e-01 -1.814875e-01 -1.846986e-02 -4.712473e-02 1.742274e-01 8.731283e-02 1.651812e-02 7.883164e-02
<VARIANCE> 39
 2.991519e+01 2.109264e+01 3.231451e+01 3.788254e+01 3.239653e+01 3.820687e+01 2.473039e+01 5.125613e+01 3.199470e+01 4.602350e+01 3.775676e+01 3.070689e+01 4.826854e+01 9.843420e-01 9.969946e-01 1.199029e+00 8.780785e-01 1.470762e+00 1.504079e+00 1.367772e+00 1.803839e+00 2.099014e+00 1.550560e+00 2.009003e+00 1.494500e+00 6.401799e-01 1.136575e-01 1.385155e-01 2.083121e-01 2.201845e-01 3.247631e-01 2.746661e-01 2.819730e-01 3.028204e-01 3.716401e-01 3.477370e-01 3.154247e-01 2.928671e-01 7.867205e-02
<GCONST> 1.022096e+02
<STATE> 4
<MEAN> 39
 -9.024113e+00 -2.281927e+00 -3.379835e+00 -2.437092e+00 -3.110154e+00 -6.448413e+00 -4.071823e+00 1.555924e+00 5.070663e-01 -6.898340e-01 -5.871412e+00 -2.359819e-01 5.826973e+01 8.129235e-02 -4.239516e-02 -2.129894e-01 -2.792743e-01 2.004928e-01 -6.296214e-02 -2.844856e-01 2.617125e-01 7.831721e-02 2.619585e-01 -7.845560e-02 -1.280101e-01 7.723580e-02 1.508979e-01 -5.480693e-02 -2.262593e-02 -1.412527e-01 -1.737389e-01 2.620442e-03 -1.670694e-01 -4.754636e-02 -2.461350e-02 7.704780e-03 1.809322e-02 -5.435708e-02 4.947352e-02
<VARIANCE> 39
 3.436824e+01 2.805010e+01 2.458659e+01 3.085148e+01 3.301049e+01 3.158928e+01 2.450845e+01 5.171559e+01 3.741817e+01 3.024868e+01 2.823655e+01 1.829206e+01 4.909726e+01 1.859953e+00 1.594254e+00 1.701236e+00 1.889424e+00 1.679669e+00 1.601756e+00 2.368110e+00 3.286319e+00 2.592292e+00 2.515508e+00 2.341177e+00 1.651629e+00 2.034193e+00 2.984273e-01 2.724355e-01 3.034946e-01 3.677076e-01 3.888141e-01 3.059143e-01 4.960888e-01 6.103066e-01 5.186395e-01 5.567439e-01 4.172139e-01 3.337419e-01 2.903139e-01
<GCONST> 1.132035e+02
<TRANSP> 5
 0.000000e+00 1.000000e+00 0.000000e+00 0.000000e+00 0.000000e+00
 0.000000e+00 6.009125e-01 3.990876e-01 0.000000e+00 0.000000e+00
 0.000000e+00 0.000000e+00 6.637462e-01 3.362538e-01 0.000000e+00
 0.000000e+00 0.000000e+00 0.000000e+00 7.672244e-01 2.327756e-01
 0.000000e+00 0.000000e+00 0.000000e+00 0.000000e+00 0.000000e+00
<ENDHMM>
~h "r"
<BEGINHMM>
<NUMSTATES> 5
<STATE> 2
<MEAN> 39
 5.472587e+00 5.572409e+00 -1.466488e+00 -1.230159e+01 -1.010060e+01 -6.617931e-02 -1.513859e+01 -2.760082e+00 -9.242311e+00 -2.866302e+00 -1.957555e+00 2.058210e+00 6.732243e+01 -1.628369e-01 -3.690621e-01 -5.876655e-01 -2.871315e-01 5.021505e-01 8.245782e-02 1.452730e-01 6.925523e-01 4.634507e-01 3.422868e-01 -1.235180e-01 -1.672137e-01 2.046595e-01 -8.448686e-02 -2.243745e-01 -9.424949e-02 8.994374e-03 1.537449e-01 -7.177260e-02 -7.602659e-02 1.748230e-02 1.964840e-01 3.199746e-01 -7.266392e-03 -1.896263e-01 9.059235e-02
<VARIANCE> 39
 2.252363e+01 2.434377e+01 5.399555e+01 1.367434e+02 4.206699e+01 8.864286e+01 4.728992e+01 9.255079e+01 6.646825e+01 2.630802e+01 4.167552e+01 3.232511e+01 4.221177e+01 3.680140e-01 1.192925e+00 1.016606e+00 1.400098e+00 1.290938e+00 1.221912e+00 1.641164e+00 2.046166e+00 1.716361e+00 2.670931e+00 1.829355e+00 1.323749e+00 6.746188e-01 5.521517e-02 1.365638e-01 1.496254e-01 2.305525e-01 2.326360e-01 2.443380e-01 2.655801e-01 3.003923e-01 3.116492e-01 2.625586e-01 3.241722e-01 2.375345e-01 4.840688e-02
<GCONST> 1.033789e+02
<STATE> 3
<MEAN> 39
 3.827035e+00 -2.477610e+00 -8.723747e+00 -1.645575e+01 -4.277625e+00 -5.088015e-01 -1.586639e+01 5.688341e+00 -4.942617e+00 6.454970e+00 -5.757843e+00 -3.413123e+00 7.440502e+01 -4.677835e-01 -1.175228e+00 -6.373905e-01 1.477171e-04 6.396642e-01 -1.633052e-01 1.256668e-01 9.437758e-01 1.026080e+00 3.402080e-01 -1.263926e+00 -1.290152e+00 6.717196e-01 2.661055e-02 1.115296e-01 1.123596e-01 8.875279e-02 -1.509411e-01 -9.244442e-02 2.740135e-02 -4.701147e-02 -7.468142e-02 -3.600761e-01 -6.228913e-02 1.118892e-01 -1.091124e-01
<VARIANCE> 39
 1.111976e+01 2.820491e+01 3.594722e+01 1.036633e+02 2.855198e+01 6.976539e+01 5.108876e+01 1.028820e+02 8.511750e+01 6.073655e+01 9.407648e+01 3.449011e+01 5.129510e+01 2.831357e-01 7.396681e-01 1.015150e+00 1.570804e+00 1.567454e+00 2.014006e+00 1.837691e+00 1.438113e+00 1.585850e+00 2.656699e+00 2.767346e+00 2.151862e+00 4.862074e-01 4.129360e-02 9.786219e-02 7.081431e-02 1.457062e-01 1.424171e-01 2.276319e-01 2.626973e-01 2.126707e-01 2.523237e-01 2.101205e-01 4.123726e-01 3.271005e-01 3.627303e-02
<GCONST> 1.012556e+02
<STATE> 4
<MEAN> 39
 4.384403e+00 -8.524357e+00 -1.092215e+01 -1.205695e+01 -5.619759e+00 4.228533e-01 -1.862861e+01 1.069709e+01 2.174783e+00 2.843420e+00 -1.036074e+01 -7.620549e+00 7.731784e+01 -8.367395e-03 -2.138882e-02 1.326217e-02 5.848248e-02 -1.160568e-01 -1.268507e-01 -8.107650e-02 7.586341e-02 1.517083e-01 -1.196261e-01 -1.340207e-01 1.266989e-01 -9.767775e-02 9.079288e-03 9.637642e-02 5.390747e-02 2.743818e-02 -1.674801e-02 -7.358519e-02 -9.155608e-03 -5.374583e-02 -5.459949e-02 3.814395e-02 8.338186e-02 7.879096e-02 -7.646346e-02
<VARIANCE> 39
 7.687932e+00 1.566430e+01 3.129084e+01 4.587459e+01 3.089012e+01 4.129691e+01 4.438735e+01 5.351054e+01 8.830421e+01 2.645890e+01 4.775565e+01 3.839724e+01 2.596795e+01 3.260709e-01 5.464885e-01 6.931002e-01 1.182743e+00 9.774093e-01 1.107729e+00 1.611938e+00 1.976831e+00 1.338755e+00 9.002903e-01 1.211948e+00 1.502933e+00 5.760333e-01 4.829067e-02 9.177527e-02 9.895679e-02 1.687953e-01 1.732029e-01 1.928338e-01 2.844922e-01 3.884525e-01 2.147815e-01 1.430639e-01 2.049822e-01 1.946840e-01 1.212768e-01
<GCONST> 9.281199e+01
<TRANSP> 5
 0.000000e+00 1.000000e+00 0.000000e+00 0.000000e+00 0.000000e+00
 0.000000e+00 8.069178e-01 1.930822e-01 0.000000e+00 0.000000e+00
 0.000000e+00 0.000000e+00 7.360544e-01 2.639456e-01 0.000000e+00
 0.000000e+00 0.000000e+00 0.000000e+00 9.173335e-01 8.266650e-02
 0.000000e+00 0.000000e+00 0.000000e+00 0.000000e+00 0.000000e+00
<ENDHMM>
~h "s"
<BEGINHMM>
<NUMSTATES> 5
<STATE> 2
<MEAN> 39
 -9.536451e+00 -1.343987e+00 -6.031298e+00 -5.058245e+00 -6.446407e+00 -5.843271e+00 -4.504463e+00 -5.628744e-01 -2.144350e+00 -2.555408e-01 -5.034529e+00 -1.489170e+00 5.432959e+01 -1.021363e+00 -4.006571e-02 4.101405e-01 -1.499699e-01 -5.930483e-02 -3.700494e-01 5.741940e-02 3.315945e-01 -7.139114e-02 1.732206e-01 -7.580891e-02 2.936212e-01 1.011872e+00 -3.179124e-02 -3.914612e-02 8.166382e-02 2.780038e-02 1.208910e-01 -4.043562e-02 -9.515409e-02 1.119716e-01 8.275373e-02 2.370394e-02 -7.122663e-02 -5.346432e-02 1.354660e-01
<VARIANCE> 39
 4.765421e+01 1.795649e+01 2.715207e+01 3.846178e+01 2.727174e+01 3.531232e+01 3.223230e+01 3.919543e+01 3.147126e+01 3.274854e+01 2.469290e+01 2.091270e+01 4.127443e+01 3.669615e+00 1.812838e+00 1.866358e+00 3.508179e+00 3.545841e+00 3.693006e+00 2.684593e+00 2.705542e+00 3.440289e+00 2.928794e+00 2.158737e+00 2.355419e+00 2.646404e+00 8.493164e-01 3.753353e-01 4.245099e-01 6.933715e-01 7.047844e-01 7.512277e-01 5.021502e-01 5.117300e-01 6.859517e-01 6.452249e-01 4.212914e-01 4.187230e-01 6.248060e-01
<GCONST> 1.221542e+02
<STATE> 3
<MEAN> 39
 -1.303537e+01 -3.060567e+00 -3.602435e+00 -5.188837e+00 -5.159164e+00 -1.050577e+01 -3.563753e+00 3.174415e+00 -6.399969e-02 -2.814606e-01 -6.150735e+00 5.924790e-01 6.051999e+01 1.270279e-01 -3.695214e-02 -2.763946e-02 1.384157e-01 5.041416e-01 -1.473939e-02 -9.870043e-02 4.352319e-01 7.456917e-02 3.852655e-02 -1.718544e-01 2.232337e-01 -3.312858e-02 3.393946e-01 2.556657e-02 -7.169504e-02 -6.897329e-02 -6.522866e-02 2.209319e-01 -1.691788e-01 -1.140700e-01 -3.055783e-02 -1.991169e-02 -1.123192e-03 -1.052551e-01 -9.544007e-02
<VARIANCE> 39
 4.880751e+01 5.203354e+01 3.398369e+01 2.075408e+01 3.541731e+01 3.563632e+01 3.281358e+01 3.716669e+01 4.588222e+01 2.893890e+01 2.962934e+01 1.802658e+01 2.903875e+01 3.884529e+00 1.947839e+00 1.763629e+00 1.646867e+00 1.940145e+00 3.273490e+00 2.489274e+00 3.012611e+00 2.829368e+00 2.170022e+00 2.152911e+00 9.591082e-01 2.021942e+00 4.922470e-01 3.171709e-01 3.188446e-01 2.889403e-01 4.349132e-01 7.048536e-01 4.811311e-01 5.296081e-01 5.075964e-01 4.573614e-01 4.337219e-01 2.285717e-01 3.292811e-01
<GCONST> 1.156865e+02
<STATE> 4
<MEAN> 39
 -6.631108e+00 -1.735102e+00 -5.303229e+00 -2.036880e+00 -2.616891e+00 -4.859292e+00 -3.285129e+00 1.152197e+00 -1.141855e+00 6.411895e-01 -3.776602e+00 -1.255709e+00 5.245380e+01 1.977529e-01 1.335733e-01 -1.437389e-02 -8.055780e-02 1.043105e-01 1.729447e-01 -1.542874e-01 -3.757109e-02 -2.041526e-02 5.697660e-03 -2.469784e-02 -1.643914e-01 -2.424992e-02 -2.089088e-02 -1.629170e-02 6.613977e-02 -6.486423e-02 5.415028e-03 -5.344920e-02 -6.245401e-02 5.478190e-02 -3.632537e-02 5.191157e-03 -5.577076e-03 -1.741958e-02 1.325763e-01
<VARIANCE> 39
 1.907644e+01 1.602927e+01 1.749427e+01 1.497968e+01 1.600095e+01 2.203851e+01 2.611779e+01 3.147417e+01 2.833519e+01 2.163133e+01 2.241621e+01 1.815557e+01 2.680891e+01 1.151428e+00 7.597940e-01 1.031004e+00 1.073802e+00 1.192692e+00 2.098042e+00 2.264412e+00 2.201241e+00 1.989646e+00 1.946429e+00 1.840060e+00 1.505783e+00 8.528184e-01 2.216715e-01 1.489034e-01 1.729858e-01 2.301619e-01 2.456522e-01 3.905283e-01 4.100317e-01 4.126682e-01 3.988236e-01 4.032798e-01 3.820216e-01 3.090791e-01 1.699762e-01
<GCONST> 9.947589e+01
<TRANSP> 5
 0.000000e+00 1.000000e+00 0.000000e+00 0.000000e+00 0.000000e+00
 0.000000e+00 7.474465e-01 2.525535e-01 0.000000e+00 0.000000e+00
 0.000000e+00 0.000000e+00 7.406924e-01 2.593076e-01 0.000000e+00
 0.000000e+00 0.000000e+00 0.000000e+00 8.901780e-01 1.098220e-01
 0.000000e+00 0.000000e+00 0.000000e+00 0.000000e+00 0.000000e+00
<ENDHMM>
~h "t"
<BEGINHMM>
<NUMSTATES> 5
<STATE> 2
<MEAN> 39
 -3.420100e-01 -1.161889e+00 -9.858899e+00 -1.240839e+01 -5.188726e+00 -3.638635e+00 -1.017438e+01 2.336297e+00 -3.450117e+00 -1.198832e+00 -5.809688e+00 -2.524576e+00 6.724904e+01 1.167026e+00 -1.093939e+00 -5.410204e-01 -1.281407e+00 -1.890970e-01 5.327032e-01 -1.463041e+00 4.437984e-01 -1.647046e-01 4.620023e-01 -2.923012e-01 -3.630633e-01 2.012847e+00 -1.446970e-02 -1.558781e-01 -1.726729e-02 -1.380797e-01 7.566356e-03 1.119351e-01 -7.441781e-02 1.647794e-01 8.481823e-02 1.009620e-01 -1.162127e-01 -1.714402e-01 1.403707e-01
<VARIANCE> 39
 7.823422e+01 4.096153e+01 2.862950e+01 6.017561e+01 3.342562e+01 6.131107e+01 6.598206e+01 6.377737e+01 6.000358e+01 7.058627e+01 3.826389e+01 4.898358e+01 7.583106e+01 6.208646e+00 3.741163e+00 2.167222e+00 6.043249e+00 3.106292e+00 5.145260e+00 5.877083e+00 5.055295e+00 3.949124e+00 4.487723e+00 3.694115e+00 3.142078e+00 7.396482e+00 1.048218e+00 5.088778e-01 3.661299e-01 1.136186e+00 5.278994e-01 8.763376e-01 1.082417e+00 7.660728e-01 7.034076e-01 6.750347e-01 6.035168e-01 5.434896e-01 1.033538e+00
<GCONST> 1.383050e+02
<STATE> 3
<MEAN> 39
 2.434932e+00 -1.003535e+01 -1.108706e+01 -1.604270e+01 -4.918792e+00 -3.081537e+00 -1.350561e+01 9.397283e+00 -3.184926e+00 -1.126454e+00 -1.124032e+01 -5.364205e+00 7.710004e+01 -8.440125e-02 -7.057561e-02 3.451291e-01 2.522508e-01 -2.389989e-01 -3.571489e-01 -2.008914e-02 4.664553e-01 1.003132e-01 -1.022544e-01 -1.659784e-01 9.214904e-02 2.995193e-02 -2.108557e-02 2.632980e-01 1.630379e-01 1.792372e-01 -9.061570e-02 -1.337834e-01 9.842116e-02 -1.788274e-01 -8.088896e-02 -7.114607e-03 1.561318e-01 1.557921e-01 -2.673400e-01
<VARIANCE> 39
 1.363770e+01 2.544177e+01 2.910711e+01 4.328437e+01 4.910692e+01 8.173337e+01 6.256543e+01 1.025677e+02 6.967961e+01 1.150513e+02 4.998988e+01 5.009024e+01 3.404535e+01 5.818042e-01 2.016079e+00 1.590780e+00 2.210533e+00 2.414486e+00 3.135364e+00 2.530407e+00 3.329695e+00 2.878409e+00 2.361202e+00 2.306823e+00 2.286084e+00 2.187590e+00 1.059778e-01 2.511641e-01 1.936528e-01 3.577227e-01 3.447253e-01 4.452941e-01 4.876247e-01 5.000464e-01 5.164426e-01 4.199393e-01 4.056805e-01 3.396477e-01 3.309578e-01
<GCONST> 1.178091e+02
<STATE> 4
<MEAN> 39
 1.333734e+00 7.898676e-01 -8.060312e-02 -1.189805e+01 -1.067279e+01 -6.849353e+00 -1.628651e+01 5.132782e+00 -8.135872e+00 1.882715e+00 -4.215445e+00 -2.121803e+00 7.026553e+01 1.496053e-01 7.834678e-01 2.447887e-01 5.153037e-01 3.562104e-02 -9.079795e-02 4.715725e-01 -7.756829e-01 9.163859e-02 -1.642872e-01 1.705870e-01 -4.891817e-02 -9.398586e-01 -2.716497e-02 -1.048200e-01 -2.359996e-01 -3.557345e-02 1.814155e-01 1.172026e-01 1.007741e-01 3.223725e-02 1.809212e-01 -6.246337e-02 -1.164966e-01 -1.370421e-01 -4.995317e-02
<VARIANCE> 39
 2.313736e+01 3.867389e+01 6.930582e+01 5.394558e+01 7.693716e+01 8.233970e+01 5.667236e+01 1.287660e+02 9.458997e+01 5.107213e+01 6.933001e+01 2.060307e+01 4.910329e+01 1.614288e+00 2.362770e+00 3.735772e+00 3.106565e+00 4.014219e+00 3.423521e+00 4.343726e+00 5.448195e+00 5.411489e+00 3.024526e+00 3.511243e+00 2.314333e+00 3.819609e+00 2.726911e-01 2.738758e-01 3.710838e-01 5.352766e-01 6.452972e-01 5.687544e-01 7.740112e-01 8.548041e-01 7.411552e-01 5.271855e-01 5.186861e-01 4.440368e-01 3.887766e-01
<GCONST> 1.308167e+02
<TRANSP> 5
 0.000000e+00 1.000000e+00 0.000000e+00 0.000000e+00 0.000000e+00
 0.000000e+00 8.333082e-01 1.666919e-01 0.000000e+00 0.000000e+00
 0.000000e+00 0.000000e+00 9.119367e-01 8.806328e-02 0.000000e+00
 0.000000e+00 0.000000e+00 0.000000e+00 8.735986e-01 1.264014e-01
 0.000000e+00 0.000000e+00 0.000000e+00 0.000000e+00 0.000000e+00
<ENDHMM>
~h "u"
<BEGINHMM>
<NUMSTATES> 5
<STATE> 2
<MEAN> 39
 1.499275e-01 -2.709075e+00 -8.076279e+00 -1.039309e+01 -5.423782e+00 -6.413981e+00 -9.103818e+00 1.611618e+00 6.969967e-02 -2.329301e+00 -7.829712e+00 -4.642377e+00 6.429717e+01 -1.134796e-01 -2.820244e-01 -5.671915e-02 -4.956672e-01 4.494478e-01 -7.895286e-02 -2.851544e-01 1.571368e-01 -4.619376e-02 7.592613e-02 -1.572724e-01 -1.756563e-01 6.294427e-01 -8.377086e-02 -1.195023e-02 1.000775e-01 -1.515965e-02 -3.703603e-02 -7.791214e-02 -1.533057e-01 -5.236422e-02 -1.208891e-01 6.340161e-02 1.141247e-01 7.235365e-02 2.432187e-01
<VARIANCE> 39
 3.501015e+01 3.339767e+01 4.991883e+01 4.356342e+01 3.633645e+01 5.563863e+01 5.077294e+01 6.110022e+01 6.863219e+01 6.852158e+01 3.354148e+01 3.390786e+01 9.242505e+01 3.595495e+00 2.035682e+00 2.918130e+00 3.763624e+00 2.613326e+00 3.818310e+00 5.780274e+00 4.182837e+00 3.942864e+00 4.377839e+00 3.050337e+00 3.214606e+00 8.239941e+00 5.343946e-01 3.263780e-01 3.908537e-01 5.736046e-01 3.859435e-01 6.494529e-01 9.499030e-01 7.085122e-01 7.188547e-01 8.332883e-01 5.494689e-01 5.703816e-01 1.110598e+00
<GCONST> 1.326203e+02
<STATE> 3
<MEAN> 39
 -1.758700e+00 -1.593771e+00 -4.815300e+00 -1.122498e+01 -1.648542e+00 -5.698538e+00 -1.265090e+01 5.722379e+00 -3.718150e+00 -2.573110e-01 -8.367830e+00 -3.308356e+00 6.837682e+01 -2.904484e-01 7.244829e-01 3.665900e-01 4.579666e-01 -1.097150e-01 -4.292889e-01 -4.436633e-01 -4.589247e-01 -3.427060e-01 -1.295419e-01 8.724895e-01 2.154779e-01 2.461058e-01 1.331617e-01 1.609780e-01 6.427862e-02 2.298719e-01 -5.016441e-01 6.196108e-02 2.207805e-01 -2.924947e-01 -2.212361e-02 2.002902e-04 2.618834e-01 4.667906e-02 -2.160097e-01
<VARIANCE> 39
 1.037664e+02 4.795560e+01 4.835588e+01 5.437898e+01 3.552200e+01 1.111988e+02 5.094264e+01 8.585241e+01 7.297022e+01 5.507531e+01 5.805807e+01 3.289095e+01 4.334299e+01 4.157527e+00 1.836389e+00 2.089604e+00 2.242168e+00 3.098470e+00 3.369439e+00 4.364847e+00 3.494077e+00 4.240060e+00 3.437193e+00 2.705552e+00 2.173483e+00 4.060218e+00 7.069440e-01 4.710319e-01 4.596531e-01 6.697218e-01 5.660256e-01 6.094027e-01 9.541006e-01 6.750135e-01 7.106775e-01 5.585757e-01 5.866724e-01 4.042283e-01 3.733642e-01
<GCONST> 1.317207e+02
<STATE> 4
<MEAN> 39
 -4.231239e+00 3.328418e+00 -2.146557e+00 -8.936242e+00 -6.140442e+00 -6.921642e+00 -1.267021e+01 1.241987e+00 -5.535892e+00 1.207066e+00 -2.912382e+00 -1.174955e+00 6.688867e+01 8.868966e-01 6.576001e-02 2.331016e-01 -8.852599e-02 -6.067296e-01 3.317429e-01 -4.088274e-01 -5.498323e-01 -3.983774e-01 3.193003e-01 1.383158e-01 3.844674e-02 2.999411e-01 9.452503e-02 -6.919841e-02 -3.562463e-02 -1.737425e-01 -1.102665e-02 1.315422e-01 4.294135e-02 7.976487e-02 -2.735028e-02 -2.954741e-02 -9.968256e-02 -1.141573e-02 -2.515173e-02
<VARIANCE> 39
 1.395387e+02 3.868543e+01 6.011064e+01 4.813899e+01 6.783426e+01 8.831284e+01 5.983580e+01 8.051193e+01 7.104456e+01 5.057005e+01 4.938660e+01 2.708493e+01 2.350666e+01 9.606897e+00 3.364042e+00 3.746564e+00 5.654775e+00 5.072130e+00 5.824218e+00 6.304008e+00 4.901817e+00 5.066740e+00 4.293526e+00 3.761345e+00 2.500394e+00 2.692369e+00 1.157838e+00 5.331878e-01 5.164123e-01 8.856804e-01 8.750961e-01 9.530494e-01 1.028400e+00 7.968466e-01 8.705338e-01 8.186998e-01 7.245774e-01 5.056800e-01 3.286824e-01
<GCONST> 1.395183e+02
<TRANSP> 5
 0.000000e+00 1.000000e+00 0.000000e+00 0.000000e+00 0.000000e+00
 0.000000e+00 7.944749e-01 2.055251e-01 0.000000e+00 0.000000e+00
 0.000000e+00 0.000000e+00 5.314799e-01 4.685201e-01 0.000000e+00
 0.000000e+00 0.000000e+00 0.000000e+00 8.377900e-01 1.622101e-01
 0.000000e+00 0.000000e+00 0.000000e+00 0.000000e+00 0.000000e+00
<ENDHMM>
~h "y"
<BEGINHMM>
<NUMSTATES> 5
<STATE> 2
<MEAN> 39
 -4.866714e+00 3.834140e+00 1.637774e+00 -7.586094e+00 -7.833352e+00 -6.021528e+00 -1.258121e+01 -2.548245e+00 -5.813930e+00 3.222637e-01 -2.970564e+00 -9.279017e-01 6.484190e+01 9.893269e-02 1.729006e-02 1.789217e+00 3.292690e-02 -1.286552e+00 1.802311e-02 -3.357139e-01 -2.434470e-01 -9.135543e-01 1.292084e-01 2.348823e-01 1.521406e-01 9.536175e-01 1.006921e-01 1.122946e-02 5.809060e-02 -1.176914e-01 -1.862011e-01 1.351865e-01 -1.351049e-01 -6.188663e-02 2.971235e-02 2.471787e-02 -1.032415e-01 -1.322367e-01 -9.359173e-03
<VARIANCE> 39
 8.047295e+01 2.579393e+01 9.729897e+01 4.688536e+01 7.237547e+01 3.753923e+01 5.701733e+01 5.376947e+01 3.813705e+01 3.516616e+01 1.604177e+01 1.545217e+01 4.661929e+01 8.005713e+00 2.450023e+00 8.521938e+00 4.403305e+00 8.488039e+00 3.331311e+00 5.529523e+00 2.818215e+00 4.578864e+00 3.867862e+00 2.052502e+00 2.026239e+00 3.853772e+00 1.276106e+00 4.613107e-01 1.518733e+00 7.512257e-01 1.451660e+00 5.848261e-01 9.262612e-01 4.836173e-01 8.311411e-01 6.782156e-01 3.951575e-01 4.481709e-01 6.249554e-01
<GCONST> 1.344310e+02
<STATE> 3
<MEAN> 39
 -1.977397e+00 5.777520e+00 1.449558e+01 -8.979793e+00 -1.875080e+01 -4.063314e+00 -1.464791e+01 -9.970019e-01 -1.377266e+01 1.473078e+00 -2.990892e+00 -2.599020e+00 7.038077e+01 -1.204205e-01 4.470985e-01 5.538611e-02 -4.304852e-01 1.411413e-01 9.204149e-01 2.955106e-01 -1.180535e-01 1.406382e-01 8.247690e-01 -4.858674e-01 -4.413120e-01 -3.745506e-01 -1.130046e-01 -3.342523e-02 -4.923197e-01 2.027370e-01 5.730665e-01 -2.101479e-01 3.840849e-01 5.869598e-02 4.126080e-01 -6.313324e-03 -1.221289e-01 1.022787e-01 -1.975166e-01
<VARIANCE> 39
 1.012068e+01 1.425180e+01 3.300112e+01 7.334410e+01 4.320652e+01 5.310826e+01 3.701982e+01 6.148545e+01 5.280586e+01 3.958724e+01 4.103736e+01 2.583945e+01 1.667616e+01 3.642423e-01 8.717713e-01 1.408357e+00 9.124483e-01 2.455023e+00 2.055889e+00 2.639265e+00 1.443037e+00 2.047596e+00 1.824982e+00 1.560172e+00 1.295158e+00 3.176525e-01 1.556442e-01 1.821665e-01 3.290673e-01 2.260386e-01 7.490180e-01 4.294879e-01 4.441322e-01 2.941692e-01 3.939355e-01 4.975467e-01 4.384696e-01 2.565730e-01 1.064613e-01
<GCONST> 1.048837e+02
<STATE> 4
<MEAN> 39
 -1.162183e+00 6.295752e+00 1.814093e+01 -8.559145e+00 -2.180840e+01 -4.263720e-01 -1.395959e+01 -6.888799e+00 -2.576139e+00 -1.638660e-01 -3.922964e+00 -2.971305e+00 6.780548e+01 1.025234e-01 2.554779e-01 -6.352786e-01 2.016879e-01 8.591589e-01 -1.131648e-01 2.907283e-01 -3.599592e-02 5.030404e-01 1.607403e-01 -3.686344e-01 1.384678e-01 -3.889731e-01 5.027843e-02 -3.984141e-02 -8.729734e-02 1.060776e-01 1.302965e-01 -6.043652e-02 1.029139e-01 6.008926e-02 -6.479494e-02 -1.695742e-02 -3.706247e-02 1.041992e-01 -7.581231e-02
<VARIANCE> 39
 1.065015e+01 1.276497e+01 5.126583e+01 2.569711e+01 4.846319e+01 2.811447e+01 1.816122e+01 5.463823e+01 5.641453e+01 2.642083e+01 2.443592e+01 8.668947e+00 1.275961e+01 2.445723e-01 5.042261e-01 9.097482e-01 8.098667e-01 1.818112e+00 1.171187e+00 1.188290e+00 1.356689e+00 3.173279e+00 1.296571e+00 1.341104e+00 1.080210e+00 4.318674e-01 5.832383e-02 1.055274e-01 1.311399e-01 1.177478e-01 3.379151e-01 3.021636e-01 1.622230e-01 2.556034e-01 6.075149e-01 2.279667e-01 2.101943e-01 1.590936e-01 6.014671e-02
<GCONST> 8.996763e+01
<TRANSP> 5
 0.000000e+00 1.000000e+00 0.000000e+00 0.000000e+00 0.000000e+00
 0.000000e+00 8.900511e-01 1.099489e-01 0.000000e+00 0.000000e+00
 0.000000e+00 0.000000e+00 7.664005e-01 2.335996e-01 0.000000e+00
 0.000000e+00 0.000000e+00 0.000000e+00 7.768688e-01 2.231312e-01
 0.000000e+00 0.000000e+00 0.000000e+00 0.000000e+00 0.000000e+00
<ENDHMM>
~h "ng"
<BEGINHMM>
<NUMSTATES> 5
<STATE> 2
<MEAN> 39
 -2.833807e+00 2.007349e+00 -2.136702e+00 -2.747667e-01 -7.378150e-01 -2.395131e+00 -2.700082e+00 2.710646e+00 7.086935e-01 -2.008123e+00 -3.509525e+00 -1.130830e+00 5.383300e+01 -8.887032e-02 -5.325271e-02 -1.089584e-01 -1.298109e-01 1.432440e-02 -6.453922e-02 1.301312e-01 1.705728e-01 1.810040e-01 8.282022e-02 7.974078e-02 3.056783e-02 -1.318909e-01 -6.489246e-04 -4.544139e-03 -1.551373e-03 -1.261169e-02 -1.949919e-02 -5.626000e-03 -3.643735e-03 -3.450990e-02 -2.426141e-02 -1.007942e-04 -1.158485e-02 -2.643582e-03 8.803247e-04
<VARIANCE> 39
 5.253585e+00 2.840042e+01 3.436914e+01 3.753401e+01 2.698750e+01 2.036728e+01 3.140756e+01 3.104325e+01 3.076004e+01 2.724709e+01 2.045230e+01 1.694786e+01 6.170910e+00 3.206238e-01 7.176437e-01 8.908923e-01 1.092769e+00 1.121057e+00 1.285928e+00 1.583151e+00 2.035833e+00 1.838056e+00 1.587507e+00 1.423872e+00 1.245971e+00 1.632585e-01 5.032893e-02 1.063960e-01 1.673956e-01 2.028880e-01 2.011404e-01 2.404988e-01 3.151608e-01 4.007960e-01 3.570625e-01 3.088451e-01 2.798185e-01 2.540366e-01 1.993991e-02
<GCONST> 8.883395e+01
<STATE> 3
<MEAN> 39
 -5.480906e+00 9.287570e-01 -4.442170e+00 -1.491617e+00 -1.230535e+00 -3.062249e+00 -2.922591e+00 9.289777e-01 -1.460835e+00 -2.300002e-01 -3.563375e+00 -1.540216e+00 5.157792e+01 -7.327973e-02 -5.900800e-02 -1.115102e-01 -8.215722e-02 -5.672950e-02 4.957462e-03 1.358016e-01 1.258581e-01 9.862061e-02 1.358701e-01 7.084636e-02 -4.543380e-02 -2.216692e-01 3.017627e-02 2.080341e-02 2.328382e-02 1.854903e-02 -1.741536e-02 3.695767e-05 -3.489267e-02 -2.578502e-02 -2.696799e-03 -2.959507e-02 -9.952819e-03 -6.439094e-05 1.218192e-02
<VARIANCE> 39
 6.278986e+00 7.143103e+00 1.062329e+01 1.319404e+01 1.471610e+01 1.967546e+01 1.889809e+01 2.942468e+01 2.591625e+01 2.895260e+01 2.065330e+01 1.576696e+01 4.224664e+00 2.072587e-01 4.098661e-01 5.738901e-01 1.115559e+00 1.215051e+00 1.461475e+00 1.543772e+00 1.613450e+00 1.611246e+00 1.725649e+00 1.858081e+00 1.346525e+00 1.124825e-01 3.379265e-02 6.669555e-02 1.085220e-01 2.307004e-01 2.328440e-01 3.028195e-01 3.016244e-01 2.811441e-01 2.911083e-01 3.674026e-01 3.765761e-01 2.553582e-01 1.702003e-02
<GCONST> 8.103726e+01
<STATE> 4
<MEAN> 39
 -4.995870e+00 8.598673e-01 -5.538025e+00 -1.926327e+00 -3.375326e+00 -3.327739e+00 -3.067088e+00 2.762044e-01 1.259420e-01 5.913556e-02 -3.303867e+00 -2.481659e+00 4.786185e+01 -9.709110e-03 -1.347020e-02 -9.482571e-03 -8.866979e-03 -2.811079e-02 -2.822860e-02 -3.940475e-02 -2.230910e-02 3.818346e-03 -6.318046e-05 1.419402e-02 1.299528e-02 -4.897100e-02 -7.049794e-03 -3.839331e-05 4.823939e-03 -1.594541e-03 6.775517e-03 -4.883679e-03 5.054450e-03 2.047564e-03 -5.971796e-03 1.929408e-03 -3.903010e-04 6.971091e-03 1.490001e-02
<VARIANCE> 39
 2.265203e+00 3.938560e+00 5.922961e+00 8.176559e+00 1.092982e+01 1.296489e+01 1.342951e+01 1.848866e+01 1.836569e+01 1.518736e+01 1.215499e+01 1.233065e+01 2.264747e+00 1.569596e-01 2.867903e-01 4.494224e-01 5.951279e-01 9.115362e-01 1.049670e+00 1.173715e+00 1.265214e+00 1.384052e+00 1.208838e+00 1.261358e+00 1.108035e+00 7.079295e-02 3.052561e-02 5.597172e-02 9.012692e-02 1.176470e-01 1.946638e-01 2.134998e-01 2.388073e-01 2.702450e-01 2.919234e-01 2.332288e-01 2.516031e-01 2.189000e-01 1.493832e-02
<GCONST> 6.717589e+01
<TRANSP> 5
 0.000000e+00 1.000000e+00 0.000000e+00 0.000000e+00 0.000000e+00
 0.000000e+00 9.066626e-01 9.333740e-02 0.000000e+00 0.000000e+00
 0.000000e+00 0.000000e+00 8.953462e-01 1.046537e-01 0.000000e+00
 0.000000e+00 0.000000e+00 0.000000e+00 9.671804e-01 3.281967e-02
 0.000000e+00 0.000000e+00 0.000000e+00 0.000000e+00 0.000000e+00
<ENDHMM>
~h "sp"
<BEGINHMM>
<NUMSTATES> 5
<STATE> 2
~s "silst"
<STATE> 3
<MEAN> 39
 -7.457654e+00 -2.529731e+00 -7.607254e+00 -5.241555e+00 -6.779557e+00 -6.542233e+00 -5.694964e+00 -1.349930e+00 -2.082966e+00 -1.169000e+00 -3.747846e+00 -2.513400e+00 5.093218e+01 1.333272e-02 -5.028017e-03 -3.926798e-02 6.945357e-03 5.975111e-02 -6.961671e-02 6.457734e-02 8.806221e-02 1.818398e-02 -2.912949e-02 3.086022e-02 4.880659e-02 1.972518e-01 1.358227e-01 6.053087e-02 1.365860e-01 1.247007e-01 1.135408e-01 1.707906e-01 1.374608e-01 4.841924e-02 6.878218e-02 5.112633e-02 9.118529e-02 5.281867e-02 -7.435931e-01
<VARIANCE> 39
 1.516795e+01 1.645809e+01 2.346729e+01 1.909503e+01 2.590514e+01 2.564197e+01 2.613949e+01 2.816462e+01 2.585930e+01 2.050548e+01 1.846730e+01 1.621387e+01 1.955103e+01 1.133706e+00 1.201367e+00 1.308169e+00 1.213306e+00 1.692080e+00 1.793051e+00 2.136396e+00 2.302758e+00 1.809462e+00 1.986184e+00 1.968765e+00 1.662259e+00 2.051138e+00 2.601549e-01 2.508241e-01 3.166436e-01 2.587784e-01 3.880281e-01 4.055690e-01 4.534966e-01 4.345586e-01 3.647532e-01 4.066418e-01 4.258422e-01 3.450076e-01 1.922500e+00
<GCONST> 1.061308e+02
<STATE> 4
<MEAN> 39
 -5.475465e+00 -9.223943e-01 -6.590308e+00 -2.850350e+00 -4.071672e+00 -4.296073e+00 -3.526839e+00 6.354491e-01 -3.762634e-01 -3.247734e-01 -2.961790e+00 -1.337453e+00 4.871913e+01 4.611247e-03 2.047409e-02 2.256028e-02 2.796756e-02 3.025909e-02 4.820358e-02 4.175745e-02 3.000948e-02 2.197949e-02 2.956668e-02 1.312098e-02 2.074052e-02 -6.108089e-02 -6.506591e-03 8.680493e-04 3.085585e-03 -6.027904e-04 2.125104e-03 -3.468937e-03 -7.501533e-03 -4.503662e-03 -9.510349e-03 -9.205742e-04 -1.024386e-02 -1.209204e-03 -3.523498e-04
<VARIANCE> 39
 4.681748e+00 9.280224e+00 1.089023e+01 1.176013e+01 1.448064e+01 1.619417e+01 1.723422e+01 2.180288e+01 2.205657e+01 1.879972e+01 1.695538e+01 1.493280e+01 5.165387e+00 2.761937e-01 3.983047e-01 6.141123e-01 7.959658e-01 1.026748e+00 1.142330e+00 1.326936e+00 1.428426e+00 1.436939e+00 1.454206e+00 1.431509e+00 1.209885e+00 1.993174e-01 5.629102e-02 7.631971e-02 1.199031e-01 1.558469e-01 2.084440e-01 2.250196e-01 2.609870e-01 2.828347e-01 2.883235e-01 2.950255e-01 2.883702e-01 2.459916e-01 3.586220e-02
<GCONST> 7.890641e+01
<TRANSP> 5
 0.000000e+00 7.000000e-01 3.000000e-01 0.000000e+00 0.000000e+00
 0.000000e+00 5.520314e-01 4.479686e-01 0.000000e+00 0.000000e+00
 0.000000e+00 0.000000e+00 7.788119e-01 2.211881e-01 0.000000e+00
 0.000000e+00 0.000000e+00 0.000000e+00 9.739668e-01 2.603317e-02
 0.000000e+00 0.000000e+00 0.000000e+00 0.000000e+00 0.000000e+00
<ENDHMM>
~h "sil"
<BEGINHMM>
<NUMSTATES> 5
<STATE> 2
<MEAN> 39
 -5.083300e+00 -9.180539e-01 -4.359767e+00 -2.446349e+00 -3.281548e+00 -3.495064e+00 -3.113569e+00 -4.901429e-01 -9.962025e-01 -3.218878e-01 -2.462134e+00 -1.221909e+00 3.635422e+01 -1.014347e+00 -6.085818e-01 -1.036736e+00 -8.398651e-01 -9.551634e-01 -9.808836e-01 -9.067416e-01 -3.534934e-01 -4.441194e-01 -1.342917e-01 -4.196383e-01 -2.461509e-01 5.266100e+00 1.963889e-01 6.135205e-02 8.750252e-02 7.343959e-02 5.299744e-02 5.797917e-02 3.544173e-02 2.436350e-02 -1.612850e-02 -3.698494e-02 2.508033e-02 -2.266228e-02 -4.255089e-01
<VARIANCE> 39
 1.899720e+01 1.262166e+01 2.623608e+01 2.083637e+01 2.347597e+01 2.751464e+01 2.468236e+01 1.878188e+01 1.894981e+01 1.778641e+01 1.645275e+01 1.392283e+01 4.857018e+02 1.420686e+00 1.097304e+00 2.950561e+00 1.764826e+00 2.536847e+00 2.410034e+00 2.423359e+00 1.915008e+00 1.768781e+00 1.514926e+00 1.886918e+00 1.491773e+00 3.625697e+01 1.932701e-01 1.767173e-01 3.406541e-01 2.728122e-01 3.839517e-01 3.822505e-01 3.981320e-01 3.420227e-01 3.003886e-01 3.143951e-01 3.396656e-01 2.614667e-01 2.215981e+00
<GCONST> 1.109101e+02
<STATE> 3
~s "silst"
<STATE> 4
<MEAN> 39
 -5.483844e+00 -8.901002e-01 -6.730090e+00 -2.949839e+00 -4.188904e+00 -4.380497e+00 -3.674270e+00 5.170904e-01 -4.405389e-01 -4.153368e-01 -3.077377e+00 -1.486678e+00 4.861831e+01 7.807157e-03 3.068791e-02 1.845634e-02 3.132612e-02 3.524838e-02 5.439639e-02 6.025177e-02 4.694066e-02 3.123972e-02 2.380224e-02 1.059400e-02 2.542719e-02 -7.046109e-02 -1.408118e-02 -9.097917e-04 1.100723e-02 1.468607e-03 6.348867e-03 2.239536e-03 -1.289882e-07 -4.567093e-03 -6.200472e-03 4.251017e-03 -6.375123e-03 4.022304e-03 3.746229e-03
<VARIANCE> 39
 4.498428e+00 9.179821e+00 1.071802e+01 1.159311e+01 1.463005e+01 1.610926e+01 1.723267e+01 2.192278e+01 2.190273e+01 1.841771e+01 1.657374e+01 1.489175e+01 4.984385e+00 2.604796e-01 3.831104e-01 5.890914e-01 7.713640e-01 1.012087e+00 1.124588e+00 1.307085e+00 1.438609e+00 1.434427e+00 1.456017e+00 1.408912e+00 1.221089e+00 1.952303e-01 5.217058e-02 7.286675e-02 1.155058e-01 1.526145e-01 2.030411e-01 2.229739e-01 2.599997e-01 2.835672e-01 2.882504e-01 2.949132e-01 2.842917e-01 2.483876e-01 3.449069e-02
<GCONST> 7.824923e+01
<TRANSP> 5
 0.000000e+00 1.000000e+00 0.000000e+00 0.000000e+00 0.000000e+00
 0.000000e+00 3.886600e-01 3.138524e-01 2.974876e-01 0.000000e+00
 0.000000e+00 0.000000e+00 7.083076e-01 2.916924e-01 0.000000e+00
 0.000000e+00 1.002539e-02 0.000000e+00 9.637437e-01 2.623088e-02
 0.000000e+00 0.000000e+00 0.000000e+00 0.000000e+00 0.000000e+00
<ENDHMM>
