~o
<STREAMINFO> 1 39
<VECSIZE> 39<NULLD><MFCC_D_A_0><DIAGC>
~s "silst"
<MEAN> 39
 -6.922499e+00 -1.312675e+00 -5.860091e+00 -1.682711e+00 -3.533012e+00 -2.418874e+00 -1.687129e+00 -2.177723e-01 7.991258e-01 -1.569379e+00 -5.660196e-02 -1.748913e+00 3.916290e+01 -3.771709e-01 -1.611063e-01 -4.123736e-01 -2.197650e-01 -2.520248e-01 -1.973621e-01 -1.643239e-01 -4.444648e-02 -3.054274e-02 -1.467215e-01 -3.022969e-02 -1.068908e-01 1.753066e+00 2.430671e-01 7.570500e-02 1.753357e-01 8.182560e-02 1.661344e-01 1.390154e-01 5.781060e-02 2.906450e-02 3.090018e-03 6.367601e-02 6.902527e-03 4.576200e-02 -9.704130e-01
<VARIANCE> 39
 9.569523e+00 1.194194e+01 1.411179e+01 1.797749e+01 1.761414e+01 2.118243e+01 2.089314e+01 1.991079e+01 1.777957e+01 1.721151e+01 1.439526e+01 1.207595e+01 1.815490e+01 1.020135e+00 7.665778e-01 1.463528e+00 1.330859e+00 1.598762e+00 1.579293e+00 1.632990e+00 1.686203e+00 1.375883e+00 1.357003e+00 1.122499e+00 9.571804e-01 1.604708e+01 1.410158e-01 1.541234e-01 2.676507e-01 2.706499e-01 2.925779e-01 2.875884e-01 3.338540e-01 3.515504e-01 2.739893e-01 2.774603e-01 2.296810e-01 1.830420e-01 1.687416e+00
<GCONST> 9.722259e+01
~h "a"
<BEGINHMM>
<NUMSTATES> 5
<STATE> 2
<MEAN> 39
 6.722540e-01 -4.028452e+00 -8.059784e+00 -9.861968e+00 -1.108315e+00 1.553201e+00 -7.288439e+00 3.122025e+00 8.855658e-01 2.126130e+00 -3.277195e+00 -2.608371e+00 5.364633e+01 9.405774e-01 -8.192407e-01 -5.523040e-01 -1.332275e+00 2.249577e-02 6.500041e-01 -6.995165e-01 5.013167e-01 1.989444e-01 2.825948e-01 -4.794624e-01 -4.052787e-01 1.774599e+00 -2.161877e-01 1.179301e-01 4.207744e-02 2.187385e-01 -7.611362e-02 -1.507124e-01 1.876823e-01 -2.979087e-02 4.412241e-02 -1.101395e-01 5.799673e-02 3.663941e-02 -2.748747e-01
<VARIANCE> 39
 2.604030e+01 2.446036e+01 1.980702e+01 4.014836e+01 2.925712e+01 2.915187e+01 3.531719e+01 3.521772e+01 3.752967e+01 3.856249e+01 2.494249e+01 2.004849e+01 5.817947e+01 1.989283e+00 1.985041e+00 1.486611e+00 3.074870e+00 2.156739e+00 2.022696e+00 2.641460e+00 2.320646e+00 2.114619e+00 2.250483e+00 1.707564e+00 1.382007e+00 3.528258e+00 3.905235e-01 3.294779e-01 2.852647e-01 5.451134e-01 3.925272e-01 3.355970e-01 4.804868e-01 3.977614e-01 3.804947e-01 4.096125e-01 2.654843e-01 2.386706e-01 6.010491e-01
<GCONST> 1.133813e+02
<STATE> 3
<MEAN> 39
 3.226282e+00 -5.878077e+00 -9.146142e+00 -1.258236e+01 -2.255576e+00 1.622345e+00 -9.225759e+00 6.088486e+00 2.592001e+00 2.794830e+00 -4.933224e+00 -3.862618e+00 5.870412e+01 5.598950e-02 3.573465e-01 3.652414e-01 3.510303e-01 -3.238167e-01 -4.072084e-01 3.356764e-02 1.212820e-02 8.151712e-02 -2.011484e-01 1.469767e-01 2.314488e-01 -3.665273e-01 -1.162041e-01 2.970799e-01 2.566625e-01 3.195032e-01 -6.199142e-02 -1.927254e-01 1.270320e-01 -1.864151e-01 -1.272052e-01 -8.680404e-02 1.974669e-01 1.468402e-01 -3.781078e-01
<VARIANCE> 39
 7.190087e+00 1.621349e+01 1.621975e+01 2.646496e+01 2.336310e+01 2.678095e+01 2.966841e+01 3.629499e+01 4.194130e+01 3.726263e+01 2.567230e+01 1.965782e+01 1.905026e+01 4.956486e-01 1.075687e+00 1.118198e+00 1.436324e+00 1.466464e+00 1.664451e+00 1.724245e+00 2.266953e+00 1.897448e+00 1.361120e+00 1.511472e+00 9.804541e-01 1.041743e+00 1.014976e-01 1.456141e-01 1.821319e-01 3.041521e-01 2.546870e-01 2.158998e-01 3.635080e-01 3.184792e-01 3.930801e-01 2.866672e-01 2.160393e-01 1.864202e-01 1.837278e-01
<GCONST> 9.667307e+01
<STATE> 4
<MEAN> 39
 9.776975e-01 -4.484891e-01 -6.030630e+00 -6.226987e+00 -3.438305e+00 -1.776916e+00 -5.321321e+00 2.977674e+00 2.768579e+00 4.287342e-01 -2.184456e+00 -2.087389e+00 4.887221e+01 -6.047107e-01 8.098620e-01 4.690818e-01 9.884049e-01 -1.839162e-01 -3.631599e-01 8.570768e-01 -4.363076e-01 -3.131266e-01 -5.283786e-01 5.300239e-01 1.265849e-01 -1.458695e+00 -1.088013e-01 -1.680472e-01 -6.533595e-02 -9.622674e-02 4.036299e-02 7.086319e-02 5.478123e-03 1.105303e-01 -7.671104e-02 1.414096e-02 -8.996114e-02 -2.734651e-02 1.624522e-01
<VARIANCE> 39
 2.539752e+01 1.943383e+01 2.045941e+01 4.278364e+01 3.011318e+01 3.759723e+01 4.651659e+01 3.773327e+01 3.220911e+01 2.957696e+01 2.735312e+01 1.679736e+01 4.537493e+01 1.397562e+00 1.718723e+00 2.140748e+00 2.680894e+00 2.095537e+00 2.194633e+00 3.094971e+00 2.850615e+00 2.631042e+00 2.160539e+00 1.730335e+00 1.436003e+00 2.556840e+00 2.413406e-01 2.630868e-01 2.986697e-01 4.523857e-01 3.674917e-01 3.974177e-01 6.235843e-01 5.717159e-01 4.771390e-01 3.612041e-01 3.391573e-01 2.347817e-01 3.183503e-01
<GCONST> 1.127265e+02
<TRANSP> 5
 0.000000e+00 1.000000e+00 0.000000e+00 0.000000e+00 0.000000e+00
 0.000000e+00 6.262161e-01 3.737839e-01 0.000000e+00 0.000000e+00
 0.000000e+00 0.000000e+00 7.540613e-01 2.459387e-01 0.000000e+00
 0.000000e+00 0.000000e+00 0.000000e+00 7.224538e-01 2.775463e-01
 0.000000e+00 0.000000e+00 0.000000e+00 0.000000e+00 0.000000e+00
<ENDHMM>
~h "b"
<BEGINHMM>
<NUMSTATES> 5
<STATE> 2
<MEAN> 39
 6.148846e-01 3.856110e+00 1.139392e+01 -3.314161e+00 -1.185218e+01 -3.275640e+00 -7.994553e+00 -2.352913e+00 -5.810661e+00 1.034746e+00 8.043423e-01 -2.652383e+00 5.208404e+01 -4.803187e-01 -1.994535e-01 1.147264e+00 -6.018512e-01 -9.563448e-01 2.338724e-02 -4.542961e-02 -7.088499e-02 -5.184243e-01 4.276983e-01 6.963821e-02 1.280150e-01 3.300902e-01 6.331506e-02 7.300251e-02 -2.071751e-01 2.224746e-02 2.013127e-01 7.757108e-02 7.618033e-02 -8.188084e-02 8.499088e-02 1.024576e-01 1.018435e-02 -6.685166e-02 -1.033184e-01
<VARIANCE> 39
 1.288928e+01 1.540290e+01 5.595786e+01 3.919809e+01 6.025089e+01 2.897757e+01 2.137359e+01 3.192219e+01 3.429514e+01 2.580739e+01 2.406301e+01 1.446498e+01 1.340133e+01 6.685696e-01 1.766481e+00 3.649888e+00 2.554789e+00 4.606785e+00 2.613777e+00 2.465196e+00 2.352823e+00 2.063011e+00 2.424191e+00 1.549853e+00 1.708975e+00 1.730575e+00 1.231670e-01 3.573231e-01 7.929899e-01 5.613806e-01 9.998894e-01 5.085108e-01 4.425700e-01 4.527571e-01 4.713324e-01 5.076627e-01 3.144760e-01 3.138758e-01 3.544168e-01
<GCONST> 1.126632e+02
<STATE> 3
<MEAN> 39
 8.092782e-01 6.027852e+00 8.512380e+00 -4.136070e+00 -8.425359e+00 -1.884362e+00 -5.018809e+00 -3.708071e+00 -5.040218e+00 4.839078e+00 -1.537118e+00 -3.457560e+00 4.925658e+01 5.899689e-01 4.031015e-01 -1.969187e+00 1.274701e+00 1.635225e+00 -9.399502e-02 4.324037e-01 -7.398346e-02 9.835590e-01 -4.327530e-01 -4.861451e-01 2.371048e-01 -7.567415e-01 -4.987542e-03 -9.464131e-02 6.889658e-02 8.951824e-02 -1.360903e-01 2.714831e-02 -9.208507e-02 7.219852e-02 5.217431e-02 -2.533112e-01 6.340574e-02 2.030738e-01 1.283601e-01
<VARIANCE> 39
 1.235789e+01 7.742925e+00 2.910422e+01 2.766709e+01 2.598168e+01 2.676625e+01 2.183363e+01 2.290146e+01 3.442569e+01 2.270491e+01 3.565841e+01 1.817424e+01 6.998034e+00 5.793719e-01 7.601353e-01 2.085043e+00 1.983494e+00 2.635337e+00 2.308151e+00 1.836140e+00 2.333436e+00 2.191459e+00 2.070824e+00 1.398218e+00 1.328013e+00 5.005693e-01 1.318800e-01 1.480021e-01 4.494977e-01 3.727496e-01 4.311143e-01 4.500668e-01 3.600234e-01 3.952950e-01 3.650685e-01 3.551185e-01 2.833712e-01 2.274262e-01 8.735524e-02
<GCONST> 9.953403e+01
<STATE> 4
<MEAN> 39
 1.988190e+00 7.286264e+00 2.210806e+00 2.183029e+00 -3.340254e+00 -1.671726e+00 -3.867179e+00 -4.615668e+00 -1.392470e+00 6.960884e-01 -1.168843e+00 -1.986030e-01 4.687244e+01 -4.684761e-01 -1.549814e-01 -8.819996e-02 3.686368e-01 6.004487e-01 5.520295e-01 1.914968e-01 1.329586e-01 3.333530e-01 -3.606850e-01 -6.286113e-02 2.187091e-01 -3.436109e-01 -2.480563e-01 -2.079967e-01 1.675139e-01 -1.515112e-01 -5.373194e-02 2.636290e-02 3.354044e-02 1.668328e-01 -1.740365e-01 7.111230e-02 5.116073e-02 -1.924658e-01 -2.074233e-02
<VARIANCE> 39
 6.933952e+00 6.803632e+00 1.164787e+01 9.705607e+00 1.570328e+01 1.456184e+01 1.839573e+01 2.003059e+01 2.405995e+01 1.562308e+01 1.785137e+01 1.892697e+01 4.863688e+00 4.570985e-01 8.804555e-01 8.380944e-01 6.894180e-01 9.548256e-01 1.020665e+00 1.209641e+00 1.599512e+00 1.389132e+00 1.265020e+00 1.248948e+00 1.241714e+00 2.373794e-01 8.186550e-02 1.706474e-01 3.098727e-01 1.437080e-01 2.300932e-01 2.434374e-01 2.459076e-01 2.844948e-01 2.779916e-01 2.144309e-01 2.009723e-01 2.547837e-01 4.076935e-02
<GCONST> 8.175825e+01
<TRANSP> 5
 0.000000e+00 1.000000e+00 0.000000e+00 0.000000e+00 0.000000e+00
 0.000000e+00 9.073079e-01 9.269205e-02 0.000000e+00 0.000000e+00
 0.000000e+00 0.000000e+00 8.171951e-01 1.828049e-01 0.000000e+00
 0.000000e+00 0.000000e+00 0.000000e+00 7.640586e-01 2.359414e-01
 0.000000e+00 0.000000e+00 0.000000e+00 0.000000e+00 0.000000e+00
<ENDHMM>
~h "c"
<BEGINHMM>
<NUMSTATES> 5
<STATE> 2
<MEAN> 39
 -1.241669e+01 2.852714e+00 6.449762e+00 -6.645661e+00 -5.529792e+00 -4.774867e+00 -4.631072e+00 1.666893e+00 -5.390518e+00 -1.359788e-01 9.376404e-01 5.743385e-01 5.392815e+01 1.695047e+00 1.059924e-01 1.867468e+00 7.278290e-02 -1.644175e+00 -2.297841e-01 -3.669423e-01 -2.308985e-01 -5.540597e-01 1.632020e-01 8.882370e-02 -1.000697e-01 4.514375e-01 3.898976e-01 -6.567959e-02 1.377850e-02 2.575391e-02 -1.673158e-01 5.895231e-02 -1.337064e-03 -1.676685e-01 1.743317e-02 1.258681e-01 1.530526e-03 -1.131963e-01 -2.463827e-01
<VARIANCE> 39
 7.974851e+01 1.941540e+01 4.850367e+01 2.214368e+01 4.801210e+01 3.814099e+01 3.292241e+01 2.430581e+01 2.465120e+01 2.016376e+01 1.372093e+01 1.195848e+01 1.106519e+01 7.722099e+00 1.870646e+00 2.576736e+00 2.612828e+00 3.089954e+00 2.272745e+00 3.360973e+00 1.891725e+00 2.091372e+00 1.908211e+00 1.192494e+00 1.170108e+00 1.100302e+00 1.934327e+00 3.384179e-01 6.736402e-01 5.881754e-01 6.750817e-01 4.893968e-01 7.154283e-01 3.490216e-01 4.381368e-01 3.365286e-01 2.370757e-01 2.037060e-01 2.833457e-01
<GCONST> 1.140504e+02
<STATE> 3
<MEAN> 39
 -1.448449e+00 4.229546e+00 1.421115e+01 -7.886950e+00 -1.412748e+01 -2.222743e+00 -5.756740e+00 -3.146287e+00 -7.453970e+00 5.403198e+00 -8.978252e-02 -3.055415e+00 5.280914e+01 3.299774e-01 2.885800e-01 -1.134836e+00 5.588893e-01 9.382991e-01 5.708445e-01 5.163274e-01 -3.073231e-01 3.854564e-01 3.635632e-01 -3.612156e-01 -3.058702e-01 -7.619950e-01 4.481222e-02 2.432475e-02 -3.909057e-01 2.612002e-01 3.359128e-01 -7.389780e-02 -3.129705e-02 7.419715e-03 2.618533e-01 -2.815617e-01 6.632069e-03 1.310757e-01 -7.819463e-02
<VARIANCE> 39
 6.763976e+00 6.653911e+00 2.081323e+01 2.410852e+01 3.251401e+01 3.873802e+01 2.454479e+01 2.750797e+01 2.555396e+01 2.538667e+01 2.567912e+01 1.440914e+01 8.005414e+00 6.306391e-01 4.693778e-01 2.462487e+00 2.190050e+00 2.891362e+00 2.229970e+00 1.775729e+00 1.819044e+00 1.586391e+00 2.335723e+00 1.302295e+00 1.166006e+00 4.520992e-01 1.474197e-01 9.361030e-02 3.284656e-01 3.165976e-01 5.622104e-01 4.482284e-01 3.657547e-01 3.334771e-01 2.686402e-01 3.932237e-01 2.806189e-01 2.326567e-01 7.556064e-02
<GCONST> 9.667356e+01
<STATE> 4
<MEAN> 39
 2.389506e+00 5.856821e+00 3.092338e+00 -2.962289e-01 -5.462828e+00 -7.465336e-01 -4.359941e+00 -5.192832e+00 -1.628632e+00 1.604589e+00 -1.034166e+00 -1.528527e+00 4.773519e+01 -7.704377e-03 5.701168e-02 -3.617741e-01 6.311663e-01 5.882889e-01 5.607808e-02 -7.094855e-02 -1.436256e-01 5.365592e-01 -5.945859e-01 1.859728e-01 3.191945e-01 -3.691028e-01 -2.069358e-01 -7.249740e-02 2.968548e-01 -1.484922e-01 -1.182419e-01 6.460597e-02 7.484472e-02 1.505580e-01 -1.607446e-01 9.491941e-02 2.436170e-02 -6.169836e-02 4.650380e-02
<VARIANCE> 39
 1.143292e+01 6.343019e+00 1.377487e+01 1.219668e+01 1.486101e+01 1.849214e+01 2.433808e+01 1.965452e+01 2.044442e+01 2.104319e+01 2.329549e+01 1.565721e+01 5.641227e+00 5.439252e-01 5.306417e-01 1.460060e+00 1.058883e+00 1.575719e+00 1.360136e+00 1.202175e+00 1.697396e+00 1.726179e+00 1.731515e+00 1.290455e+00 8.067890e-01 2.810089e-01 8.061894e-02 9.825282e-02 2.755076e-01 2.109591e-01 3.721010e-01 2.287000e-01 2.274201e-01 2.961856e-01 2.732896e-01 2.931920e-01 2.485957e-01 1.592010e-01 6.196502e-02
<GCONST> 8.571957e+01
<TRANSP> 5
 0.000000e+00 1.000000e+00 0.000000e+00 0.000000e+00 0.000000e+00
 0.000000e+00 8.833705e-01 1.166295e-01 0.000000e+00 0.000000e+00
 0.000000e+00 0.000000e+00 8.761496e-01 1.238504e-01 0.000000e+00
 0.000000e+00 0.000000e+00 0.000000e+00 8.563011e-01 1.436990e-01
 0.000000e+00 0.000000e+00 0.000000e+00 0.000000e+00 0.000000e+00
<ENDHMM>
~h "h"
<BEGINHMM>
<NUMSTATES> 5
<STATE> 2
<MEAN> 39
 -3.373171e-01 1.813855e+00 1.071527e+01 -5.415119e+00 -1.335962e+01 -5.821217e+00 -9.299309e+00 2.873519e+00 -7.682882e+00 -9.130132e-02 8.235663e-01 -2.138656e+00 5.494357e+01 -2.847289e-01 6.018079e-02 4.476992e-01 -1.279579e-01 -5.775471e-01 1.794874e-01 3.374045e-01 5.158778e-02 -4.863292e-01 3.342339e-01 3.104767e-01 6.340746e-02 5.345550e-01 -8.319543e-02 3.274786e-02 -1.729038e-01 1.334144e-01 2.337464e-01 9.947115e-02 1.417330e-01 -3.005007e-02 2.169150e-01 3.823059e-02 -4.066183e-02 6.573699e-02 -1.921197e-01
<VARIANCE> 39
 8.046078e+00 9.560677e+00 1.580416e+01 2.542736e+01 4.685195e+01 4.631863e+01 2.627451e+01 2.837626e+01 3.014635e+01 2.130677e+01 1.945527e+01 1.448273e+01 1.186541e+01 4.919384e-01 7.962556e-01 1.308297e+00 1.850046e+00 3.225392e+00 2.388718e+00 2.297182e+00 1.855574e+00 2.515292e+00 1.484863e+00 1.193687e+00 1.533854e+00 8.993502e-01 1.078789e-01 1.473652e-01 1.673453e-01 3.152346e-01 4.651122e-01 4.869602e-01 4.981543e-01 4.145597e-01 3.420098e-01 3.005560e-01 2.391235e-01 2.501870e-01 1.189872e-01
<GCONST> 9.878121e+01
<STATE> 3
<MEAN> 39
 -3.185567e+00 1.682539e+00 6.553828e+00 -3.135952e+00 -7.418988e+00 -3.895987e+00 -3.715614e+00 5.255923e+00 -2.413666e+00 1.655049e+00 -4.353114e-01 2.398916e+00 5.575946e+01 2.394708e-01 -5.436240e-01 -1.509028e+00 4.422031e-02 1.418224e+00 5.690017e-03 2.455047e-01 8.321446e-01 9.914432e-01 -2.416507e-01 -8.714653e-01 3.953864e-01 2.850496e-01 1.685786e-01 -1.550180e-01 -1.402811e-01 -2.417885e-01 -1.172266e-01 -7.681627e-04 -2.706831e-01 -1.203663e-02 -7.757363e-02 -1.298679e-02 -1.366053e-01 -2.348768e-01 1.808459e-01
<VARIANCE> 39
 7.212076e+00 1.590852e+01 2.074781e+01 2.994732e+01 3.262121e+01 2.645727e+01 3.630314e+01 3.684202e+01 2.677683e+01 2.509387e+01 2.274017e+01 1.312920e+01 1.195440e+01 4.743865e-01 6.769267e-01 8.217187e-01 2.237881e+00 2.016943e+00 1.807762e+00 2.271156e+00 1.492073e+00 1.578720e+00 1.841968e+00 1.424935e+00 1.308011e+00 7.497059e-01 7.119421e-02 1.130469e-01 1.202059e-01 3.472109e-01 3.552615e-01 3.188360e-01 2.970034e-01 3.090155e-01 2.540639e-01 3.418660e-01 2.446605e-01 2.095080e-01 8.824548e-02
<GCONST> 9.448329e+01
<STATE> 4
<MEAN> 39
 2.328402e+00 -5.742652e+00 -7.078224e+00 -8.901198e+00 -2.813549e+00 -2.939641e+00 -8.279120e+00 9.961121e+00 1.801306e+00 1.945922e+00 -6.969066e+00 -1.421189e+00 6.103677e+01 3.560002e-01 -3.768367e-01 -7.126818e-01 -5.432654e-01 -1.527284e-02 1.300011e-01 -3.170068e-01 9.275981e-02 3.642703e-01 -3.083655e-02 -2.784764e-01 -3.228714e-01 1.936814e-01 -5.498698e-02 1.338096e-01 1.590471e-01 9.377590e-02 -5.700884e-02 -3.111174e-02 4.022691e-03 -7.315436e-02 -2.770171e-02 -1.887842e-02 9.690082e-02 7.746911e-02 -1.083974e-01
<VARIANCE> 39
 6.253441e+00 1.000196e+01 2.337497e+01 2.917194e+01 1.568899e+01 1.838079e+01 2.632769e+01 2.894981e+01 3.300419e+01 2.621989e+01 2.761749e+01 2.091508e+01 9.176050e+00 4.043464e-01 9.729792e-01 1.004284e+00 9.726461e-01 8.361547e-01 8.652881e-01 1.083104e+00 1.244673e+00 1.055599e+00 8.092896e-01 7.514683e-01 9.180633e-01 4.941431e-01 5.152312e-02 1.198142e-01 1.086560e-01 1.391790e-01 1.537098e-01 1.611960e-01 1.899278e-01 2.005439e-01 1.899845e-01 1.359864e-01 1.078047e-01 1.384243e-01 6.526722e-02
<GCONST> 8.092733e+01
<TRANSP> 5
 0.000000e+00 1.000000e+00 0.000000e+00 0.000000e+00 0.000000e+00
 0.000000e+00 9.150250e-01 8.497496e-02 0.000000e+00 0.000000e+00
 0.000000e+00 0.000000e+00 8.559317e-01 1.440683e-01 0.000000e+00
 0.000000e+00 0.000000e+00 0.000000e+00 9.157759e-01 8.422408e-02
 0.000000e+00 0.000000e+00 0.000000e+00 0.000000e+00 0.000000e+00
<ENDHMM>
~h "i"
<BEGINHMM>
<NUMSTATES> 5
<STATE> 2
<MEAN> 39
 -1.692497e+00 3.500182e+00 1.046768e+01 -6.588651e+00 -1.040048e+01 -4.254847e+00 -7.601172e+00 -9.050180e-01 -4.993686e+00 2.035191e+00 1.324669e-01 -1.581501e+00 5.227784e+01 4.193317e-02 5.799008e-01 2.812944e-01 2.989134e-01 3.679461e-01 1.658709e-01 3.569653e-02 -3.929036e-01 -1.396435e-01 -9.147444e-02 1.127250e-01 -2.395274e-02 -3.349203e-01 -3.152472e-02 -1.191724e-01 -4.275782e-01 9.788434e-02 2.162092e-01 7.420243e-02 1.242006e-01 1.284066e-01 2.466967e-01 -9.597536e-02 -7.205990e-02 -4.493146e-02 -1.673731e-01
<VARIANCE> 39
 9.287559e+00 1.771515e+01 3.990879e+01 3.494651e+01 3.736938e+01 3.479406e+01 2.664172e+01 3.433228e+01 3.871796e+01 1.815496e+01 1.398686e+01 1.357757e+01 2.721400e+01 8.304138e-01 1.043452e+00 3.323617e+00 1.948690e+00 2.539220e+00 1.863546e+00 2.461365e+00 2.130526e+00 2.875166e+00 1.511982e+00 1.112647e+00 9.889709e-01 1.583329e+00 1.189759e-01 1.517191e-01 3.466564e-01 2.762447e-01 3.919700e-01 3.858834e-01 3.952348e-01 3.357565e-01 3.938790e-01 2.644905e-01 2.025860e-01 2.115457e-01 1.900995e-01
<GCONST> 1.027355e+02
<STATE> 3
<MEAN> 39
 -1.349558e+00 5.222110e+00 3.038200e+00 -6.131768e-03 -2.511285e+00 -9.938020e-01 -3.859937e+00 -1.481443e+00 -6.449362e-01 -7.154131e-01 -8.607624e-01 -2.005021e+00 4.471560e+01 -3.549146e-01 -5.587333e-01 -1.258883e+00 3.597651e-01 5.529967e-01 2.997203e-01 5.570790e-01 4.021191e-01 6.103089e-01 -5.521912e-01 -3.682541e-02 -2.486232e-01 -6.840194e-01 -1.187358e-01 -2.927103e-01 2.226777e-02 -3.882506e-01 -4.226426e-01 -2.266797e-01 -1.428461e-01 1.045842e-01 -1.806177e-01 1.237474e-01 8.088726e-02 3.069098e-02 2.523839e-01
<VARIANCE> 39
 1.492554e+01 1.094850e+01 2.472852e+01 2.423879e+01 2.370823e+01 2.960188e+01 3.214462e+01 2.352513e+01 2.108968e+01 1.658278e+01 1.349445e+01 1.369976e+01 1.110621e+01 1.666133e+00 1.314910e+00 3.374172e+00 1.848974e+00 2.221919e+00 3.183619e+00 3.457727e+00 2.208145e+00 2.744895e+00 1.411825e+00 1.269603e+00 1.406832e+00 3.232244e+00 1.615745e-01 1.941066e-01 2.688538e-01 2.870006e-01 3.322607e-01 4.294715e-01 4.703906e-01 4.083140e-01 3.573083e-01 2.511510e-01 2.361479e-01 2.394753e-01 1.337400e-01
<GCONST> 1.026315e+02
<STATE> 4
<MEAN> 39
 -3.747751e+00 1.517415e+00 -1.803989e+00 -1.122225e+00 -3.427833e+00 -1.743852e+00 -2.208249e+00 3.674404e-01 1.067121e+00 -1.118428e+00 -5.159974e-04 -2.286695e+00 4.312022e+01 -2.800718e-01 -4.440812e-01 -4.310628e-01 -1.886908e-01 -7.159293e-02 -2.830453e-01 4.720259e-03 2.758574e-01 6.528834e-02 -8.414303e-02 6.832704e-02 1.620352e-01 -6.694952e-02 3.560209e-02 4.388209e-02 2.362850e-01 -1.108790e-01 -5.562897e-02 -1.001696e-01 -1.011808e-01 -1.728458e-02 -1.848705e-01 5.113532e-02 -3.099992e-02 6.449188e-02 2.651315e-01
<VARIANCE> 39
 1.351576e+01 1.314646e+01 2.425543e+01 2.151970e+01 2.242975e+01 2.691706e+01 2.814772e+01 2.379737e+01 2.126734e+01 1.845222e+01 1.765390e+01 1.125918e+01 1.164238e+01 6.973553e-01 8.238646e-01 1.472162e+00 1.363179e+00 1.604699e+00 2.128303e+00 2.087212e+00 2.037808e+00 1.612961e+00 1.584145e+00 1.160619e+00 1.052253e+00 1.025733e+00 1.324004e-01 1.739793e-01 2.659745e-01 2.791006e-01 3.056031e-01 4.359200e-01 4.078307e-01 3.797447e-01 3.287140e-01 3.064466e-01 2.334089e-01 2.182347e-01 1.944411e-01
<GCONST> 9.656364e+01
<TRANSP> 5
 0.000000e+00 1.000000e+00 0.000000e+00 0.000000e+00 0.000000e+00
 0.000000e+00 8.031436e-01 1.968564e-01 0.000000e+00 0.000000e+00
 0.000000e+00 0.000000e+00 5.171067e-01 4.828933e-01 0.000000e+00
 0.000000e+00 0.000000e+00 0.000000e+00 6.475657e-01 3.524344e-01
 0.000000e+00 0.000000e+00 0.000000e+00 0.000000e+00 0.000000e+00
<ENDHMM>
~h "j"
<BEGINHMM>
<NUMSTATES> 5
<STATE> 2
<MEAN> 39
 -2.216028e+00 5.019361e+00 1.403327e+01 -5.630893e+00 -1.301820e+01 -2.165317e+00 -6.748205e+00 -1.670950e+00 -6.634570e+00 -2.386163e-01 1.009372e+00 -3.134068e+00 5.325129e+01 3.043179e-01 -4.213206e-02 2.258394e-01 -4.407445e-01 -8.187434e-01 1.037198e+00 1.485644e-01 -3.743462e-01 1.010582e-01 8.245443e-01 1.414246e-02 -7.471147e-01 -4.035647e-01 -1.082766e-01 1.670176e-01 -4.625118e-01 8.371116e-02 5.212691e-01 -1.339568e-01 2.522469e-01 -1.475585e-02 1.819213e-01 1.371041e-01 -1.120798e-01 4.743603e-02 -1.264162e-01
<VARIANCE> 39
 6.829402e+00 8.594992e+00 2.105020e+01 3.422179e+01 2.672917e+01 1.893303e+01 2.268968e+01 1.563713e+01 2.821077e+01 1.369242e+01 1.473252e+01 9.782912e+00 4.731585e+00 5.484592e-01 7.333836e-01 1.036072e+00 1.277652e+00 2.077132e+00 1.474329e+00 2.438869e+00 1.355044e+00 1.346078e+00 1.400896e+00 9.373666e-01 1.164398e+00 5.400519e-01 1.541423e-01 1.137701e-01 2.871053e-01 3.007693e-01 4.784626e-01 2.624109e-01 4.636174e-01 2.408147e-01 2.894734e-01 2.821440e-01 1.674351e-01 2.006857e-01 5.137843e-02
<GCONST> 8.907220e+01
<STATE> 3
<MEAN> 39
 1.130908e+00 5.963562e+00 9.397444e+00 -6.103596e+00 -1.072274e+01 -2.269239e-01 -4.306213e+00 -4.103076e+00 -4.562382e+00 5.260937e+00 -1.610232e+00 -4.414325e+00 5.024932e+01 7.811027e-01 2.461071e-01 -1.963897e+00 1.031356e+00 1.224591e+00 -1.049934e-01 3.411363e-01 -3.703396e-01 9.228556e-01 -1.295226e-01 -2.826529e-01 3.066327e-02 -7.340680e-01 -1.316864e-02 -3.751913e-02 -6.754892e-02 2.986955e-01 7.454865e-02 -1.976432e-01 -1.368332e-01 2.021995e-02 1.353303e-01 -3.656396e-01 1.182954e-01 2.494340e-01 8.768310e-02
<VARIANCE> 39
 1.589070e+01 6.900687e+00 3.579942e+01 3.050243e+01 3.022262e+01 3.356989e+01 2.006475e+01 2.914290e+01 3.823505e+01 2.237741e+01 2.863725e+01 1.672290e+01 5.487284e+00 5.896103e-01 7.961139e-01 2.302580e+00 1.961028e+00 2.525130e+00 2.661086e+00 2.060848e+00 2.247907e+00 1.687389e+00 2.527742e+00 1.340620e+00 1.220947e+00 3.844495e-01 1.242475e-01 1.283869e-01 5.619700e-01 2.929350e-01 5.241162e-01 4.840094e-01 3.844731e-01 3.695630e-01 2.693815e-01 4.515239e-01 2.463865e-01 2.172534e-01 7.326447e-02
<GCONST> 9.955280e+01
<STATE> 4
<MEAN> 39
 2.140248e+00 7.214291e+00 2.530055e+00 2.427156e-01 -5.640174e+00 -1.163689e+00 -4.617325e+00 -5.602204e+00 -1.252048e-01 1.527166e-01 -1.360244e-01 -1.927508e+00 4.741908e+01 -2.623291e-01 -2.574452e-02 -9.629462e-03 4.737430e-01 4.301874e-01 1.801104e-01 1.856839e-01 9.991510e-02 1.810200e-01 -3.184038e-01 1.206463e-01 2.548432e-01 -3.333658e-01 -1.467370e-01 -7.277744e-02 1.217513e-01 -1.338769e-01 1.052178e-03 4.917484e-02 1.085117e-01 1.289304e-01 -1.284054e-01 1.036082e-01 -4.573987e-02 -6.806508e-02 -2.232068e-02
<VARIANCE> 39
 1.383883e+01 5.810625e+00 1.554606e+01 1.719459e+01 1.466326e+01 1.953703e+01 2.072477e+01 2.284114e+01 1.438952e+01 1.366211e+01 1.739819e+01 1.515296e+01 5.446575e+00 4.056150e-01 5.921445e-01 8.642607e-01 1.320201e+00 1.267929e+00 1.717973e+00 1.425463e+00 1.353113e+00 1.103002e+00 1.433948e+00 1.263591e+00 9.424326e-01 2.429156e-01 7.721061e-02 1.326892e-01 2.714656e-01 2.449740e-01 2.515332e-01 3.552625e-01 2.633807e-01 2.847395e-01 2.056388e-01 2.545968e-01 2.542717e-01 1.736909e-01 3.435966e-02
<GCONST> 8.364277e+01
<TRANSP> 5
 0.000000e+00 1.000000e+00 0.000000e+00 0.000000e+00 0.000000e+00
 0.000000e+00 7.514521e-01 2.485479e-01 0.000000e+00 0.000000e+00
 0.000000e+00 0.000000e+00 8.194271e-01 1.805729e-01 0.000000e+00
 0.000000e+00 0.000000e+00 0.000000e+00 8.707307e-01 1.292693e-01
 0.000000e+00 0.000000e+00 0.000000e+00 0.000000e+00 0.000000e+00
<ENDHMM>
~h "k"
<BEGINHMM>
<NUMSTATES> 5
<STATE> 2
<MEAN> 39
 -3.906459e+00 -5.992761e-01 -8.199603e+00 -4.483669e+00 -2.267485e+00 -2.711175e+00 -3.516559e+00 7.787418e-01 2.771441e-01 2.017536e-01 -6.953824e-01 -1.477558e+00 4.451380e+01 -2.300589e-01 -7.030771e-01 -8.408358e-01 -5.598632e-01 9.333748e-01 -2.032994e-02 -7.442542e-01 2.471078e-01 -2.026453e-02 1.078369e+00 -6.055092e-01 -1.148510e-02 1.377157e+00 3.996038e-01 2.046733e-01 2.086345e-01 -2.120501e-01 7.703781e-03 2.678923e-01 -2.116074e-01 -5.612428e-02 -2.556094e-01 1.378590e-01 8.473611e-04 -8.905306e-05 3.575648e-01
<VARIANCE> 39
 1.606069e+01 2.251704e+01 2.498140e+01 3.533206e+01 2.418063e+01 2.729389e+01 3.287062e+01 2.988236e+01 2.691665e+01 3.041622e+01 2.056710e+01 1.256409e+01 3.582922e+01 1.346033e+00 1.666425e+00 2.572175e+00 3.880409e+00 2.670948e+00 3.220323e+00 3.401583e+00 3.625563e+00 4.224338e+00 3.201658e+00 2.084569e+00 1.669163e+00 3.544840e+00 2.332110e-01 3.103060e-01 7.166175e-01 8.845287e-01 6.223663e-01 4.927379e-01 6.743196e-01 6.492712e-01 6.120321e-01 5.555661e-01 4.073595e-01 2.958655e-01 5.901178e-01
<GCONST> 1.176515e+02
<STATE> 3
<MEAN> 39
 -1.203158e+00 1.352840e+00 -7.318172e+00 -6.511640e+00 -7.931995e-02 1.170630e+00 -5.798488e+00 -1.622084e+00 -3.452032e+00 2.051655e+00 -5.496492e-01 -7.695791e-01 4.885317e+01 2.016538e+00 7.836459e-01 1.646693e+00 -4.996420e-01 -6.960185e-01 6.594560e-01 -1.558706e+00 -7.499777e-01 -5.983595e-01 3.101432e-01 3.741735e-01 -1.780991e-01 1.598747e+00 2.275544e-01 -1.264296e-01 2.727314e-01 -9.111817e-02 -5.411798e-01 -1.549597e-01 -1.771964e-01 8.526997e-02 3.468158e-01 -1.345859e-01 5.493399e-02 -1.884545e-01 -5.567066e-03
<VARIANCE> 39
 3.300812e+01 2.476385e+01 2.709014e+01 3.264860e+01 3.012556e+01 4.160548e+01 3.905922e+01 4.471776e+01 4.037340e+01 4.380317e+01 2.973559e+01 1.381349e+01 2.024274e+01 1.829673e+00 2.108468e+00 2.281059e+00 4.070445e+00 2.700211e+00 2.540783e+00 3.952923e+00 4.013313e+00 3.182271e+00 2.614471e+00 1.836844e+00 1.279245e+00 2.237276e+00 6.093712e-01 4.661839e-01 7.673651e-01 8.345657e-01 5.550221e-01 6.076410e-01 7.326163e-01 7.018577e-01 5.798213e-01 6.801320e-01 4.700948e-01 2.147585e-01 3.239814e-01
<GCONST> 1.205108e+02
<STATE> 4
<MEAN> 39
 3.931169e+00 3.065157e+00 2.788504e-01 -6.642404e+00 -5.062468e+00 -1.573434e+00 -1.315397e+01 -3.454349e+00 -2.044468e+00 2.718531e+00 -3.290361e-01 -7.798374e-01 5.252980e+01 -2.539807e-01 -7.175630e-02 7.248695e-01 7.197331e-01 -2.839505e-01 -7.576401e-01 3.053125e-01 5.289317e-01 8.369678e-01 -2.882211e-01 -2.715973e-01 -1.463557e-01 -2.940557e-01 -4.177172e-01 -6.458743e-02 -4.992001e-01 1.153355e-01 2.191378e-01 1.173131e-01 6.515147e-01 1.177534e-01 -4.916829e-02 -2.025303e-01 3.903897e-02 5.063176e-03 -5.145467e-01
<VARIANCE> 39
 1.377054e+01 1.935218e+01 2.797705e+01 3.614307e+01 2.342850e+01 4.395789e+01 3.670897e+01 4.714495e+01 3.307816e+01 3.024479e+01 1.851685e+01 1.539222e+01 1.766327e+01 3.143476e+00 2.108125e+00 3.624137e+00 5.282911e+00 2.788155e+00 3.379467e+00 6.252211e+00 3.010875e+00 2.617564e+00 3.518632e+00 1.695614e+00 1.506886e+00 4.243115e+00 2.552621e-01 4.828722e-01 5.778659e-01 7.887474e-01 3.720428e-01 6.791769e-01 8.326442e-01 6.818864e-01 5.067732e-01 6.703923e-01 3.653085e-01 2.668503e-01 2.932611e-01
<GCONST> 1.191770e+02
<TRANSP> 5
 0.000000e+00 1.000000e+00 0.000000e+00 0.000000e+00 0.000000e+00
 0.000000e+00 7.120132e-01 2.879868e-01 0.000000e+00 0.000000e+00
 0.000000e+00 0.000000e+00 6.435255e-01 3.564745e-01 0.000000e+00
 0.000000e+00 0.000000e+00 0.000000e+00 7.262250e-01 2.737750e-01
 0.000000e+00 0.000000e+00 0.000000e+00 0.000000e+00 0.000000e+00
<ENDHMM>
~h "l"
<BEGINHMM>
<NUMSTATES> 5
<STATE> 2
<MEAN> 39
 -6.721636e+00 -1.807871e+00 -3.622492e+00 -2.135501e+00 -4.042350e+00 -4.770386e+00 -3.741309e+00 -1.304891e+00 6.018226e-01 -5.287954e-01 -2.161867e+00 -6.584185e-01 4.254009e+01 -1.239812e-01 -2.253675e-01 3.213063e-01 -1.450920e-01 -2.020577e-01 -2.469639e-01 -2.137697e-02 8.670843e-02 9.232898e-02 7.634953e-02 -8.257850e-02 7.002942e-02 3.283128e-01 3.713106e-02 5.352606e-02 4.631154e-02 -1.732919e-02 -2.779729e-03 1.080680e-01 3.607309e-02 3.863750e-02 -7.071042e-03 -1.581346e-02 7.208629e-03 2.160965e-02 -4.289845e-03
<VARIANCE> 39
 3.417373e+01 1.796423e+01 2.247934e+01 2.507933e+01 2.461471e+01 3.332932e+01 3.122624e+01 2.625827e+01 2.638824e+01 2.354360e+01 1.648710e+01 1.337038e+01 3.533253e+01 1.400326e+00 1.158833e+00 1.562806e+00 1.620417e+00 2.079638e+00 2.961307e+00 2.562373e+00 2.417544e+00 1.913889e+00 2.015733e+00 1.314420e+00 1.218125e+00 1.377958e+00 2.656049e-01 2.176445e-01 2.747706e-01 3.632948e-01 4.277146e-01 5.380906e-01 4.772007e-01 4.589987e-01 4.062339e-01 4.005857e-01 2.544945e-01 2.333448e-01 2.174170e-01
<GCONST> 1.061313e+02
<STATE> 3
<MEAN> 39
 -6.264824e+00 -5.811372e-01 -5.464453e+00 -1.955921e+00 -4.006422e+00 -6.543655e-01 -1.893678e+00 -1.996098e-01 2.028198e+00 -1.765267e+00 7.510448e-01 -2.574030e+00 4.177764e+01 -3.626203e-02 3.059088e-02 2.707460e-01 1.377215e-01 2.700965e-02 1.445340e-01 9.207103e-02 4.276905e-02 -3.479731e-02 -2.232892e-02 -4.957827e-02 4.600687e-02 -3.333384e-02 1.251519e-01 1.583036e-01 1.181495e-01 5.170402e-03 4.632438e-02 1.512002e-02 -8.393960e-02 -2.805513e-03 -4.419949e-02 1.010687e-02 -3.304907e-02 3.636178e-02 8.253224e-02
<VARIANCE> 39
 1.655950e+01 1.372810e+01 1.117019e+01 2.112010e+01 2.210781e+01 2.343683e+01 2.692122e+01 2.169065e+01 1.934672e+01 1.737195e+01 1.534067e+01 1.318759e+01 1.641316e+01 3.723674e-01 4.482228e-01 7.717388e-01 1.252218e+00 1.562984e+00 1.674987e+00 1.543483e+00 1.639611e+00 1.813500e+00 1.604902e+00 1.226745e+00 9.780018e-01 2.139746e-01 8.099250e-02 1.212348e-01 1.432966e-01 2.661438e-01 3.457353e-01 3.449636e-01 3.383599e-01 3.164515e-01 3.604695e-01 2.762406e-01 2.333174e-01 1.926623e-01 5.283894e-02
<GCONST> 8.828716e+01
<STATE> 4
<MEAN> 39
 -4.695666e+00 -8.646078e-01 -3.144378e+00 -5.509005e-01 -2.627532e+00 -2.766462e+00 -2.618057e+00 2.811288e-01 1.623860e-01 -1.063508e+00 -1.053580e+00 -6.412513e-01 4.048560e+01 2.300934e-01 2.689753e-01 3.154862e-01 -9.224582e-02 3.716486e-02 1.064756e-01 -1.978917e-01 1.296648e-02 -1.697045e-02 1.044379e-01 -9.789728e-02 1.450618e-02 1.465950e-01 1.169643e-01 7.107997e-02 7.079099e-02 -8.143520e-02 -4.968890e-02 -6.080872e-02 -1.296806e-01 -7.957874e-03 -3.773363e-02 8.148472e-03 -4.669707e-03 7.640403e-03 1.426375e-01
<VARIANCE> 39
 1.721924e+01 1.670923e+01 1.711283e+01 1.857190e+01 2.696288e+01 3.238783e+01 2.357851e+01 2.298279e+01 2.077400e+01 2.002776e+01 1.638054e+01 1.437587e+01 1.818734e+01 7.172648e-01 1.026211e+00 1.400556e+00 1.402103e+00 1.476453e+00 1.901833e+00 1.734347e+00 1.681646e+00 1.826256e+00 1.712710e+00 1.280618e+00 1.113936e+00 5.301653e-01 1.472657e-01 1.699057e-01 2.245423e-01 2.642734e-01 2.698809e-01 3.919624e-01 3.648753e-01 3.022275e-01 3.497438e-01 3.568797e-01 2.498790e-01 2.026819e-01 9.849056e-02
<GCONST> 9.554823e+01
<TRANSP> 5
 0.000000e+00 1.000000e+00 0.000000e+00 0.000000e+00 0.000000e+00
 0.000000e+00 6.998410e-01 3.001590e-01 0.000000e+00 0.000000e+00
 0.000000e+00 0.000000e+00 6.933981e-01 3.066019e-01 0.000000e+00
 0.000000e+00 0.000000e+00 0.000000e+00 8.270240e-01 1.729761e-01
 0.000000e+00 0.000000e+00 0.000000e+00 0.000000e+00 0.000000e+00
<ENDHMM>
~h "m"
<BEGINHMM>
<NUMSTATES> 5
<STATE> 2
<MEAN> 39
 3.935938e+00 3.305947e+00 -1.658944e+00 -3.056692e+00 -1.583300e+00 2.213962e+00 -6.866178e+00 -3.074674e+00 -2.504816e+00 7.736005e-01 1.429906e+00 -2.728322e+00 4.932351e+01 -6.340730e-01 1.180796e+00 1.920045e+00 2.119100e+00 5.936615e-01 -6.436954e-01 5.845918e-01 -9.661897e-01 -9.916646e-01 -4.704454e-01 5.037930e-02 1.420823e-01 -9.834960e-01 -7.731223e-02 -4.359368e-01 -2.323287e-01 -4.031771e-01 -4.954827e-02 1.810429e-02 -1.600594e-01 4.947832e-01 3.670173e-01 1.357313e-01 -2.746108e-01 -1.577114e-01 4.361923e-01
<VARIANCE> 39
 1.021049e+01 9.709108e+00 1.905940e+01 2.115004e+01 2.011704e+01 2.305948e+01 1.770076e+01 2.135848e+01 2.882908e+01 2.428005e+01 2.988593e+01 9.989140e+00 7.889454e+00 4.061400e-01 8.777868e-01 1.021341e+00 1.664243e+00 2.375303e+00 1.425975e+00 1.809433e+00 2.356308e+00 1.754672e+00 2.341458e+00 1.463118e+00 1.152725e+00 5.817540e-01 1.015309e-01 7.933539e-02 2.753199e-01 3.406692e-01 2.707042e-01 2.986157e-01 3.179290e-01 3.580909e-01 2.608569e-01 3.500869e-01 2.725848e-01 1.967382e-01 6.024830e-02
<GCONST> 9.222157e+01
<STATE> 3
<MEAN> 39
 3.139915e+00 4.681835e+00 7.112651e-01 -8.950303e-01 -1.205273e+00 1.199413e+00 -7.000706e+00 -3.621615e+00 -2.640512e+00 3.084056e-01 1.815856e+00 -3.325300e+00 4.884626e+01 -1.164621e-01 5.086203e-01 2.148548e-01 3.259948e-01 -1.662221e-01 -3.928783e-01 3.777460e-01 1.961081e-01 1.107384e-01 -2.913825e-01 -7.984654e-02 -8.996371e-02 -3.858875e-01 1.705590e-02 -7.177313e-02 -2.134227e-01 -1.480906e-01 -3.793510e-02 -5.974354e-03 6.747327e-02 1.614344e-01 9.617845e-02 -5.806773e-02 -7.926176e-02 2.880816e-02 -8.735896e-03
<VARIANCE> 39
 8.180289e+00 9.095990e+00 1.231729e+01 1.157297e+01 2.181061e+01 2.532068e+01 1.567544e+01 1.913989e+01 1.749702e+01 2.467081e+01 3.486747e+01 1.158502e+01 7.568383e+00 2.557898e-01 4.338616e-01 6.092855e-01 6.763422e-01 1.063320e+00 1.085914e+00 1.014736e+00 1.201779e+00 9.803399e-01 1.012795e+00 9.796294e-01 7.818962e-01 2.520218e-01 5.658738e-02 8.050130e-02 1.648982e-01 1.828422e-01 2.465690e-01 1.917095e-01 2.098344e-01 2.475257e-01 2.063750e-01 2.174479e-01 1.727864e-01 1.511550e-01 4.784182e-02
<GCONST> 7.797106e+01
<STATE> 4
<MEAN> 39
 -1.694171e+00 4.394115e+00 -8.811417e-01 7.311373e-01 -7.762259e-01 -2.670841e-01 -2.532518e+00 -5.492893e-01 -3.726486e-01 -1.745175e+00 4.309091e-01 -2.148555e+00 4.451258e+01 -3.903598e-01 -1.910847e-01 -2.423484e-01 5.089818e-02 -5.547273e-02 -1.654927e-01 2.904123e-01 2.257155e-01 2.099900e-01 -6.571915e-03 5.670951e-02 -4.389862e-03 -3.357798e-01 -2.950425e-02 -9.684666e-02 -3.682501e-02 -7.958268e-02 -6.792615e-02 -9.860788e-03 -7.940959e-02 -4.904453e-02 -2.241401e-02 3.135494e-02 1.274622e-02 9.179900e-04 3.477193e-02
<VARIANCE> 39
 1.618474e+01 1.030001e+01 1.156360e+01 1.543273e+01 2.534012e+01 2.569569e+01 1.989983e+01 1.825209e+01 1.862342e+01 1.612497e+01 2.236099e+01 1.225872e+01 1.048841e+01 3.654198e-01 6.752436e-01 9.384929e-01 1.082290e+00 1.415273e+00 1.445670e+00 1.404817e+00 1.431277e+00 1.175773e+00 1.239245e+00 1.327271e+00 9.764136e-01 1.798823e-01 6.582965e-02 1.230042e-01 2.080924e-01 2.155918e-01 2.893628e-01 2.769390e-01 2.728698e-01 2.800430e-01 2.309264e-01 2.148483e-01 2.475340e-01 2.048980e-01 3.504155e-02
<GCONST> 8.461879e+01
<TRANSP> 5
 0.000000e+00 1.000000e+00 0.000000e+00 0.000000e+00 0.000000e+00
 0.000000e+00 6.265037e-01 3.734962e-01 0.000000e+00 0.000000e+00
 0.000000e+00 0.000000e+00 7.848736e-01 2.151264e-01 0.000000e+00
 0.000000e+00 0.000000e+00 0.000000e+00 8.541486e-01 1.458515e-01
 0.000000e+00 0.000000e+00 0.000000e+00 0.000000e+00 0.000000e+00
<ENDHMM>
~h "n"
<BEGINHMM>
<NUMSTATES> 5
<STATE> 2
<MEAN> 39
 2.507643e+00 2.079965e+00 8.380275e-01 -3.555229e+00 -4.272119e+00 -4.830340e+00 -7.563045e+00 5.704252e+00 1.311764e-01 -4.310756e+00 -1.880464e+00 2.060324e+00 5.413689e+01 2.904913e-01 1.449728e+00 9.422759e-01 6.905380e-01 -2.359661e-01 4.829938e-01 6.461630e-01 -1.752533e+00 -8.670273e-02 -2.125389e-01 8.119680e-01 -2.938962e-02 -1.245564e+00 1.726933e-02 -9.288584e-02 -1.622384e-01 -1.511668e-01 8.769919e-02 3.075899e-01 -3.675207e-02 -1.551999e-01 1.830352e-01 2.214011e-01 -1.153807e-01 -2.674370e-01 -1.122962e-02
<VARIANCE> 39
 5.489491e+00 1.713040e+01 1.443142e+01 3.248684e+01 2.479172e+01 3.886861e+01 3.260945e+01 7.146874e+01 3.603813e+01 2.073038e+01 2.777695e+01 1.298536e+01 1.318400e+01 3.278331e-01 8.841401e-01 1.363874e+00 1.830195e+00 1.513472e+00 5.154815e+00 2.780800e+00 4.483510e+00 3.264872e+00 1.702824e+00 1.433380e+00 1.656252e+00 5.358796e-01 6.197016e-02 1.724695e-01 2.106888e-01 2.784653e-01 3.236959e-01 1.064164e+00 4.442550e-01 1.099592e+00 5.590215e-01 2.206887e-01 2.049510e-01 2.490827e-01 1.200913e-01
<GCONST> 1.019453e+02
<STATE> 3
<MEAN> 39
 -7.940192e-01 8.816041e+00 3.365401e+00 -1.807715e+00 -2.679478e+00 -3.206874e+00 -3.954666e+00 -2.456324e-01 -1.297814e-01 -2.107642e+00 -1.118726e+00 -5.294451e-01 4.940572e+01 -1.349398e+00 4.038299e-01 2.460243e-01 2.502347e-02 4.102331e-01 -7.184193e-01 1.512655e-01 1.314501e-01 -5.104292e-01 2.034265e-01 -3.897692e-02 1.994636e-02 3.164652e-01 -9.282421e-03 -1.260035e-01 1.163285e-01 -7.135129e-02 -1.816898e-01 -1.071707e-01 -9.718606e-02 3.730678e-02 -7.655534e-02 -3.539108e-02 2.463527e-02 6.763087e-02 1.946066e-01
<VARIANCE> 39
 4.594469e+01 1.590539e+01 1.557520e+01 1.411180e+01 3.409166e+01 2.581307e+01 2.357523e+01 3.149174e+01 2.783936e+01 1.312197e+01 2.301591e+01 1.224369e+01 1.030329e+01 3.207850e+00 1.490765e+00 1.589326e+00 1.272136e+00 2.140334e+00 2.686582e+00 2.298409e+00 2.585545e+00 2.462605e+00 1.326228e+00 1.632599e+00 1.104199e+00 1.359398e+00 8.503700e-01 3.225013e-01 3.136005e-01 2.281792e-01 5.051199e-01 4.920778e-01 3.743350e-01 5.302070e-01 4.277370e-01 2.536411e-01 3.284560e-01 2.242450e-01 1.910325e-01
<GCONST> 1.053835e+02
<STATE> 4
<MEAN> 39
 -5.711594e+00 7.446327e+00 1.083962e+01 -4.568596e+00 -6.978067e+00 -8.427485e+00 -5.827603e+00 -9.363633e-01 -5.087356e+00 -3.921931e-01 7.282472e-02 1.241243e+00 5.556627e+01 1.473518e+00 -9.162052e-01 1.609824e+00 -6.771047e-01 -1.998488e+00 7.307240e-01 -5.518004e-01 -4.863375e-01 -5.456910e-01 2.103482e-01 2.368888e-01 -3.490162e-01 1.331442e-01 1.686267e-01 -3.406021e-02 -1.433980e-01 -1.205023e-02 6.859037e-03 4.185318e-01 6.088940e-02 2.281658e-02 2.149496e-02 5.599629e-02 -5.980555e-02 -2.007758e-01 -2.714739e-01
<VARIANCE> 39
 2.033445e+01 1.783823e+01 2.263473e+01 3.571661e+01 4.151298e+01 2.251707e+01 1.694162e+01 2.406762e+01 2.713111e+01 1.962217e+01 1.189176e+01 7.655825e+00 7.321275e+00 1.101993e+00 1.334819e+00 1.380834e+00 1.460828e+00 2.502219e+00 2.248145e+00 1.396014e+00 1.306412e+00 1.479877e+00 1.324793e+00 1.036429e+00 8.630141e-01 4.791938e-01 4.917929e-01 3.262047e-01 2.978670e-01 2.198233e-01 4.459583e-01 4.090740e-01 2.929133e-01 2.285588e-01 2.749059e-01 2.378913e-01 2.074432e-01 1.360561e-01 5.964804e-02
<GCONST> 9.506279e+01
<TRANSP> 5
 0.000000e+00 1.000000e+00 0.000000e+00 0.000000e+00 0.000000e+00
 0.000000e+00 8.427886e-01 1.572114e-01 0.000000e+00 0.000000e+00
 0.000000e+00 0.000000e+00 8.969949e-01 1.030051e-01 0.000000e+00
 0.000000e+00 0.000000e+00 0.000000e+00 7.929125e-01 2.070875e-01
 0.000000e+00 0.000000e+00 0.000000e+00 0.000000e+00 0.000000e+00
<ENDHMM>
~h "p"
<BEGINHMM>
<NUMSTATES> 5
<STATE> 2
<MEAN> 39
 -3.610443e+00 9.690212e-01 -7.731822e+00 -3.884581e+00 -2.957234e+00 -2.474651e-01 -5.029674e-01 1.323301e+00 2.171738e+00 -1.942494e+00 1.501788e-02 -3.777493e+00 4.217897e+01 -9.755330e-01 -3.406063e-01 -1.853352e-01 8.683922e-02 -2.870156e-01 -2.469804e-01 4.964302e-01 3.474684e-01 7.547223e-02 -2.437838e-01 -1.780579e-01 9.579928e-02 -6.000286e-01 2.625609e-01 -1.177744e-01 2.083532e-02 -2.067116e-01 2.730386e-02 9.862387e-02 -2.564418e-01 -1.118647e-01 -5.036964e-02 2.143693e-01 1.164196e-02 1.040258e-01 4.160893e-01
<VARIANCE> 39
 1.488637e+01 1.060057e+01 1.388054e+01 1.578761e+01 1.839857e+01 1.742450e+01 1.915708e+01 2.201457e+01 1.881693e+01 1.842057e+01 1.458251e+01 1.244628e+01 5.493749e+00 7.444128e-01 6.334603e-01 9.985549e-01 1.387838e+00 1.375185e+00 1.468645e+00 1.764651e+00 2.548894e+00 1.796506e+00 1.316342e+00 1.043872e+00 1.106768e+00 4.117859e-01 1.242032e-01 2.091085e-01 2.586922e-01 3.893245e-01 3.182728e-01 2.949214e-01 3.657101e-01 5.765928e-01 3.932984e-01 2.996606e-01 1.967889e-01 2.404989e-01 1.180060e-01
<GCONST> 9.140024e+01
<STATE> 3
<MEAN> 39
 -5.879869e+00 6.439807e-01 -6.975692e+00 -2.540656e+00 -3.658468e+00 -3.064284e-01 4.209982e-01 1.210666e+00 2.492445e+00 -2.165856e+00 3.843147e-01 -2.727592e+00 4.134591e+01 -2.710525e-01 -1.600047e-01 4.205558e-01 4.084371e-01 2.280081e-01 -1.445737e-01 -1.635410e-01 6.508082e-04 -1.312544e-01 1.741962e-01 -3.111169e-02 2.295111e-01 2.229505e-01 1.988131e-01 -7.084059e-02 1.999046e-01 -6.037480e-02 4.274751e-02 3.082990e-02 -2.182809e-01 -2.939550e-02 -1.444932e-01 1.371080e-01 3.376049e-03 -6.977537e-02 4.005917e-01
<VARIANCE> 39
 8.242732e+00 8.048346e+00 1.097664e+01 1.996107e+01 1.461921e+01 1.572062e+01 1.889318e+01 1.851936e+01 1.720007e+01 1.534360e+01 1.266854e+01 1.021812e+01 6.161096e+00 3.408242e-01 5.458393e-01 6.539715e-01 1.081132e+00 1.252350e+00 1.377526e+00 1.641380e+00 1.801852e+00 1.408626e+00 1.222460e+00 1.139122e+00 1.053077e+00 4.263563e-01 1.381375e-01 1.180663e-01 2.930577e-01 3.082233e-01 3.144482e-01 3.121913e-01 3.821078e-01 3.532515e-01 3.066986e-01 2.587348e-01 2.395441e-01 2.046047e-01 1.396477e-01
<GCONST> 8.592558e+01
<STATE> 4
<MEAN> 39
 -5.743567e+00 -8.250669e-01 -4.764333e+00 -1.936288e+00 -2.485888e+00 -1.560952e+00 -1.479961e+00 1.502178e+00 4.704217e-01 -2.118492e-01 -6.079317e-01 -1.858372e+00 4.451032e+01 1.498244e+00 -3.382145e-01 1.378378e+00 -1.079850e+00 -6.055847e-01 4.830070e-01 -1.413126e+00 -2.673953e-01 -1.039264e+00 9.595315e-01 1.333102e-01 -2.173247e-01 2.751074e+00 6.859419e-01 -1.958445e-02 3.590848e-02 -8.132986e-01 -3.666428e-01 2.975011e-01 -4.246003e-01 -9.264765e-02 -1.124108e-01 1.962420e-01 1.266611e-02 -2.561931e-01 6.946493e-01
<VARIANCE> 39
 1.477295e+01 1.365773e+01 2.025484e+01 2.091817e+01 1.849174e+01 2.473217e+01 2.199570e+01 2.015341e+01 1.855651e+01 1.804266e+01 1.499574e+01 1.223673e+01 2.097347e+01 3.328810e+00 1.453689e+00 7.136196e+00 4.623250e+00 4.068366e+00 2.923527e+00 3.084385e+00 2.354764e+00 2.791387e+00 2.260189e+00 1.741132e+00 1.347534e+00 2.192984e+00 2.847277e-01 3.591492e-01 7.407846e-01 3.932730e-01 4.782995e-01 4.035624e-01 4.605813e-01 4.410331e-01 4.792837e-01 3.076849e-01 3.088227e-01 2.284051e-01 3.413185e-01
<GCONST> 1.099408e+02
<TRANSP> 5
 0.000000e+00 1.000000e+00 0.000000e+00 0.000000e+00 0.000000e+00
 0.000000e+00 7.286398e-01 2.713601e-01 0.000000e+00 0.000000e+00
 0.000000e+00 0.000000e+00 7.209860e-01 2.790139e-01 0.000000e+00
 0.000000e+00 0.000000e+00 0.000000e+00 6.674277e-01 3.325723e-01
 0.000000e+00 0.000000e+00 0.000000e+00 0.000000e+00 0.000000e+00
<ENDHMM>
~h "r"
<BEGINHMM>
<NUMSTATES> 5
<STATE> 2
<MEAN> 39
 5.768152e+00 5.148774e+00 -4.100244e+00 -1.318931e+01 -7.313446e+00 1.332986e+00 -1.014821e+01 -3.236922e+00 -5.393988e+00 -5.719112e-01 1.948626e+00 1.925508e+00 5.224434e+01 -4.294638e-02 -6.715090e-01 -5.023838e-01 -3.643482e-01 5.006825e-01 1.245588e-01 -5.073609e-01 1.742840e-01 2.885078e-01 9.540816e-01 1.785534e-01 -2.797919e-01 4.662476e-01 -9.697938e-02 -1.612063e-01 -7.085817e-02 -1.261542e-02 1.387280e-01 7.725281e-03 1.882106e-03 1.114494e-01 1.884135e-01 2.285535e-01 -9.214318e-02 -1.581983e-01 5.881091e-02
<VARIANCE> 39
 8.056236e+00 2.027135e+01 1.401070e+01 4.667692e+01 2.395900e+01 3.319697e+01 3.320440e+01 3.340252e+01 4.073580e+01 2.352358e+01 1.480547e+01 1.544716e+01 8.629902e+00 3.775942e-01 7.706810e-01 8.204623e-01 2.194893e+00 1.989836e+00 1.488968e+00 1.913226e+00 2.201504e+00 1.862206e+00 1.826800e+00 1.094382e+00 1.192815e+00 3.757038e-01 5.544274e-02 9.008272e-02 1.498698e-01 3.392617e-01 3.469326e-01 2.972469e-01 3.599627e-01 3.704931e-01 3.206235e-01 2.559299e-01 2.464070e-01 1.906677e-01 5.327741e-02
<GCONST> 9.273312e+01
<STATE> 3
<MEAN> 39
 4.043675e+00 -2.780485e+00 -9.266649e+00 -1.418586e+01 -2.387974e+00 1.025613e+00 -1.208945e+01 4.911825e+00 5.817788e-01 8.076026e+00 -2.662921e+00 -3.243893e+00 5.779876e+01 -1.394089e-01 -6.236489e-01 -2.182563e-01 2.927373e-01 1.509431e-01 -2.331148e-01 1.466734e-01 8.441936e-01 8.772878e-01 -9.527757e-02 -8.872960e-01 -3.357338e-01 2.891839e-01 2.278580e-02 1.080633e-01 1.397758e-01 1.496258e-01 -8.891052e-02 -1.079339e-02 9.319093e-02 -1.234372e-01 -8.972280e-02 -2.818318e-01 4.092091e-02 1.619853e-01 -1.144508e-01
<VARIANCE> 39
 6.845697e+00 1.179908e+01 1.678167e+01 5.707390e+01 1.991771e+01 2.586721e+01 2.656808e+01 3.719703e+01 4.334411e+01 3.375211e+01 2.851128e+01 1.545891e+01 1.183876e+01 4.144865e-01 6.809725e-01 1.226079e+00 2.543716e+00 1.521440e+00 2.017771e+00 2.588676e+00 2.319155e+00 2.762902e+00 3.231986e+00 1.616824e+00 1.490655e+00 6.422344e-01 8.445670e-02 1.234753e-01 2.363244e-01 3.888338e-01 3.021972e-01 3.249239e-01 5.378450e-01 4.195017e-01 5.564823e-01 5.258470e-01 2.909088e-01 2.139082e-01 1.156940e-01
<GCONST> 1.004121e+02
<STATE> 4
<MEAN> 39
 3.710533e+00 -5.477915e+00 -7.313066e+00 -9.269241e+00 -3.459972e+00 -9.373277e-02 -1.027557e+01 6.903505e+00 4.382458e+00 1.043495e+00 -4.340673e+00 -2.396592e+00 5.658027e+01 -1.389327e-01 7.680073e-02 1.095917e-01 1.756081e-01 1.005021e-01 8.946042e-02 1.646747e-01 -7.822954e-02 -9.307040e-02 -1.166932e-01 8.278818e-02 5.778933e-03 -1.997670e-01 -1.423968e-02 2.940517e-02 -5.379501e-03 -1.066067e-02 1.452441e-02 -2.873763e-03 -6.043248e-03 -2.737665e-02 -1.583368e-02 3.271980e-02 2.979810e-02 -1.335371e-02 -3.558866e-02
<VARIANCE> 39
 8.859736e+00 1.392554e+01 1.678930e+01 4.973355e+01 2.320509e+01 2.293843e+01 3.668863e+01 2.927141e+01 3.526944e+01 2.279697e+01 2.335653e+01 1.583198e+01 2.333961e+01 5.577278e-01 6.817134e-01 9.190312e-01 1.893367e+00 1.307818e+00 1.091426e+00 1.973782e+00 1.556356e+00 1.632025e+00 1.024342e+00 1.107370e+00 7.872390e-01 8.135655e-01 1.054049e-01 1.258107e-01 1.611202e-01 2.839087e-01 2.263885e-01 1.880917e-01 3.906006e-01 2.916547e-01 3.050682e-01 1.729973e-01 1.900841e-01 1.286552e-01 1.413741e-01
<GCONST> 9.211903e+01
<TRANSP> 5
 0.000000e+00 1.000000e+00 0.000000e+00 0.000000e+00 0.000000e+00
 0.000000e+00 8.490922e-01 1.509079e-01 0.000000e+00 0.000000e+00
 0.000000e+00 0.000000e+00 8.594920e-01 1.405080e-01 0.000000e+00
 0.000000e+00 0.000000e+00 0.000000e+00 9.500896e-01 4.991043e-02
 0.000000e+00 0.000000e+00 0.000000e+00 0.000000e+00 0.000000e+00
<ENDHMM>
~h "s"
<BEGINHMM>
<NUMSTATES> 5
<STATE> 2
<MEAN> 39
 -7.260423e+00 -1.318381e+00 -3.672803e+00 -8.943768e-01 -2.180809e+00 -1.797755e+00 -1.625208e+00 1.582891e+00 1.418563e+00 -5.684268e-01 -6.836285e-01 -8.097200e-01 4.114148e+01 -5.917643e-01 3.131485e-02 1.397381e-01 -3.125286e-01 2.146909e-01 -1.968227e-01 -2.262010e-02 2.398811e-01 -1.673806e-01 1.019532e-01 -2.163884e-02 1.459178e-01 3.135318e-01 -2.103075e-01 7.761423e-02 6.983332e-02 -1.425804e-01 7.019960e-02 -3.797859e-02 -5.200278e-02 1.006946e-01 -3.978419e-02 2.585141e-02 -4.574591e-02 5.118087e-02 1.745640e-01
<VARIANCE> 39
 1.300111e+01 1.672720e+01 1.794091e+01 2.024430e+01 2.343828e+01 2.849550e+01 2.271860e+01 2.224414e+01 1.849852e+01 1.862873e+01 1.911878e+01 1.723677e+01 1.703652e+01 1.901485e+00 1.163986e+00 1.444180e+00 1.739405e+00 2.002559e+00 2.297545e+00 1.954382e+00 1.944353e+00 2.056932e+00 1.669562e+00 1.356185e+00 1.225892e+00 1.015626e+00 2.407644e-01 2.113116e-01 2.481010e-01 2.900645e-01 3.409624e-01 4.046043e-01 3.008991e-01 2.780044e-01 3.511908e-01 3.196025e-01 2.557831e-01 2.137813e-01 1.374320e-01
<GCONST> 9.934373e+01
<STATE> 3
<MEAN> 39
 -1.249547e+01 5.895047e-02 -1.325510e+00 -5.369337e+00 -2.258576e+00 -2.686864e+00 -4.090033e+00 2.403432e+00 8.324764e-01 -1.857151e-02 -1.847465e+00 5.132436e-01 4.487903e+01 -1.863045e+00 6.029161e-01 5.167183e-01 -6.731427e-01 4.986120e-01 1.420029e-01 -1.677701e-01 4.783181e-01 -2.803984e-01 1.948800e-01 -1.961634e-01 1.548968e-01 1.086171e+00 5.706370e-02 3.208547e-02 -1.206663e-01 1.263727e-01 -6.189936e-02 2.311739e-01 1.396345e-02 -9.699033e-02 7.983269e-04 -3.641284e-02 6.939013e-02 -1.013837e-01 -2.595467e-02
<VARIANCE> 39
 2.531586e+01 1.982767e+01 2.707288e+01 2.308175e+01 4.129606e+01 4.758974e+01 3.966948e+01 3.995296e+01 2.632942e+01 2.272022e+01 1.601019e+01 1.581692e+01 1.252970e+01 2.275725e+00 1.042958e+00 1.485936e+00 1.778621e+00 1.959739e+00 2.998564e+00 2.540254e+00 2.424591e+00 1.839603e+00 1.617221e+00 1.459203e+00 1.251099e+00 7.368931e-01 1.686542e-01 1.834513e-01 1.946504e-01 2.530832e-01 2.834138e-01 5.209128e-01 3.794613e-01 4.187853e-01 3.439306e-01 3.106105e-01 2.691922e-01 2.009941e-01 5.533606e-02
<GCONST> 1.022669e+02
<STATE> 4
<MEAN> 39
 -1.881141e+01 2.372044e+00 -2.276318e+00 -6.790884e+00 -2.327978e-01 -1.956060e+00 -4.987101e+00 4.129770e+00 -5.171213e-01 5.892614e-01 -1.656232e+00 7.357406e-01 5.051060e+01 2.430926e-01 -5.071275e-01 -1.324901e-01 2.220998e-01 -4.179442e-01 3.887199e-02 -2.983819e-01 -7.018103e-02 2.633645e-01 4.856300e-02 -1.493061e-01 1.814766e-02 4.770979e-01 6.954665e-01 -2.039162e-01 -7.579871e-02 1.121837e-01 -8.610775e-02 -3.183151e-02 -1.612965e-01 -9.333692e-02 1.355009e-01 2.894826e-02 -4.456086e-02 -5.135528e-02 -1.149014e-01
<VARIANCE> 39
 1.375084e+01 2.044753e+01 2.977992e+01 2.038435e+01 4.082978e+01 5.003652e+01 3.511198e+01 3.376443e+01 2.706720e+01 1.941075e+01 1.612296e+01 1.476060e+01 1.208649e+01 4.680898e+00 1.446015e+00 1.368444e+00 1.616525e+00 2.005201e+00 2.405455e+00 2.583951e+00 2.066234e+00 2.123023e+00 1.877703e+00 1.376871e+00 1.262194e+00 5.894247e-01 3.010443e-01 2.443074e-01 2.738945e-01 3.524571e-01 4.244553e-01 4.826363e-01 4.494883e-01 4.028410e-01 3.512421e-01 3.602957e-01 2.693839e-01 2.459188e-01 1.489000e-01
<GCONST> 1.050872e+02
<TRANSP> 5
 0.000000e+00 1.000000e+00 0.000000e+00 0.000000e+00 0.000000e+00
 0.000000e+00 8.415549e-01 1.584451e-01 0.000000e+00 0.000000e+00
 0.000000e+00 0.000000e+00 7.020538e-01 2.979462e-01 0.000000e+00
 0.000000e+00 0.000000e+00 0.000000e+00 8.768532e-01 1.231469e-01
 0.000000e+00 0.000000e+00 0.000000e+00 0.000000e+00 0.000000e+00
<ENDHMM>
~h "t"
<BEGINHMM>
<NUMSTATES> 5
<STATE> 2
<MEAN> 39
 -2.309259e+00 8.425397e-01 -6.989667e+00 -5.302736e+00 -2.578197e+00 -2.966754e+00 -2.416742e+00 1.929049e+00 2.168906e+00 -2.660507e+00 -1.569542e+00 -1.121681e+00 4.567909e+01 -1.333421e-01 -7.374455e-01 6.303065e-02 -6.277862e-01 7.296893e-02 -1.807264e-01 -3.983965e-01 2.685546e-01 -2.753095e-01 1.837769e-01 -3.340728e-01 9.623820e-02 9.796634e-01 1.552817e-01 -1.974950e-01 1.474306e-02 -2.551893e-01 3.246172e-02 -7.275519e-02 -3.085682e-01 1.353339e-01 5.497700e-02 2.256908e-01 -1.520953e-01 -8.133132e-03 4.782280e-01
<VARIANCE> 39
 3.225921e+01 1.792599e+01 1.464543e+01 3.734843e+01 1.678875e+01 2.928808e+01 2.946972e+01 2.882134e+01 2.295463e+01 2.632423e+01 1.698148e+01 1.695767e+01 4.828970e+01 2.507137e+00 1.819141e+00 1.468403e+00 2.978677e+00 1.871808e+00 3.176079e+00 3.788051e+00 2.534582e+00 2.426249e+00 2.144765e+00 1.420538e+00 1.051113e+00 6.352421e+00 3.460255e-01 2.825499e-01 2.669524e-01 4.506910e-01 3.448286e-01 5.640877e-01 5.952889e-01 4.229669e-01 4.325711e-01 3.943583e-01 2.578681e-01 1.902461e-01 4.914902e-01
<GCONST> 1.112120e+02
<STATE> 3
<MEAN> 39
 -1.425788e+00 -3.358923e+00 -6.451797e+00 -1.014638e+01 -2.648694e+00 -2.808593e+00 -6.019140e+00 5.448445e+00 2.088114e+00 1.016084e+00 -4.270003e+00 -1.766645e+00 5.103690e+01 -2.940575e-01 -9.402684e-01 2.485419e-01 -3.668271e-01 3.448582e-01 -8.285062e-01 -7.192866e-01 8.841354e-01 -2.514429e-02 5.351980e-01 -7.459673e-01 2.365728e-01 1.644658e+00 1.597870e-01 4.264352e-01 2.177646e-01 4.316433e-01 -1.240945e-01 -4.023481e-02 -4.475595e-02 -2.319611e-01 -6.989436e-02 -5.302988e-04 1.399559e-01 6.085835e-03 -1.953861e-01
<VARIANCE> 39
 4.220435e+01 2.666921e+01 1.836836e+01 3.759802e+01 2.572561e+01 3.687085e+01 5.128454e+01 4.355256e+01 4.122195e+01 4.094730e+01 2.590862e+01 1.451804e+01 6.588561e+01 1.751757e+00 1.551463e+00 1.926571e+00 2.902254e+00 2.933068e+00 3.251406e+00 3.662930e+00 3.369344e+00 2.400896e+00 1.884920e+00 2.266340e+00 1.083272e+00 4.480188e+00 6.315053e-01 3.489791e-01 2.588111e-01 5.305789e-01 4.779746e-01 6.426325e-01 8.441398e-01 5.873607e-01 5.141790e-01 4.500521e-01 3.539330e-01 2.433714e-01 7.026000e-01
<GCONST> 1.191048e+02
<STATE> 4
<MEAN> 39
 -7.170980e-01 -1.058660e+00 -1.132042e+00 -8.453143e+00 -7.568774e+00 -8.769447e+00 -7.810105e+00 8.126284e+00 -1.894814e+00 3.245093e+00 -4.050325e+00 1.282388e-01 5.422826e+01 4.877973e-02 6.351449e-01 6.696638e-01 5.393974e-01 8.408828e-03 -2.469099e-01 1.954866e-02 -5.838939e-01 -2.613383e-01 1.158247e-01 3.600486e-01 -3.813740e-02 -1.348601e-01 2.408237e-01 2.381109e-01 -1.184916e-01 3.694244e-02 8.449209e-02 4.107806e-01 -2.679766e-02 -2.687631e-01 1.109447e-01 -1.776621e-02 1.260487e-01 -1.502168e-01 -2.563152e-01
<VARIANCE> 39
 2.979325e+01 2.331431e+01 5.191186e+01 2.339497e+01 5.320104e+01 4.289441e+01 3.350246e+01 7.282315e+01 6.056194e+01 2.882699e+01 2.440216e+01 1.127898e+01 4.756239e+01 1.666185e+00 1.262242e+00 2.215047e+00 1.969918e+00 3.466323e+00 2.882048e+00 3.395038e+00 2.402920e+00 3.707448e+00 2.253726e+00 1.814726e+00 1.200026e+00 3.854633e+00 4.653844e-01 3.381281e-01 3.184480e-01 3.758748e-01 4.748291e-01 6.463869e-01 6.036581e-01 5.230284e-01 5.747983e-01 3.521507e-01 4.183235e-01 2.449506e-01 4.520411e-01
<GCONST> 1.176919e+02
<TRANSP> 5
 0.000000e+00 1.000000e+00 0.000000e+00 0.000000e+00 0.000000e+00
 0.000000e+00 6.374338e-01 3.625662e-01 0.000000e+00 0.000000e+00
 0.000000e+00 0.000000e+00 3.829253e-01 6.170748e-01 0.000000e+00
 0.000000e+00 0.000000e+00 0.000000e+00 5.623386e-01 4.376614e-01
 0.000000e+00 0.000000e+00 0.000000e+00 0.000000e+00 0.000000e+00
<ENDHMM>
~h "u"
<BEGINHMM>
<NUMSTATES> 5
<STATE> 2
<MEAN> 39
 -6.103035e+00 1.189578e+00 -2.630449e+00 -2.509402e+00 -3.526592e+00 -3.997613e+00 -5.033393e+00 -1.829176e-01 7.041423e-01 -2.347025e-01 -4.534377e-01 -1.242935e+00 4.565704e+01 5.534577e-01 -1.614666e-01 -3.332977e-01 1.935598e-01 4.401597e-01 1.050464e-01 -2.573727e-01 -2.425506e-01 3.433502e-02 2.327300e-01 1.480256e-01 -3.044332e-02 -2.254304e-01 2.540049e-01 2.205328e-01 2.096760e-01 -3.898320e-01 -5.233821e-02 2.644148e-01 -3.218198e-01 -1.393065e-01 -2.503063e-01 1.589113e-01 5.718470e-02 9.924555e-02 3.837016e-01
<VARIANCE> 39
 4.403218e+01 2.622323e+01 1.550619e+01 2.378416e+01 2.873368e+01 3.112013e+01 2.823598e+01 2.996295e+01 1.957885e+01 2.219411e+01 1.687189e+01 1.395846e+01 2.142059e+01 6.414119e+00 2.147232e+00 2.046247e+00 2.836836e+00 2.754085e+00 2.557740e+00 4.331454e+00 2.830430e+00 1.864753e+00 1.994233e+00 1.601494e+00 1.304679e+00 2.431243e+00 6.472735e-01 4.730744e-01 3.119354e-01 4.302751e-01 5.708473e-01 5.627072e-01 6.317845e-01 6.054084e-01 4.183759e-01 3.552745e-01 3.365335e-01 2.769338e-01 4.148864e-01
<GCONST> 1.141070e+02
<STATE> 3
<MEAN> 39
 -1.300540e+00 1.265333e+00 -1.293675e+00 -4.351529e+00 -2.080947e+00 -2.059348e+00 -1.150510e+01 -1.819416e+00 3.606331e-01 3.161479e+00 -7.945990e-01 -1.548654e-01 5.016720e+01 2.736362e+00 1.462203e+00 3.623638e-01 -1.581793e+00 -4.912631e-01 1.452781e+00 -1.549472e+00 -1.630641e+00 -1.297549e+00 6.908002e-01 7.372981e-01 3.366284e-01 9.220659e-01 -4.260941e-01 1.837814e-01 -1.779869e-01 -6.072729e-01 -3.277352e-01 1.752022e-01 4.683126e-01 8.443303e-02 -4.673893e-01 -3.329293e-01 1.366715e-01 1.782245e-01 1.179492e-02
<VARIANCE> 39
 4.694880e+01 2.735608e+01 1.470793e+01 3.531273e+01 2.787345e+01 3.953453e+01 4.644133e+01 3.797912e+01 2.798575e+01 2.268773e+01 1.715812e+01 1.566309e+01 2.086345e+01 8.234488e+00 2.189387e+00 1.657055e+00 3.327513e+00 3.049206e+00 3.847104e+00 4.527940e+00 4.688585e+00 3.633945e+00 2.563268e+00 1.855428e+00 1.844695e+00 2.084692e+00 7.117168e-01 5.487351e-01 3.351619e-01 6.269996e-01 5.089983e-01 5.950640e-01 8.391356e-01 7.054825e-01 5.217587e-01 4.948329e-01 3.430477e-01 2.994927e-01 3.546574e-01
<GCONST> 1.200816e+02
<STATE> 4
<MEAN> 39
 4.076013e+00 4.958176e+00 -3.905102e+00 -1.217900e+01 -5.006923e+00 2.593047e+00 -1.088345e+01 -4.841420e+00 -5.343550e+00 1.257760e+00 2.101398e+00 1.844083e+00 5.215595e+01 -1.247866e-01 -8.410245e-03 -4.087744e-01 -3.726974e-01 -8.052813e-02 3.232692e-02 5.001433e-01 3.103004e-01 -7.414557e-02 -2.153951e-01 3.585973e-02 7.805154e-02 -6.800987e-03 -3.200324e-01 -2.404856e-01 -1.731156e-02 3.129984e-01 1.381059e-01 -2.609209e-01 1.835207e-01 3.066728e-01 3.239030e-01 -3.263576e-02 -1.972198e-01 -1.550222e-01 -9.233256e-02
<VARIANCE> 39
 2.418560e+01 1.538566e+01 1.286608e+01 3.096308e+01 2.118231e+01 3.231317e+01 3.396562e+01 3.343433e+01 3.595650e+01 3.338754e+01 1.597918e+01 2.057673e+01 1.228744e+01 1.642790e+00 1.526435e+00 8.805819e-01 3.903743e+00 2.043907e+00 2.432905e+00 2.654755e+00 2.841237e+00 3.133885e+00 2.704927e+00 1.512985e+00 1.757948e+00 1.414651e+00 2.980291e-01 1.888603e-01 1.773868e-01 4.630059e-01 3.581688e-01 4.424894e-01 5.429853e-01 5.679004e-01 4.289343e-01 4.619242e-01 2.907886e-01 2.820323e-01 1.434781e-01
<GCONST> 1.073264e+02
<TRANSP> 5
 0.000000e+00 1.000000e+00 0.000000e+00 0.000000e+00 0.000000e+00
 0.000000e+00 6.148071e-01 3.851929e-01 0.000000e+00 0.000000e+00
 0.000000e+00 0.000000e+00 5.523976e-01 4.476024e-01 0.000000e+00
 0.000000e+00 0.000000e+00 0.000000e+00 7.915261e-01 2.084739e-01
 0.000000e+00 0.000000e+00 0.000000e+00 0.000000e+00 0.000000e+00
<ENDHMM>
~h "y"
<BEGINHMM>
<NUMSTATES> 5
<STATE> 2
<MEAN> 39
 -7.965909e-01 3.405624e-01 6.650852e+00 -8.641054e+00 -1.240477e+01 -4.805829e+00 -7.348646e+00 4.504271e+00 -4.173655e+00 -2.217781e-01 -1.520101e-01 3.471981e-01 5.703971e+01 -2.573998e-01 8.166029e-01 1.376380e+00 9.602268e-02 -8.156043e-01 -2.706085e-01 -1.459079e-01 -7.155631e-01 -7.619562e-01 1.577121e-01 7.771016e-01 1.295257e-01 -3.481917e-01 4.332527e-02 -1.686232e-01 -3.287730e-01 -7.261607e-02 1.813225e-01 6.675351e-02 7.454631e-02 8.169405e-02 1.871114e-01 2.185572e-02 -1.229744e-01 -4.847393e-02 5.782029e-02
<VARIANCE> 39
 5.876331e+00 2.414319e+01 4.128920e+01 3.942730e+01 3.280674e+01 2.588048e+01 3.159500e+01 4.113855e+01 2.899485e+01 2.325142e+01 2.645608e+01 1.298322e+01 1.636488e+01 2.540291e-01 1.244144e+00 2.417079e+00 1.249973e+00 1.697861e+00 1.558068e+00 1.394518e+00 2.357861e+00 2.507770e+00 9.892855e-01 1.241781e+00 1.271496e+00 3.110959e-01 4.788361e-02 1.582482e-01 2.450961e-01 1.958196e-01 3.016417e-01 3.298857e-01 3.011234e-01 4.884100e-01 3.491479e-01 1.821295e-01 1.987829e-01 2.365833e-01 5.201250e-02
<GCONST> 9.449152e+01
<STATE> 3
<MEAN> 39
 -4.396986e-01 -6.109825e-01 3.454971e+00 -9.819016e+00 -1.332693e+01 -6.468589e+00 -5.559861e+00 7.298784e+00 -5.062689e-01 4.945721e-01 -8.689038e-01 1.856304e+00 5.703436e+01 3.887580e-01 -9.299405e-01 -1.985555e+00 -2.437576e-01 8.647014e-01 2.907321e-01 4.440812e-01 1.215797e+00 1.528237e+00 6.390125e-02 -1.104367e+00 -5.333519e-02 2.172280e-01 2.547109e-02 4.390083e-03 -6.856359e-02 4.058360e-02 2.734309e-01 2.801892e-01 -1.414800e-01 -1.240571e-01 -2.640608e-02 1.671189e-02 -8.345983e-02 -2.415101e-01 -5.675454e-02
<VARIANCE> 39
 8.980700e+00 1.401063e+01 2.862477e+01 2.513743e+01 2.489861e+01 2.900042e+01 4.444615e+01 3.482303e+01 4.854644e+01 1.964728e+01 2.550799e+01 1.166195e+01 9.923372e+00 5.555158e-01 6.592947e-01 1.150352e+00 1.393197e+00 2.745014e+00 2.347233e+00 2.743460e+00 1.975091e+00 2.394030e+00 1.750743e+00 1.234292e+00 1.126112e+00 4.288897e-01 1.111373e-01 1.464902e-01 2.483456e-01 2.436048e-01 5.423846e-01 4.003929e-01 4.693446e-01 4.967698e-01 5.070447e-01 2.640480e-01 2.866104e-01 1.739220e-01 6.996950e-02
<GCONST> 9.822856e+01
<STATE> 4
<MEAN> 39
 1.730279e+00 -4.439641e+00 -5.565627e+00 -1.105969e+01 -5.065043e+00 -1.801498e+00 -4.375194e+00 9.330095e+00 4.522403e+00 6.766488e-01 -6.196550e+00 -2.422427e+00 5.703209e+01 3.416360e-01 -1.229976e-01 -7.814407e-01 7.436414e-02 1.172415e+00 1.013851e+00 -4.051431e-01 -8.627074e-01 -5.026031e-02 2.130984e-01 1.845757e-01 -8.696727e-01 -2.684916e-01 7.555243e-02 2.436788e-01 2.237241e-01 -3.160598e-02 -2.533580e-01 8.841529e-04 -1.477612e-01 -4.096361e-01 -2.060084e-01 9.562682e-03 4.459956e-01 1.201807e-01 -1.368135e-01
<VARIANCE> 39
 5.698519e+00 1.019403e+01 2.087419e+01 2.162630e+01 2.113020e+01 1.568011e+01 3.223166e+01 2.851840e+01 3.848842e+01 2.766975e+01 2.174955e+01 1.680589e+01 1.290874e+01 2.649591e-01 5.976868e-01 1.078971e+00 1.034657e+00 1.628153e+00 1.406150e+00 1.672390e+00 1.628241e+00 1.857409e+00 1.338637e+00 1.680685e+00 1.089064e+00 2.977575e-01 6.936740e-02 9.814940e-02 2.256005e-01 2.079309e-01 3.086540e-01 2.107180e-01 3.246514e-01 3.315169e-01 4.286757e-01 2.191806e-01 3.474401e-01 2.070597e-01 5.853724e-02
<GCONST> 8.946342e+01
<TRANSP> 5
 0.000000e+00 1.000000e+00 0.000000e+00 0.000000e+00 0.000000e+00
 0.000000e+00 9.041823e-01 9.581777e-02 0.000000e+00 0.000000e+00
 0.000000e+00 0.000000e+00 8.471697e-01 1.528303e-01 0.000000e+00
 0.000000e+00 0.000000e+00 0.000000e+00 7.917698e-01 2.082302e-01
 0.000000e+00 0.000000e+00 0.000000e+00 0.000000e+00 0.000000e+00
<ENDHMM>
~h "ng"
<BEGINHMM>
<NUMSTATES> 5
<STATE> 2
<MEAN> 39
 -3.171113e+00 3.130797e+00 1.347372e-01 1.706530e+00 -1.214622e-01 -2.284418e-01 -7.973512e-01 7.282887e-01 4.292850e-01 -1.432988e+00 -8.790826e-01 -4.566871e-01 4.153756e+01 -2.994439e-01 -2.555808e-01 -3.354686e-01 -1.358853e-01 7.115180e-02 -1.170697e-02 1.433617e-01 2.312052e-01 9.489303e-02 1.059081e-03 1.003926e-01 -2.355151e-02 -2.359028e-01 1.348760e-02 -4.181573e-03 -2.530872e-02 -4.897803e-02 -7.245290e-02 -4.138339e-02 -2.558530e-02 -3.942781e-02 -5.022052e-03 4.545717e-02 2.542743e-02 -7.942658e-04 1.396896e-02
<VARIANCE> 39
 5.942850e+00 1.115092e+01 1.127235e+01 1.309900e+01 1.419004e+01 1.736156e+01 1.612448e+01 2.145269e+01 1.613211e+01 1.863434e+01 1.307292e+01 1.265503e+01 1.150410e+01 3.674412e-01 6.579072e-01 9.302514e-01 1.171568e+00 1.292195e+00 1.325926e+00 1.460121e+00 1.401265e+00 1.423486e+00 1.269864e+00 1.048768e+00 9.414393e-01 1.215109e-01 6.037106e-02 1.066828e-01 1.583183e-01 2.218118e-01 2.506960e-01 2.517564e-01 2.969817e-01 2.684627e-01 2.613256e-01 2.325012e-01 1.949565e-01 1.892371e-01 1.790696e-02
<GCONST> 8.005864e+01
<STATE> 3
<MEAN> 39
 -6.469250e+00 -3.289354e-01 -5.150002e+00 -2.042623e-01 -2.604430e+00 1.288393e-01 2.834988e-01 5.078735e-01 2.680156e+00 -1.776219e+00 1.583574e+00 -2.141003e+00 4.328030e+01 -9.248480e-02 -1.332807e-01 -1.571091e-01 -1.094859e-01 -1.187252e-01 -1.058621e-01 -5.933508e-02 -1.671771e-02 1.951130e-02 -7.797723e-03 2.833896e-02 -5.545857e-03 -1.385745e-01 3.666262e-02 4.812556e-02 5.693550e-02 3.229254e-02 2.468716e-02 2.560078e-02 3.501237e-04 -1.951783e-02 -2.089366e-02 -6.638699e-03 -2.557040e-02 -7.428231e-03 1.104987e-02
<VARIANCE> 39
 3.208366e+00 8.968541e+00 9.176371e+00 1.783157e+01 1.719629e+01 1.850683e+01 1.968485e+01 1.863643e+01 1.987444e+01 1.500434e+01 1.388190e+01 1.179346e+01 4.023083e+00 2.025760e-01 4.251919e-01 6.875266e-01 9.974442e-01 1.334159e+00 1.367971e+00 1.560870e+00 1.533694e+00 1.439997e+00 1.241668e+00 1.134422e+00 1.028807e+00 7.667795e-02 3.951870e-02 8.111948e-02 1.333402e-01 1.953294e-01 2.611451e-01 2.651437e-01 3.172740e-01 3.133478e-01 2.913097e-01 2.418955e-01 2.218931e-01 2.065000e-01 1.259564e-02
<GCONST> 7.632365e+01
<STATE> 4
<MEAN> 39
 -5.975053e+00 8.951283e-01 -4.747226e+00 -4.902792e-02 -1.822633e+00 -6.872526e-01 -5.813507e-01 -4.343804e-01 5.805942e-01 -1.329670e+00 1.069046e-01 -1.813983e+00 3.847755e+01 1.580211e-02 1.013936e-02 1.171491e-02 1.568302e-02 6.844057e-05 2.044614e-02 2.606999e-02 1.344288e-02 -6.735592e-03 -1.187767e-02 2.738129e-03 -8.972974e-04 -6.521006e-02 -8.697736e-04 -4.982965e-03 1.472767e-03 -3.301946e-03 -5.216435e-03 -6.661131e-03 -9.075556e-03 -2.994156e-03 5.478393e-03 1.038271e-03 5.730049e-03 6.328892e-03 1.976261e-03
<VARIANCE> 39
 4.229673e+00 5.486826e+00 7.069165e+00 1.069095e+01 1.306565e+01 1.564744e+01 1.552107e+01 1.726895e+01 1.761010e+01 1.701811e+01 1.429482e+01 1.028609e+01 7.173443e+00 1.516773e-01 3.434571e-01 5.866259e-01 8.434707e-01 1.111234e+00 1.209708e+00 1.315837e+00 1.354198e+00 1.327671e+00 1.240817e+00 1.088384e+00 8.879389e-01 6.232789e-02 2.885271e-02 6.351268e-02 1.145278e-01 1.657232e-01 2.243360e-01 2.311084e-01 2.560138e-01 2.591611e-01 2.623741e-01 2.449337e-01 2.101935e-01 1.760331e-01 1.395458e-02
<GCONST> 7.137469e+01
<TRANSP> 5
 0.000000e+00 1.000000e+00 0.000000e+00 0.000000e+00 0.000000e+00
 0.000000e+00 8.606936e-01 1.393065e-01 0.000000e+00 0.000000e+00
 0.000000e+00 0.000000e+00 9.178991e-01 8.210096e-02 0.000000e+00
 0.000000e+00 0.000000e+00 0.000000e+00 9.589242e-01 4.107572e-02
 0.000000e+00 0.000000e+00 0.000000e+00 0.000000e+00 0.000000e+00
<ENDHMM>
~h "sp"
<BEGINHMM>
<NUMSTATES> 3
<STATE> 2
~s "silst"
<TRANSP> 3
 0.000000e+00 1.560757e-01 8.439243e-01
 0.000000e+00 8.779216e-01 1.220783e-01
 0.000000e+00 0.000000e+00 0.000000e+00
<ENDHMM>
~h "sil"
<BEGINHMM>
<NUMSTATES> 5
<STATE> 2
<MEAN> 39
 -1.870287e+00 2.518729e-01 -1.383728e+00 1.710442e-01 -5.139938e-01 -1.640268e-01 -2.292459e-01 6.161787e-02 2.083689e-01 -3.195290e-01 1.688792e-01 -3.150044e-01 1.453448e+01 -9.465269e-01 -3.314211e-01 -9.653642e-01 -4.415616e-01 -6.222831e-01 -4.564366e-01 -3.565947e-01 -1.712385e-01 -3.233820e-02 -2.034196e-01 -4.411535e-02 -2.057593e-01 4.002975e+00 -2.606344e-01 -8.410546e-02 -2.884752e-01 -1.310254e-01 -2.131732e-01 -1.698191e-01 -1.570058e-01 -6.229678e-02 2.257708e-03 -1.024890e-01 -4.390420e-02 -1.062914e-01 1.486291e+00
<VARIANCE> 39
 8.701158e+00 3.161499e+00 6.552202e+00 4.183948e+00 4.311662e+00 5.213524e+00 3.403570e+00 4.652297e+00 3.909615e+00 3.917723e+00 3.447142e+00 2.689801e+00 3.533200e+02 1.036356e+00 5.420626e-01 1.318890e+00 9.361024e-01 1.154129e+00 1.043225e+00 1.109919e+00 9.367890e-01 8.867123e-01 9.124592e-01 6.673613e-01 5.707769e-01 2.275330e+01 1.183572e-01 7.485646e-02 1.475659e-01 1.240703e-01 1.374245e-01 1.616394e-01 1.425800e-01 1.443087e-01 1.231968e-01 1.214801e-01 1.030636e-01 9.060543e-02 1.974219e+00
<GCONST> 7.219452e+01
<STATE> 3
~s "silst"
<STATE> 4
<MEAN> 39
 -5.474562e+00 -2.105344e-01 -5.370056e+00 -1.156873e+00 -2.950695e+00 -1.976964e+00 -1.559165e+00 1.925083e-01 8.748770e-01 -1.017607e+00 -2.616504e-01 -1.461751e+00 3.747806e+01 5.157957e-03 2.511236e-02 1.062553e-02 2.308840e-02 1.886990e-02 2.269320e-02 9.352252e-03 6.389200e-03 1.272221e-02 1.115949e-02 -1.649071e-03 -2.444980e-03 -7.873338e-02 -2.945154e-03 -4.778008e-03 6.460594e-03 -6.061179e-03 6.147525e-03 1.742293e-04 -8.529189e-03 4.411067e-03 5.348675e-04 7.915325e-03 -3.728924e-03 -1.200913e-03 -1.444369e-03
<VARIANCE> 39
 6.412779e+00 7.891388e+00 1.059643e+01 1.379386e+01 1.539320e+01 1.790896e+01 1.776685e+01 1.903688e+01 1.780809e+01 1.739725e+01 1.433517e+01 1.167858e+01 9.509201e+00 2.287644e-01 4.417112e-01 6.835221e-01 9.380710e-01 1.195560e+00 1.320820e+00 1.429642e+00 1.497667e+00 1.409026e+00 1.295665e+00 1.101633e+00 8.887598e-01 2.163176e-01 4.401638e-02 8.329102e-02 1.298928e-01 1.806951e-01 2.340760e-01 2.551059e-01 2.730016e-01 2.901080e-01 2.721527e-01 2.532024e-01 2.158928e-01 1.703478e-01 2.873779e-02
<GCONST> 7.842710e+01
<TRANSP> 5
 0.000000e+00 1.000000e+00 0.000000e+00 0.000000e+00 0.000000e+00
 0.000000e+00 4.281210e-01 4.034581e-01 1.684208e-01 0.000000e+00
 0.000000e+00 0.000000e+00 7.418511e-01 2.581489e-01 0.000000e+00
 0.000000e+00 8.035079e-03 0.000000e+00 9.633073e-01 2.865767e-02
 0.000000e+00 0.000000e+00 0.000000e+00 0.000000e+00 0.000000e+00
<ENDHMM>
