~o
<STREAMINFO> 1 39
<VECSIZE> 39<NULLD><MFCC_D_A_0><DIAGC>
~s "silst"
<MEAN> 39
 -6.282574e+00 -3.178633e+00 -8.324063e+00 -5.053422e+00 -7.078927e+00 -6.626394e+00 -6.625026e+00 -2.323044e+00 -2.426054e+00 -1.484233e+00 -3.912671e+00 -2.138049e+00 4.574341e+01 -5.846387e-01 -3.527761e-01 -9.576787e-01 -6.284321e-01 -7.231569e-01 -9.847752e-01 -8.099958e-01 -1.878430e-01 -3.876444e-01 -2.881382e-01 -4.035210e-01 -2.267234e-01 5.417016e+00 3.948669e-01 2.222280e-01 4.691359e-01 3.151941e-01 4.555702e-01 4.086775e-01 4.425510e-01 1.558964e-01 1.655014e-01 7.191718e-02 2.365832e-01 9.980211e-02 -2.570958e+00
<VARIANCE> 39
 1.076836e+01 1.013914e+01 1.723728e+01 2.068043e+01 2.155987e+01 2.769065e+01 2.265788e+01 2.059073e+01 2.365380e+01 1.884939e+01 1.469512e+01 1.532527e+01 1.371353e+02 1.198174e+00 7.293812e-01 2.072291e+00 1.677774e+00 2.200722e+00 2.228901e+00 2.373091e+00 1.691164e+00 1.615340e+00 1.578146e+00 1.653909e+00 1.341991e+00 3.619421e+01 1.290339e-01 1.224308e-01 2.566095e-01 3.229339e-01 3.265607e-01 4.236732e-01 3.839261e-01 3.201414e-01 2.962443e-01 3.019005e-01 2.762354e-01 2.524151e-01 2.446126e+00
<GCONST> 1.057395e+02
~h "a"
<BEGINHMM>
<NUMSTATES> 5
<STATE> 2
<MEAN> 39
 2.060807e+00 -3.997948e+00 -8.510826e+00 -1.171845e+01 -5.066586e+00 -3.854447e+00 -1.254241e+01 4.259252e+00 -4.818597e+00 -4.793732e-01 -5.842974e+00 -4.865239e+00 7.114320e+01 -5.369005e-02 1.546719e-02 -4.341784e-02 -5.906633e-02 -1.133228e-01 -1.291897e-01 -6.474876e-02 -1.548018e-03 -1.060905e-02 -5.656596e-02 1.711871e-03 -2.016494e-02 4.063017e-02 -2.776344e-02 5.862671e-02 7.508864e-02 6.649341e-02 -1.883887e-02 -7.593455e-02 -3.612956e-02 -3.433903e-02 2.453999e-03 7.756822e-03 6.135063e-02 7.605864e-02 -4.095828e-02
<VARIANCE> 39
 1.977887e+01 6.384921e+01 5.766428e+01 5.434851e+01 3.623610e+01 6.993083e+01 5.588215e+01 7.764194e+01 7.772674e+01 9.250970e+01 5.815594e+01 4.664796e+01 9.338229e+01 1.017959e+00 1.531814e+00 1.592564e+00 1.906055e+00 1.780693e+00 2.278988e+00 2.205374e+00 2.367873e+00 2.142162e+00 2.341206e+00 2.217216e+00 2.268943e+00 1.634202e+00 1.862778e-01 2.131014e-01 1.946763e-01 2.810523e-01 2.982071e-01 3.267359e-01 4.085517e-01 4.355756e-01 3.431112e-01 3.953882e-01 3.434370e-01 3.383909e-01 2.758361e-01
<GCONST> 1.171070e+02
<STATE> 3
<MEAN> 39
 -1.740198e-01 -1.964004e+00 -8.001601e+00 -9.830647e+00 -4.030632e+00 -6.303218e+00 -1.241877e+01 4.368046e+00 -2.964117e+00 5.190290e-01 -8.325760e+00 -3.408000e+00 6.658732e+01 -1.744951e-02 4.164566e-01 3.766266e-01 2.950493e-01 -1.731695e-01 -2.248143e-01 -1.390896e-02 -3.499034e-01 -2.082067e-01 -9.878896e-02 3.429562e-01 9.943494e-02 -2.898411e-01 1.898629e-02 -1.309558e-02 5.751021e-02 -6.872594e-03 -8.303766e-02 9.648802e-02 1.475587e-01 -9.410584e-02 4.257025e-02 -3.025353e-02 2.147820e-02 -3.463813e-02 -4.542434e-02
<VARIANCE> 39
 5.215184e+01 4.278365e+01 4.626131e+01 6.301869e+01 4.847051e+01 6.676962e+01 6.740858e+01 9.191935e+01 7.675024e+01 6.969542e+01 6.002779e+01 4.247454e+01 9.096528e+01 2.912410e+00 2.714647e+00 2.924435e+00 3.953233e+00 3.702374e+00 4.799584e+00 4.801525e+00 4.716575e+00 4.161796e+00 3.251002e+00 3.133300e+00 3.173677e+00 6.133567e+00 5.008442e-01 3.641942e-01 4.057593e-01 5.801128e-01 7.212601e-01 7.447256e-01 8.911653e-01 8.004940e-01 7.224754e-01 5.600909e-01 6.075127e-01 5.431494e-01 5.799566e-01
<GCONST> 1.356810e+02
<STATE> 4
<MEAN> 39
 3.691287e-01 3.506170e+00 5.010213e+00 -7.292222e+00 -1.157901e+01 -6.667424e+00 -1.198915e+01 -3.371588e+00 -6.958604e+00 6.279320e-01 -3.524136e+00 -2.420017e+00 6.702824e+01 -1.566947e-03 2.339460e-01 9.451475e-02 2.468253e-01 -6.803279e-02 2.114341e-01 3.777166e-01 -4.887543e-01 7.148868e-02 2.801670e-02 6.553315e-02 4.107597e-02 -2.879833e-01 -1.308283e-02 -1.170953e-01 -1.836036e-01 1.322493e-03 1.175766e-01 3.987135e-02 1.977145e-02 1.638833e-01 8.725452e-02 -8.594733e-03 -9.702580e-02 -8.584781e-03 4.288101e-02
<VARIANCE> 39
 3.258548e+01 2.971918e+01 1.015543e+02 7.015289e+01 7.389838e+01 7.963203e+01 5.046222e+01 9.049806e+01 7.412658e+01 4.078921e+01 4.144313e+01 3.693620e+01 4.971524e+01 1.560302e+00 1.893238e+00 3.764881e+00 3.179623e+00 4.682085e+00 3.762673e+00 3.200663e+00 3.834162e+00 3.144918e+00 3.139252e+00 2.547091e+00 2.421800e+00 2.233400e+00 2.357521e-01 3.104691e-01 4.456193e-01 5.270667e-01 7.079713e-01 6.727175e-01 5.120546e-01 5.842751e-01 4.804808e-01 4.866898e-01 4.327393e-01 4.442864e-01 2.669536e-01
<GCONST> 1.272049e+02
<TRANSP> 5
 0.000000e+00 1.000000e+00 0.000000e+00 0.000000e+00 0.000000e+00
 0.000000e+00 7.317036e-01 2.682964e-01 0.000000e+00 0.000000e+00
 0.000000e+00 0.000000e+00 7.240379e-01 2.759621e-01 0.000000e+00
 0.000000e+00 0.000000e+00 0.000000e+00 7.842855e-01 2.157145e-01
 0.000000e+00 0.000000e+00 0.000000e+00 0.000000e+00 0.000000e+00
<ENDHMM>
~h "b"
<BEGINHMM>
<NUMSTATES> 5
<STATE> 2
<MEAN> 39
 2.517927e+00 4.914814e+00 1.269689e+01 -7.253466e+00 -1.674858e+01 -1.919200e+00 -1.141316e+01 -6.214563e+00 -7.997822e+00 6.049925e+00 -3.911275e+00 -3.803978e+00 6.467139e+01 8.766775e-02 2.170911e-01 -8.327593e-01 4.556060e-01 7.586215e-01 1.896349e-01 3.917512e-01 -3.011215e-01 4.917520e-02 7.412847e-02 -1.601784e-01 -3.900641e-01 -5.925299e-01 -6.930701e-03 3.171607e-02 -1.301864e-01 1.156410e-01 1.428295e-01 4.114683e-03 4.315716e-02 -1.988979e-02 1.029027e-01 -1.669007e-01 -1.436183e-02 5.713268e-02 -8.800162e-02
<VARIANCE> 39
 1.084332e+01 1.382127e+01 9.779990e+01 4.765189e+01 1.014579e+02 2.885653e+01 2.270260e+01 6.545584e+01 8.312257e+01 2.171913e+01 4.260126e+01 3.193452e+01 1.759867e+01 5.107083e-01 6.480350e-01 1.825027e+00 1.564182e+00 2.023669e+00 1.998816e+00 1.064339e+00 1.548605e+00 2.358745e+00 1.252715e+00 1.171751e+00 1.064179e+00 4.776283e-01 6.514871e-02 1.379477e-01 3.041407e-01 2.813475e-01 2.695425e-01 4.029152e-01 1.643424e-01 2.410017e-01 6.013462e-01 2.621188e-01 2.196055e-01 3.023200e-01 8.382269e-02
<GCONST> 1.007492e+02
<STATE> 3
<MEAN> 39
 4.015542e+00 6.569678e+00 2.586102e+00 -4.614501e-02 -7.899670e+00 -4.831271e+00 -1.080403e+01 -1.044153e+01 -6.975884e+00 2.718722e-01 -7.611506e+00 -2.156966e+00 5.927781e+01 -4.568163e-01 3.916309e-01 -1.645093e-01 7.224144e-01 1.165185e+00 2.601966e-01 3.947895e-01 1.602972e-01 -5.266398e-03 -9.657545e-01 -1.670893e-03 1.607087e-01 -9.285233e-01 -1.266328e-01 -1.402141e-01 -6.955625e-02 -1.863053e-03 8.400269e-03 2.440498e-02 2.096497e-01 2.925732e-01 -3.180844e-02 6.878234e-02 -1.463547e-03 -3.488135e-02 -1.540228e-02
<VARIANCE> 39
 1.043826e+01 1.447817e+01 2.142279e+01 8.648299e+00 3.579249e+01 3.215630e+01 4.308004e+01 6.487416e+01 5.282806e+01 3.424679e+01 2.010327e+01 2.334630e+01 7.447987e+00 1.973800e-01 7.238782e-01 8.452180e-01 8.620296e-01 1.259978e+00 1.950060e+00 2.687556e+00 1.648193e+00 9.037434e-01 1.303522e+00 1.032000e+00 2.401542e+00 3.094435e-01 4.330775e-02 1.020997e-01 1.966950e-01 9.536099e-02 2.259774e-01 2.355771e-01 3.793691e-01 2.275963e-01 1.828043e-01 2.647594e-01 1.674157e-01 2.343936e-01 3.287096e-02
<GCONST> 8.812292e+01
<STATE> 4
<MEAN> 39
 2.884305e-02 5.216877e+00 2.105665e+00 3.444501e+00 -1.787396e+00 -9.959657e-01 -2.494233e+00 -6.971964e-01 -3.646564e+00 -4.888794e-01 -5.975767e+00 -3.204373e+00 5.518230e+01 -6.611292e-01 -4.180953e-01 -5.092655e-01 3.002754e-01 6.066496e-01 3.299883e-01 9.754864e-01 1.096993e+00 1.569634e-01 -6.169291e-01 2.409831e-01 2.354117e-01 -6.294246e-01 -4.366903e-02 -2.028306e-01 -1.250706e-01 -2.389546e-01 -2.443131e-01 -3.402173e-02 -2.228281e-01 -1.168019e-01 -5.412433e-02 -7.524683e-02 5.949010e-02 1.023239e-02 1.180047e-01
<VARIANCE> 39
 8.686223e+00 1.487685e+01 1.390217e+01 1.158200e+01 2.060703e+01 1.128873e+01 3.438869e+01 6.276489e+01 2.965835e+01 2.355791e+01 1.307155e+01 2.760311e+01 3.871835e+00 4.104858e-01 7.439339e-01 1.283022e+00 9.546133e-01 1.430652e+00 1.578360e+00 2.088670e+00 2.542751e+00 1.897273e+00 1.750651e+00 1.137347e+00 2.214790e+00 2.518970e-01 3.241966e-02 1.214531e-01 2.343256e-01 1.875079e-01 2.556522e-01 4.008243e-01 4.465768e-01 6.287797e-01 2.807446e-01 1.761007e-01 1.929514e-01 5.653924e-01 4.611137e-02
<GCONST> 9.027472e+01
<TRANSP> 5
 0.000000e+00 1.000000e+00 0.000000e+00 0.000000e+00 0.000000e+00
 0.000000e+00 7.715702e-01 2.284298e-01 0.000000e+00 0.000000e+00
 0.000000e+00 0.000000e+00 6.719589e-01 3.280411e-01 0.000000e+00
 0.000000e+00 0.000000e+00 0.000000e+00 7.246855e-01 2.753145e-01
 0.000000e+00 0.000000e+00 0.000000e+00 0.000000e+00 0.000000e+00
<ENDHMM>
~h "c"
<BEGINHMM>
<NUMSTATES> 5
<STATE> 2
<MEAN> 39
 -5.385727e-01 2.795638e+00 1.650696e+01 -8.966829e+00 -1.943398e+01 -4.967956e+00 -1.317916e+01 -7.705715e+00 -7.016758e+00 4.854143e+00 -4.508920e+00 -2.481409e+00 6.945638e+01 6.928805e-01 -2.622168e-02 -1.066488e-01 1.120990e-01 -8.576605e-02 5.319367e-01 -3.065155e-01 -2.066715e-01 1.426042e-01 5.460020e-01 -7.914767e-02 -2.168637e-01 -4.862537e-01 -9.785277e-02 7.856876e-02 -3.410318e-01 1.711604e-01 2.826046e-01 4.230768e-02 1.681305e-01 2.559318e-02 1.049497e-01 -8.260453e-02 -3.078273e-02 2.423922e-02 -1.159186e-01
<VARIANCE> 39
 1.785712e+01 2.282594e+01 8.816824e+01 7.264144e+01 8.244585e+01 6.153888e+01 2.934162e+01 6.841914e+01 6.688734e+01 3.302416e+01 4.728860e+01 1.878555e+01 1.883120e+01 1.226746e+00 2.150823e+00 5.222803e+00 3.713012e+00 5.078783e+00 2.278703e+00 2.172592e+00 1.990588e+00 2.373520e+00 2.209630e+00 1.405490e+00 2.086477e+00 1.149457e+00 2.495217e-01 3.248118e-01 5.840456e-01 3.734565e-01 7.960579e-01 4.902169e-01 4.003587e-01 3.955356e-01 3.992753e-01 4.189337e-01 2.440121e-01 4.118939e-01 1.603686e-01
<GCONST> 1.179991e+02
<STATE> 3
<MEAN> 39
 4.389068e+00 4.480666e+00 6.624364e+00 -3.810990e+00 -1.245109e+01 -2.069127e+00 -9.911528e+00 -6.984869e+00 -4.350060e+00 6.463490e+00 -6.793001e+00 -4.645110e+00 6.330701e+01 2.112208e-02 4.523325e-02 -5.403529e-01 7.802246e-01 7.416523e-01 1.709271e-01 6.866438e-01 -4.407744e-01 3.043681e-01 -4.947676e-01 -3.855657e-01 1.674435e-01 -6.824748e-01 -1.751250e-01 6.381367e-02 9.744631e-02 -7.410765e-02 7.526684e-02 -1.478125e-02 4.644312e-03 1.464915e-01 -1.006446e-01 -1.809855e-01 4.379699e-02 3.999316e-02 -1.081829e-02
<VARIANCE> 39
 1.094395e+01 1.777549e+01 4.569793e+01 3.137691e+01 4.023996e+01 3.738390e+01 2.349071e+01 5.716412e+01 9.465322e+01 2.466940e+01 4.184684e+01 3.733102e+01 7.512756e+00 8.075947e-01 1.201543e+00 2.218991e+00 1.342903e+00 2.463523e+00 2.115038e+00 1.943599e+00 2.650969e+00 3.770818e+00 1.699904e+00 1.338616e+00 1.755978e+00 4.909252e-01 9.881067e-02 2.376117e-01 4.468305e-01 2.877112e-01 3.342283e-01 4.315351e-01 2.546047e-01 4.268118e-01 7.502233e-01 2.860674e-01 2.776232e-01 4.026652e-01 1.162227e-01
<GCONST> 1.063727e+02
<STATE> 4
<MEAN> 39
 3.523639e+00 6.993230e+00 2.712075e+00 1.111863e+00 -6.862691e+00 -5.143304e+00 -1.064894e+01 -9.019915e+00 -6.544362e+00 -4.853721e-01 -8.089264e+00 -1.106219e+00 5.837441e+01 -5.731215e-01 8.135097e-02 -1.515991e-01 6.984830e-01 1.003966e+00 3.724007e-01 6.510248e-01 4.991944e-01 1.948741e-01 -9.767241e-01 1.329887e-01 3.392691e-03 -8.720421e-01 -1.162503e-01 -2.136355e-01 -1.456794e-01 -1.706870e-01 -1.141708e-01 4.985212e-02 1.390086e-01 2.208616e-01 -4.986503e-02 8.274581e-02 3.183126e-02 -1.118161e-01 4.263908e-02
<VARIANCE> 39
 7.754610e+00 1.399281e+01 1.646811e+01 1.163712e+01 4.689932e+01 2.738594e+01 4.989167e+01 5.784460e+01 3.940650e+01 2.770672e+01 1.730628e+01 2.542107e+01 8.251687e+00 2.586050e-01 8.529851e-01 1.088823e+00 9.324967e-01 1.300177e+00 1.643378e+00 2.257707e+00 1.697087e+00 9.203456e-01 1.518141e+00 9.236938e-01 1.969247e+00 2.345773e-01 3.876502e-02 9.940886e-02 1.710978e-01 1.322211e-01 2.593378e-01 2.158646e-01 3.024968e-01 2.919535e-01 1.872002e-01 1.833329e-01 1.721357e-01 3.221208e-01 3.726874e-02
<GCONST> 8.781596e+01
<TRANSP> 5
 0.000000e+00 1.000000e+00 0.000000e+00 0.000000e+00 0.000000e+00
 0.000000e+00 8.576557e-01 1.423444e-01 0.000000e+00 0.000000e+00
 0.000000e+00 0.000000e+00 7.907013e-01 2.092987e-01 0.000000e+00
 0.000000e+00 0.000000e+00 0.000000e+00 8.044174e-01 1.955826e-01
 0.000000e+00 0.000000e+00 0.000000e+00 0.000000e+00 0.000000e+00
<ENDHMM>
~h "h"
<BEGINHMM>
<NUMSTATES> 5
<STATE> 2
<MEAN> 39
 -1.568329e+01 2.544956e+00 -4.566792e+00 -7.889774e+00 1.124368e+00 -5.543519e+00 -6.958411e+00 6.431174e+00 -6.884717e+00 -3.776564e-01 -3.966978e+00 -1.362262e-01 5.800829e+01 -9.488057e-01 1.869783e-01 1.871107e-01 -6.277714e-01 1.483247e-01 3.436465e-01 -6.758697e-01 8.338206e-01 -5.640103e-01 2.689004e-03 -3.552849e-01 4.131810e-01 1.650212e+00 4.426934e-01 -3.210368e-01 -1.763672e-01 5.189615e-02 -1.316455e-01 1.984928e-01 -1.931435e-01 -2.392740e-02 9.502532e-02 -5.643333e-02 -1.598816e-01 -9.059653e-03 1.652109e-01
<VARIANCE> 39
 7.332594e+01 2.251287e+01 5.312888e+01 3.064647e+01 2.674329e+01 2.214438e+01 3.753484e+01 4.282268e+01 2.437127e+01 3.610858e+01 2.194455e+01 3.286654e+01 3.649990e+01 4.481641e+00 1.684173e+00 2.206244e+00 1.815673e+00 3.896265e+00 3.660037e+00 3.876212e+00 4.405521e+00 3.280630e+00 2.653292e+00 1.977377e+00 1.519629e+00 1.193240e+00 2.812682e-01 2.981945e-01 3.187388e-01 4.647664e-01 5.736519e-01 5.374172e-01 5.580733e-01 6.284172e-01 4.841075e-01 4.762297e-01 3.105734e-01 3.706088e-01 6.298822e-01
<GCONST> 1.188468e+02
<STATE> 3
<MEAN> 39
 -6.907265e+00 -1.952774e+00 -6.130744e+00 -7.148001e+00 -2.316297e+00 -3.513064e+00 -1.174070e+01 3.151033e+00 -4.826909e+00 -8.748198e-02 -5.913709e+00 1.047423e+00 6.102061e+01 2.908737e+00 -9.309328e-01 -5.225072e-01 -1.395261e+00 1.554065e-01 1.283560e+00 -2.266571e+00 -4.922590e-01 -8.436314e-01 2.016426e-01 -9.373047e-01 -2.001460e-01 2.623706e+00 2.424794e-01 1.279435e-01 1.581982e-02 -3.500382e-01 -1.040665e-01 3.071093e-01 -7.621291e-02 -2.017712e-01 -2.106464e-01 -3.056598e-02 7.191559e-02 -2.419189e-01 3.033123e-01
<VARIANCE> 39
 8.649449e+01 3.990463e+01 4.849875e+01 2.624757e+01 4.718237e+01 7.531432e+01 5.638019e+01 4.732208e+01 3.403277e+01 6.860557e+01 3.147049e+01 1.670817e+01 4.931469e+01 5.033607e+00 4.861419e+00 3.704150e+00 7.400677e+00 5.777023e+00 8.974650e+00 5.260974e+00 7.847261e+00 5.161474e+00 6.074011e+00 4.206543e+00 3.350156e+00 9.934561e+00 8.289212e-01 7.216785e-01 5.583795e-01 9.576557e-01 7.804990e-01 9.600266e-01 1.155265e+00 9.123953e-01 8.336135e-01 9.785879e-01 5.003249e-01 5.587850e-01 8.787348e-01
<GCONST> 1.405375e+02
<STATE> 4
<MEAN> 39
 6.133322e+00 -6.044954e+00 -1.061963e+01 -1.962106e+01 -3.747418e+00 1.043150e+00 -1.600781e+01 4.167329e+00 -7.255751e+00 -1.387406e+00 -8.120919e+00 -2.946462e+00 7.328496e+01 1.229670e-01 2.049751e-01 -1.740386e-01 -1.757138e-01 -1.579065e-01 -5.965764e-02 1.976248e-01 1.820853e-01 9.709389e-02 -1.296980e-01 -6.661576e-02 -3.864498e-01 8.175936e-02 -2.346149e-01 1.142974e-01 3.848087e-02 2.244980e-01 -1.634392e-02 -1.931260e-01 2.364509e-01 -4.502106e-02 1.647108e-01 -1.952521e-02 1.078813e-01 1.880339e-02 -3.206702e-01
<VARIANCE> 39
 1.626145e+01 6.949167e+01 2.245980e+01 5.061742e+01 4.456759e+01 1.217960e+02 4.873647e+01 7.735316e+01 4.548226e+01 1.066848e+02 6.213770e+01 4.337878e+01 3.325407e+01 1.417674e+00 2.327894e+00 7.410843e-01 3.682986e+00 1.771004e+00 2.470001e+00 3.609302e+00 1.771683e+00 2.814902e+00 2.915124e+00 2.555887e+00 1.617769e+00 3.845675e+00 2.234806e-01 3.359363e-01 1.384199e-01 5.466789e-01 2.860315e-01 4.090835e-01 6.070752e-01 3.247873e-01 4.540761e-01 4.868555e-01 5.022439e-01 2.517018e-01 4.774113e-01
<GCONST> 1.196120e+02
<TRANSP> 5
 0.000000e+00 1.000000e+00 0.000000e+00 0.000000e+00 0.000000e+00
 0.000000e+00 6.578393e-01 3.421607e-01 0.000000e+00 0.000000e+00
 0.000000e+00 0.000000e+00 6.997032e-01 3.002969e-01 0.000000e+00
 0.000000e+00 0.000000e+00 0.000000e+00 9.191473e-01 8.085275e-02
 0.000000e+00 0.000000e+00 0.000000e+00 0.000000e+00 0.000000e+00
<ENDHMM>
~h "i"
<BEGINHMM>
<NUMSTATES> 5
<STATE> 2
<MEAN> 39
 -3.686991e+00 4.960303e-01 -3.257952e+00 2.873929e-01 -3.081795e+00 -3.007310e+00 -4.000621e+00 -4.079089e-01 -1.726468e+00 -1.992596e+00 -4.654703e+00 -8.227446e-01 5.327822e+01 -6.177818e-01 -2.927550e-01 -4.766166e-01 -4.023046e-01 2.638450e-01 -3.272210e-02 1.133544e-01 1.783813e-01 -8.594856e-02 3.995086e-02 1.791667e-01 6.279121e-02 -1.253653e-01 -4.529162e-02 2.076951e-02 6.889010e-02 -1.481686e-01 -3.023341e-02 -1.599100e-01 -1.860610e-01 -3.407164e-02 -6.867944e-02 9.307286e-02 -7.552245e-02 -8.288042e-02 1.855821e-01
<VARIANCE> 39
 1.589021e+01 2.477271e+01 2.757581e+01 2.242109e+01 1.758842e+01 1.929436e+01 2.004569e+01 3.589367e+01 2.637227e+01 3.750659e+01 2.475833e+01 2.993214e+01 1.539097e+01 8.413227e-01 1.025417e+00 1.492612e+00 1.485268e+00 1.652969e+00 1.782681e+00 1.823285e+00 2.585413e+00 2.232378e+00 2.431320e+00 1.728496e+00 2.366084e+00 6.489745e-01 1.759074e-01 1.934229e-01 2.552508e-01 3.313289e-01 3.143500e-01 2.974410e-01 4.215654e-01 4.405072e-01 4.425275e-01 3.738940e-01 4.278071e-01 5.586307e-01 1.068098e-01
<GCONST> 1.032999e+02
<STATE> 3
<MEAN> 39
 -4.683906e+00 1.304862e+00 -4.394582e+00 -7.532507e-01 -2.014045e+00 -2.732536e+00 -3.251051e+00 -9.109368e-01 -1.403396e+00 -5.357370e-01 -4.446005e+00 -1.959682e+00 5.244734e+01 -6.785370e-01 -1.815324e-01 -2.303294e-01 -4.122764e-01 1.670943e-01 -2.985126e-01 -4.464629e-02 2.626865e-01 -1.597435e-01 2.830221e-01 -1.468938e-01 -2.439863e-01 1.283590e-01 1.035284e-01 -3.885159e-02 1.045836e-01 -1.333220e-01 -6.072918e-02 -1.121703e-01 -2.058510e-01 1.044671e-01 -9.196127e-02 2.106852e-02 -1.523022e-02 2.949067e-02 2.812439e-01
<VARIANCE> 39
 1.504471e+01 1.454641e+01 2.293985e+01 1.932985e+01 1.764082e+01 1.915348e+01 2.202254e+01 3.952694e+01 2.848832e+01 3.274131e+01 1.851004e+01 1.838298e+01 9.752131e+00 1.052677e+00 1.391035e+00 1.898412e+00 1.844199e+00 1.784237e+00 1.685050e+00 1.722608e+00 2.852796e+00 2.453573e+00 1.729090e+00 1.660917e+00 1.972747e+00 7.455248e-01 2.553318e-01 1.672760e-01 2.912734e-01 2.481319e-01 2.904468e-01 3.548042e-01 3.915298e-01 6.008707e-01 5.010323e-01 3.297686e-01 3.485847e-01 3.793591e-01 1.460242e-01
<GCONST> 1.021151e+02
<STATE> 4
<MEAN> 39
 -7.421332e+00 2.948697e-01 -4.940666e+00 -2.762839e+00 -1.718622e-01 -4.907598e+00 -3.672601e+00 7.834629e-01 -1.135289e+00 6.490672e-01 -3.998101e+00 -2.060459e+00 5.485287e+01 -3.253712e-01 -1.421897e-01 -1.494234e-01 -6.421728e-01 7.308774e-02 -3.072378e-01 -5.172511e-01 4.809220e-01 -1.407898e-01 4.456975e-02 -4.038785e-02 -5.083299e-03 6.852306e-01 3.136048e-01 -3.166353e-02 3.877973e-02 -7.113331e-02 -1.606433e-01 1.232724e-01 -1.934375e-01 8.864923e-02 5.335048e-03 -6.168348e-02 2.868811e-02 4.947605e-02 1.803593e-01
<VARIANCE> 39
 4.015946e+01 3.909177e+01 2.802117e+01 3.655560e+01 2.816280e+01 3.761870e+01 2.554099e+01 4.117266e+01 3.968589e+01 2.770401e+01 2.132428e+01 1.481559e+01 2.148898e+01 2.554808e+00 2.335376e+00 2.659318e+00 2.029207e+00 1.893015e+00 2.500370e+00 2.637278e+00 3.429168e+00 2.620304e+00 2.410988e+00 1.970657e+00 1.829103e+00 1.780633e+00 3.600355e-01 4.645423e-01 4.935520e-01 4.370019e-01 4.604772e-01 6.052878e-01 5.774626e-01 7.459134e-01 5.734304e-01 5.170276e-01 3.068656e-01 3.691998e-01 4.243707e-01
<GCONST> 1.169553e+02
<TRANSP> 5
 0.000000e+00 1.000000e+00 0.000000e+00 0.000000e+00 0.000000e+00
 0.000000e+00 3.432083e-01 6.567917e-01 0.000000e+00 0.000000e+00
 0.000000e+00 0.000000e+00 2.991544e-01 7.008456e-01 0.000000e+00
 0.000000e+00 0.000000e+00 0.000000e+00 4.742629e-01 5.257371e-01
 0.000000e+00 0.000000e+00 0.000000e+00 0.000000e+00 0.000000e+00
<ENDHMM>
~h "j"
<BEGINHMM>
<NUMSTATES> 5
<STATE> 2
<MEAN> 39
 8.382398e-02 7.487477e+00 9.071011e+00 -4.794107e+00 -1.010556e+01 -8.029242e+00 -9.459020e+00 -5.388585e+00 -1.226273e+01 2.247023e+00 -2.570594e+00 -3.977067e+00 6.513138e+01 5.164204e-01 6.501513e-01 -8.045610e-01 7.471954e-01 7.277510e-01 8.014402e-01 7.872800e-01 -1.069333e+00 4.878391e-01 4.565060e-01 -6.065501e-01 -2.424185e-01 -1.114890e+00 4.230657e-02 -1.834505e-01 -2.469909e-01 4.482009e-02 2.441382e-01 2.097007e-01 -1.193005e-01 2.746948e-02 2.223005e-01 -2.110850e-01 -3.158521e-02 5.468566e-02 1.131745e-02
<VARIANCE> 39
 1.533315e+01 1.552960e+01 2.981162e+01 5.359866e+01 3.435752e+01 3.524015e+01 3.252539e+01 5.194827e+01 7.200584e+01 3.389721e+01 4.750456e+01 3.698605e+01 9.826921e+00 1.537677e+00 1.172279e+00 1.495099e+00 1.866560e+00 4.163541e+00 2.314669e+00 1.300603e+00 2.298122e+00 3.190516e+00 3.787169e+00 2.961910e+00 1.508723e+00 7.113101e-01 2.739232e-01 1.462925e-01 3.027596e-01 4.378121e-01 6.713347e-01 2.877857e-01 2.952932e-01 5.175624e-01 4.617827e-01 4.328692e-01 5.692791e-01 2.815684e-01 1.572664e-01
<GCONST> 1.111877e+02
<STATE> 3
<MEAN> 39
 3.642739e+00 7.072695e+00 2.393812e+00 -2.836602e+00 -9.074722e+00 -6.221919e+00 -1.345526e+01 -1.310052e+01 -8.541212e+00 -4.857540e+00 -9.999631e+00 -4.127436e+00 6.071112e+01 -1.506391e-01 -1.067567e-01 -2.099485e-01 7.296501e-01 5.871634e-01 7.603423e-01 -4.051122e-02 1.131108e-02 3.779834e-01 -6.685101e-01 2.122589e-01 4.545040e-01 -9.384531e-01 -2.260532e-01 -2.784350e-01 1.002087e-01 -1.824948e-01 -2.772277e-02 5.376091e-02 1.092518e-01 4.930307e-01 -1.911643e-02 1.868357e-01 1.838317e-01 3.405327e-02 5.669812e-02
<VARIANCE> 39
 6.067626e+00 2.099431e+01 1.963109e+01 2.798875e+01 2.701001e+01 4.349895e+01 6.063387e+01 7.426057e+01 3.106419e+01 7.275506e+01 4.590751e+01 3.704722e+01 1.042345e+01 7.222210e-01 1.177366e+00 8.640019e-01 1.331704e+00 1.980967e+00 1.536285e+00 1.484206e+00 3.232379e+00 4.229205e+00 2.112707e+00 2.353597e+00 1.873217e+00 4.052728e-01 6.411452e-02 1.220091e-01 1.591707e-01 1.748389e-01 3.849637e-01 4.320821e-01 3.596890e-01 3.437275e-01 5.110393e-01 2.321096e-01 2.450235e-01 3.466263e-01 6.087737e-02
<GCONST> 1.015371e+02
<STATE> 4
<MEAN> 39
 2.252871e+00 4.568978e+00 1.281619e+00 1.557095e+00 -2.175266e+00 -7.152512e-01 -6.579628e+00 -5.823927e+00 -2.588185e+00 1.989946e+00 -1.477280e+00 -1.490389e+00 5.877819e+01 -6.864276e-01 -1.609101e-01 -4.609393e-01 1.657777e-01 7.684335e-01 4.541310e-01 5.591774e-01 7.694724e-01 4.139626e-01 -8.917199e-02 2.723097e-01 3.216946e-02 -8.481380e-01 -1.754856e-01 -4.136926e-02 -1.320813e-01 -1.042865e-01 -5.413298e-02 -1.664652e-01 9.532539e-02 2.355804e-02 -1.197634e-01 1.708287e-02 -1.151580e-01 -1.121073e-01 -1.619525e-02
<VARIANCE> 39
 7.695855e+00 3.139161e+01 3.010918e+01 2.505935e+01 2.649523e+01 2.609035e+01 4.520337e+01 5.710431e+01 3.463580e+01 3.662220e+01 3.414157e+01 1.802294e+01 8.224575e+00 4.567789e-01 1.078247e+00 8.761919e-01 1.290030e+00 1.095397e+00 2.238427e+00 1.749971e+00 2.446689e+00 1.289422e+00 1.238418e+00 1.887572e+00 1.987161e+00 2.590641e-01 6.989586e-02 1.787506e-01 1.761434e-01 2.135315e-01 2.049187e-01 3.529182e-01 2.209398e-01 3.456133e-01 3.327543e-01 2.974891e-01 3.817381e-01 3.579424e-01 5.630415e-02
<GCONST> 9.602276e+01
<TRANSP> 5
 0.000000e+00 1.000000e+00 0.000000e+00 0.000000e+00 0.000000e+00
 0.000000e+00 7.292457e-01 2.707544e-01 0.000000e+00 0.000000e+00
 0.000000e+00 0.000000e+00 7.243658e-01 2.756342e-01 0.000000e+00
 0.000000e+00 0.000000e+00 0.000000e+00 7.757862e-01 2.242138e-01
 0.000000e+00 0.000000e+00 0.000000e+00 0.000000e+00 0.000000e+00
<ENDHMM>
~h "k"
<BEGINHMM>
<NUMSTATES> 5
<STATE> 2
<MEAN> 39
 4.950711e+00 -4.211806e+00 -9.752016e+00 -1.562164e+01 -6.223943e+00 2.418466e+00 -1.654892e+01 1.077738e+01 -5.589793e+00 6.411015e+00 -1.236519e+01 -2.733042e+00 7.248188e+01 -5.382070e-02 -2.823992e-01 -4.416443e-02 1.128398e-01 2.661736e-01 -1.016544e-01 5.014954e-02 4.577617e-01 -8.060087e-02 4.469241e-02 -5.079280e-01 -1.103058e-04 3.868020e-01 -2.243992e-02 5.594694e-02 5.250897e-02 1.088402e-01 -7.537322e-02 -7.821839e-02 1.952529e-02 -6.145173e-02 4.842414e-02 -4.708827e-02 7.674360e-02 1.102907e-01 -6.175481e-02
<VARIANCE> 39
 1.249966e+01 4.597651e+01 2.331983e+01 6.290668e+01 4.474063e+01 9.223716e+01 7.368092e+01 4.752209e+01 5.882776e+01 4.337570e+01 5.767049e+01 3.771410e+01 4.036217e+01 5.539929e-01 1.535285e+00 1.374181e+00 3.470339e+00 2.700212e+00 4.462485e+00 3.403947e+00 2.699946e+00 2.926951e+00 2.297001e+00 2.897899e+00 2.346885e+00 1.753887e+00 7.468247e-02 2.330027e-01 2.224857e-01 4.821162e-01 4.405944e-01 5.914424e-01 4.599827e-01 4.139862e-01 3.705265e-01 2.911750e-01 5.320774e-01 3.767081e-01 1.920743e-01
<GCONST> 1.167565e+02
<STATE> 3
<MEAN> 39
 1.443880e+00 -1.405504e+00 -4.080624e+00 -1.059433e+01 -7.361985e+00 -9.938772e+00 -1.130077e+01 1.018927e+01 -5.447385e+00 1.953780e+00 -1.177407e+01 1.122270e-01 6.878647e+01 -3.939289e-01 1.153363e+00 1.218110e+00 6.133667e-01 -5.331392e-01 -2.047838e-01 9.121203e-02 -1.555151e+00 -7.364634e-02 -5.626661e-01 1.284634e+00 1.083902e+00 -6.750774e-01 1.130186e-01 6.278480e-03 4.753417e-02 -8.759672e-02 3.094530e-01 3.047826e-01 -1.676002e-01 -2.604130e-01 -2.176587e-03 5.129955e-02 2.396002e-01 -4.100377e-01 3.282713e-03
<VARIANCE> 39
 3.692627e+01 2.408838e+01 4.516493e+01 4.101719e+01 5.384867e+01 6.016598e+01 4.181185e+01 1.017430e+02 6.486429e+01 4.529842e+01 3.891241e+01 3.605059e+01 7.649986e+01 1.382556e+00 2.104591e+00 3.347402e+00 2.724951e+00 3.635799e+00 4.903870e+00 2.394348e+00 6.390663e+00 5.165545e+00 3.705000e+00 3.089636e+00 4.546250e+00 2.729619e+00 3.758176e-01 2.603491e-01 4.500528e-01 3.771204e-01 4.855770e-01 6.341138e-01 5.260005e-01 1.225807e+00 6.969374e-01 6.279510e-01 5.302168e-01 6.378459e-01 5.644978e-01
<GCONST> 1.292888e+02
<STATE> 4
<MEAN> 39
 -7.717079e-01 4.105322e+00 -1.728711e+00 -9.781178e+00 -6.881812e+00 -6.661725e+00 -1.362782e+01 -3.735245e+00 -6.079419e+00 2.521559e+00 -3.656719e+00 2.467401e-01 6.493803e+01 5.210565e-02 1.906694e-02 3.354707e-01 -2.959859e-02 -1.213096e-01 -6.392548e-02 -1.205569e-01 -1.177472e-01 1.736932e-02 9.677438e-02 6.764849e-02 5.262487e-02 3.266028e-01 -5.403399e-03 -4.862544e-02 -2.155095e-02 -2.690182e-02 -2.898935e-02 1.852566e-02 2.090047e-02 7.392606e-02 3.612801e-02 -2.065129e-02 -5.034688e-02 -5.237315e-02 -8.770041e-03
<VARIANCE> 39
 6.605064e+01 3.544674e+01 7.690553e+01 5.617790e+01 5.729303e+01 8.328699e+01 6.652156e+01 5.699461e+01 4.538547e+01 5.155218e+01 5.150870e+01 2.063675e+01 5.480128e+01 5.533037e+00 4.043035e+00 5.432561e+00 5.952711e+00 4.830290e+00 5.774556e+00 7.315403e+00 5.806478e+00 3.392671e+00 4.537188e+00 3.232605e+00 2.440897e+00 5.473772e+00 9.342940e-01 8.150245e-01 9.555702e-01 1.136294e+00 8.724552e-01 1.029232e+00 1.237886e+00 1.112680e+00 6.554189e-01 8.760411e-01 5.780196e-01 5.311723e-01 8.844997e-01
<GCONST> 1.415729e+02
<TRANSP> 5
 0.000000e+00 1.000000e+00 0.000000e+00 0.000000e+00 0.000000e+00
 0.000000e+00 9.102971e-01 8.970294e-02 0.000000e+00 0.000000e+00
 0.000000e+00 0.000000e+00 5.395671e-01 4.604329e-01 0.000000e+00
 0.000000e+00 0.000000e+00 0.000000e+00 9.344300e-01 6.556997e-02
 0.000000e+00 0.000000e+00 0.000000e+00 0.000000e+00 0.000000e+00
<ENDHMM>
~h "l"
<BEGINHMM>
<NUMSTATES> 5
<STATE> 2
<MEAN> 39
 -6.713381e+00 -1.807186e+00 -6.152143e+00 -6.535127e+00 -4.450332e+00 -5.750023e+00 -6.054138e+00 -5.237643e-01 -2.570857e+00 -7.398384e-01 -2.619562e+00 -8.261237e-01 5.266928e+01 -6.007724e-02 1.062135e-01 2.606895e-01 1.699404e-01 2.545651e-01 6.635571e-02 1.662305e-01 2.418878e-01 2.117490e-01 -6.111356e-02 2.297421e-01 2.626078e-01 6.592276e-02 9.790666e-02 8.869600e-03 -6.373629e-02 7.173698e-02 2.439097e-03 1.262161e-01 1.416668e-01 1.006417e-02 3.558108e-02 5.962504e-02 1.966290e-03 -3.721340e-02 -4.366935e-02
<VARIANCE> 39
 3.481086e+01 2.022988e+01 3.976048e+01 2.431899e+01 1.792183e+01 3.059089e+01 2.473971e+01 3.119079e+01 3.445782e+01 2.518259e+01 2.783211e+01 2.848574e+01 3.429897e+01 2.104408e+00 9.915053e-01 2.281245e+00 1.331190e+00 1.906871e+00 2.221219e+00 1.738371e+00 3.217891e+00 1.735538e+00 2.167078e+00 1.606648e+00 1.368558e+00 1.318716e+00 4.346134e-01 2.160017e-01 5.552754e-01 2.912914e-01 4.340693e-01 5.132470e-01 3.461863e-01 7.412208e-01 3.347251e-01 4.279702e-01 4.302981e-01 3.021572e-01 2.829350e-01
<GCONST> 1.101460e+02
<STATE> 3
<MEAN> 39
 -5.014157e+00 -3.757137e+00 -4.165962e+00 -4.649546e+00 -5.145568e+00 -4.307920e+00 -4.763999e+00 5.849634e-01 -5.689808e+00 -2.211751e+00 5.313826e-02 -9.914367e-01 5.347834e+01 1.491634e-01 1.361146e-01 -5.793716e-02 2.370508e-01 2.372657e-02 1.747360e-01 2.851498e-01 -1.435275e-01 1.796523e-01 8.458133e-02 1.033297e-01 1.311895e-01 -2.201029e-01 -4.471825e-02 2.241126e-02 -7.811944e-02 -4.531505e-02 1.788771e-02 5.629025e-02 3.990310e-02 2.727502e-02 6.317490e-02 4.620553e-03 -7.588238e-02 -6.289677e-02 -8.958660e-03
<VARIANCE> 39
 1.698361e+01 2.723739e+01 1.765095e+01 1.811899e+01 1.985416e+01 3.143374e+01 2.838866e+01 2.362358e+01 2.857757e+01 2.245799e+01 3.184488e+01 2.811485e+01 2.404878e+01 5.118690e-01 7.723107e-01 8.135912e-01 9.096707e-01 9.882282e-01 2.472584e+00 1.973778e+00 1.427869e+00 1.593887e+00 1.528369e+00 2.117606e+00 2.380799e+00 3.059830e-01 9.121910e-02 1.198831e-01 1.460957e-01 1.560499e-01 1.658237e-01 4.923642e-01 4.434725e-01 3.109092e-01 3.372876e-01 2.897364e-01 4.727346e-01 5.751618e-01 5.532350e-02
<GCONST> 9.568625e+01
<STATE> 4
<MEAN> 39
 -5.999758e+00 -5.357692e-01 -4.723771e+00 -8.841731e-01 -2.507308e+00 -3.838346e+00 -3.472355e+00 1.907118e+00 -1.822064e+00 -9.204949e-01 -3.258276e+00 5.748470e-01 5.000180e+01 -6.839227e-03 3.515712e-02 -5.525050e-02 2.028259e-02 3.329119e-02 -2.785844e-02 -1.858416e-02 -4.929022e-03 -2.254152e-02 -8.894712e-02 -8.751108e-02 -1.462925e-01 -4.614162e-02 -2.822506e-02 -3.981894e-02 3.671749e-03 -6.464387e-02 5.867172e-03 -6.285890e-02 -2.875116e-02 -5.040025e-03 -3.955130e-02 1.102202e-03 -1.922798e-03 3.249773e-02 5.403491e-02
<VARIANCE> 39
 1.213786e+01 8.406584e+00 1.572925e+01 1.181694e+01 1.378154e+01 1.853514e+01 1.906926e+01 2.131897e+01 1.832530e+01 2.017722e+01 1.557527e+01 1.422335e+01 1.214949e+01 5.126920e-01 4.215016e-01 6.013508e-01 9.759791e-01 1.244909e+00 1.389946e+00 1.516817e+00 1.959534e+00 1.488465e+00 1.782217e+00 1.308089e+00 1.095113e+00 2.982596e-01 1.025519e-01 9.206420e-02 1.129407e-01 1.851100e-01 2.712533e-01 2.737473e-01 3.034269e-01 4.027456e-01 2.935603e-01 3.697293e-01 2.178136e-01 2.356185e-01 5.128385e-02
<GCONST> 8.519357e+01
<TRANSP> 5
 0.000000e+00 1.000000e+00 0.000000e+00 0.000000e+00 0.000000e+00
 0.000000e+00 5.687890e-01 4.312111e-01 0.000000e+00 0.000000e+00
 0.000000e+00 0.000000e+00 6.303340e-01 3.696660e-01 0.000000e+00
 0.000000e+00 0.000000e+00 0.000000e+00 8.843269e-01 1.156731e-01
 0.000000e+00 0.000000e+00 0.000000e+00 0.000000e+00 0.000000e+00
<ENDHMM>
~h "m"
<BEGINHMM>
<NUMSTATES> 5
<STATE> 2
<MEAN> 39
 4.397529e+00 4.854598e+00 3.394825e+00 -1.986489e+00 -1.091695e+01 -5.797164e+00 -1.276044e+01 -1.016325e+01 -5.629809e+00 6.245836e-01 -7.574321e+00 -2.351723e+00 6.232660e+01 -6.177589e-03 -1.219720e-02 -1.567969e-02 7.450803e-01 6.027229e-01 3.767317e-01 4.225969e-05 -2.984484e-01 5.380350e-01 -9.288934e-01 3.045995e-02 1.995920e-01 -8.132653e-01 -3.067735e-01 -9.039604e-02 1.539294e-01 -3.300532e-01 8.956042e-02 1.271792e-01 1.208763e-02 3.320808e-01 -1.488444e-01 2.018533e-02 5.347254e-02 -6.338479e-02 5.354085e-02
<VARIANCE> 39
 7.305684e+00 1.969375e+01 4.733514e+01 2.855173e+01 4.496909e+01 4.616912e+01 4.975740e+01 8.735391e+01 7.829945e+01 5.548430e+01 5.561918e+01 2.440958e+01 1.273364e+01 7.147261e-01 1.559263e+00 1.102178e+00 1.488117e+00 1.653900e+00 1.539713e+00 1.933293e+00 2.559907e+00 2.464447e+00 2.114661e+00 2.324754e+00 1.315461e+00 5.119934e-01 1.026822e-01 2.101450e-01 3.172740e-01 2.125697e-01 4.116224e-01 4.174906e-01 3.626975e-01 3.972083e-01 5.564546e-01 2.969332e-01 3.684836e-01 2.660576e-01 1.002269e-01
<GCONST> 1.065870e+02
<STATE> 3
<MEAN> 39
 2.617258e+00 5.924808e+00 3.467511e+00 -4.602864e-01 -4.743642e+00 -1.712066e+00 -8.479532e+00 -6.175480e+00 -3.603173e+00 2.355445e-01 -5.043057e+00 -2.392399e+00 5.935506e+01 -7.007865e-01 -1.202450e-01 -3.225307e-01 3.958997e-01 7.588221e-01 4.259693e-01 5.783097e-01 7.683330e-01 3.283113e-01 -1.641617e-01 -6.505702e-02 1.874479e-01 -7.766860e-01 -1.153751e-01 -5.420398e-02 -1.552449e-01 -9.339686e-02 -6.125994e-02 -1.102681e-01 8.621088e-02 3.811292e-02 -6.802285e-02 9.516280e-02 7.201304e-02 -3.464585e-02 1.055397e-02
<VARIANCE> 39
 8.384336e+00 2.049424e+01 3.908058e+01 2.945168e+01 5.143314e+01 4.303042e+01 4.210252e+01 6.352208e+01 5.866813e+01 3.775048e+01 3.867536e+01 2.112092e+01 1.730993e+01 3.809871e-01 8.920099e-01 9.570199e-01 8.631052e-01 1.208938e+00 1.848818e+00 1.266895e+00 1.235900e+00 1.394845e+00 1.777006e+00 1.617904e+00 2.002512e+00 2.225991e-01 4.525344e-02 1.884686e-01 1.323038e-01 1.434944e-01 2.318725e-01 3.392787e-01 2.623128e-01 2.202922e-01 3.258605e-01 2.929656e-01 3.324550e-01 3.287754e-01 4.388721e-02
<GCONST> 9.547787e+01
<STATE> 4
<MEAN> 39
 -2.073984e+00 3.349477e+00 -1.177840e-01 7.577928e-01 -9.018173e-01 -1.952271e+00 -4.091693e+00 3.196144e-02 -2.254434e-01 -4.737845e-01 -2.354808e+00 -5.609828e-01 5.460600e+01 -3.486414e-01 -2.551907e-01 -3.892219e-01 -1.914922e-01 4.078850e-02 -1.364548e-01 2.123339e-01 2.227516e-01 1.037629e-01 -2.737309e-02 -1.143451e-01 -4.465947e-02 -3.364792e-01 4.254821e-02 6.079064e-03 6.320793e-03 -5.188959e-02 -7.084955e-02 -5.876797e-02 -2.772439e-02 -5.803958e-02 -4.559925e-02 3.497937e-02 -1.139195e-02 -2.531509e-02 2.734746e-02
<VARIANCE> 39
 8.047786e+00 1.766894e+01 3.416726e+01 2.356198e+01 3.431938e+01 2.107355e+01 3.701072e+01 4.292894e+01 3.422641e+01 3.284906e+01 2.562983e+01 1.809938e+01 1.383986e+01 5.348876e-01 1.029452e+00 1.815332e+00 1.555669e+00 1.202028e+00 1.750864e+00 1.770232e+00 2.012642e+00 2.064529e+00 1.676827e+00 1.245622e+00 1.351254e+00 2.213256e-01 7.733110e-02 1.518852e-01 2.799407e-01 2.528855e-01 1.746257e-01 2.630050e-01 2.923425e-01 3.660205e-01 3.654754e-01 2.681695e-01 2.927406e-01 2.727805e-01 2.658533e-02
<GCONST> 9.489693e+01
<TRANSP> 5
 0.000000e+00 1.000000e+00 0.000000e+00 0.000000e+00 0.000000e+00
 0.000000e+00 6.118121e-01 3.881880e-01 0.000000e+00 0.000000e+00
 0.000000e+00 0.000000e+00 6.807156e-01 3.192844e-01 0.000000e+00
 0.000000e+00 0.000000e+00 0.000000e+00 8.154126e-01 1.845874e-01
 0.000000e+00 0.000000e+00 0.000000e+00 0.000000e+00 0.000000e+00
<ENDHMM>
~h "n"
<BEGINHMM>
<NUMSTATES> 5
<STATE> 2
<MEAN> 39
 1.216609e+00 -7.090805e-01 -7.653368e+00 -1.210271e+01 -5.395133e+00 -6.831927e+00 -1.453267e+01 -5.110278e+00 -3.955920e+00 -1.488307e+00 -5.671556e+00 -1.619551e+00 6.859258e+01 -1.675688e-01 -8.935592e-02 3.757652e-01 -3.212490e-02 -6.237150e-02 -2.624031e-01 -1.036797e-01 -4.497916e-02 -5.221026e-02 2.603293e-01 -1.229229e-01 -5.136818e-02 4.238885e-01 1.316702e-02 2.429121e-02 6.480493e-02 -8.282986e-02 -2.080994e-02 2.023827e-03 8.342563e-02 2.997879e-02 -3.983033e-02 -1.700119e-02 9.261133e-03 -1.454086e-02 -4.991017e-02
<VARIANCE> 39
 4.867951e+01 6.171685e+01 5.592167e+01 8.016927e+01 6.252426e+01 7.280212e+01 6.709749e+01 5.195287e+01 7.429066e+01 6.832748e+01 4.592385e+01 3.858947e+01 7.070380e+01 3.608088e+00 3.162331e+00 5.541502e+00 6.900093e+00 4.458582e+00 5.419937e+00 6.934113e+00 4.309266e+00 6.020977e+00 5.812714e+00 3.171159e+00 3.913923e+00 5.643937e+00 5.850783e-01 5.035892e-01 8.019304e-01 1.184903e+00 8.770284e-01 1.087892e+00 1.166388e+00 7.668712e-01 1.176922e+00 1.008187e+00 5.655121e-01 6.934521e-01 8.106474e-01
<GCONST> 1.430020e+02
<STATE> 3
<MEAN> 39
 1.803556e-01 1.097129e+00 5.791921e+00 -1.383244e+01 -8.449390e+00 -8.490435e+00 -1.352208e+01 1.039202e+00 -8.052228e+00 3.710134e+00 -6.686965e+00 -2.465196e+00 7.141055e+01 1.286545e-01 1.113625e-01 6.943152e-01 3.533176e-01 -3.014582e-01 -2.376192e-01 -2.831222e-02 -1.843199e-01 -5.054042e-01 -1.750739e-01 3.962435e-01 1.789746e-01 -9.168407e-02 9.696500e-02 4.811185e-02 -2.518765e-01 2.303856e-01 6.712107e-04 1.243798e-01 1.903521e-02 -1.296156e-01 1.822415e-01 -1.945688e-01 2.936257e-02 -9.622743e-02 -1.761217e-01
<VARIANCE> 39
 3.991509e+01 4.393787e+01 8.545332e+01 8.972847e+01 8.462430e+01 6.178057e+01 3.152536e+01 1.990448e+02 1.386728e+02 2.377897e+01 4.289630e+01 3.236577e+01 2.483284e+01 2.317597e+00 2.117353e+00 4.965058e+00 5.867591e+00 3.397337e+00 3.424286e+00 2.743654e+00 4.903312e+00 4.077996e+00 2.495913e+00 3.075411e+00 2.815192e+00 1.849914e+00 3.988545e-01 3.438231e-01 6.883484e-01 6.947173e-01 6.681789e-01 5.728682e-01 5.731697e-01 8.229331e-01 7.527322e-01 3.027417e-01 5.734326e-01 5.595647e-01 3.025941e-01
<GCONST> 1.308089e+02
<STATE> 4
<MEAN> 39
 -2.080029e+00 -4.006680e+00 4.611060e+00 -1.227089e+01 -1.098376e+01 -8.083774e+00 -7.847419e+00 -4.942200e+00 -2.082023e+00 -6.909824e+00 -4.216788e+00 -2.250547e+00 7.421550e+01 4.846358e-01 1.570669e-01 2.457440e-01 3.185660e-01 -4.364023e-01 2.491346e-01 -1.349306e-02 -5.154266e-01 1.145468e-01 -4.681873e-02 4.046012e-02 -3.559275e-01 -4.330965e-01 1.168581e-02 1.471934e-01 -1.207896e-01 4.909886e-02 1.488804e-01 4.225367e-02 5.703470e-02 3.646560e-03 3.492400e-02 2.136862e-01 -1.790064e-01 -7.626811e-02 -1.581144e-01
<VARIANCE> 39
 1.558082e+01 7.415112e+01 1.408117e+02 8.330689e+01 8.155944e+01 4.191327e+01 6.901131e+01 2.742617e+01 7.362537e+01 8.295361e+01 4.096089e+01 1.793179e+01 3.953412e+01 1.217141e+00 2.348963e+00 2.500682e+00 2.157410e+00 3.706589e+00 2.191604e+00 3.405587e+00 1.572082e+00 2.199719e+00 4.488140e+00 1.202763e+00 2.086045e+00 9.493636e-01 2.702796e-01 2.420312e-01 2.580404e-01 4.050932e-01 4.601424e-01 3.554720e-01 4.391072e-01 2.039251e-01 4.780906e-01 5.969216e-01 3.195164e-01 2.594532e-01 1.246879e-01
<GCONST> 1.174070e+02
<TRANSP> 5
 0.000000e+00 1.000000e+00 0.000000e+00 0.000000e+00 0.000000e+00
 0.000000e+00 9.234782e-01 7.652176e-02 0.000000e+00 0.000000e+00
 0.000000e+00 0.000000e+00 8.575199e-01 1.424802e-01 0.000000e+00
 0.000000e+00 0.000000e+00 0.000000e+00 7.934633e-01 2.065366e-01
 0.000000e+00 0.000000e+00 0.000000e+00 0.000000e+00 0.000000e+00
<ENDHMM>
~h "p"
<BEGINHMM>
<NUMSTATES> 5
<STATE> 2
<MEAN> 39
 -3.535871e+00 1.460144e+00 -1.928484e+00 -2.919260e+00 -5.961435e+00 -6.474623e+00 -4.690113e+00 -3.461411e+00 -5.507093e+00 1.404354e+00 -4.001466e+00 -2.739322e+00 6.041413e+01 -2.195660e-01 -1.629521e-01 -2.090822e-01 6.484968e-01 8.731358e-01 5.112972e-01 6.829280e-01 5.461655e-01 6.055906e-01 -3.778003e-01 -1.570146e-01 2.220646e-01 -3.137744e-01 -8.317610e-02 -7.801133e-02 1.479102e-01 -2.364587e-02 7.488061e-02 1.757654e-01 5.987950e-03 1.313729e-01 4.634437e-02 -1.580618e-02 -1.397682e-01 3.886417e-02 5.886231e-03
<VARIANCE> 39
 7.642982e+01 3.702405e+01 4.607401e+01 4.791866e+01 3.027184e+01 5.918386e+01 4.690131e+01 8.187376e+01 4.670631e+01 3.564223e+01 2.069225e+01 2.220536e+01 6.339045e+01 8.896061e-01 7.551170e-01 1.817625e+00 1.382885e+00 1.774272e+00 2.109305e+00 1.283786e+00 3.228741e+00 2.205806e+00 2.156673e+00 2.439020e+00 1.634093e+00 9.573992e-01 1.287268e-01 1.517143e-01 2.424864e-01 3.435386e-01 2.863451e-01 4.867750e-01 2.917101e-01 4.648177e-01 4.685656e-01 3.632354e-01 3.927060e-01 2.989563e-01 1.176803e-01
<GCONST> 1.104877e+02
<STATE> 3
<MEAN> 39
 -4.428510e+00 -1.567098e+00 -2.457889e+00 -7.054367e-01 -4.039755e+00 -4.061301e+00 -4.656776e+00 -2.911134e-01 -1.691173e+00 -2.764707e+00 -5.763695e+00 -2.264705e+00 5.558790e+01 -2.854014e-01 -2.925824e-01 -2.856457e-01 1.815449e-01 4.969163e-01 8.214708e-02 4.321303e-01 3.537079e-01 3.479391e-01 -3.940504e-02 -1.436855e-01 2.791424e-01 2.336660e-02 -2.927089e-03 4.073273e-02 -4.919526e-02 -1.920452e-01 -1.242577e-01 -1.286881e-01 -1.634706e-01 -1.092016e-01 -1.893544e-02 2.340083e-01 1.630329e-01 5.106352e-02 -4.573762e-04
<VARIANCE> 39
 2.285532e+01 2.211324e+01 4.133808e+01 4.622809e+01 3.171261e+01 4.424567e+01 2.045525e+01 3.465693e+01 2.923121e+01 4.680141e+01 1.744049e+01 2.900888e+01 5.345096e+01 4.396190e-01 8.689781e-01 1.112132e+00 1.075465e+00 1.341589e+00 1.446694e+00 1.705934e+00 1.770162e+00 2.026699e+00 1.655709e+00 1.611532e+00 1.490708e+00 6.246358e-01 7.961905e-02 1.283673e-01 1.730561e-01 2.765640e-01 2.540984e-01 3.225546e-01 2.271280e-01 3.379042e-01 2.794824e-01 3.052984e-01 3.331337e-01 3.726081e-01 1.025678e-01
<GCONST> 9.977949e+01
<STATE> 4
<MEAN> 39
 -9.786759e+00 -3.591349e+00 -3.672275e+00 -3.367704e+00 -5.553998e+00 -7.785911e+00 -3.879746e+00 -4.241354e-01 2.070972e-01 -5.181693e-01 -5.646909e+00 -1.823543e-01 5.871765e+01 1.579778e-02 -1.606402e-01 -5.753089e-02 -3.131102e-01 -8.880749e-03 -1.436542e-01 1.936109e-02 3.367929e-01 3.352942e-01 2.849776e-01 8.022244e-02 6.464874e-02 1.280306e-02 5.440498e-02 -1.903620e-02 -4.640474e-02 -7.640468e-02 -1.188578e-01 -1.611538e-02 -1.991674e-01 -1.469605e-02 -7.207522e-02 -7.884553e-02 8.027157e-03 -1.257280e-01 -6.086656e-02
<VARIANCE> 39
 2.867380e+01 2.051987e+01 3.004925e+01 3.110879e+01 2.759244e+01 3.041307e+01 3.311344e+01 4.236877e+01 3.181355e+01 3.317223e+01 2.096799e+01 1.818782e+01 5.299281e+01 1.253365e+00 1.065016e+00 1.741721e+00 1.714735e+00 1.574435e+00 1.670701e+00 2.459019e+00 3.100611e+00 2.351228e+00 2.681413e+00 2.238773e+00 1.362894e+00 1.960874e+00 2.379380e-01 2.195987e-01 3.014450e-01 2.943596e-01 3.732128e-01 3.211595e-01 4.740779e-01 6.115876e-01 4.792348e-01 5.287355e-01 4.867527e-01 2.744432e-01 2.970155e-01
<GCONST> 1.104277e+02
<TRANSP> 5
 0.000000e+00 1.000000e+00 0.000000e+00 0.000000e+00 0.000000e+00
 0.000000e+00 5.733398e-01 4.266602e-01 0.000000e+00 0.000000e+00
 0.000000e+00 0.000000e+00 5.258365e-01 4.741636e-01 0.000000e+00
 0.000000e+00 0.000000e+00 0.000000e+00 6.798223e-01 3.201776e-01
 0.000000e+00 0.000000e+00 0.000000e+00 0.000000e+00 0.000000e+00
<ENDHMM>
~h "r"
<BEGINHMM>
<NUMSTATES> 5
<STATE> 2
<MEAN> 39
 5.175049e+00 5.270177e+00 5.013585e-02 -1.300858e+01 -1.086996e+01 -1.026985e-01 -1.448035e+01 -1.603605e-01 -1.017699e+01 -1.527969e+00 -2.904013e+00 2.619012e+00 6.690089e+01 -7.130995e-02 -4.278713e-01 -7.222400e-01 -2.527989e-01 5.859197e-01 1.811883e-01 3.167229e-02 5.089275e-01 5.524448e-01 8.881620e-02 -9.499290e-02 -2.746414e-02 2.000103e-01 -1.150339e-01 -2.205879e-01 -7.307182e-02 6.939921e-02 2.312388e-01 -6.441484e-02 -1.294670e-01 9.414678e-02 1.438557e-01 2.520810e-01 -1.140587e-02 -2.214254e-01 1.008693e-01
<VARIANCE> 39
 2.361783e+01 2.135313e+01 5.975068e+01 1.099043e+02 3.998070e+01 1.134713e+02 6.619085e+01 9.634217e+01 5.034040e+01 3.487960e+01 5.105812e+01 2.627821e+01 4.011368e+01 2.870267e-01 9.856989e-01 1.029756e+00 1.387014e+00 1.358245e+00 1.353750e+00 1.639916e+00 1.725315e+00 1.409957e+00 2.741233e+00 1.686168e+00 1.241100e+00 6.034873e-01 3.803234e-02 1.360563e-01 1.346410e-01 1.757072e-01 1.984531e-01 2.689301e-01 3.118983e-01 2.623463e-01 2.133014e-01 3.483958e-01 2.629356e-01 1.988682e-01 5.305359e-02
<GCONST> 1.016345e+02
<STATE> 3
<MEAN> 39
 3.816290e+00 -2.555696e+00 -7.959685e+00 -1.727139e+01 -4.929972e+00 -1.475190e+00 -1.687741e+01 5.276578e+00 -3.942550e+00 5.758873e+00 -7.324313e+00 -1.800481e+00 7.384966e+01 -4.680219e-01 -1.134317e+00 -7.651020e-01 -1.202289e-02 7.355684e-01 -7.174012e-02 2.752674e-01 1.191467e+00 8.233054e-01 8.041355e-02 -1.444793e+00 -1.155317e+00 7.359922e-01 3.075119e-02 1.178076e-01 6.167816e-02 1.442233e-01 -1.505821e-01 -7.865180e-02 1.230281e-01 -4.896093e-02 -1.451991e-01 -2.634439e-01 -4.030280e-02 5.955078e-02 -1.166073e-01
<VARIANCE> 39
 1.141214e+01 2.975221e+01 3.476406e+01 5.669870e+01 2.974146e+01 7.195747e+01 5.254059e+01 1.248550e+02 4.647200e+01 5.351073e+01 1.254412e+02 3.026896e+01 4.334408e+01 2.721815e-01 6.754311e-01 8.026527e-01 1.655169e+00 1.419839e+00 2.443619e+00 2.215281e+00 1.455866e+00 1.336121e+00 2.476209e+00 2.727846e+00 2.243241e+00 4.172332e-01 3.486999e-02 7.520980e-02 6.380504e-02 1.304349e-01 1.333725e-01 3.141336e-01 2.954200e-01 2.220961e-01 2.200923e-01 1.926556e-01 4.645198e-01 3.011353e-01 3.788245e-02
<GCONST> 9.948783e+01
<STATE> 4
<MEAN> 39
 4.045155e+00 -9.268762e+00 -1.102588e+01 -1.234208e+01 -5.097992e+00 -3.240287e-01 -1.836624e+01 1.198178e+01 5.232348e-01 3.163608e+00 -1.043426e+01 -8.659397e+00 7.732183e+01 -1.016280e-02 -7.144143e-02 -1.748983e-02 1.764752e-01 -7.593243e-02 -1.845967e-01 6.101254e-02 9.653126e-02 8.753599e-02 -1.232865e-01 -1.133561e-01 5.725161e-02 -5.855808e-02 1.391710e-02 6.952539e-02 7.705518e-02 2.095271e-02 -4.285366e-02 -6.297453e-02 -1.303773e-02 -5.575773e-02 -1.795436e-02 4.515671e-02 1.024094e-01 8.951819e-02 -6.024156e-02
<VARIANCE> 39
 9.120098e+00 1.533933e+01 3.002447e+01 3.395851e+01 3.432169e+01 4.138567e+01 3.747340e+01 5.161493e+01 7.611059e+01 2.753767e+01 6.370530e+01 4.510078e+01 2.212072e+01 3.245886e-01 4.612395e-01 6.818751e-01 8.413131e-01 8.432648e-01 1.020852e+00 1.457483e+00 1.784406e+00 1.024181e+00 7.862654e-01 1.157945e+00 1.544732e+00 6.308009e-01 4.670043e-02 6.504405e-02 1.172404e-01 1.161673e-01 1.481033e-01 1.678470e-01 2.451150e-01 3.711974e-01 1.693684e-01 1.010180e-01 1.942604e-01 1.948479e-01 1.219705e-01
<GCONST> 8.970348e+01
<TRANSP> 5
 0.000000e+00 1.000000e+00 0.000000e+00 0.000000e+00 0.000000e+00
 0.000000e+00 8.052001e-01 1.947999e-01 0.000000e+00 0.000000e+00
 0.000000e+00 0.000000e+00 7.733961e-01 2.266039e-01 0.000000e+00
 0.000000e+00 0.000000e+00 0.000000e+00 9.289925e-01 7.100758e-02
 0.000000e+00 0.000000e+00 0.000000e+00 0.000000e+00 0.000000e+00
<ENDHMM>
~h "s"
<BEGINHMM>
<NUMSTATES> 5
<STATE> 2
<MEAN> 39
 -1.080048e+01 -1.195454e+00 -6.260867e+00 -5.364753e+00 -6.668565e+00 -5.635635e+00 -3.582703e+00 -8.982097e-01 -2.286281e+00 1.256863e+00 -5.262820e+00 -9.827877e-01 5.400067e+01 -1.138537e+00 1.408000e-01 4.486516e-01 -1.097724e-01 3.251725e-02 -3.320305e-01 5.466132e-02 4.546091e-01 -1.170121e-01 3.374275e-01 -1.592381e-01 4.186179e-01 1.095580e+00 9.572036e-03 2.111293e-02 5.097211e-02 6.604500e-02 1.918529e-01 -1.011842e-01 -6.293313e-02 7.074072e-02 -1.787737e-03 -1.394092e-02 -3.326466e-02 -6.838274e-02 1.028626e-01
<VARIANCE> 39
 4.757261e+01 1.574710e+01 2.391593e+01 3.697247e+01 3.180347e+01 2.807829e+01 3.877051e+01 4.142392e+01 3.395478e+01 2.143925e+01 2.327564e+01 1.756464e+01 3.629190e+01 3.802586e+00 1.971627e+00 1.832904e+00 3.414643e+00 3.930214e+00 3.629269e+00 2.122292e+00 2.750077e+00 2.761917e+00 2.094617e+00 2.225014e+00 2.274970e+00 2.883211e+00 9.310988e-01 4.313861e-01 4.357088e-01 7.132300e-01 6.997635e-01 7.838998e-01 4.051169e-01 5.519720e-01 4.896760e-01 4.617662e-01 4.654533e-01 4.255510e-01 7.051901e-01
<GCONST> 1.205241e+02
<STATE> 3
<MEAN> 39
 -1.409130e+01 -1.740712e+00 -4.761411e+00 -4.876201e+00 -3.081954e+00 -1.007397e+01 -2.867836e+00 3.183245e+00 -9.658034e-01 1.923185e+00 -7.595082e+00 1.706500e+00 5.889794e+01 1.314568e-01 5.528519e-02 3.675772e-02 3.243260e-01 6.361796e-01 -2.924979e-02 -5.184378e-02 1.666600e-01 1.200357e-01 7.806884e-02 1.920515e-02 2.393222e-01 -4.664002e-02 4.007895e-01 -8.640696e-03 -4.322031e-02 -7.870764e-02 -1.737749e-01 1.672021e-01 -1.989051e-01 -1.262790e-01 -2.165272e-02 -6.249929e-02 9.559617e-02 -1.595195e-01 -9.902634e-02
<VARIANCE> 39
 5.142582e+01 6.132634e+01 3.677092e+01 1.951665e+01 3.296051e+01 4.354335e+01 3.737929e+01 2.947495e+01 4.102853e+01 2.417000e+01 2.764716e+01 1.407087e+01 2.403635e+01 4.609356e+00 2.407255e+00 2.287159e+00 1.792189e+00 2.255647e+00 3.697125e+00 2.231702e+00 2.676981e+00 2.935137e+00 2.470642e+00 1.488194e+00 8.906102e-01 2.461677e+00 5.181802e-01 3.754649e-01 4.651276e-01 3.247543e-01 4.810915e-01 8.863564e-01 3.741267e-01 4.687779e-01 5.495633e-01 4.657107e-01 2.705708e-01 2.515495e-01 4.765977e-01
<GCONST> 1.166039e+02
<STATE> 4
<MEAN> 39
 -6.241640e+00 -6.762074e-01 -5.157027e+00 -2.210292e+00 -2.347706e+00 -4.861344e+00 -4.091053e+00 1.106286e+00 -4.921201e-01 1.201525e+00 -3.439601e+00 -1.411817e+00 5.151218e+01 2.238939e-01 1.108005e-01 2.219184e-02 -7.539357e-02 6.077815e-02 1.358655e-01 -1.939363e-01 2.963720e-02 -6.010552e-02 -7.999301e-02 -1.573939e-03 -1.503282e-01 8.277121e-02 -4.103749e-02 -4.016057e-03 5.823541e-02 -8.567774e-02 1.738459e-04 -5.560496e-02 -6.488365e-02 5.153450e-02 -8.213529e-02 2.897424e-02 -1.221443e-02 -3.400214e-02 1.545362e-01
<VARIANCE> 39
 1.759552e+01 1.034058e+01 1.597470e+01 1.373790e+01 1.400708e+01 2.468702e+01 2.632106e+01 3.265438e+01 2.641204e+01 2.053936e+01 1.772026e+01 1.506762e+01 2.473000e+01 1.091783e+00 7.631430e-01 1.237160e+00 1.079804e+00 1.117728e+00 2.607672e+00 2.010904e+00 2.394623e+00 2.174184e+00 1.947585e+00 1.627001e+00 1.316737e+00 1.094741e+00 2.331774e-01 1.332996e-01 2.116969e-01 2.630171e-01 2.305808e-01 4.849983e-01 3.918935e-01 4.803392e-01 4.449373e-01 3.711287e-01 3.219339e-01 2.637427e-01 1.985700e-01
<GCONST> 9.890617e+01
<TRANSP> 5
 0.000000e+00 1.000000e+00 0.000000e+00 0.000000e+00 0.000000e+00
 0.000000e+00 7.632659e-01 2.367342e-01 0.000000e+00 0.000000e+00
 0.000000e+00 0.000000e+00 7.224780e-01 2.775220e-01 0.000000e+00
 0.000000e+00 0.000000e+00 0.000000e+00 8.914112e-01 1.085887e-01
 0.000000e+00 0.000000e+00 0.000000e+00 0.000000e+00 0.000000e+00
<ENDHMM>
~h "t"
<BEGINHMM>
<NUMSTATES> 5
<STATE> 2
<MEAN> 39
 -9.493654e-01 -1.159391e+00 -1.068522e+01 -1.366784e+01 -3.723792e+00 -3.237139e+00 -9.056963e+00 3.060096e+00 -3.034238e+00 -4.127829e-01 -5.468416e+00 -4.230703e+00 6.660649e+01 1.108521e+00 -8.051839e-01 -1.132036e-01 -1.030360e+00 -3.641420e-01 2.235278e-01 -1.323993e+00 4.299594e-01 -8.008218e-02 3.644276e-01 -7.977846e-02 -2.724325e-01 1.600740e+00 3.980279e-03 -1.682223e-01 1.138199e-03 -4.648425e-02 3.219233e-02 6.235211e-02 -1.023387e-01 1.127774e-01 1.116297e-02 3.265318e-02 -1.621699e-01 -8.386662e-02 8.153622e-02
<VARIANCE> 39
 9.024805e+01 3.929804e+01 3.298236e+01 6.407542e+01 2.294485e+01 5.881442e+01 6.850198e+01 5.607408e+01 6.493095e+01 6.279097e+01 3.901233e+01 4.864678e+01 7.994259e+01 6.411718e+00 3.616336e+00 2.182306e+00 5.501822e+00 2.131089e+00 4.652771e+00 7.493827e+00 4.424817e+00 3.162801e+00 4.291280e+00 3.395807e+00 2.848276e+00 8.030065e+00 1.103326e+00 4.777326e-01 3.862273e-01 1.129776e+00 3.816933e-01 8.449454e-01 1.247287e+00 6.752096e-01 5.830479e-01 6.127686e-01 6.193650e-01 5.149170e-01 1.024154e+00
<GCONST> 1.366746e+02
<STATE> 3
<MEAN> 39
 2.986063e+00 -9.040284e+00 -1.141334e+01 -1.663364e+01 -4.473475e+00 -5.590341e+00 -1.467096e+01 9.361972e+00 -2.255142e+00 1.163301e+00 -9.444492e+00 -7.453299e+00 7.743594e+01 -2.145789e-01 -9.152775e-02 5.437327e-01 4.732596e-01 -3.758270e-01 -7.773900e-01 4.272397e-02 9.324687e-01 8.449703e-02 -1.416553e-01 -2.949121e-01 2.680925e-01 -6.161051e-03 -6.554870e-02 3.262643e-01 1.981277e-01 1.851889e-01 -1.586791e-01 -1.821431e-01 1.657397e-01 -1.816726e-01 -1.344962e-01 -1.315755e-02 2.473169e-01 1.867409e-01 -3.256291e-01
<VARIANCE> 39
 1.876320e+01 2.336182e+01 2.946616e+01 3.663338e+01 4.673703e+01 8.649828e+01 7.265559e+01 1.240541e+02 5.222783e+01 1.157742e+02 4.916032e+01 5.651069e+01 2.467595e+01 4.940206e-01 1.862521e+00 1.526867e+00 2.312009e+00 2.150177e+00 3.228014e+00 2.600278e+00 3.138814e+00 2.064373e+00 2.129731e+00 2.861297e+00 2.518509e+00 1.821576e+00 1.125365e-01 2.377138e-01 1.621748e-01 4.524041e-01 3.121893e-01 4.345741e-01 6.185930e-01 4.650873e-01 4.365182e-01 4.383186e-01 5.060874e-01 3.756128e-01 2.436549e-01
<GCONST> 1.170657e+02
<STATE> 4
<MEAN> 39
 2.701435e-01 -2.068359e-02 1.089992e+00 -1.061923e+01 -1.217841e+01 -7.934011e+00 -1.617361e+01 8.475713e+00 -6.085310e+00 1.591094e+00 -5.460710e+00 -1.670982e+00 7.282458e+01 -8.212833e-02 5.151210e-01 2.471109e-02 3.262473e-01 1.731635e-01 -1.194121e-01 5.243384e-01 -6.144059e-01 8.296336e-02 -1.744460e-01 1.926759e-01 1.578107e-02 -6.617576e-01 1.361464e-02 -7.278287e-02 -1.849874e-01 -5.227208e-02 1.306214e-01 1.132193e-01 5.403310e-02 -2.952061e-02 1.132781e-01 -1.003901e-02 -8.443514e-02 -9.458395e-02 -7.114021e-02
<VARIANCE> 39
 2.654666e+01 3.301477e+01 7.716772e+01 4.118801e+01 8.190835e+01 7.833878e+01 6.006091e+01 1.041023e+02 1.004995e+02 3.721751e+01 9.053120e+01 2.579952e+01 4.666682e+01 1.879994e+00 2.295902e+00 3.116021e+00 2.629228e+00 4.795596e+00 3.237791e+00 4.712952e+00 4.201395e+00 4.561080e+00 2.592934e+00 3.974508e+00 2.650367e+00 3.204386e+00 3.120686e-01 2.931018e-01 2.938735e-01 4.308355e-01 6.660210e-01 5.546364e-01 8.575878e-01 6.507624e-01 6.496184e-01 4.582348e-01 5.473731e-01 5.120716e-01 3.282800e-01
<GCONST> 1.294989e+02
<TRANSP> 5
 0.000000e+00 1.000000e+00 0.000000e+00 0.000000e+00 0.000000e+00
 0.000000e+00 8.686938e-01 1.313062e-01 0.000000e+00 0.000000e+00
 0.000000e+00 0.000000e+00 8.764273e-01 1.235727e-01 0.000000e+00
 0.000000e+00 0.000000e+00 0.000000e+00 9.204134e-01 7.958663e-02
 0.000000e+00 0.000000e+00 0.000000e+00 0.000000e+00 0.000000e+00
<ENDHMM>
~h "u"
<BEGINHMM>
<NUMSTATES> 5
<STATE> 2
<MEAN> 39
 -7.785627e-01 -2.680232e+00 -5.505361e+00 -1.012479e+01 -5.882891e+00 -7.543579e+00 -1.012944e+01 3.685521e+00 2.689107e+00 -5.363045e-01 -8.999573e+00 -3.798820e+00 6.714594e+01 2.026381e-01 -4.730770e-01 -2.444486e-02 -7.027473e-01 3.383232e-01 2.401911e-03 -4.947805e-01 3.388488e-01 -1.216325e-01 1.776821e-01 -1.949980e-01 -3.171116e-01 8.098904e-01 -5.860997e-02 1.250459e-02 2.699637e-02 -7.262426e-03 -9.937227e-03 1.794343e-02 -1.333197e-01 -7.644163e-03 -7.789705e-02 4.786877e-02 6.170139e-02 8.085670e-02 9.835656e-02
<VARIANCE> 39
 5.013446e+01 3.741968e+01 4.181853e+01 4.779840e+01 4.425496e+01 6.119086e+01 5.000497e+01 5.656882e+01 9.596091e+01 4.909654e+01 3.289458e+01 3.561760e+01 1.010865e+02 4.889140e+00 2.311008e+00 2.353536e+00 3.850662e+00 2.667345e+00 3.946320e+00 5.229015e+00 3.853094e+00 3.691449e+00 3.291005e+00 2.955295e+00 3.130693e+00 7.248179e+00 6.531042e-01 3.643303e-01 3.468549e-01 5.874487e-01 4.649293e-01 5.714561e-01 9.015385e-01 7.095932e-01 6.325298e-01 6.005973e-01 4.965380e-01 5.243175e-01 8.435277e-01
<GCONST> 1.322120e+02
<STATE> 3
<MEAN> 39
 -2.596610e+00 -2.675488e+00 -4.487969e+00 -1.162591e+01 -7.874229e-01 -6.786602e+00 -1.253518e+01 8.278934e+00 -4.386920e+00 1.494971e+00 -8.975362e+00 -2.930917e+00 6.864092e+01 -2.071439e-01 7.230214e-01 2.868651e-01 5.195482e-01 -2.813981e-01 -1.015661e-01 -5.584847e-01 -4.512648e-01 -5.132324e-01 -2.381969e-01 6.163300e-01 2.715461e-01 9.449925e-02 1.759029e-01 3.252938e-01 6.164913e-02 3.749096e-01 -4.836063e-01 8.117770e-02 2.637007e-01 -5.316138e-01 1.202367e-02 -1.375254e-02 2.661103e-01 2.342957e-02 -3.521308e-01
<VARIANCE> 39
 1.120569e+02 3.786319e+01 5.095071e+01 6.184853e+01 3.118978e+01 1.335520e+02 5.384594e+01 7.456539e+01 7.188593e+01 3.652062e+01 6.270579e+01 3.761068e+01 4.960677e+01 5.374081e+00 2.224653e+00 1.826262e+00 2.857035e+00 3.652204e+00 3.349646e+00 5.025278e+00 4.029456e+00 3.973305e+00 2.612788e+00 3.057484e+00 2.095023e+00 4.278508e+00 7.841862e-01 4.160591e-01 3.623108e-01 7.495857e-01 6.692812e-01 7.256064e-01 1.061573e+00 6.621764e-01 5.961732e-01 4.863972e-01 5.376192e-01 4.103262e-01 3.861560e-01
<GCONST> 1.323581e+02
<STATE> 4
<MEAN> 39
 -4.166995e+00 2.306863e+00 -1.770876e+00 -8.878924e+00 -5.501886e+00 -6.329790e+00 -1.314715e+01 2.880081e+00 -4.261364e+00 1.659044e+00 -4.023619e+00 -1.334398e+00 6.729559e+01 1.033515e+00 2.411379e-01 3.244908e-01 4.991721e-02 -6.017200e-01 4.145575e-01 -3.558738e-01 -8.873935e-01 -2.986234e-01 2.603460e-01 2.651602e-01 7.911868e-02 -3.219393e-02 5.062928e-02 -2.952835e-02 -2.439022e-02 -1.949458e-01 -2.394578e-02 1.074438e-01 5.272835e-02 5.927342e-02 -3.343530e-03 -1.004392e-02 -1.920335e-02 8.466615e-03 -6.736472e-02
<VARIANCE> 39
 1.246022e+02 4.453594e+01 7.313619e+01 5.319577e+01 6.167466e+01 8.366679e+01 6.654795e+01 8.299707e+01 6.223215e+01 4.555271e+01 5.804277e+01 2.541174e+01 3.209456e+01 8.868656e+00 3.716698e+00 3.514636e+00 5.164344e+00 4.798508e+00 5.620409e+00 7.663971e+00 5.441209e+00 5.140539e+00 3.696671e+00 3.850804e+00 2.558263e+00 2.565081e+00 1.223948e+00 5.686692e-01 5.064183e-01 8.644826e-01 7.854987e-01 9.003418e-01 1.201784e+00 8.309339e-01 8.114908e-01 7.109687e-01 7.154188e-01 5.103974e-01 2.963125e-01
<GCONST> 1.397287e+02
<TRANSP> 5
 0.000000e+00 1.000000e+00 0.000000e+00 0.000000e+00 0.000000e+00
 0.000000e+00 7.870290e-01 2.129710e-01 0.000000e+00 0.000000e+00
 0.000000e+00 0.000000e+00 5.477847e-01 4.522153e-01 0.000000e+00
 0.000000e+00 0.000000e+00 0.000000e+00 8.366526e-01 1.633475e-01
 0.000000e+00 0.000000e+00 0.000000e+00 0.000000e+00 0.000000e+00
<ENDHMM>
~h "y"
<BEGINHMM>
<NUMSTATES> 5
<STATE> 2
<MEAN> 39
 -1.274210e+00 3.218062e+00 -1.512758e+00 -8.144750e+00 -6.954759e+00 -9.493580e+00 -1.338541e+01 -4.771820e+00 -8.420665e+00 -7.884159e-01 -3.233510e+00 -3.675282e-01 6.650978e+01 -8.136278e-02 -2.117818e-01 1.653924e+00 -9.253277e-01 -8.790424e-01 1.020604e-01 -7.124693e-01 -3.882852e-02 -7.614677e-01 4.075223e-01 4.506567e-01 -3.889792e-02 1.194862e+00 7.694087e-02 8.797012e-02 -1.059331e-01 -1.822527e-01 5.930875e-02 2.126772e-01 -3.030811e-02 5.598360e-02 7.630286e-02 -6.990571e-03 -8.254237e-02 -1.599691e-01 -1.374838e-01
<VARIANCE> 39
 7.680371e+01 2.894224e+01 1.283013e+02 6.582983e+01 8.404629e+01 4.619270e+01 6.813569e+01 5.155521e+01 6.421704e+01 2.714308e+01 3.389943e+01 2.217535e+01 4.911946e+01 6.261036e+00 3.416045e+00 7.908058e+00 6.668103e+00 6.742122e+00 5.638864e+00 7.522244e+00 4.865591e+00 7.706824e+00 3.898829e+00 3.902138e+00 3.127369e+00 4.614214e+00 9.811556e-01 7.243686e-01 1.310378e+00 1.117311e+00 1.252864e+00 9.773719e-01 1.357113e+00 8.823023e-01 1.346925e+00 6.053942e-01 6.402417e-01 4.352564e-01 8.046366e-01
<GCONST> 1.432567e+02
<STATE> 3
<MEAN> 39
 -4.548169e-01 3.496829e+00 1.148251e+01 -1.123392e+01 -1.608811e+01 -7.405103e+00 -1.549210e+01 -6.654709e-01 -1.305327e+01 2.596569e-01 -6.763356e-01 -2.489693e+00 7.149918e+01 -1.157267e-01 6.081061e-01 -3.441865e-02 -2.308346e-01 1.761586e-01 4.975234e-01 4.148715e-01 -5.685215e-02 2.038659e-01 5.204137e-01 -2.997095e-01 -3.223165e-01 -3.314183e-01 -8.603255e-02 2.373705e-01 -5.332204e-01 5.564337e-01 4.539053e-01 -8.314447e-02 4.397813e-01 -1.751914e-01 3.339790e-01 -6.533472e-02 -1.950004e-01 7.650678e-02 -4.156063e-01
<VARIANCE> 39
 9.494615e+00 1.159427e+01 7.494260e+01 6.283512e+01 6.049432e+01 7.921767e+01 2.707911e+01 7.804373e+01 7.830618e+01 4.414058e+01 5.367405e+01 2.802147e+01 1.768494e+01 3.229300e-01 1.487535e+00 1.183279e+00 1.302072e+00 3.264263e+00 1.968874e+00 2.182446e+00 3.440238e+00 1.675302e+00 2.410813e+00 1.470431e+00 1.911614e+00 6.717018e-01 1.510082e-01 1.426539e-01 2.649541e-01 3.118027e-01 5.010787e-01 4.804288e-01 3.606949e-01 4.170508e-01 6.888934e-01 5.247275e-01 4.319631e-01 1.886298e-01 1.132837e-01
<GCONST> 1.095576e+02
<STATE> 4
<MEAN> 39
 1.052994e+00 5.944077e+00 8.200411e+00 -1.291336e+01 -1.663861e+01 -1.632878e+00 -1.537828e+01 -4.584573e+00 -8.893262e+00 6.392644e-01 -1.271060e+00 -2.543855e+00 6.941034e+01 1.542470e-01 6.276531e-01 -7.780835e-01 3.076449e-01 9.381078e-01 -3.973803e-02 7.102252e-01 -2.074271e-01 4.696206e-01 3.458739e-01 -4.387153e-01 -1.046191e-01 -6.906840e-01 1.115210e-01 -1.733932e-01 -2.491747e-01 3.103828e-01 4.060374e-01 -1.583979e-01 5.687555e-02 -1.798007e-01 4.486836e-02 -8.333457e-02 -1.682665e-01 2.601448e-02 -8.638187e-02
<VARIANCE> 39
 1.341233e+01 2.667786e+01 1.500681e+02 4.611774e+01 8.339942e+01 6.743224e+01 2.314795e+01 7.497539e+01 9.115440e+01 2.121112e+01 3.315876e+01 1.865932e+01 2.695930e+01 1.970426e-01 8.558215e-01 8.263370e-01 7.624722e-01 4.002613e+00 1.519792e+00 1.384011e+00 3.008471e+00 1.589401e+00 2.572722e+00 2.148469e+00 1.467047e+00 6.123437e-01 5.696395e-02 1.534094e-01 1.615221e-01 2.387395e-01 4.078810e-01 4.201445e-01 1.903200e-01 3.019195e-01 4.498597e-01 3.253778e-01 2.345215e-01 1.690804e-01 8.812068e-02
<GCONST> 1.026440e+02
<TRANSP> 5
 0.000000e+00 1.000000e+00 0.000000e+00 0.000000e+00 0.000000e+00
 0.000000e+00 8.460109e-01 1.539891e-01 0.000000e+00 0.000000e+00
 0.000000e+00 0.000000e+00 6.416137e-01 3.583864e-01 0.000000e+00
 0.000000e+00 0.000000e+00 0.000000e+00 5.489721e-01 4.510278e-01
 0.000000e+00 0.000000e+00 0.000000e+00 0.000000e+00 0.000000e+00
<ENDHMM>
~h "ng"
<BEGINHMM>
<NUMSTATES> 5
<STATE> 2
<MEAN> 39
 -3.431376e+00 8.824205e-02 -3.126170e+00 -7.477105e-04 -4.226012e-01 -2.331965e+00 -3.373412e+00 3.024989e+00 4.461310e-01 -2.685921e+00 -3.820638e+00 -8.849989e-01 5.357690e+01 -1.526498e-01 -8.574359e-02 -1.391930e-01 -1.642968e-01 6.017752e-02 -4.361258e-02 1.463599e-01 1.181237e-01 1.863599e-01 1.877068e-01 9.716481e-02 -5.977695e-02 -2.093508e-01 1.069970e-02 4.068480e-02 2.703055e-02 3.027597e-03 6.995782e-03 1.643115e-02 1.473591e-02 -1.663792e-02 -3.515755e-02 3.095397e-03 -1.658677e-02 5.484436e-03 2.277783e-03
<VARIANCE> 39
 4.630816e+00 2.701456e+01 2.427173e+01 3.249174e+01 1.684978e+01 1.760893e+01 2.783875e+01 3.817546e+01 2.941090e+01 2.637563e+01 1.887733e+01 1.605949e+01 7.367508e+00 3.621225e-01 7.158143e-01 8.258834e-01 1.164044e+00 1.011046e+00 1.109145e+00 1.419872e+00 2.186661e+00 1.854437e+00 1.279654e+00 1.323503e+00 1.134095e+00 1.835604e-01 6.221342e-02 1.014102e-01 1.658749e-01 2.149697e-01 1.924498e-01 2.047006e-01 2.945662e-01 4.408715e-01 3.706563e-01 2.572884e-01 2.575886e-01 2.478014e-01 2.257005e-02
<GCONST> 8.706862e+01
<STATE> 3
<MEAN> 39
 -5.693642e+00 5.799093e-01 -4.733171e+00 -1.482763e+00 -1.128778e+00 -3.003475e+00 -3.064585e+00 6.253551e-01 -2.531066e+00 -1.687470e+00 -4.468488e+00 -1.915403e+00 5.186339e+01 -5.925608e-02 -6.339983e-02 -7.310152e-02 -5.168378e-02 -6.893533e-02 -6.066109e-03 1.465406e-01 9.828775e-02 -9.664811e-03 1.178580e-01 7.606405e-02 6.045442e-02 -2.118271e-01 2.761282e-02 1.242853e-02 1.194788e-02 2.192630e-02 -2.398158e-02 -2.724217e-03 -4.762562e-02 -2.735916e-02 1.783556e-02 -2.900359e-02 -4.818388e-03 1.207486e-02 1.445822e-02
<VARIANCE> 39
 6.615309e+00 6.808737e+00 9.556552e+00 1.237351e+01 1.143752e+01 1.994718e+01 1.634063e+01 2.780475e+01 2.755503e+01 3.290622e+01 1.937698e+01 1.523000e+01 2.562194e+00 1.851603e-01 3.531211e-01 5.033435e-01 1.041082e+00 8.821260e-01 1.172445e+00 1.483796e+00 1.725054e+00 1.601725e+00 1.597236e+00 1.568655e+00 1.371303e+00 9.151889e-02 2.815362e-02 4.935355e-02 9.593710e-02 2.028086e-01 1.736069e-01 2.417745e-01 2.770449e-01 2.994035e-01 2.581842e-01 3.304563e-01 3.127856e-01 2.407781e-01 1.051592e-02
<GCONST> 7.637748e+01
<STATE> 4
<MEAN> 39
 -5.095581e+00 7.501423e-01 -5.393394e+00 -1.994851e+00 -2.985248e+00 -3.071628e+00 -2.921484e+00 2.001719e-01 -2.115130e-01 -2.353688e-01 -3.306255e+00 -2.278330e+00 4.791766e+01 -1.437350e-02 -1.989735e-02 -1.141477e-02 -4.338005e-03 -3.585500e-02 -2.215028e-02 -3.222801e-02 -2.254736e-02 -5.412122e-03 6.268672e-03 2.080070e-02 5.524480e-03 -5.586147e-02 -5.683886e-03 1.126410e-03 2.822479e-03 -2.149262e-03 2.774116e-03 -3.189645e-04 1.089017e-02 5.393066e-03 -4.223370e-03 3.635321e-03 -7.880731e-04 -3.088911e-04 1.473799e-02
<VARIANCE> 39
 2.035506e+00 3.768656e+00 5.666726e+00 8.837412e+00 1.062741e+01 1.347882e+01 1.336251e+01 1.902088e+01 1.756379e+01 1.590641e+01 1.178115e+01 1.229857e+01 2.445744e+00 1.514640e-01 2.792969e-01 4.483050e-01 6.162641e-01 9.099252e-01 9.980059e-01 1.071862e+00 1.286645e+00 1.331549e+00 1.129400e+00 1.183143e+00 1.074618e+00 6.828849e-02 3.012716e-02 5.451301e-02 8.900911e-02 1.209769e-01 1.931053e-01 2.019633e-01 2.116885e-01 2.722117e-01 2.819270e-01 2.166846e-01 2.365151e-01 2.151234e-01 1.299966e-02
<GCONST> 6.621632e+01
<TRANSP> 5
 0.000000e+00 1.000000e+00 0.000000e+00 0.000000e+00 0.000000e+00
 0.000000e+00 8.751119e-01 1.248881e-01 0.000000e+00 0.000000e+00
 0.000000e+00 0.000000e+00 8.971772e-01 1.028228e-01 0.000000e+00
 0.000000e+00 0.000000e+00 0.000000e+00 9.697020e-01 3.029803e-02
 0.000000e+00 0.000000e+00 0.000000e+00 0.000000e+00 0.000000e+00
<ENDHMM>
~h "sp"
<BEGINHMM>
<NUMSTATES> 5
<STATE> 2
~s "silst"
<STATE> 3
<MEAN> 39
 -4.687737e+00 -5.465657e-01 -5.015266e+00 -4.227817e+00 -4.512660e+00 -5.206585e+00 -4.385643e+00 2.521561e-01 -1.473293e+00 1.446879e-02 -3.605531e+00 -2.130528e+00 5.347847e+01 -2.332354e-01 2.284959e-02 -6.186473e-02 1.818547e-02 -8.766688e-03 1.958728e-01 3.282712e-01 1.101460e-01 4.870474e-03 1.037814e-01 1.681586e-01 3.163519e-02 -1.737495e-01 8.085026e-02 9.413373e-03 2.790727e-02 4.916629e-02 3.121358e-02 3.127579e-02 -8.105858e-02 1.046828e-02 -4.647949e-02 -7.700905e-03 -1.940623e-02 3.366404e-02 4.519093e-02
<VARIANCE> 39
 2.471868e+01 2.166008e+01 2.783617e+01 3.142339e+01 2.714797e+01 3.411207e+01 3.766472e+01 2.988898e+01 3.180214e+01 2.876206e+01 2.816812e+01 1.997750e+01 2.807332e+01 1.231270e+00 1.177659e+00 1.697055e+00 1.346570e+00 1.779231e+00 1.960140e+00 2.301755e+00 2.461702e+00 1.987881e+00 1.874756e+00 2.160044e+00 1.703510e+00 1.142198e+00 2.406618e-01 2.283838e-01 3.650743e-01 2.867127e-01 4.053590e-01 4.041764e-01 5.324481e-01 5.075809e-01 4.079684e-01 3.463640e-01 4.324620e-01 3.437208e-01 2.707167e-01
<GCONST> 1.085656e+02
<STATE> 4
<MEAN> 39
 -4.546604e+00 3.048627e-01 -5.569402e+00 -2.238900e+00 -3.561837e+00 -3.440799e+00 -3.460577e+00 4.792290e-01 -2.960949e-01 1.913768e-02 -3.159176e+00 -1.700277e+00 4.963598e+01 -1.332160e-02 2.745173e-02 -1.286856e-02 6.545153e-03 2.346116e-02 4.624271e-02 5.106317e-02 5.852969e-03 -4.872281e-03 2.926087e-03 1.001756e-02 2.945513e-02 -9.509941e-02 -1.505569e-02 -6.032172e-03 2.022424e-02 -2.186510e-02 1.458876e-02 -2.879162e-02 -2.982434e-02 -3.356954e-03 -3.363014e-02 -1.967825e-03 -2.180229e-02 9.717107e-04 4.336471e-02
<VARIANCE> 39
 6.578071e+00 8.624679e+00 9.867510e+00 1.436390e+01 1.385907e+01 1.549125e+01 1.934247e+01 2.374336e+01 2.080734e+01 2.006458e+01 1.604595e+01 1.487123e+01 9.675495e+00 3.340189e-01 3.905693e-01 6.196729e-01 8.443891e-01 1.097397e+00 1.050855e+00 1.277745e+00 1.472016e+00 1.592240e+00 1.444022e+00 1.477833e+00 1.255722e+00 2.001620e-01 6.136249e-02 7.375718e-02 1.245483e-01 1.619113e-01 2.220030e-01 2.093020e-01 2.599799e-01 2.966593e-01 3.434328e-01 2.933255e-01 2.968732e-01 2.552075e-01 5.536353e-02
<GCONST> 8.117694e+01
<TRANSP> 5
 0.000000e+00 2.095053e-02 9.790495e-01 0.000000e+00 0.000000e+00
 0.000000e+00 2.650016e-01 7.349983e-01 0.000000e+00 0.000000e+00
 0.000000e+00 0.000000e+00 4.778548e-01 5.221452e-01 0.000000e+00
 0.000000e+00 0.000000e+00 0.000000e+00 8.643355e-01 1.356646e-01
 0.000000e+00 0.000000e+00 0.000000e+00 0.000000e+00 0.000000e+00
<ENDHMM>
~h "sil"
<BEGINHMM>
<NUMSTATES> 5
<STATE> 2
<MEAN> 39
 -4.335574e+00 -1.039305e+00 -4.644665e+00 -2.404994e+00 -3.189361e+00 -3.385618e+00 -3.230392e+00 -7.242801e-01 -1.105671e+00 -5.183391e-01 -2.340008e+00 -1.233757e+00 3.090835e+01 -9.583184e-01 -6.435786e-01 -1.485994e+00 -9.103254e-01 -1.302967e+00 -1.119410e+00 -1.182564e+00 -5.499834e-01 -5.805829e-01 -3.764392e-01 -6.012402e-01 -3.201942e-01 6.580860e+00 1.631530e-01 9.057971e-02 1.419370e-01 7.021158e-02 9.475449e-02 6.522036e-02 8.846667e-02 3.810621e-02 1.646186e-02 -1.282820e-02 7.771650e-02 -1.629831e-02 -5.769998e-01
<VARIANCE> 39
 1.667773e+01 9.679452e+00 2.293205e+01 1.853725e+01 2.085209e+01 2.356727e+01 2.509995e+01 1.486292e+01 1.462057e+01 1.594469e+01 1.403882e+01 1.206843e+01 5.211069e+02 1.602340e+00 7.666839e-01 2.134406e+00 1.718108e+00 2.024544e+00 2.365860e+00 2.178422e+00 1.583358e+00 1.775188e+00 1.477590e+00 1.523536e+00 1.204175e+00 4.262953e+01 1.484567e-01 1.116148e-01 2.332789e-01 2.269533e-01 3.181998e-01 3.606144e-01 3.888026e-01 2.844115e-01 2.623892e-01 3.078288e-01 2.418814e-01 2.091842e-01 2.736861e+00
<GCONST> 1.055072e+02
<STATE> 3
~s "silst"
<STATE> 4
<MEAN> 39
 -5.870223e+00 -1.677607e+00 -7.706439e+00 -3.508890e+00 -5.034400e+00 -5.459279e+00 -4.090594e+00 4.188728e-01 -9.303654e-01 -8.113391e-01 -3.356649e+00 -1.340366e+00 4.862322e+01 2.086099e-02 4.007803e-02 3.647346e-02 4.825911e-02 6.209941e-02 7.099782e-02 6.999800e-02 6.913600e-02 2.293727e-02 1.985629e-02 -6.948371e-03 4.018616e-03 -8.065499e-02 -1.990731e-02 6.782753e-04 1.800080e-02 1.258924e-02 5.774725e-03 -8.180063e-03 -3.264042e-03 2.047577e-03 -6.702653e-03 1.387826e-02 -3.716698e-03 1.131240e-02 -2.558673e-03
<VARIANCE> 39
 4.575156e+00 7.822527e+00 1.027647e+01 1.213490e+01 1.536111e+01 1.673745e+01 1.722459e+01 2.150481e+01 2.107322e+01 1.841644e+01 1.567885e+01 1.544930e+01 4.866068e+00 2.278119e-01 3.455174e-01 5.354786e-01 7.656609e-01 9.368290e-01 1.186977e+00 1.325487e+00 1.506137e+00 1.334762e+00 1.423790e+00 1.385899e+00 1.230021e+00 2.057735e-01 4.575403e-02 6.630620e-02 1.048594e-01 1.415960e-01 1.863112e-01 2.328412e-01 2.499353e-01 3.023407e-01 2.616091e-01 2.785742e-01 2.756038e-01 2.482100e-01 3.450056e-02
<GCONST> 7.714034e+01
<TRANSP> 5
 0.000000e+00 1.000000e+00 0.000000e+00 0.000000e+00 0.000000e+00
 0.000000e+00 3.711803e-01 2.984119e-01 3.304079e-01 0.000000e+00
 0.000000e+00 0.000000e+00 7.092745e-01 2.907254e-01 0.000000e+00
 0.000000e+00 5.122851e-03 0.000000e+00 9.414760e-01 5.340105e-02
 0.000000e+00 0.000000e+00 0.000000e+00 0.000000e+00 0.000000e+00
<ENDHMM>
