~o
<STREAMINFO> 1 39
<VECSIZE> 39<NULLD><MFCC_D_A_0><DIAGC>
~h "a"
<BEGINHMM>
<NUMSTATES> 5
<STATE> 2
<MEAN> 39
 9.837030e-01 -2.460662e+00 -7.942926e+00 -8.616450e+00 -4.888321e+00 -4.309706e+00 -1.156172e+01 4.703580e+00 -4.152626e+00 1.277667e+00 -6.464612e+00 -4.746529e+00 6.882982e+01 -2.089224e-02 -2.379220e-02 -2.055726e-01 -2.542548e-01 -1.842425e-02 -2.219943e-02 2.314750e-02 -9.326306e-03 -1.527079e-01 5.453319e-02 -3.597714e-03 -8.711213e-02 2.464037e-02 -1.562007e-02 4.548119e-03 8.075549e-02 2.226822e-02 1.388807e-03 -4.254232e-02 -4.192409e-02 -1.892483e-02 3.062855e-03 -3.922672e-02 2.394527e-02 6.551842e-02 2.430671e-02
<VARIANCE> 39
 3.236029e+01 3.845796e+01 7.386232e+01 5.142477e+01 4.285909e+01 6.673470e+01 5.038464e+01 7.563148e+01 8.243008e+01 4.617178e+01 6.479705e+01 5.296718e+01 1.147228e+02 1.401313e+00 1.517198e+00 1.735390e+00 1.927972e+00 1.943621e+00 2.437325e+00 2.383840e+00 2.269924e+00 2.549314e+00 2.199334e+00 2.263184e+00 2.103032e+00 2.503858e+00 2.726538e-01 2.222930e-01 2.259333e-01 3.053432e-01 3.132745e-01 4.079515e-01 4.880761e-01 4.227739e-01 4.364095e-01 3.884741e-01 3.718804e-01 3.366265e-01 3.786016e-01
<GCONST> 1.198493e+02
<STATE> 3
<MEAN> 39
 -4.896954e-01 -1.317995e+00 -7.660290e+00 -9.601444e+00 -3.901551e+00 -4.955559e+00 -1.160120e+01 4.793711e+00 -3.408445e+00 1.030575e+00 -8.317626e+00 -3.064601e+00 6.641093e+01 1.424062e-01 3.007131e-01 3.393447e-01 4.477672e-02 -2.390476e-01 -1.384119e-01 -1.287464e-01 -1.844363e-01 -1.980003e-01 -2.046117e-01 2.787046e-01 1.150360e-01 -8.769517e-02 -1.539191e-03 9.069178e-03 1.138623e-01 8.683289e-02 -1.246258e-01 7.339029e-02 5.479157e-02 -7.134581e-02 7.712571e-02 -3.728683e-02 7.584277e-02 -2.186481e-02 -5.963193e-02
<VARIANCE> 39
 6.032079e+01 4.039371e+01 6.167672e+01 5.278695e+01 4.540775e+01 7.982051e+01 6.119001e+01 9.115198e+01 6.743728e+01 5.544888e+01 5.493729e+01 3.846487e+01 8.935291e+01 3.422074e+00 2.410235e+00 2.354408e+00 3.179660e+00 2.925850e+00 4.522683e+00 4.749974e+00 3.971112e+00 3.572807e+00 2.682398e+00 3.233130e+00 2.572509e+00 5.897798e+00 4.837693e-01 3.605457e-01 3.939946e-01 4.389632e-01 4.754864e-01 6.165946e-01 7.601721e-01 7.032497e-01 6.065781e-01 5.071681e-01 5.688956e-01 4.506617e-01 5.484691e-01
<GCONST> 1.320619e+02
<STATE> 4
<MEAN> 39
 -3.747056e-03 2.979753e+00 4.546516e+00 -7.481489e+00 -1.206606e+01 -5.853249e+00 -1.209467e+01 -5.172031e-01 -6.049740e+00 7.251760e-01 -3.646438e+00 -2.746001e+00 6.737468e+01 -1.338365e-01 2.751952e-01 1.202646e-01 3.264544e-01 -8.416635e-02 1.667089e-01 4.338412e-01 -2.903236e-01 1.178343e-02 -1.410595e-01 1.132731e-01 6.269501e-02 -2.861504e-01 -3.258377e-02 -1.106959e-01 -1.457654e-01 4.146400e-03 1.355626e-01 3.193489e-02 4.150312e-02 9.808166e-02 4.370110e-02 2.002399e-03 -8.913863e-02 -1.850672e-02 4.027796e-02
<VARIANCE> 39
 3.266488e+01 2.976106e+01 1.242781e+02 5.359744e+01 8.342540e+01 7.025333e+01 5.551476e+01 8.780063e+01 7.501510e+01 3.906104e+01 4.800504e+01 3.472981e+01 4.921115e+01 1.690007e+00 1.853523e+00 3.706353e+00 2.955700e+00 5.107688e+00 3.315404e+00 3.877628e+00 3.580373e+00 3.339278e+00 2.797903e+00 2.930951e+00 2.482977e+00 2.768561e+00 2.883322e-01 3.036654e-01 4.430966e-01 5.080156e-01 7.391964e-01 5.956125e-01 6.750368e-01 5.679797e-01 5.306436e-01 4.547978e-01 4.868909e-01 4.229983e-01 3.275867e-01
<GCONST> 1.282363e+02
<TRANSP> 5
 0.000000e+00 1.000000e+00 0.000000e+00 0.000000e+00 0.000000e+00
 0.000000e+00 6.203496e-01 3.796504e-01 0.000000e+00 0.000000e+00
 0.000000e+00 0.000000e+00 6.005535e-01 3.994465e-01 0.000000e+00
 0.000000e+00 0.000000e+00 0.000000e+00 7.764559e-01 2.235441e-01
 0.000000e+00 0.000000e+00 0.000000e+00 0.000000e+00 0.000000e+00
<ENDHMM>
~h "b"
<BEGINHMM>
<NUMSTATES> 5
<STATE> 2
<MEAN> 39
 2.715395e+00 5.384088e+00 1.239659e+01 -7.065178e+00 -1.663953e+01 -2.028474e+00 -1.182300e+01 -5.642302e+00 -8.667976e+00 5.685042e+00 -3.298924e+00 -4.029983e+00 6.488882e+01 2.247844e-01 1.769195e-01 -9.974518e-01 4.534312e-01 8.373933e-01 2.847435e-01 6.353276e-01 -4.937738e-01 1.470955e-01 1.672477e-01 -2.766253e-01 -3.682973e-01 -6.445698e-01 -2.594236e-02 -3.231618e-02 -1.288696e-01 1.192818e-01 1.162501e-01 -8.689623e-03 4.226933e-02 -9.436801e-02 1.455885e-01 -1.417160e-01 -2.877092e-02 7.722141e-02 -5.174790e-02
<VARIANCE> 39
 1.171003e+01 1.467112e+01 9.553886e+01 4.627326e+01 9.636269e+01 2.709187e+01 2.391125e+01 6.948214e+01 8.094670e+01 2.189334e+01 4.632415e+01 2.929155e+01 1.585538e+01 7.410507e-01 7.700446e-01 2.149705e+00 1.541390e+00 1.994520e+00 1.933671e+00 1.506282e+00 2.999903e+00 2.584824e+00 1.241325e+00 1.116900e+00 1.094094e+00 5.052341e-01 8.951587e-02 1.459822e-01 4.352594e-01 2.707649e-01 3.125238e-01 3.672490e-01 2.026287e-01 4.464206e-01 5.732569e-01 2.559012e-01 2.097722e-01 2.755181e-01 9.309585e-02
<GCONST> 1.039476e+02
<STATE> 3
<MEAN> 39
 4.078266e+00 5.638779e+00 2.228012e+00 -1.992232e-01 -7.618085e+00 -3.746312e+00 -9.536000e+00 -1.019478e+01 -6.195674e+00 9.234383e-01 -7.295634e+00 -3.175104e+00 5.995148e+01 -4.809314e-01 1.804399e-01 -1.079242e-01 7.438484e-01 1.121033e+00 3.858701e-01 4.536608e-01 1.895110e-01 2.501052e-01 -7.991262e-01 -3.716068e-02 2.183402e-01 -9.063219e-01 -1.049555e-01 -4.519870e-02 -3.321927e-02 -1.215091e-02 9.421568e-03 -3.931628e-02 5.450820e-02 3.045933e-01 -4.359381e-02 4.130347e-02 1.049387e-01 7.148929e-02 -2.990839e-02
<VARIANCE> 39
 1.020472e+01 1.262667e+01 2.246442e+01 9.499565e+00 3.934352e+01 4.003564e+01 4.170024e+01 7.596452e+01 4.994293e+01 3.069958e+01 2.264036e+01 2.221536e+01 7.476880e+00 2.557239e-01 8.793775e-01 1.149035e+00 8.565518e-01 1.375203e+00 2.287134e+00 3.359817e+00 1.921118e+00 1.249740e+00 1.888496e+00 1.195618e+00 2.108500e+00 3.551088e-01 5.385335e-02 1.422891e-01 2.518159e-01 1.065472e-01 2.862865e-01 3.230104e-01 5.001347e-01 3.193865e-01 2.310727e-01 2.795390e-01 2.200109e-01 2.823118e-01 4.667621e-02
<GCONST> 9.385236e+01
<STATE> 4
<MEAN> 39
 6.194619e-01 5.510043e+00 2.231405e+00 3.192824e+00 -2.150097e+00 -1.122386e+00 -3.617627e+00 -1.672682e+00 -4.402127e+00 -5.978684e-01 -5.662842e+00 -2.570222e+00 5.564733e+01 -6.436385e-01 -2.665800e-01 -3.490196e-01 2.570833e-01 5.633009e-01 2.467658e-01 7.724578e-01 8.668962e-01 9.538959e-02 -5.843989e-01 3.466501e-01 3.235453e-01 -6.502020e-01 -7.054981e-02 -1.953492e-01 -1.402164e-01 -2.606112e-01 -2.266416e-01 -1.722937e-02 -1.413837e-01 -7.181438e-02 -4.570670e-02 -6.864047e-02 1.459035e-02 -6.994179e-02 9.861251e-02
<VARIANCE> 39
 1.128750e+01 1.774321e+01 1.498811e+01 1.105139e+01 2.248247e+01 1.162672e+01 4.393147e+01 8.676817e+01 3.369929e+01 2.545730e+01 1.513357e+01 2.740349e+01 4.613055e+00 3.644272e-01 7.764125e-01 1.155581e+00 1.107036e+00 1.498108e+00 1.714893e+00 1.705289e+00 2.387256e+00 1.659897e+00 1.839022e+00 1.245994e+00 2.061223e+00 2.776269e-01 3.444652e-02 1.207512e-01 2.178884e-01 1.902450e-01 2.344766e-01 3.998617e-01 4.424718e-01 6.084456e-01 3.216655e-01 2.227659e-01 1.873714e-01 4.868947e-01 4.401584e-02
<GCONST> 9.182027e+01
<TRANSP> 5
 0.000000e+00 1.000000e+00 0.000000e+00 0.000000e+00 0.000000e+00
 0.000000e+00 7.868977e-01 2.131023e-01 0.000000e+00 0.000000e+00
 0.000000e+00 0.000000e+00 6.665642e-01 3.334358e-01 0.000000e+00
 0.000000e+00 0.000000e+00 0.000000e+00 7.490922e-01 2.509078e-01
 0.000000e+00 0.000000e+00 0.000000e+00 0.000000e+00 0.000000e+00
<ENDHMM>
~h "c"
<BEGINHMM>
<NUMSTATES> 5
<STATE> 2
<MEAN> 39
 -1.342210e+00 3.849014e+00 1.060622e+01 -9.008075e+00 -1.646301e+01 -1.060625e+01 -1.250429e+01 -1.080864e+01 -6.890954e+00 -8.197294e-01 -8.929929e+00 -2.985292e+00 6.975124e+01 4.064563e-01 1.976486e-01 -5.222318e-02 2.440298e-01 -4.193562e-02 1.958767e-01 -7.973978e-02 -2.879825e-01 1.036564e-01 3.262625e-01 -3.533262e-01 -2.140935e-01 -6.343184e-01 -3.376984e-02 -2.484756e-02 -2.451127e-01 5.944832e-02 2.590446e-01 1.321174e-01 8.414106e-02 -5.360268e-02 7.196350e-02 -4.341881e-02 1.578037e-02 7.454375e-02 -7.224537e-02
<VARIANCE> 39
 2.773708e+01 1.883433e+01 5.735849e+01 1.417467e+02 5.418539e+01 5.557649e+01 6.096997e+01 4.523596e+01 4.545665e+01 3.451725e+01 7.124499e+01 1.949131e+01 2.238799e+01 1.715433e+00 2.053352e+00 4.495736e+00 6.682395e+00 4.774972e+00 4.040150e+00 2.766314e+00 1.864458e+00 2.055368e+00 2.551228e+00 2.090617e+00 2.061637e+00 1.444525e+00 2.450776e-01 2.720488e-01 6.852317e-01 8.344964e-01 6.684978e-01 8.574564e-01 4.818614e-01 3.290738e-01 3.914177e-01 4.613219e-01 3.913566e-01 3.889713e-01 1.643331e-01
<GCONST> 1.222571e+02
<STATE> 3
<MEAN> 39
 6.834791e-01 3.570885e+00 6.480015e+00 -4.713741e+00 -1.194419e+01 -4.697938e+00 -8.881967e+00 -1.016827e+01 -4.160338e+00 -5.042141e-01 -6.678467e+00 -2.730234e+00 6.264791e+01 -1.070179e-01 -3.865057e-01 -6.842637e-01 7.145069e-01 8.765729e-01 5.715280e-01 6.049194e-01 -7.578325e-02 2.963187e-01 -3.471485e-01 3.748586e-01 5.176622e-01 -7.774323e-01 -6.455272e-02 -6.056931e-03 8.033060e-03 9.769641e-02 7.089891e-02 -1.415970e-01 1.178925e-01 2.456494e-01 -1.276811e-01 -3.850922e-02 6.097126e-02 2.427442e-02 -8.711301e-03
<VARIANCE> 39
 3.489777e+01 3.785014e+01 6.255008e+01 4.827536e+01 2.640441e+01 7.122755e+01 6.282981e+01 6.790472e+01 3.499218e+01 5.474967e+01 5.353957e+01 2.212163e+01 8.330031e+00 1.312919e+00 1.859215e+00 1.283199e+00 1.364810e+00 2.089449e+00 3.682087e+00 1.705080e+00 3.267415e+00 2.162870e+00 2.574743e+00 2.422325e+00 1.454181e+00 6.367261e-01 2.249851e-01 3.087678e-01 2.777047e-01 3.597740e-01 3.095018e-01 6.009151e-01 4.064430e-01 5.311671e-01 3.840519e-01 5.444104e-01 5.048316e-01 3.295539e-01 1.180833e-01
<GCONST> 1.135842e+02
<STATE> 4
<MEAN> 39
 1.808409e+00 3.652839e+00 3.215711e+00 2.028363e+00 -6.885313e+00 -4.580628e+00 -7.554269e+00 -8.786188e+00 -5.880261e+00 -1.509887e+00 -6.170063e+00 -1.131876e+00 5.912080e+01 -5.092716e-01 -9.699076e-02 -3.891504e-01 9.348852e-01 1.039196e+00 2.292950e-01 7.543937e-01 7.443547e-01 -7.088602e-02 -3.772866e-01 2.857305e-01 -1.556126e-02 -8.601931e-01 -1.179049e-01 -1.892195e-02 -2.211450e-02 -2.012803e-01 -7.649180e-02 -5.235141e-02 -1.444636e-02 2.224280e-01 5.292503e-02 1.260234e-01 -3.818829e-02 -9.766746e-02 2.086233e-02
<VARIANCE> 39
 1.266548e+01 3.263680e+01 2.500587e+01 1.751739e+01 4.115639e+01 1.924449e+01 4.270809e+01 3.768417e+01 3.066156e+01 3.575015e+01 4.007752e+01 1.595050e+01 6.560871e+00 3.948798e-01 1.458710e+00 1.581689e+00 1.480133e+00 1.050241e+00 2.915936e+00 1.672144e+00 2.046212e+00 1.812022e+00 1.608947e+00 2.063456e+00 1.234102e+00 2.268257e-01 5.119980e-02 2.064398e-01 1.908860e-01 2.240936e-01 2.730593e-01 3.381814e-01 3.281219e-01 2.865174e-01 3.142818e-01 2.224530e-01 4.723341e-01 2.229771e-01 3.600288e-02
<GCONST> 9.566904e+01
<TRANSP> 5
 0.000000e+00 1.000000e+00 0.000000e+00 0.000000e+00 0.000000e+00
 0.000000e+00 8.626668e-01 1.373332e-01 0.000000e+00 0.000000e+00
 0.000000e+00 0.000000e+00 7.838041e-01 2.161958e-01 0.000000e+00
 0.000000e+00 0.000000e+00 0.000000e+00 7.822154e-01 2.177845e-01
 0.000000e+00 0.000000e+00 0.000000e+00 0.000000e+00 0.000000e+00
<ENDHMM>
~h "h"
<BEGINHMM>
<NUMSTATES> 5
<STATE> 2
<MEAN> 39
 -1.577980e+01 3.016103e+00 -4.969460e+00 -7.689454e+00 1.579077e+00 -5.701530e+00 -9.457507e+00 6.947173e+00 -6.155380e+00 -1.455299e-01 -3.139498e+00 -2.313012e-01 5.844472e+01 -9.979380e-01 3.322711e-01 2.691520e-01 -6.553467e-01 -2.175420e-02 1.189353e-01 -8.269685e-01 1.265296e-01 -3.313729e-01 -2.748756e-01 -7.357837e-02 1.602215e-01 1.756878e+00 3.481015e-01 -2.849494e-01 -9.769164e-03 3.125022e-02 -2.500345e-01 1.267691e-01 3.602241e-02 -1.079083e-01 1.852621e-01 -4.596636e-02 -4.619446e-02 9.284855e-02 9.824394e-02
<VARIANCE> 39
 7.435821e+01 1.996237e+01 4.343349e+01 3.880776e+01 3.610467e+01 3.203000e+01 4.339478e+01 5.609533e+01 2.153744e+01 2.864550e+01 2.076115e+01 2.745202e+01 2.985745e+01 3.741202e+00 2.131082e+00 2.101156e+00 1.729354e+00 3.705452e+00 4.157825e+00 4.170694e+00 3.691289e+00 2.901459e+00 2.754187e+00 2.047463e+00 2.181977e+00 1.040741e+00 2.857921e-01 3.914018e-01 2.843336e-01 4.041747e-01 5.442992e-01 6.578277e-01 6.197339e-01 5.456207e-01 3.301972e-01 4.354921e-01 4.083837e-01 4.407375e-01 4.896154e-01
<GCONST> 1.190435e+02
<STATE> 3
<MEAN> 39
 -1.051066e+01 -2.745856e-01 -4.889455e+00 -6.294137e+00 -2.597723e+00 -5.064348e+00 -1.157793e+01 3.468550e+00 -3.584894e+00 -1.097819e+00 -4.574578e+00 1.359915e+00 6.184463e+01 2.873136e+00 -8.137852e-01 1.117446e-01 -4.931021e-01 -3.503427e-01 2.219784e-01 -2.004454e+00 -4.863508e-01 -3.786738e-01 1.749009e-01 -5.014560e-01 -3.426785e-01 1.969860e+00 5.462214e-01 1.027889e-01 -1.647506e-03 -2.627981e-01 -4.673512e-02 2.394402e-01 -3.280179e-01 -1.997171e-01 -2.302639e-01 6.677129e-02 9.084283e-02 -1.931711e-01 2.850673e-01
<VARIANCE> 39
 1.106375e+02 3.902424e+01 4.811988e+01 2.895396e+01 4.601722e+01 6.633601e+01 6.117592e+01 4.554451e+01 3.659381e+01 6.584755e+01 2.693639e+01 2.861461e+01 3.289108e+01 7.177690e+00 4.515780e+00 3.692757e+00 6.323220e+00 5.105602e+00 7.737729e+00 7.561934e+00 6.042402e+00 5.233420e+00 5.851587e+00 3.411606e+00 3.844619e+00 6.635997e+00 9.585419e-01 7.279069e-01 4.974370e-01 9.090889e-01 7.535271e-01 9.616871e-01 1.210176e+00 8.661405e-01 8.416875e-01 1.026032e+00 4.910611e-01 6.848801e-01 5.365217e-01
<GCONST> 1.398992e+02
<STATE> 4
<MEAN> 39
 5.483572e+00 -5.589968e+00 -1.061486e+01 -1.823312e+01 -4.805098e+00 9.097815e-03 -1.718983e+01 3.185470e+00 -5.279752e+00 -3.192985e+00 -6.524813e+00 -1.783868e+00 7.355177e+01 1.352338e-01 1.284518e-01 -2.500293e-01 -2.695431e-01 -8.621079e-02 5.417946e-02 1.794863e-01 1.178575e-01 4.269547e-02 -5.727069e-02 -2.957704e-03 -2.852163e-01 8.724332e-02 -2.309006e-01 3.903832e-02 -6.411180e-03 1.477850e-01 4.108462e-03 -9.497152e-02 2.138997e-01 1.857320e-02 7.559782e-02 -8.666205e-04 4.011755e-02 8.423783e-03 -2.370352e-01
<VARIANCE> 39
 1.931140e+01 7.765094e+01 2.697336e+01 4.461744e+01 3.604834e+01 1.180275e+02 6.756330e+01 7.655274e+01 5.240994e+01 1.089960e+02 5.098243e+01 5.503428e+01 3.129877e+01 2.619392e+00 2.530558e+00 8.801186e-01 3.575412e+00 1.621723e+00 2.799015e+00 4.059147e+00 2.662602e+00 3.125637e+00 2.848054e+00 2.504282e+00 1.933220e+00 4.027192e+00 2.901225e-01 3.514929e-01 1.514834e-01 4.964282e-01 2.448741e-01 4.025777e-01 7.539488e-01 4.345981e-01 4.761121e-01 4.523976e-01 4.723320e-01 3.137370e-01 3.987367e-01
<GCONST> 1.224434e+02
<TRANSP> 5
 0.000000e+00 1.000000e+00 0.000000e+00 0.000000e+00 0.000000e+00
 0.000000e+00 6.920698e-01 3.079301e-01 0.000000e+00 0.000000e+00
 0.000000e+00 0.000000e+00 7.087721e-01 2.912279e-01 0.000000e+00
 0.000000e+00 0.000000e+00 0.000000e+00 9.354494e-01 6.455054e-02
 0.000000e+00 0.000000e+00 0.000000e+00 0.000000e+00 0.000000e+00
<ENDHMM>
~h "i"
<BEGINHMM>
<NUMSTATES> 5
<STATE> 2
<MEAN> 39
 -3.542230e+00 8.388332e-01 -3.655148e+00 -1.144232e+00 -2.737337e+00 -3.886071e+00 -4.457798e+00 4.136140e-01 -2.208772e+00 -1.423264e+00 -4.791145e+00 -1.189166e+00 5.524916e+01 -5.989437e-01 -2.494035e-01 -6.873869e-01 -1.607477e-01 3.153569e-01 1.854258e-01 1.328198e-01 2.873877e-01 -2.025927e-02 7.331550e-02 2.460575e-01 8.447783e-02 -3.506291e-01 2.580971e-02 2.327325e-02 8.143994e-02 -1.608166e-01 -3.562109e-02 -1.011984e-01 -2.125018e-01 -6.627124e-02 -8.279733e-02 6.123520e-02 -5.921600e-02 -9.930579e-02 1.618935e-01
<VARIANCE> 39
 2.735485e+01 2.786620e+01 3.354936e+01 3.347202e+01 2.192299e+01 2.680462e+01 2.558076e+01 4.956637e+01 3.075570e+01 3.694529e+01 2.691420e+01 2.640182e+01 2.902890e+01 1.078782e+00 1.380363e+00 1.640211e+00 2.236991e+00 1.960963e+00 1.822071e+00 2.104510e+00 2.948260e+00 2.281920e+00 2.410671e+00 1.892290e+00 2.027022e+00 8.514027e-01 2.084666e-01 2.220853e-01 2.501210e-01 3.931776e-01 3.257622e-01 3.543988e-01 3.636322e-01 5.035787e-01 4.707992e-01 4.164489e-01 3.269527e-01 4.344684e-01 1.325106e-01
<GCONST> 1.086632e+02
<STATE> 3
<MEAN> 39
 -4.596238e+00 1.396269e+00 -4.668612e+00 -1.579717e+00 -2.248429e+00 -3.184731e+00 -3.839257e+00 -4.663782e-01 -2.102560e+00 -7.178396e-01 -4.525453e+00 -1.473603e+00 5.422503e+01 -5.406075e-01 -1.400872e-01 -3.839344e-01 -3.038681e-01 2.211881e-01 1.965146e-02 -6.491381e-02 1.788703e-01 -7.844918e-02 9.405487e-02 -1.268274e-01 -1.793157e-01 -7.916825e-02 1.172879e-01 -5.336560e-02 1.146908e-01 -1.385100e-01 -6.763391e-02 -9.913431e-02 -1.801026e-01 3.516888e-02 -8.109096e-02 1.009301e-02 -8.088814e-02 -3.262168e-02 2.266563e-01
<VARIANCE> 39
 2.600125e+01 1.877971e+01 2.733892e+01 3.080626e+01 1.941492e+01 2.622196e+01 2.469735e+01 4.469350e+01 3.484392e+01 3.362153e+01 2.136176e+01 1.839144e+01 2.982870e+01 1.210554e+00 1.470295e+00 1.806641e+00 1.863476e+00 1.751372e+00 1.944058e+00 2.190134e+00 3.147351e+00 2.167689e+00 1.817463e+00 1.483581e+00 1.721627e+00 7.634875e-01 2.373341e-01 1.998433e-01 2.397311e-01 3.405013e-01 3.397518e-01 4.314330e-01 4.030070e-01 5.719224e-01 4.692934e-01 3.519098e-01 3.321575e-01 3.561769e-01 1.313869e-01
<GCONST> 1.063566e+02
<STATE> 4
<MEAN> 39
 -6.860863e+00 4.728847e-01 -5.296704e+00 -2.723607e+00 -1.348759e+00 -3.444032e+00 -4.001668e+00 6.727770e-01 -2.061128e+00 -9.265404e-02 -4.853550e+00 -1.597441e+00 5.584328e+01 -1.123437e-01 -2.113518e-01 -1.538194e-01 -4.909976e-01 8.978577e-02 -2.057694e-01 -4.521665e-01 3.866436e-01 -2.535997e-01 4.828708e-02 -8.180028e-02 -1.812117e-02 2.061036e-01 3.185167e-01 -1.235811e-02 5.399589e-02 -1.567042e-01 -7.981861e-02 -2.400048e-02 -2.491640e-01 4.369373e-02 -6.286965e-02 -3.628126e-02 6.030718e-03 5.244385e-03 3.118347e-01
<VARIANCE> 39
 4.568961e+01 3.460579e+01 2.947971e+01 3.347282e+01 2.638764e+01 2.775829e+01 2.523532e+01 4.812859e+01 3.333624e+01 2.972576e+01 2.075281e+01 2.210010e+01 4.057978e+01 1.846485e+00 1.744370e+00 2.095793e+00 1.751900e+00 1.717176e+00 2.295670e+00 2.660586e+00 3.580547e+00 2.392985e+00 2.221211e+00 1.849700e+00 1.870182e+00 1.197620e+00 3.352215e-01 3.959000e-01 3.732749e-01 3.992797e-01 4.203616e-01 5.482387e-01 5.281178e-01 7.034314e-01 4.430705e-01 4.392704e-01 3.599474e-01 3.581135e-01 4.221329e-01
<GCONST> 1.146255e+02
<TRANSP> 5
 0.000000e+00 1.000000e+00 0.000000e+00 0.000000e+00 0.000000e+00
 0.000000e+00 3.076971e-01 6.923029e-01 0.000000e+00 0.000000e+00
 0.000000e+00 0.000000e+00 3.201497e-01 6.798503e-01 0.000000e+00
 0.000000e+00 0.000000e+00 0.000000e+00 3.459672e-01 6.540328e-01
 0.000000e+00 0.000000e+00 0.000000e+00 0.000000e+00 0.000000e+00
<ENDHMM>
~h "j"
<BEGINHMM>
<NUMSTATES> 5
<STATE> 2
<MEAN> 39
 4.256431e-01 6.848228e+00 8.447171e+00 -4.196191e+00 -1.035452e+01 -8.348398e+00 -1.006165e+01 -7.159846e+00 -1.130816e+01 1.483934e+00 -3.248238e+00 -4.621660e+00 6.511015e+01 4.344574e-01 6.522305e-01 -7.474169e-01 7.430986e-01 8.417882e-01 6.257738e-01 6.903129e-01 -1.032448e+00 4.358875e-01 3.202751e-01 -5.019179e-01 -1.831321e-01 -1.142458e+00 4.005986e-02 -1.457283e-01 -2.094281e-01 -2.432088e-02 2.426879e-01 2.612043e-01 -8.268388e-02 9.546698e-02 1.269061e-01 -2.003296e-01 -1.571570e-02 8.564193e-02 3.571983e-03
<VARIANCE> 39
 1.615142e+01 1.634530e+01 3.477282e+01 5.008260e+01 3.442292e+01 3.326722e+01 3.635800e+01 5.861683e+01 8.138354e+01 4.253906e+01 6.108230e+01 4.196058e+01 9.501052e+00 1.528050e+00 1.125667e+00 1.537266e+00 1.804852e+00 3.910482e+00 2.324978e+00 1.658130e+00 2.277299e+00 3.196679e+00 4.236390e+00 3.154225e+00 1.493400e+00 7.034705e-01 2.860751e-01 1.612296e-01 3.023825e-01 4.294391e-01 6.651728e-01 2.840652e-01 2.928496e-01 5.143144e-01 4.448906e-01 4.228134e-01 5.513557e-01 3.335680e-01 1.530674e-01
<GCONST> 1.126582e+02
<STATE> 3
<MEAN> 39
 3.169148e+00 6.909797e+00 3.012208e+00 -3.326556e+00 -9.463377e+00 -6.164590e+00 -1.323764e+01 -1.217722e+01 -8.698073e+00 -4.090818e+00 -9.078992e+00 -3.802286e+00 6.083881e+01 -1.102667e-01 -1.508377e-01 -4.182580e-01 7.025205e-01 5.957744e-01 8.909624e-01 2.383363e-01 6.429362e-02 5.378358e-01 -4.418619e-01 2.351442e-01 3.727023e-01 -9.950353e-01 -2.224296e-01 -2.936897e-01 1.054621e-01 -1.306465e-01 -2.558624e-02 3.055377e-02 6.065373e-02 4.173405e-01 3.285037e-02 1.400051e-01 1.459949e-01 3.518797e-02 7.626127e-02
<VARIANCE> 39
 7.274963e+00 2.167871e+01 2.511361e+01 3.425692e+01 2.556059e+01 3.949077e+01 6.209475e+01 8.815652e+01 3.783737e+01 7.573647e+01 5.040177e+01 2.824993e+01 9.215124e+00 8.909631e-01 1.289878e+00 8.585595e-01 1.437234e+00 1.959966e+00 1.460501e+00 1.800791e+00 3.494756e+00 4.566103e+00 2.269207e+00 2.333217e+00 2.020324e+00 4.225559e-01 7.921824e-02 1.330027e-01 1.932350e-01 2.024086e-01 4.233767e-01 3.869461e-01 3.970374e-01 4.559999e-01 5.653881e-01 2.757971e-01 3.026825e-01 3.322197e-01 7.641885e-02
<GCONST> 1.046913e+02
<STATE> 4
<MEAN> 39
 2.163264e+00 4.862093e+00 1.010036e+00 1.471296e+00 -2.045226e+00 -8.616557e-01 -5.702525e+00 -5.392173e+00 -3.837884e+00 1.655046e+00 -2.345248e+00 -1.235924e+00 5.847422e+01 -5.026078e-01 -5.756582e-02 -2.098376e-01 3.302083e-01 6.987857e-01 4.463706e-01 4.075553e-01 5.911863e-01 3.538926e-01 -2.413338e-01 1.578957e-01 1.083420e-01 -7.227297e-01 -1.613635e-01 -6.142428e-02 -1.396663e-01 -1.098744e-01 -5.690872e-02 -1.520655e-01 6.544428e-02 6.283201e-02 -8.763820e-02 5.682393e-02 -1.779776e-02 -8.964714e-02 -1.757553e-02
<VARIANCE> 39
 8.800346e+00 3.431997e+01 3.219555e+01 2.582177e+01 2.645864e+01 3.019087e+01 4.917634e+01 5.623043e+01 3.272304e+01 3.798648e+01 3.882561e+01 1.764396e+01 1.056765e+01 6.682779e-01 1.534971e+00 1.748642e+00 1.517872e+00 1.211334e+00 2.172218e+00 1.643632e+00 2.331423e+00 1.388170e+00 1.352324e+00 1.799866e+00 1.883145e+00 3.266131e-01 1.164788e-01 2.750878e-01 3.276677e-01 2.678383e-01 2.161362e-01 3.585679e-01 2.921379e-01 3.716455e-01 3.560573e-01 3.033756e-01 3.602787e-01 3.326438e-01 5.197081e-02
<GCONST> 1.008196e+02
<TRANSP> 5
 0.000000e+00 1.000000e+00 0.000000e+00 0.000000e+00 0.000000e+00
 0.000000e+00 7.102423e-01 2.897578e-01 0.000000e+00 0.000000e+00
 0.000000e+00 0.000000e+00 6.911661e-01 3.088338e-01 0.000000e+00
 0.000000e+00 0.000000e+00 0.000000e+00 8.119854e-01 1.880146e-01
 0.000000e+00 0.000000e+00 0.000000e+00 0.000000e+00 0.000000e+00
<ENDHMM>
~h "k"
<BEGINHMM>
<NUMSTATES> 5
<STATE> 2
<MEAN> 39
 4.095459e+00 -7.694178e+00 -9.634295e+00 -1.572909e+01 -7.217989e+00 -4.982655e-01 -1.604231e+01 8.303480e+00 -1.674346e-01 2.123863e-01 -1.166614e+01 -4.158850e+00 7.471847e+01 2.186193e-02 -2.410953e-01 -4.079470e-02 4.834042e-02 9.801410e-03 9.527124e-03 2.236807e-02 2.351414e-01 7.980081e-02 -8.314997e-02 -2.831244e-01 -8.376952e-02 1.524586e-01 -2.204812e-02 1.279334e-01 6.240939e-02 1.065879e-01 -2.644536e-02 -8.463556e-02 6.535375e-02 -4.862749e-02 -4.900075e-02 2.006145e-02 4.739426e-02 7.558395e-02 -1.377108e-01
<VARIANCE> 39
 1.417193e+01 3.776497e+01 2.070445e+01 4.637726e+01 4.070391e+01 1.007660e+02 6.853626e+01 6.790904e+01 7.817579e+01 1.012682e+02 4.546710e+01 3.399885e+01 3.654969e+01 7.288845e-01 1.742754e+00 1.062555e+00 2.516558e+00 2.415329e+00 3.776505e+00 3.177356e+00 2.656352e+00 2.511673e+00 1.988255e+00 2.606009e+00 2.184115e+00 2.372795e+00 1.338430e-01 2.509947e-01 1.882938e-01 3.349958e-01 3.970807e-01 5.418269e-01 4.852872e-01 4.108465e-01 4.093167e-01 2.735578e-01 4.373015e-01 3.613912e-01 3.012882e-01
<GCONST> 1.167482e+02
<STATE> 3
<MEAN> 39
 1.125823e+00 -3.735334e+00 -6.137719e+00 -1.089831e+01 -1.037476e+01 -1.016651e+01 -9.272816e+00 3.955453e+00 -1.793588e+00 -4.713754e+00 -1.051652e+01 -2.514413e+00 6.883193e+01 -1.487522e-01 9.721678e-01 9.551523e-01 8.450086e-01 -5.450777e-01 -2.126792e-01 4.283696e-01 -8.063436e-01 -3.169513e-01 1.239941e-01 4.216458e-01 4.452213e-01 -1.184560e+00 -4.583690e-02 3.928453e-03 4.467995e-02 -6.797783e-02 1.298365e-01 2.202708e-01 5.344532e-03 -2.632462e-01 1.294328e-02 7.039309e-05 1.000038e-01 -1.302997e-01 3.417962e-02
<VARIANCE> 39
 2.023215e+01 2.807786e+01 5.168143e+01 4.737047e+01 4.905013e+01 5.865169e+01 7.219195e+01 1.133368e+02 6.400179e+01 9.512950e+01 3.826954e+01 3.822091e+01 8.235701e+01 1.302915e+00 2.457795e+00 3.679943e+00 3.260812e+00 3.214217e+00 4.812708e+00 4.301478e+00 7.401588e+00 4.933045e+00 4.777840e+00 3.266541e+00 3.876945e+00 3.945117e+00 2.251974e-01 3.614282e-01 5.517989e-01 5.216933e-01 4.150043e-01 9.020507e-01 9.187403e-01 1.196850e+00 8.020665e-01 7.671036e-01 5.147201e-01 6.624549e-01 5.853590e-01
<GCONST> 1.333909e+02
<STATE> 4
<MEAN> 39
 -2.033036e+00 3.791611e+00 8.959516e-01 -9.116546e+00 -1.003276e+01 -7.953459e+00 -1.177995e+01 -3.290956e+00 -5.273033e+00 2.234902e+00 -5.045971e+00 -2.584602e-01 6.583940e+01 -1.985703e-01 1.475751e-01 4.707008e-01 -2.491620e-02 2.313332e-02 -1.030493e-01 7.357308e-02 -3.533236e-01 -7.688716e-02 1.600685e-01 1.500103e-01 8.038234e-02 1.644049e-01 2.963125e-02 -8.162855e-02 -8.563633e-02 -1.908547e-02 2.702304e-02 1.240684e-02 -4.586167e-02 1.181255e-01 2.034502e-02 -2.443562e-02 -5.815000e-02 -2.717760e-02 5.013059e-02
<VARIANCE> 39
 6.466716e+01 3.583719e+01 9.164977e+01 4.865609e+01 8.468723e+01 7.169572e+01 6.061064e+01 6.972233e+01 4.074067e+01 4.904465e+01 4.974586e+01 2.364360e+01 5.650454e+01 5.845629e+00 3.693897e+00 6.566776e+00 4.852170e+00 5.332675e+00 5.018815e+00 6.333008e+00 5.484094e+00 3.645036e+00 4.315440e+00 3.025473e+00 2.371608e+00 4.967052e+00 9.234983e-01 7.076725e-01 1.016238e+00 8.812951e-01 8.817823e-01 9.434016e-01 1.077557e+00 9.366046e-01 6.305945e-01 7.884918e-01 5.432371e-01 4.890105e-01 8.088371e-01
<GCONST> 1.403435e+02
<TRANSP> 5
 0.000000e+00 1.000000e+00 0.000000e+00 0.000000e+00 0.000000e+00
 0.000000e+00 9.437073e-01 5.629274e-02 0.000000e+00 0.000000e+00
 0.000000e+00 0.000000e+00 8.357230e-01 1.642770e-01 0.000000e+00
 0.000000e+00 0.000000e+00 0.000000e+00 9.169697e-01 8.303030e-02
 0.000000e+00 0.000000e+00 0.000000e+00 0.000000e+00 0.000000e+00
<ENDHMM>
~h "l"
<BEGINHMM>
<NUMSTATES> 5
<STATE> 2
<MEAN> 39
 -6.180967e+00 -2.933087e+00 -4.319555e+00 -5.399124e+00 -6.242819e+00 -7.129981e+00 -5.296082e+00 1.134685e-01 -2.331819e+00 -2.665787e-01 -6.044185e+00 7.302055e-01 5.585582e+01 -2.990934e-01 -3.624376e-02 2.622482e-01 4.690498e-01 1.966200e-01 -1.727980e-01 1.748767e-01 1.436284e-01 -5.356563e-02 -5.411983e-02 -1.330125e-01 2.336799e-01 6.531969e-02 8.296763e-02 6.116159e-02 -6.398064e-02 1.960818e-02 7.624156e-02 9.209037e-02 4.602041e-02 -2.552867e-02 -2.198284e-02 7.291056e-02 5.921669e-02 -8.407176e-02 6.879587e-03
<VARIANCE> 39
 5.734382e+01 2.764972e+01 2.307845e+01 3.136050e+01 1.891798e+01 3.898298e+01 2.651629e+01 4.100159e+01 3.979958e+01 2.703130e+01 4.164487e+01 2.992842e+01 3.169694e+01 1.504078e+00 1.227004e+00 1.716838e+00 1.082713e+00 1.485919e+00 2.447182e+00 2.251839e+00 3.533833e+00 2.222445e+00 2.301757e+00 1.947584e+00 1.457768e+00 9.731370e-01 3.370385e-01 2.321656e-01 3.782631e-01 2.404265e-01 2.835220e-01 4.831375e-01 4.918848e-01 7.302865e-01 4.821918e-01 4.250756e-01 4.277799e-01 3.129515e-01 1.899691e-01
<GCONST> 1.108226e+02
<STATE> 3
<MEAN> 39
 -3.798502e+00 -3.142550e+00 -3.306078e+00 -2.611265e+00 -8.100557e+00 -9.020491e+00 -5.590548e+00 -1.777773e+00 -2.714176e+00 -1.429866e+00 -3.620550e+00 7.157466e-01 5.577804e+01 -1.611987e-02 1.645470e-01 -7.921317e-02 2.376966e-01 1.754901e-01 -3.715668e-03 1.248516e-01 -8.052050e-02 -6.758539e-02 9.953322e-02 5.395034e-02 -5.511940e-03 -1.725329e-01 1.992911e-03 1.985516e-02 -2.167220e-02 -7.395757e-02 1.919924e-02 2.698450e-02 -4.255505e-02 4.604250e-02 -3.185438e-02 -1.129887e-02 -6.407812e-03 -2.323140e-03 3.714002e-02
<VARIANCE> 39
 2.874712e+01 2.382909e+01 2.109193e+01 1.083940e+01 4.751486e+01 5.470102e+01 3.416961e+01 3.008771e+01 2.580597e+01 2.510328e+01 3.441329e+01 3.405050e+01 2.518782e+01 8.506229e-01 9.706511e-01 1.057958e+00 8.368921e-01 1.525473e+00 2.083442e+00 1.651614e+00 1.581683e+00 1.762098e+00 2.367427e+00 1.962257e+00 1.713853e+00 7.605023e-01 1.549196e-01 1.878904e-01 1.589079e-01 1.389425e-01 2.389607e-01 3.670329e-01 3.041372e-01 3.340352e-01 3.340310e-01 4.624405e-01 3.824724e-01 3.216937e-01 1.161635e-01
<GCONST> 1.011878e+02
<STATE> 4
<MEAN> 39
 -4.910898e+00 -3.134926e-02 -5.041484e+00 -1.102163e+00 -1.672975e+00 -5.070426e+00 -3.456588e+00 2.337100e+00 -7.868747e-01 5.197440e-01 -4.648596e+00 3.547060e-02 5.107672e+01 1.145944e-02 7.565492e-02 -4.656101e-02 4.939570e-02 1.427959e-01 1.030036e-02 -1.583577e-02 -9.116556e-03 -3.351710e-02 -6.225018e-02 -3.812428e-02 -2.679609e-02 -1.383620e-01 -4.348803e-02 -3.659549e-02 1.711737e-02 -4.743526e-02 1.614911e-03 -1.264624e-02 -6.176800e-02 1.101009e-02 -3.914636e-02 -6.914042e-02 -5.256755e-03 3.609136e-02 5.565769e-02
<VARIANCE> 39
 2.042709e+01 1.682594e+01 1.566381e+01 1.298640e+01 1.397786e+01 1.987175e+01 1.593163e+01 2.742933e+01 2.266777e+01 2.110679e+01 2.426601e+01 1.539133e+01 2.141903e+01 8.422264e-01 6.365418e-01 8.239710e-01 9.302016e-01 1.073847e+00 1.905344e+00 1.562566e+00 1.999366e+00 1.576143e+00 1.887582e+00 1.495762e+00 1.271277e+00 5.534341e-01 1.416014e-01 1.135455e-01 1.258025e-01 1.894290e-01 2.095485e-01 3.856548e-01 3.336495e-01 3.958613e-01 3.112252e-01 3.718388e-01 2.507776e-01 2.529341e-01 7.849637e-02
<GCONST> 9.193755e+01
<TRANSP> 5
 0.000000e+00 1.000000e+00 0.000000e+00 0.000000e+00 0.000000e+00
 0.000000e+00 6.115581e-01 3.884420e-01 0.000000e+00 0.000000e+00
 0.000000e+00 0.000000e+00 6.808165e-01 3.191835e-01 0.000000e+00
 0.000000e+00 0.000000e+00 0.000000e+00 8.523107e-01 1.476892e-01
 0.000000e+00 0.000000e+00 0.000000e+00 0.000000e+00 0.000000e+00
<ENDHMM>
~h "m"
<BEGINHMM>
<NUMSTATES> 5
<STATE> 2
<MEAN> 39
 4.120609e+00 5.380983e+00 3.956037e+00 -1.400756e+00 -9.563721e+00 -4.169938e+00 -1.118333e+01 -6.749957e+00 -6.056467e+00 1.661754e+00 -7.897621e+00 -3.028826e+00 6.246957e+01 -2.108502e-01 5.792675e-02 1.930066e-02 7.278852e-01 6.905912e-01 2.976350e-01 6.001327e-01 -2.628982e-01 3.717875e-01 -9.272078e-01 -2.055557e-02 1.516660e-01 -8.183678e-01 -2.714785e-01 -9.727773e-02 7.041052e-03 -2.813290e-01 -4.651283e-02 1.173645e-01 8.956414e-02 4.012293e-01 -2.237292e-02 -5.886394e-02 1.149292e-02 -5.968523e-02 5.363805e-02
<VARIANCE> 39
 1.058021e+01 2.252653e+01 6.108319e+01 1.681763e+01 5.612128e+01 4.598241e+01 5.273916e+01 6.480788e+01 7.213839e+01 3.551495e+01 5.740580e+01 4.101102e+01 1.632063e+01 6.595005e-01 1.322340e+00 1.635866e+00 1.258643e+00 1.463649e+00 1.428352e+00 1.877993e+00 2.332469e+00 2.032831e+00 2.160092e+00 1.851121e+00 1.496213e+00 4.483618e-01 1.110370e-01 2.762212e-01 2.654326e-01 1.581959e-01 3.374308e-01 4.161057e-01 4.004631e-01 4.597080e-01 5.041400e-01 3.811842e-01 3.553100e-01 3.404139e-01 1.034202e-01
<GCONST> 1.066382e+02
<STATE> 3
<MEAN> 39
 2.626240e+00 4.102201e+00 3.851548e+00 -9.739143e-01 -6.699718e+00 -1.510668e+00 -7.946845e+00 -6.105502e+00 -3.837013e+00 -2.706282e-02 -6.156647e+00 -3.914042e+00 6.076661e+01 -6.030285e-01 -1.227836e-01 -6.717825e-02 3.141153e-01 5.502258e-01 2.339825e-01 6.121701e-01 4.461563e-01 1.519604e-01 -2.627531e-01 7.097253e-02 2.248675e-01 -8.013859e-01 -8.117229e-02 -8.571873e-02 -1.400508e-01 -1.123955e-01 -5.316822e-02 -1.243382e-01 -5.828236e-02 1.128233e-01 -9.339230e-02 8.374675e-02 6.117506e-02 -6.470969e-03 1.096657e-02
<VARIANCE> 39
 8.961088e+00 1.894872e+01 5.463995e+01 2.110538e+01 5.704937e+01 4.535617e+01 3.197434e+01 5.595415e+01 8.979686e+01 3.762589e+01 3.018630e+01 3.040532e+01 1.960200e+01 3.898539e-01 1.042846e+00 1.162201e+00 8.326779e-01 1.428350e+00 1.196653e+00 1.398662e+00 1.372270e+00 1.406518e+00 1.815763e+00 1.378066e+00 1.981887e+00 2.878508e-01 5.673922e-02 1.557855e-01 1.506478e-01 1.614741e-01 2.486412e-01 2.393055e-01 3.529596e-01 3.171876e-01 3.386318e-01 2.539546e-01 2.817000e-01 2.696844e-01 6.306971e-02
<GCONST> 9.683460e+01
<STATE> 4
<MEAN> 39
 -3.720208e+00 1.666027e+00 -1.079355e+00 -5.844156e-01 -1.795398e+00 -3.287953e-01 -1.623267e+00 3.790790e+00 4.860029e-02 -5.818104e-01 -3.821549e+00 -5.464371e-01 5.455213e+01 -2.345584e-01 -2.118426e-01 -2.795095e-01 -1.475585e-02 2.151562e-02 -1.549478e-01 1.790555e-01 1.978398e-01 1.335636e-01 1.048214e-02 8.681631e-02 -3.676095e-02 -3.003495e-01 2.710405e-02 1.830396e-02 -4.291345e-02 -5.381824e-02 -5.724533e-02 -4.457595e-02 -7.741191e-02 -3.948649e-02 -5.362122e-02 2.033630e-02 -1.342304e-03 -7.630899e-03 1.797176e-02
<VARIANCE> 39
 1.550935e+01 1.654623e+01 3.260277e+01 2.055970e+01 3.412721e+01 2.030081e+01 2.952775e+01 4.936083e+01 4.175075e+01 2.481435e+01 2.602842e+01 2.374503e+01 1.575477e+01 6.008038e-01 1.123899e+00 1.567870e+00 1.743636e+00 1.700331e+00 1.837339e+00 1.838241e+00 1.756119e+00 1.903390e+00 1.839983e+00 1.270386e+00 1.501659e+00 1.971146e-01 8.979169e-02 1.488664e-01 2.675846e-01 3.271570e-01 3.015822e-01 2.784282e-01 3.527591e-01 2.800270e-01 3.091917e-01 3.502396e-01 2.794812e-01 3.075249e-01 2.713479e-02
<GCONST> 9.705734e+01
<TRANSP> 5
 0.000000e+00 1.000000e+00 0.000000e+00 0.000000e+00 0.000000e+00
 0.000000e+00 5.189283e-01 4.810717e-01 0.000000e+00 0.000000e+00
 0.000000e+00 0.000000e+00 5.570428e-01 4.429572e-01 0.000000e+00
 0.000000e+00 0.000000e+00 0.000000e+00 8.475627e-01 1.524373e-01
 0.000000e+00 0.000000e+00 0.000000e+00 0.000000e+00 0.000000e+00
<ENDHMM>
~h "n"
<BEGINHMM>
<NUMSTATES> 5
<STATE> 2
<MEAN> 39
 1.214229e+00 -4.768953e-01 -7.769269e+00 -1.301429e+01 -5.200500e+00 -5.618463e+00 -1.450885e+01 -4.115702e+00 -4.852243e+00 -8.914677e-01 -4.716152e+00 -2.252944e+00 6.802932e+01 -1.390193e-01 -1.280165e-01 4.553049e-01 -1.356575e-02 -2.777978e-02 -1.946733e-01 -1.737309e-01 -4.254168e-02 -8.185581e-02 2.066030e-01 -1.262321e-01 4.712358e-02 5.984022e-01 4.621667e-02 3.840378e-02 7.624353e-02 -5.430552e-02 -4.681673e-02 -2.841014e-02 4.810403e-02 9.827055e-04 -4.082630e-02 -6.945672e-03 -1.679642e-02 1.560162e-02 -3.833972e-03
<VARIANCE> 39
 4.383615e+01 5.536529e+01 5.054846e+01 7.532540e+01 5.984172e+01 7.852689e+01 6.978518e+01 4.793019e+01 7.790473e+01 7.330411e+01 5.260933e+01 4.127906e+01 6.979211e+01 3.182960e+00 3.037851e+00 5.206554e+00 6.332584e+00 4.299043e+00 5.031264e+00 6.565569e+00 3.956447e+00 5.935770e+00 5.921671e+00 3.219038e+00 3.960288e+00 5.490044e+00 5.594137e-01 4.498121e-01 7.940828e-01 1.060033e+00 8.471229e-01 9.744207e-01 1.131037e+00 7.009542e-01 1.077588e+00 9.790758e-01 5.822070e-01 7.062188e-01 8.005337e-01
<GCONST> 1.417357e+02
<STATE> 3
<MEAN> 39
 -1.435602e-02 1.408517e+00 4.666346e+00 -1.086731e+01 -8.168510e+00 -8.150693e+00 -1.343609e+01 -3.459784e+00 -6.470854e+00 3.357154e+00 -6.566579e+00 -2.099570e+00 7.059786e+01 2.505858e-01 3.619724e-01 1.016277e+00 5.726959e-01 -4.536931e-01 -3.874622e-01 3.331685e-02 -4.507248e-01 -4.196831e-01 -3.424531e-01 4.054142e-01 2.651029e-01 -2.919340e-01 4.324236e-02 6.768709e-02 -3.235337e-01 2.371743e-01 7.747887e-03 1.795372e-01 1.464347e-03 -1.264030e-01 2.311343e-01 -1.599066e-01 2.834385e-02 -1.296868e-01 -1.834872e-01
<VARIANCE> 39
 3.890808e+01 3.798011e+01 1.014946e+02 8.922619e+01 9.101199e+01 5.813870e+01 2.736941e+01 1.093210e+02 1.650888e+02 3.190698e+01 4.577388e+01 2.729514e+01 2.672792e+01 2.483221e+00 2.185638e+00 4.668285e+00 6.217196e+00 3.337145e+00 4.029286e+00 2.689579e+00 4.407047e+00 4.174797e+00 2.641119e+00 2.574429e+00 2.950436e+00 2.369133e+00 4.127788e-01 3.546138e-01 6.826704e-01 7.778181e-01 5.827456e-01 6.665741e-01 5.198585e-01 7.617480e-01 7.387193e-01 3.604254e-01 5.203478e-01 5.874583e-01 3.691489e-01
<GCONST> 1.311392e+02
<STATE> 4
<MEAN> 39
 -1.458327e+00 -1.817951e-01 5.638020e+00 -9.091564e+00 -1.001939e+01 -7.007589e+00 -8.273664e+00 -6.086035e+00 -2.079129e+00 -5.021309e+00 -4.600033e+00 -2.084884e+00 7.174816e+01 1.024570e-01 3.348903e-01 2.501954e-01 2.894614e-01 -3.171959e-01 -1.032404e-01 -1.563416e-02 -3.979655e-01 -1.540098e-01 9.174006e-03 1.010640e-01 -2.350964e-01 -2.747481e-01 1.240085e-02 4.062317e-02 -7.555924e-02 2.586658e-02 1.074128e-01 -8.452814e-03 1.905531e-02 7.739328e-02 1.298308e-02 9.883000e-02 -1.323257e-01 -2.566058e-02 -8.365202e-02
<VARIANCE> 39
 2.671625e+01 9.150399e+01 1.076920e+02 9.081647e+01 6.757122e+01 4.996324e+01 5.683844e+01 3.389700e+01 7.478275e+01 7.194936e+01 3.556301e+01 1.960435e+01 4.655426e+01 2.392603e+00 2.251225e+00 2.610968e+00 2.221519e+00 3.649090e+00 3.580929e+00 2.756972e+00 2.469182e+00 2.687841e+00 3.370734e+00 1.789126e+00 2.000082e+00 1.260449e+00 3.910550e-01 3.012038e-01 3.291025e-01 3.906837e-01 4.518914e-01 5.500162e-01 3.916557e-01 3.788403e-01 4.879662e-01 4.841132e-01 3.820587e-01 3.079052e-01 1.812579e-01
<GCONST> 1.221922e+02
<TRANSP> 5
 0.000000e+00 1.000000e+00 0.000000e+00 0.000000e+00 0.000000e+00
 0.000000e+00 9.376842e-01 6.231583e-02 0.000000e+00 0.000000e+00
 0.000000e+00 0.000000e+00 8.229566e-01 1.770435e-01 0.000000e+00
 0.000000e+00 0.000000e+00 0.000000e+00 8.458325e-01 1.541674e-01
 0.000000e+00 0.000000e+00 0.000000e+00 0.000000e+00 0.000000e+00
<ENDHMM>
~h "p"
<BEGINHMM>
<NUMSTATES> 5
<STATE> 2
<MEAN> 39
 -2.436392e+00 1.822179e+00 -1.230142e+00 -1.490035e+00 -4.620298e+00 -5.378451e+00 -4.820659e+00 -1.859643e+00 -4.113041e+00 6.499400e-01 -4.522655e+00 -1.680274e+00 6.116142e+01 -4.577473e-01 -2.178263e-01 -9.085424e-03 6.089295e-01 9.862913e-01 5.320952e-01 6.448996e-01 3.191001e-01 4.341551e-01 -2.836918e-01 -8.270194e-02 2.130737e-01 -4.228661e-01 -6.789338e-02 -5.003290e-02 1.129264e-01 -1.219690e-01 -1.229315e-02 1.111716e-01 -5.376663e-02 1.384186e-01 -1.200193e-01 4.151408e-02 -4.658288e-02 -3.349545e-02 4.466940e-02
<VARIANCE> 39
 7.691886e+01 2.980598e+01 3.589229e+01 4.309943e+01 4.024913e+01 6.841471e+01 3.687344e+01 9.742496e+01 4.504571e+01 3.025233e+01 2.235578e+01 2.799905e+01 4.262476e+01 1.096286e+00 9.035376e-01 1.922856e+00 1.147200e+00 2.065063e+00 2.233165e+00 1.588568e+00 2.658760e+00 2.430254e+00 2.226099e+00 2.181656e+00 1.430742e+00 1.104043e+00 1.713411e-01 1.630408e-01 2.575938e-01 3.134367e-01 3.338272e-01 4.381830e-01 3.566560e-01 5.119531e-01 5.645646e-01 3.653450e-01 4.193749e-01 3.093646e-01 1.138506e-01
<GCONST> 1.114404e+02
<STATE> 3
<MEAN> 39
 -4.741257e+00 -8.209697e-01 -1.567468e+00 -4.032646e-01 -3.230695e+00 -3.675749e+00 -4.044886e+00 7.550879e-01 -1.390643e+00 -1.526640e+00 -5.439296e+00 -6.157351e-01 5.814525e+01 -4.184195e-01 -8.554795e-02 -2.534400e-01 1.288774e-01 4.161757e-01 -2.711820e-02 2.662103e-01 2.302723e-01 2.466593e-02 -9.318872e-02 -1.830356e-01 9.235376e-02 -1.751960e-01 -2.001532e-02 7.468709e-02 -6.832904e-02 -1.701533e-01 -1.463450e-01 -8.317272e-02 -1.498328e-01 -2.597853e-02 -5.827945e-02 1.339598e-01 7.727496e-02 -2.867829e-02 8.992775e-02
<VARIANCE> 39
 4.446998e+01 2.488683e+01 3.154725e+01 3.527890e+01 3.423006e+01 4.770335e+01 2.594982e+01 5.859150e+01 3.290507e+01 3.484449e+01 2.509619e+01 2.762525e+01 3.963375e+01 1.074910e+00 8.871825e-01 1.223719e+00 9.058079e-01 1.789589e+00 1.771636e+00 1.414291e+00 2.108589e+00 2.371159e+00 1.892725e+00 1.894706e+00 1.567175e+00 8.648421e-01 1.390707e-01 1.257111e-01 1.964079e-01 2.334889e-01 3.047394e-01 3.418920e-01 2.807593e-01 3.163809e-01 4.339478e-01 3.257278e-01 3.578356e-01 3.580514e-01 9.775430e-02
<GCONST> 1.042903e+02
<STATE> 4
<MEAN> 39
 -7.636971e+00 -2.098017e+00 -2.692865e+00 -1.922968e+00 -2.785404e+00 -6.411758e+00 -3.917256e+00 1.081101e+00 -5.197763e-03 -8.002033e-01 -5.503419e+00 -2.349221e-01 5.887736e+01 -1.602457e-01 -4.133099e-02 -2.003124e-01 -3.834406e-01 2.217797e-01 -1.556660e-01 -6.993628e-02 2.209827e-01 -1.169027e-02 2.471016e-01 -1.433986e-02 -1.085979e-01 1.540699e-01 1.519940e-01 1.020059e-04 -7.410446e-02 -2.003143e-01 -1.731402e-01 -3.370903e-03 -2.391300e-01 -1.814544e-03 -5.411445e-02 4.346777e-02 2.537544e-02 -9.568819e-02 7.985640e-02
<VARIANCE> 39
 4.108384e+01 2.910216e+01 2.861915e+01 3.261320e+01 3.463649e+01 4.277005e+01 2.535198e+01 5.694346e+01 4.265131e+01 2.988337e+01 2.836427e+01 2.077181e+01 5.978300e+01 2.010551e+00 1.430144e+00 1.590644e+00 1.503744e+00 1.987891e+00 1.709101e+00 2.000586e+00 3.133354e+00 2.145033e+00 2.070831e+00 2.438915e+00 1.745220e+00 1.904981e+00 3.234376e-01 2.322456e-01 2.639951e-01 3.167146e-01 3.730222e-01 2.838494e-01 4.874871e-01 5.724134e-01 4.436613e-01 4.870558e-01 4.334186e-01 3.198965e-01 3.002514e-01
<GCONST> 1.130657e+02
<TRANSP> 5
 0.000000e+00 1.000000e+00 0.000000e+00 0.000000e+00 0.000000e+00
 0.000000e+00 5.432259e-01 4.567741e-01 0.000000e+00 0.000000e+00
 0.000000e+00 0.000000e+00 5.682758e-01 4.317242e-01 0.000000e+00
 0.000000e+00 0.000000e+00 0.000000e+00 6.572343e-01 3.427657e-01
 0.000000e+00 0.000000e+00 0.000000e+00 0.000000e+00 0.000000e+00
<ENDHMM>
~h "r"
<BEGINHMM>
<NUMSTATES> 5
<STATE> 2
<MEAN> 39
 4.974586e+00 5.060364e+00 -1.807082e+00 -1.192951e+01 -9.521760e+00 -4.452190e-01 -1.426818e+01 -1.529241e+00 -9.035762e+00 -2.374770e+00 -1.767883e+00 2.006055e+00 6.747483e+01 -1.511146e-01 -4.657619e-01 -6.168715e-01 -2.764532e-01 6.095908e-01 6.286864e-02 6.160088e-02 7.243201e-01 6.087855e-01 4.706480e-01 -1.787755e-01 -2.487703e-01 2.660288e-01 -7.283857e-02 -1.991588e-01 -5.641893e-02 9.847552e-03 1.308513e-01 -5.504846e-02 -8.968444e-02 -2.583562e-02 1.706059e-01 3.011117e-01 -5.431087e-03 -1.821024e-01 8.829540e-02
<VARIANCE> 39
 2.638000e+01 2.602547e+01 5.295810e+01 1.422676e+02 4.572022e+01 9.091078e+01 5.878474e+01 9.294341e+01 7.140355e+01 3.216713e+01 4.212485e+01 3.084757e+01 4.583027e+01 3.829640e-01 1.186720e+00 1.061834e+00 1.517673e+00 1.412783e+00 1.351909e+00 1.852007e+00 2.092404e+00 1.818357e+00 2.603855e+00 1.991225e+00 1.395487e+00 6.956629e-01 6.004411e-02 1.443246e-01 1.679839e-01 2.523004e-01 2.546763e-01 2.852532e-01 3.003329e-01 3.002681e-01 3.221828e-01 3.178831e-01 3.301555e-01 2.557279e-01 5.702701e-02
<GCONST> 1.061603e+02
<STATE> 3
<MEAN> 39
 3.690123e+00 -2.066371e+00 -8.278118e+00 -1.567817e+01 -4.476636e+00 -9.507143e-02 -1.561045e+01 4.880330e+00 -5.020212e+00 6.051397e+00 -5.307358e+00 -3.111105e+00 7.374802e+01 -4.500063e-01 -1.161648e+00 -6.397797e-01 3.116262e-02 5.891791e-01 -2.009100e-01 1.539788e-01 8.460014e-01 1.000494e+00 4.607372e-01 -1.151494e+00 -1.371009e+00 6.184547e-01 3.413828e-02 1.013035e-01 8.750203e-02 5.833676e-02 -1.543193e-01 -1.025053e-01 1.926929e-02 -5.539846e-02 -6.316721e-02 -3.519771e-01 -7.606588e-02 1.085546e-01 -1.112691e-01
<VARIANCE> 39
 1.241548e+01 3.040875e+01 3.917171e+01 1.168005e+02 2.716903e+01 6.912119e+01 5.845235e+01 9.590144e+01 7.908912e+01 6.913538e+01 9.603734e+01 3.335421e+01 6.096334e+01 3.040227e-01 7.363240e-01 9.739569e-01 1.524213e+00 1.500124e+00 1.960037e+00 1.704540e+00 1.529380e+00 1.565699e+00 2.490330e+00 3.082713e+00 2.117972e+00 5.342558e-01 4.235385e-02 9.988930e-02 7.847784e-02 1.625190e-01 1.387610e-01 2.349318e-01 2.886213e-01 2.290158e-01 2.416106e-01 2.190628e-01 3.902232e-01 3.326097e-01 4.817827e-02
<GCONST> 1.025620e+02
<STATE> 4
<MEAN> 39
 4.270604e+00 -8.443750e+00 -1.098585e+01 -1.222719e+01 -5.382392e+00 6.634021e-01 -1.868400e+01 1.082729e+01 1.836277e+00 3.044427e+00 -1.033572e+01 -7.755913e+00 7.725320e+01 -1.659662e-02 -2.261727e-02 9.714633e-03 7.216974e-02 -1.073675e-01 -1.491561e-01 -8.053020e-02 8.273162e-02 1.699416e-01 -1.218656e-01 -1.623171e-01 1.145390e-01 -8.420779e-02 5.538794e-03 9.598064e-02 5.207782e-02 3.371554e-02 -1.894988e-02 -8.191587e-02 -7.846430e-04 -6.258519e-02 -5.947531e-02 2.725229e-02 8.352803e-02 8.257547e-02 -8.185439e-02
<VARIANCE> 39
 8.249446e+00 1.637236e+01 3.177869e+01 4.694681e+01 3.121366e+01 4.323480e+01 4.458520e+01 5.480041e+01 8.882689e+01 2.634979e+01 4.741073e+01 4.023614e+01 2.632025e+01 3.321963e-01 6.201244e-01 7.495379e-01 1.187128e+00 1.018667e+00 1.228244e+00 1.626197e+00 1.974108e+00 1.320091e+00 9.319913e-01 1.254205e+00 1.539105e+00 6.381167e-01 4.962416e-02 9.583470e-02 1.047426e-01 1.701932e-01 1.734719e-01 2.000239e-01 2.917455e-01 3.863737e-01 2.139103e-01 1.423024e-01 1.996758e-01 1.972810e-01 1.333610e-01
<GCONST> 9.393076e+01
<TRANSP> 5
 0.000000e+00 1.000000e+00 0.000000e+00 0.000000e+00 0.000000e+00
 0.000000e+00 8.047320e-01 1.952680e-01 0.000000e+00 0.000000e+00
 0.000000e+00 0.000000e+00 6.990208e-01 3.009792e-01 0.000000e+00
 0.000000e+00 0.000000e+00 0.000000e+00 9.214383e-01 7.856173e-02
 0.000000e+00 0.000000e+00 0.000000e+00 0.000000e+00 0.000000e+00
<ENDHMM>
~h "s"
<BEGINHMM>
<NUMSTATES> 5
<STATE> 2
<MEAN> 39
 -9.624770e+00 -1.683107e+00 -6.112670e+00 -5.328660e+00 -6.460603e+00 -6.045306e+00 -4.120815e+00 -6.339735e-01 -1.380206e+00 -6.679807e-01 -5.903280e+00 -1.700060e+00 5.490530e+01 -9.520518e-01 -4.441310e-02 3.207518e-01 -1.196603e-01 6.893678e-02 -4.688088e-01 1.525979e-02 3.223658e-01 -1.419954e-01 1.432426e-01 -5.621677e-02 2.977538e-01 9.126660e-01 -9.416251e-03 -8.296148e-03 5.569085e-02 1.056603e-02 1.341653e-01 1.761603e-02 -9.244683e-02 1.409394e-01 6.730720e-02 5.837305e-02 -4.083497e-02 -3.344108e-02 1.094547e-01
<VARIANCE> 39
 5.025244e+01 1.914263e+01 2.682198e+01 3.767475e+01 2.856383e+01 3.380456e+01 3.114114e+01 3.870250e+01 3.452850e+01 3.128330e+01 2.347767e+01 2.293879e+01 4.574094e+01 3.913909e+00 1.797369e+00 1.503250e+00 3.476675e+00 3.153898e+00 3.570617e+00 2.860853e+00 2.745326e+00 3.389930e+00 2.779454e+00 1.863187e+00 2.434060e+00 2.919862e+00 8.757646e-01 3.442722e-01 3.579164e-01 7.005340e-01 6.300682e-01 7.881286e-01 5.301377e-01 5.229425e-01 6.789783e-01 5.802109e-01 3.715076e-01 4.526649e-01 6.601189e-01
<GCONST> 1.217468e+02
<STATE> 3
<MEAN> 39
 -1.190401e+01 -3.191093e+00 -4.341688e+00 -4.299855e+00 -4.062551e+00 -1.021151e+01 -3.476358e+00 3.485802e+00 1.123964e-01 1.501893e-01 -6.622670e+00 1.860605e-01 5.967472e+01 -4.692467e-02 2.180348e-01 9.872855e-02 1.403516e-01 5.107775e-01 -5.913008e-03 -1.942637e-02 5.260328e-01 -2.660063e-02 6.956758e-02 -9.728366e-02 1.956280e-01 4.544930e-02 2.357199e-01 -3.191102e-03 -3.485497e-02 -8.871920e-02 -8.404122e-02 2.311118e-01 -1.541757e-01 -8.808386e-02 -1.041870e-02 -1.161905e-01 -5.660038e-03 -9.787393e-02 -6.692216e-03
<VARIANCE> 39
 5.333458e+01 5.077024e+01 3.567464e+01 2.020181e+01 3.388168e+01 4.131781e+01 3.039336e+01 3.626336e+01 4.831561e+01 2.816982e+01 2.661312e+01 2.028513e+01 3.403409e+01 3.632395e+00 2.295695e+00 1.738529e+00 1.738195e+00 2.364649e+00 3.480520e+00 2.361927e+00 2.796041e+00 3.026469e+00 2.274719e+00 1.930403e+00 1.039735e+00 2.054886e+00 4.629680e-01 3.788015e-01 3.012796e-01 2.989104e-01 4.073262e-01 7.151217e-01 4.125758e-01 5.057260e-01 5.327352e-01 4.925694e-01 3.848172e-01 2.444334e-01 3.574525e-01
<GCONST> 1.163345e+02
<STATE> 4
<MEAN> 39
 -7.267272e+00 -1.306110e+00 -4.780838e+00 -2.241383e+00 -2.171539e+00 -5.164821e+00 -3.552342e+00 2.307042e+00 -6.338557e-01 4.120802e-01 -4.769231e+00 -1.136983e+00 5.364209e+01 1.359676e-01 9.182671e-02 1.971215e-02 -1.276668e-01 1.105897e-01 1.479792e-01 -1.822321e-01 5.487245e-03 -2.986935e-02 -5.571791e-02 4.704659e-02 -1.509220e-01 -3.342956e-03 1.528514e-02 -2.974549e-02 6.618536e-02 -7.369842e-02 1.709660e-03 -5.170109e-02 -6.917287e-02 4.409502e-02 -3.223899e-02 -2.932735e-05 -1.224668e-02 -4.348104e-02 1.379509e-01
<VARIANCE> 39
 3.058569e+01 2.129458e+01 2.122996e+01 1.800926e+01 1.704495e+01 2.291387e+01 2.472279e+01 3.480726e+01 2.958375e+01 2.297716e+01 1.958840e+01 1.838098e+01 3.150622e+01 1.477552e+00 8.916617e-01 1.209080e+00 1.188165e+00 1.213127e+00 2.333735e+00 2.256402e+00 2.400880e+00 2.157930e+00 1.894298e+00 1.720460e+00 1.451261e+00 1.168848e+00 2.593915e-01 1.748219e-01 2.052201e-01 2.524716e-01 2.366898e-01 4.382114e-01 4.382669e-01 4.438438e-01 4.226426e-01 3.983530e-01 3.187454e-01 2.977910e-01 2.145229e-01
<GCONST> 1.029006e+02
<TRANSP> 5
 0.000000e+00 1.000000e+00 0.000000e+00 0.000000e+00 0.000000e+00
 0.000000e+00 7.396055e-01 2.603945e-01 0.000000e+00 0.000000e+00
 0.000000e+00 0.000000e+00 6.721060e-01 3.278940e-01 0.000000e+00
 0.000000e+00 0.000000e+00 0.000000e+00 8.747423e-01 1.252577e-01
 0.000000e+00 0.000000e+00 0.000000e+00 0.000000e+00 0.000000e+00
<ENDHMM>
~h "t"
<BEGINHMM>
<NUMSTATES> 5
<STATE> 2
<MEAN> 39
 5.066293e-01 -1.856702e+00 -1.047142e+01 -1.338794e+01 -4.519486e+00 -2.002505e+00 -1.061557e+01 2.238770e+00 -4.599216e+00 -7.867231e-01 -5.604139e+00 -3.918647e+00 6.802820e+01 1.092562e+00 -1.029450e+00 -4.731908e-01 -1.122220e+00 -2.146524e-01 3.865076e-01 -1.285353e+00 3.650247e-01 -2.587004e-02 2.111855e-01 -3.925333e-01 -4.368079e-01 1.916163e+00 -3.957619e-02 -1.466394e-01 -1.083932e-02 -8.120993e-02 3.131283e-03 2.283338e-02 -7.670385e-02 1.491616e-01 1.006346e-01 3.395962e-02 -1.544342e-01 -1.171824e-01 1.216058e-01
<VARIANCE> 39
 6.778849e+01 3.674646e+01 3.403313e+01 6.141658e+01 3.265464e+01 6.821548e+01 6.334177e+01 7.122280e+01 6.093042e+01 7.769514e+01 4.032118e+01 5.189154e+01 8.714229e+01 5.663943e+00 3.525028e+00 2.252404e+00 5.505704e+00 2.685258e+00 4.611627e+00 6.594320e+00 4.799067e+00 3.412589e+00 4.448195e+00 3.342240e+00 2.749654e+00 7.968073e+00 8.392352e-01 4.875472e-01 3.653919e-01 1.028294e+00 4.488938e-01 7.986729e-01 1.161621e+00 7.538136e-01 5.828282e-01 6.253191e-01 5.400580e-01 4.833066e-01 1.035509e+00
<GCONST> 1.369894e+02
<STATE> 3
<MEAN> 39
 2.488405e+00 -9.179184e+00 -1.057013e+01 -1.608778e+01 -5.207633e+00 -4.685745e+00 -1.302828e+01 8.148131e+00 -3.054010e+00 -1.752260e+00 -1.051544e+01 -4.784093e+00 7.561878e+01 -2.300675e-02 -5.232222e-02 3.245796e-01 1.577848e-01 -1.960503e-01 -2.834123e-01 -4.758026e-02 3.652749e-01 1.668266e-02 -2.851950e-02 -9.925687e-02 1.304094e-01 -1.009914e-02 -4.331560e-02 2.037235e-01 1.148335e-01 1.355896e-01 -7.036215e-02 -8.833421e-02 8.558681e-02 -1.030765e-01 -6.981099e-02 -1.465199e-03 1.286424e-01 1.211880e-01 -2.009413e-01
<VARIANCE> 39
 1.827845e+01 3.235559e+01 3.217616e+01 4.945874e+01 4.920732e+01 8.068216e+01 7.331341e+01 1.174651e+02 6.211126e+01 1.107486e+02 4.519721e+01 5.273818e+01 5.284536e+01 9.219822e-01 2.152165e+00 1.780476e+00 3.130744e+00 2.489254e+00 3.394864e+00 3.453055e+00 4.107615e+00 3.225915e+00 2.891701e+00 2.516450e+00 2.545519e+00 3.401884e+00 1.842063e-01 2.883562e-01 2.242344e-01 5.025741e-01 4.015161e-01 5.141585e-01 6.529715e-01 6.044644e-01 5.873228e-01 4.935823e-01 4.552421e-01 4.329038e-01 4.364483e-01
<GCONST> 1.245466e+02
<STATE> 4
<MEAN> 39
 1.316838e+00 7.574387e-01 -8.662577e-01 -1.243031e+01 -9.599496e+00 -6.283740e+00 -1.613766e+01 4.824058e+00 -7.371130e+00 2.348139e+00 -5.267840e+00 -1.822631e+00 7.066987e+01 4.055714e-02 4.980973e-01 6.507599e-02 3.250848e-01 3.242237e-02 -5.479725e-02 3.397900e-01 -4.775578e-01 4.675842e-02 -8.786464e-02 1.625336e-01 -1.711075e-02 -5.084003e-01 -1.352844e-02 -4.473406e-02 -1.273939e-01 -5.853225e-03 1.120229e-01 5.408767e-02 5.224452e-02 -3.228938e-02 1.053784e-01 -3.514972e-02 -2.976743e-02 -1.014260e-01 -4.670898e-02
<VARIANCE> 39
 3.376412e+01 4.200903e+01 7.861950e+01 4.889283e+01 7.886040e+01 7.692380e+01 5.176396e+01 1.251516e+02 8.522495e+01 5.247243e+01 7.602572e+01 2.752675e+01 5.251881e+01 2.573150e+00 2.671964e+00 3.512364e+00 3.182121e+00 4.389338e+00 3.793618e+00 4.485976e+00 5.014814e+00 4.700909e+00 3.352503e+00 3.698189e+00 2.748639e+00 3.487793e+00 4.159147e-01 3.325232e-01 4.321683e-01 5.365940e-01 6.904898e-01 6.450709e-01 8.072420e-01 8.155398e-01 7.550403e-01 5.730610e-01 5.951601e-01 5.047495e-01 4.144444e-01
<GCONST> 1.336940e+02
<TRANSP> 5
 0.000000e+00 1.000000e+00 0.000000e+00 0.000000e+00 0.000000e+00
 0.000000e+00 8.333252e-01 1.666748e-01 0.000000e+00 0.000000e+00
 0.000000e+00 0.000000e+00 9.213431e-01 7.865688e-02 0.000000e+00
 0.000000e+00 0.000000e+00 0.000000e+00 9.180011e-01 8.199897e-02
 0.000000e+00 0.000000e+00 0.000000e+00 0.000000e+00 0.000000e+00
<ENDHMM>
~h "u"
<BEGINHMM>
<NUMSTATES> 5
<STATE> 2
<MEAN> 39
 -5.978786e-01 -2.793587e+00 -6.953659e+00 -1.110431e+01 -5.363688e+00 -5.689569e+00 -9.730338e+00 3.030262e+00 -3.867686e-01 -1.745530e+00 -8.171430e+00 -4.515566e+00 6.535495e+01 1.689413e-02 -2.628129e-01 1.005893e-01 -4.682441e-01 3.152682e-01 -7.694952e-02 -4.650327e-01 1.285209e-01 5.041368e-02 -7.419710e-02 -2.246367e-01 -1.082576e-01 8.517973e-01 -2.875169e-02 8.242559e-03 4.329722e-02 1.412974e-02 -6.285946e-02 -5.342105e-02 -9.076658e-02 -2.319870e-02 -7.397351e-02 1.566019e-02 8.532837e-02 9.927045e-02 1.212040e-01
<VARIANCE> 39
 4.314959e+01 3.580178e+01 5.485005e+01 5.011528e+01 4.231018e+01 6.735597e+01 5.560713e+01 7.071246e+01 7.642671e+01 7.018816e+01 3.965965e+01 2.649783e+01 8.880840e+01 4.153760e+00 2.236408e+00 2.454702e+00 3.968128e+00 2.629658e+00 3.486789e+00 5.589469e+00 4.157220e+00 3.908114e+00 4.377163e+00 2.962432e+00 2.494386e+00 7.692262e+00 5.781825e-01 3.450965e-01 3.574602e-01 6.432832e-01 4.245860e-01 5.723537e-01 9.359987e-01 7.160687e-01 6.865227e-01 8.406752e-01 5.461440e-01 4.488357e-01 1.013190e+00
<GCONST> 1.331096e+02
<STATE> 3
<MEAN> 39
 -1.778520e+00 -1.351385e+00 -4.304227e+00 -1.052516e+01 -3.533522e+00 -5.214136e+00 -1.220929e+01 5.012978e+00 -3.120986e+00 -1.711614e-01 -8.050449e+00 -2.634651e+00 6.815285e+01 -1.497851e-01 6.396365e-01 2.920038e-01 3.817006e-01 -1.697006e-01 -3.699152e-01 -3.244980e-01 -4.225064e-01 -2.669415e-01 -2.533256e-01 6.641133e-01 2.855694e-01 2.051460e-01 9.523208e-02 1.048832e-01 2.512788e-02 1.245094e-01 -3.884286e-01 6.732392e-02 1.658752e-01 -1.725012e-01 -4.687892e-02 1.986902e-02 1.848091e-01 5.722034e-02 -1.449034e-01
<VARIANCE> 39
 9.939841e+01 5.175331e+01 6.065250e+01 5.229988e+01 4.656734e+01 1.071983e+02 4.957777e+01 8.650037e+01 7.527334e+01 5.673357e+01 5.556805e+01 3.040874e+01 4.684013e+01 4.316164e+00 1.899475e+00 2.108499e+00 2.449714e+00 3.208990e+00 3.298615e+00 4.208159e+00 3.111654e+00 3.892380e+00 3.452857e+00 2.445830e+00 2.064307e+00 3.604228e+00 6.918005e-01 4.601854e-01 3.658792e-01 6.460469e-01 5.624603e-01 6.364454e-01 8.023214e-01 6.015280e-01 6.802517e-01 5.930309e-01 5.207324e-01 3.940701e-01 4.381886e-01
<GCONST> 1.313205e+02
<STATE> 4
<MEAN> 39
 -3.126282e+00 2.294670e+00 -2.293039e+00 -9.189406e+00 -6.834794e+00 -5.900963e+00 -1.265839e+01 2.013315e+00 -3.969926e+00 9.563280e-01 -3.513119e+00 -1.377644e+00 6.780990e+01 7.689493e-01 5.289315e-02 4.490170e-02 -1.104373e-01 -3.535819e-01 3.343267e-01 -2.384281e-01 -4.268590e-01 -2.716611e-01 2.031002e-01 8.556946e-02 3.404517e-02 1.517978e-01 4.044953e-02 -4.456444e-02 -2.626118e-02 -1.051888e-01 -7.890712e-03 7.961826e-02 6.674331e-02 5.220203e-02 -4.183145e-02 -8.303539e-03 -7.182405e-02 3.138106e-03 -3.429785e-02
<VARIANCE> 39
 1.268397e+02 3.992231e+01 7.430251e+01 4.649381e+01 7.595158e+01 9.490958e+01 6.072508e+01 7.451945e+01 7.858112e+01 4.666996e+01 4.810339e+01 2.876112e+01 2.908119e+01 8.185392e+00 3.063025e+00 2.979825e+00 4.992280e+00 4.520818e+00 5.457464e+00 5.901660e+00 4.540919e+00 5.113112e+00 3.747506e+00 3.757235e+00 2.538820e+00 2.386029e+00 1.037828e+00 4.786901e-01 4.425890e-01 8.081675e-01 7.660029e-01 8.804397e-01 9.923180e-01 7.725583e-01 8.287519e-01 7.005566e-01 6.884353e-01 4.880282e-01 2.909430e-01
<GCONST> 1.377018e+02
<TRANSP> 5
 0.000000e+00 1.000000e+00 0.000000e+00 0.000000e+00 0.000000e+00
 0.000000e+00 7.547206e-01 2.452794e-01 0.000000e+00 0.000000e+00
 0.000000e+00 0.000000e+00 5.168825e-01 4.831176e-01 0.000000e+00
 0.000000e+00 0.000000e+00 0.000000e+00 8.682243e-01 1.317758e-01
 0.000000e+00 0.000000e+00 0.000000e+00 0.000000e+00 0.000000e+00
<ENDHMM>
~h "y"
<BEGINHMM>
<NUMSTATES> 5
<STATE> 2
<MEAN> 39
 -5.393694e+00 3.822221e+00 2.727078e+00 -7.725239e+00 -8.673624e+00 -6.199212e+00 -1.225566e+01 -1.717734e+00 -5.985788e+00 2.961804e-01 -2.815042e+00 -8.409513e-01 6.570892e+01 2.217871e-01 1.158862e-01 1.974105e+00 -6.430626e-03 -1.515023e+00 1.015351e-01 -3.860248e-01 -3.472531e-01 -9.454446e-01 1.500649e-01 2.529310e-01 8.490008e-02 9.130686e-01 9.860452e-02 1.856720e-02 -7.517889e-03 -1.304466e-01 -1.155031e-01 1.421728e-01 -1.285667e-01 -6.751643e-02 6.048876e-02 3.011980e-02 -1.269826e-01 -1.316966e-01 -5.676335e-02
<VARIANCE> 39
 8.242229e+01 2.630804e+01 9.844167e+01 4.887350e+01 7.982100e+01 3.750605e+01 5.446494e+01 5.179396e+01 3.883080e+01 3.754268e+01 1.706649e+01 1.477943e+01 4.037931e+01 8.174356e+00 2.457031e+00 7.962235e+00 4.437596e+00 8.464828e+00 3.484314e+00 5.542598e+00 2.735765e+00 4.457417e+00 4.125550e+00 2.405153e+00 1.793291e+00 3.599186e+00 1.325027e+00 4.759604e-01 1.447271e+00 7.915475e-01 1.577909e+00 5.874539e-01 9.379426e-01 4.701180e-01 8.027739e-01 7.008079e-01 4.284129e-01 3.952446e-01 5.549011e-01
<GCONST> 1.344622e+02
<STATE> 3
<MEAN> 39
 -1.655841e+00 5.810767e+00 1.386531e+01 -8.674405e+00 -1.842545e+01 -3.412591e+00 -1.405191e+01 -1.967050e-01 -1.371994e+01 2.052064e+00 -3.362846e+00 -2.933304e+00 7.007863e+01 -8.529796e-02 4.230655e-01 -1.253489e-01 -2.097111e-01 3.899568e-01 7.902812e-01 3.626364e-01 -9.006849e-02 1.986315e-01 7.509090e-01 -5.654225e-01 -4.351268e-01 -4.645723e-01 -8.208191e-02 -6.230179e-02 -4.358121e-01 2.081570e-01 5.332658e-01 -2.488732e-01 3.245494e-01 5.168175e-02 3.769053e-01 -3.848843e-02 -1.114219e-01 1.582011e-01 -1.723524e-01
<VARIANCE> 39
 9.405930e+00 1.385198e+01 4.005067e+01 6.649184e+01 4.388809e+01 5.463629e+01 4.196317e+01 6.492754e+01 4.850852e+01 4.343308e+01 4.523738e+01 2.616033e+01 1.584068e+01 4.198889e-01 8.867090e-01 1.784924e+00 9.739986e-01 2.947457e+00 1.988507e+00 2.564681e+00 1.534225e+00 2.135458e+00 1.989203e+00 1.691451e+00 1.245568e+00 3.384458e-01 1.432607e-01 1.626518e-01 3.219810e-01 2.244716e-01 7.077583e-01 4.881679e-01 5.087323e-01 3.004448e-01 4.112013e-01 5.112730e-01 4.498483e-01 2.572270e-01 1.093527e-01
<GCONST> 1.061728e+02
<STATE> 4
<MEAN> 39
 -1.154603e+00 6.416877e+00 1.785307e+01 -8.355845e+00 -2.123042e+01 -4.566858e-01 -1.405228e+01 -6.813667e+00 -3.136363e+00 -5.991846e-02 -4.173304e+00 -2.795218e+00 6.758988e+01 8.513477e-02 2.498489e-01 -6.039740e-01 2.074766e-01 8.701216e-01 -1.020092e-01 2.629790e-01 -6.947552e-02 5.269783e-01 1.512392e-01 -3.331945e-01 1.919092e-01 -4.087327e-01 3.844969e-02 -4.321047e-02 -8.770259e-02 8.902545e-02 1.124297e-01 -4.553703e-02 1.077305e-01 4.090142e-02 -4.274772e-02 -7.091500e-04 1.504853e-02 7.719576e-02 -6.740054e-02
<VARIANCE> 39
 1.074338e+01 1.372609e+01 5.270013e+01 2.486259e+01 5.401417e+01 2.620179e+01 1.784970e+01 5.324435e+01 6.447963e+01 2.783159e+01 2.687992e+01 1.051137e+01 1.278634e+01 2.910433e-01 5.467237e-01 8.829129e-01 8.470212e-01 1.867362e+00 1.364607e+00 1.139363e+00 1.267538e+00 3.239880e+00 1.296126e+00 1.282521e+00 1.103320e+00 4.115371e-01 5.475022e-02 9.939799e-02 1.452986e-01 1.110416e-01 3.301738e-01 2.573979e-01 1.674347e-01 2.382924e-01 6.016448e-01 2.360594e-01 2.293276e-01 1.754856e-01 6.175558e-02
<GCONST> 9.073773e+01
<TRANSP> 5
 0.000000e+00 1.000000e+00 0.000000e+00 0.000000e+00 0.000000e+00
 0.000000e+00 8.810028e-01 1.189972e-01 0.000000e+00 0.000000e+00
 0.000000e+00 0.000000e+00 7.508941e-01 2.491059e-01 0.000000e+00
 0.000000e+00 0.000000e+00 0.000000e+00 7.908456e-01 2.091544e-01
 0.000000e+00 0.000000e+00 0.000000e+00 0.000000e+00 0.000000e+00
<ENDHMM>
~h "ng"
<BEGINHMM>
<NUMSTATES> 5
<STATE> 2
<MEAN> 39
 -2.812125e+00 2.153491e+00 -2.058513e+00 -2.906327e-01 -6.863188e-01 -2.334990e+00 -2.846981e+00 2.451334e+00 4.673291e-01 -2.146752e+00 -3.587312e+00 -1.187476e+00 5.385892e+01 -1.176630e-01 -7.690512e-02 -1.312521e-01 -1.351776e-01 3.278675e-02 -5.276375e-02 1.224856e-01 2.003091e-01 1.928202e-01 7.193311e-02 7.740982e-02 3.795550e-02 -1.373797e-01 4.970428e-03 -1.262041e-02 7.323436e-04 -8.071923e-03 -2.603678e-02 -6.215366e-03 -4.107375e-03 -2.615586e-02 -1.827184e-02 1.545072e-02 -2.352444e-04 6.407218e-03 3.207851e-03
<VARIANCE> 39
 5.494908e+00 2.796715e+01 3.368335e+01 3.735201e+01 2.619187e+01 2.028727e+01 3.159130e+01 3.243699e+01 3.147506e+01 2.796382e+01 2.066341e+01 1.708324e+01 5.910562e+00 3.334610e-01 7.326518e-01 9.101346e-01 1.103245e+00 1.134911e+00 1.291092e+00 1.541209e+00 2.013498e+00 1.806653e+00 1.589503e+00 1.425206e+00 1.260687e+00 1.625285e-01 4.934928e-02 1.062251e-01 1.689033e-01 2.063484e-01 2.040505e-01 2.408628e-01 3.092665e-01 4.004174e-01 3.599375e-01 3.181469e-01 2.817340e-01 2.444269e-01 1.980392e-02
<GCONST> 8.893969e+01
<STATE> 3
<MEAN> 39
 -5.229565e+00 1.100037e+00 -4.301931e+00 -1.278259e+00 -1.006886e+00 -2.744080e+00 -2.767652e+00 1.148676e+00 -9.187843e-01 -4.984915e-02 -3.532116e+00 -1.536217e+00 5.197159e+01 -9.254141e-02 -8.178119e-02 -1.270602e-01 -1.009328e-01 -8.181761e-02 5.651268e-03 1.160796e-01 8.819447e-02 5.598195e-02 1.632254e-01 9.235552e-02 -5.285554e-02 -2.455336e-01 2.885154e-02 2.231047e-02 2.812543e-02 1.179408e-02 -2.698970e-02 -5.496494e-03 -3.313969e-02 -3.431645e-02 -1.243381e-02 -3.608198e-02 -2.641981e-03 2.035090e-03 1.443869e-02
<VARIANCE> 39
 6.865817e+00 8.761406e+00 1.295088e+01 1.533515e+01 1.542718e+01 1.964656e+01 1.995891e+01 2.947169e+01 2.558671e+01 2.996630e+01 2.075441e+01 1.658567e+01 4.631982e+00 2.104776e-01 4.267532e-01 5.974222e-01 1.235376e+00 1.187701e+00 1.416466e+00 1.571542e+00 1.573838e+00 1.561616e+00 1.741227e+00 1.752040e+00 1.378576e+00 1.154560e-01 3.490968e-02 6.614961e-02 1.140759e-01 2.481109e-01 2.238797e-01 2.942389e-01 2.993335e-01 2.631800e-01 2.814755e-01 3.593741e-01 3.467840e-01 2.653734e-01 1.531524e-02
<GCONST> 8.185596e+01
<STATE> 4
<MEAN> 39
 -5.154345e+00 6.704566e-01 -5.446157e+00 -1.942752e+00 -3.317264e+00 -3.274081e+00 -3.085120e+00 3.052659e-01 -1.145251e-01 -1.815904e-02 -3.284921e+00 -2.299058e+00 4.817950e+01 -1.231146e-02 -8.587575e-03 -1.200379e-02 -1.366373e-02 -2.845357e-02 -1.758347e-02 -1.519993e-02 -9.334064e-03 1.153432e-02 -5.964749e-03 7.448492e-03 1.572094e-03 -4.737751e-02 -3.912549e-03 4.282306e-03 5.774173e-03 1.467821e-03 8.707331e-03 -5.820710e-03 2.829361e-03 -6.971327e-04 -5.287281e-03 -7.231149e-05 -6.869451e-03 2.735296e-03 1.147044e-02
<VARIANCE> 39
 2.737209e+00 4.335682e+00 6.417218e+00 8.253734e+00 1.122157e+01 1.343793e+01 1.406464e+01 1.835851e+01 1.895275e+01 1.555590e+01 1.304249e+01 1.297040e+01 2.903504e+00 1.676601e-01 3.068995e-01 4.715881e-01 6.291163e-01 9.515126e-01 1.096940e+00 1.202462e+00 1.304913e+00 1.390974e+00 1.234863e+00 1.328556e+00 1.176165e+00 8.357631e-02 3.213445e-02 5.963532e-02 9.472874e-02 1.237797e-01 2.005516e-01 2.231134e-01 2.438332e-01 2.726018e-01 2.866421e-01 2.421075e-01 2.695208e-01 2.347446e-01 1.693339e-02
<GCONST> 6.936223e+01
<TRANSP> 5
 0.000000e+00 1.000000e+00 0.000000e+00 0.000000e+00 0.000000e+00
 0.000000e+00 9.049278e-01 9.507225e-02 0.000000e+00 0.000000e+00
 0.000000e+00 0.000000e+00 8.709264e-01 1.290736e-01 0.000000e+00
 0.000000e+00 0.000000e+00 0.000000e+00 9.722683e-01 2.773165e-02
 0.000000e+00 0.000000e+00 0.000000e+00 0.000000e+00 0.000000e+00
<ENDHMM>
~h "sil"
<BEGINHMM>
<NUMSTATES> 5
<STATE> 2
<MEAN> 39
 -4.361702e+00 -1.470415e+00 -5.100434e+00 -2.583408e+00 -4.045508e+00 -3.746296e+00 -3.619054e+00 -9.258422e-01 -9.928072e-01 -6.058840e-01 -2.484586e+00 -1.423125e+00 3.213975e+01 -1.405831e+00 -7.722284e-01 -1.893542e+00 -1.229011e+00 -1.557623e+00 -1.543270e+00 -1.385163e+00 -4.154249e-01 -6.016237e-01 -3.514456e-01 -8.441746e-01 -4.701914e-01 9.076400e+00 2.387128e-01 1.545668e-01 3.153160e-01 1.433122e-01 2.603033e-01 1.658388e-01 1.650533e-01 6.038710e-02 1.780293e-02 -2.277739e-02 7.298136e-02 5.863862e-02 -1.037042e+00
<VARIANCE> 39
 1.586654e+01 1.224251e+01 2.808534e+01 1.877305e+01 2.447857e+01 2.726032e+01 2.397119e+01 1.976974e+01 1.891652e+01 1.673951e+01 1.565629e+01 1.229330e+01 4.764197e+02 1.226457e+00 8.120913e-01 1.827370e+00 1.403873e+00 2.043019e+00 2.142286e+00 1.991920e+00 1.633555e+00 1.784749e+00 1.373573e+00 1.398613e+00 1.172491e+00 3.319755e+01 1.911084e-01 1.175222e-01 3.039110e-01 2.544335e-01 3.559606e-01 4.159897e-01 3.881410e-01 3.449158e-01 3.307185e-01 3.212108e-01 3.240931e-01 2.239573e-01 3.899719e+00
<GCONST> 1.077694e+02
<STATE> 3
<MEAN> 39
 -7.457654e+00 -2.529731e+00 -7.607254e+00 -5.241555e+00 -6.779557e+00 -6.542233e+00 -5.694964e+00 -1.349930e+00 -2.082966e+00 -1.169000e+00 -3.747846e+00 -2.513400e+00 5.093218e+01 1.333272e-02 -5.028017e-03 -3.926798e-02 6.945357e-03 5.975111e-02 -6.961671e-02 6.457734e-02 8.806221e-02 1.818398e-02 -2.912949e-02 3.086022e-02 4.880659e-02 1.972518e-01 1.358227e-01 6.053087e-02 1.365860e-01 1.247007e-01 1.135408e-01 1.707906e-01 1.374608e-01 4.841924e-02 6.878218e-02 5.112633e-02 9.118529e-02 5.281867e-02 -7.435931e-01
<VARIANCE> 39
 1.516795e+01 1.645809e+01 2.346729e+01 1.909503e+01 2.590514e+01 2.564197e+01 2.613949e+01 2.816462e+01 2.585930e+01 2.050548e+01 1.846730e+01 1.621387e+01 1.955103e+01 1.133706e+00 1.201367e+00 1.308169e+00 1.213306e+00 1.692080e+00 1.793051e+00 2.136396e+00 2.302758e+00 1.809462e+00 1.986184e+00 1.968765e+00 1.662259e+00 2.051138e+00 2.601549e-01 2.508241e-01 3.166436e-01 2.587784e-01 3.880281e-01 4.055690e-01 4.534966e-01 4.345586e-01 3.647532e-01 4.066418e-01 4.258422e-01 3.450076e-01 1.922500e+00
<GCONST> 1.061308e+02
<STATE> 4
<MEAN> 39
 -5.475465e+00 -9.223943e-01 -6.590308e+00 -2.850350e+00 -4.071672e+00 -4.296073e+00 -3.526839e+00 6.354491e-01 -3.762634e-01 -3.247734e-01 -2.961790e+00 -1.337453e+00 4.871913e+01 4.611247e-03 2.047409e-02 2.256028e-02 2.796756e-02 3.025909e-02 4.820358e-02 4.175745e-02 3.000948e-02 2.197949e-02 2.956668e-02 1.312098e-02 2.074052e-02 -6.108089e-02 -6.506591e-03 8.680493e-04 3.085585e-03 -6.027904e-04 2.125104e-03 -3.468937e-03 -7.501533e-03 -4.503662e-03 -9.510349e-03 -9.205742e-04 -1.024386e-02 -1.209204e-03 -3.523498e-04
<VARIANCE> 39
 4.681748e+00 9.280224e+00 1.089023e+01 1.176013e+01 1.448064e+01 1.619417e+01 1.723422e+01 2.180288e+01 2.205657e+01 1.879972e+01 1.695538e+01 1.493280e+01 5.165387e+00 2.761937e-01 3.983047e-01 6.141123e-01 7.959658e-01 1.026748e+00 1.142330e+00 1.326936e+00 1.428426e+00 1.436939e+00 1.454206e+00 1.431509e+00 1.209885e+00 1.993174e-01 5.629102e-02 7.631971e-02 1.199031e-01 1.558469e-01 2.084440e-01 2.250196e-01 2.609870e-01 2.828347e-01 2.883235e-01 2.950255e-01 2.883702e-01 2.459916e-01 3.586220e-02
<GCONST> 7.890641e+01
<TRANSP> 5
 0.000000e+00 1.000000e+00 0.000000e+00 0.000000e+00 0.000000e+00
 0.000000e+00 5.520314e-01 4.479686e-01 0.000000e+00 0.000000e+00
 0.000000e+00 0.000000e+00 7.788119e-01 2.211881e-01 0.000000e+00
 0.000000e+00 0.000000e+00 0.000000e+00 9.739668e-01 2.603317e-02
 0.000000e+00 0.000000e+00 0.000000e+00 0.000000e+00 0.000000e+00
<ENDHMM>
~h "sp"
<BEGINHMM>
<NUMSTATES> 5
<STATE> 2
<MEAN> 39
 -4.361702e+00 -1.470415e+00 -5.100434e+00 -2.583408e+00 -4.045508e+00 -3.746296e+00 -3.619054e+00 -9.258422e-01 -9.928072e-01 -6.058840e-01 -2.484586e+00 -1.423125e+00 3.213975e+01 -1.405831e+00 -7.722284e-01 -1.893542e+00 -1.229011e+00 -1.557623e+00 -1.543270e+00 -1.385163e+00 -4.154249e-01 -6.016237e-01 -3.514456e-01 -8.441746e-01 -4.701914e-01 9.076400e+00 2.387128e-01 1.545668e-01 3.153160e-01 1.433122e-01 2.603033e-01 1.658388e-01 1.650533e-01 6.038710e-02 1.780293e-02 -2.277739e-02 7.298136e-02 5.863862e-02 -1.037042e+00
<VARIANCE> 39
 1.586654e+01 1.224251e+01 2.808534e+01 1.877305e+01 2.447857e+01 2.726032e+01 2.397119e+01 1.976974e+01 1.891652e+01 1.673951e+01 1.565629e+01 1.229330e+01 4.764197e+02 1.226457e+00 8.120913e-01 1.827370e+00 1.403873e+00 2.043019e+00 2.142286e+00 1.991920e+00 1.633555e+00 1.784749e+00 1.373573e+00 1.398613e+00 1.172491e+00 3.319755e+01 1.911084e-01 1.175222e-01 3.039110e-01 2.544335e-01 3.559606e-01 4.159897e-01 3.881410e-01 3.449158e-01 3.307185e-01 3.212108e-01 3.240931e-01 2.239573e-01 3.899719e+00
<GCONST> 1.077694e+02
<STATE> 3
<MEAN> 39
 -7.457654e+00 -2.529731e+00 -7.607254e+00 -5.241555e+00 -6.779557e+00 -6.542233e+00 -5.694964e+00 -1.349930e+00 -2.082966e+00 -1.169000e+00 -3.747846e+00 -2.513400e+00 5.093218e+01 1.333272e-02 -5.028017e-03 -3.926798e-02 6.945357e-03 5.975111e-02 -6.961671e-02 6.457734e-02 8.806221e-02 1.818398e-02 -2.912949e-02 3.086022e-02 4.880659e-02 1.972518e-01 1.358227e-01 6.053087e-02 1.365860e-01 1.247007e-01 1.135408e-01 1.707906e-01 1.374608e-01 4.841924e-02 6.878218e-02 5.112633e-02 9.118529e-02 5.281867e-02 -7.435931e-01
<VARIANCE> 39
 1.516795e+01 1.645809e+01 2.346729e+01 1.909503e+01 2.590514e+01 2.564197e+01 2.613949e+01 2.816462e+01 2.585930e+01 2.050548e+01 1.846730e+01 1.621387e+01 1.955103e+01 1.133706e+00 1.201367e+00 1.308169e+00 1.213306e+00 1.692080e+00 1.793051e+00 2.136396e+00 2.302758e+00 1.809462e+00 1.986184e+00 1.968765e+00 1.662259e+00 2.051138e+00 2.601549e-01 2.508241e-01 3.166436e-01 2.587784e-01 3.880281e-01 4.055690e-01 4.534966e-01 4.345586e-01 3.647532e-01 4.066418e-01 4.258422e-01 3.450076e-01 1.922500e+00
<GCONST> 1.061308e+02
<STATE> 4
<MEAN> 39
 -5.475465e+00 -9.223943e-01 -6.590308e+00 -2.850350e+00 -4.071672e+00 -4.296073e+00 -3.526839e+00 6.354491e-01 -3.762634e-01 -3.247734e-01 -2.961790e+00 -1.337453e+00 4.871913e+01 4.611247e-03 2.047409e-02 2.256028e-02 2.796756e-02 3.025909e-02 4.820358e-02 4.175745e-02 3.000948e-02 2.197949e-02 2.956668e-02 1.312098e-02 2.074052e-02 -6.108089e-02 -6.506591e-03 8.680493e-04 3.085585e-03 -6.027904e-04 2.125104e-03 -3.468937e-03 -7.501533e-03 -4.503662e-03 -9.510349e-03 -9.205742e-04 -1.024386e-02 -1.209204e-03 -3.523498e-04
<VARIANCE> 39
 4.681748e+00 9.280224e+00 1.089023e+01 1.176013e+01 1.448064e+01 1.619417e+01 1.723422e+01 2.180288e+01 2.205657e+01 1.879972e+01 1.695538e+01 1.493280e+01 5.165387e+00 2.761937e-01 3.983047e-01 6.141123e-01 7.959658e-01 1.026748e+00 1.142330e+00 1.326936e+00 1.428426e+00 1.436939e+00 1.454206e+00 1.431509e+00 1.209885e+00 1.993174e-01 5.629102e-02 7.631971e-02 1.199031e-01 1.558469e-01 2.084440e-01 2.250196e-01 2.609870e-01 2.828347e-01 2.883235e-01 2.950255e-01 2.883702e-01 2.459916e-01 3.586220e-02
<GCONST> 7.890641e+01
<TRANSP> 5
 0.000000e+00 1.000000e+00 0.000000e+00 0.000000e+00 0.000000e+00
 0.000000e+00 5.520314e-01 4.479686e-01 0.000000e+00 0.000000e+00
 0.000000e+00 0.000000e+00 7.788119e-01 2.211881e-01 0.000000e+00
 0.000000e+00 0.000000e+00 0.000000e+00 9.739668e-01 2.603317e-02
 0.000000e+00 0.000000e+00 0.000000e+00 0.000000e+00 0.000000e+00
<ENDHMM>
