~o
<STREAMINFO> 1 39
<VECSIZE> 39<NULLD><MFCC_D_A_0><DIAGC>
~s "silst"
<MEAN> 39
 -7.275032e+00 -3.376621e+00 -8.344036e+00 -6.296618e+00 -7.550489e+00 -7.107521e+00 -7.083831e+00 -1.887964e+00 -1.784019e+00 -1.278172e+00 -3.795611e+00 -2.280712e+00 5.010788e+01 -3.118646e-01 -2.374016e-01 -6.863461e-01 -3.193388e-01 -4.112605e-01 -5.725771e-01 -4.680147e-01 -1.293467e-01 -1.837547e-01 -2.280310e-01 -2.605570e-01 -2.014678e-01 3.246341e+00 3.505789e-01 1.786950e-01 3.280267e-01 2.783633e-01 3.537706e-01 3.328788e-01 3.600644e-01 1.489429e-01 1.268951e-01 3.848289e-02 1.411058e-01 6.696229e-02 -1.815160e+00
<VARIANCE> 39
 1.662831e+01 1.640903e+01 2.398352e+01 1.757791e+01 2.241419e+01 2.920946e+01 2.774440e+01 2.927674e+01 2.797030e+01 2.110398e+01 1.828498e+01 1.792986e+01 3.987321e+01 1.865080e+00 1.170958e+00 2.150078e+00 2.137267e+00 2.549137e+00 2.650265e+00 2.691700e+00 2.168272e+00 2.075860e+00 1.978227e+00 1.993492e+00 1.684623e+00 3.023957e+01 2.899836e-01 2.251773e-01 4.168909e-01 3.157580e-01 4.326492e-01 4.748251e-01 4.587583e-01 4.598982e-01 4.123834e-01 4.385429e-01 4.261983e-01 3.657973e-01 2.799511e+00
<GCONST> 1.139526e+02
~h "a"
<BEGINHMM>
<NUMSTATES> 5
<STATE> 2
<MEAN> 39
 3.080829e+00 -3.993062e+00 -8.938492e+00 -1.413722e+01 -5.126663e+00 -1.148748e+00 -1.344724e+01 6.380309e+00 -5.169641e+00 9.928008e-01 -7.847068e+00 -4.051131e+00 7.137737e+01 2.502655e-02 -6.913175e-02 -3.566375e-02 4.558013e-02 -4.576699e-02 -1.129439e-01 2.262814e-02 1.506315e-01 -1.685541e-02 -3.637757e-02 -4.093344e-02 1.528004e-02 6.074317e-02 -4.876744e-02 7.134587e-02 5.281394e-02 1.270793e-01 -4.464490e-03 -9.740391e-02 1.777366e-02 -5.925258e-02 1.213789e-03 -2.979362e-02 8.740576e-02 5.117876e-02 -6.681308e-02
<VARIANCE> 39
 2.088553e+01 5.726859e+01 5.236810e+01 6.909872e+01 3.943269e+01 7.562990e+01 6.467937e+01 8.272644e+01 7.469066e+01 8.079830e+01 6.712449e+01 4.856364e+01 8.419599e+01 7.260796e-01 1.573911e+00 1.388576e+00 2.183233e+00 1.984926e+00 2.281928e+00 1.929310e+00 2.312694e+00 1.948712e+00 2.345434e+00 2.278600e+00 2.087317e+00 1.314422e+00 1.353456e-01 2.111518e-01 2.071781e-01 3.255391e-01 3.087965e-01 3.319637e-01 3.706503e-01 4.167037e-01 3.239010e-01 3.741859e-01 3.341366e-01 3.015231e-01 2.500067e-01
<GCONST> 1.161835e+02
<STATE> 3
<MEAN> 39
 1.706420e-01 -1.559215e+00 -7.419289e+00 -9.608292e+00 -4.536500e+00 -5.117400e+00 -1.343563e+01 4.691021e+00 -1.817722e+00 4.672087e-01 -7.720073e+00 -3.117740e+00 6.784912e+01 -6.195188e-02 2.903842e-01 3.627394e-01 2.913176e-01 -1.182332e-01 -2.284520e-01 -6.430876e-04 -2.375727e-01 -8.578806e-02 -1.273876e-01 3.065842e-01 2.738420e-02 -6.740732e-02 -1.608624e-02 -2.920176e-02 4.292835e-02 -4.882114e-02 -9.595020e-02 7.001474e-02 8.446546e-02 -3.650102e-02 -7.517334e-03 1.193626e-02 7.244916e-03 -6.183589e-02 -1.679270e-02
<VARIANCE> 39
 6.104211e+01 4.437690e+01 5.516534e+01 5.100277e+01 4.801337e+01 7.660681e+01 7.649073e+01 9.542336e+01 7.681047e+01 5.812022e+01 4.922287e+01 3.923267e+01 8.635516e+01 4.043888e+00 3.016121e+00 3.089270e+00 4.024417e+00 3.908780e+00 5.143105e+00 6.483934e+00 5.371785e+00 4.399583e+00 3.604198e+00 3.489529e+00 2.810739e+00 5.936606e+00 6.389123e-01 4.291668e-01 4.607971e-01 6.496873e-01 6.830105e-01 8.673244e-01 1.128038e+00 8.808388e-01 7.377787e-01 6.357858e-01 6.115317e-01 5.183907e-01 5.580370e-01
<GCONST> 1.379393e+02
<STATE> 4
<MEAN> 39
 -1.451432e-01 2.285877e+00 6.413986e+00 -8.176044e+00 -1.322434e+01 -7.223755e+00 -1.202599e+01 -5.761030e-01 -8.023825e+00 1.214102e+00 -2.823536e+00 -2.383771e+00 6.877930e+01 -1.796824e-02 2.579826e-01 -3.751627e-02 1.436785e-01 -5.950088e-02 3.120235e-01 3.337108e-01 -2.627431e-01 -4.812922e-02 6.545168e-02 6.848384e-02 -9.203826e-02 -2.435067e-01 2.983756e-02 -7.384389e-02 -2.095754e-01 7.402955e-03 1.800854e-01 3.326392e-02 8.305693e-03 8.262457e-02 1.123964e-01 -2.005319e-02 -1.348756e-01 -2.906101e-02 -2.554635e-02
<VARIANCE> 39
 2.644113e+01 3.054380e+01 1.026743e+02 6.846817e+01 6.958769e+01 7.226106e+01 5.270183e+01 1.010914e+02 7.712064e+01 4.582806e+01 4.417257e+01 3.455253e+01 5.030766e+01 1.108568e+00 1.670542e+00 3.576235e+00 2.953721e+00 4.746511e+00 3.240143e+00 3.253888e+00 3.562331e+00 3.192739e+00 3.228197e+00 2.773951e+00 2.631855e+00 1.807416e+00 1.614720e-01 2.624158e-01 3.867573e-01 5.053365e-01 6.680292e-01 5.863693e-01 5.519384e-01 5.702938e-01 5.141479e-01 4.898771e-01 4.091674e-01 4.475920e-01 2.261991e-01
<GCONST> 1.253718e+02
<TRANSP> 5
 0.000000e+00 1.000000e+00 0.000000e+00 0.000000e+00 0.000000e+00
 0.000000e+00 7.703785e-01 2.296216e-01 0.000000e+00 0.000000e+00
 0.000000e+00 0.000000e+00 8.129470e-01 1.870529e-01 0.000000e+00
 0.000000e+00 0.000000e+00 0.000000e+00 7.778897e-01 2.221103e-01
 0.000000e+00 0.000000e+00 0.000000e+00 0.000000e+00 0.000000e+00
<ENDHMM>
~h "b"
<BEGINHMM>
<NUMSTATES> 5
<STATE> 2
<MEAN> 39
 2.001873e+00 4.425916e+00 1.273921e+01 -5.024170e+00 -1.749010e+01 -8.941439e-01 -1.008108e+01 -7.532009e+00 -5.010002e+00 5.297343e+00 -5.946607e+00 -3.255196e+00 6.397571e+01 -4.492725e-02 3.799189e-01 -7.538893e-01 3.825769e-01 1.043698e+00 1.080228e-01 3.526527e-01 -3.112043e-02 -7.904343e-02 -2.512084e-01 -2.223055e-01 -2.081912e-01 -6.817168e-01 -8.013526e-03 5.285264e-02 -1.598871e-01 1.038438e-01 1.985068e-01 2.097285e-02 -1.314137e-02 2.126848e-02 9.555452e-02 -1.835206e-01 2.855758e-02 7.192799e-02 -1.154976e-01
<VARIANCE> 39
 7.747274e+00 1.414010e+01 1.071743e+02 3.036511e+01 1.164547e+02 2.991783e+01 1.878421e+01 6.670403e+01 4.364662e+01 1.998860e+01 2.756050e+01 3.013081e+01 1.771741e+01 3.849473e-01 6.382362e-01 1.839984e+00 1.360636e+00 1.915062e+00 1.761615e+00 6.835034e-01 1.517339e+00 2.592067e+00 1.182515e+00 8.602203e-01 1.066805e+00 5.317134e-01 5.805564e-02 1.394961e-01 3.312538e-01 2.888625e-01 2.626396e-01 4.356354e-01 1.573209e-01 2.576231e-01 6.582143e-01 2.822206e-01 1.641936e-01 3.277039e-01 8.850381e-02
<GCONST> 9.772053e+01
<STATE> 3
<MEAN> 39
 3.838323e+00 7.231717e+00 2.494589e+00 6.638809e-01 -7.239677e+00 -5.425634e+00 -1.094487e+01 -9.667270e+00 -7.038298e+00 -3.394385e-01 -7.822389e+00 -1.491262e+00 5.881269e+01 -5.378516e-01 2.781447e-01 -7.087070e-02 7.802773e-01 1.113115e+00 2.855994e-01 3.315246e-01 1.053263e-01 -3.216056e-02 -1.026393e+00 1.579527e-01 2.125938e-01 -8.793365e-01 -1.407241e-01 -2.217048e-01 -9.849088e-02 -7.048820e-02 -3.042097e-02 1.240018e-01 2.466865e-01 2.717864e-01 -5.156785e-02 7.515315e-02 -9.867640e-03 -7.695349e-02 4.102179e-03
<VARIANCE> 39
 9.214244e+00 1.311259e+01 2.080531e+01 9.439908e+00 3.435756e+01 2.636508e+01 4.127627e+01 6.745049e+01 4.933230e+01 3.023735e+01 1.943449e+01 2.187114e+01 7.161983e+00 1.587869e-01 6.345134e-01 8.380734e-01 9.897155e-01 1.056385e+00 1.608100e+00 2.012800e+00 1.284525e+00 8.211334e-01 1.131551e+00 8.762800e-01 2.370922e+00 2.886884e-01 4.221134e-02 6.641092e-02 1.826230e-01 1.068909e-01 2.027594e-01 2.278244e-01 3.495428e-01 2.380350e-01 1.593710e-01 2.403466e-01 1.580900e-01 2.120531e-01 2.305983e-02
<GCONST> 8.443198e+01
<STATE> 4
<MEAN> 39
 -3.886087e-01 4.737252e+00 1.893880e+00 3.281065e+00 -1.726545e+00 -6.395663e-01 -2.080563e+00 -5.055803e-01 -3.379101e+00 -5.678611e-01 -5.977019e+00 -3.613098e+00 5.493067e+01 -6.794064e-01 -5.042288e-01 -6.553044e-01 1.756378e-01 5.198688e-01 3.597430e-01 1.067196e+00 1.240384e+00 1.845652e-01 -5.302049e-01 2.043606e-01 1.468913e-01 -6.251879e-01 -2.175165e-02 -1.746532e-01 -8.505332e-02 -2.320866e-01 -2.621374e-01 -1.002139e-01 -2.742020e-01 -1.554042e-01 -3.328570e-02 -4.672255e-02 9.091160e-02 4.192179e-02 1.371253e-01
<VARIANCE> 39
 7.413292e+00 1.381714e+01 1.364292e+01 1.146434e+01 1.994512e+01 1.063799e+01 3.308422e+01 5.895901e+01 3.020456e+01 2.283285e+01 1.196507e+01 2.749410e+01 3.804675e+00 4.626704e-01 7.655548e-01 1.350692e+00 7.579203e-01 1.556387e+00 1.674918e+00 2.775718e+00 2.734138e+00 2.034003e+00 1.856759e+00 1.196997e+00 2.404635e+00 2.461267e-01 2.852208e-02 1.235177e-01 2.337813e-01 1.942748e-01 2.640926e-01 3.529531e-01 4.513590e-01 6.437624e-01 3.164147e-01 1.735679e-01 1.961423e-01 6.254082e-01 4.337776e-02
<GCONST> 9.042803e+01
<TRANSP> 5
 0.000000e+00 1.000000e+00 0.000000e+00 0.000000e+00 0.000000e+00
 0.000000e+00 7.350616e-01 2.649384e-01 0.000000e+00 0.000000e+00
 0.000000e+00 0.000000e+00 6.832647e-01 3.167353e-01 0.000000e+00
 0.000000e+00 0.000000e+00 0.000000e+00 7.047855e-01 2.952145e-01
 0.000000e+00 0.000000e+00 0.000000e+00 0.000000e+00 0.000000e+00
<ENDHMM>
~h "c"
<BEGINHMM>
<NUMSTATES> 5
<STATE> 2
<MEAN> 39
 -1.806848e+00 3.531491e+00 1.274176e+01 -9.682626e+00 -1.747532e+01 -8.996967e+00 -1.333011e+01 -1.057173e+01 -6.851292e+00 -3.036680e-01 -7.747351e+00 -2.524616e+00 7.021375e+01 3.466787e-01 2.915210e-01 -2.053811e-02 -2.654005e-02 1.111797e-01 1.978317e-01 -5.190847e-02 -2.553486e-01 -2.095626e-02 5.311767e-01 -3.193617e-01 -3.513813e-01 -5.793157e-01 -2.396145e-02 4.782611e-02 -3.491560e-01 1.763740e-01 3.441354e-01 9.632137e-03 1.416988e-01 -3.194368e-03 1.073756e-01 -8.984491e-02 -5.302081e-02 5.074874e-02 -1.577965e-01
<VARIANCE> 39
 2.386997e+01 1.635992e+01 6.774864e+01 1.387334e+02 5.314339e+01 6.288042e+01 4.750438e+01 4.997834e+01 5.398204e+01 3.480667e+01 7.322176e+01 1.798956e+01 2.329505e+01 1.542943e+00 2.067594e+00 4.330260e+00 6.506395e+00 4.279405e+00 3.568270e+00 2.686962e+00 1.777573e+00 1.551700e+00 2.949577e+00 1.790278e+00 2.105130e+00 1.329787e+00 2.245111e-01 2.484045e-01 7.581638e-01 8.608512e-01 7.044051e-01 7.364848e-01 4.591709e-01 3.791966e-01 3.651154e-01 5.265259e-01 3.947264e-01 3.872468e-01 2.108252e-01
<GCONST> 1.216690e+02
<STATE> 3
<MEAN> 39
 1.684867e+00 4.079335e+00 5.493522e+00 -4.588370e+00 -1.090313e+01 -7.490183e+00 -7.880989e+00 -9.768559e+00 -6.505739e+00 1.704118e+00 -6.288145e+00 -3.933539e+00 6.229598e+01 1.458905e-02 -2.869948e-01 -7.164641e-01 9.494836e-01 7.097812e-01 6.754072e-01 3.808347e-01 -4.979815e-01 7.550071e-01 -5.622406e-01 2.295538e-01 6.599743e-01 -7.861527e-01 -1.060876e-01 -1.605488e-02 8.488774e-03 6.123718e-02 2.254072e-02 4.691100e-02 3.722646e-02 2.815256e-01 -3.047664e-02 -2.040254e-01 1.656655e-01 1.007335e-01 3.598201e-02
<VARIANCE> 39
 3.350945e+01 3.512945e+01 2.477751e+01 4.944684e+01 2.028463e+01 7.189666e+01 6.613601e+01 6.802776e+01 5.863353e+01 7.430421e+01 5.180547e+01 2.448499e+01 7.744103e+00 1.389579e+00 1.947361e+00 1.438337e+00 1.795892e+00 2.012499e+00 3.985735e+00 1.863624e+00 3.592620e+00 3.382572e+00 3.063545e+00 2.625954e+00 1.357271e+00 7.276093e-01 2.134304e-01 3.590482e-01 2.775642e-01 3.626428e-01 3.588616e-01 7.863154e-01 5.311620e-01 5.623176e-01 5.101876e-01 8.065916e-01 4.641818e-01 3.328597e-01 1.255335e-01
<GCONST> 1.161777e+02
<STATE> 4
<MEAN> 39
 2.270309e+00 5.811741e+00 3.302111e+00 2.193998e+00 -5.014786e+00 -4.336299e+00 -6.194923e+00 -7.293050e+00 -5.718512e+00 1.558601e-01 -6.094243e+00 -1.248125e+00 5.857577e+01 -6.241181e-01 -1.791576e-01 -2.619471e-01 7.120496e-01 9.222177e-01 2.870465e-01 6.621104e-01 9.363109e-01 2.490015e-01 -4.398476e-01 3.444898e-01 2.083842e-01 -7.625788e-01 -1.064250e-01 -9.495288e-02 -9.114459e-02 -1.609306e-01 -7.589290e-02 -1.051882e-02 2.178863e-03 2.325873e-01 6.469490e-02 9.946746e-02 -3.603566e-02 -5.866367e-02 7.444496e-03
<VARIANCE> 39
 8.519207e+00 1.674567e+01 1.552166e+01 1.375235e+01 5.000393e+01 2.232179e+01 4.704327e+01 5.170618e+01 2.747780e+01 3.586880e+01 3.557236e+01 1.671832e+01 7.579660e+00 2.491525e-01 1.203717e+00 1.448104e+00 1.280527e+00 1.185245e+00 2.384961e+00 1.670515e+00 1.638810e+00 1.382012e+00 1.458308e+00 1.778784e+00 9.074978e-01 1.825912e-01 3.311320e-02 1.512762e-01 1.983016e-01 1.904282e-01 2.868271e-01 3.010533e-01 2.823443e-01 2.511263e-01 2.528566e-01 2.226523e-01 3.816306e-01 1.488761e-01 2.783530e-02
<GCONST> 9.006572e+01
<TRANSP> 5
 0.000000e+00 1.000000e+00 0.000000e+00 0.000000e+00 0.000000e+00
 0.000000e+00 8.792031e-01 1.207968e-01 0.000000e+00 0.000000e+00
 0.000000e+00 0.000000e+00 7.894909e-01 2.105092e-01 0.000000e+00
 0.000000e+00 0.000000e+00 0.000000e+00 8.124389e-01 1.875611e-01
 0.000000e+00 0.000000e+00 0.000000e+00 0.000000e+00 0.000000e+00
<ENDHMM>
~h "h"
<BEGINHMM>
<NUMSTATES> 5
<STATE> 2
<MEAN> 39
 -1.707602e+01 2.975401e+00 -5.883012e+00 -6.939491e+00 1.019103e+00 -6.132474e+00 -7.829450e+00 5.935496e+00 -5.333080e+00 1.062632e-01 -4.009121e+00 1.241471e+00 5.932309e+01 -8.473769e-01 3.266026e-02 1.666018e-01 -6.038209e-01 -1.377267e-01 1.762419e-01 -8.518919e-01 1.409510e-01 -3.142371e-01 -2.348641e-01 -1.865695e-01 2.875670e-01 1.780467e+00 4.884273e-01 -2.641983e-01 7.204284e-03 7.165892e-02 -2.091044e-01 6.116762e-02 -1.166291e-01 -1.442570e-01 1.552439e-01 -2.681377e-02 -3.520322e-02 -2.545477e-02 1.626336e-02
<VARIANCE> 39
 5.982693e+01 1.876149e+01 6.031267e+01 3.273048e+01 4.298100e+01 3.325169e+01 4.483718e+01 3.857880e+01 2.263021e+01 3.065757e+01 2.177453e+01 2.761016e+01 3.176451e+01 4.118249e+00 2.652416e+00 2.254283e+00 2.139517e+00 3.956743e+00 4.005895e+00 4.206629e+00 3.322850e+00 2.763206e+00 2.336502e+00 2.191672e+00 2.276374e+00 1.871262e+00 3.213978e-01 3.667656e-01 3.595410e-01 4.215005e-01 5.666463e-01 6.510284e-01 6.290386e-01 4.653040e-01 4.193670e-01 5.427777e-01 4.058591e-01 4.224806e-01 4.544238e-01
<GCONST> 1.205893e+02
<STATE> 3
<MEAN> 39
 -3.377441e+00 -1.767024e+00 -5.768585e+00 -8.252395e+00 -3.848576e+00 -3.529243e+00 -1.608517e+01 8.655626e-02 -4.038233e+00 -8.714816e-02 -5.342711e+00 7.466747e-01 6.474014e+01 3.262224e+00 -3.283591e-01 -1.512359e-01 -1.510463e+00 -4.204160e-01 9.692086e-01 -2.187631e+00 -8.527228e-01 -7.555152e-01 3.472731e-02 -2.445773e-01 -3.026341e-01 2.132266e+00 -1.450298e-01 2.709497e-01 -7.156077e-02 -2.027342e-01 -1.081055e-01 1.693082e-01 3.095328e-01 1.251609e-01 -1.839883e-01 -6.560613e-02 1.383727e-01 1.988573e-02 -9.417902e-02
<VARIANCE> 39
 1.047406e+02 4.709024e+01 4.165050e+01 4.004800e+01 4.848088e+01 9.649038e+01 1.021177e+02 7.111984e+01 4.501073e+01 6.526738e+01 3.583704e+01 2.668369e+01 3.612481e+01 5.622501e+00 4.509656e+00 3.494161e+00 6.647502e+00 4.683687e+00 8.478740e+00 8.799968e+00 6.448720e+00 5.925215e+00 6.186728e+00 3.618987e+00 3.446713e+00 7.874122e+00 1.369343e+00 7.216110e-01 5.447172e-01 1.026022e+00 6.691602e-01 1.054268e+00 1.954590e+00 1.067684e+00 9.283550e-01 9.738098e-01 5.843531e-01 6.249440e-01 5.927745e-01
<GCONST> 1.438260e+02
<STATE> 4
<MEAN> 39
 6.035025e+00 -6.412406e+00 -1.057383e+01 -1.933817e+01 -6.088911e+00 -3.468590e-01 -1.619987e+01 2.499965e+00 -4.534222e+00 -3.996325e+00 -7.296027e+00 -6.783084e-01 7.406419e+01 -5.292781e-03 -2.348110e-01 -2.630570e-01 -8.794530e-02 2.841947e-02 -1.409844e-01 1.518854e-01 4.403855e-01 2.055595e-01 -1.499312e-02 -3.309968e-01 -2.768087e-01 2.546272e-01 -8.980599e-02 3.011615e-02 4.081231e-02 1.937779e-01 1.430590e-02 -9.681123e-02 8.158319e-02 -8.756116e-03 1.025069e-01 1.887913e-02 5.665500e-02 2.061163e-02 -1.909527e-01
<VARIANCE> 39
 1.258793e+01 8.475598e+01 2.456637e+01 3.587529e+01 3.751105e+01 1.455476e+02 4.538366e+01 6.929057e+01 5.083593e+01 1.166824e+02 4.715960e+01 5.184363e+01 3.113694e+01 4.567605e-01 1.754351e+00 6.975681e-01 2.337935e+00 1.478396e+00 1.744718e+00 2.448053e+00 1.434293e+00 2.137247e+00 2.108751e+00 1.766675e+00 1.834775e+00 1.692180e+00 8.135834e-02 2.238720e-01 9.880801e-02 3.477906e-01 2.391520e-01 2.986052e-01 4.703664e-01 2.825586e-01 3.466349e-01 3.192227e-01 3.730684e-01 2.899795e-01 3.213755e-01
<GCONST> 1.101026e+02
<TRANSP> 5
 0.000000e+00 1.000000e+00 0.000000e+00 0.000000e+00 0.000000e+00
 0.000000e+00 7.112159e-01 2.887841e-01 0.000000e+00 0.000000e+00
 0.000000e+00 0.000000e+00 7.367735e-01 2.632265e-01 0.000000e+00
 0.000000e+00 0.000000e+00 0.000000e+00 9.090860e-01 9.091406e-02
 0.000000e+00 0.000000e+00 0.000000e+00 0.000000e+00 0.000000e+00
<ENDHMM>
~h "i"
<BEGINHMM>
<NUMSTATES> 5
<STATE> 2
<MEAN> 39
 -3.351708e+00 7.065045e-01 -3.855993e+00 1.758196e-01 -2.678024e+00 -3.027947e+00 -3.585999e+00 1.496080e-01 -1.883671e+00 -1.906936e+00 -4.433615e+00 -1.031293e+00 5.272284e+01 -6.000452e-01 -3.258358e-01 -5.233156e-01 -3.612579e-01 1.638756e-01 -7.476565e-02 7.803327e-02 2.929725e-01 -5.486428e-02 7.932435e-02 1.101217e-01 1.309270e-01 -2.992572e-01 -2.372225e-02 4.340945e-02 3.950420e-02 -2.206420e-01 2.003641e-02 -1.426850e-01 -1.789532e-01 -5.647967e-02 -1.222131e-01 1.018110e-01 -4.944278e-02 -6.825808e-02 2.216100e-01
<VARIANCE> 39
 1.215079e+01 2.188943e+01 2.636169e+01 2.452695e+01 2.224037e+01 1.834400e+01 2.098233e+01 4.265121e+01 2.406595e+01 3.424138e+01 2.594703e+01 2.568560e+01 1.662585e+01 7.399574e-01 1.124967e+00 1.443630e+00 1.762653e+00 1.601378e+00 1.721680e+00 1.828556e+00 2.658085e+00 2.368184e+00 2.677745e+00 1.781983e+00 1.843027e+00 6.546932e-01 1.559775e-01 2.010648e-01 2.317162e-01 4.080411e-01 3.532277e-01 3.039643e-01 4.148562e-01 4.652320e-01 4.677313e-01 3.944861e-01 3.869747e-01 4.140285e-01 1.198914e-01
<GCONST> 1.031862e+02
<STATE> 3
<MEAN> 39
 -4.969533e+00 1.246987e+00 -4.853365e+00 -6.710780e-01 -2.239723e+00 -2.848590e+00 -2.926373e+00 -9.718022e-01 -1.763421e+00 7.897445e-01 -3.363963e+00 -1.472432e+00 5.223779e+01 -5.078886e-01 -1.787618e-01 -3.182384e-01 -3.517154e-01 1.621731e-01 -2.216280e-01 -7.436359e-02 2.086100e-01 -1.420483e-01 2.110098e-01 -1.685345e-01 -1.437669e-01 4.430351e-02 1.032800e-01 -5.308447e-02 8.061479e-02 -1.514510e-01 2.999764e-02 -7.254676e-02 -1.739893e-01 2.717809e-02 -1.175347e-01 -5.864912e-02 -5.191750e-02 -2.453258e-03 3.046076e-01
<VARIANCE> 39
 1.183509e+01 1.078464e+01 1.697848e+01 1.640686e+01 1.784708e+01 1.956360e+01 2.079144e+01 3.146577e+01 2.636719e+01 3.087453e+01 2.006334e+01 1.528376e+01 1.177827e+01 7.244548e-01 9.126858e-01 1.334790e+00 1.687382e+00 2.025450e+00 1.657730e+00 1.844611e+00 2.573514e+00 2.453339e+00 1.893636e+00 1.592083e+00 1.635105e+00 5.293303e-01 2.431070e-01 1.905002e-01 2.640678e-01 3.130423e-01 3.475144e-01 3.715777e-01 4.041709e-01 5.641565e-01 4.853179e-01 3.476216e-01 3.928866e-01 3.091233e-01 1.964453e-01
<GCONST> 9.980676e+01
<STATE> 4
<MEAN> 39
 -8.457619e+00 1.982949e-02 -5.411623e+00 -3.420692e+00 -7.091491e-01 -4.580361e+00 -4.252175e+00 9.622369e-01 -2.079813e+00 3.435764e-01 -4.194769e+00 -1.299614e+00 5.516813e+01 -2.453547e-01 -1.831089e-01 -1.051474e-01 -5.434015e-01 2.022145e-01 -1.253628e-01 -6.032848e-01 3.475552e-01 -3.222815e-01 1.192314e-02 -4.614465e-02 1.598708e-02 7.457852e-01 3.023354e-01 -4.212241e-03 5.838219e-02 -7.112734e-02 -1.046256e-01 6.158312e-02 -1.641054e-01 9.483173e-02 4.127752e-02 -3.977787e-02 -3.940836e-04 1.617340e-02 2.489656e-01
<VARIANCE> 39
 4.526576e+01 3.101214e+01 2.420294e+01 3.128089e+01 2.918901e+01 3.371052e+01 2.579544e+01 3.925300e+01 3.623971e+01 2.745975e+01 1.972058e+01 1.770960e+01 2.921769e+01 2.401790e+00 2.132294e+00 2.527374e+00 1.972683e+00 2.373003e+00 2.562276e+00 2.655996e+00 3.255596e+00 2.542470e+00 2.232893e+00 2.097769e+00 1.714177e+00 1.690993e+00 3.309400e-01 4.088863e-01 3.956096e-01 4.363559e-01 4.219891e-01 5.784594e-01 5.557308e-01 6.306534e-01 5.612896e-01 5.293519e-01 3.621855e-01 3.615751e-01 4.829497e-01
<GCONST> 1.160529e+02
<TRANSP> 5
 0.000000e+00 1.000000e+00 0.000000e+00 0.000000e+00 0.000000e+00
 0.000000e+00 2.189131e-01 7.810869e-01 0.000000e+00 0.000000e+00
 0.000000e+00 0.000000e+00 3.915038e-01 6.084962e-01 0.000000e+00
 0.000000e+00 0.000000e+00 0.000000e+00 4.566352e-01 5.433648e-01
 0.000000e+00 0.000000e+00 0.000000e+00 0.000000e+00 0.000000e+00
<ENDHMM>
~h "j"
<BEGINHMM>
<NUMSTATES> 5
<STATE> 2
<MEAN> 39
 4.698277e-01 7.150746e+00 1.008537e+01 -5.119381e+00 -1.095684e+01 -5.960725e+00 -9.976330e+00 -5.176135e+00 -9.818480e+00 2.398577e+00 -2.878947e+00 -3.549845e+00 6.475272e+01 6.322495e-01 5.770046e-01 -1.058518e+00 8.990015e-01 9.735254e-01 6.934065e-01 7.798583e-01 -1.004099e+00 7.047679e-01 4.591306e-01 -5.616365e-01 -2.279209e-01 -1.137103e+00 1.626580e-02 -1.799817e-01 -1.856019e-01 7.803403e-02 2.049102e-01 1.075061e-01 -1.165490e-01 3.528745e-02 1.711637e-01 -2.607370e-01 1.005269e-02 6.632758e-02 2.476328e-02
<VARIANCE> 39
 1.342294e+01 1.925121e+01 4.275331e+01 5.366247e+01 4.495664e+01 5.035359e+01 3.246706e+01 5.317809e+01 1.044292e+02 2.722268e+01 3.831200e+01 3.249414e+01 8.355568e+00 1.428831e+00 1.375853e+00 1.326052e+00 2.025700e+00 4.587037e+00 2.672510e+00 1.343144e+00 2.503262e+00 3.423550e+00 3.371362e+00 2.506712e+00 1.683297e+00 7.160702e-01 2.216420e-01 2.250170e-01 2.906660e-01 4.021300e-01 7.751310e-01 3.804376e-01 2.282512e-01 4.571214e-01 4.501032e-01 3.933623e-01 5.219479e-01 2.906091e-01 1.564215e-01
<GCONST> 1.121869e+02
<STATE> 3
<MEAN> 39
 3.937860e+00 6.939577e+00 1.961438e+00 -2.340477e+00 -8.570983e+00 -6.280304e+00 -1.313208e+01 -1.356585e+01 -8.489369e+00 -5.197559e+00 -1.027825e+01 -4.564415e+00 6.053382e+01 -2.292924e-01 -7.696441e-02 -4.163441e-02 7.386788e-01 5.517878e-01 5.813769e-01 2.959973e-02 8.319125e-02 2.376516e-01 -6.966119e-01 2.724670e-01 3.293178e-01 -9.166970e-01 -2.526214e-01 -2.698130e-01 7.438994e-02 -2.205314e-01 -1.002025e-02 6.608185e-02 1.590437e-01 4.958892e-01 -1.904125e-02 2.240251e-01 2.376709e-01 2.332289e-02 7.256269e-02
<VARIANCE> 39
 5.927094e+00 2.222491e+01 1.821458e+01 2.387364e+01 2.717460e+01 4.093749e+01 6.228532e+01 6.021682e+01 2.896661e+01 7.408704e+01 4.416686e+01 4.102654e+01 1.052081e+01 5.706533e-01 1.279154e+00 8.425763e-01 1.337596e+00 2.040625e+00 2.026066e+00 1.397805e+00 3.106403e+00 3.865905e+00 2.085544e+00 2.484245e+00 1.886335e+00 3.861557e-01 7.832067e-02 1.248566e-01 1.543662e-01 1.440495e-01 3.622898e-01 4.147035e-01 3.324615e-01 3.049518e-01 4.969594e-01 2.038422e-01 2.012410e-01 3.643000e-01 5.713887e-02
<GCONST> 1.003939e+02
<STATE> 4
<MEAN> 39
 1.680108e+00 4.281496e+00 8.936275e-01 1.795620e+00 -1.669622e+00 -2.542400e-01 -5.545120e+00 -5.214331e+00 -1.901518e+00 2.265934e+00 -4.698361e-01 -1.526924e+00 5.788838e+01 -7.006508e-01 -4.749076e-02 -3.884132e-01 1.795982e-01 7.116176e-01 4.055315e-01 5.621559e-01 7.536514e-01 2.996796e-01 -1.349712e-01 1.844293e-01 -6.353184e-02 -8.001907e-01 -1.534352e-01 -6.343141e-02 -1.447932e-01 -1.141535e-01 -6.057753e-02 -1.750555e-01 4.764831e-02 -3.954207e-03 -7.398389e-02 1.352541e-02 -1.707333e-01 -8.080093e-02 -1.491541e-02
<VARIANCE> 39
 8.524055e+00 2.972661e+01 3.249459e+01 2.660254e+01 2.526806e+01 2.147206e+01 5.118879e+01 5.385126e+01 3.248645e+01 3.089562e+01 2.779053e+01 1.803266e+01 9.974499e+00 6.096373e-01 1.659555e+00 1.780573e+00 1.537847e+00 1.104653e+00 2.044032e+00 1.779916e+00 2.350152e+00 1.453222e+00 1.282647e+00 1.873258e+00 2.066532e+00 3.272290e-01 1.086449e-01 2.949785e-01 3.330774e-01 2.927881e-01 2.504887e-01 3.553367e-01 2.310021e-01 3.982101e-01 3.762610e-01 3.059337e-01 3.627176e-01 3.962890e-01 6.724487e-02
<GCONST> 1.003699e+02
<TRANSP> 5
 0.000000e+00 1.000000e+00 0.000000e+00 0.000000e+00 0.000000e+00
 0.000000e+00 7.638105e-01 2.361896e-01 0.000000e+00 0.000000e+00
 0.000000e+00 0.000000e+00 7.372651e-01 2.627349e-01 0.000000e+00
 0.000000e+00 0.000000e+00 0.000000e+00 7.942799e-01 2.057201e-01
 0.000000e+00 0.000000e+00 0.000000e+00 0.000000e+00 0.000000e+00
<ENDHMM>
~h "k"
<BEGINHMM>
<NUMSTATES> 5
<STATE> 2
<MEAN> 39
 4.347505e+00 -5.459045e+00 -1.027999e+01 -1.566814e+01 -4.880664e+00 -7.060530e-01 -1.548632e+01 1.008487e+01 -3.124588e+00 3.003332e+00 -1.348374e+01 -4.556554e+00 7.245158e+01 -6.832527e-02 -4.050830e-01 2.055496e-03 7.724898e-02 -2.559047e-02 -1.229336e-01 7.834595e-02 5.917275e-01 -8.093053e-02 -2.442288e-01 -5.314841e-01 -2.928580e-03 6.013792e-01 -5.092328e-02 1.062755e-01 2.938715e-02 8.573865e-02 -8.919644e-02 -1.322142e-01 7.276478e-02 -5.293145e-02 1.741470e-02 -4.174760e-02 1.305783e-01 1.327446e-01 -5.825579e-02
<VARIANCE> 39
 1.540351e+01 3.726280e+01 1.965001e+01 4.756378e+01 2.851959e+01 5.469424e+01 5.999940e+01 4.362521e+01 6.344933e+01 7.900383e+01 5.686533e+01 3.638103e+01 5.929457e+01 6.497265e-01 1.427258e+00 8.639663e-01 2.291882e+00 2.217101e+00 2.950882e+00 3.080249e+00 2.134284e+00 2.341563e+00 2.313562e+00 2.203387e+00 2.335624e+00 1.958093e+00 1.073850e-01 2.496638e-01 1.911340e-01 2.535949e-01 2.966080e-01 4.367397e-01 3.802053e-01 3.094562e-01 3.608958e-01 3.218915e-01 3.983809e-01 4.272149e-01 3.257202e-01
<GCONST> 1.128235e+02
<STATE> 3
<MEAN> 39
 1.884226e-01 -2.248220e+00 -3.333036e+00 -1.124369e+01 -1.208079e+01 -1.022645e+01 -9.671987e+00 6.546155e+00 -3.595061e+00 -1.784627e+00 -9.902652e+00 -2.353982e-01 7.028531e+01 -3.153338e-01 1.116189e+00 1.259302e+00 1.452580e-01 -5.688803e-01 -3.625830e-01 6.109446e-03 -1.298986e+00 -5.268871e-01 -1.849721e-01 8.125714e-01 6.210395e-01 -3.218008e-01 4.148012e-02 -6.797469e-02 -3.876665e-02 -8.318983e-02 2.204286e-01 3.317226e-01 -1.118739e-01 -3.016495e-01 1.333042e-01 2.368291e-02 1.326730e-01 -2.488858e-01 4.078300e-02
<VARIANCE> 39
 1.663346e+01 2.547602e+01 5.778980e+01 4.343245e+01 5.883307e+01 5.302693e+01 5.586588e+01 1.353694e+02 6.010876e+01 6.439488e+01 4.660207e+01 3.464209e+01 9.703697e+01 1.339641e+00 2.201008e+00 3.075044e+00 2.563298e+00 3.737840e+00 4.408266e+00 4.097970e+00 4.735179e+00 4.912325e+00 3.587041e+00 3.759548e+00 3.602016e+00 4.235398e+00 2.457957e-01 2.523594e-01 4.068457e-01 4.587160e-01 4.673667e-01 7.071089e-01 7.913814e-01 8.258341e-01 7.832123e-01 5.567470e-01 5.847087e-01 5.890894e-01 7.003512e-01
<GCONST> 1.303423e+02
<STATE> 4
<MEAN> 39
 -1.756139e+00 3.346787e+00 -2.870223e+00 -1.007879e+01 -7.199900e+00 -6.449078e+00 -1.293108e+01 -2.194559e+00 -5.464480e+00 1.659395e+00 -3.449712e+00 1.630301e-01 6.480455e+01 8.431837e-02 -1.122222e-01 4.188332e-01 -2.704028e-01 -7.320759e-02 -5.508330e-02 -2.354011e-01 -1.033713e-01 -6.139539e-02 1.790014e-01 6.692761e-02 1.666334e-01 5.492828e-01 2.524311e-02 -8.014359e-02 5.695585e-03 -4.701047e-02 -2.187340e-02 2.106314e-02 3.373999e-02 1.120043e-01 3.241658e-02 -1.999787e-02 -7.070134e-02 -5.069565e-02 2.208152e-02
<VARIANCE> 39
 8.383752e+01 3.214986e+01 6.936930e+01 5.001622e+01 6.623450e+01 8.476634e+01 6.755621e+01 6.199233e+01 4.896269e+01 5.342890e+01 4.578455e+01 1.980638e+01 5.360128e+01 6.583326e+00 4.069921e+00 5.039902e+00 5.743881e+00 4.906776e+00 6.272733e+00 6.826953e+00 5.539010e+00 4.069979e+00 4.393641e+00 3.057719e+00 2.581075e+00 5.508653e+00 1.062520e+00 8.093670e-01 8.733820e-01 1.049458e+00 9.146847e-01 1.160415e+00 1.223471e+00 1.089779e+00 7.346985e-01 8.572012e-01 5.862287e-01 5.265320e-01 8.581805e-01
<GCONST> 1.420500e+02
<TRANSP> 5
 0.000000e+00 1.000000e+00 0.000000e+00 0.000000e+00 0.000000e+00
 0.000000e+00 8.257741e-01 1.742259e-01 0.000000e+00 0.000000e+00
 0.000000e+00 0.000000e+00 6.491032e-01 3.508968e-01 0.000000e+00
 0.000000e+00 0.000000e+00 0.000000e+00 9.142618e-01 8.573829e-02
 0.000000e+00 0.000000e+00 0.000000e+00 0.000000e+00 0.000000e+00
<ENDHMM>
~h "l"
<BEGINHMM>
<NUMSTATES> 5
<STATE> 2
<MEAN> 39
 -8.002172e+00 -2.404626e+00 -6.218968e+00 -5.159233e+00 -5.008343e+00 -6.998134e+00 -5.724721e+00 7.562163e-01 -2.630524e+00 -9.404615e-01 -5.350690e+00 -7.140192e-02 5.295496e+01 -1.017418e-01 -2.006858e-01 7.479431e-02 3.465967e-01 1.534413e-01 -9.318468e-02 7.297494e-02 3.522545e-01 2.114452e-02 -7.443599e-02 1.267162e-01 2.533295e-01 1.439729e-01 7.291541e-02 4.082563e-02 6.347251e-03 -1.991273e-02 -1.704756e-02 5.554042e-02 7.932228e-02 -3.544505e-02 8.556166e-02 9.810366e-02 3.789803e-02 -6.873831e-04 -4.780946e-02
<VARIANCE> 39
 3.218116e+01 2.760363e+01 1.978405e+01 2.424424e+01 2.352268e+01 3.304364e+01 2.026712e+01 4.291969e+01 2.575731e+01 2.203995e+01 3.218106e+01 2.250410e+01 2.584092e+01 1.952534e+00 1.400375e+00 1.107630e+00 1.062018e+00 2.025576e+00 2.550978e+00 2.138633e+00 3.731555e+00 2.204520e+00 2.255018e+00 1.997327e+00 1.393822e+00 1.104379e+00 4.227700e-01 2.993715e-01 2.391903e-01 2.354900e-01 4.276499e-01 5.678580e-01 4.893552e-01 8.818183e-01 4.040920e-01 4.671069e-01 3.445400e-01 2.650070e-01 2.226099e-01
<GCONST> 1.090942e+02
<STATE> 3
<MEAN> 39
 -5.743042e+00 -4.293824e+00 -4.004702e+00 -3.188403e+00 -6.781472e+00 -8.240862e+00 -5.131894e+00 4.537649e-01 -2.634924e+00 -1.384348e+00 -3.880901e+00 4.779159e-01 5.500086e+01 8.714344e-02 1.716330e-01 -3.045829e-02 1.037373e-01 7.193316e-02 1.713830e-01 1.784051e-01 1.120977e-03 1.405491e-01 1.304412e-01 1.065869e-01 7.194996e-03 -2.235087e-01 9.703412e-03 5.105574e-02 -3.050098e-03 -2.375588e-02 4.625594e-03 4.545713e-02 3.407870e-02 2.224336e-02 1.572046e-02 -4.734797e-03 -1.517984e-02 -4.190196e-02 -2.944321e-02
<VARIANCE> 39
 1.890776e+01 1.811708e+01 2.005960e+01 1.521022e+01 4.835212e+01 4.850168e+01 2.989416e+01 3.245522e+01 2.762593e+01 2.213468e+01 3.549561e+01 3.015734e+01 1.894695e+01 7.249320e-01 9.599903e-01 7.656410e-01 8.659254e-01 1.420751e+00 2.412515e+00 1.818229e+00 1.667885e+00 1.643850e+00 2.147977e+00 1.907406e+00 2.073575e+00 6.333845e-01 1.243400e-01 1.708633e-01 1.370958e-01 1.608013e-01 2.526591e-01 4.541112e-01 3.393026e-01 2.703636e-01 3.367466e-01 4.398203e-01 4.127816e-01 4.271244e-01 9.909462e-02
<GCONST> 9.977572e+01
<STATE> 4
<MEAN> 39
 -5.037865e+00 -7.767404e-01 -5.119356e+00 -1.412026e+00 -3.320408e+00 -4.250907e+00 -3.234524e+00 1.890566e+00 -2.797142e-01 -7.077284e-01 -3.218453e+00 -2.160405e-01 4.962060e+01 4.935246e-03 6.564675e-02 6.453469e-04 -3.937019e-03 3.668878e-02 5.657637e-02 4.835372e-02 -5.799169e-02 -5.456725e-03 3.008574e-02 6.918153e-03 1.045276e-02 -8.995244e-02 -2.349612e-02 -4.018812e-02 -1.248787e-02 -2.959483e-02 1.409843e-02 -4.997927e-02 -6.250374e-02 1.096514e-02 -5.199206e-02 -2.730515e-02 -3.412419e-02 1.508187e-02 5.281009e-02
<VARIANCE> 39
 8.346093e+00 6.208352e+00 1.226821e+01 1.099035e+01 1.376204e+01 1.674882e+01 1.531430e+01 1.861943e+01 1.864906e+01 2.059928e+01 1.530886e+01 1.466937e+01 6.721723e+00 2.643929e-01 4.144360e-01 5.629762e-01 8.359326e-01 9.737172e-01 1.202894e+00 1.295895e+00 1.539961e+00 1.530140e+00 1.682061e+00 1.222150e+00 1.098524e+00 2.145326e-01 4.631421e-02 8.923263e-02 1.076718e-01 1.570474e-01 2.064160e-01 2.183602e-01 2.535237e-01 3.217518e-01 3.183700e-01 3.684395e-01 2.288402e-01 2.287119e-01 3.332186e-02
<GCONST> 7.880859e+01
<TRANSP> 5
 0.000000e+00 1.000000e+00 0.000000e+00 0.000000e+00 0.000000e+00
 0.000000e+00 7.411806e-01 2.588194e-01 0.000000e+00 0.000000e+00
 0.000000e+00 0.000000e+00 7.785283e-01 2.214717e-01 0.000000e+00
 0.000000e+00 0.000000e+00 0.000000e+00 9.016556e-01 9.834438e-02
 0.000000e+00 0.000000e+00 0.000000e+00 0.000000e+00 0.000000e+00
<ENDHMM>
~h "m"
<BEGINHMM>
<NUMSTATES> 5
<STATE> 2
<MEAN> 39
 5.004355e+00 5.813077e+00 2.185053e+00 -2.154426e+00 -1.001296e+01 -4.764516e+00 -1.196100e+01 -6.730892e+00 -7.074152e+00 3.540595e+00 -7.436649e+00 -2.783118e+00 6.265814e+01 1.895341e-01 -1.108853e-01 -3.173716e-01 1.271896e+00 8.204968e-01 1.644393e-01 8.656772e-01 -8.923934e-01 4.971731e-01 -9.193102e-01 -1.178694e-01 4.337949e-01 -9.485327e-01 -3.888918e-01 -2.465321e-01 3.548197e-01 -3.387537e-01 -1.820725e-01 1.961365e-01 2.817122e-02 3.542206e-01 9.640448e-02 -2.384246e-01 -5.162630e-02 -8.414219e-02 2.119995e-01
<VARIANCE> 39
 9.619216e+00 1.946181e+01 4.838175e+01 2.170683e+01 4.456620e+01 4.373693e+01 5.566942e+01 7.474805e+01 5.468673e+01 3.887314e+01 6.547525e+01 3.632587e+01 1.118679e+01 1.217133e+00 1.486810e+00 2.477318e+00 1.538442e+00 2.052059e+00 1.959972e+00 2.919937e+00 3.536668e+00 3.111987e+00 2.313079e+00 1.785042e+00 1.732664e+00 5.822870e-01 9.549280e-02 2.286999e-01 3.512298e-01 2.360091e-01 4.275865e-01 3.438080e-01 3.898897e-01 5.844630e-01 4.858577e-01 4.263226e-01 4.734002e-01 3.347546e-01 1.026114e-01
<GCONST> 1.104416e+02
<STATE> 3
<MEAN> 39
 2.750674e+00 3.953639e+00 3.016605e+00 -1.073712e+00 -5.809012e+00 -3.267662e-01 -7.329223e+00 -6.395825e+00 -3.841339e+00 2.239464e-01 -6.115421e+00 -4.420139e+00 6.018031e+01 -6.356499e-01 -1.881744e-01 -4.910257e-02 4.165839e-01 4.906077e-01 2.126780e-01 7.008933e-01 4.927189e-01 5.393139e-01 -1.500577e-01 3.353290e-02 2.356943e-01 -7.349640e-01 -7.421147e-02 -5.430722e-02 -1.440660e-01 -1.214589e-01 -4.558086e-02 -1.586156e-01 -4.179090e-02 1.258399e-01 -6.736343e-02 1.013988e-01 7.129557e-02 1.995290e-02 3.867947e-02
<VARIANCE> 39
 8.669700e+00 1.855421e+01 4.515957e+01 1.632681e+01 5.715909e+01 3.383176e+01 2.160659e+01 4.708098e+01 7.729183e+01 3.841121e+01 3.345932e+01 3.163075e+01 1.790468e+01 3.459703e-01 9.272754e-01 1.098850e+00 7.074733e-01 1.216659e+00 1.483683e+00 1.281437e+00 1.451885e+00 1.516263e+00 1.787358e+00 1.657713e+00 1.801288e+00 2.667244e-01 5.557994e-02 1.771799e-01 1.135483e-01 1.257458e-01 2.442235e-01 2.421846e-01 3.632681e-01 3.428573e-01 2.712446e-01 2.818835e-01 3.300171e-01 2.946903e-01 5.413456e-02
<GCONST> 9.469244e+01
<STATE> 4
<MEAN> 39
 -3.906075e+00 1.170912e+00 -1.439896e+00 -3.171414e-01 -1.573854e+00 -1.212236e+00 -1.213781e+00 4.342607e+00 5.483198e-01 -4.959043e-01 -3.726421e+00 -5.903473e-01 5.417699e+01 -2.681883e-01 -2.947329e-01 -3.781555e-01 -1.194376e-01 1.230149e-03 -2.134890e-01 5.612936e-02 7.818992e-02 3.939090e-02 2.203663e-02 6.737391e-02 -9.007243e-02 -2.889146e-01 4.316624e-02 6.435955e-02 3.153468e-04 -4.234027e-02 -5.540692e-02 -1.334124e-02 -8.604404e-02 -8.728306e-02 -7.349646e-02 2.223457e-02 -9.724902e-03 -2.377326e-02 1.512005e-02
<VARIANCE> 39
 1.381159e+01 1.387199e+01 3.089221e+01 2.036429e+01 2.990070e+01 2.503299e+01 2.571919e+01 4.382878e+01 3.758612e+01 2.599669e+01 2.382076e+01 2.099228e+01 1.290261e+01 5.784028e-01 1.068097e+00 1.551785e+00 1.823759e+00 1.801240e+00 1.708334e+00 1.796826e+00 1.835435e+00 1.954664e+00 1.943683e+00 1.276821e+00 1.358392e+00 1.504665e-01 8.270995e-02 1.412287e-01 2.596041e-01 3.278052e-01 3.105749e-01 2.915418e-01 3.387529e-01 2.583215e-01 3.278994e-01 3.641714e-01 2.558026e-01 3.074466e-01 2.493924e-02
<GCONST> 9.543574e+01
<TRANSP> 5
 0.000000e+00 1.000000e+00 0.000000e+00 0.000000e+00 0.000000e+00
 0.000000e+00 6.278650e-01 3.721350e-01 0.000000e+00 0.000000e+00
 0.000000e+00 0.000000e+00 7.092510e-01 2.907490e-01 0.000000e+00
 0.000000e+00 0.000000e+00 0.000000e+00 8.567373e-01 1.432626e-01
 0.000000e+00 0.000000e+00 0.000000e+00 0.000000e+00 0.000000e+00
<ENDHMM>
~h "n"
<BEGINHMM>
<NUMSTATES> 5
<STATE> 2
<MEAN> 39
 1.313179e+00 2.105240e+00 -8.046556e+00 -1.082686e+01 -3.627560e+00 -7.879034e+00 -1.387157e+01 -5.042010e+00 -5.263368e+00 -1.042949e-02 -5.168387e+00 -1.234340e+00 6.480538e+01 -4.521979e-01 -1.553063e-01 3.306938e-01 -2.930919e-01 2.678400e-01 -2.079611e-01 1.181575e-01 -3.396817e-02 -1.523633e-01 2.881522e-01 1.808637e-01 -8.657753e-03 5.307829e-01 -1.094463e-01 1.538206e-02 1.779281e-01 -1.778859e-01 -3.420349e-02 1.788229e-02 1.545177e-02 3.978048e-02 -1.067709e-01 6.417745e-02 3.084437e-02 9.340680e-02 1.327945e-01
<VARIANCE> 39
 4.006051e+01 2.849871e+01 5.020520e+01 8.393927e+01 5.178320e+01 5.424167e+01 6.804131e+01 3.630902e+01 8.037041e+01 4.347099e+01 3.682492e+01 3.531536e+01 6.173918e+01 4.958807e+00 2.789182e+00 6.582180e+00 6.259699e+00 3.450342e+00 4.650443e+00 9.411978e+00 4.615839e+00 7.605697e+00 4.711984e+00 3.635457e+00 3.734213e+00 7.228755e+00 6.950721e-01 5.606807e-01 9.480757e-01 1.205050e+00 6.089082e-01 8.701457e-01 1.521215e+00 7.445636e-01 1.396182e+00 1.013451e+00 7.174045e-01 6.766603e-01 1.148275e+00
<GCONST> 1.417691e+02
<STATE> 3
<MEAN> 39
 -3.680569e+00 5.348148e+00 8.137870e+00 -1.121485e+01 -8.063560e+00 -1.082086e+01 -1.159204e+01 -5.643045e+00 -1.000060e+01 2.258050e+00 -5.546421e+00 -1.561025e+00 6.881425e+01 8.446790e-02 2.812210e-01 1.242261e+00 1.450168e-01 -7.362647e-01 -4.453858e-01 -2.998183e-01 -3.012034e-01 -5.438849e-01 -1.815026e-01 3.654850e-01 2.902998e-01 3.121391e-01 3.384812e-01 -2.258682e-02 -3.153398e-01 2.984402e-01 -6.216909e-02 2.330521e-01 -9.557365e-02 -8.645682e-02 3.326865e-01 -2.046816e-01 1.307369e-02 -7.153907e-02 -2.637144e-01
<VARIANCE> 39
 6.753085e+01 3.758969e+01 5.852773e+01 8.975420e+01 1.154934e+02 4.453957e+01 3.030240e+01 1.064741e+02 9.055227e+01 2.841355e+01 4.386522e+01 2.704389e+01 1.581250e+01 4.551865e+00 2.506595e+00 5.278385e+00 7.862421e+00 4.296328e+00 3.613922e+00 2.231496e+00 3.487900e+00 4.073424e+00 2.715922e+00 3.352584e+00 2.927655e+00 2.031864e+00 8.495721e-01 5.425794e-01 9.382566e-01 8.604953e-01 9.068745e-01 6.663774e-01 5.097618e-01 7.849483e-01 7.410976e-01 3.390167e-01 5.707150e-01 6.314576e-01 3.447776e-01
<GCONST> 1.328764e+02
<STATE> 4
<MEAN> 39
 -2.533448e+00 -4.498492e+00 3.759250e+00 -1.382173e+01 -1.042631e+01 -9.437963e+00 -6.963374e+00 -4.550280e+00 -3.453433e+00 -7.622485e+00 -4.502594e+00 -1.898926e+00 7.562846e+01 4.583660e-01 1.081956e-01 3.177533e-01 2.500283e-01 -6.784976e-01 5.243816e-01 -1.915129e-01 -3.677618e-01 3.419281e-03 -5.622363e-02 -3.475609e-02 -2.780514e-01 -3.799311e-01 -2.353946e-02 1.651207e-01 -1.421266e-01 1.009076e-01 1.451270e-01 4.979664e-02 9.672569e-02 -4.866631e-02 1.598003e-02 2.431742e-01 -1.729497e-01 -1.216463e-01 -1.980674e-01
<VARIANCE> 39
 1.165362e+01 8.009156e+01 1.315820e+02 7.789956e+01 7.770386e+01 2.637524e+01 7.154089e+01 2.457252e+01 7.077618e+01 8.669824e+01 4.621468e+01 1.596955e+01 3.134821e+01 9.347992e-01 2.255561e+00 2.054972e+00 1.600152e+00 2.465470e+00 1.537511e+00 2.906143e+00 1.222014e+00 2.022998e+00 5.144526e+00 1.088628e+00 1.954370e+00 8.230852e-01 1.554749e-01 1.611780e-01 2.348265e-01 4.060660e-01 3.328958e-01 2.494952e-01 4.628499e-01 1.858099e-01 4.037497e-01 5.462400e-01 3.656987e-01 1.985780e-01 8.369225e-02
<GCONST> 1.114653e+02
<TRANSP> 5
 0.000000e+00 1.000000e+00 0.000000e+00 0.000000e+00 0.000000e+00
 0.000000e+00 8.609740e-01 1.390260e-01 0.000000e+00 0.000000e+00
 0.000000e+00 0.000000e+00 8.127091e-01 1.872909e-01 0.000000e+00
 0.000000e+00 0.000000e+00 0.000000e+00 7.608746e-01 2.391254e-01
 0.000000e+00 0.000000e+00 0.000000e+00 0.000000e+00 0.000000e+00
<ENDHMM>
~h "p"
<BEGINHMM>
<NUMSTATES> 5
<STATE> 2
<MEAN> 39
 -6.597170e-01 4.199562e+00 1.361949e+00 -2.346194e+00 -5.788013e+00 -3.998626e+00 -7.591208e+00 -4.904907e+00 -6.706767e+00 1.005016e+00 -4.752196e+00 -2.740824e+00 5.966246e+01 -5.663005e-02 -2.434223e-01 -6.666284e-01 8.198718e-01 1.014525e+00 4.014858e-01 6.329895e-01 4.143437e-01 5.795083e-01 -6.133739e-01 -2.908177e-01 9.759356e-02 -4.787710e-01 -1.184337e-01 -4.494492e-02 1.166563e-01 -9.072562e-02 -4.637489e-02 6.507186e-02 4.212037e-04 1.801064e-01 5.058482e-03 3.163829e-02 1.105602e-02 -4.152015e-02 4.541925e-02
<VARIANCE> 39
 3.753082e+01 3.715831e+01 6.875782e+01 4.550730e+01 2.883490e+01 3.710685e+01 3.648361e+01 7.638501e+01 4.795373e+01 3.064979e+01 2.363144e+01 2.909928e+01 4.953998e+01 9.520214e-01 9.593935e-01 2.023352e+00 1.949503e+00 2.145416e+00 2.460909e+00 1.315695e+00 3.257609e+00 3.028788e+00 1.766082e+00 1.868108e+00 1.566413e+00 9.037536e-01 1.444106e-01 1.984064e-01 2.738889e-01 3.200788e-01 2.787129e-01 4.237044e-01 2.754246e-01 4.426361e-01 4.852743e-01 3.315449e-01 3.416341e-01 3.264091e-01 9.198434e-02
<GCONST> 1.100191e+02
<STATE> 3
<MEAN> 39
 -3.821731e+00 -1.245399e+00 -2.391644e+00 3.659671e-01 -1.974018e+00 -3.285096e+00 -4.308062e+00 2.128808e+00 -2.390036e+00 -3.841967e+00 -6.922103e+00 -1.538860e+00 5.704639e+01 -2.202017e-01 -3.220216e-01 -4.790587e-01 1.533055e-01 5.629616e-01 -4.403595e-02 1.142636e-01 4.361150e-01 1.460045e-01 -5.965454e-02 -3.865050e-01 -3.790691e-02 -3.544986e-05 8.468423e-03 1.108646e-01 -3.520359e-02 -2.107134e-01 -2.265085e-01 -9.775607e-02 -2.020626e-01 -1.708822e-01 -7.402974e-02 2.910718e-01 1.814298e-01 6.533064e-02 1.992654e-02
<VARIANCE> 39
 1.937551e+01 2.742025e+01 4.574310e+01 4.165081e+01 3.037595e+01 4.161760e+01 1.449562e+01 5.081270e+01 3.220773e+01 4.694199e+01 2.128700e+01 3.048315e+01 6.169622e+01 8.035782e-01 1.108454e+00 1.178446e+00 1.253583e+00 1.543034e+00 1.503789e+00 1.644927e+00 1.969316e+00 1.664449e+00 1.504733e+00 1.686575e+00 1.569574e+00 7.219256e-01 1.213511e-01 1.246257e-01 2.209716e-01 3.109106e-01 3.477053e-01 2.906874e-01 2.652325e-01 3.367018e-01 2.898623e-01 3.737712e-01 3.276519e-01 3.458490e-01 8.496811e-02
<GCONST> 1.025825e+02
<STATE> 4
<MEAN> 39
 -8.993909e+00 -3.191601e+00 -3.626371e+00 -2.752200e+00 -4.258020e+00 -7.339334e+00 -3.942431e+00 6.669881e-01 -1.844632e-01 -5.260160e-01 -6.141926e+00 -3.710735e-01 5.796418e+01 5.733623e-02 -1.642172e-01 -1.486478e-01 -2.935725e-01 -6.569950e-02 -1.291763e-01 -3.378585e-02 2.129791e-01 1.434659e-01 2.187320e-01 -1.057282e-02 -2.439290e-03 7.739599e-02 5.843320e-02 -2.026874e-02 -1.044854e-02 -6.544633e-02 -1.074626e-01 3.398344e-02 -7.286917e-02 -7.534496e-02 -2.262522e-02 -4.198929e-02 4.004858e-02 -2.200204e-02 -3.268118e-02
<VARIANCE> 39
 2.601153e+01 2.759678e+01 2.775739e+01 2.740648e+01 3.311024e+01 3.587753e+01 2.392303e+01 4.083780e+01 3.263723e+01 2.971151e+01 2.314315e+01 1.617901e+01 4.940179e+01 1.517740e+00 1.282241e+00 1.641191e+00 1.729011e+00 1.678865e+00 1.435021e+00 2.295173e+00 2.818420e+00 2.068499e+00 2.661316e+00 2.218061e+00 1.625294e+00 1.944787e+00 2.869836e-01 2.653903e-01 2.642860e-01 3.026934e-01 4.477129e-01 2.844398e-01 3.942677e-01 5.568256e-01 4.357457e-01 4.853033e-01 4.639609e-01 3.326322e-01 2.698603e-01
<GCONST> 1.102528e+02
<TRANSP> 5
 0.000000e+00 1.000000e+00 0.000000e+00 0.000000e+00 0.000000e+00
 0.000000e+00 6.115453e-01 3.884547e-01 0.000000e+00 0.000000e+00
 0.000000e+00 0.000000e+00 5.021714e-01 4.978286e-01 0.000000e+00
 0.000000e+00 0.000000e+00 0.000000e+00 6.890152e-01 3.109848e-01
 0.000000e+00 0.000000e+00 0.000000e+00 0.000000e+00 0.000000e+00
<ENDHMM>
~h "r"
<BEGINHMM>
<NUMSTATES> 5
<STATE> 2
<MEAN> 39
 5.352989e+00 5.586444e+00 -1.524953e+00 -1.157439e+01 -1.009261e+01 -3.801959e-01 -1.570616e+01 -3.936136e+00 -8.637596e+00 -2.537032e+00 -2.181505e+00 1.513444e+00 6.670396e+01 -1.894894e-01 -2.629361e-01 -4.297658e-01 -1.601714e-01 4.676762e-01 1.180633e-01 6.695471e-02 5.336177e-01 4.366625e-01 1.831308e-01 -1.868472e-01 -9.431726e-02 1.521643e-01 -7.433997e-02 -1.737196e-01 -7.619696e-02 2.156873e-02 1.639089e-01 -5.131593e-02 -6.747570e-03 6.055079e-02 1.903574e-01 2.712072e-01 -4.540871e-02 -1.566221e-01 6.732738e-02
<VARIANCE> 39
 2.372002e+01 2.831057e+01 5.553439e+01 1.277157e+02 4.510530e+01 8.742773e+01 4.164829e+01 8.508397e+01 6.020406e+01 2.863719e+01 4.249640e+01 3.912820e+01 4.496313e+01 3.655277e-01 1.128750e+00 1.108035e+00 1.509268e+00 1.278360e+00 1.277919e+00 1.747908e+00 2.285392e+00 1.660399e+00 2.603880e+00 1.612391e+00 1.459754e+00 6.002315e-01 5.394737e-02 1.515048e-01 1.627157e-01 2.169318e-01 1.885521e-01 2.269334e-01 2.762666e-01 3.238131e-01 3.107007e-01 2.815605e-01 2.804992e-01 2.426957e-01 5.940439e-02
<GCONST> 1.038320e+02
<STATE> 3
<MEAN> 39
 3.093782e+00 -2.096153e+00 -8.109756e+00 -1.467437e+01 -4.613367e+00 -1.190324e+00 -1.642094e+01 5.655905e+00 -4.042341e+00 6.305089e+00 -6.418682e+00 -2.922748e+00 7.393431e+01 -3.636005e-01 -1.024658e+00 -7.308049e-01 -8.018050e-02 6.629844e-01 -7.389228e-02 1.146925e-01 9.252135e-01 1.153884e+00 2.738851e-01 -1.438647e+00 -1.219230e+00 6.518391e-01 3.266134e-02 9.253091e-02 1.197708e-01 1.081596e-01 -1.628048e-01 -8.917941e-02 8.410190e-02 -7.378791e-02 -1.069089e-01 -3.412062e-01 3.509071e-03 1.107865e-01 -1.005715e-01
<VARIANCE> 39
 1.428189e+01 2.408315e+01 3.591781e+01 9.076867e+01 3.024804e+01 7.260070e+01 4.307556e+01 1.161730e+02 7.465406e+01 5.237147e+01 9.435023e+01 3.360096e+01 6.066328e+01 2.978282e-01 7.674409e-01 1.021971e+00 1.761296e+00 1.603954e+00 2.267296e+00 2.006508e+00 1.544630e+00 1.558104e+00 2.292008e+00 2.094939e+00 2.022758e+00 3.933876e-01 4.213181e-02 9.390552e-02 7.262240e-02 1.551190e-01 1.429444e-01 2.908493e-01 2.910399e-01 2.265425e-01 3.067799e-01 2.142872e-01 4.027707e-01 3.320838e-01 4.897853e-02
<GCONST> 1.019078e+02
<STATE> 4
<MEAN> 39
 4.470039e+00 -8.329895e+00 -1.053406e+01 -1.150329e+01 -5.734142e+00 -1.291941e-01 -1.828116e+01 9.932075e+00 2.893960e+00 3.042863e+00 -1.057296e+01 -7.398415e+00 7.686806e+01 2.020403e-02 -2.025997e-02 8.669915e-03 3.614259e-02 -1.012614e-01 -1.172649e-01 -1.742554e-02 6.520264e-02 1.528750e-01 -8.644787e-02 -1.656533e-01 1.317317e-01 -9.021191e-02 1.265113e-02 9.537149e-02 7.278943e-02 4.430274e-02 -2.836286e-02 -7.396307e-02 -2.555664e-03 -7.401687e-02 -5.608368e-02 4.185772e-02 1.075721e-01 8.853636e-02 -8.232130e-02
<VARIANCE> 39
 9.059075e+00 1.595749e+01 3.075009e+01 4.354639e+01 3.492314e+01 3.718137e+01 3.925639e+01 5.616113e+01 8.059832e+01 2.379015e+01 5.094765e+01 3.603713e+01 3.034389e+01 3.230081e-01 5.084022e-01 6.316325e-01 9.429514e-01 8.055303e-01 9.926937e-01 1.542727e+00 1.715767e+00 9.356254e-01 8.162988e-01 1.168912e+00 1.394569e+00 5.068955e-01 4.876118e-02 7.761566e-02 9.631307e-02 1.229735e-01 1.456183e-01 1.690121e-01 2.812676e-01 3.343066e-01 1.663327e-01 1.293000e-01 2.108587e-01 1.827222e-01 1.107899e-01
<GCONST> 8.979209e+01
<TRANSP> 5
 0.000000e+00 1.000000e+00 0.000000e+00 0.000000e+00 0.000000e+00
 0.000000e+00 7.929056e-01 2.070944e-01 0.000000e+00 0.000000e+00
 0.000000e+00 0.000000e+00 7.152739e-01 2.847260e-01 0.000000e+00
 0.000000e+00 0.000000e+00 0.000000e+00 9.007191e-01 9.928093e-02
 0.000000e+00 0.000000e+00 0.000000e+00 0.000000e+00 0.000000e+00
<ENDHMM>
~h "s"
<BEGINHMM>
<NUMSTATES> 5
<STATE> 2
<MEAN> 39
 -9.317953e+00 -1.029522e+00 -6.096697e+00 -4.662992e+00 -5.599876e+00 -5.580704e+00 -4.283393e+00 -1.158365e+00 -1.512890e+00 4.659548e-01 -5.375595e+00 -1.649922e+00 5.404113e+01 -9.695476e-01 -1.182262e-01 3.323872e-01 -2.014874e-01 1.538918e-01 -6.146379e-01 3.573682e-03 3.384704e-01 -2.846021e-01 2.087752e-01 -1.755904e-01 3.924001e-01 1.204896e+00 -6.629998e-02 -3.178130e-02 7.502046e-02 4.481022e-02 8.337763e-02 -5.144862e-02 -5.766427e-02 1.504301e-01 9.561619e-02 -3.113670e-02 -5.149894e-02 -2.772041e-02 1.403674e-01
<VARIANCE> 39
 3.526070e+01 1.856654e+01 2.873926e+01 4.344310e+01 3.063611e+01 3.113876e+01 3.221241e+01 3.622538e+01 3.565520e+01 3.034282e+01 2.155030e+01 2.025393e+01 3.599896e+01 3.454653e+00 2.112674e+00 1.558926e+00 3.583165e+00 3.915721e+00 3.392862e+00 2.660056e+00 3.152422e+00 4.146432e+00 2.484583e+00 2.272658e+00 2.633781e+00 2.614651e+00 7.481790e-01 4.101111e-01 3.114855e-01 7.173721e-01 7.377539e-01 6.344366e-01 5.320613e-01 5.787445e-01 7.836889e-01 5.699504e-01 4.258847e-01 4.787635e-01 5.902966e-01
<GCONST> 1.218262e+02
<STATE> 3
<MEAN> 39
 -1.345246e+01 -3.988934e+00 -2.950465e+00 -4.634799e+00 -4.954748e+00 -1.004211e+01 -2.865377e+00 3.582997e+00 -1.596787e-01 -3.682953e-02 -6.614568e+00 8.760748e-01 6.036185e+01 3.594375e-01 -1.894927e-01 5.826228e-02 3.233436e-01 3.400262e-01 1.265562e-01 -2.539470e-01 5.253322e-01 1.676683e-01 -2.983513e-02 -3.496645e-02 1.935576e-01 -1.721964e-01 2.725234e-01 6.077451e-02 -6.300128e-02 -4.824769e-02 -9.305406e-02 2.125406e-01 -1.012886e-01 -1.657714e-01 -6.602146e-02 -1.615231e-02 7.136245e-02 -9.765649e-02 -1.613199e-01
<VARIANCE> 39
 3.879446e+01 4.396288e+01 3.300916e+01 2.178323e+01 3.593256e+01 3.394218e+01 3.510296e+01 4.401541e+01 4.208903e+01 2.986761e+01 2.794532e+01 1.741003e+01 2.881586e+01 3.134739e+00 1.661312e+00 1.483912e+00 1.595555e+00 1.777172e+00 3.282333e+00 2.701597e+00 2.559546e+00 2.809213e+00 2.350617e+00 1.852713e+00 1.045653e+00 2.045975e+00 4.287842e-01 3.106914e-01 2.915432e-01 3.025157e-01 3.911993e-01 7.770452e-01 4.664869e-01 6.161863e-01 5.752278e-01 4.645205e-01 3.629305e-01 2.600506e-01 3.333058e-01
<GCONST> 1.146444e+02
<STATE> 4
<MEAN> 39
 -6.853584e+00 -2.313743e+00 -5.491846e+00 -1.725852e+00 -2.803800e+00 -4.654542e+00 -3.359487e+00 1.513297e+00 -5.254106e-01 7.132154e-01 -3.815084e+00 -8.932779e-01 5.245245e+01 2.084991e-01 2.265641e-01 -3.219465e-02 -8.497989e-02 8.096812e-02 2.940241e-01 -9.176264e-02 -1.029897e-01 -7.987878e-02 5.261349e-02 -5.649902e-03 -1.745601e-01 -7.423498e-02 -1.647052e-02 -2.117846e-02 7.339679e-02 -8.978447e-02 1.543312e-02 -7.416865e-02 -5.571858e-02 7.198336e-02 -3.243733e-02 1.773600e-03 -1.111967e-02 -1.064300e-03 1.520888e-01
<VARIANCE> 39
 1.295036e+01 1.592697e+01 1.651834e+01 1.449401e+01 1.645630e+01 2.244855e+01 2.825155e+01 2.894965e+01 2.878907e+01 2.075680e+01 2.288446e+01 1.945737e+01 1.985353e+01 8.740887e-01 9.454538e-01 1.134400e+00 1.071214e+00 1.266647e+00 1.990478e+00 2.183822e+00 2.562070e+00 2.086801e+00 1.926477e+00 1.745256e+00 1.584095e+00 7.966694e-01 2.175451e-01 1.693884e-01 1.832828e-01 2.310116e-01 2.337736e-01 3.418804e-01 4.197591e-01 4.073481e-01 3.935570e-01 4.083431e-01 3.587810e-01 3.220482e-01 1.542030e-01
<GCONST> 9.880340e+01
<TRANSP> 5
 0.000000e+00 1.000000e+00 0.000000e+00 0.000000e+00 0.000000e+00
 0.000000e+00 7.602576e-01 2.397424e-01 0.000000e+00 0.000000e+00
 0.000000e+00 0.000000e+00 7.795296e-01 2.204703e-01 0.000000e+00
 0.000000e+00 0.000000e+00 0.000000e+00 8.653744e-01 1.346256e-01
 0.000000e+00 0.000000e+00 0.000000e+00 0.000000e+00 0.000000e+00
<ENDHMM>
~h "t"
<BEGINHMM>
<NUMSTATES> 5
<STATE> 2
<MEAN> 39
 -7.246053e-01 -1.496614e+00 -1.009767e+01 -1.272214e+01 -4.809842e+00 -2.829260e+00 -1.035592e+01 2.303897e+00 -3.472774e+00 -1.843584e+00 -6.205826e+00 -2.474868e+00 6.690868e+01 1.247591e+00 -8.740305e-01 -3.454870e-01 -1.172050e+00 -3.639858e-01 3.930855e-01 -1.291768e+00 3.585448e-01 -5.928325e-02 2.534155e-01 -2.905736e-01 -3.074709e-01 1.706200e+00 -6.498522e-02 -1.125723e-01 3.248350e-02 1.094712e-02 1.957658e-02 5.946433e-02 1.470499e-02 7.909291e-02 6.866232e-02 4.942182e-02 -5.996991e-02 -8.754365e-02 2.898929e-02
<VARIANCE> 39
 8.830841e+01 4.163086e+01 3.296011e+01 6.181819e+01 4.205286e+01 7.530440e+01 7.197864e+01 6.358780e+01 5.421536e+01 6.403042e+01 3.774619e+01 4.681342e+01 8.082471e+01 6.206136e+00 3.869893e+00 2.336605e+00 5.342858e+00 2.778707e+00 4.858799e+00 6.779507e+00 4.505174e+00 3.629925e+00 4.518788e+00 3.673321e+00 3.039321e+00 8.271155e+00 1.074330e+00 4.982587e-01 3.948625e-01 1.025871e+00 4.573329e-01 8.106213e-01 1.226356e+00 7.179366e-01 6.418113e-01 6.667248e-01 6.179979e-01 5.313484e-01 1.038458e+00
<GCONST> 1.384924e+02
<STATE> 3
<MEAN> 39
 3.528720e+00 -1.019746e+01 -1.089026e+01 -1.514742e+01 -5.378552e+00 -7.205403e-01 -1.560162e+01 1.048182e+01 -3.523535e+00 1.794447e-01 -1.076511e+01 -6.029637e+00 7.779279e+01 -1.207426e-01 -7.259717e-02 2.669904e-01 9.713592e-02 -1.660223e-01 -3.390360e-01 7.815859e-02 4.401432e-01 8.213891e-02 2.771873e-02 -2.241289e-01 8.108282e-02 5.745460e-03 -3.248927e-02 2.637972e-01 1.274222e-01 1.395071e-01 -8.379036e-02 -1.502233e-01 6.608915e-02 -1.433879e-01 -4.943957e-02 -2.463248e-03 1.572200e-01 1.171001e-01 -2.523693e-01
<VARIANCE> 39
 1.246761e+01 2.272692e+01 3.400949e+01 4.633162e+01 4.197835e+01 1.079357e+02 5.591280e+01 8.353312e+01 5.623755e+01 8.435052e+01 6.161433e+01 4.605637e+01 1.918404e+01 4.041836e-01 1.403472e+00 1.299343e+00 1.885491e+00 1.925460e+00 2.972859e+00 1.966635e+00 2.365957e+00 1.859554e+00 1.634649e+00 2.123379e+00 1.915404e+00 1.049217e+00 6.509980e-02 2.058394e-01 1.454953e-01 2.917710e-01 2.742942e-01 3.518615e-01 4.148739e-01 3.754464e-01 3.444029e-01 2.929148e-01 3.894403e-01 2.713640e-01 2.211794e-01
<GCONST> 1.093782e+02
<STATE> 4
<MEAN> 39
 -2.395468e-01 -6.201212e-01 3.714516e+00 -1.005846e+01 -1.446609e+01 -9.264754e+00 -1.490459e+01 5.618481e+00 -8.201647e+00 9.863659e-01 -3.882345e+00 -2.264425e+00 7.238647e+01 -7.161421e-02 1.151755e+00 2.844931e-01 7.429662e-01 9.097944e-02 -2.022366e-01 8.918012e-01 -1.036227e+00 1.536122e-01 -3.548833e-01 3.846572e-01 -3.931880e-02 -1.542744e+00 -2.183346e-02 -1.433073e-01 -3.681421e-01 -5.706997e-02 2.352103e-01 2.018088e-01 1.407207e-01 2.814292e-02 2.161710e-01 -8.863489e-02 -1.585494e-01 -1.804611e-01 -1.162183e-01
<VARIANCE> 39
 1.867378e+01 2.806894e+01 8.094822e+01 4.788886e+01 8.425133e+01 5.169374e+01 5.089862e+01 1.159403e+02 8.488429e+01 5.664352e+01 5.754374e+01 2.532635e+01 3.888045e+01 1.053070e+00 1.533329e+00 3.662694e+00 2.291787e+00 4.972089e+00 2.437140e+00 3.711477e+00 3.705876e+00 5.297772e+00 2.309819e+00 3.720373e+00 2.322246e+00 3.781473e+00 1.551709e-01 2.216274e-01 2.003422e-01 3.746989e-01 5.286444e-01 4.443625e-01 6.955799e-01 6.090591e-01 6.952775e-01 4.267630e-01 5.507454e-01 4.549135e-01 3.380240e-01
<GCONST> 1.244498e+02
<TRANSP> 5
 0.000000e+00 1.000000e+00 0.000000e+00 0.000000e+00 0.000000e+00
 0.000000e+00 8.520504e-01 1.479495e-01 0.000000e+00 0.000000e+00
 0.000000e+00 0.000000e+00 9.097058e-01 9.029426e-02 0.000000e+00
 0.000000e+00 0.000000e+00 0.000000e+00 8.449145e-01 1.550855e-01
 0.000000e+00 0.000000e+00 0.000000e+00 0.000000e+00 0.000000e+00
<ENDHMM>
~h "u"
<BEGINHMM>
<NUMSTATES> 5
<STATE> 2
<MEAN> 39
 -5.653166e-01 -4.168561e+00 -7.121681e+00 -1.083181e+01 -6.825896e+00 -6.687108e+00 -8.957320e+00 1.170853e+00 1.176105e+00 -4.429667e+00 -8.170501e+00 -3.816269e+00 6.664278e+01 6.319448e-02 -3.026761e-01 -1.649364e-01 -4.902257e-01 3.693966e-01 -3.548250e-03 -3.465806e-01 1.857385e-01 6.292902e-02 -1.114025e-01 -1.641091e-01 -2.335865e-01 7.450582e-01 -3.981115e-02 1.421068e-03 1.009414e-01 -5.487831e-02 -2.698469e-02 -4.709041e-02 -1.282845e-01 -1.348142e-02 -1.468357e-01 9.974970e-02 7.634920e-02 3.724805e-02 1.590001e-01
<VARIANCE> 39
 2.947129e+01 4.738464e+01 4.299477e+01 5.221421e+01 4.165865e+01 4.752467e+01 5.024507e+01 4.588407e+01 8.411259e+01 7.085898e+01 2.648735e+01 3.817620e+01 1.199238e+02 2.904396e+00 2.606977e+00 2.775053e+00 3.701483e+00 2.443376e+00 3.972321e+00 5.114414e+00 3.805249e+00 4.030510e+00 3.839343e+00 2.916240e+00 2.946851e+00 8.075079e+00 4.168354e-01 3.889935e-01 3.593773e-01 5.534436e-01 3.758292e-01 6.294879e-01 7.764203e-01 6.072803e-01 6.188675e-01 6.768275e-01 5.044803e-01 5.495178e-01 9.784051e-01
<GCONST> 1.311392e+02
<STATE> 3
<MEAN> 39
 -1.268257e+00 -3.133530e+00 -6.287695e+00 -1.303594e+01 -1.515318e+00 -5.206523e+00 -1.260711e+01 6.005123e+00 -3.745840e+00 5.381111e-01 -7.245672e+00 -4.610353e+00 6.947144e+01 -1.539634e-01 6.538528e-01 5.152587e-01 3.139244e-01 -2.559806e-02 -3.706623e-01 -2.996826e-01 -2.961521e-01 -2.977836e-01 9.586895e-02 5.550882e-01 8.802098e-02 4.110304e-02 6.616216e-02 1.787127e-01 8.455478e-02 2.981665e-01 -3.863348e-01 7.623008e-02 1.622993e-01 -3.081923e-01 6.328015e-02 -3.664867e-02 1.050229e-01 1.380819e-01 -3.319049e-01
<VARIANCE> 39
 8.995409e+01 4.159068e+01 4.677320e+01 6.623524e+01 3.826802e+01 1.180286e+02 6.168671e+01 9.223408e+01 7.141308e+01 7.195875e+01 6.190967e+01 4.373557e+01 6.730718e+01 3.485388e+00 2.271866e+00 2.617444e+00 3.073562e+00 3.262047e+00 3.159255e+00 4.118868e+00 5.097892e+00 4.567619e+00 2.931897e+00 3.191836e+00 2.517770e+00 4.464774e+00 5.464078e-01 4.166629e-01 4.623271e-01 6.106820e-01 6.476351e-01 6.931873e-01 8.438221e-01 7.810833e-01 8.441528e-01 5.121467e-01 7.001311e-01 4.424143e-01 4.447798e-01
<GCONST> 1.345856e+02
<STATE> 4
<MEAN> 39
 -4.049151e+00 3.058991e+00 -2.266583e+00 -8.344793e+00 -6.081562e+00 -6.702857e+00 -1.207330e+01 9.463050e-01 -4.297343e+00 -7.112139e-02 -4.710001e+00 -1.248107e+00 6.669774e+01 6.909505e-01 1.588942e-01 2.700879e-01 3.736381e-02 -5.318866e-01 3.356196e-01 -2.714282e-01 -6.114361e-01 -3.301969e-01 2.034568e-01 1.306081e-01 1.297701e-01 -3.152749e-02 3.342513e-02 -7.106891e-02 -5.976826e-02 -1.290572e-01 -4.722558e-02 7.140904e-02 6.036791e-02 5.170053e-02 -2.918690e-02 -2.145411e-03 -3.214934e-02 4.714774e-03 -2.587930e-02
<VARIANCE> 39
 1.234848e+02 4.157318e+01 5.727376e+01 4.725467e+01 7.420053e+01 7.527179e+01 5.435508e+01 9.609853e+01 6.278020e+01 5.910071e+01 6.028259e+01 2.696866e+01 2.860792e+01 9.156133e+00 3.201363e+00 3.661356e+00 4.861211e+00 4.851151e+00 5.232030e+00 5.453836e+00 5.125097e+00 5.294143e+00 4.316339e+00 3.908706e+00 2.290837e+00 2.897618e+00 1.142387e+00 4.859498e-01 5.118503e-01 7.839571e-01 7.513126e-01 8.638395e-01 8.830997e-01 8.369972e-01 8.693389e-01 7.653209e-01 7.482963e-01 4.628364e-01 3.454728e-01
<GCONST> 1.387190e+02
<TRANSP> 5
 0.000000e+00 1.000000e+00 0.000000e+00 0.000000e+00 0.000000e+00
 0.000000e+00 7.975480e-01 2.024520e-01 0.000000e+00 0.000000e+00
 0.000000e+00 0.000000e+00 6.158360e-01 3.841640e-01 0.000000e+00
 0.000000e+00 0.000000e+00 0.000000e+00 8.451527e-01 1.548472e-01
 0.000000e+00 0.000000e+00 0.000000e+00 0.000000e+00 0.000000e+00
<ENDHMM>
~h "y"
<BEGINHMM>
<NUMSTATES> 5
<STATE> 2
<MEAN> 39
 -6.621862e+00 3.986240e+00 8.191378e-01 -8.358215e+00 -6.476263e+00 -5.288835e+00 -1.357886e+01 -1.336930e+00 -5.804547e+00 1.781488e-01 -2.253462e+00 -8.528880e-01 6.435345e+01 5.369517e-01 -4.299387e-03 1.411694e+00 -8.517399e-02 -1.183206e+00 1.817688e-02 -2.995999e-01 -4.533511e-01 -7.860904e-01 4.507226e-02 1.777171e-01 5.514014e-02 9.131080e-01 1.292656e-01 1.639163e-02 9.756118e-03 -1.309699e-01 -1.726810e-01 1.198163e-01 -1.336456e-01 -2.513733e-03 3.872376e-03 -5.712261e-02 -8.221845e-02 -6.788322e-02 1.307856e-03
<VARIANCE> 39
 1.202771e+02 2.733471e+01 8.017122e+01 4.081191e+01 6.233737e+01 2.931653e+01 5.907867e+01 7.272509e+01 3.442013e+01 3.456541e+01 1.689893e+01 1.459210e+01 4.699414e+01 1.060497e+01 2.924100e+00 8.419174e+00 4.774096e+00 7.194461e+00 3.107163e+00 5.251631e+00 3.308175e+00 4.894578e+00 3.478893e+00 2.223178e+00 1.930066e+00 3.654652e+00 1.409016e+00 5.471362e-01 1.278194e+00 8.459426e-01 1.127354e+00 4.825142e-01 8.962172e-01 5.884743e-01 8.084600e-01 5.954400e-01 4.294193e-01 4.470910e-01 6.075723e-01
<GCONST> 1.345508e+02
<STATE> 3
<MEAN> 39
 -1.874170e+00 5.536833e+00 1.444801e+01 -9.276882e+00 -1.987302e+01 -2.343264e+00 -1.594760e+01 -1.803590e+00 -1.397170e+01 4.678131e-01 -2.366689e+00 -3.090594e+00 7.096803e+01 -4.194364e-02 4.888960e-01 2.404855e-01 -4.871622e-01 -1.608505e-01 9.898102e-01 -1.114187e-01 -1.531013e-01 -1.775990e-01 6.978723e-01 -3.846374e-01 -3.615304e-01 -2.072532e-01 -2.097674e-01 4.294153e-02 -4.265641e-01 2.227809e-01 6.562690e-01 -2.248605e-01 4.693770e-01 2.627959e-02 4.248732e-01 4.931798e-02 -1.224977e-01 1.168483e-01 -3.080859e-01
<VARIANCE> 39
 1.289771e+01 1.993158e+01 4.449797e+01 6.568260e+01 6.072087e+01 5.163300e+01 3.287424e+01 4.856487e+01 4.073740e+01 4.941689e+01 4.490789e+01 1.945025e+01 1.776875e+01 4.544520e-01 7.643925e-01 1.201204e+00 1.122607e+00 2.558947e+00 1.962293e+00 2.976858e+00 1.325518e+00 1.959359e+00 2.351555e+00 1.650235e+00 1.447699e+00 4.617286e-01 2.165975e-01 1.492984e-01 3.967147e-01 2.654135e-01 5.911705e-01 3.530092e-01 4.825405e-01 2.836156e-01 3.616357e-01 4.517910e-01 4.525979e-01 2.155554e-01 8.942059e-02
<GCONST> 1.059524e+02
<STATE> 4
<MEAN> 39
 -8.921292e-01 6.173787e+00 1.759233e+01 -8.884650e+00 -2.196341e+01 3.445390e-01 -1.447861e+01 -7.311435e+00 -2.898026e+00 -5.221586e-01 -3.398588e+00 -2.660203e+00 6.832379e+01 1.135345e-01 2.846586e-01 -6.094331e-01 1.605992e-01 7.720996e-01 -5.903917e-02 3.049563e-01 -2.303303e-02 6.209943e-01 7.531530e-02 -3.156613e-01 1.039812e-01 -3.744733e-01 2.064550e-02 -2.049324e-02 -7.553809e-02 1.110374e-01 1.445024e-01 -1.315646e-01 4.803544e-02 9.546758e-02 -6.466414e-02 -2.262884e-02 -3.051720e-02 6.275433e-02 -5.206402e-02
<VARIANCE> 39
 1.393211e+01 1.777447e+01 7.267496e+01 2.439740e+01 5.868122e+01 2.013419e+01 1.467903e+01 3.868670e+01 5.976307e+01 3.394661e+01 2.486230e+01 7.817456e+00 1.284685e+01 2.116786e-01 4.493279e-01 8.915042e-01 8.853258e-01 2.131133e+00 1.065066e+00 1.220653e+00 1.489843e+00 3.583399e+00 1.562315e+00 1.117992e+00 1.216159e+00 3.460418e-01 3.482212e-02 9.147356e-02 1.307358e-01 1.215161e-01 2.974524e-01 2.743611e-01 1.680800e-01 2.631939e-01 6.344206e-01 2.323399e-01 1.659527e-01 1.418107e-01 6.057445e-02
<GCONST> 8.933771e+01
<TRANSP> 5
 0.000000e+00 1.000000e+00 0.000000e+00 0.000000e+00 0.000000e+00
 0.000000e+00 8.946113e-01 1.053887e-01 0.000000e+00 0.000000e+00
 0.000000e+00 0.000000e+00 7.682109e-01 2.317891e-01 0.000000e+00
 0.000000e+00 0.000000e+00 0.000000e+00 7.741541e-01 2.258459e-01
 0.000000e+00 0.000000e+00 0.000000e+00 0.000000e+00 0.000000e+00
<ENDHMM>
~h "ng"
<BEGINHMM>
<NUMSTATES> 5
<STATE> 2
<MEAN> 39
 -2.978820e+00 1.538091e+00 -2.072344e+00 -1.168913e-01 -3.581219e-01 -1.937025e+00 -2.520274e+00 3.150047e+00 1.399506e+00 -1.938846e+00 -3.187393e+00 -9.818844e-01 5.376076e+01 -7.056600e-02 3.046229e-02 -9.034973e-02 -1.413326e-01 1.706117e-02 -7.748973e-02 1.220561e-01 1.034618e-01 1.507388e-01 1.442543e-01 5.497804e-02 -2.182379e-02 -1.420557e-01 -2.817005e-03 8.803086e-03 1.625564e-03 -6.307275e-04 -1.649554e-02 6.566986e-03 3.549901e-03 -4.347003e-02 -4.910783e-02 -1.681679e-02 -2.706032e-02 -1.795370e-02 2.301834e-03
<VARIANCE> 39
 4.360271e+00 2.958241e+01 3.515475e+01 3.502766e+01 2.083216e+01 1.604547e+01 3.167202e+01 2.820980e+01 2.642700e+01 2.623659e+01 1.927078e+01 1.651623e+01 6.873542e+00 3.236506e-01 7.049684e-01 8.977901e-01 1.043287e+00 1.003388e+00 1.214508e+00 1.578411e+00 1.994059e+00 1.829467e+00 1.594483e+00 1.420136e+00 1.228238e+00 1.710226e-01 5.319081e-02 1.079286e-01 1.733870e-01 1.933731e-01 1.793541e-01 2.176325e-01 3.240982e-01 3.827019e-01 3.381456e-01 3.057804e-01 2.806865e-01 2.648108e-01 2.001867e-02
<GCONST> 8.748854e+01
<STATE> 3
<MEAN> 39
 -5.596350e+00 1.010558e+00 -4.609611e+00 -1.442715e+00 -1.468554e+00 -3.191950e+00 -3.004558e+00 6.772103e-01 -1.752021e+00 -1.812653e-01 -3.653141e+00 -1.889668e+00 5.122294e+01 -4.618569e-02 -5.577964e-02 -1.205501e-01 -7.855356e-02 -8.739573e-02 -1.710022e-02 1.043425e-01 1.062372e-01 9.693653e-02 9.029193e-02 1.100424e-01 -1.167077e-02 -2.245178e-01 2.275965e-02 1.514419e-02 1.761851e-02 1.142673e-02 -1.552090e-02 1.132459e-02 -2.166342e-02 -2.412287e-02 1.140383e-02 -2.635865e-02 -1.649340e-03 1.426129e-02 1.318422e-02
<VARIANCE> 39
 5.697675e+00 6.303406e+00 9.254485e+00 1.173899e+01 1.238541e+01 1.810489e+01 1.811007e+01 2.760539e+01 2.508076e+01 2.930031e+01 1.935269e+01 1.454604e+01 3.558882e+00 1.926935e-01 3.916567e-01 5.467208e-01 1.046378e+00 1.067628e+00 1.321449e+00 1.521256e+00 1.572460e+00 1.524630e+00 1.748189e+00 1.889247e+00 1.320305e+00 9.954195e-02 3.213220e-02 6.375866e-02 1.025881e-01 2.123642e-01 2.062208e-01 2.808804e-01 2.890899e-01 2.895527e-01 2.898779e-01 3.647743e-01 3.838591e-01 2.479570e-01 1.543581e-02
<GCONST> 7.862795e+01
<STATE> 4
<MEAN> 39
 -4.875171e+00 8.722652e-01 -5.549188e+00 -1.959712e+00 -3.413155e+00 -3.250832e+00 -3.058165e+00 2.532359e-01 2.096783e-01 -5.198907e-02 -3.305288e+00 -2.594527e+00 4.762683e+01 -1.459087e-02 -1.966727e-02 -1.424884e-02 1.738683e-03 -2.344285e-02 -3.215092e-02 -3.793466e-02 -2.600085e-02 -1.560973e-02 -8.613269e-04 -9.863771e-03 -7.274052e-03 -4.359009e-02 -9.380056e-03 -6.629055e-04 8.849896e-03 -8.081623e-04 2.255732e-03 -7.522441e-03 3.365902e-03 5.141721e-03 -1.838007e-03 9.069989e-03 4.217544e-03 6.739227e-03 1.699630e-02
<VARIANCE> 39
 2.059173e+00 3.907380e+00 6.112364e+00 8.613015e+00 1.120952e+01 1.255358e+01 1.323127e+01 1.815066e+01 1.830321e+01 1.458472e+01 1.142266e+01 1.187886e+01 1.847344e+00 1.478367e-01 2.642776e-01 4.228460e-01 6.066564e-01 9.251177e-01 1.052851e+00 1.157581e+00 1.245481e+00 1.413035e+00 1.153648e+00 1.161881e+00 1.114201e+00 5.632002e-02 2.882000e-02 5.140292e-02 8.449795e-02 1.191059e-01 1.953959e-01 2.119399e-01 2.345726e-01 2.553966e-01 2.960717e-01 2.232949e-01 2.393983e-01 2.227422e-01 1.139353e-02
<GCONST> 6.563679e+01
<TRANSP> 5
 0.000000e+00 1.000000e+00 0.000000e+00 0.000000e+00 0.000000e+00
 0.000000e+00 8.934472e-01 1.065528e-01 0.000000e+00 0.000000e+00
 0.000000e+00 0.000000e+00 9.072794e-01 9.272056e-02 0.000000e+00
 0.000000e+00 0.000000e+00 0.000000e+00 9.612681e-01 3.873186e-02
 0.000000e+00 0.000000e+00 0.000000e+00 0.000000e+00 0.000000e+00
<ENDHMM>
~h "sp"
<BEGINHMM>
<NUMSTATES> 5
<STATE> 2
~s "silst"
<STATE> 3
<MEAN> 39
 -4.323007e+00 -4.011259e-01 -6.153461e+00 -4.298083e+00 -4.891515e+00 -5.544915e+00 -4.704883e+00 3.039660e-01 -1.071635e+00 -6.677662e-01 -4.389108e+00 -2.705215e+00 5.382349e+01 -2.764232e-01 8.647090e-03 -2.769370e-02 4.948528e-02 6.039163e-02 1.188122e-01 3.114695e-01 1.169477e-01 1.006213e-01 1.015949e-01 1.411010e-01 1.256350e-01 -2.286321e-01 9.559122e-02 2.213675e-02 7.757256e-02 3.805882e-02 6.767103e-02 8.249952e-02 -6.048703e-02 6.440233e-02 -3.369276e-02 4.450122e-02 -7.569984e-03 5.152289e-02 1.011316e-01
<VARIANCE> 39
 2.718076e+01 2.072334e+01 2.988919e+01 3.466344e+01 2.753320e+01 3.259180e+01 3.431727e+01 3.320654e+01 3.419035e+01 3.012259e+01 3.169712e+01 2.205982e+01 2.909261e+01 8.814928e-01 1.051453e+00 1.388622e+00 1.294530e+00 1.651611e+00 1.963918e+00 2.250543e+00 2.138665e+00 2.091439e+00 2.022944e+00 2.148882e+00 1.791943e+00 1.029280e+00 1.836931e-01 1.922492e-01 2.767638e-01 2.861495e-01 3.751122e-01 3.973261e-01 5.221620e-01 4.538614e-01 4.510065e-01 3.861896e-01 4.477873e-01 3.444723e-01 2.552013e-01
<GCONST> 1.075226e+02
<STATE> 4
<MEAN> 39
 -4.761224e+00 2.516109e-02 -5.698080e+00 -2.411680e+00 -3.483688e+00 -3.598792e+00 -3.142647e+00 9.757036e-01 -2.517319e-01 -1.962653e-02 -2.919684e+00 -1.276644e+00 5.001457e+01 -4.547270e-02 4.758500e-02 8.956642e-03 1.302767e-02 2.085846e-02 4.610928e-02 7.189034e-02 2.423727e-02 2.083609e-02 3.729745e-02 1.349100e-02 3.182628e-02 -9.600998e-02 -1.514627e-02 -1.237223e-02 2.790938e-02 -1.091839e-02 1.436751e-02 -2.031765e-02 -4.278367e-02 -1.102860e-02 -4.840044e-02 -1.452857e-04 -1.811885e-02 -2.520242e-03 5.183827e-02
<VARIANCE> 39
 7.997863e+00 9.718274e+00 1.108617e+01 1.477215e+01 1.508782e+01 1.598502e+01 1.899921e+01 2.408177e+01 2.174549e+01 2.068826e+01 2.045083e+01 1.696864e+01 1.272396e+01 3.267663e-01 4.436572e-01 6.719325e-01 7.739922e-01 1.109121e+00 1.213095e+00 1.342818e+00 1.429592e+00 1.503013e+00 1.467905e+00 1.531125e+00 1.267967e+00 2.266869e-01 5.692934e-02 7.631160e-02 1.288390e-01 1.588305e-01 2.381570e-01 2.407527e-01 2.656463e-01 2.851899e-01 3.174889e-01 2.966962e-01 3.080013e-01 2.498028e-01 5.677596e-02
<GCONST> 8.301378e+01
<TRANSP> 5
 0.000000e+00 4.504035e-02 9.549596e-01 0.000000e+00 0.000000e+00
 0.000000e+00 4.525355e-01 5.474645e-01 0.000000e+00 0.000000e+00
 0.000000e+00 0.000000e+00 3.741187e-01 6.258813e-01 0.000000e+00
 0.000000e+00 0.000000e+00 0.000000e+00 8.169827e-01 1.830173e-01
 0.000000e+00 0.000000e+00 0.000000e+00 0.000000e+00 0.000000e+00
<ENDHMM>
~h "sil"
<BEGINHMM>
<NUMSTATES> 5
<STATE> 2
<MEAN> 39
 -4.225479e+00 3.172187e-01 -3.077701e+00 -9.411302e-01 -1.502408e+00 -1.332776e+00 -8.084910e-01 7.138426e-01 2.922943e-01 7.487257e-01 -1.491780e+00 -6.563331e-01 3.267895e+01 -9.223285e-01 -5.121140e-01 -9.338170e-01 -6.967235e-01 -9.216260e-01 -7.710689e-01 -8.725315e-01 -4.221284e-01 -5.059709e-01 -1.944950e-01 -4.152070e-01 -2.118419e-01 4.827109e+00 5.608357e-02 -7.525334e-02 -1.061169e-01 -9.728512e-02 -1.304510e-01 -1.736180e-01 -2.082646e-01 -1.389945e-01 -1.188829e-01 -1.387032e-01 -5.966031e-02 -6.576139e-02 5.362607e-02
<VARIANCE> 39
 1.607218e+01 6.877462e+00 1.613873e+01 1.360661e+01 1.449786e+01 1.289604e+01 1.493441e+01 1.230025e+01 1.354191e+01 1.452527e+01 1.170600e+01 9.913070e+00 5.152020e+02 1.859229e+00 9.804096e-01 3.315635e+00 1.611479e+00 2.521998e+00 2.830404e+00 2.540316e+00 1.780980e+00 1.702103e+00 1.545214e+00 1.698068e+00 1.337900e+00 3.939109e+01 1.778909e-01 1.148175e-01 2.670942e-01 1.978812e-01 2.496881e-01 2.822676e-01 3.060778e-01 2.592541e-01 2.635148e-01 2.631298e-01 2.408551e-01 1.972812e-01 9.464206e-01
<GCONST> 1.019229e+02
<STATE> 3
~s "silst"
<STATE> 4
<MEAN> 39
 -5.464535e+00 -1.102700e+00 -7.313452e+00 -3.337435e+00 -4.496014e+00 -4.638948e+00 -3.853388e+00 3.323064e-01 -2.280641e-01 -5.154758e-01 -3.172805e+00 -1.611011e+00 4.803849e+01 1.700216e-02 1.921013e-02 1.447967e-02 2.226673e-02 3.791001e-02 4.295857e-02 4.455706e-02 3.135559e-02 9.420892e-03 8.250008e-03 -9.647741e-03 8.274930e-03 -6.314274e-02 -2.114872e-02 2.454618e-03 1.210527e-02 3.400445e-04 4.827855e-03 -1.391594e-03 -4.279788e-03 3.576325e-03 -7.370720e-03 1.023143e-02 -4.267302e-03 9.739851e-03 7.340481e-03
<VARIANCE> 39
 3.535530e+00 7.764138e+00 9.612397e+00 1.025003e+01 1.356952e+01 1.507988e+01 1.603912e+01 2.052473e+01 2.176168e+01 1.705463e+01 1.577200e+01 1.431389e+01 3.800729e+00 2.008465e-01 3.250798e-01 5.193881e-01 6.961938e-01 9.023977e-01 1.066026e+00 1.246583e+00 1.387621e+00 1.356136e+00 1.404876e+00 1.338240e+00 1.174971e+00 1.439314e-01 4.169798e-02 6.294997e-02 1.000152e-01 1.342174e-01 1.771195e-01 2.105220e-01 2.416206e-01 2.722478e-01 2.680039e-01 2.820935e-01 2.659958e-01 2.408248e-01 2.486691e-02
<GCONST> 7.400246e+01
<TRANSP> 5
 0.000000e+00 1.000000e+00 0.000000e+00 0.000000e+00 0.000000e+00
 0.000000e+00 4.290928e-01 3.317243e-01 2.391829e-01 0.000000e+00
 0.000000e+00 0.000000e+00 7.754744e-01 2.245256e-01 0.000000e+00
 0.000000e+00 8.767553e-03 0.000000e+00 9.486684e-01 4.256414e-02
 0.000000e+00 0.000000e+00 0.000000e+00 0.000000e+00 0.000000e+00
<ENDHMM>
