~o
<STREAMINFO> 1 39
<VECSIZE> 39<NULLD><MFCC_D_A_0><DIAGC>
~s "silst"
<MEAN> 39
 -7.112063e+00 -3.551354e+00 -9.206217e+00 -6.043184e+00 -7.701548e+00 -7.683450e+00 -7.400195e+00 -2.567194e+00 -2.825686e+00 -1.762386e+00 -4.355323e+00 -2.268103e+00 4.853143e+01 -4.034893e-01 -3.128929e-01 -7.456178e-01 -5.296701e-01 -6.781912e-01 -8.285782e-01 -7.195674e-01 -1.764583e-01 -2.755990e-01 -2.396355e-01 -2.899102e-01 -2.249793e-01 4.644895e+00 4.208343e-01 2.347110e-01 4.694150e-01 3.443010e-01 4.352809e-01 4.745360e-01 4.895319e-01 2.033069e-01 2.048164e-01 5.954648e-02 2.597879e-01 9.056789e-02 -2.533054e+00
<VARIANCE> 39
 9.128545e+00 8.381541e+00 1.342522e+01 1.686881e+01 1.992709e+01 2.559870e+01 1.976907e+01 2.036136e+01 2.310630e+01 1.939080e+01 1.482783e+01 1.740215e+01 2.714230e+01 1.162183e+00 6.909053e-01 1.888770e+00 1.831142e+00 2.219775e+00 2.410167e+00 2.345481e+00 1.713720e+00 1.713398e+00 1.635310e+00 1.486055e+00 1.505681e+00 3.451094e+01 1.352658e-01 1.301108e-01 2.624418e-01 3.312850e-01 3.862576e-01 4.103538e-01 3.592642e-01 3.580674e-01 3.205404e-01 3.516791e-01 2.777389e-01 3.147609e-01 2.106763e+00
<GCONST> 1.038456e+02
~h "a"
<BEGINHMM>
<NUMSTATES> 5
<STATE> 2
<MEAN> 39
 2.854287e+00 -4.832001e+00 -9.066353e+00 -1.383153e+01 -5.052893e+00 -4.058326e+00 -1.227277e+01 4.028919e+00 -4.987591e+00 -2.043539e+00 -6.530746e+00 -3.935436e+00 7.158923e+01 1.277095e-02 4.492946e-02 4.358273e-02 1.279784e-01 -1.454049e-01 -1.103148e-01 2.248207e-02 -1.484947e-02 1.855874e-03 -1.668912e-01 1.271206e-01 -1.259506e-02 -4.252530e-02 -3.326946e-02 7.541893e-02 6.026268e-02 1.351287e-01 -2.475322e-02 -7.125730e-02 -5.981223e-02 -4.405585e-02 1.393456e-03 -6.846257e-03 6.020320e-02 6.455600e-02 -6.208759e-02
<VARIANCE> 39
 1.680799e+01 8.024904e+01 4.937835e+01 5.661378e+01 3.238596e+01 8.104253e+01 5.726564e+01 7.515450e+01 6.324360e+01 1.100493e+02 6.015742e+01 4.690147e+01 8.178538e+01 7.155909e-01 1.531336e+00 1.287706e+00 1.918708e+00 1.534187e+00 2.181997e+00 2.007283e+00 1.971897e+00 1.822855e+00 2.488907e+00 2.156442e+00 2.040927e+00 1.279880e+00 1.327189e-01 2.090533e-01 2.065868e-01 2.902432e-01 2.679870e-01 3.314572e-01 3.596513e-01 3.706729e-01 3.054268e-01 3.646846e-01 3.125648e-01 3.131045e-01 2.508383e-01
<GCONST> 1.143411e+02
<STATE> 3
<MEAN> 39
 1.133651e+00 -1.985101e+00 -6.877012e+00 -9.234846e+00 -4.163217e+00 -6.762085e+00 -1.302884e+01 4.557304e+00 -4.173238e+00 -3.771294e-01 -7.802980e+00 -2.886214e+00 6.661248e+01 -4.645266e-03 5.438300e-01 6.463918e-01 4.934960e-01 -1.664267e-01 -3.837510e-01 -3.917009e-03 -5.412490e-01 -2.823478e-01 -1.854423e-01 3.716156e-01 1.408791e-01 -2.938266e-01 -5.083311e-02 3.228243e-03 5.415242e-02 -6.919944e-02 -9.259366e-02 9.895910e-02 1.699668e-01 -1.168181e-01 1.087099e-02 1.268698e-02 -2.183480e-02 -9.467705e-02 -2.591117e-02
<VARIANCE> 39
 3.813046e+01 4.652108e+01 5.328569e+01 5.879284e+01 4.974728e+01 7.310508e+01 6.154951e+01 1.051554e+02 5.866232e+01 6.789960e+01 6.611581e+01 4.166643e+01 8.526244e+01 2.395126e+00 3.358096e+00 4.149388e+00 4.414999e+00 4.385218e+00 4.871090e+00 5.528998e+00 5.542889e+00 4.374042e+00 3.525520e+00 3.491550e+00 3.353187e+00 6.796419e+00 5.027952e-01 4.086810e-01 4.994866e-01 6.903204e-01 8.470696e-01 7.984875e-01 9.535315e-01 8.441767e-01 7.016906e-01 5.967191e-01 6.286138e-01 5.872955e-01 5.636563e-01
<GCONST> 1.377324e+02
<STATE> 4
<MEAN> 39
 -1.477960e-01 3.922895e+00 6.544540e+00 -7.234710e+00 -1.192391e+01 -7.473425e+00 -1.202778e+01 -3.864889e+00 -7.872898e+00 8.405163e-01 -3.656733e+00 -2.441742e+00 6.718312e+01 -5.265344e-02 2.787954e-01 -2.249695e-03 1.788218e-01 -1.262728e-01 2.125244e-01 3.681884e-01 -4.288224e-01 6.065585e-02 -4.555009e-03 -4.109133e-02 -1.630905e-02 -2.511007e-01 -8.241730e-03 -1.417479e-01 -2.435359e-01 -3.053799e-02 1.656456e-01 3.997041e-02 1.556083e-02 1.682213e-01 1.067150e-01 -8.808032e-03 -1.180914e-01 1.415586e-02 3.972533e-02
<VARIANCE> 39
 2.841550e+01 2.532194e+01 9.230829e+01 7.177531e+01 7.210274e+01 7.490050e+01 5.012191e+01 9.536250e+01 7.466567e+01 4.173147e+01 3.954074e+01 3.330588e+01 4.883002e+01 1.834798e+00 1.874557e+00 3.656470e+00 3.325161e+00 4.844648e+00 3.515089e+00 3.155143e+00 3.381013e+00 3.035548e+00 3.360102e+00 2.207090e+00 2.360349e+00 2.266665e+00 2.226312e-01 3.197554e-01 4.244072e-01 5.799172e-01 7.063828e-01 6.156460e-01 4.897339e-01 5.766425e-01 5.392860e-01 5.191398e-01 3.778673e-01 4.311681e-01 2.853697e-01
<GCONST> 1.264802e+02
<TRANSP> 5
 0.000000e+00 1.000000e+00 0.000000e+00 0.000000e+00 0.000000e+00
 0.000000e+00 7.532116e-01 2.467884e-01 0.000000e+00 0.000000e+00
 0.000000e+00 0.000000e+00 7.051410e-01 2.948590e-01 0.000000e+00
 0.000000e+00 0.000000e+00 0.000000e+00 7.494115e-01 2.505884e-01
 0.000000e+00 0.000000e+00 0.000000e+00 0.000000e+00 0.000000e+00
<ENDHMM>
~h "b"
<BEGINHMM>
<NUMSTATES> 5
<STATE> 2
<MEAN> 39
 2.822180e+00 4.690453e+00 1.219150e+01 -6.824114e+00 -1.660408e+01 -1.508934e+00 -1.101864e+01 -6.693400e+00 -6.836184e+00 6.278501e+00 -4.533214e+00 -4.078093e+00 6.459072e+01 5.796723e-02 3.256275e-01 -8.638804e-01 4.567800e-01 8.101990e-01 5.848385e-02 4.089418e-01 -2.404155e-01 3.019870e-02 3.633253e-03 -2.018147e-01 -1.809584e-01 -6.391860e-01 -2.499701e-02 6.633437e-02 -1.103241e-01 1.171477e-01 1.780490e-01 -3.816704e-02 3.795170e-02 -1.215708e-02 4.980285e-02 -1.830811e-01 -2.662275e-02 7.651217e-02 -9.572204e-02
<VARIANCE> 39
 1.109356e+01 1.385836e+01 9.316483e+01 4.325377e+01 9.709842e+01 2.849264e+01 2.260488e+01 6.174843e+01 9.116229e+01 2.153992e+01 4.383015e+01 3.158006e+01 1.644632e+01 5.068357e-01 7.649445e-01 1.685130e+00 1.453746e+00 2.050466e+00 1.946771e+00 9.646511e-01 1.543485e+00 2.324667e+00 1.273089e+00 1.148461e+00 1.394021e+00 4.687807e-01 6.292818e-02 1.565532e-01 2.939894e-01 2.567806e-01 2.679324e-01 4.135711e-01 1.700005e-01 2.344085e-01 5.837288e-01 2.474624e-01 2.068727e-01 3.133009e-01 8.001883e-02
<GCONST> 1.005018e+02
<STATE> 3
<MEAN> 39
 3.896017e+00 7.125036e+00 2.448689e+00 5.547528e-01 -7.329331e+00 -5.225372e+00 -1.084993e+01 -9.805251e+00 -7.046801e+00 -3.283417e-01 -7.919227e+00 -1.353492e+00 5.883682e+01 -5.430695e-01 2.961800e-01 -5.617312e-02 8.083993e-01 1.157425e+00 2.262238e-01 3.841216e-01 1.351368e-01 -3.899681e-02 -1.010479e+00 1.304563e-01 1.815074e-01 -8.873544e-01 -1.346681e-01 -2.047265e-01 -1.016014e-01 -6.152367e-02 -3.332569e-02 1.255057e-01 2.194436e-01 2.854466e-01 -4.106143e-02 6.497550e-02 -1.273062e-02 -1.063532e-01 6.264127e-04
<VARIANCE> 39
 9.289009e+00 1.326542e+01 2.053296e+01 9.217160e+00 3.459709e+01 2.703596e+01 4.231364e+01 6.669789e+01 4.925104e+01 3.040458e+01 1.879963e+01 2.103576e+01 7.215417e+00 1.563005e-01 6.529402e-01 8.532206e-01 9.676200e-01 1.110657e+00 1.701787e+00 1.985380e+00 1.396289e+00 8.042948e-01 1.133679e+00 8.937331e-01 2.388494e+00 2.888576e-01 4.327742e-02 6.582629e-02 1.894700e-01 1.059408e-01 1.945184e-01 2.260057e-01 3.497666e-01 2.358277e-01 1.509556e-01 2.564217e-01 1.578463e-01 2.001837e-01 2.522652e-02
<GCONST> 8.461982e+01
<STATE> 4
<MEAN> 39
 -2.951061e-01 4.806475e+00 1.918237e+00 3.415906e+00 -1.536210e+00 -6.659470e-01 -2.134388e+00 -6.486247e-01 -3.192879e+00 -6.189452e-01 -6.032697e+00 -3.583716e+00 5.506683e+01 -6.617638e-01 -4.863491e-01 -6.308721e-01 1.691583e-01 5.679314e-01 3.724772e-01 1.120968e+00 1.228547e+00 1.693475e-01 -5.549188e-01 1.833879e-01 4.666013e-02 -6.356986e-01 -2.161143e-02 -1.657895e-01 -9.661715e-02 -2.507514e-01 -2.978698e-01 -1.367264e-01 -2.953344e-01 -1.203624e-01 -6.002620e-02 -3.744265e-02 6.383820e-02 2.815619e-02 1.176568e-01
<VARIANCE> 39
 7.599154e+00 1.422135e+01 1.393192e+01 1.207556e+01 2.156125e+01 1.094413e+01 3.385904e+01 5.777906e+01 3.122474e+01 2.640768e+01 1.273288e+01 2.803696e+01 3.843971e+00 4.483737e-01 7.274421e-01 1.290319e+00 7.906144e-01 1.532760e+00 1.729529e+00 2.765808e+00 2.635855e+00 2.047982e+00 1.935974e+00 1.217323e+00 2.408227e+00 2.443249e-01 3.021434e-02 1.146797e-01 2.365275e-01 1.727974e-01 2.342723e-01 3.329361e-01 4.693733e-01 6.135487e-01 3.192207e-01 1.870073e-01 1.953028e-01 6.266552e-01 3.980514e-02
<GCONST> 9.057068e+01
<TRANSP> 5
 0.000000e+00 1.000000e+00 0.000000e+00 0.000000e+00 0.000000e+00
 0.000000e+00 7.923110e-01 2.076890e-01 0.000000e+00 0.000000e+00
 0.000000e+00 0.000000e+00 6.815309e-01 3.184691e-01 0.000000e+00
 0.000000e+00 0.000000e+00 0.000000e+00 6.935576e-01 3.064424e-01
 0.000000e+00 0.000000e+00 0.000000e+00 0.000000e+00 0.000000e+00
<ENDHMM>
~h "c"
<BEGINHMM>
<NUMSTATES> 5
<STATE> 2
<MEAN> 39
 -6.503432e-01 2.863920e+00 1.718513e+01 -9.138014e+00 -1.990588e+01 -4.632465e+00 -1.319255e+01 -7.465296e+00 -7.247529e+00 4.577722e+00 -4.137551e+00 -2.403241e+00 6.970184e+01 6.512753e-01 -1.936378e-03 3.542528e-02 -5.643424e-02 -1.762632e-01 6.319732e-01 -3.492244e-01 -2.756170e-01 5.938658e-02 5.775508e-01 -5.441379e-02 -3.342665e-01 -4.376459e-01 -1.030404e-01 9.922134e-02 -4.333993e-01 2.041766e-01 3.848177e-01 2.477182e-02 1.631805e-01 5.903002e-02 9.220691e-02 -5.409238e-02 -2.638456e-02 -1.695517e-03 -1.405729e-01
<VARIANCE> 39
 1.724481e+01 2.230309e+01 7.950248e+01 7.482951e+01 7.765656e+01 5.639687e+01 2.588348e+01 7.280280e+01 6.720519e+01 3.051305e+01 4.895015e+01 1.732058e+01 1.770327e+01 1.292586e+00 2.114656e+00 5.072934e+00 3.280161e+00 5.211726e+00 2.156858e+00 2.337526e+00 1.783974e+00 1.704619e+00 2.147121e+00 1.245520e+00 1.748840e+00 1.195560e+00 2.775479e-01 3.166776e-01 5.031179e-01 3.220280e-01 6.621562e-01 4.954071e-01 4.144133e-01 4.089963e-01 3.849612e-01 3.844490e-01 2.482026e-01 3.923404e-01 1.571182e-01
<GCONST> 1.161766e+02
<STATE> 3
<MEAN> 39
 4.474166e+00 4.642126e+00 6.693978e+00 -4.177258e+00 -1.216753e+01 -1.906979e+00 -1.028317e+01 -7.243876e+00 -4.333071e+00 6.770717e+00 -6.569268e+00 -5.019066e+00 6.353506e+01 6.841245e-02 2.093592e-02 -6.026545e-01 9.372764e-01 8.982186e-01 8.474123e-02 6.515926e-01 -3.347626e-01 3.406342e-01 -5.414326e-01 -4.593232e-01 2.275809e-01 -6.882926e-01 -1.839322e-01 2.511766e-02 1.260615e-01 -6.161530e-02 -7.543754e-03 1.643107e-02 2.632812e-02 1.269062e-01 -6.565712e-02 -2.029203e-01 2.331163e-03 1.001486e-01 1.830698e-02
<VARIANCE> 39
 8.971432e+00 1.479514e+01 4.294336e+01 3.005018e+01 3.881040e+01 3.911174e+01 2.841710e+01 5.197997e+01 9.175023e+01 2.393106e+01 4.097549e+01 3.281681e+01 6.575785e+00 8.751977e-01 1.234964e+00 2.506944e+00 1.552413e+00 2.836265e+00 2.145559e+00 1.693966e+00 2.529236e+00 4.106881e+00 1.625779e+00 1.412449e+00 2.055707e+00 4.758967e-01 1.000476e-01 2.453504e-01 4.864420e-01 3.237028e-01 4.341292e-01 4.566549e-01 2.874112e-01 4.027636e-01 7.175161e-01 3.206188e-01 2.564573e-01 3.832169e-01 1.148233e-01
<GCONST> 1.067683e+02
<STATE> 4
<MEAN> 39
 3.660326e+00 7.072002e+00 2.492336e+00 1.044660e+00 -6.117067e+00 -4.706500e+00 -1.054516e+01 -8.236325e+00 -6.841717e+00 -9.338820e-01 -8.075611e+00 -1.366099e+00 5.856740e+01 -5.920750e-01 -3.304051e-03 -1.493565e-01 6.836288e-01 8.908428e-01 4.979049e-01 6.896906e-01 4.787706e-01 2.331643e-01 -9.560829e-01 1.301357e-01 2.787669e-02 -8.646247e-01 -1.117082e-01 -2.298985e-01 -1.637085e-01 -1.840660e-01 -1.753652e-01 2.063181e-02 1.344221e-01 1.814278e-01 -1.748418e-02 1.226989e-01 5.312027e-02 -6.523997e-02 3.978965e-02
<VARIANCE> 39
 6.002587e+00 1.146895e+01 1.353863e+01 1.381851e+01 5.386266e+01 3.381576e+01 4.916029e+01 6.615940e+01 3.723953e+01 2.559138e+01 1.994669e+01 2.668632e+01 9.107030e+00 2.356999e-01 8.384917e-01 9.054474e-01 9.644210e-01 1.315347e+00 1.517417e+00 2.210192e+00 1.679054e+00 8.330088e-01 1.470971e+00 8.638350e-01 1.909427e+00 2.223212e-01 3.356364e-02 8.756375e-02 1.535036e-01 1.309021e-01 2.403548e-01 2.189566e-01 3.167033e-01 2.913203e-01 1.745213e-01 1.949303e-01 1.532599e-01 2.779795e-01 3.376450e-02
<GCONST> 8.653689e+01
<TRANSP> 5
 0.000000e+00 1.000000e+00 0.000000e+00 0.000000e+00 0.000000e+00
 0.000000e+00 8.510128e-01 1.489871e-01 0.000000e+00 0.000000e+00
 0.000000e+00 0.000000e+00 8.098182e-01 1.901818e-01 0.000000e+00
 0.000000e+00 0.000000e+00 0.000000e+00 8.156673e-01 1.843326e-01
 0.000000e+00 0.000000e+00 0.000000e+00 0.000000e+00 0.000000e+00
<ENDHMM>
~h "h"
<BEGINHMM>
<NUMSTATES> 5
<STATE> 2
<MEAN> 39
 -1.623902e+01 2.856745e+00 -3.852129e+00 -7.897869e+00 8.400819e-01 -4.805207e+00 -6.821719e+00 6.555634e+00 -6.737486e+00 -7.113454e-01 -3.696012e+00 2.455897e-01 5.912589e+01 -3.566048e-01 -1.063917e-01 -1.207981e-02 -4.298694e-01 5.334636e-02 4.422967e-01 -8.446826e-01 5.053540e-01 -4.245820e-01 -1.138428e-01 -4.281315e-01 2.777481e-01 1.575069e+00 5.068262e-01 -3.653877e-01 -2.398100e-01 6.015404e-02 -3.806279e-02 1.285429e-01 -3.134740e-01 -3.578403e-02 6.085756e-02 4.449792e-02 -1.981916e-01 -4.659105e-02 1.626733e-01
<VARIANCE> 39
 7.850262e+01 2.080497e+01 5.907460e+01 3.177703e+01 2.810965e+01 2.183575e+01 3.621830e+01 4.419321e+01 2.617231e+01 3.869679e+01 2.391438e+01 3.060929e+01 3.718376e+01 3.995018e+00 2.567984e+00 2.459371e+00 2.079442e+00 3.981417e+00 3.478102e+00 4.177765e+00 4.259232e+00 3.492923e+00 2.685405e+00 1.821419e+00 1.639207e+00 1.550858e+00 2.539020e-01 2.378890e-01 3.731495e-01 5.068443e-01 5.674490e-01 5.381922e-01 6.326067e-01 5.924482e-01 6.069589e-01 6.001720e-01 3.125344e-01 3.334447e-01 5.787629e-01
<GCONST> 1.203237e+02
<STATE> 3
<MEAN> 39
 -3.509348e+00 -3.337924e+00 -7.689766e+00 -7.824021e+00 -1.151692e+00 -1.508263e+00 -1.355774e+01 2.295195e+00 -5.519665e+00 1.381449e+00 -6.770369e+00 4.035228e-01 6.293575e+01 3.209158e+00 -7.093152e-01 -5.659406e-01 -2.034156e+00 1.116445e-01 1.452466e+00 -2.593770e+00 -4.684335e-01 -1.392401e+00 1.932645e-01 -1.163613e+00 -3.633695e-01 3.180482e+00 -2.464597e-02 2.374750e-01 1.117833e-01 -3.580430e-01 -2.326411e-01 1.559919e-01 2.087798e-01 -5.059782e-02 -1.107993e-01 -1.295099e-01 1.783612e-01 -1.458428e-01 1.266619e-01
<VARIANCE> 39
 6.867174e+01 4.298694e+01 4.817538e+01 3.513259e+01 4.375801e+01 8.195254e+01 6.344545e+01 6.058244e+01 3.881265e+01 6.391977e+01 3.669666e+01 1.722085e+01 5.623094e+01 3.853911e+00 4.709095e+00 3.438670e+00 6.893027e+00 5.561665e+00 9.649243e+00 5.167336e+00 8.660250e+00 4.742794e+00 6.249404e+00 4.588099e+00 3.041594e+00 9.571475e+00 8.649281e-01 7.570305e-01 4.883232e-01 9.987511e-01 5.883864e-01 8.877958e-01 1.050734e+00 1.013191e+00 7.779410e-01 7.571188e-01 5.715831e-01 4.856864e-01 9.901914e-01
<GCONST> 1.404179e+02
<STATE> 4
<MEAN> 39
 7.170877e+00 -3.697011e+00 -1.017181e+01 -2.058581e+01 -3.680206e+00 4.704973e+00 -1.838783e+01 4.025294e+00 -7.354279e+00 2.262540e+00 -7.349964e+00 -3.865263e+00 7.243973e+01 2.542719e-01 2.328860e-02 -1.768484e-01 -3.690593e-01 -1.240189e-01 -7.399015e-02 1.863954e-01 3.548304e-01 3.428351e-01 9.324963e-02 -2.020854e-01 -4.101997e-01 1.327298e-01 -1.790939e-01 1.133648e-01 6.183456e-02 2.760601e-01 -3.185623e-03 -2.576807e-01 3.096807e-01 -7.124815e-02 2.262856e-01 -4.484404e-02 1.670605e-01 5.363718e-02 -3.933868e-01
<VARIANCE> 39
 1.136348e+01 5.610974e+01 2.543098e+01 5.651012e+01 5.330436e+01 7.561771e+01 3.485589e+01 9.800335e+01 5.172020e+01 6.836982e+01 7.623937e+01 5.003199e+01 3.342108e+01 5.645846e-01 1.866623e+00 6.001765e-01 3.552364e+00 1.717983e+00 1.819165e+00 3.275490e+00 1.584511e+00 2.997783e+00 2.905921e+00 2.266668e+00 1.811276e+00 3.273907e+00 1.126781e-01 3.202017e-01 1.233180e-01 6.116636e-01 3.267499e-01 4.509869e-01 6.106509e-01 3.426761e-01 4.962493e-01 5.107281e-01 5.379727e-01 2.623448e-01 5.655314e-01
<GCONST> 1.168422e+02
<TRANSP> 5
 0.000000e+00 1.000000e+00 0.000000e+00 0.000000e+00 0.000000e+00
 0.000000e+00 6.691917e-01 3.308084e-01 0.000000e+00 0.000000e+00
 0.000000e+00 0.000000e+00 6.917795e-01 3.082205e-01 0.000000e+00
 0.000000e+00 0.000000e+00 0.000000e+00 8.841360e-01 1.158640e-01
 0.000000e+00 0.000000e+00 0.000000e+00 0.000000e+00 0.000000e+00
<ENDHMM>
~h "i"
<BEGINHMM>
<NUMSTATES> 5
<STATE> 2
<MEAN> 39
 -2.905105e+00 1.382622e+00 -2.814977e+00 3.089304e-01 -2.270290e+00 -1.507147e+00 -3.064152e+00 -6.560565e-01 -2.243912e+00 -1.446814e+00 -4.385024e+00 -1.366160e+00 5.276498e+01 -5.701062e-01 -3.106344e-01 -4.646614e-01 -4.332861e-01 1.779663e-01 -1.778107e-01 1.120229e-01 2.445999e-01 -7.403842e-02 -3.522858e-02 1.422236e-01 1.999765e-01 -2.506803e-01 -5.014561e-02 1.349145e-02 4.133985e-02 -1.598385e-01 -4.272894e-02 -2.437964e-01 -2.155966e-01 -1.342266e-02 -7.817428e-02 8.629340e-02 -2.387959e-02 -5.864207e-02 1.866972e-01
<VARIANCE> 39
 8.893733e+00 1.834799e+01 2.842583e+01 1.979559e+01 1.932077e+01 1.859094e+01 1.973521e+01 3.112052e+01 2.223134e+01 3.851315e+01 2.452794e+01 2.785729e+01 1.109668e+01 6.175146e-01 1.020117e+00 1.471199e+00 1.312041e+00 1.558876e+00 1.500471e+00 1.868733e+00 2.325353e+00 2.056419e+00 2.356988e+00 1.545440e+00 2.200959e+00 4.106089e-01 1.322299e-01 1.667406e-01 2.407379e-01 3.633234e-01 2.803921e-01 2.617109e-01 4.438890e-01 4.442060e-01 4.620867e-01 4.057022e-01 4.022245e-01 5.617070e-01 8.490535e-02
<GCONST> 9.940721e+01
<STATE> 3
<MEAN> 39
 -5.132563e+00 9.762977e-01 -4.890829e+00 -9.820783e-01 -1.650845e+00 -2.799738e+00 -3.537588e+00 -1.222611e+00 -1.905459e+00 -4.419622e-01 -4.054001e+00 -1.694118e+00 5.204404e+01 -6.499677e-01 -3.186478e-01 -2.860713e-01 -3.839775e-01 8.421822e-02 -4.810595e-01 -5.697884e-02 2.601118e-01 -2.323659e-01 2.479136e-01 -1.138041e-01 -1.216147e-01 1.782880e-01 1.055574e-01 -5.345333e-02 5.358456e-02 -1.366211e-01 2.636430e-02 -5.107290e-02 -1.987594e-01 8.685476e-02 -8.303758e-02 -2.340443e-03 1.247777e-02 3.413063e-02 3.306940e-01
<VARIANCE> 39
 1.174750e+01 1.103755e+01 1.438497e+01 1.535266e+01 1.429244e+01 1.266400e+01 1.525896e+01 3.312188e+01 2.703337e+01 2.704536e+01 1.661275e+01 1.459737e+01 9.104948e+00 9.598454e-01 1.069106e+00 1.643536e+00 1.903254e+00 1.816386e+00 1.341434e+00 1.636342e+00 2.932110e+00 3.002366e+00 1.818809e+00 1.674463e+00 1.796223e+00 6.696824e-01 2.411960e-01 1.586053e-01 3.136974e-01 2.281220e-01 3.416217e-01 3.283326e-01 3.509461e-01 4.850794e-01 4.847387e-01 3.472880e-01 2.623163e-01 3.126754e-01 1.618538e-01
<GCONST> 9.771810e+01
<STATE> 4
<MEAN> 39
 -7.236680e+00 4.141289e-02 -5.284456e+00 -3.050768e+00 1.980640e-01 -5.129293e+00 -4.225863e+00 1.114550e+00 -1.411224e+00 7.506721e-01 -3.796025e+00 -1.910264e+00 5.428850e+01 -2.341513e-01 -1.411164e-01 -1.674791e-02 -6.037408e-01 1.791450e-01 -3.386163e-01 -7.219886e-01 3.927695e-01 -9.727453e-02 4.127984e-02 5.836773e-02 -1.813621e-02 8.845739e-01 3.161219e-01 1.201682e-02 7.869262e-02 -7.060473e-02 -1.840400e-01 1.581084e-01 -2.153715e-01 7.830642e-02 2.605194e-02 -7.544014e-02 -4.704837e-04 -2.248213e-02 1.916507e-01
<VARIANCE> 39
 3.457476e+01 3.583921e+01 3.242260e+01 3.736725e+01 2.865160e+01 3.504266e+01 3.034429e+01 4.213439e+01 4.326353e+01 3.030174e+01 2.122501e+01 1.613070e+01 1.646272e+01 2.948182e+00 2.578764e+00 3.360383e+00 2.280769e+00 2.144322e+00 2.524274e+00 2.796953e+00 2.852657e+00 2.784218e+00 2.376394e+00 1.983080e+00 1.850667e+00 1.876063e+00 3.253611e-01 4.954689e-01 5.759522e-01 4.727005e-01 4.764755e-01 5.849647e-01 5.918407e-01 7.361157e-01 7.077525e-01 5.663202e-01 3.333446e-01 3.846370e-01 4.390824e-01
<GCONST> 1.184035e+02
<TRANSP> 5
 0.000000e+00 1.000000e+00 0.000000e+00 0.000000e+00 0.000000e+00
 0.000000e+00 3.837769e-01 6.162231e-01 0.000000e+00 0.000000e+00
 0.000000e+00 0.000000e+00 3.687122e-01 6.312878e-01 0.000000e+00
 0.000000e+00 0.000000e+00 0.000000e+00 5.312204e-01 4.687796e-01
 0.000000e+00 0.000000e+00 0.000000e+00 0.000000e+00 0.000000e+00
<ENDHMM>
~h "j"
<BEGINHMM>
<NUMSTATES> 5
<STATE> 2
<MEAN> 39
 5.001054e-01 7.009411e+00 9.785106e+00 -5.112100e+00 -1.070397e+01 -6.175412e+00 -9.758089e+00 -5.129594e+00 -9.957170e+00 2.544374e+00 -2.803303e+00 -3.645210e+00 6.477717e+01 6.098320e-01 5.943441e-01 -9.804584e-01 8.760757e-01 9.467731e-01 6.339518e-01 7.790715e-01 -1.038976e+00 7.145110e-01 4.175420e-01 -5.619438e-01 -1.910133e-01 -1.125781e+00 3.691041e-02 -1.856496e-01 -2.210435e-01 8.905862e-02 2.006868e-01 1.302305e-01 -1.594242e-01 6.313118e-02 1.855903e-01 -2.633827e-01 -1.413548e-02 8.652275e-02 2.970413e-02
<VARIANCE> 39
 1.397147e+01 1.977013e+01 4.121268e+01 5.299701e+01 4.427187e+01 5.053357e+01 3.218209e+01 5.065757e+01 1.061233e+02 2.704411e+01 3.761419e+01 3.166257e+01 8.105638e+00 1.433239e+00 1.318116e+00 1.413861e+00 2.003411e+00 4.550553e+00 2.649059e+00 1.384986e+00 2.401898e+00 3.375151e+00 3.312833e+00 2.432506e+00 1.620275e+00 7.061651e-01 2.345971e-01 2.196109e-01 3.099343e-01 4.132317e-01 7.375228e-01 3.856041e-01 2.818891e-01 4.817291e-01 4.992879e-01 3.845024e-01 5.205830e-01 3.019420e-01 1.588850e-01
<GCONST> 1.124254e+02
<STATE> 3
<MEAN> 39
 3.927721e+00 6.846303e+00 1.877922e+00 -2.386584e+00 -8.626134e+00 -6.388743e+00 -1.352258e+01 -1.392908e+01 -8.525340e+00 -5.627154e+00 -1.024820e+01 -4.548790e+00 6.054299e+01 -2.007825e-01 -1.163477e-01 -2.968944e-02 6.918880e-01 4.804349e-01 6.096555e-01 -1.653168e-02 5.535338e-02 2.444892e-01 -7.402148e-01 3.298680e-01 4.006708e-01 -8.978133e-01 -2.524939e-01 -2.832552e-01 8.460983e-02 -2.241571e-01 -8.044322e-03 5.891526e-02 1.473905e-01 5.241237e-01 -2.643084e-02 2.471077e-01 2.111731e-01 2.038730e-02 7.393853e-02
<VARIANCE> 39
 5.975557e+00 2.178520e+01 1.828234e+01 2.370237e+01 2.791238e+01 4.096306e+01 5.976726e+01 5.696093e+01 3.005599e+01 7.130988e+01 4.659443e+01 4.128477e+01 1.102874e+01 6.020636e-01 1.339702e+00 8.835297e-01 1.380802e+00 2.023109e+00 1.891134e+00 1.413175e+00 3.214319e+00 3.893620e+00 2.042955e+00 2.635376e+00 1.917856e+00 4.274380e-01 8.464330e-02 1.186265e-01 1.581228e-01 1.512657e-01 3.825578e-01 4.251935e-01 3.350464e-01 3.019992e-01 5.072002e-01 2.109192e-01 1.994893e-01 3.516587e-01 5.607539e-02
<GCONST> 1.008936e+02
<STATE> 4
<MEAN> 39
 1.889297e+00 4.913017e+00 1.966563e+00 1.727488e+00 -2.118822e+00 -8.361899e-01 -7.038134e+00 -5.239538e+00 -2.133168e+00 1.478459e+00 -1.576967e+00 -1.690065e+00 5.844961e+01 -8.249614e-01 -1.943886e-01 -5.597785e-01 3.339619e-01 9.684770e-01 6.557831e-01 6.782652e-01 9.518288e-01 3.620673e-01 -2.463543e-02 1.616139e-01 -1.189651e-01 -8.376698e-01 -1.427342e-01 -4.132432e-02 -9.670607e-02 -1.308651e-01 -1.092947e-01 -1.707945e-01 4.460639e-02 -6.847907e-02 -8.161132e-02 -1.648384e-02 -1.945677e-01 -1.005128e-01 -1.261762e-02
<VARIANCE> 39
 8.977877e+00 2.885866e+01 2.103446e+01 2.538401e+01 2.861012e+01 2.650168e+01 4.751606e+01 6.037251e+01 3.539541e+01 3.396874e+01 3.181084e+01 1.858755e+01 8.710741e+00 3.420078e-01 9.749645e-01 7.056185e-01 1.005844e+00 7.745671e-01 2.184850e+00 1.847066e+00 2.230347e+00 1.241277e+00 1.169492e+00 1.895152e+00 1.913969e+00 2.452967e-01 6.165251e-02 1.782173e-01 1.501592e-01 1.761995e-01 2.136946e-01 3.843463e-01 2.174817e-01 3.073875e-01 3.329259e-01 2.699231e-01 4.536187e-01 3.835306e-01 5.791264e-02
<GCONST> 9.414774e+01
<TRANSP> 5
 0.000000e+00 1.000000e+00 0.000000e+00 0.000000e+00 0.000000e+00
 0.000000e+00 7.743461e-01 2.256539e-01 0.000000e+00 0.000000e+00
 0.000000e+00 0.000000e+00 7.261209e-01 2.738791e-01 0.000000e+00
 0.000000e+00 0.000000e+00 0.000000e+00 7.852998e-01 2.147002e-01
 0.000000e+00 0.000000e+00 0.000000e+00 0.000000e+00 0.000000e+00
<ENDHMM>
~h "k"
<BEGINHMM>
<NUMSTATES> 5
<STATE> 2
<MEAN> 39
 5.157243e+00 -4.900973e+00 -9.329668e+00 -1.585969e+01 -6.314988e+00 2.173137e+00 -1.574510e+01 1.090628e+01 -5.694987e+00 6.817726e+00 -1.219207e+01 -3.521213e+00 7.298623e+01 -5.084784e-02 -3.423465e-01 -1.041849e-01 8.871077e-02 2.616154e-01 -1.156743e-01 1.032407e-01 4.709496e-01 -1.401426e-02 5.751888e-02 -5.627081e-01 -5.208207e-02 3.633305e-01 -1.691662e-02 8.577041e-02 4.296910e-02 1.111772e-01 -8.473568e-02 -8.874458e-02 2.622505e-02 -1.131575e-01 2.312155e-02 -2.457108e-02 9.478195e-02 1.280321e-01 -8.007073e-02
<VARIANCE> 39
 1.240714e+01 4.300982e+01 2.286746e+01 6.182468e+01 4.286229e+01 8.982298e+01 7.520498e+01 5.560826e+01 6.142175e+01 4.620224e+01 5.973193e+01 3.782011e+01 3.773976e+01 5.170980e-01 1.503219e+00 1.324512e+00 3.848221e+00 2.698791e+00 4.700521e+00 3.135435e+00 2.954994e+00 2.715146e+00 2.543008e+00 2.747441e+00 2.393080e+00 1.624052e+00 5.859443e-02 2.075319e-01 2.009768e-01 5.900596e-01 4.240400e-01 6.121696e-01 4.554583e-01 4.532175e-01 3.786671e-01 3.364991e-01 4.526253e-01 3.793035e-01 1.711770e-01
<GCONST> 1.164978e+02
<STATE> 3
<MEAN> 39
 1.286961e+00 -1.292257e+00 -3.277050e+00 -1.018483e+01 -9.901320e+00 -1.025568e+01 -1.108195e+01 1.017003e+01 -4.923622e+00 2.149631e+00 -1.221770e+01 6.913992e-01 7.006602e+01 -4.661436e-01 1.274809e+00 1.116750e+00 8.074802e-01 -5.170314e-01 -2.196020e-01 1.927627e-01 -1.791288e+00 1.989532e-03 -7.340103e-01 1.574876e+00 7.055493e-01 -9.503010e-01 1.292549e-01 -6.142453e-02 4.669192e-02 -1.790112e-01 3.820196e-01 3.100355e-01 -1.151876e-01 -1.739746e-01 3.376523e-02 3.267356e-02 1.836270e-01 -4.698634e-01 1.543988e-02
<VARIANCE> 39
 3.010493e+01 2.538766e+01 5.307587e+01 4.025830e+01 6.394807e+01 5.296950e+01 4.206614e+01 9.229736e+01 6.103610e+01 4.272864e+01 4.479630e+01 3.288514e+01 6.057191e+01 1.146448e+00 1.812353e+00 3.190428e+00 2.290960e+00 3.734409e+00 4.337739e+00 2.462775e+00 5.691842e+00 4.882852e+00 4.378424e+00 3.434644e+00 4.260131e+00 2.020068e+00 3.704536e-01 3.075359e-01 3.638659e-01 3.171716e-01 4.565381e-01 5.066316e-01 4.566805e-01 1.246807e+00 6.400098e-01 7.123192e-01 7.390687e-01 5.154369e-01 4.620290e-01
<GCONST> 1.273535e+02
<STATE> 4
<MEAN> 39
 -9.537598e-01 4.322401e+00 -3.114376e+00 -9.777219e+00 -6.363248e+00 -6.180741e+00 -1.346942e+01 -3.312276e+00 -6.110107e+00 1.806199e+00 -3.351411e+00 2.436731e-02 6.411922e+01 2.331316e-02 2.275001e-02 3.727045e-01 -9.114721e-02 -8.004597e-02 -1.576890e-01 -1.029330e-01 -4.425863e-02 -2.102253e-02 9.919888e-02 2.014834e-02 1.191330e-01 2.905594e-01 -9.601945e-03 -5.694868e-02 3.332452e-02 -3.361427e-02 -5.550614e-02 1.054267e-02 1.153850e-02 7.378986e-02 3.364934e-02 -1.455350e-02 -5.174059e-02 -1.653842e-02 1.337208e-02
<VARIANCE> 39
 6.521676e+01 3.558119e+01 6.749590e+01 5.036528e+01 6.078204e+01 8.588301e+01 6.774573e+01 6.183200e+01 4.100280e+01 5.037834e+01 4.983885e+01 1.903228e+01 5.424010e+01 5.946111e+00 4.161938e+00 5.511412e+00 5.536013e+00 4.919652e+00 5.761978e+00 7.435528e+00 6.013509e+00 3.495703e+00 4.587296e+00 3.114107e+00 2.289274e+00 5.672782e+00 9.973217e-01 8.471123e-01 9.894125e-01 1.069262e+00 8.947994e-01 1.050143e+00 1.291869e+00 1.147971e+00 6.823674e-01 9.201971e-01 5.831657e-01 4.765920e-01 9.376682e-01
<GCONST> 1.415959e+02
<TRANSP> 5
 0.000000e+00 1.000000e+00 0.000000e+00 0.000000e+00 0.000000e+00
 0.000000e+00 9.157934e-01 8.420663e-02 0.000000e+00 0.000000e+00
 0.000000e+00 0.000000e+00 6.540396e-01 3.459604e-01 0.000000e+00
 0.000000e+00 0.000000e+00 0.000000e+00 9.302466e-01 6.975342e-02
 0.000000e+00 0.000000e+00 0.000000e+00 0.000000e+00 0.000000e+00
<ENDHMM>
~h "l"
<BEGINHMM>
<NUMSTATES> 5
<STATE> 2
<MEAN> 39
 -7.500886e+00 -1.972170e+00 -7.364389e+00 -6.916067e+00 -4.315135e+00 -6.318546e+00 -6.584961e+00 -5.217499e-02 -3.418769e+00 -7.353388e-01 -3.429906e+00 -8.747804e-01 5.251896e+01 -1.827051e-02 2.717705e-01 2.599396e-01 2.626142e-01 3.339742e-01 2.937346e-01 1.774064e-01 5.057034e-01 2.041079e-01 -1.927553e-01 1.737369e-01 3.531904e-01 1.019537e-01 1.065751e-01 8.069433e-02 1.491411e-02 1.594523e-01 2.639802e-02 1.724518e-01 1.531068e-01 -5.423960e-02 4.789434e-02 3.081939e-02 4.619516e-02 -5.272175e-02 -7.235910e-02
<VARIANCE> 39
 4.033240e+01 2.184840e+01 3.260109e+01 2.018657e+01 2.128636e+01 2.817371e+01 2.622890e+01 4.091579e+01 3.332074e+01 2.468939e+01 2.681326e+01 2.503990e+01 3.094464e+01 2.815341e+00 1.119961e+00 2.442059e+00 1.696745e+00 2.216288e+00 2.335051e+00 1.489670e+00 4.039172e+00 1.701311e+00 2.092417e+00 1.905967e+00 1.184666e+00 1.492761e+00 5.839055e-01 2.622786e-01 5.896273e-01 3.202885e-01 5.362666e-01 4.963821e-01 3.497729e-01 1.050875e+00 2.833478e-01 4.982674e-01 3.631473e-01 2.949353e-01 3.160636e-01
<GCONST> 1.122590e+02
<STATE> 3
<MEAN> 39
 -5.260848e+00 -3.374016e+00 -4.611341e+00 -4.716893e+00 -5.348289e+00 -3.801630e+00 -5.088580e+00 1.529534e+00 -4.627803e+00 -2.686970e+00 -7.514520e-01 -8.730686e-01 5.287561e+01 2.294879e-01 2.987090e-01 3.179004e-02 3.100030e-01 1.490021e-01 2.512776e-01 5.331945e-01 -9.070790e-02 1.797548e-01 6.153163e-02 1.130819e-01 1.026953e-01 -2.676947e-01 -1.628318e-02 1.805976e-02 -2.286487e-02 -5.194396e-04 2.677582e-03 -5.589611e-02 5.819291e-02 -1.429953e-02 2.452445e-02 8.747031e-02 -2.360949e-02 -5.689492e-02 -3.505610e-02
<VARIANCE> 39
 1.702923e+01 2.699242e+01 1.480222e+01 2.158941e+01 2.141986e+01 3.205239e+01 2.566364e+01 2.061485e+01 2.915335e+01 2.054979e+01 3.315961e+01 2.498557e+01 1.877958e+01 4.306201e-01 9.230426e-01 8.525411e-01 9.608679e-01 1.190116e+00 3.372348e+00 1.976822e+00 1.675892e+00 1.713444e+00 1.631847e+00 2.088713e+00 2.622112e+00 3.236015e-01 8.079449e-02 1.381262e-01 1.324222e-01 1.709442e-01 1.690024e-01 6.958487e-01 4.174202e-01 3.402257e-01 3.482670e-01 3.044664e-01 4.660988e-01 5.779012e-01 4.599435e-02
<GCONST> 9.648039e+01
<STATE> 4
<MEAN> 39
 -5.460433e+00 -2.470572e-01 -5.333904e+00 -1.220670e+00 -2.422731e+00 -3.406319e+00 -2.908684e+00 1.616260e+00 -1.930925e+00 -1.472962e+00 -2.715842e+00 9.226724e-01 4.920408e+01 1.571996e-02 1.869698e-02 -1.078571e-02 5.119326e-02 5.415329e-02 -3.755051e-02 -1.900896e-02 -5.180131e-02 -3.812435e-02 -1.530652e-02 -5.940205e-02 -6.803261e-02 -2.932050e-02 -2.133302e-02 -4.371563e-02 -8.988779e-03 -4.462208e-02 -6.414733e-03 -5.441536e-02 -3.692565e-02 -1.044847e-02 -1.279887e-02 7.153169e-03 -1.973766e-02 1.287917e-02 3.161380e-02
<VARIANCE> 39
 9.607557e+00 5.890163e+00 1.253101e+01 1.112637e+01 1.206944e+01 1.890048e+01 1.881072e+01 1.927396e+01 1.642264e+01 2.052978e+01 1.373340e+01 1.335096e+01 9.289005e+00 3.628175e-01 3.458207e-01 5.539968e-01 7.952043e-01 1.040514e+00 1.246978e+00 1.179704e+00 1.677209e+00 1.431074e+00 1.519593e+00 1.103910e+00 9.743831e-01 2.104506e-01 7.187707e-02 7.941721e-02 1.058922e-01 1.625257e-01 2.342172e-01 2.742349e-01 2.518228e-01 3.570236e-01 2.909285e-01 3.216742e-01 1.963490e-01 2.003186e-01 3.590776e-02
<GCONST> 7.925929e+01
<TRANSP> 5
 0.000000e+00 1.000000e+00 0.000000e+00 0.000000e+00 0.000000e+00
 0.000000e+00 6.428589e-01 3.571411e-01 0.000000e+00 0.000000e+00
 0.000000e+00 0.000000e+00 7.031940e-01 2.968060e-01 0.000000e+00
 0.000000e+00 0.000000e+00 0.000000e+00 9.216557e-01 7.834432e-02
 0.000000e+00 0.000000e+00 0.000000e+00 0.000000e+00 0.000000e+00
<ENDHMM>
~h "m"
<BEGINHMM>
<NUMSTATES> 5
<STATE> 2
<MEAN> 39
 4.470140e+00 4.627556e+00 3.095659e+00 -2.085220e+00 -1.134423e+01 -6.292496e+00 -1.308115e+01 -1.097855e+01 -5.803051e+00 5.627073e-01 -8.166409e+00 -3.133194e+00 6.260238e+01 1.240786e-01 -3.371504e-02 -1.700380e-01 9.135417e-01 3.561657e-01 4.081349e-01 -3.401290e-02 -3.490214e-01 4.578773e-01 -9.800211e-01 1.712292e-01 3.742139e-01 -7.737160e-01 -3.539894e-01 -1.136755e-01 2.475113e-01 -3.849227e-01 9.291430e-02 1.565442e-01 5.391635e-02 2.976572e-01 -1.175367e-01 -3.898623e-02 6.934793e-02 -3.292459e-02 8.918525e-02
<VARIANCE> 39
 6.412749e+00 1.736064e+01 4.316608e+01 2.731411e+01 4.322038e+01 4.147993e+01 5.481117e+01 8.688127e+01 7.514828e+01 7.060554e+01 5.343458e+01 2.706744e+01 1.167784e+01 9.071811e-01 1.566923e+00 1.270460e+00 2.021592e+00 1.941973e+00 1.913628e+00 2.093955e+00 2.803968e+00 3.041109e+00 2.119568e+00 2.775475e+00 1.817253e+00 5.605686e-01 1.187979e-01 1.869110e-01 3.708128e-01 2.936222e-01 4.574608e-01 3.904474e-01 3.800655e-01 4.838124e-01 5.835885e-01 3.216239e-01 3.355516e-01 3.089064e-01 9.679113e-02
<GCONST> 1.092979e+02
<STATE> 3
<MEAN> 39
 2.873928e+00 6.195615e+00 3.059637e+00 -2.420595e-01 -3.749097e+00 -1.183002e+00 -8.098383e+00 -5.443078e+00 -4.423597e+00 1.028354e-01 -4.674713e+00 -1.745057e+00 5.963815e+01 -6.920108e-01 -1.030183e-01 -2.571227e-01 4.704669e-01 8.425906e-01 5.781373e-01 5.211489e-01 7.669253e-01 2.962804e-01 -2.097716e-01 -1.010842e-01 1.573690e-01 -7.849535e-01 -1.267302e-01 -9.927119e-02 -1.365646e-01 -9.327211e-02 -1.114675e-01 -1.372145e-01 9.461971e-02 7.796070e-02 9.185936e-03 1.336667e-01 7.421898e-02 -8.766770e-02 3.511964e-03
<VARIANCE> 39
 6.313677e+00 2.156421e+01 3.588682e+01 3.051379e+01 4.677861e+01 4.566444e+01 4.296157e+01 7.320513e+01 5.313503e+01 3.216117e+01 3.928286e+01 2.084922e+01 1.424540e+01 4.184971e-01 7.836691e-01 9.607152e-01 9.005068e-01 1.187412e+00 1.970719e+00 1.253955e+00 1.268687e+00 1.441603e+00 1.688263e+00 1.635804e+00 1.758836e+00 2.247213e-01 3.874578e-02 1.839464e-01 1.211714e-01 1.344476e-01 2.245139e-01 3.795090e-01 2.855800e-01 1.980864e-01 2.774245e-01 2.416160e-01 3.831762e-01 3.300555e-01 5.180176e-02
<GCONST> 9.449939e+01
<STATE> 4
<MEAN> 39
 -2.153335e+00 3.334568e+00 3.650265e-01 4.207833e-01 -1.372447e+00 -2.446712e+00 -5.560576e+00 -6.666173e-01 -3.564176e-01 -1.086955e+00 -2.699244e+00 -8.782758e-01 5.478949e+01 -4.006197e-01 -3.332350e-01 -4.607322e-01 -2.240813e-01 7.118773e-02 -1.397860e-01 2.696122e-01 2.686410e-01 1.354580e-01 3.774738e-02 -6.943423e-02 -7.787092e-02 -3.787026e-01 5.221858e-02 3.416923e-02 3.242015e-03 -3.658465e-02 -5.220260e-02 -6.137171e-02 -3.497312e-03 -6.969826e-02 -5.553427e-02 4.469520e-02 -3.042634e-02 3.935135e-03 2.896505e-02
<VARIANCE> 39
 7.600729e+00 1.826216e+01 3.475237e+01 2.418258e+01 3.550373e+01 1.939655e+01 3.690633e+01 4.802916e+01 3.765100e+01 3.494508e+01 2.742599e+01 1.991057e+01 1.420428e+01 4.111497e-01 6.930993e-01 1.372323e+00 1.270358e+00 1.049068e+00 1.810356e+00 1.923949e+00 2.004349e+00 1.873117e+00 1.709219e+00 1.315696e+00 1.357770e+00 2.171723e-01 4.848675e-02 9.091324e-02 1.941325e-01 2.163927e-01 1.549486e-01 2.373663e-01 2.669428e-01 3.318722e-01 3.279234e-01 2.729037e-01 2.939090e-01 2.653154e-01 2.328940e-02
<GCONST> 9.196042e+01
<TRANSP> 5
 0.000000e+00 1.000000e+00 0.000000e+00 0.000000e+00 0.000000e+00
 0.000000e+00 6.486069e-01 3.513931e-01 0.000000e+00 0.000000e+00
 0.000000e+00 0.000000e+00 6.618686e-01 3.381314e-01 0.000000e+00
 0.000000e+00 0.000000e+00 0.000000e+00 7.998008e-01 2.001993e-01
 0.000000e+00 0.000000e+00 0.000000e+00 0.000000e+00 0.000000e+00
<ENDHMM>
~h "n"
<BEGINHMM>
<NUMSTATES> 5
<STATE> 2
<MEAN> 39
 3.383814e-01 1.481962e+00 -6.759065e+00 -1.148253e+01 -5.344737e+00 -8.546453e+00 -1.385632e+01 -6.151845e+00 -4.460483e+00 -4.985758e-01 -4.476936e+00 -7.096345e-01 6.745777e+01 -3.099889e-01 -2.268076e-01 4.583279e-01 -2.777255e-01 1.168024e-01 -3.002744e-01 -1.253188e-01 2.358517e-01 -5.335391e-02 4.818455e-01 1.699106e-02 -8.304884e-02 6.969491e-01 3.099990e-02 -2.812792e-02 9.284602e-02 -1.372887e-01 -2.718921e-02 8.177325e-02 3.778934e-02 1.265916e-01 -3.916668e-02 -3.621935e-02 -1.173885e-02 -3.423011e-02 2.936279e-03
<VARIANCE> 39
 6.932690e+01 4.600047e+01 7.081812e+01 8.321510e+01 6.619844e+01 6.232315e+01 7.005103e+01 3.856462e+01 7.839928e+01 4.595914e+01 3.810837e+01 3.656122e+01 6.582829e+01 5.109107e+00 3.020732e+00 6.599405e+00 7.406849e+00 4.629435e+00 6.629454e+00 7.861312e+00 4.452879e+00 7.290661e+00 5.527189e+00 3.796811e+00 4.101824e+00 5.951567e+00 8.325824e-01 5.680758e-01 9.651213e-01 1.272320e+00 9.566833e-01 1.295131e+00 1.367036e+00 8.217552e-01 1.271773e+00 1.077235e+00 6.615341e-01 6.977171e-01 9.617913e-01
<GCONST> 1.453897e+02
<STATE> 3
<MEAN> 39
 9.357121e-01 -3.039420e-01 2.826622e+00 -1.324962e+01 -7.248705e+00 -6.113737e+00 -1.413346e+01 9.134943e-01 -6.309754e+00 4.704972e+00 -7.177497e+00 -3.677228e+00 7.222810e+01 7.892465e-02 1.358410e-02 3.612095e-01 5.170494e-01 -1.032343e-01 -2.261920e-01 4.376083e-02 -1.200911e-03 -3.657227e-01 -2.969643e-01 2.127013e-01 8.907223e-02 -2.158619e-01 4.721363e-02 1.260847e-01 -1.657178e-01 2.660826e-01 -1.421930e-02 3.872050e-02 3.301559e-02 -1.822706e-01 7.720805e-02 -1.963858e-01 8.133467e-02 2.142319e-02 -2.030589e-01
<VARIANCE> 39
 2.700805e+01 4.142697e+01 1.049745e+02 8.702875e+01 8.673287e+01 7.375089e+01 3.203482e+01 1.780290e+02 1.403813e+02 2.128367e+01 4.178309e+01 3.261247e+01 3.078457e+01 1.644073e+00 1.792406e+00 3.603513e+00 5.448750e+00 2.953590e+00 3.251975e+00 2.878043e+00 4.115551e+00 3.826083e+00 2.556015e+00 3.201158e+00 2.679201e+00 1.886705e+00 2.811598e-01 2.762695e-01 6.049035e-01 6.361346e-01 5.351260e-01 6.112431e-01 5.626466e-01 6.557279e-01 7.838448e-01 3.207081e-01 5.756617e-01 5.750178e-01 3.022073e-01
<GCONST> 1.284245e+02
<STATE> 4
<MEAN> 39
 -2.724205e+00 -4.465542e+00 3.571338e+00 -1.316193e+01 -1.029659e+01 -9.456334e+00 -7.221512e+00 -4.191130e+00 -3.399868e+00 -7.667692e+00 -4.189831e+00 -1.830576e+00 7.539391e+01 4.361560e-01 1.124273e-01 4.593429e-01 1.496118e-01 -7.493950e-01 4.753365e-01 -1.182150e-01 -5.304188e-01 -3.587618e-02 -7.505083e-02 3.883009e-02 -3.163208e-01 -3.405173e-01 2.219487e-02 1.814010e-01 -1.230122e-01 5.164351e-02 1.460533e-01 8.530140e-02 8.414227e-02 -6.853323e-02 6.451073e-02 2.910163e-01 -1.979245e-01 -1.350385e-01 -2.066787e-01
<VARIANCE> 39
 1.274593e+01 7.878408e+01 1.306732e+02 8.166862e+01 7.772816e+01 2.688281e+01 6.873660e+01 2.686304e+01 7.180308e+01 8.257040e+01 4.548108e+01 1.607218e+01 3.049268e+01 1.211429e+00 2.267041e+00 2.114610e+00 1.695020e+00 2.433367e+00 1.704924e+00 3.498294e+00 1.523338e+00 1.908813e+00 4.922961e+00 1.177760e+00 2.063426e+00 8.868042e-01 2.733194e-01 1.620494e-01 2.383948e-01 4.098391e-01 3.540702e-01 2.785859e-01 4.489561e-01 1.740629e-01 4.602885e-01 5.948495e-01 3.627839e-01 2.024655e-01 9.674751e-02
<GCONST> 1.135704e+02
<TRANSP> 5
 0.000000e+00 1.000000e+00 0.000000e+00 0.000000e+00 0.000000e+00
 0.000000e+00 8.939450e-01 1.060550e-01 0.000000e+00 0.000000e+00
 0.000000e+00 0.000000e+00 8.597503e-01 1.402497e-01 0.000000e+00
 0.000000e+00 0.000000e+00 0.000000e+00 7.746736e-01 2.253264e-01
 0.000000e+00 0.000000e+00 0.000000e+00 0.000000e+00 0.000000e+00
<ENDHMM>
~h "p"
<BEGINHMM>
<NUMSTATES> 5
<STATE> 2
<MEAN> 39
 -1.352176e+00 3.419729e+00 -1.162609e+00 -1.172919e+00 -5.440360e+00 -5.775195e+00 -7.045249e+00 -4.172353e+00 -6.998691e+00 3.717203e-01 -3.197639e+00 -3.076173e+00 5.928359e+01 -2.668674e-01 -2.074165e-01 -4.946941e-01 3.454009e-01 8.737608e-01 3.139871e-01 3.992641e-01 5.402955e-01 8.028785e-01 -1.858181e-01 -2.011238e-01 3.311844e-01 -2.106065e-01 -1.045981e-01 -1.680824e-01 1.005244e-01 -6.428243e-02 6.212764e-02 1.879620e-01 4.904003e-02 2.930667e-01 7.776029e-02 3.776475e-02 -9.560551e-02 3.961203e-02 4.017645e-02
<VARIANCE> 39
 3.402759e+01 3.681313e+01 5.135838e+01 4.792897e+01 2.472055e+01 5.414871e+01 3.090907e+01 6.928556e+01 5.225014e+01 3.577577e+01 2.783596e+01 2.224883e+01 6.485037e+01 9.627581e-01 8.701438e-01 2.000502e+00 1.865211e+00 1.808170e+00 1.587594e+00 9.890518e-01 2.889811e+00 2.054075e+00 2.046917e+00 2.596351e+00 1.977201e+00 9.970092e-01 1.253519e-01 1.925624e-01 3.208826e-01 3.109975e-01 2.073787e-01 4.136951e-01 2.649038e-01 3.195620e-01 3.091161e-01 3.200217e-01 4.313891e-01 3.264154e-01 1.034010e-01
<GCONST> 1.084383e+02
<STATE> 3
<MEAN> 39
 -5.167778e+00 -2.113482e+00 -2.862102e+00 -6.471604e-01 -5.319848e+00 -3.936315e+00 -5.576612e+00 -5.809235e-01 1.269514e-01 -1.662854e+00 -4.963995e+00 -7.288443e-01 5.334867e+01 -1.942958e-01 -2.673759e-01 -1.179375e-01 1.648624e-01 4.057465e-01 2.010118e-01 1.593301e-01 2.862821e-01 2.680124e-03 -1.596012e-01 -3.008615e-01 2.951805e-02 8.813249e-02 -7.907677e-03 4.672610e-02 1.615157e-02 -6.246649e-02 -8.034896e-02 -3.852047e-02 -2.756592e-02 -8.743618e-02 -4.931154e-02 1.279909e-01 1.492918e-01 6.740075e-04 1.951250e-02
<VARIANCE> 39
 1.274687e+01 1.836241e+01 2.732175e+01 4.336479e+01 3.072168e+01 3.542038e+01 1.282242e+01 2.134454e+01 2.751817e+01 4.819073e+01 1.651752e+01 2.730631e+01 3.891417e+01 4.163236e-01 7.589172e-01 1.103818e+00 1.178127e+00 1.029435e+00 1.196922e+00 1.407448e+00 1.760397e+00 1.768254e+00 1.583638e+00 1.472433e+00 1.719487e+00 4.854999e-01 8.961538e-02 1.125114e-01 1.586997e-01 2.210432e-01 2.248893e-01 2.274564e-01 2.080451e-01 3.281433e-01 2.767674e-01 3.128128e-01 3.679508e-01 4.536531e-01 8.406214e-02
<GCONST> 9.492254e+01
<STATE> 4
<MEAN> 39
 -1.133063e+01 -3.410224e+00 -2.392146e+00 -3.168622e+00 -5.864359e+00 -8.172323e+00 -3.220017e+00 -1.955409e-01 5.947025e-01 1.558789e-01 -6.076801e+00 -1.493555e-01 6.020174e+01 -5.309162e-02 -2.584472e-01 -4.436398e-03 -1.950540e-01 -4.478350e-02 -1.625493e-01 7.168016e-02 3.203462e-01 2.032041e-01 1.093065e-01 1.294270e-01 1.226922e-01 1.041864e-01 6.960930e-02 9.934865e-04 -4.237362e-02 -1.815157e-02 -5.141954e-02 2.380193e-02 -9.529713e-02 7.300610e-04 -2.273441e-02 -6.688222e-02 3.408503e-02 -4.070754e-02 -6.867027e-02
<VARIANCE> 39
 3.041442e+01 2.283949e+01 2.269394e+01 3.445300e+01 2.714441e+01 3.425927e+01 3.667352e+01 4.260776e+01 2.898100e+01 3.163312e+01 2.103456e+01 1.725112e+01 4.978595e+01 1.924782e+00 1.142630e+00 1.438393e+00 1.935645e+00 1.622704e+00 2.443561e+00 2.941880e+00 3.850835e+00 2.934597e+00 2.640244e+00 2.505608e+00 1.669348e+00 2.239808e+00 3.900955e-01 2.208422e-01 2.522214e-01 2.957823e-01 3.711333e-01 4.809445e-01 5.716058e-01 7.853172e-01 6.880004e-01 5.067635e-01 5.696629e-01 3.673535e-01 3.106695e-01
<GCONST> 1.142377e+02
<TRANSP> 5
 0.000000e+00 1.000000e+00 0.000000e+00 0.000000e+00 0.000000e+00
 0.000000e+00 5.513339e-01 4.486661e-01 0.000000e+00 0.000000e+00
 0.000000e+00 0.000000e+00 6.986359e-01 3.013642e-01 0.000000e+00
 0.000000e+00 0.000000e+00 0.000000e+00 8.037047e-01 1.962953e-01
 0.000000e+00 0.000000e+00 0.000000e+00 0.000000e+00 0.000000e+00
<ENDHMM>
~h "r"
<BEGINHMM>
<NUMSTATES> 5
<STATE> 2
<MEAN> 39
 5.687007e+00 5.418120e+00 1.115082e+00 -1.536817e+01 -1.352581e+01 5.531676e-01 -1.630202e+01 -4.516927e-01 -1.111943e+01 -8.608932e-01 -1.923885e+00 3.034762e+00 6.800575e+01 1.731823e-02 -3.633325e-01 -7.571756e-01 -3.947536e-01 5.399024e-01 2.323290e-01 -1.501748e-02 4.169065e-01 4.830934e-01 3.806381e-01 -1.635357e-01 5.339201e-02 2.483854e-01 -1.179572e-01 -2.075107e-01 -1.029268e-01 1.091662e-01 3.184132e-01 -8.647930e-02 -1.329644e-01 1.116349e-01 1.577242e-01 2.792613e-01 -3.772283e-02 -2.122156e-01 8.924060e-02
<VARIANCE> 39
 2.059269e+01 2.275386e+01 9.112172e+01 7.379315e+01 3.165817e+01 1.279295e+02 5.169547e+01 8.515508e+01 5.488744e+01 3.076509e+01 4.976289e+01 2.644816e+01 2.641258e+01 2.710591e-01 9.988950e-01 7.739537e-01 1.257986e+00 1.523104e+00 1.392205e+00 1.590085e+00 1.792695e+00 1.323503e+00 2.322048e+00 1.496423e+00 1.154180e+00 6.024804e-01 3.482550e-02 1.448892e-01 1.133756e-01 1.683799e-01 1.923403e-01 2.471585e-01 3.470800e-01 2.496331e-01 1.901635e-01 3.438979e-01 1.686081e-01 1.789119e-01 7.628417e-02
<GCONST> 9.931145e+01
<STATE> 3
<MEAN> 39
 3.969838e+00 -1.825281e+00 -7.259171e+00 -1.721372e+01 -5.071308e+00 -1.411050e+00 -1.761721e+01 6.375107e+00 -3.988891e+00 6.418961e+00 -7.765643e+00 -1.244174e+00 7.422446e+01 -4.233706e-01 -1.018584e+00 -8.670899e-01 -9.339845e-02 9.224154e-01 -1.278202e-01 1.700256e-01 1.318384e+00 9.026370e-01 1.963780e-01 -1.658846e+00 -1.066744e+00 7.226608e-01 3.026115e-02 9.342107e-02 8.201955e-02 1.656340e-01 -1.835842e-01 -1.026323e-01 1.841425e-01 -8.472843e-02 -1.448508e-01 -2.769478e-01 -1.363023e-02 2.831403e-02 -1.109980e-01
<VARIANCE> 39
 1.055708e+01 2.451198e+01 3.630020e+01 5.935807e+01 3.373478e+01 7.531072e+01 4.283356e+01 1.483122e+02 5.141482e+01 3.562765e+01 1.241686e+02 2.762407e+01 3.519834e+01 3.125271e-01 7.147328e-01 7.859086e-01 1.820525e+00 1.422155e+00 2.595632e+00 2.281080e+00 1.664463e+00 1.265025e+00 2.100616e+00 2.035286e+00 2.294012e+00 4.243936e-01 3.585550e-02 7.567272e-02 6.560749e-02 1.592323e-01 1.432452e-01 3.509096e-01 2.795259e-01 2.879093e-01 2.365889e-01 1.774296e-01 4.783041e-01 2.851056e-01 4.989114e-02
<GCONST> 9.973820e+01
<STATE> 4
<MEAN> 39
 4.125128e+00 -9.129272e+00 -1.110670e+01 -1.214686e+01 -5.208433e+00 3.821887e-02 -1.875853e+01 1.190737e+01 8.004715e-01 3.670743e+00 -1.016238e+01 -8.876704e+00 7.748786e+01 4.935064e-03 -9.466006e-02 -1.609571e-02 1.491712e-01 -6.681976e-02 -1.620930e-01 9.146282e-02 8.993617e-02 1.265598e-01 -1.333480e-01 -1.330597e-01 2.090273e-03 -5.841310e-02 1.189020e-02 6.400975e-02 7.196715e-02 1.811110e-02 -3.943767e-02 -5.759431e-02 -1.092010e-02 -5.679544e-02 -2.817398e-02 3.943653e-02 1.019811e-01 7.778782e-02 -6.055403e-02
<VARIANCE> 39
 8.717915e+00 1.556331e+01 3.012697e+01 3.040396e+01 3.451265e+01 3.711595e+01 3.443820e+01 4.676325e+01 8.156849e+01 2.119151e+01 6.329537e+01 4.378194e+01 1.868374e+01 3.221027e-01 4.478841e-01 6.437632e-01 8.453510e-01 8.233885e-01 1.021007e+00 1.488276e+00 1.816176e+00 1.049858e+00 7.703025e-01 1.059909e+00 1.488022e+00 6.233916e-01 4.591057e-02 6.220591e-02 1.117462e-01 1.072788e-01 1.437421e-01 1.657149e-01 2.525355e-01 3.748051e-01 1.689707e-01 1.004325e-01 1.912568e-01 2.052166e-01 1.241901e-01
<GCONST> 8.852682e+01
<TRANSP> 5
 0.000000e+00 1.000000e+00 0.000000e+00 0.000000e+00 0.000000e+00
 0.000000e+00 7.690670e-01 2.309330e-01 0.000000e+00 0.000000e+00
 0.000000e+00 0.000000e+00 7.857130e-01 2.142871e-01 0.000000e+00
 0.000000e+00 0.000000e+00 0.000000e+00 9.267185e-01 7.328146e-02
 0.000000e+00 0.000000e+00 0.000000e+00 0.000000e+00 0.000000e+00
<ENDHMM>
~h "s"
<BEGINHMM>
<NUMSTATES> 5
<STATE> 2
<MEAN> 39
 -1.058537e+01 -1.242979e+00 -6.001458e+00 -5.291168e+00 -6.576082e+00 -5.056204e+00 -3.943052e+00 -8.800827e-01 -1.479444e+00 1.216560e+00 -5.190383e+00 -1.405120e+00 5.431344e+01 -1.273714e+00 1.407515e-01 4.691480e-01 -6.905988e-02 3.990437e-02 -4.134535e-01 2.518013e-01 4.494754e-01 -2.161471e-01 3.744223e-01 -1.194441e-01 4.936488e-01 1.110691e+00 -4.818242e-02 2.477095e-02 2.352022e-02 6.488154e-02 1.867943e-01 -1.281543e-01 -1.836952e-02 5.780547e-02 -2.977185e-02 -2.902942e-02 -2.943614e-02 -2.643146e-02 1.244586e-01
<VARIANCE> 39
 4.654627e+01 1.481199e+01 2.150596e+01 4.025288e+01 3.204257e+01 2.000862e+01 3.631614e+01 4.084910e+01 3.539803e+01 2.290062e+01 2.116434e+01 2.069180e+01 3.748353e+01 3.242886e+00 2.126575e+00 1.845735e+00 3.331281e+00 4.170094e+00 2.996458e+00 2.073740e+00 2.544451e+00 3.262220e+00 1.775122e+00 2.235053e+00 2.264490e+00 2.736682e+00 7.702420e-01 4.427416e-01 3.745798e-01 7.169807e-01 7.236626e-01 5.502397e-01 3.468710e-01 4.761160e-01 5.070145e-01 4.151492e-01 4.675591e-01 4.440051e-01 5.910711e-01
<GCONST> 1.186977e+02
<STATE> 3
<MEAN> 39
 -1.444632e+01 -1.559892e+00 -5.095503e+00 -4.291063e+00 -3.100428e+00 -1.090512e+01 -2.673069e+00 2.667088e+00 -1.821478e+00 1.613416e+00 -7.529410e+00 1.761258e+00 5.928578e+01 3.690194e-01 -2.522637e-02 -1.371337e-01 3.532504e-01 5.483388e-01 -5.543174e-02 -1.559561e-01 2.159911e-01 1.517661e-01 2.202108e-02 8.857841e-02 2.066377e-01 -2.221435e-01 4.918551e-01 -4.225037e-02 -5.871100e-02 -7.324050e-02 -1.607286e-01 2.068336e-01 -2.614198e-01 -8.628983e-02 7.769859e-02 3.832973e-03 7.949558e-02 -1.900764e-01 -1.706562e-01
<VARIANCE> 39
 5.428905e+01 6.171541e+01 4.454028e+01 2.334497e+01 3.116751e+01 4.411031e+01 4.044581e+01 3.657182e+01 4.815935e+01 2.546154e+01 2.969844e+01 1.561556e+01 2.637303e+01 4.756113e+00 2.053859e+00 1.778205e+00 1.617624e+00 1.863503e+00 4.156535e+00 2.451068e+00 3.167786e+00 2.718983e+00 2.625962e+00 1.515496e+00 8.395481e-01 2.172167e+00 6.409211e-01 3.593339e-01 4.571342e-01 3.418775e-01 5.483412e-01 1.058770e+00 4.520674e-01 5.993752e-01 5.393986e-01 5.331417e-01 2.780277e-01 2.478672e-01 4.882469e-01
<GCONST> 1.183922e+02
<STATE> 4
<MEAN> 39
 -5.782850e+00 -6.913177e-01 -5.274702e+00 -2.350090e+00 -2.408240e+00 -4.893037e+00 -4.118314e+00 1.129530e+00 -6.229257e-01 1.197146e+00 -3.337352e+00 -1.539394e+00 5.122510e+01 2.483577e-01 1.036271e-01 -2.531352e-03 -8.123881e-02 2.755816e-02 1.960762e-01 -1.777639e-01 -2.172761e-03 -1.730051e-02 -5.073475e-02 -3.131612e-03 -1.512615e-01 1.804920e-02 -7.122176e-02 -7.906277e-03 5.580401e-02 -6.943049e-02 4.384379e-03 -3.476774e-02 -5.037972e-02 5.006738e-02 -6.083892e-02 2.108360e-02 -2.517673e-02 -2.935122e-03 1.549173e-01
<VARIANCE> 39
 1.286720e+01 8.665816e+00 1.640848e+01 1.434129e+01 1.431530e+01 2.494760e+01 2.711754e+01 3.192254e+01 2.637136e+01 2.099700e+01 1.764293e+01 1.443137e+01 2.297338e+01 1.014610e+00 7.455472e-01 1.054249e+00 1.088748e+00 1.208881e+00 2.652201e+00 1.979468e+00 2.461600e+00 2.101814e+00 1.933933e+00 1.667882e+00 1.273662e+00 8.764333e-01 2.033868e-01 1.121641e-01 1.877258e-01 2.565002e-01 2.184228e-01 4.649728e-01 3.997541e-01 4.571286e-01 4.401038e-01 3.855990e-01 3.250570e-01 2.402576e-01 1.939948e-01
<GCONST> 9.735183e+01
<TRANSP> 5
 0.000000e+00 1.000000e+00 0.000000e+00 0.000000e+00 0.000000e+00
 0.000000e+00 7.718686e-01 2.281315e-01 0.000000e+00 0.000000e+00
 0.000000e+00 0.000000e+00 7.473893e-01 2.526106e-01 0.000000e+00
 0.000000e+00 0.000000e+00 0.000000e+00 8.860931e-01 1.139068e-01
 0.000000e+00 0.000000e+00 0.000000e+00 0.000000e+00 0.000000e+00
<ENDHMM>
~h "t"
<BEGINHMM>
<NUMSTATES> 5
<STATE> 2
<MEAN> 39
 -1.839448e+00 -5.893381e-01 -1.083030e+01 -1.343146e+01 -3.175777e+00 -3.175971e+00 -8.840575e+00 3.314641e+00 -3.216189e+00 -7.760333e-01 -5.474072e+00 -3.923298e+00 6.655175e+01 7.969202e-01 -7.433357e-01 -1.025142e-01 -8.992875e-01 -3.755270e-01 3.043819e-01 -1.162003e+00 3.586175e-01 2.476042e-02 3.862475e-01 -2.674702e-02 -2.710781e-01 1.372842e+00 4.900809e-02 -1.778999e-01 1.966412e-02 -1.178098e-02 1.278999e-02 8.955193e-02 -9.838634e-02 1.124666e-01 6.644406e-03 6.321582e-02 -1.472799e-01 -4.909337e-02 7.887674e-02
<VARIANCE> 39
 9.842091e+01 4.069638e+01 3.394817e+01 6.303613e+01 2.414053e+01 5.645834e+01 6.836908e+01 4.751085e+01 6.247937e+01 5.938231e+01 3.856362e+01 4.899349e+01 7.042237e+01 7.218641e+00 3.517276e+00 2.130627e+00 4.982798e+00 2.041556e+00 4.083955e+00 7.130463e+00 3.974763e+00 3.305727e+00 4.485295e+00 3.375746e+00 2.866191e+00 7.668871e+00 1.117697e+00 4.937755e-01 3.723619e-01 9.630008e-01 3.574862e-01 7.205700e-01 1.203516e+00 6.025122e-01 5.903272e-01 6.618161e-01 6.334463e-01 5.085681e-01 9.267553e-01
<GCONST> 1.355804e+02
<STATE> 3
<MEAN> 39
 2.960161e+00 -9.269002e+00 -1.167124e+01 -1.633969e+01 -4.081233e+00 -4.388219e+00 -1.522125e+01 9.748612e+00 -2.350632e+00 1.520928e+00 -9.160680e+00 -8.073201e+00 7.840540e+01 -2.308516e-01 -1.658283e-01 5.505697e-01 4.207632e-01 -3.643632e-01 -7.689120e-01 -6.623728e-02 9.090077e-01 1.529203e-01 -1.391557e-01 -3.237952e-01 2.646396e-01 1.254968e-01 -6.562003e-02 3.673396e-01 2.211526e-01 2.134699e-01 -1.838706e-01 -2.504268e-01 1.554239e-01 -1.917199e-01 -1.263281e-01 -9.430470e-03 2.530283e-01 2.270572e-01 -3.462953e-01
<VARIANCE> 39
 1.678426e+01 1.989893e+01 2.981893e+01 3.696790e+01 4.452594e+01 8.474300e+01 6.629691e+01 1.108355e+02 4.796203e+01 1.073118e+02 4.724709e+01 5.484420e+01 1.470770e+01 4.072937e-01 1.393844e+00 1.411617e+00 1.983364e+00 2.040374e+00 3.159880e+00 2.175526e+00 2.729001e+00 1.552999e+00 1.850672e+00 2.717178e+00 2.688716e+00 8.125243e-01 1.019979e-01 1.850476e-01 1.335575e-01 3.885335e-01 2.854836e-01 4.146103e-01 5.411514e-01 3.865554e-01 3.574187e-01 3.660754e-01 4.848936e-01 3.348199e-01 1.809673e-01
<GCONST> 1.114826e+02
<STATE> 4
<MEAN> 39
 5.538578e-02 -2.003589e-01 3.610531e+00 -9.875797e+00 -1.433118e+01 -9.969662e+00 -1.599878e+01 7.938567e+00 -7.145536e+00 8.301101e-01 -3.875467e+00 -2.008376e+00 7.384155e+01 -6.310129e-02 7.540078e-01 1.466953e-01 5.385688e-01 1.141759e-01 -1.303923e-01 7.883968e-01 -6.444889e-01 9.588958e-02 -2.036578e-01 2.082143e-01 2.940273e-02 -8.791553e-01 3.182179e-02 -1.015385e-01 -2.781329e-01 -7.245271e-02 2.066117e-01 1.805174e-01 8.083380e-02 -1.427014e-02 1.921932e-01 -1.598188e-02 -9.339564e-02 -1.509118e-01 -1.174430e-01
<VARIANCE> 39
 1.730053e+01 2.778619e+01 7.734181e+01 4.627681e+01 8.120822e+01 6.463129e+01 5.900230e+01 1.045292e+02 9.527921e+01 4.635207e+01 8.504079e+01 2.302793e+01 3.273246e+01 1.119307e+00 1.784758e+00 3.171268e+00 2.421191e+00 5.375118e+00 3.110980e+00 4.439309e+00 3.950337e+00 5.220673e+00 2.199814e+00 4.223442e+00 2.590061e+00 3.691705e+00 1.834174e-01 2.321268e-01 2.330861e-01 3.972533e-01 5.714301e-01 5.445210e-01 8.695946e-01 6.097316e-01 6.407376e-01 4.087421e-01 6.074201e-01 4.955736e-01 3.080361e-01
<GCONST> 1.262844e+02
<TRANSP> 5
 0.000000e+00 1.000000e+00 0.000000e+00 0.000000e+00 0.000000e+00
 0.000000e+00 8.836626e-01 1.163374e-01 0.000000e+00 0.000000e+00
 0.000000e+00 0.000000e+00 8.717381e-01 1.282619e-01 0.000000e+00
 0.000000e+00 0.000000e+00 0.000000e+00 9.061313e-01 9.386867e-02
 0.000000e+00 0.000000e+00 0.000000e+00 0.000000e+00 0.000000e+00
<ENDHMM>
~h "u"
<BEGINHMM>
<NUMSTATES> 5
<STATE> 2
<MEAN> 39
 -1.557895e+00 -2.182651e+00 -5.701310e+00 -9.014804e+00 -6.966134e+00 -7.775532e+00 -1.072558e+01 4.497857e+00 4.927440e+00 -1.604732e-01 -9.410463e+00 -3.012968e+00 6.762884e+01 9.153414e-02 -4.565314e-01 -1.615505e-01 -6.334738e-01 2.068529e-01 1.479962e-01 -4.626253e-01 2.201312e-01 -1.015595e-01 2.491743e-01 -1.588926e-01 -2.145589e-01 6.913819e-01 -2.279095e-03 -2.016076e-02 6.215933e-02 -9.654796e-02 3.785168e-02 1.224125e-03 -1.447402e-01 1.824974e-02 -1.958574e-01 5.215090e-02 7.516124e-02 3.841342e-02 2.128801e-01
<VARIANCE> 39
 6.539497e+01 4.131870e+01 3.504307e+01 3.304765e+01 4.123591e+01 4.879538e+01 4.772379e+01 3.936274e+01 8.787743e+01 3.677845e+01 3.367649e+01 3.814965e+01 1.051318e+02 6.180624e+00 2.720269e+00 2.183650e+00 2.904020e+00 3.018523e+00 3.631100e+00 4.526565e+00 3.241722e+00 3.954068e+00 2.860006e+00 2.974343e+00 3.435017e+00 6.147213e+00 8.222728e-01 4.365177e-01 3.320865e-01 4.275931e-01 5.444558e-01 5.176073e-01 7.144576e-01 5.539823e-01 6.213387e-01 5.153099e-01 4.905127e-01 5.590632e-01 7.597950e-01
<GCONST> 1.301110e+02
<STATE> 3
<MEAN> 39
 -8.097745e-01 -4.544703e+00 -6.826363e+00 -1.396117e+01 -9.743707e-01 -5.459913e+00 -1.313536e+01 1.063926e+01 -5.765296e+00 3.569726e+00 -1.055749e+01 -3.914683e+00 7.207367e+01 7.691775e-02 5.012633e-01 1.525307e-01 1.005139e-01 4.327397e-02 9.982002e-02 -6.243453e-01 -4.074659e-01 -5.795291e-01 -1.924184e-01 5.233801e-01 1.773212e-01 3.620601e-01 1.597255e-01 4.597232e-01 1.221302e-01 4.995462e-01 -4.599146e-01 5.326110e-02 2.447185e-01 -6.600307e-01 1.057825e-01 -1.034761e-01 2.784685e-01 4.488116e-02 -5.730863e-01
<VARIANCE> 39
 9.800499e+01 2.993234e+01 4.721677e+01 5.975704e+01 2.766132e+01 1.419996e+02 5.238377e+01 6.544773e+01 5.111153e+01 3.964624e+01 7.323876e+01 5.611361e+01 4.353544e+01 4.505161e+00 2.765320e+00 1.621869e+00 3.863883e+00 4.369689e+00 4.007994e+00 5.012917e+00 5.250213e+00 3.476396e+00 2.543603e+00 3.767366e+00 2.297767e+00 5.442547e+00 8.338049e-01 2.726679e-01 3.722095e-01 6.595193e-01 7.573782e-01 8.490815e-01 1.048303e+00 6.745377e-01 4.932908e-01 5.819293e-01 5.937318e-01 5.259516e-01 3.572311e-01
<GCONST> 1.331385e+02
<STATE> 4
<MEAN> 39
 -3.694963e+00 2.589322e+00 -1.889405e+00 -8.617506e+00 -4.850098e+00 -5.610899e+00 -1.371003e+01 1.906838e+00 -4.528171e+00 1.574534e+00 -3.958760e+00 -1.134843e+00 6.658880e+01 1.216744e+00 4.120061e-01 4.010222e-01 -1.574888e-03 -7.418169e-01 5.599407e-01 -4.477434e-01 -1.148645e+00 -4.642021e-01 3.182873e-01 3.487866e-01 8.970825e-02 -1.062889e-01 2.441248e-03 -8.247298e-02 -5.101535e-02 -2.391228e-01 -4.452960e-02 1.235108e-01 1.103185e-01 1.663819e-01 9.367366e-03 -1.720538e-02 -4.037120e-02 2.283410e-02 -1.736462e-02
<VARIANCE> 39
 1.206523e+02 4.121551e+01 6.293420e+01 4.679090e+01 5.145623e+01 8.433733e+01 7.545048e+01 8.593282e+01 6.583232e+01 4.524962e+01 5.095342e+01 2.707181e+01 2.444299e+01 8.248559e+00 3.641054e+00 3.962507e+00 5.847193e+00 4.245228e+00 6.261381e+00 8.275028e+00 5.934128e+00 5.185445e+00 4.030091e+00 3.652078e+00 2.712780e+00 2.805037e+00 1.136338e+00 5.463582e-01 5.422047e-01 8.966581e-01 7.735512e-01 9.432487e-01 1.322319e+00 8.994215e-01 8.583618e-01 7.057719e-01 6.811051e-01 5.397795e-01 2.775066e-01
<GCONST> 1.397146e+02
<TRANSP> 5
 0.000000e+00 1.000000e+00 0.000000e+00 0.000000e+00 0.000000e+00
 0.000000e+00 8.292063e-01 1.707937e-01 0.000000e+00 0.000000e+00
 0.000000e+00 0.000000e+00 6.429939e-01 3.570061e-01 0.000000e+00
 0.000000e+00 0.000000e+00 0.000000e+00 8.187659e-01 1.812341e-01
 0.000000e+00 0.000000e+00 0.000000e+00 0.000000e+00 0.000000e+00
<ENDHMM>
~h "y"
<BEGINHMM>
<NUMSTATES> 5
<STATE> 2
<MEAN> 39
 -5.401431e-01 2.345532e+00 -3.594707e+00 -8.549816e+00 -5.859569e+00 -8.943390e+00 -1.407921e+01 -5.394631e+00 -7.421612e+00 -4.841783e-01 -3.261540e+00 -6.554363e-01 6.649418e+01 -8.886103e-03 -1.774145e-01 1.344277e+00 -8.271876e-01 -3.565993e-01 -2.585575e-02 -7.804025e-01 -2.044025e-02 -5.957717e-01 6.675503e-01 3.532435e-01 -8.990441e-03 1.261892e+00 8.710001e-02 1.177795e-01 -6.163459e-02 -2.876609e-01 -5.409711e-02 2.118168e-01 -7.838599e-02 8.553390e-02 6.722004e-02 6.440583e-03 -5.452568e-02 -9.206199e-02 -1.008645e-01
<VARIANCE> 39
 8.460511e+01 2.644609e+01 1.030159e+02 6.273389e+01 8.028079e+01 5.438986e+01 7.594700e+01 4.669041e+01 7.167445e+01 2.939569e+01 4.066463e+01 2.713402e+01 4.869185e+01 6.687418e+00 3.190281e+00 7.688893e+00 8.086926e+00 6.999941e+00 6.902658e+00 8.605040e+00 4.459641e+00 7.949281e+00 4.078390e+00 3.687404e+00 2.777736e+00 4.970490e+00 1.089453e+00 6.759049e-01 1.308753e+00 1.230155e+00 1.265375e+00 1.217492e+00 1.554593e+00 8.930950e-01 1.296620e+00 6.810023e-01 6.279743e-01 4.871061e-01 8.907032e-01
<GCONST> 1.448942e+02
<STATE> 3
<MEAN> 39
 -2.062795e-01 1.844133e+00 1.232149e+01 -1.425077e+01 -1.490171e+01 -8.459500e+00 -1.654155e+01 -1.880397e+00 -1.164044e+01 1.686874e+00 -1.427006e+00 -1.174567e+00 7.227742e+01 6.003676e-02 2.320454e-01 6.572114e-02 -5.964302e-01 -5.353276e-01 1.077692e+00 4.481308e-03 8.651730e-02 2.867479e-01 5.001785e-01 1.716979e-03 -4.639156e-01 -4.115456e-02 -1.852796e-01 3.960193e-01 -6.313590e-01 7.145213e-01 4.203478e-01 -3.537475e-02 5.761008e-01 -2.276228e-01 4.526041e-01 -2.173226e-01 -1.752098e-01 1.884444e-02 -4.866340e-01
<VARIANCE> 39
 1.038029e+01 9.715864e+00 9.742096e+01 5.458572e+01 6.544144e+01 8.345830e+01 3.564640e+01 8.904926e+01 1.032123e+02 5.474882e+01 5.113015e+01 2.625883e+01 1.092308e+01 4.130403e-01 2.168850e+00 1.639075e+00 1.850824e+00 2.692757e+00 2.528976e+00 2.127354e+00 4.727407e+00 2.285550e+00 1.893053e+00 2.011703e+00 2.099735e+00 7.024379e-01 2.492349e-01 9.666570e-02 2.643074e-01 3.039126e-01 5.112711e-01 4.859802e-01 4.406468e-01 4.894469e-01 7.808695e-01 5.547889e-01 4.597309e-01 1.692590e-01 1.006438e-01
<GCONST> 1.126895e+02
<STATE> 4
<MEAN> 39
 1.373911e+00 6.740088e+00 5.555170e+00 -1.491546e+01 -1.464698e+01 -1.060547e+00 -1.669809e+01 -2.216699e+00 -1.083254e+01 9.011052e-01 -1.223137e+00 -1.047950e+00 7.041356e+01 1.538657e-01 5.691291e-01 -6.975370e-01 1.914641e-01 8.840271e-01 5.227371e-02 8.141718e-01 1.490699e-01 3.105149e-01 -1.288010e-01 -4.595682e-01 1.635398e-01 -5.820330e-01 5.583752e-02 -2.318996e-01 -1.367365e-01 3.164036e-01 3.360350e-01 -1.311347e-01 4.191527e-02 -1.140438e-01 3.951123e-02 -3.602420e-02 -1.831561e-01 -9.134838e-02 -9.108321e-02
<VARIANCE> 39
 1.350947e+01 2.151300e+01 1.188621e+02 6.329254e+01 8.891572e+01 7.780399e+01 3.298295e+01 9.832968e+01 7.284914e+01 1.808182e+01 4.055798e+01 2.321241e+01 1.841248e+01 2.047663e-01 1.177401e+00 8.021933e-01 8.770322e-01 3.489104e+00 1.666423e+00 1.667400e+00 2.991765e+00 1.326154e+00 2.586586e+00 1.946107e+00 1.539594e+00 4.417320e-01 6.443382e-02 8.549847e-02 1.404428e-01 2.761787e-01 3.317255e-01 4.387057e-01 3.145725e-01 3.663609e-01 4.767147e-01 4.174051e-01 2.226225e-01 2.459000e-01 6.349272e-02
<GCONST> 1.034355e+02
<TRANSP> 5
 0.000000e+00 1.000000e+00 0.000000e+00 0.000000e+00 0.000000e+00
 0.000000e+00 8.541939e-01 1.458061e-01 0.000000e+00 0.000000e+00
 0.000000e+00 0.000000e+00 5.897242e-01 4.102759e-01 0.000000e+00
 0.000000e+00 0.000000e+00 0.000000e+00 7.146013e-01 2.853987e-01
 0.000000e+00 0.000000e+00 0.000000e+00 0.000000e+00 0.000000e+00
<ENDHMM>
~h "ng"
<BEGINHMM>
<NUMSTATES> 5
<STATE> 2
<MEAN> 39
 -3.485356e+00 -5.833375e-01 -3.913296e+00 -3.896132e-01 -3.418402e-01 -2.805516e+00 -3.353089e+00 3.459322e+00 9.545894e-01 -2.465198e+00 -3.730084e+00 -9.196638e-01 5.364486e+01 -1.646954e-01 1.446690e-02 -9.093361e-02 -2.451366e-01 -3.102363e-02 -1.698229e-02 1.295877e-01 4.350779e-02 1.645972e-01 3.375472e-01 1.347664e-01 -1.170053e-01 -2.588690e-01 1.270492e-02 5.671132e-02 3.679698e-02 2.960831e-02 2.355677e-02 4.993231e-02 3.869924e-02 -7.372125e-03 -5.277881e-02 -2.076108e-02 -2.157897e-02 -8.895868e-04 -1.210214e-03
<VARIANCE> 39
 3.958689e+00 2.778157e+01 2.581043e+01 3.159302e+01 1.679076e+01 1.810365e+01 2.656906e+01 3.597819e+01 2.524783e+01 2.433689e+01 1.907758e+01 1.687852e+01 9.146298e+00 3.568411e-01 6.835074e-01 7.578976e-01 1.065635e+00 9.170617e-01 1.031845e+00 1.276184e+00 2.214838e+00 1.738560e+00 1.159764e+00 1.331638e+00 1.149115e+00 1.900287e-01 6.179126e-02 9.852223e-02 1.506315e-01 1.988211e-01 1.793768e-01 1.952207e-01 2.952649e-01 4.601101e-01 3.319689e-01 2.319760e-01 2.631381e-01 2.685689e-01 2.190996e-02
<GCONST> 8.590257e+01
<STATE> 3
<MEAN> 39
 -5.706466e+00 6.555166e-01 -4.840509e+00 -1.541952e+00 -1.766861e+00 -3.427448e+00 -3.304081e+00 1.253728e-01 -2.723604e+00 -1.422996e+00 -4.308328e+00 -1.954666e+00 5.143335e+01 -1.219630e-02 -6.525839e-02 -6.200375e-02 -2.292768e-02 -4.416981e-02 -9.968523e-03 1.146910e-01 1.210261e-01 3.548791e-02 3.746767e-02 7.170265e-02 6.988661e-02 -1.830647e-01 1.851594e-02 1.237205e-02 7.326471e-03 1.544067e-02 -1.861029e-02 3.636130e-04 -2.616314e-02 -2.680696e-02 2.532946e-02 -2.262663e-02 -6.886286e-03 1.905886e-03 9.044451e-03
<VARIANCE> 39
 5.839509e+00 5.693619e+00 7.635947e+00 1.069005e+01 1.099061e+01 1.938213e+01 1.605906e+01 2.457360e+01 2.370654e+01 3.093620e+01 1.835900e+01 1.474693e+01 2.072252e+00 1.627528e-01 3.239963e-01 4.613646e-01 9.140953e-01 8.835340e-01 1.139250e+00 1.427177e+00 1.583907e+00 1.456898e+00 1.521311e+00 1.641936e+00 1.270143e+00 7.899913e-02 2.562240e-02 4.640575e-02 8.231317e-02 1.823904e-01 1.782567e-01 2.416663e-01 2.626768e-01 2.901076e-01 2.498552e-01 3.111306e-01 3.233778e-01 2.244605e-01 1.036972e-02
<GCONST> 7.346018e+01
<STATE> 4
<MEAN> 39
 -5.043057e+00 7.126309e-01 -5.397081e+00 -2.091342e+00 -3.073691e+00 -3.034943e+00 -3.029640e+00 2.413399e-01 -7.653443e-02 -3.054519e-01 -3.174639e+00 -2.375676e+00 4.758424e+01 -2.114113e-02 -1.224566e-02 -6.062507e-03 1.486129e-02 -2.125683e-02 -2.034670e-02 -2.014076e-02 -3.552389e-02 -1.337876e-02 1.110231e-02 1.893224e-02 1.638606e-02 -4.450338e-02 -8.853123e-03 1.368181e-03 5.250833e-03 -9.456872e-04 5.027417e-03 -3.812232e-04 9.347396e-03 1.018218e-02 -2.043323e-03 1.026685e-02 9.267105e-04 2.738621e-03 1.730584e-02
<VARIANCE> 39
 1.871677e+00 3.609299e+00 5.724874e+00 9.379631e+00 1.061202e+01 1.283009e+01 1.294530e+01 1.923449e+01 1.801478e+01 1.546888e+01 1.142350e+01 1.222503e+01 1.733812e+00 1.529973e-01 2.629216e-01 4.570475e-01 6.341367e-01 9.103627e-01 9.972094e-01 1.062884e+00 1.260871e+00 1.372873e+00 1.146789e+00 1.131721e+00 1.099174e+00 6.058641e-02 3.179574e-02 5.217891e-02 9.291955e-02 1.272004e-01 1.925363e-01 1.992552e-01 2.092489e-01 2.636502e-01 2.945680e-01 2.197411e-01 2.265765e-01 2.200509e-01 1.254641e-02
<GCONST> 6.562257e+01
<TRANSP> 5
 0.000000e+00 1.000000e+00 0.000000e+00 0.000000e+00 0.000000e+00
 0.000000e+00 8.769743e-01 1.230257e-01 0.000000e+00 0.000000e+00
 0.000000e+00 0.000000e+00 9.183959e-01 8.160414e-02 0.000000e+00
 0.000000e+00 0.000000e+00 0.000000e+00 9.663247e-01 3.367520e-02
 0.000000e+00 0.000000e+00 0.000000e+00 0.000000e+00 0.000000e+00
<ENDHMM>
~h "sp"
<BEGINHMM>
<NUMSTATES> 5
<STATE> 2
~s "silst"
<STATE> 3
<MEAN> 39
 -3.731095e+00 4.831949e-01 -4.407535e+00 -3.716481e+00 -4.171775e+00 -4.426581e+00 -4.376522e+00 3.979704e-01 -1.128225e+00 6.874395e-01 -3.517882e+00 -2.213127e+00 5.468311e+01 -3.194350e-01 2.146964e-02 -7.906375e-02 6.457657e-02 5.615858e-02 1.729362e-01 3.995961e-01 1.255104e-01 6.664120e-02 8.689119e-02 2.004679e-01 1.073736e-02 -2.974114e-01 5.614326e-02 -3.937213e-02 -6.788548e-03 -4.821082e-03 -1.432006e-02 -4.662403e-02 -1.433384e-01 -2.120017e-02 -1.025638e-01 -2.567692e-02 -7.762924e-02 1.467942e-02 6.648015e-02
<VARIANCE> 39
 3.224980e+01 2.325626e+01 3.047569e+01 3.779531e+01 2.847910e+01 3.562960e+01 4.675849e+01 3.645855e+01 3.833244e+01 3.370626e+01 3.264158e+01 2.173460e+01 4.019269e+01 1.349294e+00 1.269447e+00 1.948156e+00 1.510508e+00 1.997057e+00 2.174214e+00 2.552016e+00 2.579278e+00 1.996520e+00 1.872879e+00 2.152035e+00 1.705876e+00 1.240373e+00 2.490292e-01 2.509940e-01 3.670548e-01 3.048985e-01 4.497406e-01 4.177926e-01 5.597744e-01 5.437787e-01 4.159353e-01 3.388639e-01 4.417129e-01 3.386429e-01 2.607026e-01
<GCONST> 1.119096e+02
<STATE> 4
<MEAN> 39
 -4.309707e+00 6.140397e-01 -5.401742e+00 -2.187858e+00 -3.296463e+00 -3.269912e+00 -3.460612e+00 5.863026e-01 -3.731141e-01 -7.861932e-02 -3.379354e+00 -1.726124e+00 4.998685e+01 -4.194396e-02 4.873998e-03 -5.770169e-02 -4.165543e-02 7.049561e-03 2.087782e-02 4.164210e-02 -2.918668e-03 -1.680527e-02 -5.037995e-03 -1.168909e-03 1.448436e-02 -1.039171e-01 -2.056150e-02 -8.613183e-03 2.904622e-02 -1.896224e-02 1.624626e-02 -1.834070e-02 -2.231789e-02 8.669958e-03 -2.335516e-02 5.010989e-03 -1.255125e-02 5.275733e-03 4.849631e-02
<VARIANCE> 39
 8.490114e+00 8.933560e+00 1.107570e+01 1.699387e+01 1.438099e+01 1.686164e+01 2.180010e+01 2.503176e+01 2.130585e+01 2.136707e+01 1.721325e+01 1.528913e+01 1.451651e+01 3.530676e-01 4.058508e-01 6.415783e-01 8.688078e-01 1.057797e+00 1.087284e+00 1.305626e+00 1.529862e+00 1.589574e+00 1.431648e+00 1.509228e+00 1.240348e+00 2.174537e-01 6.957866e-02 7.635396e-02 1.291067e-01 1.662728e-01 2.240775e-01 2.202324e-01 2.687819e-01 3.090795e-01 3.407595e-01 2.895868e-01 3.039775e-01 2.501479e-01 6.176351e-02
<GCONST> 8.338081e+01
<TRANSP> 5
 0.000000e+00 8.866774e-05 9.999113e-01 0.000000e+00 0.000000e+00
 0.000000e+00 2.890812e-02 9.710919e-01 0.000000e+00 0.000000e+00
 0.000000e+00 0.000000e+00 5.150350e-01 4.849651e-01 0.000000e+00
 0.000000e+00 0.000000e+00 0.000000e+00 8.407894e-01 1.592106e-01
 0.000000e+00 0.000000e+00 0.000000e+00 0.000000e+00 0.000000e+00
<ENDHMM>
~h "sil"
<BEGINHMM>
<NUMSTATES> 5
<STATE> 2
<MEAN> 39
 -3.220523e+00 -2.323894e-01 -3.431276e+00 -1.174393e+00 -1.747977e+00 -1.666698e+00 -1.706218e+00 3.796245e-02 -5.686529e-01 2.348565e-02 -1.562028e+00 -5.024245e-01 2.570496e+01 -1.084482e+00 -7.072828e-01 -1.582943e+00 -8.902092e-01 -1.290401e+00 -1.092557e+00 -1.221115e+00 -5.992676e-01 -6.191000e-01 -3.653733e-01 -6.559156e-01 -2.642115e-01 6.700719e+00 4.177677e-02 7.866002e-03 3.670750e-02 -4.537940e-02 -4.139086e-02 -1.397779e-01 -9.781614e-02 -5.285685e-02 -4.232392e-02 -5.713525e-02 -2.653846e-02 -8.325389e-02 8.451609e-02
<VARIANCE> 39
 1.154016e+01 5.213939e+00 1.571492e+01 9.755257e+00 1.064586e+01 1.187155e+01 1.569262e+01 8.852832e+00 9.144080e+00 1.328717e+01 1.008500e+01 1.055035e+01 5.395134e+02 1.627693e+00 7.297552e-01 2.055433e+00 1.382987e+00 2.063473e+00 2.593811e+00 2.058780e+00 1.646901e+00 1.726732e+00 1.587286e+00 1.524707e+00 1.315261e+00 4.378091e+01 7.080941e-02 6.961461e-02 1.325341e-01 1.335677e-01 1.895901e-01 2.224192e-01 2.985314e-01 2.293655e-01 2.353469e-01 2.476274e-01 1.809015e-01 1.564891e-01 1.261301e+00
<GCONST> 9.456754e+01
<STATE> 3
~s "silst"
<STATE> 4
<MEAN> 39
 -5.868055e+00 -1.742400e+00 -7.729401e+00 -3.655618e+00 -5.255849e+00 -5.555278e+00 -4.156250e+00 2.189226e-01 -7.833532e-01 -6.090021e-01 -3.397989e+00 -1.653619e+00 4.867710e+01 2.018260e-02 4.047823e-02 3.978749e-02 4.732800e-02 4.632749e-02 6.103467e-02 7.447439e-02 7.023028e-02 2.205832e-02 1.746177e-02 -2.535613e-03 2.993811e-04 -7.476106e-02 -1.682873e-02 5.814238e-03 1.603196e-02 1.076638e-02 1.193252e-02 -5.575104e-03 -4.015105e-03 5.859738e-03 -1.018282e-02 1.068180e-02 -3.227910e-03 1.497514e-02 1.029018e-03
<VARIANCE> 39
 4.026080e+00 7.115279e+00 9.836373e+00 1.200171e+01 1.411181e+01 1.550976e+01 1.681396e+01 2.249900e+01 2.164237e+01 1.777018e+01 1.554462e+01 1.461423e+01 4.811405e+00 1.975038e-01 3.160422e-01 5.017167e-01 7.553226e-01 9.191055e-01 1.113176e+00 1.322314e+00 1.467756e+00 1.330154e+00 1.442479e+00 1.412261e+00 1.224359e+00 1.754646e-01 4.159804e-02 6.194637e-02 9.861494e-02 1.378626e-01 1.815193e-01 2.188550e-01 2.487121e-01 2.885375e-01 2.615593e-01 2.819180e-01 2.856093e-01 2.491044e-01 2.816954e-02
<GCONST> 7.553804e+01
<TRANSP> 5
 0.000000e+00 1.000000e+00 0.000000e+00 0.000000e+00 0.000000e+00
 0.000000e+00 2.894993e-01 4.011470e-01 3.093537e-01 0.000000e+00
 0.000000e+00 0.000000e+00 7.370743e-01 2.629257e-01 0.000000e+00
 0.000000e+00 5.433053e-03 0.000000e+00 9.441029e-01 5.046402e-02
 0.000000e+00 0.000000e+00 0.000000e+00 0.000000e+00 0.000000e+00
<ENDHMM>
