~o
<STREAMINFO> 1 39
<VECSIZE> 39<NULLD><MFCC_D_A_0><DIAGC>
~h "a"
<BEGINHMM>
<NUMSTATES> 5
<STATE> 2
<MEAN> 39
 7.070494e-01 -4.114824e+00 -8.437896e+00 -9.973994e+00 -1.275261e+00 1.786801e+00 -7.163035e+00 3.208849e+00 1.196325e+00 2.285594e+00 -3.232981e+00 -3.155137e+00 5.394398e+01 6.584784e-01 -5.671908e-01 -4.137950e-01 -8.483674e-01 2.674630e-02 4.483670e-01 -4.372868e-01 3.493950e-01 1.329101e-01 1.222916e-01 -3.700036e-01 -3.103898e-01 1.184866e+00 -1.760386e-01 1.440000e-01 9.799834e-02 2.285843e-01 -7.461561e-02 -1.645945e-01 1.486104e-01 -4.602735e-02 1.475610e-02 -9.807369e-02 1.003563e-01 6.926174e-02 -2.941397e-01
<VARIANCE> 39
 2.576088e+01 2.318744e+01 2.001540e+01 4.053349e+01 2.652381e+01 2.722742e+01 3.568195e+01 3.287978e+01 3.707751e+01 3.649730e+01 2.395469e+01 2.006117e+01 6.012430e+01 1.581412e+00 1.748511e+00 1.334614e+00 3.111382e+00 1.884323e+00 1.901131e+00 2.398844e+00 2.144326e+00 1.853269e+00 1.951933e+00 1.603177e+00 1.224990e+00 3.312349e+00 3.264604e-01 2.672769e-01 2.358591e-01 4.813873e-01 3.332909e-01 3.075064e-01 4.487299e-01 3.543440e-01 3.330059e-01 3.611056e-01 2.482752e-01 2.205822e-01 4.515334e-01
<GCONST> 1.098633e+02
<STATE> 3
<MEAN> 39
 2.572507e+00 -5.227963e+00 -8.794184e+00 -1.152154e+01 -2.095724e+00 1.646734e+00 -8.268955e+00 4.784231e+00 2.328004e+00 2.111991e+00 -4.056909e+00 -3.589878e+00 5.695647e+01 1.289771e-01 3.583931e-01 2.771655e-01 2.688353e-01 -3.062259e-01 -3.297538e-01 -1.421109e-02 -2.322681e-02 6.193026e-02 -2.159625e-01 1.948089e-01 1.938503e-01 -3.420947e-01 -1.119303e-01 2.708042e-01 2.277294e-01 2.830437e-01 -7.871202e-02 -1.932965e-01 1.056125e-01 -1.481691e-01 -9.507041e-02 -6.817482e-02 1.751282e-01 1.480172e-01 -3.415947e-01
<VARIANCE> 39
 1.341595e+01 2.203781e+01 1.890293e+01 3.293830e+01 2.264748e+01 2.605599e+01 3.173274e+01 3.508669e+01 3.967703e+01 3.422991e+01 2.541437e+01 2.182763e+01 3.813931e+01 6.189767e-01 1.126155e+00 1.047526e+00 1.559470e+00 1.379487e+00 1.622583e+00 1.836998e+00 2.265992e+00 1.830489e+00 1.432710e+00 1.597092e+00 9.976076e-01 1.292214e+00 1.149649e-01 1.723590e-01 2.025641e-01 3.215227e-01 2.653793e-01 2.307865e-01 3.667516e-01 3.186020e-01 3.645715e-01 3.002205e-01 2.197518e-01 1.964984e-01 2.014596e-01
<GCONST> 9.986826e+01
<STATE> 4
<MEAN> 39
 -3.071339e-01 -9.508600e-01 -6.002799e+00 -6.129245e+00 -3.719864e+00 -1.424387e+00 -4.857114e+00 2.876063e+00 2.467418e+00 1.616905e-01 -1.818480e+00 -2.303897e+00 4.860321e+01 -4.506363e-01 6.595646e-01 4.788541e-01 7.899421e-01 -2.016629e-01 -3.645111e-01 5.882481e-01 -3.516441e-01 -3.274982e-01 -4.131626e-01 4.437490e-01 1.943981e-01 -1.074543e+00 -7.952984e-02 -8.875143e-02 -1.954423e-02 -3.220641e-02 5.467544e-02 3.204115e-02 -1.422983e-03 5.290163e-02 -6.596322e-02 1.577602e-02 -5.714905e-02 -1.217935e-02 9.509667e-02
<VARIANCE> 39
 3.095925e+01 2.209015e+01 2.086870e+01 4.597946e+01 2.580305e+01 3.213272e+01 4.545171e+01 3.672899e+01 3.059686e+01 2.826213e+01 2.660626e+01 1.594507e+01 5.443571e+01 1.276065e+00 1.685708e+00 1.991345e+00 2.526933e+00 1.889023e+00 1.997830e+00 2.894198e+00 2.642160e+00 2.496857e+00 1.973616e+00 1.668241e+00 1.281943e+00 2.437372e+00 2.186710e-01 2.676156e-01 2.975082e-01 4.534495e-01 3.402576e-01 3.558364e-01 5.657650e-01 5.208451e-01 4.538999e-01 3.502242e-01 3.274073e-01 2.235286e-01 3.241423e-01
<GCONST> 1.112568e+02
<TRANSP> 5
 0.000000e+00 1.000000e+00 0.000000e+00 0.000000e+00 0.000000e+00
 0.000000e+00 6.633915e-01 3.366085e-01 0.000000e+00 0.000000e+00
 0.000000e+00 0.000000e+00 6.128787e-01 3.871213e-01 0.000000e+00
 0.000000e+00 0.000000e+00 0.000000e+00 7.667785e-01 2.332215e-01
 0.000000e+00 0.000000e+00 0.000000e+00 0.000000e+00 0.000000e+00
<ENDHMM>
~h "b"
<BEGINHMM>
<NUMSTATES> 5
<STATE> 2
<MEAN> 39
 3.700283e-01 4.055840e+00 1.118932e+01 -3.055114e+00 -1.193975e+01 -2.554562e+00 -7.787467e+00 -2.944978e+00 -5.204177e+00 1.107550e+00 1.072626e+00 -3.071400e+00 5.168584e+01 -4.266062e-01 -1.303606e-01 9.490651e-01 -5.287454e-01 -7.266760e-01 2.701279e-02 -5.900042e-02 -1.031279e-01 -4.278023e-01 3.981762e-01 -4.474314e-02 7.695393e-02 2.239570e-01 6.358834e-02 4.407030e-02 -2.204719e-01 5.342888e-02 1.923080e-01 5.788475e-02 5.358620e-02 -4.641682e-02 8.081862e-02 5.524100e-02 -5.014367e-04 -2.002218e-02 -7.504994e-02
<VARIANCE> 39
 1.201842e+01 1.602188e+01 5.650157e+01 3.720407e+01 5.934271e+01 2.358253e+01 2.151272e+01 3.034810e+01 2.905185e+01 2.590705e+01 2.398710e+01 1.367076e+01 1.317454e+01 6.549321e-01 1.775043e+00 4.009339e+00 2.403340e+00 5.167718e+00 2.349040e+00 2.333669e+00 2.336854e+00 2.080877e+00 2.383111e+00 1.562647e+00 1.543070e+00 1.767744e+00 1.135852e-01 3.648225e-01 7.595491e-01 4.995127e-01 9.809132e-01 4.673968e-01 4.170284e-01 4.520084e-01 4.461460e-01 5.280783e-01 3.157225e-01 3.095925e-01 3.400382e-01
<GCONST> 1.115171e+02
<STATE> 3
<MEAN> 39
 9.917968e-01 6.267805e+00 7.558616e+00 -3.423296e+00 -7.725938e+00 -1.598195e+00 -5.332159e+00 -3.871288e+00 -3.747402e+00 4.160718e+00 -1.735311e+00 -3.005811e+00 4.889434e+01 4.943281e-01 3.339423e-01 -1.843055e+00 1.274400e+00 1.547206e+00 -1.589062e-01 4.839634e-01 5.357303e-02 8.361551e-01 -5.403089e-01 -3.905844e-01 3.536006e-01 -6.349920e-01 -6.565116e-02 -9.365828e-02 1.554711e-01 2.223833e-02 -1.943973e-01 7.459245e-02 -7.129350e-02 5.637363e-02 5.438380e-03 -1.955545e-01 4.918425e-02 1.414487e-01 1.025374e-01
<VARIANCE> 39
 1.098531e+01 7.392530e+00 2.624000e+01 2.720011e+01 2.421311e+01 2.262289e+01 2.258388e+01 2.337921e+01 2.930813e+01 1.972290e+01 3.710777e+01 1.942415e+01 6.683812e+00 7.182163e-01 8.535993e-01 2.528725e+00 1.825293e+00 2.511117e+00 2.145479e+00 1.717681e+00 1.979637e+00 2.190267e+00 1.902124e+00 1.528765e+00 1.250726e+00 4.281494e-01 1.404618e-01 1.636549e-01 4.643664e-01 3.254745e-01 4.202544e-01 4.347719e-01 3.871940e-01 3.467197e-01 3.649831e-01 3.521306e-01 2.928345e-01 2.396982e-01 9.760710e-02
<GCONST> 9.882917e+01
<STATE> 4
<MEAN> 39
 1.205659e+00 7.115573e+00 1.862125e+00 2.397552e+00 -2.627155e+00 -1.222479e+00 -3.444092e+00 -3.920415e+00 -1.545619e+00 5.037316e-01 -1.142834e+00 -3.134317e-01 4.653844e+01 -5.587953e-01 -2.630028e-01 -2.135689e-01 3.544665e-01 6.116388e-01 5.333552e-01 3.411183e-01 2.729405e-01 2.850766e-01 -4.094454e-01 -5.532953e-02 6.387591e-02 -3.927372e-01 -1.964525e-01 -2.144438e-01 1.346577e-01 -1.449897e-01 -9.824108e-02 2.496806e-04 1.379088e-02 1.161546e-01 -1.067296e-01 5.027022e-02 6.579895e-02 -1.463986e-01 -1.201974e-02
<VARIANCE> 39
 7.824301e+00 8.066568e+00 1.236781e+01 9.984131e+00 1.500879e+01 1.575762e+01 1.843386e+01 1.984252e+01 2.261744e+01 1.529647e+01 1.797106e+01 1.992216e+01 4.970848e+00 5.012682e-01 9.741886e-01 1.161314e+00 8.482742e-01 9.869837e-01 1.046158e+00 1.477582e+00 1.454521e+00 1.390090e+00 1.361233e+00 1.132088e+00 1.259444e+00 2.770152e-01 9.059338e-02 1.787397e-01 3.051746e-01 1.578177e-01 2.377622e-01 2.471205e-01 2.545964e-01 2.425341e-01 2.507604e-01 2.032857e-01 1.919425e-01 2.613078e-01 4.035180e-02
<GCONST> 8.315636e+01
<TRANSP> 5
 0.000000e+00 1.000000e+00 0.000000e+00 0.000000e+00 0.000000e+00
 0.000000e+00 9.103847e-01 8.961532e-02 0.000000e+00 0.000000e+00
 0.000000e+00 0.000000e+00 7.951546e-01 2.048454e-01 0.000000e+00
 0.000000e+00 0.000000e+00 0.000000e+00 7.713630e-01 2.286370e-01
 0.000000e+00 0.000000e+00 0.000000e+00 0.000000e+00 0.000000e+00
<ENDHMM>
~h "c"
<BEGINHMM>
<NUMSTATES> 5
<STATE> 2
<MEAN> 39
 -1.067152e+01 2.742887e+00 7.356183e+00 -6.423072e+00 -6.221680e+00 -5.090461e+00 -4.506762e+00 1.475242e+00 -5.703495e+00 2.458854e-01 1.036113e+00 3.910518e-01 5.369983e+01 1.691854e+00 1.093235e-01 1.778942e+00 4.416031e-02 -1.552803e+00 -1.394981e-01 -3.154838e-01 -2.455588e-01 -5.580615e-01 2.802874e-01 8.496022e-02 -2.023816e-01 3.458304e-01 2.311805e-01 -1.297947e-02 -5.296084e-02 -1.817513e-02 -9.102408e-02 7.328705e-02 -2.170319e-02 -1.426181e-01 1.307623e-02 1.199046e-01 -2.400660e-02 -1.033817e-01 -1.872541e-01
<VARIANCE> 39
 7.983170e+01 1.691856e+01 4.886208e+01 2.349952e+01 5.011724e+01 4.055113e+01 3.560732e+01 2.482790e+01 2.831379e+01 2.253230e+01 1.386808e+01 1.193149e+01 1.322770e+01 7.066715e+00 1.617866e+00 2.774940e+00 2.549139e+00 3.353215e+00 2.327458e+00 3.604527e+00 1.953119e+00 2.031366e+00 1.882608e+00 1.203640e+00 1.102399e+00 1.154885e+00 1.760603e+00 3.036498e-01 6.672704e-01 5.341198e-01 7.106738e-01 4.759478e-01 7.654732e-01 3.566487e-01 4.033929e-01 3.509948e-01 2.363395e-01 2.022261e-01 2.671500e-01
<GCONST> 1.142940e+02
<STATE> 3
<MEAN> 39
 -1.242150e+00 4.372701e+00 1.379117e+01 -7.479259e+00 -1.394176e+01 -1.702581e+00 -5.951515e+00 -3.539263e+00 -7.014802e+00 5.489015e+00 -2.814427e-01 -3.198040e+00 5.242798e+01 3.733462e-01 2.576459e-01 -1.196252e+00 6.301925e-01 9.746560e-01 5.248910e-01 4.493407e-01 -3.122286e-01 5.019565e-01 2.386346e-01 -3.614045e-01 -2.583070e-01 -7.511525e-01 4.200304e-02 9.119112e-03 -3.251961e-01 2.163948e-01 2.912914e-01 -9.281619e-02 -1.547728e-02 2.585601e-02 2.398603e-01 -2.834308e-01 2.256075e-02 1.441315e-01 -4.182585e-02
<VARIANCE> 39
 8.088369e+00 6.509026e+00 2.403179e+01 2.531082e+01 3.391986e+01 3.008217e+01 2.136421e+01 2.559987e+01 2.455905e+01 2.483450e+01 2.638305e+01 1.389902e+01 8.048399e+00 6.452873e-01 4.958581e-01 2.453789e+00 2.203767e+00 2.900142e+00 2.259669e+00 1.827253e+00 1.955466e+00 1.706735e+00 2.510883e+00 1.328416e+00 1.220103e+00 4.331010e-01 1.405659e-01 9.203930e-02 3.773818e-01 3.530428e-01 5.716087e-01 4.344159e-01 3.242120e-01 3.319010e-01 2.769873e-01 3.938365e-01 2.834533e-01 2.290412e-01 7.328003e-02
<GCONST> 9.694081e+01
<STATE> 4
<MEAN> 39
 2.369828e+00 5.713037e+00 3.532665e+00 4.930651e-02 -5.343336e+00 -5.189511e-01 -4.461004e+00 -5.453172e+00 -1.445472e+00 1.629259e+00 -9.240530e-01 -1.542630e+00 4.747805e+01 -1.083444e-01 4.744242e-02 -3.499128e-01 5.521985e-01 6.677472e-01 1.148968e-01 7.738025e-02 -2.403548e-02 4.770387e-01 -5.616215e-01 1.277824e-01 2.746579e-01 -3.892525e-01 -1.899593e-01 -7.657176e-02 2.160273e-01 -1.225950e-01 -1.027264e-01 4.815786e-02 6.354905e-02 1.588824e-01 -1.568244e-01 8.870301e-02 3.076318e-03 -5.742969e-02 2.470752e-02
<VARIANCE> 39
 1.127870e+01 7.261510e+00 1.597062e+01 1.233865e+01 1.622272e+01 1.826993e+01 2.463393e+01 1.937745e+01 2.212298e+01 1.976798e+01 2.299605e+01 1.593818e+01 6.431969e+00 5.286286e-01 5.580329e-01 1.411620e+00 1.012741e+00 1.560262e+00 1.331416e+00 1.214760e+00 1.621088e+00 1.657608e+00 1.714656e+00 1.206836e+00 9.440492e-01 2.971514e-01 8.081047e-02 1.049533e-01 2.916599e-01 1.922249e-01 3.631315e-01 2.321960e-01 2.459837e-01 2.900030e-01 2.684774e-01 2.923382e-01 2.363997e-01 1.819368e-01 6.000124e-02
<GCONST> 8.630974e+01
<TRANSP> 5
 0.000000e+00 1.000000e+00 0.000000e+00 0.000000e+00 0.000000e+00
 0.000000e+00 8.863662e-01 1.136337e-01 0.000000e+00 0.000000e+00
 0.000000e+00 0.000000e+00 8.726169e-01 1.273831e-01 0.000000e+00
 0.000000e+00 0.000000e+00 0.000000e+00 8.567094e-01 1.432906e-01
 0.000000e+00 0.000000e+00 0.000000e+00 0.000000e+00 0.000000e+00
<ENDHMM>
~h "h"
<BEGINHMM>
<NUMSTATES> 5
<STATE> 2
<MEAN> 39
 -8.164725e-01 1.910030e+00 1.072847e+01 -4.789967e+00 -1.359148e+01 -5.070394e+00 -9.276464e+00 2.477148e+00 -7.449984e+00 -6.955784e-01 1.375780e+00 -2.007021e+00 5.452650e+01 -2.788703e-01 1.536539e-02 4.119428e-01 -1.573919e-01 -4.841987e-01 1.878128e-01 3.165020e-01 1.197690e-01 -4.655722e-01 3.402436e-01 3.014110e-01 6.648161e-02 5.589548e-01 -6.969603e-02 2.032375e-02 -1.836637e-01 1.057968e-01 2.364122e-01 1.055518e-01 1.135492e-01 -1.894076e-02 2.253455e-01 5.407981e-02 -6.500631e-02 3.824919e-02 -1.721163e-01
<VARIANCE> 39
 8.263341e+00 8.819546e+00 1.620020e+01 2.425929e+01 4.160360e+01 4.115195e+01 2.470455e+01 2.560166e+01 3.051906e+01 1.821140e+01 1.870457e+01 1.502160e+01 1.249210e+01 5.095382e-01 7.850922e-01 1.448028e+00 1.602074e+00 3.358264e+00 2.377339e+00 2.096617e+00 1.948577e+00 2.664335e+00 1.524580e+00 1.196936e+00 1.506000e+00 9.748591e-01 1.124851e-01 1.475245e-01 1.670629e-01 2.566322e-01 4.250524e-01 4.898164e-01 4.545354e-01 4.060282e-01 3.448972e-01 2.969797e-01 2.429324e-01 2.546082e-01 1.171546e-01
<GCONST> 9.798112e+01
<STATE> 3
<MEAN> 39
 -3.159025e+00 1.820951e+00 6.956901e+00 -4.025876e+00 -8.018064e+00 -4.043777e+00 -5.009305e+00 4.902284e+00 -2.617236e+00 2.626979e+00 -5.129043e-01 1.902457e+00 5.597026e+01 1.776138e-01 -4.848000e-01 -1.342074e+00 1.015856e-01 1.316407e+00 1.956675e-02 2.363226e-01 7.423556e-01 9.537024e-01 -1.383748e-01 -7.975954e-01 3.306316e-01 2.892435e-01 1.386911e-01 -1.247107e-01 -1.382473e-01 -1.247932e-01 -7.332299e-02 -1.653260e-03 -1.634912e-01 -2.587560e-02 -7.129561e-02 -1.005869e-01 -1.082338e-01 -1.933102e-01 1.094215e-01
<VARIANCE> 39
 5.974934e+00 1.952387e+01 2.338650e+01 3.535863e+01 3.179635e+01 2.394785e+01 3.595224e+01 3.849185e+01 2.598342e+01 2.093247e+01 1.728107e+01 1.410482e+01 1.545465e+01 4.179702e-01 6.928635e-01 1.052803e+00 2.153120e+00 2.029862e+00 1.440124e+00 2.202132e+00 1.463133e+00 1.517327e+00 1.720581e+00 1.507472e+00 1.467313e+00 7.501157e-01 7.130077e-02 9.908035e-02 1.109390e-01 3.529819e-01 3.244492e-01 2.773018e-01 3.165892e-01 2.780093e-01 2.391087e-01 2.874881e-01 2.550099e-01 2.319641e-01 1.152871e-01
<GCONST> 9.414587e+01
<STATE> 4
<MEAN> 39
 2.209790e+00 -5.058427e+00 -6.044360e+00 -8.368510e+00 -3.110634e+00 -3.319024e+00 -7.689905e+00 9.642673e+00 1.542661e+00 1.888655e+00 -6.518001e+00 -1.274777e+00 6.040794e+01 3.601724e-01 -3.636312e-01 -7.386799e-01 -5.268726e-01 -3.903061e-04 1.226152e-01 -2.656834e-01 1.101628e-01 3.880217e-01 -5.627344e-02 -3.044172e-01 -2.700125e-01 2.017079e-01 -4.746014e-02 1.024904e-01 1.325413e-01 5.175356e-02 -6.688327e-02 -2.298598e-02 -2.704558e-02 -5.963782e-02 -3.966327e-02 8.965049e-03 8.127934e-02 6.212506e-02 -8.008052e-02
<VARIANCE> 39
 7.136667e+00 1.420812e+01 3.509024e+01 3.068130e+01 1.844708e+01 2.342838e+01 3.099013e+01 2.852620e+01 3.790372e+01 2.664143e+01 2.582282e+01 2.224835e+01 1.270118e+01 4.272841e-01 9.950423e-01 1.068699e+00 1.277551e+00 1.137313e+00 1.034965e+00 1.325070e+00 1.310114e+00 1.225118e+00 9.179866e-01 8.406838e-01 9.810920e-01 5.086066e-01 5.739824e-02 1.313791e-01 1.222242e-01 2.039264e-01 2.105314e-01 1.758076e-01 2.304167e-01 2.287237e-01 2.140639e-01 1.723507e-01 1.173965e-01 1.503787e-01 7.285126e-02
<GCONST> 8.658868e+01
<TRANSP> 5
 0.000000e+00 1.000000e+00 0.000000e+00 0.000000e+00 0.000000e+00
 0.000000e+00 9.104227e-01 8.957731e-02 0.000000e+00 0.000000e+00
 0.000000e+00 0.000000e+00 8.318279e-01 1.681721e-01 0.000000e+00
 0.000000e+00 0.000000e+00 0.000000e+00 9.204139e-01 7.958609e-02
 0.000000e+00 0.000000e+00 0.000000e+00 0.000000e+00 0.000000e+00
<ENDHMM>
~h "i"
<BEGINHMM>
<NUMSTATES> 5
<STATE> 2
<MEAN> 39
 -1.838485e+00 3.643206e+00 9.616078e+00 -5.816278e+00 -9.579141e+00 -3.711079e+00 -7.224909e+00 -9.863780e-01 -4.882919e+00 1.761683e+00 1.363905e-01 -1.875441e+00 5.122911e+01 4.321034e-02 4.936515e-01 1.656228e-01 2.410557e-01 3.752383e-01 1.415218e-01 2.055687e-02 -2.900503e-01 -2.187777e-02 -1.099747e-01 8.594584e-02 -2.834326e-02 -2.731881e-01 -3.844518e-02 -1.232839e-01 -3.619439e-01 6.224732e-02 1.617099e-01 3.452067e-02 7.493170e-02 1.193637e-01 2.131692e-01 -7.777425e-02 -5.023133e-02 -1.406116e-02 -1.246010e-01
<VARIANCE> 39
 1.112756e+01 1.802230e+01 5.371930e+01 3.343744e+01 4.107618e+01 3.406628e+01 2.585120e+01 3.000195e+01 3.879909e+01 1.875860e+01 1.434465e+01 1.334903e+01 2.891454e+01 9.688525e-01 1.162828e+00 3.581558e+00 1.919440e+00 2.596906e+00 2.063743e+00 2.581875e+00 2.091680e+00 2.870630e+00 1.552160e+00 1.143295e+00 1.016145e+00 1.733553e+00 1.403123e-01 1.654386e-01 3.851227e-01 2.824911e-01 4.226769e-01 4.022761e-01 4.155027e-01 3.530760e-01 4.092593e-01 2.737030e-01 2.077431e-01 2.019707e-01 2.056664e-01
<GCONST> 1.045708e+02
<STATE> 3
<MEAN> 39
 -2.199245e+00 4.309135e+00 2.104705e+00 -4.908710e-01 -2.703619e+00 -9.713620e-01 -3.732192e+00 -1.142793e+00 -5.130289e-01 -7.838650e-01 -5.977006e-01 -1.978222e+00 4.436239e+01 -3.315014e-01 -5.323970e-01 -9.787368e-01 3.064333e-01 3.809460e-01 1.168431e-01 3.705156e-01 3.623311e-01 4.984019e-01 -4.653664e-01 -2.616894e-02 -7.374363e-02 -4.760901e-01 -4.045359e-02 -1.813787e-01 7.028457e-02 -2.869198e-01 -3.126764e-01 -1.575980e-01 -1.053282e-01 7.288311e-02 -1.665085e-01 1.059905e-01 4.832169e-02 2.688687e-02 2.142810e-01
<VARIANCE> 39
 1.415452e+01 1.349286e+01 3.255571e+01 2.548566e+01 2.225610e+01 2.806289e+01 3.092340e+01 2.385885e+01 2.187818e+01 1.681567e+01 1.370866e+01 1.301579e+01 1.294744e+01 1.428817e+00 1.251462e+00 2.971437e+00 1.728700e+00 2.011815e+00 2.853079e+00 3.267627e+00 1.945129e+00 2.219279e+00 1.432934e+00 1.241797e+00 1.236717e+00 2.382568e+00 1.556281e-01 2.279402e-01 3.103410e-01 3.157701e-01 3.657277e-01 4.269510e-01 4.922945e-01 3.801587e-01 3.519769e-01 2.747540e-01 2.325359e-01 2.265162e-01 1.244051e-01
<GCONST> 1.020541e+02
<STATE> 4
<MEAN> 39
 -4.015615e+00 1.135459e+00 -2.361284e+00 -1.133880e+00 -3.099338e+00 -1.730067e+00 -2.270682e+00 4.487284e-01 1.281371e+00 -1.204843e+00 -3.012771e-01 -1.988971e+00 4.252966e+01 -1.968169e-01 -3.475038e-01 -2.902928e-01 -1.416434e-01 -5.495552e-02 -1.723922e-01 6.334661e-03 2.569068e-01 2.226081e-02 -8.501419e-02 3.869887e-02 1.257730e-01 4.667528e-03 3.412237e-02 -2.041388e-03 1.539376e-01 -1.393717e-01 -8.112659e-02 -8.334205e-02 -8.113506e-02 2.824061e-03 -1.571489e-01 5.283472e-02 -6.571745e-03 3.584807e-02 2.358646e-01
<VARIANCE> 39
 1.249018e+01 1.424730e+01 2.510040e+01 2.121737e+01 2.064564e+01 2.747743e+01 2.716125e+01 2.351770e+01 2.217308e+01 1.760656e+01 1.732284e+01 1.206775e+01 1.446090e+01 6.890700e-01 8.292953e-01 1.528827e+00 1.329317e+00 1.561014e+00 2.204921e+00 2.148467e+00 1.987048e+00 1.643231e+00 1.548153e+00 1.218415e+00 1.142190e+00 1.053905e+00 1.275844e-01 1.702785e-01 2.385659e-01 2.850962e-01 2.978777e-01 4.193503e-01 4.295335e-01 3.784538e-01 3.096093e-01 3.077877e-01 2.366215e-01 2.181372e-01 1.740651e-01
<GCONST> 9.659452e+01
<TRANSP> 5
 0.000000e+00 1.000000e+00 0.000000e+00 0.000000e+00 0.000000e+00
 0.000000e+00 7.998769e-01 2.001232e-01 0.000000e+00 0.000000e+00
 0.000000e+00 0.000000e+00 4.652827e-01 5.347173e-01 0.000000e+00
 0.000000e+00 0.000000e+00 0.000000e+00 6.724210e-01 3.275790e-01
 0.000000e+00 0.000000e+00 0.000000e+00 0.000000e+00 0.000000e+00
<ENDHMM>
~h "j"
<BEGINHMM>
<NUMSTATES> 5
<STATE> 2
<MEAN> 39
 -1.702921e+00 6.695382e+00 9.497594e+00 -4.335710e+00 -9.544226e+00 -3.235628e+00 -5.700820e+00 -1.499612e+00 -4.374498e+00 -2.966463e-01 1.038583e+00 -2.414546e+00 5.158084e+01 2.542235e-01 -1.090966e-01 2.539387e-01 -2.193573e-01 -6.242008e-01 7.177178e-01 1.655264e-01 -4.418498e-01 -1.958665e-01 5.733995e-01 3.853743e-02 -5.688236e-01 -2.339546e-01 -8.276154e-02 5.968915e-02 -2.020321e-01 3.939800e-02 2.449341e-01 -2.726854e-02 1.219537e-01 4.135620e-03 1.123647e-01 5.367142e-02 -5.199977e-02 1.224242e-02 -4.836551e-02
<VARIANCE> 39
 1.565629e+01 1.168152e+01 4.451620e+01 2.527040e+01 3.999334e+01 1.903407e+01 2.805851e+01 1.678585e+01 4.138365e+01 1.980262e+01 1.684464e+01 1.050915e+01 1.167060e+01 1.524683e+00 8.764385e-01 1.980297e+00 1.652395e+00 3.362758e+00 1.880357e+00 2.167035e+00 1.428829e+00 1.547666e+00 1.443007e+00 1.109576e+00 1.225237e+00 6.958828e-01 2.661754e-01 1.566524e-01 3.147688e-01 2.886505e-01 6.176704e-01 3.322883e-01 4.245448e-01 2.771598e-01 3.037404e-01 2.800267e-01 2.181411e-01 2.230021e-01 8.770631e-02
<GCONST> 9.902059e+01
<STATE> 3
<MEAN> 39
 6.219848e-01 5.796274e+00 9.621066e+00 -5.761266e+00 -1.115351e+01 -1.029251e-01 -4.367663e+00 -4.154766e+00 -4.236135e+00 4.155687e+00 -1.100259e+00 -4.401631e+00 5.034085e+01 5.406838e-01 2.089583e-01 -1.462646e+00 7.491342e-01 9.102756e-01 3.344475e-02 2.909686e-01 -3.858336e-01 8.666301e-01 -9.047132e-02 -2.716669e-01 7.446338e-02 -5.653221e-01 -4.035826e-02 -3.199267e-03 -5.872677e-02 1.755821e-01 1.195586e-01 -1.879362e-01 -1.007719e-01 5.296663e-02 9.482890e-02 -2.844577e-01 5.020681e-02 1.960262e-01 4.772595e-02
<VARIANCE> 39
 1.774669e+01 6.825191e+00 3.919656e+01 3.130204e+01 2.675040e+01 2.896624e+01 1.797968e+01 2.973811e+01 2.751414e+01 2.434557e+01 2.598726e+01 1.585300e+01 5.106343e+00 5.395845e-01 6.885993e-01 2.711713e+00 1.747916e+00 2.720171e+00 2.205284e+00 2.184802e+00 2.106445e+00 1.705677e+00 2.256815e+00 1.267722e+00 1.276733e+00 3.593059e-01 1.111973e-01 1.260000e-01 5.337957e-01 2.771317e-01 4.932659e-01 3.857994e-01 4.045007e-01 3.731062e-01 2.791417e-01 4.624164e-01 2.456365e-01 2.501767e-01 6.439478e-02
<GCONST> 9.806045e+01
<STATE> 4
<MEAN> 39
 1.943431e+00 7.296328e+00 2.618875e+00 1.365308e-01 -5.626909e+00 -1.055699e+00 -4.556180e+00 -5.498279e+00 -1.629776e-01 4.224417e-02 -2.274560e-01 -1.932141e+00 4.728519e+01 -3.016211e-01 -7.914401e-02 -4.442805e-02 4.507915e-01 5.047914e-01 1.761498e-01 2.305234e-01 2.032780e-01 1.836033e-01 -3.286116e-01 8.561622e-02 2.052525e-01 -3.483426e-01 -1.346051e-01 -8.935749e-02 7.546043e-02 -1.152505e-01 -7.859263e-03 3.135865e-02 8.969120e-02 1.316786e-01 -1.169928e-01 8.828517e-02 -2.960619e-02 -6.199422e-02 -2.180440e-02
<VARIANCE> 39
 1.392151e+01 5.786534e+00 1.564706e+01 1.892409e+01 1.567647e+01 1.784294e+01 2.155369e+01 2.227822e+01 1.520971e+01 1.341038e+01 1.757220e+01 1.603515e+01 5.679144e+00 4.357747e-01 6.909971e-01 9.603359e-01 1.323339e+00 1.252601e+00 1.622146e+00 1.488274e+00 1.280709e+00 1.061626e+00 1.466752e+00 1.258034e+00 9.423504e-01 2.308259e-01 7.582285e-02 1.384133e-01 2.610293e-01 2.389080e-01 2.395661e-01 3.272249e-01 2.699248e-01 2.712569e-01 2.025615e-01 2.587499e-01 2.478397e-01 1.860208e-01 2.826231e-02
<GCONST> 8.371735e+01
<TRANSP> 5
 0.000000e+00 1.000000e+00 0.000000e+00 0.000000e+00 0.000000e+00
 0.000000e+00 8.353286e-01 1.646714e-01 0.000000e+00 0.000000e+00
 0.000000e+00 0.000000e+00 8.368800e-01 1.631199e-01 0.000000e+00
 0.000000e+00 0.000000e+00 0.000000e+00 8.685532e-01 1.314468e-01
 0.000000e+00 0.000000e+00 0.000000e+00 0.000000e+00 0.000000e+00
<ENDHMM>
~h "k"
<BEGINHMM>
<NUMSTATES> 5
<STATE> 2
<MEAN> 39
 -1.125370e+00 -2.039704e+00 -8.631763e+00 -7.262515e+00 3.638362e-01 -4.431369e+00 -5.337206e+00 4.728513e+00 -5.779173e-01 3.312249e+00 -2.890996e+00 -2.340001e+00 4.948388e+01 7.308504e-02 -4.495686e-01 -3.307906e-01 -3.040861e-01 5.312437e-01 9.388328e-04 -7.493100e-01 -3.257413e-02 8.154116e-02 9.268386e-01 -4.749948e-01 -1.567762e-01 9.775220e-01 2.748675e-01 1.566438e-01 2.373745e-01 -1.222507e-01 -1.351657e-01 1.913960e-01 -8.289899e-02 -1.345290e-01 -1.455261e-01 4.121395e-02 1.084567e-02 -3.351450e-02 1.082891e-01
<VARIANCE> 39
 3.412999e+01 2.353391e+01 1.991652e+01 5.636416e+01 3.358962e+01 4.183513e+01 4.415126e+01 7.441432e+01 3.446289e+01 3.815255e+01 3.218877e+01 1.430548e+01 7.002420e+01 1.899319e+00 2.083295e+00 2.247726e+00 3.930918e+00 2.870656e+00 2.875996e+00 3.516664e+00 4.165026e+00 3.972828e+00 3.361151e+00 2.142987e+00 1.457160e+00 4.205741e+00 3.114362e-01 3.159981e-01 4.801376e-01 7.436110e-01 5.718781e-01 5.189107e-01 6.597586e-01 6.581908e-01 6.673555e-01 5.820402e-01 3.867312e-01 2.480077e-01 6.106108e-01
<GCONST> 1.226326e+02
<STATE> 3
<MEAN> 39
 -3.529009e-01 5.261285e-01 -6.706077e+00 -6.628999e+00 -1.189157e+00 -1.149889e-01 -7.396523e+00 -1.826612e+00 -2.544712e+00 2.941391e+00 -8.510005e-01 -1.687008e+00 4.950478e+01 1.186540e+00 3.603952e-01 1.078805e+00 -1.207838e-01 -4.248915e-01 3.499001e-01 -1.098962e+00 -4.775614e-01 -1.919268e-01 3.359281e-01 8.800270e-02 -2.007503e-01 1.007256e+00 9.515440e-02 1.009012e-02 1.797951e-01 -6.014754e-02 -2.709448e-01 3.104042e-03 6.892177e-02 1.804027e-01 1.482373e-01 -2.671817e-01 4.430396e-02 -4.524896e-02 -7.571088e-02
<VARIANCE> 39
 3.478379e+01 2.383244e+01 2.722310e+01 3.003781e+01 3.049559e+01 4.127465e+01 4.427583e+01 4.945869e+01 4.541917e+01 4.418441e+01 3.051348e+01 1.555759e+01 3.219837e+01 3.107604e+00 2.402447e+00 3.129309e+00 4.634435e+00 3.330124e+00 3.763331e+00 4.250718e+00 4.380832e+00 4.286858e+00 2.923553e+00 2.209068e+00 1.489580e+00 3.437813e+00 6.108548e-01 4.661818e-01 6.697322e-01 7.611095e-01 7.204608e-01 6.774274e-01 9.175852e-01 7.971607e-01 7.528208e-01 6.742480e-01 4.739839e-01 2.749641e-01 4.868335e-01
<GCONST> 1.258683e+02
<STATE> 4
<MEAN> 39
 3.248422e+00 3.614964e+00 4.165401e-01 -6.397927e+00 -4.477441e+00 -3.268084e+00 -1.080283e+01 -2.560308e+00 -3.135635e+00 3.053727e+00 -1.069457e+00 -3.922085e-01 5.085452e+01 -1.675125e-01 2.570941e-02 4.037231e-01 3.574826e-01 -2.710176e-01 -2.655713e-01 4.160132e-01 2.935538e-01 4.599565e-01 -3.582161e-01 -2.993510e-02 -3.766204e-02 -2.712871e-01 -2.436081e-01 -1.094272e-01 -3.504792e-01 1.739334e-03 1.379137e-01 1.033513e-01 3.009250e-01 4.001428e-02 -3.073443e-02 -6.259718e-02 3.428961e-02 -2.003171e-02 -2.235867e-01
<VARIANCE> 39
 1.722280e+01 1.995430e+01 4.987431e+01 3.811246e+01 3.046553e+01 4.388608e+01 4.406770e+01 3.938428e+01 4.791128e+01 3.332727e+01 1.853210e+01 1.837787e+01 3.185465e+01 3.059461e+00 2.050297e+00 4.452642e+00 5.169566e+00 3.034677e+00 3.715807e+00 5.901424e+00 3.173659e+00 3.043115e+00 3.458963e+00 1.714971e+00 1.754956e+00 4.570018e+00 3.486721e-01 4.197567e-01 7.802246e-01 9.023319e-01 5.141481e-01 7.183934e-01 9.326125e-01 6.524230e-01 5.866950e-01 6.730679e-01 3.597996e-01 3.493973e-01 5.320771e-01
<GCONST> 1.242930e+02
<TRANSP> 5
 0.000000e+00 1.000000e+00 0.000000e+00 0.000000e+00 0.000000e+00
 0.000000e+00 6.925231e-01 3.074769e-01 0.000000e+00 0.000000e+00
 0.000000e+00 0.000000e+00 6.726394e-01 3.273607e-01 0.000000e+00
 0.000000e+00 0.000000e+00 0.000000e+00 7.934697e-01 2.065302e-01
 0.000000e+00 0.000000e+00 0.000000e+00 0.000000e+00 0.000000e+00
<ENDHMM>
~h "l"
<BEGINHMM>
<NUMSTATES> 5
<STATE> 2
<MEAN> 39
 -6.566772e+00 -1.576391e+00 -4.465416e+00 -2.468966e+00 -3.826137e+00 -4.244297e+00 -3.522089e+00 -1.125986e+00 6.106421e-01 -3.963144e-01 -1.977303e+00 -1.245859e+00 4.215030e+01 -2.208908e-01 -2.850120e-01 3.224011e-01 -8.999165e-02 -2.081867e-01 -2.559564e-01 7.476009e-02 6.335986e-02 6.442265e-02 1.248004e-01 -1.011905e-01 7.603542e-02 3.505236e-01 6.374502e-02 5.649024e-02 7.294244e-02 4.782571e-02 4.007421e-03 7.365975e-02 -7.051202e-03 1.885719e-02 -4.045432e-03 3.875772e-03 -4.872549e-03 3.600340e-02 2.176242e-03
<VARIANCE> 39
 2.786390e+01 1.690088e+01 2.094206e+01 2.946907e+01 2.420697e+01 3.152256e+01 2.734005e+01 2.574773e+01 2.735864e+01 2.311243e+01 1.816961e+01 1.291819e+01 3.642065e+01 1.215768e+00 1.021597e+00 1.316659e+00 1.548337e+00 1.944100e+00 2.525455e+00 2.729196e+00 2.353289e+00 1.927214e+00 1.916294e+00 1.204624e+00 1.143853e+00 1.228012e+00 2.388894e-01 2.008145e-01 2.627976e-01 3.132387e-01 3.728747e-01 4.657943e-01 4.891381e-01 4.929201e-01 3.742090e-01 3.999356e-01 2.324800e-01 2.102284e-01 2.078799e-01
<GCONST> 1.039704e+02
<STATE> 3
<MEAN> 39
 -5.986165e+00 -6.130975e-01 -5.432388e+00 -2.272839e+00 -4.188173e+00 -1.214940e+00 -2.129225e+00 -7.306206e-02 1.955150e+00 -1.552269e+00 2.451515e-01 -2.447769e+00 4.221968e+01 -2.378600e-02 3.888282e-02 3.203833e-01 2.148900e-01 -3.595488e-02 9.913049e-02 1.066401e-01 -8.167075e-03 -6.874891e-02 -3.534454e-02 -4.937436e-02 1.113515e-01 -4.419024e-02 1.415405e-01 1.792782e-01 1.185474e-01 1.523066e-02 4.649574e-02 1.554747e-02 -1.038444e-01 -2.918199e-03 -6.952695e-03 8.678995e-05 -2.498677e-02 2.688209e-02 7.086495e-02
<VARIANCE> 39
 1.832046e+01 1.683702e+01 1.241852e+01 2.574747e+01 2.335002e+01 2.661745e+01 2.580522e+01 2.107606e+01 2.218609e+01 1.829782e+01 1.809793e+01 1.321025e+01 2.180917e+01 4.557247e-01 5.294190e-01 8.595134e-01 1.253040e+00 1.589875e+00 1.843365e+00 1.644820e+00 1.721957e+00 1.811860e+00 1.611272e+00 1.236595e+00 9.751760e-01 2.683173e-01 8.168060e-02 1.365784e-01 1.555656e-01 2.268202e-01 3.491192e-01 3.239993e-01 3.520164e-01 3.150061e-01 3.621392e-01 2.752239e-01 2.470710e-01 1.774198e-01 5.809309e-02
<GCONST> 9.068668e+01
<STATE> 4
<MEAN> 39
 -4.857247e+00 -9.925816e-01 -3.331896e+00 -3.907956e-01 -2.713044e+00 -2.623744e+00 -2.056204e+00 3.646751e-01 4.070551e-01 -9.607285e-01 -7.870807e-01 -6.364492e-01 4.063927e+01 1.213661e-01 1.774194e-01 1.503907e-01 -3.195406e-02 6.296651e-02 9.010870e-02 -1.085264e-01 -1.947687e-02 -1.277621e-02 4.008283e-02 -9.257931e-02 -1.497236e-02 5.849526e-03 8.028472e-02 5.921841e-02 4.874909e-02 -5.185303e-02 -1.697271e-02 -2.628255e-02 -7.745820e-02 -6.489073e-03 -2.094150e-02 -4.483807e-03 -1.158473e-03 1.153854e-03 9.181926e-02
<VARIANCE> 39
 1.573413e+01 1.602572e+01 1.700651e+01 2.051508e+01 2.722218e+01 3.194526e+01 2.211701e+01 2.277680e+01 2.112191e+01 1.988286e+01 1.560861e+01 1.365901e+01 1.631793e+01 5.611088e-01 8.511186e-01 1.138447e+00 1.269544e+00 1.409284e+00 1.673675e+00 1.589878e+00 1.640682e+00 1.707115e+00 1.654444e+00 1.158594e+00 1.019779e+00 3.785883e-01 1.259019e-01 1.533472e-01 1.997907e-01 2.399322e-01 2.643462e-01 3.300578e-01 3.240299e-01 3.122554e-01 3.469404e-01 3.439238e-01 2.318888e-01 1.939691e-01 7.598302e-02
<GCONST> 9.240692e+01
<TRANSP> 5
 0.000000e+00 1.000000e+00 0.000000e+00 0.000000e+00 0.000000e+00
 0.000000e+00 6.375922e-01 3.624078e-01 0.000000e+00 0.000000e+00
 0.000000e+00 0.000000e+00 5.912406e-01 4.087594e-01 0.000000e+00
 0.000000e+00 0.000000e+00 0.000000e+00 8.507193e-01 1.492806e-01
 0.000000e+00 0.000000e+00 0.000000e+00 0.000000e+00 0.000000e+00
<ENDHMM>
~h "m"
<BEGINHMM>
<NUMSTATES> 5
<STATE> 2
<MEAN> 39
 3.920060e+00 3.498372e+00 -1.181729e+00 -2.428955e+00 -1.835384e+00 1.744145e+00 -6.726691e+00 -3.583708e+00 -2.511611e+00 4.959164e-01 1.152785e+00 -2.708948e+00 4.918201e+01 -6.366773e-01 1.042662e+00 1.660339e+00 1.880333e+00 5.440475e-01 -6.038761e-01 4.531186e-01 -7.670307e-01 -8.419402e-01 -4.773579e-01 7.923820e-02 2.161920e-01 -9.033746e-01 -4.881441e-02 -4.146826e-01 -2.421675e-01 -3.984123e-01 -5.214355e-02 8.259520e-02 -1.546602e-01 4.405746e-01 3.257415e-01 1.151117e-01 -2.398162e-01 -1.539644e-01 3.813646e-01
<VARIANCE> 39
 9.684834e+00 1.038350e+01 1.922684e+01 1.856350e+01 2.006506e+01 2.457110e+01 1.660689e+01 2.445617e+01 2.721433e+01 2.561908e+01 2.944744e+01 9.518642e+00 8.178283e+00 4.571750e-01 9.860065e-01 1.421668e+00 1.954915e+00 2.358926e+00 1.494684e+00 1.574409e+00 2.283788e+00 1.879841e+00 2.044696e+00 1.339052e+00 1.153055e+00 5.034707e-01 9.067568e-02 9.311091e-02 2.307158e-01 3.144340e-01 2.802315e-01 2.724635e-01 2.962915e-01 3.201416e-01 2.576945e-01 3.364343e-01 2.599578e-01 1.849206e-01 8.025811e-02
<GCONST> 9.218829e+01
<STATE> 3
<MEAN> 39
 2.970762e+00 4.514765e+00 7.774433e-01 -6.153250e-01 -1.122507e+00 1.394960e+00 -6.528231e+00 -3.627538e+00 -2.744712e+00 5.581815e-01 1.883322e+00 -2.956075e+00 4.837649e+01 -1.643504e-01 4.141880e-01 2.368661e-01 3.598399e-01 -1.076745e-01 -3.502456e-01 3.493458e-01 2.234907e-01 1.179679e-01 -2.722238e-01 -6.837666e-02 -8.446059e-02 -3.614145e-01 3.961491e-02 -6.762323e-02 -2.459594e-01 -1.824187e-01 -4.895111e-02 -3.180480e-02 4.376034e-02 1.429214e-01 1.283399e-01 -2.667155e-02 -6.754634e-02 1.071291e-02 6.063286e-03
<VARIANCE> 39
 8.183183e+00 9.827488e+00 1.185947e+01 1.033607e+01 2.157060e+01 2.243369e+01 1.784427e+01 1.837257e+01 1.720843e+01 2.046207e+01 3.559526e+01 1.069083e+01 9.182203e+00 2.963257e-01 4.777610e-01 6.405944e-01 6.746635e-01 1.093873e+00 1.182480e+00 1.063497e+00 1.313413e+00 9.710895e-01 1.028036e+00 1.065713e+00 8.363866e-01 2.625241e-01 6.573217e-02 9.205039e-02 1.716040e-01 1.888014e-01 2.560585e-01 1.957287e-01 2.094532e-01 2.609187e-01 2.126112e-01 2.196931e-01 1.938675e-01 1.636039e-01 5.256889e-02
<GCONST> 7.931637e+01
<STATE> 4
<MEAN> 39
 -1.520159e+00 4.451196e+00 -8.850113e-01 5.144334e-01 -7.794129e-01 -1.015324e-01 -2.883128e+00 -5.379525e-01 -3.017771e-01 -1.751677e+00 5.983930e-01 -2.234938e+00 4.468152e+01 -3.425074e-01 -1.271835e-01 -2.383663e-01 6.005829e-02 -6.642114e-02 -1.971745e-01 3.067786e-01 1.992826e-01 2.353847e-01 2.836960e-03 5.562171e-02 -1.263486e-02 -3.264795e-01 -3.489708e-02 -8.156413e-02 -4.308492e-02 -7.856170e-02 -6.462793e-02 -1.492057e-02 -5.464880e-02 -5.143746e-02 -3.565956e-02 1.123411e-02 8.078655e-04 4.340954e-03 1.670675e-02
<VARIANCE> 39
 1.547025e+01 9.600983e+00 1.160276e+01 1.623179e+01 2.540498e+01 2.737226e+01 1.971177e+01 1.700285e+01 1.788344e+01 1.683332e+01 2.236940e+01 1.195160e+01 1.240889e+01 3.257533e-01 6.697544e-01 8.775529e-01 1.054635e+00 1.376985e+00 1.393337e+00 1.289201e+00 1.353682e+00 1.164088e+00 1.195491e+00 1.254951e+00 9.168344e-01 1.552742e-01 5.678596e-02 1.042464e-01 1.800132e-01 2.091997e-01 2.731545e-01 2.729937e-01 2.547103e-01 2.638052e-01 2.279970e-01 2.114876e-01 2.379473e-01 1.825225e-01 2.726958e-02
<GCONST> 8.283082e+01
<TRANSP> 5
 0.000000e+00 1.000000e+00 0.000000e+00 0.000000e+00 0.000000e+00
 0.000000e+00 6.329761e-01 3.670239e-01 0.000000e+00 0.000000e+00
 0.000000e+00 0.000000e+00 7.440199e-01 2.559801e-01 0.000000e+00
 0.000000e+00 0.000000e+00 0.000000e+00 8.623143e-01 1.376856e-01
 0.000000e+00 0.000000e+00 0.000000e+00 0.000000e+00 0.000000e+00
<ENDHMM>
~h "n"
<BEGINHMM>
<NUMSTATES> 5
<STATE> 2
<MEAN> 39
 2.582511e+00 1.395763e+00 3.975076e-01 -3.910966e+00 -3.975992e+00 -4.822090e+00 -7.751907e+00 6.504162e+00 4.782812e-02 -3.900779e+00 -2.745487e+00 1.995010e+00 5.462331e+01 2.560734e-01 1.488530e+00 1.004063e+00 7.154825e-01 -2.860404e-01 2.657074e-01 6.972647e-01 -1.555202e+00 -1.577450e-01 -3.325511e-01 8.423052e-01 1.277677e-01 -1.228086e+00 2.218898e-03 -4.430213e-02 -1.363579e-01 -1.185113e-01 1.103723e-01 3.111434e-01 -5.769555e-03 -2.323975e-01 1.458189e-01 2.028796e-01 -5.927932e-02 -2.633587e-01 -4.278701e-02
<VARIANCE> 39
 5.892237e+00 1.719026e+01 1.649132e+01 3.533779e+01 2.634644e+01 3.754715e+01 3.299099e+01 7.167313e+01 3.820266e+01 2.259510e+01 2.868620e+01 1.302399e+01 1.349303e+01 3.439197e-01 8.454128e-01 1.357829e+00 1.788198e+00 1.627957e+00 5.266075e+00 2.693123e+00 4.692864e+00 3.344755e+00 1.782585e+00 1.499731e+00 1.729599e+00 5.479602e-01 7.907661e-02 1.787141e-01 2.396449e-01 2.993043e-01 3.235559e-01 1.030619e+00 4.724296e-01 1.067725e+00 5.819538e-01 2.302127e-01 2.421413e-01 2.483282e-01 1.282428e-01
<GCONST> 1.035366e+02
<STATE> 3
<MEAN> 39
 -1.208942e+00 8.990015e+00 3.805803e+00 -1.596754e+00 -2.419851e+00 -3.850395e+00 -4.077183e+00 -2.786573e-01 -6.885233e-01 -2.178424e+00 -1.341078e+00 8.364749e-02 5.017277e+01 -1.282712e+00 3.988564e-01 3.989592e-01 -3.094391e-02 2.369437e-01 -8.449559e-01 5.691656e-02 1.367429e-01 -5.088716e-01 2.370614e-01 3.599794e-02 -3.942609e-03 3.487999e-01 4.414991e-02 -2.025827e-01 1.184186e-01 -6.921422e-02 -1.739257e-01 -4.422180e-02 -1.282360e-01 4.696495e-02 -5.598402e-02 -4.156182e-02 1.240669e-02 5.449773e-02 1.802644e-01
<VARIANCE> 39
 5.186323e+01 1.874734e+01 1.669237e+01 1.366550e+01 3.177334e+01 3.482807e+01 2.335290e+01 3.420476e+01 3.079460e+01 1.361645e+01 2.221023e+01 1.153684e+01 1.265375e+01 3.975293e+00 1.865501e+00 1.948017e+00 1.331582e+00 2.463986e+00 2.999852e+00 2.255380e+00 3.035453e+00 2.583544e+00 1.425147e+00 1.627094e+00 1.081365e+00 1.482010e+00 9.489313e-01 3.627094e-01 3.353561e-01 2.161610e-01 4.531379e-01 6.206853e-01 3.555871e-01 5.712042e-01 4.613812e-01 2.589411e-01 3.296098e-01 2.028554e-01 2.261656e-01
<GCONST> 1.080746e+02
<STATE> 4
<MEAN> 39
 -4.451938e+00 6.704532e+00 1.093885e+01 -5.086821e+00 -7.075049e+00 -7.537014e+00 -6.047018e+00 -6.075997e-01 -4.338951e+00 -9.193105e-02 -4.864040e-01 1.110023e+00 5.516840e+01 1.247455e+00 -7.053424e-01 1.077062e+00 -3.882999e-01 -1.507492e+00 7.883954e-01 -5.189084e-01 -4.291493e-01 -4.199924e-01 2.336615e-01 1.896232e-01 -3.166068e-01 -5.027113e-02 1.214529e-01 7.437965e-02 -2.249342e-01 4.630435e-02 2.083948e-02 2.490207e-01 1.168306e-01 2.139286e-02 1.230363e-03 6.464668e-02 -3.762616e-02 -1.317624e-01 -2.241002e-01
<VARIANCE> 39
 2.688623e+01 1.498206e+01 2.707250e+01 4.402395e+01 5.188857e+01 2.564625e+01 1.446625e+01 2.627049e+01 4.082446e+01 2.256013e+01 1.707636e+01 7.277313e+00 1.164312e+01 1.479773e+00 1.447612e+00 2.127046e+00 2.206517e+00 3.087103e+00 2.469135e+00 1.427453e+00 1.244066e+00 1.565962e+00 1.354263e+00 1.144549e+00 8.092167e-01 6.842957e-01 4.466724e-01 2.815650e-01 3.519368e-01 3.082081e-01 5.599328e-01 5.192147e-01 2.795064e-01 2.189332e-01 2.852468e-01 2.499115e-01 2.291510e-01 1.392337e-01 8.181500e-02
<GCONST> 1.002913e+02
<TRANSP> 5
 0.000000e+00 1.000000e+00 0.000000e+00 0.000000e+00 0.000000e+00
 0.000000e+00 8.489618e-01 1.510381e-01 0.000000e+00 0.000000e+00
 0.000000e+00 0.000000e+00 8.787118e-01 1.212883e-01 0.000000e+00
 0.000000e+00 0.000000e+00 0.000000e+00 7.630066e-01 2.369934e-01
 0.000000e+00 0.000000e+00 0.000000e+00 0.000000e+00 0.000000e+00
<ENDHMM>
~h "p"
<BEGINHMM>
<NUMSTATES> 5
<STATE> 2
<MEAN> 39
 -4.962073e+00 4.100897e-01 -6.450431e+00 -2.788859e+00 -3.043301e+00 -7.666985e-01 -3.107364e-01 1.284385e+00 2.013813e+00 -2.252358e+00 1.058689e-01 -3.054893e+00 4.168544e+01 -6.196647e-01 -1.617374e-01 -1.070647e-01 1.780139e-01 -1.510261e-01 -7.859096e-02 3.564128e-01 1.524717e-01 7.277832e-02 -1.879626e-01 -1.195695e-01 7.926335e-02 -5.302583e-01 1.917851e-01 -9.522550e-02 2.266376e-03 -1.582689e-01 4.061907e-02 7.952610e-02 -1.819234e-01 -5.125991e-02 -1.695738e-02 1.764176e-01 -7.179974e-03 6.331269e-02 3.128468e-01
<VARIANCE> 39
 1.120450e+01 1.169360e+01 1.371097e+01 1.439749e+01 1.686591e+01 1.922676e+01 1.850842e+01 2.102096e+01 1.820338e+01 1.677998e+01 1.582246e+01 1.386157e+01 8.221564e+00 9.704933e-01 7.352802e-01 9.255082e-01 1.343399e+00 1.359471e+00 1.455153e+00 1.734829e+00 2.343331e+00 1.784680e+00 1.439547e+00 1.168080e+00 1.132273e+00 5.090044e-01 1.221101e-01 1.979320e-01 2.243607e-01 3.704793e-01 3.009458e-01 2.973649e-01 3.523418e-01 4.868091e-01 3.692471e-01 3.108068e-01 2.299400e-01 2.378462e-01 1.219359e-01
<GCONST> 9.175315e+01
<STATE> 3
<MEAN> 39
 -5.845102e+00 4.693042e-01 -6.523115e+00 -2.115942e+00 -3.046952e+00 -2.198337e-01 2.648369e-01 1.192178e+00 2.293272e+00 -1.942677e+00 1.813938e-01 -2.344160e+00 4.077505e+01 -2.581701e-01 -2.282484e-01 3.138753e-01 2.324445e-01 2.222175e-01 -1.343010e-01 -1.933596e-01 6.194992e-02 -1.097069e-01 1.897513e-01 -6.842237e-03 1.817895e-01 2.560419e-01 1.645574e-01 -9.159791e-02 1.762106e-01 -8.397284e-02 3.322211e-02 3.133636e-03 -1.922167e-01 2.918066e-03 -1.450814e-01 1.343073e-01 -1.050373e-02 -6.498747e-02 3.783890e-01
<VARIANCE> 39
 8.287319e+00 8.767939e+00 1.157648e+01 1.920621e+01 1.560597e+01 1.751785e+01 1.964495e+01 1.864459e+01 1.752381e+01 1.647488e+01 1.319271e+01 1.050767e+01 1.026801e+01 3.788773e-01 5.761321e-01 8.231275e-01 1.187014e+00 1.414107e+00 1.446669e+00 1.714005e+00 1.731049e+00 1.397894e+00 1.255142e+00 1.124222e+00 1.053648e+00 4.844575e-01 1.264422e-01 1.223974e-01 3.077666e-01 2.934652e-01 3.277603e-01 3.126020e-01 3.853548e-01 3.240288e-01 3.170058e-01 2.871777e-01 2.341368e-01 2.069977e-01 1.274031e-01
<GCONST> 8.765722e+01
<STATE> 4
<MEAN> 39
 -5.806798e+00 -1.018984e+00 -4.646525e+00 -1.831758e+00 -2.022221e+00 -1.314022e+00 -1.572451e+00 1.656471e+00 6.079288e-01 -1.621344e-01 -3.949462e-01 -1.844880e+00 4.395408e+01 1.396412e+00 -4.108893e-01 1.176529e+00 -1.169581e+00 -5.067561e-01 4.468377e-01 -1.242679e+00 -9.471665e-02 -9.614944e-01 8.809614e-01 2.236693e-02 -2.605392e-01 2.694863e+00 6.380798e-01 -9.996265e-03 5.013763e-02 -7.318854e-01 -3.873672e-01 2.616913e-01 -3.551581e-01 -1.134245e-01 -1.603869e-01 1.467992e-01 -8.135995e-03 -2.297755e-01 6.891311e-01
<VARIANCE> 39
 1.431421e+01 1.409013e+01 2.002425e+01 2.061376e+01 2.262133e+01 2.773697e+01 2.146146e+01 2.096608e+01 1.829274e+01 1.944317e+01 1.467856e+01 1.157985e+01 2.314738e+01 3.083332e+00 1.514356e+00 7.519554e+00 4.619253e+00 4.236023e+00 3.014407e+00 3.067300e+00 2.242514e+00 2.728478e+00 2.661958e+00 1.796067e+00 1.277879e+00 2.512270e+00 2.572675e-01 3.225918e-01 7.907381e-01 4.384055e-01 4.956115e-01 3.887407e-01 4.803509e-01 4.185182e-01 4.501891e-01 3.536621e-01 3.128466e-01 2.114582e-01 3.385935e-01
<GCONST> 1.105725e+02
<TRANSP> 5
 0.000000e+00 1.000000e+00 0.000000e+00 0.000000e+00 0.000000e+00
 0.000000e+00 7.966239e-01 2.033761e-01 0.000000e+00 0.000000e+00
 0.000000e+00 0.000000e+00 6.706049e-01 3.293951e-01 0.000000e+00
 0.000000e+00 0.000000e+00 0.000000e+00 6.749052e-01 3.250948e-01
 0.000000e+00 0.000000e+00 0.000000e+00 0.000000e+00 0.000000e+00
<ENDHMM>
~h "r"
<BEGINHMM>
<NUMSTATES> 5
<STATE> 2
<MEAN> 39
 5.895793e+00 4.286562e+00 -4.464765e+00 -1.300404e+01 -7.080956e+00 1.474852e+00 -1.076665e+01 -2.784976e+00 -5.124300e+00 3.732920e-02 1.818739e+00 1.841695e+00 5.278305e+01 -5.179323e-02 -6.923826e-01 -5.022460e-01 -3.736650e-01 4.344209e-01 1.517425e-01 -5.749317e-01 2.370336e-01 3.667762e-01 9.802511e-01 1.170683e-01 -3.188373e-01 4.961326e-01 -1.070250e-01 -1.312297e-01 -5.185204e-02 2.771135e-02 1.294449e-01 -3.613554e-03 5.867894e-02 1.091870e-01 1.978976e-01 1.829827e-01 -1.027541e-01 -1.613069e-01 2.666112e-02
<VARIANCE> 39
 7.955031e+00 2.535805e+01 1.542150e+01 5.326642e+01 2.307996e+01 3.613108e+01 3.532475e+01 3.774054e+01 4.659396e+01 2.676250e+01 1.625886e+01 1.595663e+01 1.069737e+01 4.411817e-01 7.677590e-01 8.563877e-01 2.336479e+00 1.971329e+00 1.664750e+00 2.156890e+00 2.271169e+00 2.005806e+00 1.866137e+00 1.159348e+00 1.206461e+00 4.393042e-01 6.367311e-02 1.035232e-01 1.602362e-01 3.642227e-01 3.471095e-01 3.058724e-01 4.217946e-01 3.747511e-01 3.392175e-01 2.910505e-01 2.503589e-01 1.891852e-01 7.034989e-02
<GCONST> 9.592487e+01
<STATE> 3
<MEAN> 39
 4.249814e+00 -2.485679e+00 -8.940114e+00 -1.354543e+01 -2.927119e+00 1.235520e+00 -1.240320e+01 4.266105e+00 5.568753e-01 7.824824e+00 -2.279036e+00 -2.732996e+00 5.746372e+01 -1.639424e-01 -6.514929e-01 -2.524598e-01 1.900938e-01 2.582593e-01 -2.055675e-01 2.243344e-01 8.388298e-01 8.513790e-01 -1.854071e-02 -8.926592e-01 -4.460489e-01 3.190781e-01 6.867606e-03 8.888102e-02 1.175753e-01 1.049467e-01 -6.497807e-02 -2.785420e-02 9.865246e-02 -9.090360e-02 -1.159575e-01 -2.635843e-01 1.039378e-02 1.380076e-01 -8.855571e-02
<VARIANCE> 39
 6.622019e+00 1.409998e+01 1.787916e+01 6.149183e+01 1.896119e+01 2.632589e+01 2.825777e+01 3.267268e+01 4.230728e+01 3.821889e+01 2.566501e+01 1.766984e+01 1.330241e+01 4.323972e-01 7.192479e-01 1.182498e+00 2.344528e+00 1.474237e+00 1.973877e+00 2.484672e+00 2.356850e+00 2.568578e+00 3.138393e+00 1.637366e+00 1.384877e+00 6.159099e-01 8.909182e-02 1.273684e-01 2.383333e-01 3.702593e-01 2.866645e-01 3.207192e-01 5.363921e-01 3.967331e-01 5.107672e-01 5.566200e-01 2.788606e-01 2.180030e-01 1.058239e-01
<GCONST> 1.003145e+02
<STATE> 4
<MEAN> 39
 3.288714e+00 -5.191597e+00 -7.352464e+00 -9.234552e+00 -3.037641e+00 3.006698e-01 -9.882613e+00 6.918104e+00 4.055800e+00 1.465184e+00 -4.325033e+00 -2.579049e+00 5.609432e+01 -1.465497e-01 6.873670e-02 9.584748e-02 2.427172e-01 8.845261e-02 3.585230e-02 1.867978e-01 -7.254755e-02 -5.194079e-02 -1.240111e-01 5.408467e-02 2.542740e-02 -2.455316e-01 -6.489786e-03 3.093354e-02 -5.152017e-03 2.037838e-03 -2.013352e-03 -3.506733e-03 -1.330839e-02 -4.396825e-02 -1.668911e-02 1.644476e-02 3.755203e-02 2.538586e-03 -4.137385e-02
<VARIANCE> 39
 1.206318e+01 1.407946e+01 1.679135e+01 5.522503e+01 2.311666e+01 2.278852e+01 3.860021e+01 2.896420e+01 3.464685e+01 2.502163e+01 2.536205e+01 1.557306e+01 2.860135e+01 5.284288e-01 7.008647e-01 9.032148e-01 1.885064e+00 1.301952e+00 1.163957e+00 1.957558e+00 1.517205e+00 1.709998e+00 1.081349e+00 1.163893e+00 8.371654e-01 8.139190e-01 9.726103e-02 1.326828e-01 1.594455e-01 2.826457e-01 2.260676e-01 1.996044e-01 3.845265e-01 2.827346e-01 3.147321e-01 1.816386e-01 1.977613e-01 1.405278e-01 1.457651e-01
<GCONST> 9.331601e+01
<TRANSP> 5
 0.000000e+00 1.000000e+00 0.000000e+00 0.000000e+00 0.000000e+00
 0.000000e+00 8.526093e-01 1.473907e-01 0.000000e+00 0.000000e+00
 0.000000e+00 0.000000e+00 8.336399e-01 1.663601e-01 0.000000e+00
 0.000000e+00 0.000000e+00 0.000000e+00 9.581191e-01 4.188092e-02
 0.000000e+00 0.000000e+00 0.000000e+00 0.000000e+00 0.000000e+00
<ENDHMM>
~h "s"
<BEGINHMM>
<NUMSTATES> 5
<STATE> 2
<MEAN> 39
 -7.628341e+00 -1.063306e+00 -4.134075e+00 -1.512802e+00 -2.394084e+00 -1.903116e+00 -1.893754e+00 1.490896e+00 1.505081e+00 -5.651696e-01 -8.103202e-01 -9.913446e-01 4.108165e+01 -7.084414e-01 2.284276e-02 1.466909e-01 -3.799649e-01 1.894557e-01 -1.450626e-01 3.440554e-02 2.674797e-01 -1.861437e-01 8.948360e-02 -3.661541e-02 1.648748e-01 3.751280e-01 -1.680774e-01 7.371938e-02 7.278301e-02 -1.154159e-01 9.075716e-02 -2.233646e-02 -6.278635e-02 7.992947e-02 -3.327442e-02 3.339968e-02 -5.184331e-02 4.849650e-02 1.791360e-01
<VARIANCE> 39
 1.436121e+01 1.812294e+01 1.792184e+01 1.990688e+01 2.375881e+01 2.825869e+01 2.243823e+01 2.248533e+01 2.003932e+01 1.882350e+01 1.888924e+01 1.667383e+01 1.871053e+01 1.969615e+00 1.186509e+00 1.493606e+00 1.740814e+00 2.048488e+00 2.253848e+00 2.003786e+00 1.893664e+00 2.131760e+00 1.663537e+00 1.408083e+00 1.259643e+00 1.166832e+00 2.828501e-01 2.315197e-01 2.493379e-01 2.931800e-01 3.419767e-01 4.050483e-01 3.153298e-01 2.753658e-01 3.760160e-01 3.210325e-01 2.533613e-01 2.185674e-01 1.588289e-01
<GCONST> 1.005140e+02
<STATE> 3
<MEAN> 39
 -1.138919e+01 -2.434790e-01 -2.092320e+00 -3.342722e+00 -1.984586e+00 -2.487073e+00 -2.455508e+00 2.253419e+00 8.931215e-01 -2.627766e-01 -1.588088e+00 2.425018e-01 4.438519e+01 -1.252075e+00 3.236891e-01 3.535748e-01 -4.865735e-01 3.936190e-01 3.145076e-02 -1.257860e-01 3.196276e-01 -1.651654e-01 1.822850e-01 -1.608463e-01 1.111443e-01 7.531480e-01 5.329307e-02 2.673855e-02 -4.353406e-02 4.237030e-02 -2.283007e-02 1.117782e-01 -4.645505e-02 -3.688628e-02 -3.496042e-03 -1.852533e-02 2.304768e-02 -6.059130e-02 1.527658e-03
<VARIANCE> 39
 2.911721e+01 1.893924e+01 2.475220e+01 2.798286e+01 2.931802e+01 4.358831e+01 3.431633e+01 3.441741e+01 2.252166e+01 2.131965e+01 1.635349e+01 1.705106e+01 1.664292e+01 2.192732e+00 9.760275e-01 1.362053e+00 1.636405e+00 1.644342e+00 2.777889e+00 2.003584e+00 2.229391e+00 1.642374e+00 1.606154e+00 1.253370e+00 1.167431e+00 8.998055e-01 2.137785e-01 1.533193e-01 1.656632e-01 2.343099e-01 2.525606e-01 5.350853e-01 3.419739e-01 3.925635e-01 3.023749e-01 3.020437e-01 2.332711e-01 1.848888e-01 6.727960e-02
<GCONST> 1.002851e+02
<STATE> 4
<MEAN> 39
 -1.787597e+01 2.016278e+00 -1.972365e+00 -6.871767e+00 -3.305075e-01 -1.728417e+00 -5.112284e+00 4.170926e+00 -2.523674e-01 5.902892e-01 -1.812010e+00 7.236609e-01 5.014545e+01 2.366400e-01 -3.600142e-01 -6.972270e-02 4.613471e-02 -3.240511e-01 1.496650e-01 -3.990079e-01 -2.956364e-03 2.403317e-01 7.583810e-02 -1.754812e-01 1.485287e-02 6.043200e-01 5.565295e-01 -1.926137e-01 -1.137712e-01 1.039687e-01 -1.134424e-01 -8.776418e-03 -1.153971e-01 -8.954379e-02 1.117123e-01 1.405819e-02 -1.729656e-02 -5.911861e-02 -8.753530e-02
<VARIANCE> 39
 2.609105e+01 1.959922e+01 2.937005e+01 2.042711e+01 4.364194e+01 4.794072e+01 3.483972e+01 3.324415e+01 2.802711e+01 1.901196e+01 1.673280e+01 1.457926e+01 1.422181e+01 5.119115e+00 1.422886e+00 1.338454e+00 1.734029e+00 2.094295e+00 2.599903e+00 2.622630e+00 2.029521e+00 2.106321e+00 1.783437e+00 1.414299e+00 1.279069e+00 6.936868e-01 3.700769e-01 2.204660e-01 2.650785e-01 3.587788e-01 3.983223e-01 4.991991e-01 4.351450e-01 3.748820e-01 3.502482e-01 3.321202e-01 2.742947e-01 2.477147e-01 1.553912e-01
<GCONST> 1.061971e+02
<TRANSP> 5
 0.000000e+00 1.000000e+00 0.000000e+00 0.000000e+00 0.000000e+00
 0.000000e+00 8.240076e-01 1.759923e-01 0.000000e+00 0.000000e+00
 0.000000e+00 0.000000e+00 7.148869e-01 2.851131e-01 0.000000e+00
 0.000000e+00 0.000000e+00 0.000000e+00 8.794829e-01 1.205171e-01
 0.000000e+00 0.000000e+00 0.000000e+00 0.000000e+00 0.000000e+00
<ENDHMM>
~h "t"
<BEGINHMM>
<NUMSTATES> 5
<STATE> 2
<MEAN> 39
 -1.005713e+00 -1.284465e+00 -7.541901e+00 -6.508227e+00 -2.336965e+00 -2.152247e+00 -3.420698e+00 2.172760e+00 2.114899e+00 -2.359804e+00 -2.070511e+00 -1.215564e+00 4.860345e+01 2.231962e-01 -6.808989e-01 -1.780165e-02 -6.711693e-01 1.742163e-02 2.041967e-02 -4.895003e-01 2.509767e-01 -6.921175e-02 2.787457e-01 -3.309644e-01 -2.449070e-02 1.066531e+00 7.864866e-02 -1.092708e-01 1.044382e-02 -1.782424e-01 -1.312124e-02 -1.704118e-02 -1.682804e-01 8.065346e-02 3.455945e-02 1.537163e-01 -8.821686e-02 -5.673058e-02 2.947849e-01
<VARIANCE> 39
 3.316813e+01 2.282471e+01 1.623140e+01 4.063489e+01 1.553922e+01 3.096812e+01 3.648372e+01 2.806379e+01 2.785833e+01 3.410880e+01 1.839146e+01 1.759476e+01 8.209291e+01 2.466375e+00 2.286233e+00 1.528359e+00 3.493406e+00 1.730365e+00 2.910656e+00 3.788419e+00 2.587131e+00 2.302308e+00 2.196551e+00 1.491297e+00 1.143530e+00 7.773150e+00 4.149005e-01 3.519984e-01 2.685089e-01 5.369199e-01 3.054400e-01 5.021993e-01 7.063969e-01 4.420064e-01 4.428402e-01 3.794086e-01 2.735709e-01 2.058235e-01 8.259514e-01
<GCONST> 1.147079e+02
<STATE> 3
<MEAN> 39
 -2.796367e-01 -3.973915e+00 -6.841612e+00 -1.031902e+01 -3.027197e+00 -2.451975e+00 -6.020669e+00 5.120826e+00 2.641736e+00 8.341681e-01 -4.317186e+00 -2.012187e+00 5.239213e+01 -8.058710e-02 -4.854130e-01 3.778284e-01 -4.779616e-01 -1.587005e-02 -6.499542e-01 -7.188016e-01 4.965797e-01 1.227950e-02 4.292178e-01 -5.135756e-01 9.769579e-02 1.340042e+00 6.052662e-02 3.575066e-01 1.783977e-01 3.000425e-01 -8.049145e-02 -4.878702e-02 9.722598e-04 -1.343241e-01 -8.826155e-02 -3.894240e-02 1.185278e-01 3.849820e-02 -1.688614e-01
<VARIANCE> 39
 3.502981e+01 2.476167e+01 1.944897e+01 3.425539e+01 2.701618e+01 3.692429e+01 4.870210e+01 3.889312e+01 3.986874e+01 3.604714e+01 2.449747e+01 1.513084e+01 7.259399e+01 2.133935e+00 2.338727e+00 2.259649e+00 3.305102e+00 2.388789e+00 3.295739e+00 4.271929e+00 3.741308e+00 2.542320e+00 2.156985e+00 2.058306e+00 1.422883e+00 5.477641e+00 5.158131e-01 4.288646e-01 2.938519e-01 6.087800e-01 4.421565e-01 6.377766e-01 7.584014e-01 6.701471e-01 5.039786e-01 4.323739e-01 3.344021e-01 2.857407e-01 6.701615e-01
<GCONST> 1.203527e+02
<STATE> 4
<MEAN> 39
 6.861665e-01 -4.989266e-01 2.325841e-01 -9.292958e+00 -7.349770e+00 -8.204109e+00 -7.955485e+00 6.434292e+00 -1.068295e+00 3.210805e+00 -4.744523e+00 5.661249e-02 5.483237e+01 -9.187298e-03 5.881467e-01 3.347006e-01 3.911790e-01 8.998407e-03 -9.734157e-02 1.047290e-01 -3.887593e-01 -1.755290e-01 -1.420584e-04 2.408507e-01 4.528486e-03 -3.476731e-01 6.408296e-02 8.955495e-02 -1.370488e-01 1.336599e-02 6.274950e-02 2.357932e-01 4.057331e-02 -1.163986e-01 5.680594e-02 -4.845236e-02 9.756971e-02 -7.862046e-02 -1.497371e-01
<VARIANCE> 39
 2.208745e+01 2.328433e+01 5.988664e+01 3.197510e+01 5.595898e+01 4.304341e+01 4.455094e+01 7.617249e+01 5.854045e+01 2.827398e+01 2.901429e+01 1.375149e+01 4.773618e+01 1.826213e+00 1.563800e+00 3.000201e+00 2.514792e+00 3.468561e+00 3.026731e+00 3.633006e+00 3.528108e+00 3.858812e+00 2.055230e+00 1.912915e+00 1.458858e+00 3.995582e+00 3.962796e-01 3.185593e-01 3.600571e-01 4.880709e-01 5.318968e-01 5.750208e-01 6.273438e-01 6.401696e-01 6.035919e-01 3.533002e-01 3.655711e-01 2.891889e-01 4.620803e-01
<GCONST> 1.206450e+02
<TRANSP> 5
 0.000000e+00 1.000000e+00 0.000000e+00 0.000000e+00 0.000000e+00
 0.000000e+00 7.463185e-01 2.536814e-01 0.000000e+00 0.000000e+00
 0.000000e+00 0.000000e+00 5.424017e-01 4.575983e-01 0.000000e+00
 0.000000e+00 0.000000e+00 0.000000e+00 7.898405e-01 2.101595e-01
 0.000000e+00 0.000000e+00 0.000000e+00 0.000000e+00 0.000000e+00
<ENDHMM>
~h "u"
<BEGINHMM>
<NUMSTATES> 5
<STATE> 2
<MEAN> 39
 -5.945024e+00 1.496112e+00 -3.041572e+00 -3.246336e+00 -3.588149e+00 -2.605302e+00 -4.766434e+00 -3.049095e-01 5.586851e-01 -3.467343e-01 -2.246516e-01 -1.551002e+00 4.564655e+01 2.689597e-01 -1.575091e-01 -3.438376e-01 6.038883e-02 3.289861e-01 1.031372e-01 -2.154231e-01 -2.978920e-01 -7.419950e-02 1.059916e-01 1.973340e-01 -7.542133e-03 -7.117435e-02 2.320481e-01 1.469657e-01 1.818983e-01 -2.503352e-01 -2.591093e-02 1.369872e-01 -2.545702e-01 -1.070715e-01 -1.937044e-01 7.898575e-02 3.177638e-02 1.192018e-01 3.109895e-01
<VARIANCE> 39
 4.797842e+01 2.625673e+01 1.833115e+01 2.557399e+01 2.758447e+01 3.321957e+01 3.058214e+01 2.807192e+01 1.940242e+01 2.261106e+01 1.606078e+01 1.285552e+01 2.318905e+01 5.566685e+00 2.154643e+00 1.957647e+00 2.786198e+00 2.493011e+00 2.686296e+00 3.783406e+00 2.724806e+00 1.862407e+00 1.940475e+00 1.435418e+00 1.222342e+00 2.253208e+00 5.606644e-01 4.288763e-01 3.407309e-01 5.281340e-01 5.297337e-01 5.336708e-01 5.719487e-01 5.601701e-01 4.076893e-01 3.483376e-01 2.926599e-01 2.473967e-01 3.799728e-01
<GCONST> 1.130874e+02
<STATE> 3
<MEAN> 39
 -3.506197e+00 1.674083e+00 -1.740633e+00 -4.736172e+00 -2.351704e+00 -2.020016e+00 -9.822936e+00 -1.363185e+00 -3.257430e-01 1.856446e+00 -2.551366e-01 5.112548e-02 4.959838e+01 2.373626e+00 1.134860e+00 2.923464e-01 -1.091633e+00 -3.789458e-01 9.968827e-01 -1.207235e+00 -1.206923e+00 -9.596330e-01 3.972969e-01 4.925712e-01 3.823591e-01 8.465834e-01 -1.694081e-01 1.398387e-01 -9.929542e-02 -4.685824e-01 -2.608134e-01 1.357430e-01 2.617434e-01 4.778048e-02 -3.055438e-01 -1.482694e-01 6.073717e-02 1.067767e-01 5.888795e-02
<VARIANCE> 39
 6.617233e+01 3.018243e+01 1.503608e+01 3.620912e+01 2.919467e+01 3.898048e+01 4.698000e+01 4.019713e+01 2.806678e+01 2.413162e+01 1.528601e+01 1.579098e+01 2.063227e+01 9.467676e+00 2.749576e+00 1.741736e+00 4.350341e+00 3.212400e+00 3.701058e+00 4.516547e+00 5.118300e+00 3.731007e+00 2.672972e+00 1.901480e+00 1.823520e+00 2.152087e+00 9.287239e-01 5.804072e-01 3.387867e-01 7.503582e-01 5.582538e-01 5.788064e-01 7.990248e-01 7.605918e-01 6.076856e-01 5.275865e-01 3.281649e-01 3.247015e-01 3.327951e-01
<GCONST> 1.223066e+02
<STATE> 4
<MEAN> 39
 3.754200e+00 4.222202e+00 -4.231722e+00 -1.167990e+01 -4.581968e+00 2.055449e+00 -1.108794e+01 -4.386551e+00 -4.597698e+00 1.625312e+00 1.659103e+00 1.573314e+00 5.269472e+01 -6.088614e-02 -4.822558e-02 -3.600898e-01 -4.687327e-01 -3.590950e-02 4.784776e-02 3.797200e-01 3.570979e-01 -4.140892e-02 -8.495791e-02 -5.555246e-03 8.507922e-03 9.001288e-02 -2.794219e-01 -1.855525e-01 -9.370449e-03 2.412712e-01 1.090726e-01 -1.855689e-01 2.012767e-01 2.716072e-01 2.297092e-01 -4.948131e-02 -1.636659e-01 -1.283320e-01 -8.474616e-02
<VARIANCE> 39
 2.797911e+01 1.845138e+01 1.562463e+01 3.675969e+01 2.419009e+01 3.317840e+01 3.535776e+01 3.708748e+01 3.939315e+01 3.876358e+01 1.916998e+01 2.145619e+01 1.433394e+01 1.916876e+00 1.458257e+00 1.035144e+00 3.688501e+00 2.231351e+00 2.742196e+00 2.734429e+00 3.167003e+00 3.246566e+00 2.952697e+00 1.703405e+00 1.743724e+00 1.122570e+00 3.605966e-01 1.878146e-01 2.057260e-01 4.867645e-01 3.955323e-01 4.968238e-01 5.609867e-01 5.918230e-01 5.022637e-01 4.961023e-01 3.214536e-01 2.829923e-01 1.495908e-01
<GCONST> 1.105493e+02
<TRANSP> 5
 0.000000e+00 1.000000e+00 0.000000e+00 0.000000e+00 0.000000e+00
 0.000000e+00 6.853504e-01 3.146495e-01 0.000000e+00 0.000000e+00
 0.000000e+00 0.000000e+00 5.833338e-01 4.166662e-01 0.000000e+00
 0.000000e+00 0.000000e+00 0.000000e+00 8.085306e-01 1.914694e-01
 0.000000e+00 0.000000e+00 0.000000e+00 0.000000e+00 0.000000e+00
<ENDHMM>
~h "y"
<BEGINHMM>
<NUMSTATES> 5
<STATE> 2
<MEAN> 39
 -2.195433e-01 -8.585250e-01 4.489382e+00 -9.383910e+00 -1.126502e+01 -4.505529e+00 -7.228656e+00 5.830543e+00 -2.936903e+00 -1.600188e-02 -1.543189e+00 -1.556975e-02 5.746040e+01 -2.443460e-01 6.361260e-01 1.170101e+00 1.707554e-01 -9.376200e-01 -5.149605e-01 2.347522e-02 -2.852668e-01 -4.954135e-01 7.690486e-02 6.121386e-01 3.010210e-01 -2.579201e-01 2.569604e-02 -7.847503e-02 -1.966391e-01 -5.239161e-02 1.153553e-01 5.519431e-02 4.385901e-02 1.549963e-02 1.082570e-01 4.225858e-02 -4.950624e-02 -3.759137e-02 4.709020e-03
<VARIANCE> 39
 6.549126e+00 2.894652e+01 6.060602e+01 3.854054e+01 4.599599e+01 2.862785e+01 3.186332e+01 4.350797e+01 4.082435e+01 2.400994e+01 3.447514e+01 1.478037e+01 1.659018e+01 2.979283e-01 1.385187e+00 3.117473e+00 1.377451e+00 1.878039e+00 1.802393e+00 1.691498e+00 3.113587e+00 3.019249e+00 1.062920e+00 1.417580e+00 1.307756e+00 3.750359e-01 5.715684e-02 1.756483e-01 3.177947e-01 2.263238e-01 3.558496e-01 3.386369e-01 3.130091e-01 5.250549e-01 4.305813e-01 1.831718e-01 2.558681e-01 2.327962e-01 5.849295e-02
<GCONST> 9.992630e+01
<STATE> 3
<MEAN> 39
 -2.435773e-01 -1.205843e+00 1.996687e+00 -9.842812e+00 -1.225108e+01 -5.739844e+00 -5.299592e+00 7.630543e+00 7.089949e-01 2.537970e-01 -1.604900e+00 1.312921e+00 5.695692e+01 3.713747e-01 -6.920985e-01 -1.621202e+00 -2.380274e-01 1.016220e+00 5.050641e-01 2.187767e-01 7.691705e-01 1.079572e+00 1.828531e-01 -9.669650e-01 -3.260804e-01 1.117858e-01 1.282534e-02 2.087129e-02 -1.416434e-03 4.886546e-02 2.259727e-01 2.375738e-01 -1.078945e-01 -1.679217e-01 -1.370571e-01 9.129342e-03 -2.511032e-03 -1.841735e-01 -2.861958e-02
<VARIANCE> 39
 9.276102e+00 1.457814e+01 3.494749e+01 2.616230e+01 2.268027e+01 2.591106e+01 4.308983e+01 3.925473e+01 5.677370e+01 1.788047e+01 2.909911e+01 1.277022e+01 1.005760e+01 4.277294e-01 8.192455e-01 1.548740e+00 1.199141e+00 2.483443e+00 1.929962e+00 2.310727e+00 1.920560e+00 2.674171e+00 1.494944e+00 1.362275e+00 1.176228e+00 3.463182e-01 8.734478e-02 1.465593e-01 2.486449e-01 2.110867e-01 4.586662e-01 3.615001e-01 4.429184e-01 4.462894e-01 5.048710e-01 2.312511e-01 2.916298e-01 1.812737e-01 6.475750e-02
<GCONST> 9.723700e+01
<STATE> 4
<MEAN> 39
 1.521598e+00 -4.211182e+00 -5.246564e+00 -1.099718e+01 -4.554438e+00 -1.559450e+00 -4.083326e+00 8.264244e+00 3.959653e+00 8.671382e-01 -5.954298e+00 -2.536186e+00 5.710360e+01 3.484390e-01 -1.114293e-01 -7.359912e-01 8.025106e-02 1.095270e+00 1.025522e+00 -4.430155e-01 -8.589331e-01 -4.412163e-02 6.526714e-02 3.173984e-01 -7.289211e-01 -2.772796e-01 8.878636e-02 2.323012e-01 1.921874e-01 -4.727229e-02 -2.689489e-01 3.075052e-02 -1.906660e-01 -3.983408e-01 -1.463615e-01 -3.623386e-02 4.849336e-01 1.501299e-01 -1.353039e-01
<VARIANCE> 39
 6.651638e+00 1.139767e+01 2.404926e+01 2.316832e+01 1.821768e+01 1.681081e+01 3.220316e+01 2.949141e+01 3.153875e+01 2.687927e+01 2.447118e+01 1.738698e+01 1.535894e+01 2.402107e-01 5.950114e-01 1.045698e+00 1.033136e+00 1.565658e+00 1.386820e+00 1.521088e+00 1.818648e+00 1.509887e+00 1.507921e+00 1.704605e+00 1.115945e+00 3.143571e-01 5.696345e-02 9.915811e-02 1.967242e-01 1.977460e-01 2.836301e-01 1.927861e-01 3.046920e-01 2.910173e-01 3.505754e-01 2.197446e-01 3.216915e-01 1.994850e-01 5.235015e-02
<GCONST> 8.865806e+01
<TRANSP> 5
 0.000000e+00 1.000000e+00 0.000000e+00 0.000000e+00 0.000000e+00
 0.000000e+00 9.230371e-01 7.696299e-02 0.000000e+00 0.000000e+00
 0.000000e+00 0.000000e+00 8.554055e-01 1.445945e-01 0.000000e+00
 0.000000e+00 0.000000e+00 0.000000e+00 7.312484e-01 2.687516e-01
 0.000000e+00 0.000000e+00 0.000000e+00 0.000000e+00 0.000000e+00
<ENDHMM>
~h "ng"
<BEGINHMM>
<NUMSTATES> 5
<STATE> 2
<MEAN> 39
 -3.359967e+00 3.013866e+00 -1.436303e-01 1.687086e+00 -3.373834e-01 -1.176027e-02 -6.854947e-01 7.566087e-01 6.857467e-01 -1.507694e+00 -5.089796e-01 -6.022136e-01 4.195405e+01 -2.809527e-01 -2.472194e-01 -3.261303e-01 -9.127837e-02 9.268568e-02 -1.692167e-02 1.644467e-01 2.658402e-01 1.212340e-01 -7.083230e-04 9.272142e-02 -3.298336e-02 -2.276900e-01 1.054296e-02 -6.422496e-03 -1.359828e-02 -4.332538e-02 -6.888150e-02 -4.103760e-02 -1.767495e-02 -3.516764e-02 -9.023736e-03 2.672570e-02 1.489272e-02 -2.427986e-04 1.333311e-02
<VARIANCE> 39
 6.701395e+00 1.285124e+01 1.244148e+01 1.438548e+01 1.455120e+01 1.815967e+01 1.642328e+01 2.132044e+01 1.628695e+01 1.871712e+01 1.317470e+01 1.296072e+01 1.157420e+01 3.685202e-01 6.813683e-01 9.283215e-01 1.211153e+00 1.268406e+00 1.353737e+00 1.456855e+00 1.396369e+00 1.345530e+00 1.288226e+00 1.050487e+00 9.636489e-01 1.320902e-01 6.089032e-02 1.106939e-01 1.615108e-01 2.302219e-01 2.509951e-01 2.629490e-01 2.960782e-01 2.729307e-01 2.530359e-01 2.368658e-01 2.021969e-01 1.969959e-01 1.930886e-02
<GCONST> 8.107825e+01
<STATE> 3
<MEAN> 39
 -6.147519e+00 9.038639e-02 -4.482889e+00 6.061682e-02 -2.338261e+00 8.053392e-03 2.320159e-01 7.731728e-01 2.472715e+00 -1.674638e+00 1.202223e+00 -2.051874e+00 4.326053e+01 -1.570869e-01 -2.085115e-01 -2.588891e-01 -1.722741e-01 -1.992292e-01 -1.400193e-01 -4.484172e-02 -2.666675e-02 2.200384e-02 1.502546e-02 6.451838e-02 -1.648279e-03 -1.886876e-01 5.008043e-02 6.056073e-02 6.996907e-02 3.123711e-02 2.200477e-02 3.081237e-02 -7.615415e-03 -3.338968e-02 -2.755978e-02 -7.393878e-03 -2.409401e-02 -8.977774e-03 1.476214e-02
<VARIANCE> 39
 4.349862e+00 9.343855e+00 1.015540e+01 1.835658e+01 1.801871e+01 1.823232e+01 1.985158e+01 2.028805e+01 2.000505e+01 1.532968e+01 1.546554e+01 1.191447e+01 6.175483e+00 2.244003e-01 4.238967e-01 6.752161e-01 1.088194e+00 1.319333e+00 1.312589e+00 1.620176e+00 1.619968e+00 1.476712e+00 1.218809e+00 1.090614e+00 1.038168e+00 7.291272e-02 4.133392e-02 7.860535e-02 1.293150e-01 2.184737e-01 2.587865e-01 2.470499e-01 3.253449e-01 3.347526e-01 2.962258e-01 2.300953e-01 2.042982e-01 2.086098e-01 1.204671e-02
<GCONST> 7.758895e+01
<STATE> 4
<MEAN> 39
 -5.829101e+00 6.698928e-01 -4.806571e+00 -1.527750e-01 -1.955624e+00 -7.967127e-01 -6.490716e-01 -2.892753e-01 8.590850e-01 -1.208296e+00 2.154350e-01 -1.709374e+00 3.872267e+01 8.843785e-03 7.402476e-03 5.686687e-03 6.226037e-03 6.429890e-03 1.296707e-02 1.307370e-02 8.055879e-04 -6.947836e-03 -1.796014e-02 -2.300611e-03 -2.244018e-03 -6.074403e-02 -2.337506e-03 -2.634837e-03 2.857217e-03 -4.128091e-03 -3.103562e-03 -4.750515e-03 -5.806908e-03 -1.996031e-03 1.349909e-03 -6.946704e-04 6.657399e-04 3.391203e-03 1.281797e-03
<VARIANCE> 39
 4.478987e+00 5.871508e+00 7.419600e+00 1.096816e+01 1.375352e+01 1.602336e+01 1.619750e+01 1.731012e+01 1.831082e+01 1.651269e+01 1.429527e+01 1.067586e+01 9.152924e+00 1.576731e-01 3.454409e-01 5.989824e-01 8.332897e-01 1.151634e+00 1.230951e+00 1.331813e+00 1.373513e+00 1.357014e+00 1.226409e+00 1.090921e+00 9.011660e-01 6.636951e-02 3.082065e-02 6.536309e-02 1.180582e-01 1.627214e-01 2.304565e-01 2.386634e-01 2.636456e-01 2.642623e-01 2.656240e-01 2.444148e-01 2.121499e-01 1.779458e-01 1.451077e-02
<GCONST> 7.249041e+01
<TRANSP> 5
 0.000000e+00 1.000000e+00 0.000000e+00 0.000000e+00 0.000000e+00
 0.000000e+00 8.605968e-01 1.394031e-01 0.000000e+00 0.000000e+00
 0.000000e+00 0.000000e+00 8.772802e-01 1.227199e-01 0.000000e+00
 0.000000e+00 0.000000e+00 0.000000e+00 9.680295e-01 3.197046e-02
 0.000000e+00 0.000000e+00 0.000000e+00 0.000000e+00 0.000000e+00
<ENDHMM>
~h "sil"
<BEGINHMM>
<NUMSTATES> 5
<STATE> 2
<MEAN> 39
 -1.727509e+00 7.444285e-02 -1.345794e+00 6.720540e-02 -5.574557e-01 -1.262633e-01 -2.217975e-01 -1.563832e-03 1.483444e-01 -3.613384e-01 1.531092e-01 -3.357462e-01 1.226440e+01 -1.100958e+00 -3.570337e-01 -1.152414e+00 -4.743215e-01 -7.255703e-01 -5.148970e-01 -4.070817e-01 -2.255343e-01 -3.033741e-02 -2.897401e-01 -4.950045e-02 -2.448665e-01 4.871581e+00 -2.377942e-01 -5.562698e-02 -2.736984e-01 -1.147315e-01 -1.943646e-01 -1.538855e-01 -1.507703e-01 -5.953865e-02 1.083319e-02 -9.734098e-02 -3.654172e-02 -1.022541e-01 1.568608e+00
<VARIANCE> 39
 8.995243e+00 3.415362e+00 6.958476e+00 4.608972e+00 4.593502e+00 5.524759e+00 4.026649e+00 4.456186e+00 3.810908e+00 3.930613e+00 3.595374e+00 2.738183e+00 3.250645e+02 1.004546e+00 5.092528e-01 1.232952e+00 8.902273e-01 1.053003e+00 9.332266e-01 9.866121e-01 8.898733e-01 8.067403e-01 8.649100e-01 6.026971e-01 5.362117e-01 2.386558e+01 1.365316e-01 6.871492e-02 1.564132e-01 1.269099e-01 1.519597e-01 1.592074e-01 1.513066e-01 1.380257e-01 1.097466e-01 1.237359e-01 1.004215e-01 8.836559e-02 2.164505e+00
<GCONST> 7.199651e+01
<STATE> 3
<MEAN> 39
 -6.639909e+00 -1.595667e+00 -6.473203e+00 -2.403414e+00 -4.101420e+00 -2.978073e+00 -2.566113e+00 -6.600078e-01 3.369828e-01 -1.678175e+00 -2.619745e-01 -1.831860e+00 3.811660e+01 -5.279297e-01 -1.657717e-01 -6.328046e-01 -3.248791e-01 -3.676859e-01 -2.702563e-01 -3.074042e-01 -1.407692e-01 4.796882e-02 -1.887864e-01 -2.933450e-02 -1.690287e-01 2.795405e+00 3.233600e-01 1.146849e-01 3.470742e-01 1.778369e-01 2.376623e-01 1.945735e-01 1.551475e-01 6.149165e-02 1.698417e-02 8.695146e-02 1.698084e-02 7.051799e-02 -1.630552e+00
<VARIANCE> 39
 9.325494e+00 1.043044e+01 1.386252e+01 1.727527e+01 1.896070e+01 2.077719e+01 2.110727e+01 1.997163e+01 1.798254e+01 1.818646e+01 1.436146e+01 1.166449e+01 1.595805e+01 1.042077e+00 6.260976e-01 1.395417e+00 1.231132e+00 1.621900e+00 1.571708e+00 1.616066e+00 1.548661e+00 1.315733e+00 1.283181e+00 1.005463e+00 9.389081e-01 2.055739e+01 1.297995e-01 1.272858e-01 2.308032e-01 2.288731e-01 2.910107e-01 2.757718e-01 3.067251e-01 3.051878e-01 2.698802e-01 2.640086e-01 2.154104e-01 1.773097e-01 1.676664e+00
<GCONST> 9.556619e+01
<STATE> 4
<MEAN> 39
 -5.581694e+00 -2.316764e-01 -5.401274e+00 -1.181633e+00 -2.972579e+00 -1.952522e+00 -1.538267e+00 1.658257e-01 8.599866e-01 -1.055204e+00 -2.239376e-01 -1.494696e+00 3.752842e+01 3.171291e-03 2.018523e-02 1.555195e-02 2.122105e-02 1.657864e-02 1.684066e-02 9.028652e-03 1.488256e-02 9.499402e-03 1.509146e-02 -2.608906e-03 -2.013727e-03 -8.669731e-02 -8.428119e-04 -2.368288e-03 5.259033e-03 -3.579367e-03 5.693524e-03 -2.206971e-04 -7.776444e-03 2.034850e-03 -1.195043e-03 7.418034e-03 -3.442559e-03 -9.521972e-04 -1.233036e-02
<VARIANCE> 39
 6.589427e+00 8.000278e+00 1.068703e+01 1.380148e+01 1.534559e+01 1.798980e+01 1.780448e+01 1.905215e+01 1.764841e+01 1.749753e+01 1.421928e+01 1.162674e+01 9.685252e+00 2.437510e-01 4.565361e-01 6.984277e-01 9.487088e-01 1.206472e+00 1.332792e+00 1.431774e+00 1.505990e+00 1.404022e+00 1.302089e+00 1.104958e+00 8.834279e-01 2.766239e-01 4.747350e-02 8.632641e-02 1.332331e-01 1.830417e-01 2.349638e-01 2.577481e-01 2.720293e-01 2.933199e-01 2.719869e-01 2.528534e-01 2.166211e-01 1.689769e-01 3.684280e-02
<GCONST> 7.929561e+01
<TRANSP> 5
 0.000000e+00 1.000000e+00 0.000000e+00 0.000000e+00 0.000000e+00
 0.000000e+00 5.140048e-01 4.859952e-01 0.000000e+00 0.000000e+00
 0.000000e+00 0.000000e+00 6.481453e-01 3.518547e-01 0.000000e+00
 0.000000e+00 0.000000e+00 0.000000e+00 9.708303e-01 2.916973e-02
 0.000000e+00 0.000000e+00 0.000000e+00 0.000000e+00 0.000000e+00
<ENDHMM>
