~o
<STREAMINFO> 1 39
<VECSIZE> 39<NULLD><MFCC_D_A_0><DIAGC>
~h "a"
<BEGINHMM>
<NUMSTATES> 5
<STATE> 2
<MEAN> 39
 -5.910600e-01 -1.042410e+00 -5.767625e+00 -8.095164e+00 -5.466902e+00 -4.868431e+00 -1.108816e+01 3.124147e+00 -4.320916e+00 8.202727e-01 -5.598203e+00 -3.594271e+00 6.683300e+01 -8.112319e-02 7.949562e-02 -1.448810e-02 -1.301960e-01 3.522941e-02 -4.050684e-02 -2.634331e-02 -5.235645e-03 -1.839108e-01 -2.756955e-02 -9.464912e-03 -3.292356e-02 4.929674e-02 6.580279e-03 -1.184744e-02 4.671283e-02 2.159543e-02 2.181117e-02 -1.107013e-02 -2.797252e-02 1.715099e-02 3.827875e-02 -2.897241e-02 -3.032835e-02 1.658872e-02 1.884652e-02
<VARIANCE> 39
 5.364651e+01 3.962823e+01 8.871871e+01 6.776310e+01 5.257125e+01 6.431573e+01 6.122997e+01 8.317902e+01 7.881098e+01 4.641147e+01 5.015157e+01 4.541336e+01 1.090327e+02 2.112228e+00 1.863786e+00 2.042433e+00 2.389724e+00 2.453360e+00 2.918340e+00 2.979277e+00 2.800617e+00 2.814772e+00 2.354753e+00 2.368033e+00 2.142917e+00 2.835621e+00 3.546123e-01 2.649869e-01 2.876691e-01 3.849478e-01 3.792750e-01 4.401443e-01 5.444896e-01 5.158002e-01 4.851270e-01 4.210453e-01 4.028703e-01 3.471731e-01 3.793321e-01
<GCONST> 1.247826e+02
<STATE> 3
<MEAN> 39
 -4.547914e-01 -8.480215e-01 -5.579661e+00 -8.813788e+00 -5.272373e+00 -4.929352e+00 -1.133519e+01 3.284541e+00 -4.425319e+00 8.038229e-01 -6.298119e+00 -3.507120e+00 6.672139e+01 -2.051388e-02 1.252251e-01 1.757154e-01 -7.089200e-03 -1.287220e-02 -3.409636e-02 -3.221430e-02 -2.830257e-02 -5.782586e-02 -9.832218e-02 -1.193992e-02 2.250471e-02 -2.746110e-02 -5.091279e-03 -7.829336e-03 3.955502e-02 5.721591e-02 -3.236348e-02 2.088868e-02 1.699858e-02 -2.933784e-03 5.872960e-02 1.922867e-02 1.862552e-02 5.411188e-03 -8.582571e-03
<VARIANCE> 39
 5.833609e+01 4.328432e+01 9.251778e+01 6.421826e+01 5.482916e+01 7.112195e+01 6.041801e+01 8.942821e+01 7.606011e+01 4.823249e+01 4.971616e+01 4.457010e+01 9.622049e+01 2.551825e+00 1.902511e+00 2.275433e+00 2.684625e+00 2.816004e+00 3.306474e+00 3.629404e+00 3.299153e+00 3.107888e+00 2.332853e+00 2.567320e+00 2.266615e+00 3.702953e+00 3.634496e-01 2.984698e-01 3.417872e-01 3.767896e-01 4.293492e-01 4.665332e-01 6.021757e-01 5.677167e-01 4.931124e-01 4.103409e-01 4.335518e-01 3.751858e-01 3.592762e-01
<GCONST> 1.273071e+02
<STATE> 4
<MEAN> 39
 -9.285569e-03 1.136001e+00 -4.688826e-01 -7.804427e+00 -8.744644e+00 -3.761284e+00 -1.165501e+01 2.023966e+00 -4.874420e+00 9.457140e-01 -5.415477e+00 -3.336617e+00 6.671688e+01 -5.919341e-02 1.719568e-01 2.327641e-02 1.986935e-01 -2.987380e-02 9.341647e-02 2.341102e-01 -1.237462e-01 5.088912e-02 -1.519585e-02 9.451119e-02 2.185189e-02 -2.218783e-01 -2.134053e-02 -5.238370e-02 -5.937054e-02 1.901249e-02 4.603246e-02 1.556266e-02 2.921857e-02 1.738452e-02 1.854024e-02 1.547345e-02 -4.336233e-03 -2.539557e-04 4.029674e-03
<VARIANCE> 39
 4.831076e+01 4.392353e+01 1.346976e+02 5.777600e+01 8.544616e+01 7.329720e+01 5.877011e+01 8.340895e+01 7.716015e+01 3.951977e+01 5.192215e+01 3.697624e+01 6.757344e+01 2.114745e+00 1.931504e+00 2.852986e+00 2.540212e+00 3.864887e+00 3.147895e+00 3.665034e+00 3.396860e+00 3.152651e+00 2.374966e+00 2.670536e+00 2.250926e+00 3.080992e+00 3.389130e-01 3.177503e-01 3.799711e-01 4.277397e-01 5.780166e-01 5.493844e-01 6.389258e-01 5.389945e-01 5.229518e-01 3.912736e-01 4.704855e-01 3.804924e-01 3.630178e-01
<GCONST> 1.280942e+02
<TRANSP> 5
 0.000000e+00 1.000000e+00 0.000000e+00 0.000000e+00 0.000000e+00
 0.000000e+00 5.020340e-01 4.979660e-01 0.000000e+00 0.000000e+00
 0.000000e+00 0.000000e+00 5.047597e-01 4.952403e-01 0.000000e+00
 0.000000e+00 0.000000e+00 0.000000e+00 7.339368e-01 2.660632e-01
 0.000000e+00 0.000000e+00 0.000000e+00 0.000000e+00 0.000000e+00
<ENDHMM>
~h "b"
<BEGINHMM>
<NUMSTATES> 5
<STATE> 2
<MEAN> 39
 2.682856e+00 6.064738e+00 1.005550e+01 -6.513992e+00 -1.450677e+01 -2.230869e+00 -1.131970e+01 -4.775980e+00 -8.859909e+00 4.699333e+00 -3.897814e+00 -3.557418e+00 6.421375e+01 2.392467e-01 1.286009e-01 -8.338162e-01 5.524105e-01 8.036329e-01 1.875373e-01 6.601801e-01 -3.468780e-01 1.757051e-01 -1.187476e-01 -2.497119e-01 -3.718713e-01 -6.086241e-01 -3.498769e-02 -8.039039e-02 -1.018662e-01 6.250948e-02 5.500932e-02 -5.119380e-02 5.808172e-02 -5.588209e-02 1.230534e-01 -8.054217e-02 -3.686062e-02 3.576178e-02 -2.926120e-02
<VARIANCE> 39
 1.570443e+01 1.577146e+01 9.356398e+01 5.072124e+01 1.026174e+02 2.687178e+01 3.009323e+01 8.088277e+01 7.225185e+01 3.091209e+01 4.904663e+01 3.030528e+01 2.103432e+01 9.937304e-01 9.557810e-01 2.472409e+00 1.808138e+00 2.669466e+00 2.302985e+00 1.847412e+00 3.203426e+00 2.492480e+00 1.940938e+00 1.397603e+00 1.258279e+00 5.405195e-01 1.166329e-01 1.673570e-01 4.632230e-01 2.775959e-01 3.911228e-01 3.812258e-01 2.945964e-01 4.553959e-01 5.020732e-01 3.204768e-01 2.361704e-01 2.736866e-01 9.038585e-02
<GCONST> 1.091321e+02
<STATE> 3
<MEAN> 39
 3.421056e+00 5.599524e+00 2.128787e+00 -2.157662e-01 -7.500732e+00 -3.363962e+00 -8.313407e+00 -6.374758e+00 -5.957355e+00 9.762977e-01 -7.807541e+00 -3.250198e+00 5.991558e+01 -3.966728e-01 -4.937296e-02 -3.552296e-01 7.288837e-01 8.769165e-01 2.822990e-01 6.701263e-01 2.350959e-01 4.108367e-01 -6.919660e-01 -3.500153e-02 4.665899e-02 -7.872014e-01 -6.195059e-02 -9.135922e-02 -7.382816e-02 -7.999504e-02 -4.205108e-02 -3.945518e-02 -8.207736e-02 1.257208e-01 -1.716726e-02 6.875344e-02 1.047781e-01 1.156701e-01 -2.494373e-02
<VARIANCE> 39
 1.256551e+01 2.109458e+01 3.212922e+01 2.352068e+01 5.434908e+01 4.063971e+01 4.342415e+01 1.078339e+02 5.162117e+01 4.755774e+01 2.423463e+01 2.954309e+01 1.306735e+01 4.758741e-01 8.399532e-01 1.517563e+00 1.322978e+00 1.803094e+00 2.908656e+00 3.185700e+00 2.342961e+00 1.482593e+00 2.234354e+00 1.259672e+00 2.215401e+00 3.421591e-01 6.463061e-02 1.867283e-01 2.991198e-01 2.274950e-01 3.754036e-01 4.734637e-01 5.611110e-01 4.273954e-01 3.460142e-01 3.674354e-01 2.457481e-01 3.138428e-01 5.092522e-02
<GCONST> 1.037228e+02
<STATE> 4
<MEAN> 39
 1.092166e+00 5.034613e+00 1.696013e+00 2.482843e+00 -3.337243e+00 -1.314929e+00 -4.855605e+00 -2.286331e+00 -4.770240e+00 -1.038191e+00 -6.060486e+00 -2.042099e+00 5.677841e+01 -4.622924e-01 -1.393598e-01 -2.062387e-01 1.908660e-01 5.490804e-01 2.034478e-01 4.145349e-01 5.006797e-01 1.061428e-01 -5.685904e-01 3.167699e-01 3.114895e-01 -5.653027e-01 -7.292774e-02 -1.066969e-01 -8.619398e-02 -1.578272e-01 -1.130225e-01 -1.406863e-04 -2.376162e-02 -9.136382e-03 -3.017206e-02 -7.198650e-03 1.759036e-02 -4.406684e-02 2.963850e-02
<VARIANCE> 39
 1.824729e+01 2.333333e+01 2.340510e+01 1.423279e+01 2.705471e+01 2.117012e+01 4.882195e+01 1.174757e+02 3.709447e+01 2.758417e+01 1.905976e+01 2.410257e+01 1.324269e+01 3.750359e-01 8.560084e-01 1.019542e+00 1.477350e+00 1.526617e+00 2.026618e+00 1.992386e+00 2.549566e+00 1.652795e+00 1.851373e+00 1.230396e+00 1.957048e+00 3.037022e-01 4.835796e-02 1.432494e-01 2.172955e-01 2.550599e-01 2.714387e-01 4.114682e-01 4.036138e-01 5.759596e-01 3.042827e-01 2.355972e-01 1.883685e-01 4.465840e-01 4.508571e-02
<GCONST> 9.729586e+01
<TRANSP> 5
 0.000000e+00 1.000000e+00 0.000000e+00 0.000000e+00 0.000000e+00
 0.000000e+00 7.717444e-01 2.282556e-01 0.000000e+00 0.000000e+00
 0.000000e+00 0.000000e+00 5.657313e-01 4.342687e-01 0.000000e+00
 0.000000e+00 0.000000e+00 0.000000e+00 7.640523e-01 2.359477e-01
 0.000000e+00 0.000000e+00 0.000000e+00 0.000000e+00 0.000000e+00
<ENDHMM>
~h "c"
<BEGINHMM>
<NUMSTATES> 5
<STATE> 2
<MEAN> 39
 -8.959329e-01 3.732201e+00 9.210096e+00 -8.557299e+00 -1.547302e+01 -9.738634e+00 -1.191831e+01 -1.117313e+01 -6.422879e+00 -1.436171e+00 -9.152953e+00 -2.745244e+00 6.885767e+01 3.225425e-01 1.723263e-01 -3.182160e-02 2.642241e-01 -3.920844e-02 2.304100e-01 6.845188e-02 -2.364344e-01 4.691972e-02 2.002545e-01 -9.266585e-02 -9.855346e-02 -5.947571e-01 -4.011198e-02 -3.002935e-02 -1.873249e-01 7.418753e-02 2.033361e-01 3.874369e-02 1.028632e-01 2.843715e-02 4.144670e-02 -2.123971e-02 1.072960e-02 2.504627e-02 -7.111229e-02
<VARIANCE> 39
 3.071375e+01 2.445733e+01 6.132354e+01 1.276430e+02 5.519907e+01 5.979316e+01 6.818441e+01 5.316831e+01 4.420665e+01 3.953317e+01 7.322539e+01 2.106329e+01 2.559391e+01 1.992033e+00 1.959953e+00 4.431846e+00 5.703506e+00 5.185951e+00 4.568845e+00 2.941320e+00 2.438995e+00 2.373016e+00 2.693770e+00 2.504274e+00 1.987605e+00 1.451195e+00 2.579166e-01 2.784470e-01 6.445332e-01 7.179031e-01 7.103111e-01 8.342509e-01 5.185795e-01 3.989252e-01 4.529819e-01 4.521614e-01 4.072514e-01 4.030778e-01 1.547193e-01
<GCONST> 1.244093e+02
<STATE> 3
<MEAN> 39
 7.427412e-01 4.084270e+00 6.488256e+00 -3.482631e+00 -1.171401e+01 -4.905462e+00 -8.352156e+00 -9.249226e+00 -4.160714e+00 -5.444846e-01 -6.406096e+00 -2.419755e+00 6.260104e+01 -2.566224e-01 -3.867896e-01 -6.419144e-01 7.937193e-01 9.091654e-01 2.299619e-01 7.707692e-01 2.659197e-01 1.516264e-01 -1.382433e-01 2.935600e-01 3.665097e-01 -7.932982e-01 -8.785617e-02 -5.392556e-02 7.966115e-02 5.014099e-03 -1.959883e-02 -4.369612e-02 5.304878e-02 1.526440e-01 -7.763518e-02 6.770357e-03 1.565184e-02 2.359194e-02 -1.303961e-02
<VARIANCE> 39
 2.986590e+01 3.505302e+01 6.775333e+01 4.556364e+01 4.060885e+01 6.241684e+01 6.412064e+01 5.980465e+01 3.285086e+01 4.943789e+01 5.309024e+01 2.232399e+01 1.317062e+01 1.301305e+00 2.102425e+00 1.664530e+00 1.962490e+00 1.947724e+00 3.828218e+00 1.586428e+00 2.902300e+00 1.636948e+00 2.406091e+00 2.464003e+00 1.655908e+00 6.197932e-01 2.115057e-01 2.806481e-01 3.094666e-01 3.847701e-01 3.564923e-01 6.163383e-01 3.836786e-01 5.517486e-01 3.292633e-01 5.125307e-01 4.717927e-01 3.304525e-01 1.238567e-01
<GCONST> 1.140820e+02
<STATE> 4
<MEAN> 39
 7.409749e-01 3.532880e+00 3.965697e+00 1.043341e+00 -7.520244e+00 -4.316143e+00 -7.822612e+00 -8.480635e+00 -4.986720e+00 -1.735402e+00 -6.452480e+00 -1.391100e+00 5.918387e+01 -4.206729e-01 -1.579545e-01 -4.234747e-01 7.789121e-01 9.155341e-01 2.885230e-01 6.466330e-01 6.799294e-01 -7.416907e-02 -3.713346e-01 2.185039e-01 7.186290e-04 -7.705778e-01 -8.739710e-02 -2.890767e-02 -1.914990e-02 -1.143686e-01 -2.105451e-02 -2.846255e-02 -9.751387e-03 1.306120e-01 -5.067121e-03 9.286121e-02 -4.558360e-02 -6.764200e-02 4.549823e-02
<VARIANCE> 39
 1.671429e+01 3.111373e+01 4.064991e+01 2.579548e+01 4.449868e+01 2.762057e+01 4.529045e+01 3.909169e+01 3.054068e+01 3.083404e+01 3.710403e+01 1.773155e+01 9.436352e+00 7.325265e-01 1.645941e+00 1.813179e+00 1.647256e+00 1.268823e+00 2.694244e+00 1.677723e+00 1.886054e+00 1.656932e+00 1.726720e+00 2.027605e+00 1.085365e+00 4.402020e-01 1.021482e-01 2.635527e-01 2.232239e-01 2.851761e-01 2.635842e-01 4.267113e-01 3.140182e-01 3.107355e-01 2.753299e-01 2.566560e-01 4.676802e-01 2.515242e-01 5.096681e-02
<GCONST> 1.010947e+02
<TRANSP> 5
 0.000000e+00 1.000000e+00 0.000000e+00 0.000000e+00 0.000000e+00
 0.000000e+00 8.774234e-01 1.225766e-01 0.000000e+00 0.000000e+00
 0.000000e+00 0.000000e+00 7.202187e-01 2.797813e-01 0.000000e+00
 0.000000e+00 0.000000e+00 0.000000e+00 7.660714e-01 2.339286e-01
 0.000000e+00 0.000000e+00 0.000000e+00 0.000000e+00 0.000000e+00
<ENDHMM>
~h "h"
<BEGINHMM>
<NUMSTATES> 5
<STATE> 2
<MEAN> 39
 -1.390257e+01 2.402952e+00 -4.417415e+00 -6.847324e+00 3.821111e-01 -5.947996e+00 -9.622183e+00 6.119573e+00 -5.451864e+00 -1.168681e+00 -3.494709e+00 -1.145234e-01 5.776475e+01 -6.318091e-01 1.324507e-01 2.671089e-01 -7.224355e-01 -2.167342e-02 1.385191e-01 -9.429967e-01 1.002083e-01 -4.399147e-01 -3.771198e-01 -1.346522e-01 1.603364e-01 1.769812e+00 3.711591e-01 -2.795070e-01 -7.569934e-02 -3.164374e-02 -1.385290e-01 1.600977e-01 2.369728e-02 -6.055795e-02 7.784856e-02 6.968948e-02 -3.288383e-02 2.138044e-02 2.348090e-01
<VARIANCE> 39
 9.501517e+01 2.339348e+01 4.223584e+01 3.644795e+01 4.469410e+01 4.010855e+01 4.671236e+01 6.212525e+01 2.342260e+01 3.310807e+01 2.292017e+01 3.070930e+01 3.323277e+01 3.612690e+00 2.436974e+00 2.170504e+00 1.890993e+00 3.752938e+00 4.736314e+00 4.000317e+00 3.712901e+00 2.856842e+00 3.195429e+00 2.169533e+00 2.258972e+00 1.474686e+00 3.494886e-01 4.162522e-01 2.645642e-01 4.720687e-01 5.608392e-01 7.441188e-01 7.745262e-01 5.985598e-01 3.777735e-01 5.149753e-01 4.137384e-01 4.935631e-01 6.386240e-01
<GCONST> 1.229288e+02
<STATE> 3
<MEAN> 39
 -1.216276e+01 1.296052e+00 -4.320031e+00 -7.226509e+00 -1.286615e+00 -5.708309e+00 -1.073746e+01 4.535608e+00 -4.907038e+00 -2.307780e+00 -4.034747e+00 9.628396e-01 6.092412e+01 7.840348e-01 -8.795389e-01 1.832742e-02 -7.040364e-01 -3.746108e-01 1.419726e-01 -1.136781e+00 6.754236e-02 -3.617548e-01 2.258356e-02 -2.962578e-01 1.432316e-02 2.199772e+00 4.779820e-01 -2.352125e-01 -4.248321e-02 -4.685970e-03 -8.907653e-02 6.914716e-02 -1.790388e-01 -5.798111e-02 -5.210542e-02 1.635392e-01 -2.426651e-02 -2.114178e-01 2.097162e-01
<VARIANCE> 39
 1.329718e+02 3.600062e+01 5.574863e+01 3.531963e+01 5.325475e+01 6.388548e+01 5.212100e+01 5.349509e+01 2.627737e+01 5.713712e+01 2.910926e+01 3.421312e+01 4.055212e+01 3.366695e+00 2.763891e+00 2.617607e+00 3.627537e+00 4.184883e+00 6.015697e+00 4.684517e+00 3.617563e+00 3.424906e+00 3.801897e+00 2.988522e+00 3.245778e+00 4.570944e+00 5.649383e-01 4.656330e-01 3.133317e-01 6.084210e-01 5.789883e-01 7.499434e-01 1.035997e+00 6.520169e-01 5.907075e-01 7.331328e-01 4.935193e-01 5.721487e-01 7.262425e-01
<GCONST> 1.319770e+02
<STATE> 4
<MEAN> 39
 3.212124e+00 -4.717528e+00 -9.523129e+00 -1.606937e+01 -4.815553e+00 -1.099905e+00 -1.631611e+01 1.950393e+00 -5.570064e+00 -3.252211e+00 -5.753848e+00 -8.316693e-01 7.188348e+01 5.177898e-01 -2.723434e-02 -1.565543e-01 -3.806083e-01 -1.822491e-01 1.126555e-01 -1.687978e-01 2.982374e-02 -5.169973e-02 2.808174e-02 -1.851344e-02 -3.727602e-01 3.797758e-01 -1.351552e-01 5.954264e-02 1.056309e-02 7.794223e-02 -9.729826e-03 -3.361901e-02 1.243824e-01 -1.839814e-03 3.659695e-02 -3.159282e-04 3.558333e-02 1.068914e-02 -1.644479e-01
<VARIANCE> 39
 5.762519e+01 7.518244e+01 3.927039e+01 5.409352e+01 4.043509e+01 1.215614e+02 7.210817e+01 6.973885e+01 5.073290e+01 1.036453e+02 5.041143e+01 4.869062e+01 4.817992e+01 4.651852e+00 2.659588e+00 1.356053e+00 3.831352e+00 1.891801e+00 3.341945e+00 5.192511e+00 3.458766e+00 3.575079e+00 3.505086e+00 2.695933e+00 2.085445e+00 4.740081e+00 4.516766e-01 3.758349e-01 2.069322e-01 5.599514e-01 2.751410e-01 4.979135e-01 8.319979e-01 5.184345e-01 5.665182e-01 5.555614e-01 4.834861e-01 3.605227e-01 4.380872e-01
<GCONST> 1.292043e+02
<TRANSP> 5
 0.000000e+00 1.000000e+00 0.000000e+00 0.000000e+00 0.000000e+00
 0.000000e+00 5.448629e-01 4.551372e-01 0.000000e+00 0.000000e+00
 0.000000e+00 0.000000e+00 5.038930e-01 4.961070e-01 0.000000e+00
 0.000000e+00 0.000000e+00 0.000000e+00 9.387574e-01 6.124256e-02
 0.000000e+00 0.000000e+00 0.000000e+00 0.000000e+00 0.000000e+00
<ENDHMM>
~h "i"
<BEGINHMM>
<NUMSTATES> 5
<STATE> 2
<MEAN> 39
 -3.721578e+00 5.627006e-01 -3.405763e+00 -1.687111e+00 -2.597499e+00 -3.780133e+00 -4.704901e+00 4.055799e-01 -1.887452e+00 -8.102809e-01 -4.406397e+00 -1.257662e+00 5.582951e+01 -4.594182e-01 -1.009032e-01 -4.436762e-01 -1.076055e-01 2.788604e-01 3.994321e-02 -1.851558e-02 2.131454e-01 3.067804e-02 4.473527e-02 4.806622e-02 4.701827e-02 -2.903708e-01 1.642992e-02 -4.366132e-03 3.256510e-02 -1.023794e-01 -4.070379e-02 -7.656477e-02 -1.248355e-01 -2.714845e-02 -6.601288e-02 8.053861e-03 -2.431221e-02 -7.662414e-02 1.004127e-01
<VARIANCE> 39
 3.736044e+01 3.292257e+01 3.671003e+01 3.686286e+01 2.983179e+01 3.497947e+01 3.807668e+01 5.304203e+01 3.428709e+01 3.646869e+01 2.519930e+01 2.424287e+01 3.248288e+01 1.183647e+00 1.436585e+00 1.518267e+00 1.862231e+00 1.680341e+00 1.904966e+00 2.188892e+00 2.777743e+00 2.131740e+00 2.041801e+00 1.766078e+00 1.816078e+00 1.124233e+00 1.906568e-01 2.114455e-01 2.537051e-01 3.200412e-01 2.828992e-01 3.266321e-01 4.168764e-01 4.831664e-01 4.533527e-01 3.845064e-01 3.287595e-01 3.770039e-01 1.303215e-01
<GCONST> 1.093037e+02
<STATE> 3
<MEAN> 39
 -4.259811e+00 9.779597e-01 -4.148248e+00 -1.933727e+00 -2.075973e+00 -3.327813e+00 -4.800787e+00 1.079672e-01 -1.849859e+00 -4.442922e-01 -4.358545e+00 -1.430885e+00 5.505606e+01 -4.798671e-01 -8.394443e-02 -2.753870e-01 -2.668982e-01 2.151238e-01 -7.347593e-02 -7.303352e-02 2.446337e-01 -4.888123e-02 4.517763e-02 -6.752869e-02 -1.212661e-01 -1.153872e-01 6.160012e-02 -3.082456e-02 6.815908e-02 -1.025771e-01 -6.202263e-02 -5.164740e-02 -8.512589e-02 2.529730e-02 -6.236787e-02 -2.301074e-02 -3.266924e-02 -3.114830e-02 1.335582e-01
<VARIANCE> 39
 3.554245e+01 2.530638e+01 3.457566e+01 3.756693e+01 2.876078e+01 3.127006e+01 3.678740e+01 4.898396e+01 3.444987e+01 3.415311e+01 2.190783e+01 2.240398e+01 3.438754e+01 1.184300e+00 1.362047e+00 1.666807e+00 1.683761e+00 1.767131e+00 2.020899e+00 2.496449e+00 2.863822e+00 2.137087e+00 1.756691e+00 1.723625e+00 1.761862e+00 1.039298e+00 1.851681e-01 2.097358e-01 2.397796e-01 3.083501e-01 3.046840e-01 3.783376e-01 4.442551e-01 5.327773e-01 4.619360e-01 3.645459e-01 3.302836e-01 3.622858e-01 1.295903e-01
<GCONST> 1.085706e+02
<STATE> 4
<MEAN> 39
 -5.645176e+00 9.789323e-01 -4.577768e+00 -2.810380e+00 -1.596170e+00 -3.458100e+00 -4.816478e+00 9.064614e-01 -2.115104e+00 -6.623578e-02 -4.607997e+00 -1.690849e+00 5.580086e+01 -3.509192e-01 -1.210276e-01 -1.213432e-01 -3.831125e-01 1.225231e-01 -1.833504e-01 -1.997025e-01 3.977748e-01 -1.327578e-01 9.933040e-03 -6.900091e-02 -6.223310e-02 9.296753e-02 1.950107e-01 -4.816888e-02 3.319018e-02 -8.418109e-02 -6.959256e-02 4.088490e-03 -1.602939e-01 -1.153818e-02 -6.528720e-02 -3.507335e-02 1.056046e-02 9.957789e-03 2.332801e-01
<VARIANCE> 39
 4.794468e+01 2.680686e+01 3.413234e+01 4.033366e+01 3.171351e+01 3.302890e+01 3.833204e+01 5.598116e+01 3.561506e+01 3.217536e+01 2.293537e+01 2.438394e+01 4.036140e+01 1.569951e+00 1.271715e+00 1.772187e+00 1.605579e+00 1.678277e+00 2.142334e+00 2.811220e+00 3.149995e+00 2.282897e+00 2.092687e+00 1.839536e+00 1.795913e+00 1.246883e+00 2.300456e-01 2.786196e-01 2.883267e-01 3.654135e-01 3.866401e-01 4.703590e-01 5.153692e-01 5.843194e-01 4.040412e-01 4.109265e-01 3.509313e-01 3.582907e-01 2.696729e-01
<GCONST> 1.128524e+02
<TRANSP> 5
 0.000000e+00 1.000000e+00 0.000000e+00 0.000000e+00 0.000000e+00
 0.000000e+00 3.655464e-01 6.344537e-01 0.000000e+00 0.000000e+00
 0.000000e+00 0.000000e+00 3.515505e-01 6.484495e-01 0.000000e+00
 0.000000e+00 0.000000e+00 0.000000e+00 3.498253e-01 6.501747e-01
 0.000000e+00 0.000000e+00 0.000000e+00 0.000000e+00 0.000000e+00
<ENDHMM>
~h "j"
<BEGINHMM>
<NUMSTATES> 5
<STATE> 2
<MEAN> 39
 1.257189e+00 5.982397e+00 6.020244e+00 -3.352061e+00 -9.860790e+00 -7.707993e+00 -1.125474e+01 -8.608489e+00 -9.203650e+00 -7.102621e-01 -5.286773e+00 -4.019893e+00 6.447063e+01 3.386530e-01 3.954670e-01 -5.749893e-01 6.913847e-01 6.626574e-01 6.985807e-01 6.122526e-01 -5.609423e-01 4.287909e-01 -1.516592e-02 -2.494445e-01 -1.385418e-02 -1.041873e+00 -5.544396e-02 -1.240586e-01 -5.843304e-02 -5.692177e-02 1.299937e-01 1.904729e-01 3.210837e-02 1.716914e-01 9.025247e-02 -3.207562e-02 -2.485254e-03 -1.017979e-02 -1.755734e-02
<VARIANCE> 39
 1.601709e+01 2.430635e+01 4.821114e+01 4.660969e+01 3.481924e+01 3.406900e+01 4.726552e+01 7.642705e+01 8.298827e+01 6.021918e+01 6.892062e+01 3.581744e+01 1.247089e+01 1.597035e+00 1.276121e+00 1.522413e+00 1.761068e+00 3.445131e+00 2.337785e+00 2.213781e+00 3.055036e+00 3.574043e+00 3.865289e+00 2.919486e+00 1.879646e+00 6.880384e-01 2.590737e-01 2.008326e-01 3.160161e-01 3.501772e-01 6.091906e-01 3.276233e-01 3.705164e-01 5.504984e-01 5.564736e-01 4.295632e-01 4.897190e-01 3.793419e-01 1.528183e-01
<GCONST> 1.157800e+02
<STATE> 3
<MEAN> 39
 2.388985e+00 6.524977e+00 4.136799e+00 -2.864623e+00 -8.559496e+00 -5.824365e+00 -1.151320e+01 -1.001814e+01 -8.054745e+00 -2.000228e+00 -6.766487e+00 -3.388087e+00 6.139351e+01 -2.986267e-02 3.903102e-02 -4.007670e-01 6.978693e-01 7.721819e-01 6.848502e-01 5.187555e-01 -5.018416e-02 6.460581e-01 -2.029565e-01 1.946678e-01 9.530525e-02 -9.893712e-01 -1.453380e-01 -2.303118e-01 3.965759e-02 -9.991741e-02 -3.388736e-02 -4.373506e-03 -5.840860e-02 2.438579e-01 1.551511e-02 9.153903e-02 1.165049e-01 9.014831e-02 7.181393e-02
<VARIANCE> 39
 9.859732e+00 2.685506e+01 3.564462e+01 4.748472e+01 3.250703e+01 3.600964e+01 6.266674e+01 8.458567e+01 5.626923e+01 6.304958e+01 5.715317e+01 2.238565e+01 1.059134e+01 1.128874e+00 1.379296e+00 1.354117e+00 1.458204e+00 2.159292e+00 1.903622e+00 2.296803e+00 3.520846e+00 3.489918e+00 2.198150e+00 2.251276e+00 1.634989e+00 5.224363e-01 1.548683e-01 1.764032e-01 2.423281e-01 2.611743e-01 4.341848e-01 3.679840e-01 4.511481e-01 5.222003e-01 4.974956e-01 3.285933e-01 4.219880e-01 3.338441e-01 9.904941e-02
<GCONST> 1.096146e+02
<STATE> 4
<MEAN> 39
 1.914398e+00 4.952197e+00 9.029183e-01 1.061406e+00 -2.737807e+00 -1.603770e+00 -5.734238e+00 -5.893298e+00 -5.208582e+00 1.411337e+00 -3.155364e+00 -1.362563e+00 5.853481e+01 -3.572925e-01 -1.184556e-01 -1.991188e-01 3.329580e-01 5.872757e-01 5.922225e-01 3.431834e-01 4.109260e-01 3.901672e-01 -1.855540e-01 1.692757e-01 2.770071e-01 -6.821021e-01 -1.190179e-01 -7.515965e-02 -9.826986e-02 -8.363982e-02 -4.703543e-02 -1.155858e-01 -5.105994e-03 1.244528e-01 -7.040569e-02 3.010267e-02 2.187865e-02 -2.818794e-02 3.328659e-03
<VARIANCE> 39
 1.042436e+01 3.677489e+01 3.529527e+01 3.090654e+01 3.512489e+01 3.668990e+01 5.004673e+01 6.637701e+01 2.956660e+01 4.144556e+01 4.022019e+01 1.792181e+01 1.237524e+01 7.346458e-01 1.616783e+00 1.924704e+00 1.778142e+00 1.426670e+00 2.045973e+00 1.498518e+00 2.677104e+00 1.741622e+00 1.678140e+00 1.936773e+00 1.601967e+00 3.546813e-01 1.367386e-01 2.919838e-01 3.857158e-01 2.883701e-01 2.540266e-01 3.812834e-01 3.439021e-01 4.487890e-01 3.881656e-01 3.108746e-01 3.352185e-01 3.159263e-01 5.579659e-02
<GCONST> 1.042628e+02
<TRANSP> 5
 0.000000e+00 1.000000e+00 0.000000e+00 0.000000e+00 0.000000e+00
 0.000000e+00 6.276774e-01 3.723226e-01 0.000000e+00 0.000000e+00
 0.000000e+00 0.000000e+00 5.830424e-01 4.169576e-01 0.000000e+00
 0.000000e+00 0.000000e+00 0.000000e+00 7.982440e-01 2.017560e-01
 0.000000e+00 0.000000e+00 0.000000e+00 0.000000e+00 0.000000e+00
<ENDHMM>
~h "k"
<BEGINHMM>
<NUMSTATES> 5
<STATE> 2
<MEAN> 39
 2.816253e+00 -6.251864e+00 -8.928450e+00 -1.516071e+01 -7.375793e+00 -3.259706e+00 -1.407127e+01 5.434705e+00 -2.719812e-01 -8.546864e-01 -1.131425e+01 -3.876729e+00 7.263206e+01 9.601643e-02 -1.533153e-01 1.564881e-02 -7.931157e-02 -9.495712e-02 -4.647676e-02 -7.000819e-02 3.933468e-02 1.190790e-01 -1.133560e-01 -1.490879e-01 -1.316881e-02 1.928582e-01 -2.652769e-02 4.343932e-02 3.493612e-02 3.614013e-02 -2.449280e-02 -1.959691e-02 5.152968e-02 -3.296309e-02 -1.883105e-02 1.100578e-02 3.046149e-02 3.681631e-02 -5.720378e-02
<VARIANCE> 39
 2.213317e+01 4.740716e+01 3.327599e+01 5.078979e+01 4.341216e+01 1.066538e+02 7.391943e+01 1.103383e+02 6.856224e+01 8.983037e+01 4.324915e+01 4.127773e+01 6.247147e+01 1.518513e+00 2.195652e+00 1.708250e+00 3.298214e+00 2.746905e+00 4.231085e+00 4.741020e+00 3.666898e+00 3.111276e+00 2.571127e+00 2.575888e+00 2.680931e+00 4.304537e+00 2.120322e-01 3.154700e-01 2.688857e-01 4.989693e-01 4.435576e-01 6.696237e-01 7.492877e-01 6.119857e-01 5.376441e-01 4.028683e-01 4.460119e-01 4.767626e-01 4.967688e-01
<GCONST> 1.270886e+02
<STATE> 3
<MEAN> 39
 1.188284e+00 -3.910682e+00 -6.252123e+00 -1.317599e+01 -8.639221e+00 -7.438360e+00 -1.092575e+01 3.143171e+00 -2.005386e+00 -1.984411e+00 -1.047034e+01 -2.790846e+00 7.041103e+01 1.901149e-02 4.535885e-01 5.581306e-01 4.037643e-01 -2.906636e-01 -2.644190e-01 1.738041e-02 -5.235180e-01 -9.901173e-02 -4.231273e-02 1.272476e-01 3.133614e-01 -3.485740e-01 -2.919179e-02 4.385629e-02 3.796241e-02 1.459546e-02 1.432618e-02 2.555053e-02 3.711166e-02 -9.274273e-02 3.320220e-03 -1.298517e-02 4.813014e-02 -3.973954e-02 -5.436099e-02
<VARIANCE> 39
 2.353534e+01 4.415873e+01 5.328144e+01 5.000549e+01 4.797436e+01 7.611880e+01 7.098188e+01 1.128752e+02 6.398524e+01 9.770992e+01 5.210830e+01 3.778793e+01 7.778862e+01 1.625195e+00 2.828381e+00 3.768833e+00 3.691741e+00 3.101601e+00 4.526868e+00 4.614164e+00 6.171979e+00 4.026476e+00 3.975118e+00 2.936392e+00 3.406025e+00 5.031805e+00 2.781242e-01 4.108845e-01 5.265422e-01 6.067630e-01 4.549332e-01 8.218340e-01 7.892047e-01 1.016022e+00 7.178004e-01 6.747755e-01 4.991005e-01 5.886677e-01 6.264935e-01
<GCONST> 1.342914e+02
<STATE> 4
<MEAN> 39
 -9.377005e-01 2.063534e+00 1.313620e+00 -9.198805e+00 -1.112836e+01 -7.340629e+00 -1.216116e+01 -2.219361e+00 -3.057901e+00 1.211723e+00 -5.871052e+00 -1.082312e+00 6.795165e+01 -9.205848e-02 1.747465e-01 3.866614e-01 1.422410e-01 -5.930744e-02 -5.463278e-02 1.122741e-01 -3.170676e-01 -1.334593e-01 9.427753e-02 1.967281e-01 -1.090018e-02 -8.945808e-03 1.260670e-02 -2.440845e-02 -4.210224e-02 6.787834e-03 2.609261e-02 1.750395e-02 -2.155594e-02 2.642930e-02 2.034735e-02 -2.163370e-02 -1.067352e-02 -9.387110e-03 1.329719e-03
<VARIANCE> 39
 5.663910e+01 4.371927e+01 9.868941e+01 5.096255e+01 7.643646e+01 7.914307e+01 6.460944e+01 8.064764e+01 6.997246e+01 5.882765e+01 5.622672e+01 2.648968e+01 5.857215e+01 4.875832e+00 3.286539e+00 5.394217e+00 4.222137e+00 4.845489e+00 4.999767e+00 5.175008e+00 5.188056e+00 3.708436e+00 4.038635e+00 3.457435e+00 2.392428e+00 4.121418e+00 7.497939e-01 6.018772e-01 8.112162e-01 7.177666e-01 7.999053e-01 8.866712e-01 8.963016e-01 8.441192e-01 6.113720e-01 7.444648e-01 6.117070e-01 4.598970e-01 6.235327e-01
<GCONST> 1.391063e+02
<TRANSP> 5
 0.000000e+00 1.000000e+00 0.000000e+00 0.000000e+00 0.000000e+00
 0.000000e+00 9.463398e-01 5.366015e-02 0.000000e+00 0.000000e+00
 0.000000e+00 0.000000e+00 8.398820e-01 1.601181e-01 0.000000e+00
 0.000000e+00 0.000000e+00 0.000000e+00 9.495057e-01 5.049428e-02
 0.000000e+00 0.000000e+00 0.000000e+00 0.000000e+00 0.000000e+00
<ENDHMM>
~h "l"
<BEGINHMM>
<NUMSTATES> 5
<STATE> 2
<MEAN> 39
 -5.406894e+00 -3.499706e+00 -4.060571e+00 -4.741063e+00 -7.195505e+00 -8.345398e+00 -6.133049e+00 -1.565102e+00 -3.113862e+00 -7.705804e-01 -5.451142e+00 7.149777e-01 5.633011e+01 -1.669935e-01 1.455441e-02 1.143520e-01 3.305172e-01 1.981393e-01 -1.695191e-01 1.765317e-01 9.738521e-02 -1.210435e-01 -5.342857e-02 -5.411086e-02 1.543344e-01 2.981256e-02 -1.228317e-02 2.143376e-02 -2.730700e-02 -2.769190e-02 6.905752e-02 4.104961e-02 7.044265e-03 5.572511e-02 8.614356e-03 3.408993e-02 -7.195675e-04 -3.162292e-02 4.290440e-02
<VARIANCE> 39
 5.014931e+01 2.710659e+01 2.090396e+01 2.512196e+01 3.528462e+01 4.431149e+01 3.065432e+01 4.127306e+01 2.820898e+01 2.767951e+01 3.460000e+01 3.213956e+01 2.882528e+01 9.175292e-01 1.120392e+00 1.219655e+00 9.517788e-01 1.553914e+00 2.130386e+00 1.888268e+00 2.712587e+00 2.047091e+00 2.426210e+00 1.994299e+00 1.678898e+00 8.549830e-01 2.126859e-01 2.042978e-01 2.043894e-01 2.159205e-01 2.856888e-01 3.860407e-01 3.740602e-01 5.866933e-01 4.347068e-01 4.511539e-01 4.177486e-01 3.226361e-01 1.639544e-01
<GCONST> 1.069315e+02
<STATE> 3
<MEAN> 39
 -3.790591e+00 -2.361494e+00 -4.030764e+00 -2.435021e+00 -6.140945e+00 -7.926650e+00 -5.031427e+00 -1.060339e+00 -2.656111e+00 -7.725509e-01 -4.250338e+00 4.763137e-01 5.569819e+01 -1.562814e-01 1.583013e-01 3.685181e-02 1.783645e-01 2.423967e-01 -3.765858e-02 9.913424e-02 6.597219e-02 1.616699e-02 8.537616e-02 5.773313e-03 1.356829e-01 -5.850957e-02 -3.243576e-02 2.633643e-02 -7.772981e-05 -1.007598e-01 2.676827e-02 -6.101576e-03 -7.071442e-02 6.198940e-02 -3.513898e-02 -1.395616e-02 -2.539394e-02 -1.153846e-02 6.691629e-02
<VARIANCE> 39
 3.400914e+01 2.548084e+01 2.054580e+01 1.149331e+01 4.280733e+01 4.449858e+01 3.255383e+01 3.622275e+01 2.757190e+01 2.583964e+01 3.238332e+01 3.231077e+01 3.001583e+01 9.776590e-01 9.531891e-01 1.038690e+00 7.951940e-01 1.503876e+00 2.100423e+00 1.738003e+00 2.307784e+00 1.906512e+00 2.145366e+00 1.864784e+00 1.701306e+00 8.831691e-01 1.781345e-01 1.707195e-01 1.683578e-01 1.577073e-01 2.411755e-01 3.890637e-01 3.550418e-01 4.268188e-01 3.581263e-01 4.182072e-01 3.574815e-01 3.002537e-01 1.113090e-01
<GCONST> 1.024701e+02
<STATE> 4
<MEAN> 39
 -4.629345e+00 -2.798199e-01 -5.024773e+00 -7.668307e-01 -1.642313e+00 -5.958583e+00 -3.712697e+00 1.804853e+00 -1.292926e+00 1.184379e+00 -4.807781e+00 9.303916e-02 5.321438e+01 -1.319708e-01 1.759693e-01 -3.746034e-02 4.583336e-02 2.580504e-01 5.203007e-02 -1.360780e-02 5.232709e-02 -4.262818e-02 2.792693e-02 2.364813e-02 5.373828e-02 -9.990111e-02 -1.857099e-02 -6.389267e-03 1.291064e-02 -4.982568e-02 1.987163e-04 -1.240001e-02 -7.713951e-02 1.698937e-02 -5.053550e-02 -8.934409e-02 -3.568994e-02 -2.634353e-02 6.010877e-02
<VARIANCE> 39
 3.536426e+01 2.777757e+01 1.687970e+01 1.767985e+01 1.994567e+01 2.744342e+01 1.946164e+01 3.434916e+01 3.133182e+01 2.205693e+01 2.875329e+01 2.207595e+01 3.023424e+01 1.273642e+00 9.453573e-01 9.432101e-01 1.086212e+00 1.196957e+00 2.097158e+00 1.475861e+00 2.286939e+00 1.843352e+00 2.012167e+00 1.607568e+00 1.788141e+00 9.715793e-01 1.634392e-01 1.707931e-01 1.622283e-01 2.048010e-01 2.214972e-01 4.323511e-01 3.012346e-01 3.883127e-01 3.719026e-01 3.653535e-01 2.934551e-01 3.596038e-01 9.924994e-02
<GCONST> 1.001313e+02
<TRANSP> 5
 0.000000e+00 1.000000e+00 0.000000e+00 0.000000e+00 0.000000e+00
 0.000000e+00 6.460757e-01 3.539243e-01 0.000000e+00 0.000000e+00
 0.000000e+00 0.000000e+00 6.097354e-01 3.902645e-01 0.000000e+00
 0.000000e+00 0.000000e+00 0.000000e+00 7.061264e-01 2.938736e-01
 0.000000e+00 0.000000e+00 0.000000e+00 0.000000e+00 0.000000e+00
<ENDHMM>
~h "m"
<BEGINHMM>
<NUMSTATES> 5
<STATE> 2
<MEAN> 39
 2.586734e+00 4.571651e+00 4.422821e+00 -2.029462e+00 -7.822707e+00 -3.079185e+00 -8.844622e+00 -3.218722e+00 -4.383605e+00 1.384614e+00 -6.393990e+00 -1.917677e+00 6.195502e+01 -3.455705e-01 -6.821241e-02 6.792314e-03 5.657052e-01 5.206344e-01 3.213197e-01 7.210202e-01 1.016100e-01 1.266506e-01 -3.406666e-01 -1.633377e-02 7.671025e-04 -8.196298e-01 -1.520370e-01 -8.698443e-02 -1.703900e-01 -2.103199e-01 -5.171471e-02 6.928208e-02 -3.264336e-02 1.972817e-01 -5.991776e-02 -5.159428e-02 3.807827e-02 -1.828008e-02 6.209645e-02
<VARIANCE> 39
 1.700721e+01 2.453373e+01 8.453464e+01 3.106334e+01 6.032610e+01 4.202928e+01 3.582902e+01 7.350210e+01 7.673015e+01 3.176920e+01 3.990946e+01 2.918427e+01 2.376007e+01 7.541318e-01 1.560280e+00 1.565563e+00 1.344574e+00 2.169609e+00 1.830954e+00 1.810913e+00 2.183995e+00 2.151299e+00 2.301728e+00 1.743515e+00 1.815036e+00 4.798532e-01 1.123566e-01 2.349575e-01 2.087602e-01 1.989422e-01 3.374276e-01 3.547254e-01 4.629776e-01 4.756524e-01 4.263852e-01 3.115745e-01 3.365655e-01 3.108852e-01 1.076511e-01
<GCONST> 1.080478e+02
<STATE> 3
<MEAN> 39
 1.688164e+00 4.293067e+00 3.881263e+00 -1.133013e+00 -6.788097e+00 -2.245406e+00 -7.669645e+00 -2.730841e+00 -3.928682e+00 2.497331e-01 -6.212398e+00 -2.060772e+00 6.051040e+01 -5.192198e-01 -1.014238e-01 -3.206271e-01 2.556948e-01 4.261871e-01 2.418790e-01 5.198820e-01 2.828722e-01 8.498439e-02 -4.122806e-01 1.351630e-01 6.024036e-02 -8.053149e-01 -8.032306e-02 -4.473056e-02 -1.670769e-01 -1.874493e-01 -5.989522e-02 -5.953194e-02 -1.293917e-01 8.202609e-02 -5.490462e-02 4.255550e-02 9.279364e-02 6.108118e-03 4.054859e-02
<VARIANCE> 39
 1.648754e+01 2.308696e+01 7.395292e+01 3.284087e+01 6.249477e+01 4.121385e+01 3.657116e+01 7.125730e+01 6.649612e+01 3.026711e+01 3.480748e+01 2.687520e+01 2.672194e+01 5.410526e-01 1.363606e+00 1.575398e+00 1.436114e+00 1.605134e+00 1.465086e+00 1.907312e+00 1.735200e+00 1.836070e+00 2.048601e+00 1.244303e+00 1.898625e+00 4.323606e-01 7.092572e-02 1.698582e-01 1.846353e-01 2.125986e-01 2.890755e-01 2.823434e-01 3.865351e-01 3.518720e-01 3.197717e-01 2.798471e-01 2.891022e-01 3.035614e-01 6.436093e-02
<GCONST> 1.030302e+02
<STATE> 4
<MEAN> 39
 -2.727832e+00 2.150413e+00 -7.407246e-01 -7.998803e-01 -2.041704e+00 -2.655277e-01 -2.531245e+00 2.614009e+00 -3.727520e-01 -5.405077e-01 -4.081313e+00 -1.214077e+00 5.522531e+01 -2.650810e-01 -7.804631e-02 -2.237331e-01 1.029392e-01 1.982031e-01 -7.917534e-02 2.226521e-01 2.588588e-01 9.870724e-02 2.988146e-02 9.678215e-02 5.068918e-02 -3.752337e-01 1.274135e-02 -1.519588e-02 -4.487438e-02 -4.504054e-02 -5.548048e-02 -4.131106e-02 -2.998543e-02 1.855750e-03 -2.813835e-02 6.740264e-03 -2.950051e-03 -9.725844e-03 2.329242e-02
<VARIANCE> 39
 1.920313e+01 1.607542e+01 3.210178e+01 2.058143e+01 3.562971e+01 2.363449e+01 3.385107e+01 6.161254e+01 4.616477e+01 2.499858e+01 2.652328e+01 2.695914e+01 2.016770e+01 5.624067e-01 1.017232e+00 1.482374e+00 1.603322e+00 1.752186e+00 1.694787e+00 1.716350e+00 1.695446e+00 1.718880e+00 1.755989e+00 1.290449e+00 1.478782e+00 2.433459e-01 8.806110e-02 1.440331e-01 2.524953e-01 3.135264e-01 3.100297e-01 2.765357e-01 3.239293e-01 3.020942e-01 2.964176e-01 3.298811e-01 2.775034e-01 3.079008e-01 3.082330e-02
<GCONST> 9.776172e+01
<TRANSP> 5
 0.000000e+00 1.000000e+00 0.000000e+00 0.000000e+00 0.000000e+00
 0.000000e+00 3.332647e-01 6.667352e-01 0.000000e+00 0.000000e+00
 0.000000e+00 0.000000e+00 3.351349e-01 6.648651e-01 0.000000e+00
 0.000000e+00 0.000000e+00 0.000000e+00 8.478144e-01 1.521856e-01
 0.000000e+00 0.000000e+00 0.000000e+00 0.000000e+00 0.000000e+00
<ENDHMM>
~h "n"
<BEGINHMM>
<NUMSTATES> 5
<STATE> 2
<MEAN> 39
 1.512429e+00 -5.028223e-01 -6.404351e+00 -1.349308e+01 -5.508275e+00 -4.887383e+00 -1.460114e+01 -3.125792e+00 -5.443599e+00 -7.576861e-01 -4.249882e+00 -2.453383e+00 6.876993e+01 -3.959448e-02 -1.407146e-02 5.719876e-01 1.830988e-02 -2.417500e-02 -1.662028e-01 -1.418614e-01 -1.455258e-01 -1.927503e-01 1.261259e-01 -6.148758e-02 8.963894e-02 4.562545e-01 3.346384e-02 3.404495e-02 1.711506e-02 -5.093550e-03 -3.016770e-02 1.075087e-02 4.828067e-02 -2.301026e-02 1.794810e-02 -1.602615e-02 -1.567298e-02 -4.110566e-02 -3.509051e-02
<VARIANCE> 39
 3.700529e+01 6.217749e+01 6.993015e+01 7.485956e+01 6.299655e+01 8.024345e+01 6.065539e+01 5.633012e+01 8.831411e+01 7.848650e+01 5.671527e+01 4.305695e+01 6.346564e+01 2.595278e+00 2.953861e+00 4.973186e+00 5.909497e+00 4.039473e+00 4.691602e+00 5.225064e+00 4.028725e+00 5.384470e+00 5.415187e+00 3.181378e+00 3.844484e+00 4.597345e+00 4.415328e-01 4.077187e-01 7.577668e-01 9.648539e-01 7.951062e-01 9.001953e-01 9.171465e-01 7.029009e-01 9.384982e-01 8.307765e-01 5.852267e-01 6.860372e-01 6.468913e-01
<GCONST> 1.398510e+02
<STATE> 3
<MEAN> 39
 6.854923e-01 6.054718e-01 2.868847e+00 -1.043252e+01 -7.741770e+00 -7.243995e+00 -1.259682e+01 -3.270983e+00 -5.880477e+00 4.020860e-01 -5.940527e+00 -2.772131e+00 7.052444e+01 1.491252e-02 4.517223e-01 7.507974e-01 6.121826e-01 -3.908126e-01 -2.213085e-01 2.175438e-01 -5.845273e-01 -2.294568e-01 -2.093711e-01 2.604377e-01 1.258943e-02 -3.561560e-01 3.777958e-03 4.076650e-02 -2.183566e-01 1.577761e-01 3.212073e-02 5.875058e-02 1.298033e-02 -5.073262e-02 1.409591e-01 -3.755482e-02 -1.055565e-02 -4.768928e-03 -1.016624e-01
<VARIANCE> 39
 3.499310e+01 5.332106e+01 9.538220e+01 7.819077e+01 7.995370e+01 5.503241e+01 4.771793e+01 9.054554e+01 1.408142e+02 6.754024e+01 5.395623e+01 3.134811e+01 3.819368e+01 2.648041e+00 2.104722e+00 4.334091e+00 5.289105e+00 3.216943e+00 4.121561e+00 2.850383e+00 4.767709e+00 4.175395e+00 3.077876e+00 3.025932e+00 3.276313e+00 2.393790e+00 4.111409e-01 3.244105e-01 6.033354e-01 8.180898e-01 5.706455e-01 7.144178e-01 5.153536e-01 7.151813e-01 7.824742e-01 4.684501e-01 5.872232e-01 5.734740e-01 3.528441e-01
<GCONST> 1.331370e+02
<STATE> 4
<MEAN> 39
 -8.635616e-01 2.349262e+00 6.646983e+00 -7.149164e+00 -9.882666e+00 -6.912487e+00 -9.668366e+00 -6.254649e+00 -4.085011e+00 -2.750453e+00 -4.580233e+00 -2.857350e+00 6.962328e+01 4.989979e-02 3.460157e-01 1.128080e-01 4.385458e-01 -1.940748e-01 -2.952467e-02 7.684620e-02 -4.137222e-01 -8.604600e-02 -3.759975e-03 3.152789e-02 -1.163773e-01 -4.163545e-01 3.987027e-02 -1.639209e-02 -9.782215e-02 -6.101677e-03 9.643710e-02 4.623467e-02 -1.180074e-03 6.439226e-02 4.341200e-02 -1.747053e-03 -6.201628e-02 1.844985e-02 -3.452274e-02
<VARIANCE> 39
 2.939696e+01 7.378714e+01 9.057696e+01 7.812966e+01 7.143623e+01 4.757548e+01 5.193985e+01 5.385683e+01 9.288957e+01 6.752455e+01 4.341001e+01 2.855163e+01 4.074910e+01 2.373873e+00 2.050035e+00 2.656242e+00 2.609059e+00 4.123433e+00 3.705028e+00 2.408625e+00 2.864259e+00 3.060850e+00 3.476830e+00 2.461392e+00 2.140356e+00 1.446035e+00 4.015632e-01 3.020056e-01 3.715868e-01 4.222330e-01 5.586382e-01 5.782075e-01 3.804051e-01 5.018994e-01 4.869862e-01 4.690339e-01 4.897909e-01 3.774095e-01 2.187105e-01
<GCONST> 1.250039e+02
<TRANSP> 5
 0.000000e+00 1.000000e+00 0.000000e+00 0.000000e+00 0.000000e+00
 0.000000e+00 9.413511e-01 5.864888e-02 0.000000e+00 0.000000e+00
 0.000000e+00 0.000000e+00 7.884464e-01 2.115536e-01 0.000000e+00
 0.000000e+00 0.000000e+00 0.000000e+00 8.621040e-01 1.378960e-01
 0.000000e+00 0.000000e+00 0.000000e+00 0.000000e+00 0.000000e+00
<ENDHMM>
~h "p"
<BEGINHMM>
<NUMSTATES> 5
<STATE> 2
<MEAN> 39
 -4.575323e+00 -2.651952e-01 -3.422888e+00 -2.504366e+00 -4.364855e+00 -5.427269e+00 -4.544821e+00 -4.838293e-01 -2.638434e+00 1.359604e-01 -4.400908e+00 -1.326250e+00 5.756082e+01 -2.004583e-01 -1.235804e-01 2.970178e-02 4.089351e-01 5.268514e-01 4.200646e-01 4.288751e-01 3.000951e-01 1.807248e-01 -1.068056e-02 1.374543e-01 2.344997e-01 -1.839598e-01 -4.088655e-02 9.531850e-03 4.988860e-02 -4.815044e-02 -5.869417e-02 2.791852e-02 -4.489103e-02 9.713788e-02 -4.915240e-02 5.823776e-02 -1.966430e-02 -1.206287e-02 5.163912e-02
<VARIANCE> 39
 4.923684e+01 2.948388e+01 4.092046e+01 3.781247e+01 4.133010e+01 5.179523e+01 3.404485e+01 5.399254e+01 3.863808e+01 2.325663e+01 2.767861e+01 2.776030e+01 5.469507e+01 1.156046e+00 9.529635e-01 1.500280e+00 1.173866e+00 2.167225e+00 1.936027e+00 2.137722e+00 2.273957e+00 2.028814e+00 2.091056e+00 2.571830e+00 1.560071e+00 1.125109e+00 1.577305e-01 1.578998e-01 2.319878e-01 2.632353e-01 4.243875e-01 3.672397e-01 4.209872e-01 4.007718e-01 3.845401e-01 3.621726e-01 5.861984e-01 3.605900e-01 1.156749e-01
<GCONST> 1.097555e+02
<STATE> 3
<MEAN> 39
 -5.007468e+00 -1.420034e-01 -3.221511e+00 -1.146190e+00 -3.237754e+00 -3.164159e+00 -3.078526e+00 8.277271e-01 -1.559073e+00 8.665684e-01 -2.930623e+00 -5.022707e-01 5.578205e+01 -2.453707e-01 -8.693002e-02 -1.213370e-01 9.328089e-02 1.859182e-01 1.163410e-01 1.702342e-01 2.267509e-01 -4.404805e-02 -1.152872e-02 7.464629e-03 2.786293e-02 -4.308356e-02 4.402852e-03 2.107370e-02 -2.153537e-02 -1.202065e-01 -1.013722e-01 -5.533100e-02 -8.171450e-02 -2.928418e-02 -1.509671e-02 6.186418e-02 1.483822e-02 -3.250217e-02 3.762259e-02
<VARIANCE> 39
 3.319479e+01 2.251600e+01 2.703786e+01 2.900870e+01 3.148059e+01 3.898253e+01 2.824798e+01 4.292046e+01 3.149778e+01 2.988173e+01 3.637130e+01 2.468248e+01 4.936971e+01 8.974766e-01 7.050533e-01 1.168148e+00 1.132338e+00 1.813768e+00 1.532580e+00 1.412211e+00 1.952478e+00 2.040715e+00 1.692669e+00 1.851344e+00 1.533360e+00 8.653398e-01 1.265340e-01 1.300818e-01 1.863618e-01 1.957182e-01 3.027092e-01 3.016751e-01 2.676672e-01 3.198910e-01 3.784412e-01 3.107499e-01 3.203406e-01 3.016128e-01 9.145841e-02
<GCONST> 1.015764e+02
<STATE> 4
<MEAN> 39
 -5.736134e+00 -1.686577e-01 -3.376063e+00 -1.546503e+00 -2.102061e+00 -4.160737e+00 -3.281808e+00 1.238657e+00 -1.682525e+00 5.121562e-01 -4.734100e+00 -9.495471e-01 5.772882e+01 -2.782613e-01 -1.274289e-01 -8.484209e-02 -2.719954e-01 2.009866e-02 -3.489790e-02 3.147553e-02 6.310566e-02 2.769970e-02 1.927982e-01 1.068759e-01 -1.488711e-01 2.512711e-01 7.520975e-02 2.989919e-02 -1.800803e-02 -1.740048e-01 -1.011435e-01 -2.792410e-02 -1.573288e-01 -6.684972e-02 1.499403e-02 1.948010e-02 -1.039947e-02 -5.283394e-02 4.859914e-02
<VARIANCE> 39
 4.039499e+01 2.516954e+01 3.476767e+01 3.353715e+01 3.598598e+01 4.154787e+01 3.184450e+01 4.437533e+01 4.106304e+01 3.277568e+01 2.825899e+01 2.433715e+01 5.920963e+01 1.345413e+00 1.223348e+00 1.635943e+00 1.365750e+00 2.172557e+00 1.654630e+00 1.855740e+00 2.565045e+00 2.275144e+00 1.905899e+00 2.079735e+00 1.864741e+00 1.591725e+00 2.581776e-01 1.923695e-01 2.538473e-01 2.570877e-01 3.898243e-01 2.880523e-01 4.083226e-01 4.271460e-01 4.592091e-01 4.217753e-01 3.741364e-01 3.383598e-01 2.376742e-01
<GCONST> 1.106649e+02
<TRANSP> 5
 0.000000e+00 1.000000e+00 0.000000e+00 0.000000e+00 0.000000e+00
 0.000000e+00 5.695705e-01 4.304295e-01 0.000000e+00 0.000000e+00
 0.000000e+00 0.000000e+00 6.333883e-01 3.666117e-01 0.000000e+00
 0.000000e+00 0.000000e+00 0.000000e+00 5.068934e-01 4.931066e-01
 0.000000e+00 0.000000e+00 0.000000e+00 0.000000e+00 0.000000e+00
<ENDHMM>
~h "r"
<BEGINHMM>
<NUMSTATES> 5
<STATE> 2
<MEAN> 39
 2.525152e+00 1.853514e+00 -3.930867e+00 -8.812389e+00 -6.611555e+00 -3.018565e-01 -1.221346e+01 1.554596e+00 -6.991495e+00 2.074167e-01 -2.236109e+00 -6.679475e-01 6.763077e+01 -2.567960e-01 -6.722602e-01 -7.564865e-01 -2.949246e-01 4.681332e-01 5.769737e-02 6.347616e-02 7.121904e-01 6.311737e-01 6.772727e-01 -2.457544e-01 -6.212188e-01 3.000137e-01 -1.989679e-02 -1.419323e-01 1.708426e-02 -3.386322e-02 -1.162260e-02 -9.261458e-02 -2.335805e-02 -1.563773e-02 1.022493e-01 1.728189e-01 -1.263483e-03 -1.284822e-01 5.229174e-02
<VARIANCE> 39
 3.263967e+01 3.219900e+01 5.840218e+01 1.362505e+02 3.951829e+01 8.615288e+01 8.026292e+01 6.918790e+01 9.005859e+01 5.448328e+01 5.879754e+01 3.161382e+01 8.928979e+01 5.685737e-01 1.024434e+00 1.068773e+00 1.357678e+00 1.525579e+00 1.540297e+00 1.877345e+00 2.025855e+00 1.733563e+00 2.723983e+00 2.289226e+00 1.866293e+00 1.041103e+00 8.155648e-02 1.430056e-01 1.701276e-01 2.628068e-01 2.656198e-01 3.043996e-01 3.294685e-01 2.791350e-01 3.046816e-01 3.698937e-01 3.437523e-01 2.729352e-01 1.161801e-01
<GCONST> 1.107939e+02
<STATE> 3
<MEAN> 39
 2.699755e+00 -1.310748e+00 -7.082553e+00 -1.149145e+01 -5.125653e+00 9.093821e-01 -1.403692e+01 4.447622e+00 -4.404053e+00 3.634077e+00 -3.622377e+00 -3.671373e+00 7.128632e+01 -2.251717e-01 -8.425449e-01 -5.471305e-01 -1.104743e-01 3.501934e-01 -6.874115e-02 7.653008e-02 5.171204e-01 8.252538e-01 5.587142e-01 -4.974649e-01 -9.273815e-01 3.660201e-01 1.773933e-02 9.080201e-03 5.096386e-02 2.413294e-02 -7.487064e-02 -9.372111e-02 -1.694006e-02 -6.592117e-02 -2.381450e-02 -1.292106e-01 -3.611511e-02 4.233834e-02 -4.933590e-02
<VARIANCE> 39
 2.439590e+01 3.472765e+01 5.512616e+01 1.178862e+02 3.191480e+01 7.063988e+01 7.331709e+01 6.868362e+01 8.451145e+01 6.522811e+01 6.065368e+01 4.041051e+01 1.004038e+02 5.294880e-01 8.103432e-01 9.682060e-01 1.588193e+00 1.281081e+00 1.352238e+00 1.568194e+00 1.566354e+00 1.541636e+00 2.228862e+00 2.272039e+00 2.113924e+00 8.753853e-01 6.556992e-02 1.216628e-01 1.135569e-01 1.953651e-01 1.614687e-01 2.185110e-01 2.711572e-01 2.532937e-01 2.378423e-01 2.979283e-01 2.965196e-01 2.827521e-01 9.677291e-02
<GCONST> 1.060511e+02
<STATE> 4
<MEAN> 39
 4.236601e+00 -7.781739e+00 -1.051498e+01 -1.078395e+01 -5.974927e+00 8.024316e-01 -1.831084e+01 9.513052e+00 2.150959e+00 2.850384e+00 -8.777470e+00 -7.403340e+00 7.617137e+01 -3.298921e-02 -7.114258e-02 -7.199275e-02 7.640694e-02 9.010049e-03 -1.178199e-01 1.098986e-02 8.346193e-02 1.749723e-01 -8.332019e-02 -1.932432e-01 -1.032496e-02 -1.266399e-01 -2.081015e-03 6.858930e-02 3.522310e-02 1.228085e-02 -1.066201e-02 -4.848143e-02 -1.193685e-02 -4.182903e-02 -5.096259e-02 2.089726e-03 5.217282e-02 5.134958e-02 -5.550308e-02
<VARIANCE> 39
 1.076204e+01 2.473030e+01 3.742892e+01 4.521340e+01 3.022073e+01 3.824020e+01 5.201689e+01 5.301876e+01 8.943240e+01 2.944320e+01 3.835727e+01 4.104256e+01 4.740842e+01 4.175538e-01 8.018447e-01 7.461110e-01 1.166841e+00 1.041649e+00 1.284285e+00 1.847777e+00 1.847508e+00 1.323303e+00 1.037238e+00 1.436330e+00 1.722375e+00 9.235178e-01 6.661253e-02 1.128104e-01 9.787510e-02 1.449474e-01 1.727499e-01 2.037120e-01 3.366704e-01 3.762293e-01 2.156490e-01 1.677744e-01 2.288904e-01 2.163136e-01 1.527312e-01
<GCONST> 9.743163e+01
<TRANSP> 5
 0.000000e+00 1.000000e+00 0.000000e+00 0.000000e+00 0.000000e+00
 0.000000e+00 5.255916e-01 4.744084e-01 0.000000e+00 0.000000e+00
 0.000000e+00 0.000000e+00 6.006542e-01 3.993458e-01 0.000000e+00
 0.000000e+00 0.000000e+00 0.000000e+00 9.137129e-01 8.628710e-02
 0.000000e+00 0.000000e+00 0.000000e+00 0.000000e+00 0.000000e+00
<ENDHMM>
~h "s"
<BEGINHMM>
<NUMSTATES> 5
<STATE> 2
<MEAN> 39
 -9.688997e+00 -2.640564e+00 -4.959029e+00 -5.878407e+00 -6.414531e+00 -7.810219e+00 -5.071148e+00 -5.851040e-01 -1.632509e+00 -8.849953e-01 -6.263241e+00 -1.542866e+00 5.617027e+01 -6.619400e-01 2.132430e-02 2.992272e-01 -1.519782e-01 -2.833553e-02 -3.439059e-01 4.838517e-02 3.267667e-01 1.632231e-02 5.807386e-02 5.426472e-02 3.068862e-01 6.858314e-01 1.125219e-02 -1.170103e-02 3.016572e-02 2.822468e-02 3.049849e-02 8.999037e-02 -6.849088e-02 8.865920e-02 -1.760185e-02 2.112282e-02 -3.857965e-02 -1.614735e-02 1.172013e-01
<VARIANCE> 39
 5.041526e+01 2.792051e+01 3.687323e+01 3.600210e+01 2.851098e+01 3.198784e+01 2.551496e+01 4.708715e+01 3.494994e+01 2.769262e+01 2.496998e+01 2.029932e+01 4.972039e+01 3.453440e+00 1.455595e+00 1.366773e+00 3.018262e+00 2.135478e+00 3.665307e+00 2.335584e+00 2.806000e+00 3.212166e+00 2.632722e+00 1.844718e+00 2.088227e+00 2.722724e+00 6.838715e-01 2.783296e-01 2.802432e-01 5.415788e-01 4.537348e-01 8.248678e-01 4.400212e-01 5.300072e-01 5.583592e-01 5.637538e-01 3.548291e-01 3.457176e-01 5.129030e-01
<GCONST> 1.185847e+02
<STATE> 3
<MEAN> 39
 -8.995708e+00 -2.422334e+00 -3.434648e+00 -4.134680e+00 -4.847882e+00 -8.260351e+00 -4.789361e+00 2.581320e+00 -1.008585e+00 1.836769e-01 -5.804940e+00 -5.969803e-01 5.789502e+01 -1.329210e-01 1.808936e-01 2.118221e-01 1.290551e-01 2.182703e-01 5.521006e-02 -4.319590e-02 3.242655e-01 3.062511e-02 6.164964e-02 -2.315766e-02 1.291445e-01 2.854697e-01 6.855559e-02 -3.024501e-02 1.721781e-02 -3.613791e-02 3.355645e-02 1.117748e-01 -5.065234e-02 -1.123661e-02 -4.311313e-02 -5.147365e-02 -4.943404e-02 -7.588151e-02 8.847801e-02
<VARIANCE> 39
 5.259232e+01 3.694610e+01 4.102276e+01 2.894151e+01 3.159423e+01 3.874973e+01 2.753374e+01 4.898356e+01 4.548660e+01 2.928700e+01 2.748521e+01 1.859237e+01 4.065240e+01 2.939920e+00 1.732473e+00 1.719896e+00 1.895261e+00 1.963686e+00 3.446227e+00 2.447324e+00 2.864068e+00 2.836600e+00 2.306998e+00 2.147927e+00 1.447042e+00 2.156592e+00 4.009020e-01 2.936941e-01 2.888169e-01 3.052047e-01 3.719278e-01 7.670906e-01 4.590577e-01 5.303547e-01 6.003781e-01 4.954612e-01 3.845711e-01 3.100435e-01 3.315870e-01
<GCONST> 1.165537e+02
<STATE> 4
<MEAN> 39
 -8.097295e+00 -1.158479e+00 -3.432803e+00 -2.720064e+00 -2.901874e+00 -5.325271e+00 -4.365582e+00 2.712909e+00 -4.727888e-02 3.256839e-01 -5.151690e+00 -7.921671e-01 5.521387e+01 4.259003e-02 5.845997e-02 1.402642e-02 -8.162853e-02 1.593637e-01 1.305931e-01 -1.382710e-01 5.087662e-02 -6.177569e-03 -6.354387e-02 6.085299e-02 -1.288782e-01 8.368097e-02 3.957850e-02 -3.841974e-02 3.478146e-02 -3.653932e-02 1.517805e-02 -3.772794e-02 -7.419270e-02 2.459644e-02 -3.705321e-02 -1.454398e-02 -9.195652e-03 -2.086696e-02 7.684221e-02
<VARIANCE> 39
 5.019690e+01 2.589851e+01 2.830441e+01 2.269827e+01 2.078413e+01 2.559236e+01 2.933392e+01 4.305918e+01 3.090533e+01 2.230180e+01 1.862933e+01 1.834585e+01 3.826307e+01 1.735720e+00 1.141807e+00 1.420582e+00 1.216452e+00 1.480879e+00 2.424517e+00 2.420140e+00 2.570634e+00 2.342474e+00 2.187454e+00 1.828034e+00 1.403942e+00 1.431378e+00 2.978684e-01 1.988549e-01 2.409263e-01 2.485685e-01 2.984299e-01 4.786795e-01 5.071101e-01 4.575326e-01 4.609765e-01 4.506355e-01 3.513132e-01 2.990578e-01 2.169975e-01
<GCONST> 1.076161e+02
<TRANSP> 5
 0.000000e+00 1.000000e+00 0.000000e+00 0.000000e+00 0.000000e+00
 0.000000e+00 6.637384e-01 3.362615e-01 0.000000e+00 0.000000e+00
 0.000000e+00 0.000000e+00 5.628620e-01 4.371380e-01 0.000000e+00
 0.000000e+00 0.000000e+00 0.000000e+00 8.387824e-01 1.612176e-01
 0.000000e+00 0.000000e+00 0.000000e+00 0.000000e+00 0.000000e+00
<ENDHMM>
~h "t"
<BEGINHMM>
<NUMSTATES> 5
<STATE> 2
<MEAN> 39
 6.885176e-01 -4.327600e+00 -9.102940e+00 -1.446603e+01 -5.491273e+00 -3.950111e+00 -1.284581e+01 3.572883e+00 -4.591539e+00 -7.130604e-01 -6.243830e+00 -5.044142e+00 7.118467e+01 4.935759e-01 -4.902727e-01 -1.838351e-01 -2.565642e-01 -1.334934e-01 4.755787e-02 -3.955233e-01 2.969614e-01 3.201685e-02 -1.133410e-01 -1.513870e-01 -1.476845e-01 8.638846e-01 4.529311e-02 -1.990404e-02 6.134850e-03 -3.055795e-02 3.677187e-04 1.426779e-02 -3.100727e-02 1.412441e-02 2.387237e-02 1.987227e-03 -2.807185e-02 -1.124594e-02 8.151228e-03
<VARIANCE> 39
 4.998787e+01 4.120936e+01 6.728648e+01 6.346141e+01 4.969078e+01 8.359641e+01 7.219292e+01 1.128808e+02 6.656063e+01 9.347272e+01 4.274880e+01 4.942339e+01 8.963600e+01 3.091701e+00 2.427384e+00 1.965158e+00 4.643956e+00 2.481966e+00 3.788503e+00 5.648204e+00 3.857777e+00 3.543036e+00 3.768347e+00 3.036486e+00 2.472780e+00 6.472434e+00 4.572394e-01 3.612622e-01 2.765843e-01 7.844426e-01 4.146443e-01 6.714442e-01 9.235079e-01 6.070324e-01 5.716342e-01 5.611024e-01 5.545698e-01 4.271551e-01 7.962041e-01
<GCONST> 1.339249e+02
<STATE> 3
<MEAN> 39
 2.109585e+00 -6.124486e+00 -9.422112e+00 -1.490279e+01 -5.867535e+00 -6.019836e+00 -1.294170e+01 6.045897e+00 -4.047050e+00 -1.432725e+00 -7.734332e+00 -4.897460e+00 7.257784e+01 2.168706e-01 -1.271542e-01 2.114288e-01 -8.698750e-03 -2.120444e-01 -9.976122e-02 -1.253304e-01 1.925472e-01 -1.074440e-01 -2.201383e-03 -7.165230e-02 9.147879e-02 2.323110e-01 -6.249841e-02 7.876418e-02 4.398141e-02 5.687424e-02 -1.375927e-02 -1.091134e-02 5.676530e-02 -1.941262e-02 -3.037679e-02 6.100838e-03 2.758729e-02 2.891824e-02 -1.085892e-01
<VARIANCE> 39
 2.836123e+01 4.576640e+01 5.972022e+01 5.822198e+01 5.203394e+01 8.568285e+01 7.588113e+01 1.195962e+02 6.585125e+01 9.531210e+01 4.252068e+01 5.579130e+01 7.373675e+01 2.424357e+00 2.581993e+00 2.182442e+00 3.896754e+00 2.757014e+00 3.896363e+00 5.265109e+00 4.567805e+00 3.852605e+00 3.328060e+00 3.094548e+00 2.758854e+00 5.737689e+00 3.400716e-01 3.541096e-01 2.810243e-01 6.540588e-01 4.540325e-01 6.362748e-01 9.148868e-01 6.914907e-01 6.938425e-01 5.627815e-01 5.380539e-01 4.893967e-01 6.891981e-01
<GCONST> 1.331467e+02
<STATE> 4
<MEAN> 39
 1.110173e+00 -6.566628e-01 -3.395478e+00 -1.230643e+01 -8.086679e+00 -4.893317e+00 -1.403769e+01 5.591115e+00 -5.476676e+00 1.226511e+00 -7.249976e+00 -2.231540e+00 7.052328e+01 2.218356e-02 1.845929e-01 7.383022e-02 8.106899e-02 1.765334e-02 8.666148e-03 6.589003e-02 -1.679548e-01 1.390602e-02 2.940796e-02 -6.473511e-03 3.808291e-02 -1.558974e-01 -2.053874e-02 8.281147e-03 -2.648947e-02 1.650634e-02 2.478290e-02 8.256655e-04 2.746701e-02 -2.187780e-02 2.665109e-02 -1.732218e-02 6.059790e-03 -1.305270e-02 -3.901049e-02
<VARIANCE> 39
 4.414462e+01 5.894756e+01 8.815952e+01 5.643177e+01 7.312267e+01 7.791127e+01 5.857092e+01 1.129833e+02 7.758849e+01 6.234766e+01 7.603619e+01 3.495535e+01 5.835418e+01 3.280544e+00 2.847213e+00 3.141621e+00 3.613656e+00 4.384694e+00 3.757750e+00 4.531547e+00 4.606630e+00 3.931679e+00 3.293899e+00 3.401480e+00 2.690388e+00 3.538660e+00 5.208793e-01 3.835582e-01 4.259239e-01 5.770754e-01 7.018117e-01 6.116116e-01 7.708242e-01 7.504286e-01 6.816444e-01 5.732942e-01 5.530279e-01 4.826368e-01 4.447826e-01
<GCONST> 1.350002e+02
<TRANSP> 5
 0.000000e+00 1.000000e+00 0.000000e+00 0.000000e+00 0.000000e+00
 0.000000e+00 8.754603e-01 1.245397e-01 0.000000e+00 0.000000e+00
 0.000000e+00 0.000000e+00 8.805866e-01 1.194134e-01 0.000000e+00
 0.000000e+00 0.000000e+00 0.000000e+00 9.613885e-01 3.861146e-02
 0.000000e+00 0.000000e+00 0.000000e+00 0.000000e+00 0.000000e+00
<ENDHMM>
~h "u"
<BEGINHMM>
<NUMSTATES> 5
<STATE> 2
<MEAN> 39
 -1.001406e+00 -2.110170e+00 -5.543527e+00 -1.127817e+01 -5.078232e+00 -6.695017e+00 -1.099946e+01 4.456420e+00 -3.094219e+00 -7.641448e-01 -8.316755e+00 -2.766504e+00 6.742121e+01 4.166088e-02 -4.231977e-02 1.335243e-01 -1.762285e-01 1.035959e-01 -6.148995e-02 -3.278933e-01 9.382211e-02 -7.723773e-02 -1.925147e-01 -1.001877e-01 4.440549e-03 5.684857e-01 5.372344e-02 3.115761e-02 1.614086e-02 5.935122e-04 -5.552201e-02 -1.236658e-02 -3.712979e-02 -2.593639e-02 -1.175321e-02 4.449107e-03 3.811735e-02 4.146877e-02 3.244536e-02
<VARIANCE> 39
 6.790327e+01 4.589257e+01 6.233190e+01 6.210387e+01 4.325661e+01 8.209187e+01 6.218095e+01 1.013879e+02 7.521753e+01 7.075665e+01 6.191792e+01 2.923382e+01 8.234200e+01 3.776472e+00 2.296221e+00 2.200342e+00 3.690092e+00 2.888053e+00 3.297716e+00 4.480718e+00 3.596298e+00 3.841780e+00 3.808951e+00 2.912584e+00 2.036718e+00 5.234282e+00 4.872715e-01 3.573921e-01 3.092422e-01 6.052375e-01 4.816425e-01 4.996648e-01 7.410449e-01 6.126800e-01 6.424424e-01 6.403163e-01 4.933023e-01 4.054222e-01 6.136722e-01
<GCONST> 1.321816e+02
<STATE> 3
<MEAN> 39
 -1.496032e+00 -1.325710e+00 -4.745255e+00 -1.016312e+01 -4.889865e+00 -5.846172e+00 -1.138836e+01 3.612312e+00 -3.611348e+00 -6.793195e-01 -7.268623e+00 -2.383564e+00 6.768424e+01 1.516671e-01 2.020923e-01 1.564306e-01 1.009026e-01 -5.920889e-02 -5.774032e-02 -2.129003e-01 -1.827514e-01 -1.699119e-01 -4.744828e-02 1.674974e-01 1.065181e-01 2.841462e-01 5.578836e-02 1.336494e-02 -8.915598e-03 2.213071e-02 -1.050310e-01 4.310929e-02 5.435501e-02 -6.046088e-02 -2.829735e-02 4.159892e-02 5.854137e-02 1.418391e-02 -6.683074e-02
<VARIANCE> 39
 8.707838e+01 4.861143e+01 6.709877e+01 5.960559e+01 4.963131e+01 8.807268e+01 5.735632e+01 9.569381e+01 7.470566e+01 6.320876e+01 6.674226e+01 3.060480e+01 6.336116e+01 4.098501e+00 2.339703e+00 2.127033e+00 3.259888e+00 3.186168e+00 3.260000e+00 3.934276e+00 3.301754e+00 3.764364e+00 3.479814e+00 2.790491e+00 2.155176e+00 3.524624e+00 5.336404e-01 3.778582e-01 3.450154e-01 6.166461e-01 5.547661e-01 5.913754e-01 7.007999e-01 5.740809e-01 6.488437e-01 6.072284e-01 5.005928e-01 4.002819e-01 4.787925e-01
<GCONST> 1.318247e+02
<STATE> 4
<MEAN> 39
 -1.438174e+00 8.418960e-01 -3.167562e+00 -9.376946e+00 -6.563016e+00 -4.736153e+00 -1.255766e+01 2.343751e+00 -3.547270e+00 5.365560e-01 -4.547462e+00 -1.645651e+00 6.815662e+01 4.584223e-01 1.087637e-01 2.885800e-02 -3.904722e-02 -1.893423e-01 1.583386e-01 -4.586007e-02 -2.562686e-01 -1.474545e-01 7.328079e-02 7.918483e-02 3.839882e-02 2.551035e-02 5.967755e-03 -1.442517e-02 -1.065248e-02 -4.938823e-02 -2.254691e-02 3.343019e-02 3.971245e-02 2.376814e-02 -1.589576e-02 -3.804104e-03 -1.280150e-02 -4.417617e-03 -2.227123e-02
<VARIANCE> 39
 1.012085e+02 4.579980e+01 7.897442e+01 5.162110e+01 6.915699e+01 8.783907e+01 5.933374e+01 7.273587e+01 8.962410e+01 4.835857e+01 5.528279e+01 3.135281e+01 4.218227e+01 5.944510e+00 2.527472e+00 2.788828e+00 3.861146e+00 3.757173e+00 4.551424e+00 4.514920e+00 3.869674e+00 4.522159e+00 3.290661e+00 3.299629e+00 2.411514e+00 2.370091e+00 7.693273e-01 3.868948e-01 4.085912e-01 6.545412e-01 6.294394e-01 7.454088e-01 8.000296e-01 6.375746e-01 7.416028e-01 6.019375e-01 5.817475e-01 4.489997e-01 3.100026e-01
<GCONST> 1.342299e+02
<TRANSP> 5
 0.000000e+00 1.000000e+00 0.000000e+00 0.000000e+00 0.000000e+00
 0.000000e+00 6.958670e-01 3.041330e-01 0.000000e+00 0.000000e+00
 0.000000e+00 0.000000e+00 6.420633e-01 3.579367e-01 0.000000e+00
 0.000000e+00 0.000000e+00 0.000000e+00 8.621305e-01 1.378695e-01
 0.000000e+00 0.000000e+00 0.000000e+00 0.000000e+00 0.000000e+00
<ENDHMM>
~h "y"
<BEGINHMM>
<NUMSTATES> 5
<STATE> 2
<MEAN> 39
 -3.702065e+00 3.672451e+00 6.147174e+00 -8.799892e+00 -1.288292e+01 -4.962777e+00 -1.172432e+01 -8.043517e-01 -7.448327e+00 1.703831e+00 -4.070608e+00 -2.190320e+00 6.754948e+01 4.449148e-01 3.788598e-01 1.305203e+00 1.844740e-01 -1.103403e+00 3.866540e-01 -1.420681e-01 -3.157855e-01 -6.135654e-01 6.202391e-02 3.372680e-02 -7.937443e-02 1.276173e-01 8.667865e-02 -2.544013e-02 -1.405888e-01 -6.533385e-02 6.069622e-02 1.078653e-01 -6.336182e-02 -3.989286e-02 1.063118e-01 -4.826585e-02 -9.998277e-02 -6.734943e-02 -6.762643e-02
<VARIANCE> 39
 5.548247e+01 1.982989e+01 1.158832e+02 6.517292e+01 8.813071e+01 3.955132e+01 4.898439e+01 5.821074e+01 4.567255e+01 4.232193e+01 3.563089e+01 1.853634e+01 3.373225e+01 4.900646e+00 2.048360e+00 8.041555e+00 3.652532e+00 7.418901e+00 3.278291e+00 4.407799e+00 2.490233e+00 4.048680e+00 4.234370e+00 2.937024e+00 1.706810e+00 2.928646e+00 8.240399e-01 3.848200e-01 1.197526e+00 6.407424e-01 1.412489e+00 6.030066e-01 7.269303e-01 4.556383e-01 6.429143e-01 7.197853e-01 5.003698e-01 3.536216e-01 3.600299e-01
<GCONST> 1.318991e+02
<STATE> 3
<MEAN> 39
 4.125965e-02 5.961751e+00 1.091046e+01 -6.354279e+00 -1.569168e+01 -3.079584e+00 -1.356956e+01 -8.355597e-01 -1.178233e+01 1.702567e+00 -4.746989e+00 -4.154588e+00 6.717368e+01 8.025239e-02 3.047245e-01 -3.274662e-01 2.138160e-01 5.511389e-01 3.217565e-01 3.918654e-01 -4.188883e-01 5.796712e-01 -8.361891e-02 -2.515633e-01 1.167710e-02 -5.128258e-01 -1.066419e-01 -1.173199e-01 -1.881048e-01 8.035654e-02 3.304916e-01 -1.233211e-01 2.432815e-01 9.652239e-02 2.099857e-01 -1.485435e-01 8.318500e-03 8.025643e-02 -6.896579e-02
<VARIANCE> 39
 1.371664e+01 2.184367e+01 5.981453e+01 5.030691e+01 4.633588e+01 4.416079e+01 5.162169e+01 6.999314e+01 6.397498e+01 3.556421e+01 5.954699e+01 2.277647e+01 1.880764e+01 7.784665e-01 1.192449e+00 2.101924e+00 1.412560e+00 3.544009e+00 2.208023e+00 2.900595e+00 1.804157e+00 2.669949e+00 2.314678e+00 1.976915e+00 1.415062e+00 5.443947e-01 1.854438e-01 1.861943e-01 4.343158e-01 2.362101e-01 7.112589e-01 4.735140e-01 5.569746e-01 3.475983e-01 3.928369e-01 4.734939e-01 4.099122e-01 2.866571e-01 1.252784e-01
<GCONST> 1.117763e+02
<STATE> 4
<MEAN> 39
 -7.071679e-01 6.517683e+00 1.575799e+01 -6.710362e+00 -1.880651e+01 -8.165140e-01 -1.299969e+01 -6.323928e+00 -4.058530e+00 -2.140164e-01 -4.578460e+00 -3.170521e+00 6.643890e+01 6.993137e-02 1.706229e-01 -5.509794e-01 2.343409e-01 8.257485e-01 2.726313e-03 2.908079e-01 -5.662686e-02 4.473320e-01 -2.179031e-02 -1.502681e-01 1.284432e-01 -4.121451e-01 6.441606e-03 -4.900343e-02 -8.498734e-02 6.455392e-02 7.479876e-02 -4.866164e-02 6.730965e-02 5.531556e-02 -6.137612e-02 1.643598e-02 6.552490e-02 5.164003e-02 -4.079695e-02
<VARIANCE> 39
 1.171335e+01 1.826771e+01 7.025674e+01 2.403534e+01 7.419170e+01 2.496681e+01 3.143745e+01 5.471150e+01 7.508659e+01 2.538568e+01 3.525529e+01 1.707901e+01 1.698551e+01 4.510073e-01 7.091515e-01 9.819238e-01 8.546176e-01 1.979447e+00 1.626588e+00 1.240500e+00 1.439443e+00 3.026418e+00 1.509322e+00 1.233256e+00 1.194055e+00 3.761957e-01 8.626515e-02 1.199284e-01 1.566541e-01 1.295821e-01 3.673226e-01 3.001930e-01 2.435917e-01 3.085606e-01 5.335827e-01 2.663996e-01 2.675519e-01 2.277383e-01 6.025144e-02
<GCONST> 9.677743e+01
<TRANSP> 5
 0.000000e+00 1.000000e+00 0.000000e+00 0.000000e+00 0.000000e+00
 0.000000e+00 8.898522e-01 1.101477e-01 0.000000e+00 0.000000e+00
 0.000000e+00 0.000000e+00 6.380726e-01 3.619274e-01 0.000000e+00
 0.000000e+00 0.000000e+00 0.000000e+00 8.144823e-01 1.855177e-01
 0.000000e+00 0.000000e+00 0.000000e+00 0.000000e+00 0.000000e+00
<ENDHMM>
~h "ng"
<BEGINHMM>
<NUMSTATES> 5
<STATE> 2
<MEAN> 39
 -3.132878e+00 2.000928e+00 -2.326503e+00 -4.317923e-01 -8.779900e-01 -2.315904e+00 -3.146304e+00 1.786866e+00 -2.739186e-01 -1.999888e+00 -3.758856e+00 -1.341349e+00 5.367349e+01 -1.534766e-01 -1.003420e-01 -1.897318e-01 -1.536246e-01 2.804984e-02 -8.439305e-02 9.814030e-02 1.898730e-01 1.676598e-01 8.649703e-02 7.024932e-02 1.158357e-02 -1.677090e-01 2.236411e-02 -3.448118e-03 2.288602e-02 -1.522377e-03 -3.003208e-02 -3.868588e-03 -7.360276e-03 -2.881450e-02 -6.483388e-03 1.497717e-02 3.028554e-03 5.419223e-03 1.292954e-02
<VARIANCE> 39
 7.187848e+00 2.459554e+01 2.967558e+01 3.414932e+01 2.563309e+01 2.080173e+01 3.080350e+01 3.463651e+01 3.170503e+01 2.919499e+01 1.977773e+01 1.628564e+01 6.420027e+00 3.268957e-01 7.209257e-01 9.254690e-01 1.190638e+00 1.177816e+00 1.346319e+00 1.522704e+00 1.911211e+00 1.749388e+00 1.687530e+00 1.466738e+00 1.183774e+00 1.586965e-01 4.610533e-02 1.043598e-01 1.701581e-01 2.264422e-01 2.079303e-01 2.511373e-01 2.978830e-01 3.726186e-01 3.416477e-01 3.353487e-01 2.839194e-01 2.248403e-01 2.045544e-02
<GCONST> 8.891283e+01
<STATE> 3
<MEAN> 39
 -4.469123e+00 1.541244e+00 -3.680175e+00 -1.094447e+00 -1.148638e+00 -2.641847e+00 -2.495498e+00 1.136047e+00 -2.545367e-01 -8.700557e-01 -3.445991e+00 -1.473400e+00 5.205157e+01 -9.248723e-02 -6.022439e-02 -1.284529e-01 -1.058876e-01 -6.016697e-02 -9.070945e-03 8.194616e-02 7.336205e-02 8.726035e-02 1.320439e-01 1.014780e-01 -4.821613e-02 -2.098789e-01 2.317917e-02 3.104618e-02 3.143308e-02 1.117818e-02 -1.920992e-02 7.803568e-03 -1.322014e-02 -1.477152e-02 -6.373403e-03 -1.434932e-02 9.796849e-03 1.254118e-02 1.201392e-02
<VARIANCE> 39
 5.578321e+00 1.265065e+01 1.971684e+01 1.885275e+01 1.787098e+01 1.838636e+01 2.127335e+01 2.748189e+01 2.715363e+01 2.664836e+01 2.038811e+01 1.743366e+01 5.634951e+00 2.438816e-01 4.373406e-01 6.448789e-01 1.090951e+00 1.053306e+00 1.366135e+00 1.574972e+00 1.595493e+00 1.557454e+00 1.571329e+00 1.627439e+00 1.363649e+00 1.270269e-01 4.180952e-02 6.967254e-02 1.206762e-01 2.051795e-01 2.014297e-01 2.813465e-01 3.035661e-01 2.789059e-01 2.888837e-01 3.162501e-01 3.151627e-01 2.659273e-01 1.711230e-02
<GCONST> 8.271198e+01
<STATE> 4
<MEAN> 39
 -5.295755e+00 4.729117e-01 -5.380610e+00 -1.901576e+00 -3.052408e+00 -3.256467e+00 -3.116751e+00 4.308695e-01 -2.163695e-01 -1.489528e-02 -3.292659e+00 -2.176337e+00 4.857050e+01 -1.664609e-02 -1.788412e-02 -6.551171e-03 -7.851107e-03 -3.148956e-02 -2.014500e-02 2.861768e-05 5.275583e-03 1.118823e-02 -8.181408e-04 5.131476e-03 8.708926e-03 -4.702645e-02 -9.080529e-04 4.660737e-03 4.564855e-03 -8.108756e-04 1.609721e-03 -8.929515e-03 2.936058e-03 -1.850382e-03 -5.682150e-03 -4.613209e-04 -2.951723e-03 1.358487e-03 6.846343e-03
<VARIANCE> 39
 3.332032e+00 5.930770e+00 7.399163e+00 9.394766e+00 1.210948e+01 1.357362e+01 1.450181e+01 1.908293e+01 2.017968e+01 1.659398e+01 1.373060e+01 1.343173e+01 4.228595e+00 1.867392e-01 3.465345e-01 5.098464e-01 6.894473e-01 9.894202e-01 1.134135e+00 1.250338e+00 1.322318e+00 1.448217e+00 1.281128e+00 1.369496e+00 1.232794e+00 1.049784e-01 3.677071e-02 6.427646e-02 1.047278e-01 1.348278e-01 2.063937e-01 2.304963e-01 2.544188e-01 2.725484e-01 2.967283e-01 2.535462e-01 2.795679e-01 2.463338e-01 2.078779e-02
<GCONST> 7.266489e+01
<TRANSP> 5
 0.000000e+00 1.000000e+00 0.000000e+00 0.000000e+00 0.000000e+00
 0.000000e+00 9.049819e-01 9.501814e-02 0.000000e+00 0.000000e+00
 0.000000e+00 0.000000e+00 8.256096e-01 1.743904e-01 0.000000e+00
 0.000000e+00 0.000000e+00 0.000000e+00 9.762054e-01 2.379459e-02
 0.000000e+00 0.000000e+00 0.000000e+00 0.000000e+00 0.000000e+00
<ENDHMM>
~h "sil"
<BEGINHMM>
<NUMSTATES> 5
<STATE> 2
<MEAN> 39
 -4.636468e+00 -1.571197e+00 -5.189847e+00 -2.755335e+00 -4.230170e+00 -3.873894e+00 -3.566687e+00 -7.143674e-01 -9.378309e-01 -5.500330e-01 -2.491017e+00 -1.378003e+00 3.399852e+01 -1.287737e+00 -6.786193e-01 -1.729059e+00 -1.111119e+00 -1.402321e+00 -1.416481e+00 -1.220100e+00 -3.568182e-01 -5.060369e-01 -2.810114e-01 -7.262180e-01 -4.437036e-01 8.349829e+00 2.588000e-01 1.487400e-01 3.057714e-01 1.576887e-01 2.605215e-01 1.705780e-01 1.542642e-01 3.266365e-02 7.342690e-03 -3.142589e-02 7.493629e-02 4.291515e-02 -1.151308e+00
<VARIANCE> 39
 1.740317e+01 1.211978e+01 2.758454e+01 1.977450e+01 2.575209e+01 2.732049e+01 2.375912e+01 1.999557e+01 1.977621e+01 1.612023e+01 1.626106e+01 1.238350e+01 4.766729e+02 1.535107e+00 8.523594e-01 2.224722e+00 1.532811e+00 2.249365e+00 2.374861e+00 2.279657e+00 1.865762e+00 1.874424e+00 1.484046e+00 1.737613e+00 1.275235e+00 3.624270e+01 2.284437e-01 1.233245e-01 3.278249e-01 2.670332e-01 3.699155e-01 4.351923e-01 4.045567e-01 3.624689e-01 3.489802e-01 3.328978e-01 3.455950e-01 2.333690e-01 4.060906e+00
<GCONST> 1.102942e+02
<STATE> 3
<MEAN> 39
 -6.847207e+00 -2.293947e+00 -7.694503e+00 -4.694573e+00 -5.951000e+00 -6.388400e+00 -5.677709e+00 -6.899911e-01 -2.261468e+00 -1.264660e+00 -3.749764e+00 -2.642088e+00 5.047639e+01 -3.783646e-02 -7.546113e-02 -1.405577e-01 -1.261861e-01 -3.880934e-02 -1.617109e-01 -3.148856e-02 -3.801426e-02 -4.510408e-02 -3.254141e-02 6.280442e-02 -6.908805e-02 4.601355e-01 2.313620e-01 1.272514e-01 2.946429e-01 2.033995e-01 2.083562e-01 2.933856e-01 2.352709e-01 2.814715e-02 1.008264e-01 8.328533e-02 1.673573e-01 1.059421e-01 -1.424508e+00
<VARIANCE> 39
 1.432147e+01 1.520630e+01 2.119734e+01 1.857238e+01 2.290745e+01 2.535962e+01 2.541208e+01 2.750179e+01 2.756428e+01 1.998125e+01 1.549708e+01 1.508767e+01 1.703378e+01 9.996104e-01 8.804716e-01 1.168589e+00 1.215780e+00 1.450320e+00 1.835124e+00 2.002105e+00 2.072538e+00 1.834278e+00 1.890113e+00 1.605895e+00 1.463620e+00 3.037416e+00 2.105306e-01 1.735552e-01 2.983887e-01 2.222843e-01 3.469906e-01 3.984914e-01 4.261920e-01 3.744096e-01 3.458185e-01 3.652459e-01 3.307759e-01 3.052262e-01 2.520851e+00
<GCONST> 1.031118e+02
<STATE> 4
<MEAN> 39
 -5.652701e+00 -1.031417e+00 -6.668179e+00 -2.996551e+00 -4.223350e+00 -4.495518e+00 -3.649177e+00 4.806273e-01 -5.126828e-01 -3.493790e-01 -3.006234e+00 -1.356765e+00 4.883966e+01 8.676162e-03 2.207600e-02 1.917384e-02 2.650661e-02 3.464935e-02 4.465587e-02 3.547782e-02 3.223619e-02 1.971402e-02 2.436901e-02 2.664905e-03 2.121384e-02 -5.460307e-02 -5.184316e-03 8.267253e-04 4.305995e-03 8.823378e-04 4.733465e-03 -5.548149e-04 -6.151021e-03 2.021472e-03 -6.433699e-03 8.196944e-04 -8.651432e-03 4.077747e-04 -3.177017e-03
<VARIANCE> 39
 5.689065e+00 9.677702e+00 1.179532e+01 1.271663e+01 1.569913e+01 1.705503e+01 1.799266e+01 2.259547e+01 2.214273e+01 1.900817e+01 1.693565e+01 1.514731e+01 6.188896e+00 3.478611e-01 4.453677e-01 6.571958e-01 8.290676e-01 1.075000e+00 1.194210e+00 1.387479e+00 1.502228e+00 1.450096e+00 1.499316e+00 1.440795e+00 1.236245e+00 2.647709e-01 7.362176e-02 8.654144e-02 1.291626e-01 1.646029e-01 2.165224e-01 2.395773e-01 2.734862e-01 2.978993e-01 2.906443e-01 3.054727e-01 2.923772e-01 2.521826e-01 5.372906e-02
<GCONST> 8.191762e+01
<TRANSP> 5
 0.000000e+00 1.000000e+00 0.000000e+00 0.000000e+00 0.000000e+00
 0.000000e+00 5.903507e-01 4.096492e-01 0.000000e+00 0.000000e+00
 0.000000e+00 0.000000e+00 4.612952e-01 5.387049e-01 0.000000e+00
 0.000000e+00 0.000000e+00 0.000000e+00 9.755484e-01 2.445158e-02
 0.000000e+00 0.000000e+00 0.000000e+00 0.000000e+00 0.000000e+00
<ENDHMM>
