~o
<STREAMINFO> 1 39
<VECSIZE> 39<NULLD><MFCC_D_A_0><DIAGC>
~t "T_a"
<TRANSP> 5
 0.000000e+00 1.000000e+00 0.000000e+00 0.000000e+00 0.000000e+00
 0.000000e+00 7.616233e-01 2.383767e-01 0.000000e+00 0.000000e+00
 0.000000e+00 0.000000e+00 7.958059e-01 2.041941e-01 0.000000e+00
 0.000000e+00 0.000000e+00 0.000000e+00 7.678554e-01 2.321446e-01
 0.000000e+00 0.000000e+00 0.000000e+00 0.000000e+00 0.000000e+00
~t "T_b"
<TRANSP> 5
 0.000000e+00 1.000000e+00 0.000000e+00 0.000000e+00 0.000000e+00
 0.000000e+00 7.376130e-01 2.623870e-01 0.000000e+00 0.000000e+00
 0.000000e+00 0.000000e+00 7.169721e-01 2.830280e-01 0.000000e+00
 0.000000e+00 0.000000e+00 0.000000e+00 7.295835e-01 2.704165e-01
 0.000000e+00 0.000000e+00 0.000000e+00 0.000000e+00 0.000000e+00
~t "T_c"
<TRANSP> 5
 0.000000e+00 1.000000e+00 0.000000e+00 0.000000e+00 0.000000e+00
 0.000000e+00 8.723011e-01 1.276989e-01 0.000000e+00 0.000000e+00
 0.000000e+00 0.000000e+00 8.084494e-01 1.915506e-01 0.000000e+00
 0.000000e+00 0.000000e+00 0.000000e+00 8.196261e-01 1.803739e-01
 0.000000e+00 0.000000e+00 0.000000e+00 0.000000e+00 0.000000e+00
~t "T_h"
<TRANSP> 5
 0.000000e+00 1.000000e+00 0.000000e+00 0.000000e+00 0.000000e+00
 0.000000e+00 7.480248e-01 2.519752e-01 0.000000e+00 0.000000e+00
 0.000000e+00 0.000000e+00 7.473864e-01 2.526137e-01 0.000000e+00
 0.000000e+00 0.000000e+00 0.000000e+00 9.000527e-01 9.994732e-02
 0.000000e+00 0.000000e+00 0.000000e+00 0.000000e+00 0.000000e+00
~t "T_i"
<TRANSP> 5
 0.000000e+00 1.000000e+00 0.000000e+00 0.000000e+00 0.000000e+00
 0.000000e+00 3.542387e-01 6.457613e-01 0.000000e+00 0.000000e+00
 0.000000e+00 0.000000e+00 3.759509e-01 6.240491e-01 0.000000e+00
 0.000000e+00 0.000000e+00 0.000000e+00 6.141983e-01 3.858018e-01
 0.000000e+00 0.000000e+00 0.000000e+00 0.000000e+00 0.000000e+00
~t "T_j"
<TRANSP> 5
 0.000000e+00 1.000000e+00 0.000000e+00 0.000000e+00 0.000000e+00
 0.000000e+00 7.830305e-01 2.169695e-01 0.000000e+00 0.000000e+00
 0.000000e+00 0.000000e+00 7.310025e-01 2.689975e-01 0.000000e+00
 0.000000e+00 0.000000e+00 0.000000e+00 7.498206e-01 2.501794e-01
 0.000000e+00 0.000000e+00 0.000000e+00 0.000000e+00 0.000000e+00
~t "T_k"
<TRANSP> 5
 0.000000e+00 1.000000e+00 0.000000e+00 0.000000e+00 0.000000e+00
 0.000000e+00 7.646962e-01 2.353038e-01 0.000000e+00 0.000000e+00
 0.000000e+00 0.000000e+00 6.982293e-01 3.017707e-01 0.000000e+00
 0.000000e+00 0.000000e+00 0.000000e+00 8.983448e-01 1.016552e-01
 0.000000e+00 0.000000e+00 0.000000e+00 0.000000e+00 0.000000e+00
~t "T_l"
<TRANSP> 5
 0.000000e+00 1.000000e+00 0.000000e+00 0.000000e+00 0.000000e+00
 0.000000e+00 8.051646e-01 1.948354e-01 0.000000e+00 0.000000e+00
 0.000000e+00 0.000000e+00 8.444687e-01 1.555313e-01 0.000000e+00
 0.000000e+00 0.000000e+00 0.000000e+00 9.278510e-01 7.214903e-02
 0.000000e+00 0.000000e+00 0.000000e+00 0.000000e+00 0.000000e+00
~t "T_m"
<TRANSP> 5
 0.000000e+00 1.000000e+00 0.000000e+00 0.000000e+00 0.000000e+00
 0.000000e+00 6.110500e-01 3.889500e-01 0.000000e+00 0.000000e+00
 0.000000e+00 0.000000e+00 7.325312e-01 2.674688e-01 0.000000e+00
 0.000000e+00 0.000000e+00 0.000000e+00 8.407671e-01 1.592329e-01
 0.000000e+00 0.000000e+00 0.000000e+00 0.000000e+00 0.000000e+00
~t "T_n"
<TRANSP> 5
 0.000000e+00 1.000000e+00 0.000000e+00 0.000000e+00 0.000000e+00
 0.000000e+00 8.468256e-01 1.531744e-01 0.000000e+00 0.000000e+00
 0.000000e+00 0.000000e+00 7.904270e-01 2.095730e-01 0.000000e+00
 0.000000e+00 0.000000e+00 0.000000e+00 7.798059e-01 2.201941e-01
 0.000000e+00 0.000000e+00 0.000000e+00 0.000000e+00 0.000000e+00
~t "T_p"
<TRANSP> 5
 0.000000e+00 1.000000e+00 0.000000e+00 0.000000e+00 0.000000e+00
 0.000000e+00 6.578108e-01 3.421892e-01 0.000000e+00 0.000000e+00
 0.000000e+00 0.000000e+00 5.483905e-01 4.516095e-01 0.000000e+00
 0.000000e+00 0.000000e+00 0.000000e+00 7.328404e-01 2.671597e-01
 0.000000e+00 0.000000e+00 0.000000e+00 0.000000e+00 0.000000e+00
~t "T_r"
<TRANSP> 5
 0.000000e+00 1.000000e+00 0.000000e+00 0.000000e+00 0.000000e+00
 0.000000e+00 7.279766e-01 2.720234e-01 0.000000e+00 0.000000e+00
 0.000000e+00 0.000000e+00 6.861147e-01 3.138853e-01 0.000000e+00
 0.000000e+00 0.000000e+00 0.000000e+00 9.017455e-01 9.825452e-02
 0.000000e+00 0.000000e+00 0.000000e+00 0.000000e+00 0.000000e+00
~t "T_s"
<TRANSP> 5
 0.000000e+00 1.000000e+00 0.000000e+00 0.000000e+00 0.000000e+00
 0.000000e+00 7.472225e-01 2.527776e-01 0.000000e+00 0.000000e+00
 0.000000e+00 0.000000e+00 7.787949e-01 2.212051e-01 0.000000e+00
 0.000000e+00 0.000000e+00 0.000000e+00 8.722966e-01 1.277033e-01
 0.000000e+00 0.000000e+00 0.000000e+00 0.000000e+00 0.000000e+00
~t "T_t"
<TRANSP> 5
 0.000000e+00 1.000000e+00 0.000000e+00 0.000000e+00 0.000000e+00
 0.000000e+00 8.471888e-01 1.528112e-01 0.000000e+00 0.000000e+00
 0.000000e+00 0.000000e+00 9.071963e-01 9.280376e-02 0.000000e+00
 0.000000e+00 0.000000e+00 0.000000e+00 8.612294e-01 1.387706e-01
 0.000000e+00 0.000000e+00 0.000000e+00 0.000000e+00 0.000000e+00
~t "T_u"
<TRANSP> 5
 0.000000e+00 1.000000e+00 0.000000e+00 0.000000e+00 0.000000e+00
 0.000000e+00 8.039138e-01 1.960862e-01 0.000000e+00 0.000000e+00
 0.000000e+00 0.000000e+00 6.321440e-01 3.678560e-01 0.000000e+00
 0.000000e+00 0.000000e+00 0.000000e+00 8.447344e-01 1.552656e-01
 0.000000e+00 0.000000e+00 0.000000e+00 0.000000e+00 0.000000e+00
~t "T_y"
<TRANSP> 5
 0.000000e+00 1.000000e+00 0.000000e+00 0.000000e+00 0.000000e+00
 0.000000e+00 8.625532e-01 1.374468e-01 0.000000e+00 0.000000e+00
 0.000000e+00 0.000000e+00 7.185686e-01 2.814314e-01 0.000000e+00
 0.000000e+00 0.000000e+00 0.000000e+00 7.753032e-01 2.246968e-01
 0.000000e+00 0.000000e+00 0.000000e+00 0.000000e+00 0.000000e+00
~t "T_ng"
<TRANSP> 5
 0.000000e+00 1.000000e+00 0.000000e+00 0.000000e+00 0.000000e+00
 0.000000e+00 8.581470e-01 1.418530e-01 0.000000e+00 0.000000e+00
 0.000000e+00 0.000000e+00 9.199629e-01 8.003706e-02 0.000000e+00
 0.000000e+00 0.000000e+00 0.000000e+00 9.597567e-01 4.024325e-02
 0.000000e+00 0.000000e+00 0.000000e+00 0.000000e+00 0.000000e+00
~s "ST_s_2_1"
<MEAN> 39
 -8.732512e+00 -1.194135e+00 -6.846645e+00 -4.988275e+00 -6.015460e+00 -5.850254e+00 -4.331725e+00 -9.476832e-01 -1.409852e+00 6.299436e-02 -5.294356e+00 -1.670562e+00 5.353768e+01 -1.035123e+00 -2.768195e-02 2.036286e-01 -2.585810e-01 2.060104e-01 -6.237655e-01 9.501083e-02 4.308830e-01 -2.850545e-01 2.021795e-01 -1.116631e-01 3.583912e-01 1.132960e+00 -1.077160e-01 -3.881884e-02 1.026534e-01 5.941043e-02 1.303414e-01 -3.565300e-02 -9.484563e-02 1.215912e-01 9.093394e-02 -1.508351e-02 -5.144310e-02 -1.568108e-02 1.851176e-01
<VARIANCE> 39
 3.753817e+01 1.786162e+01 2.503721e+01 4.182295e+01 2.875877e+01 3.035836e+01 3.026253e+01 3.729390e+01 3.611212e+01 2.987453e+01 1.912511e+01 2.110381e+01 3.286938e+01 3.338824e+00 2.293200e+00 1.594042e+00 3.466146e+00 3.852796e+00 3.204503e+00 2.370975e+00 2.985327e+00 4.058608e+00 2.466534e+00 1.883356e+00 2.499566e+00 2.619398e+00 6.650244e-01 3.994986e-01 3.096073e-01 7.257907e-01 6.987532e-01 5.276024e-01 4.601163e-01 4.797328e-01 6.751103e-01 5.707362e-01 3.971443e-01 4.470780e-01 5.276677e-01
<GCONST> 1.197989e+02
~s "ST_s_3_1"
<MEAN> 39
 -1.277945e+01 -3.918354e+00 -3.123664e+00 -4.671564e+00 -4.916513e+00 -9.972426e+00 -3.937829e+00 3.812876e+00 -4.838416e-02 -1.167672e-01 -6.585013e+00 7.965412e-01 6.005569e+01 4.389169e-01 -2.355631e-01 1.642840e-01 4.213886e-01 3.134574e-01 1.842045e-01 -3.745227e-01 4.648521e-01 1.461414e-01 8.245544e-02 -4.685453e-02 1.144974e-01 -7.239212e-02 3.104820e-01 7.104380e-02 -6.344891e-02 -3.878480e-02 -7.041052e-02 2.466821e-01 -1.495375e-01 -2.066326e-01 -5.442929e-02 5.036060e-03 8.433866e-02 -1.291064e-01 -1.495952e-01
<VARIANCE> 39
 4.314455e+01 4.403223e+01 3.710922e+01 2.542286e+01 3.589801e+01 3.568404e+01 4.014077e+01 4.480898e+01 4.424005e+01 3.109780e+01 2.698155e+01 1.754305e+01 2.464380e+01 3.328494e+00 1.449575e+00 1.367260e+00 1.560163e+00 1.595058e+00 3.284824e+00 3.569329e+00 2.317470e+00 2.569389e+00 2.417827e+00 1.975788e+00 1.135865e+00 1.872231e+00 4.996317e-01 3.183357e-01 3.206824e-01 3.136944e-01 4.501464e-01 8.179172e-01 5.965002e-01 6.015179e-01 5.447549e-01 4.946862e-01 4.035055e-01 2.932446e-01 3.942176e-01
<GCONST> 1.161442e+02
~s "ST_s_4_1"
<MEAN> 39
 -6.370234e+00 -2.074814e+00 -5.518438e+00 -1.949705e+00 -2.747097e+00 -4.594339e+00 -3.991514e+00 1.575237e+00 -5.673390e-01 7.787499e-01 -3.972930e+00 -1.201829e+00 5.295818e+01 2.182645e-01 1.865614e-01 -2.063539e-02 -1.614703e-01 7.868152e-02 3.676292e-01 -1.586888e-01 -1.457929e-01 -1.595427e-01 2.910909e-02 6.715161e-02 -1.410426e-01 4.235358e-02 -5.289233e-02 -1.498777e-02 5.473218e-02 -1.029792e-01 1.542100e-02 -7.196786e-02 -2.418543e-02 7.385179e-02 -4.924479e-02 -1.418147e-02 -1.884852e-03 3.148785e-02 1.333358e-01
<VARIANCE> 39
 1.649877e+01 1.489609e+01 1.628043e+01 1.795848e+01 1.692219e+01 2.198491e+01 4.209933e+01 2.946489e+01 2.911907e+01 1.974746e+01 2.536001e+01 1.988143e+01 2.609717e+01 1.070049e+00 9.732690e-01 1.137897e+00 1.171482e+00 1.540186e+00 2.167076e+00 2.263265e+00 2.679991e+00 2.089397e+00 1.885703e+00 1.998707e+00 1.686485e+00 1.058007e+00 2.213191e-01 1.612403e-01 1.797770e-01 2.248948e-01 2.385683e-01 3.312711e-01 4.889291e-01 3.866492e-01 3.976577e-01 4.050246e-01 3.589282e-01 3.157921e-01 1.817398e-01
<GCONST> 1.012664e+02
~s "ST_i_2_1"
<MEAN> 39
 -3.288420e+00 8.228039e-01 -3.834287e+00 -3.470975e-01 -2.408311e+00 -2.508924e+00 -3.552550e+00 -7.774430e-02 -2.336815e+00 -2.356308e+00 -4.501513e+00 -1.272696e+00 5.353688e+01 -5.865173e-01 -2.720233e-01 -4.266794e-01 -5.056298e-01 3.373926e-05 -1.499490e-01 -3.389813e-02 1.958104e-01 1.082888e-02 1.728659e-02 5.867117e-02 2.711921e-01 -2.981220e-01 -7.685165e-03 6.092926e-03 2.951446e-02 -1.609893e-01 -2.019612e-02 -2.002428e-01 -2.006427e-01 -3.377812e-02 -8.487313e-02 7.244176e-02 -8.401822e-02 -3.419849e-02 2.418925e-01
<VARIANCE> 39
 1.405296e+01 2.097778e+01 2.632917e+01 3.549350e+01 2.136104e+01 2.056274e+01 1.713811e+01 4.194121e+01 3.114377e+01 3.869231e+01 2.415894e+01 2.908252e+01 1.543701e+01 6.551839e-01 1.036849e+00 1.417902e+00 1.405136e+00 1.574593e+00 1.477672e+00 1.704135e+00 2.345541e+00 1.906372e+00 2.514213e+00 1.706884e+00 1.935994e+00 4.495874e-01 1.648573e-01 1.593686e-01 2.125527e-01 3.553880e-01 3.368313e-01 3.040832e-01 3.428560e-01 5.169019e-01 4.675546e-01 4.162464e-01 3.335339e-01 4.215031e-01 1.319193e-01
<GCONST> 1.018922e+02
~s "ST_i_3_1"
<MEAN> 39
 -5.102923e+00 9.242206e-01 -5.159375e+00 -1.697611e+00 -2.681336e+00 -3.161643e+00 -3.393684e+00 -1.464578e+00 -2.583766e+00 -3.888456e-01 -4.088409e+00 -1.790697e+00 5.269775e+01 -5.610656e-01 -2.504010e-01 -3.292257e-01 -3.656068e-01 1.315136e-01 -5.556637e-01 -2.495965e-01 3.436007e-01 -9.138649e-02 2.434878e-01 -1.351666e-01 -5.151651e-03 1.092297e-01 1.324686e-01 -1.135691e-02 8.951136e-02 -5.312577e-02 1.188482e-01 2.743726e-02 -1.588924e-01 1.480619e-01 -6.258878e-02 5.273109e-02 2.640801e-02 6.135565e-02 3.932387e-01
<VARIANCE> 39
 1.378703e+01 1.220562e+01 1.572968e+01 2.675221e+01 1.637836e+01 1.935637e+01 2.092167e+01 3.457381e+01 2.569630e+01 3.206144e+01 1.961250e+01 1.566903e+01 1.233545e+01 8.700787e-01 7.606118e-01 1.395846e+00 1.609660e+00 1.921587e+00 1.324865e+00 1.796672e+00 2.954049e+00 2.568993e+00 1.977380e+00 1.575958e+00 1.834781e+00 7.721081e-01 2.894934e-01 2.220261e-01 2.458663e-01 3.460288e-01 3.540092e-01 3.473415e-01 4.816805e-01 5.506656e-01 4.871554e-01 3.837036e-01 3.575382e-01 3.227964e-01 2.706372e-01
<GCONST> 1.017959e+02
~s "ST_i_4_1"
<MEAN> 39
 -3.971631e+00 4.811591e-01 -3.464696e+00 7.049317e-02 -2.197370e+00 -2.854202e+00 -3.703429e+00 -4.294491e-01 -1.545901e+00 -2.330869e-01 -3.784065e+00 -2.404360e+00 5.281301e+01 -1.878023e-01 -1.368062e-01 -2.034391e-01 -9.627669e-02 1.650699e-01 6.528100e-03 2.222665e-01 3.997703e-01 3.914342e-01 1.090363e-01 1.723341e-01 7.658555e-03 -3.077294e-01 8.743404e-02 9.436322e-02 1.692005e-01 1.234291e-01 5.471799e-02 1.101515e-01 1.090897e-01 -1.225945e-01 -1.203277e-02 4.141128e-02 6.714444e-02 2.308878e-02 3.421411e-02
<VARIANCE> 39
 1.042170e+01 2.105209e+01 1.723478e+01 1.268572e+01 1.313706e+01 1.895481e+01 2.153167e+01 2.686181e+01 2.206206e+01 2.386177e+01 1.663906e+01 1.018980e+01 8.486572e+00 8.580760e-01 1.761672e+00 1.740555e+00 1.470637e+00 1.689014e+00 1.450443e+00 2.085819e+00 2.259515e+00 2.567951e+00 2.288800e+00 1.369829e+00 1.254284e+00 2.810588e-01 1.454917e-01 2.705618e-01 3.160337e-01 1.999277e-01 1.675374e-01 2.668073e-01 2.880221e-01 3.923637e-01 4.871298e-01 4.354193e-01 2.441164e-01 2.670557e-01 4.725024e-02
<GCONST> 9.409558e+01
~s "ST_l_2_1"
<MEAN> 39
 -7.492801e+00 -1.765912e+00 -7.031733e+00 -5.123942e+00 -5.406285e+00 -6.911170e+00 -5.590160e+00 1.111120e+00 -2.314551e+00 -2.516047e-01 -5.102323e+00 -8.449283e-01 5.217360e+01 -6.442287e-02 -1.313440e-01 1.917344e-02 2.935790e-01 2.047039e-01 -6.094505e-02 -5.814177e-03 3.547505e-01 1.042991e-01 -1.021559e-01 1.851017e-02 2.108811e-01 1.344617e-01 6.299367e-02 1.995698e-02 3.884447e-02 -3.702245e-02 -2.488610e-02 6.567213e-02 6.958079e-02 -5.798507e-02 5.828593e-02 1.768553e-02 2.207123e-02 1.755121e-02 -2.374886e-02
<VARIANCE> 39
 3.096469e+01 2.973522e+01 1.920930e+01 2.069544e+01 3.035917e+01 2.789304e+01 1.696394e+01 3.568191e+01 2.740770e+01 2.413488e+01 2.679099e+01 1.953081e+01 2.537817e+01 1.775785e+00 1.565202e+00 1.320997e+00 1.242912e+00 2.571586e+00 2.169439e+00 2.026821e+00 3.238757e+00 2.134263e+00 2.509135e+00 1.901056e+00 1.623257e+00 1.000705e+00 3.670828e-01 3.447537e-01 2.620761e-01 2.465570e-01 5.212892e-01 4.340356e-01 4.373771e-01 7.525070e-01 3.947971e-01 4.864235e-01 3.223307e-01 3.493984e-01 2.165566e-01
<GCONST> 1.087803e+02
~s "ST_l_3_1"
<MEAN> 39
 -6.575757e+00 -4.186570e+00 -3.887530e+00 -3.324690e+00 -6.124721e+00 -7.450585e+00 -4.433907e+00 4.115911e-01 -1.928729e+00 -1.275651e+00 -3.753103e+00 9.091895e-01 5.438493e+01 1.244845e-01 1.684134e-01 8.018427e-02 1.211614e-01 9.800507e-02 2.540412e-01 1.984118e-01 -2.729606e-02 1.213151e-01 1.251144e-01 7.995574e-02 -2.412025e-03 -2.297072e-01 2.879072e-02 4.902222e-02 1.027103e-02 -1.120406e-02 7.063453e-03 2.818372e-02 7.686408e-03 -2.076826e-03 -2.461353e-02 -2.915310e-02 -5.126412e-03 -3.136558e-02 -2.427455e-02
<VARIANCE> 39
 1.700089e+01 1.350596e+01 2.432399e+01 1.473864e+01 3.882798e+01 4.257784e+01 3.147564e+01 3.542133e+01 2.611430e+01 2.065772e+01 2.975676e+01 2.656215e+01 1.801294e+01 6.652081e-01 7.913766e-01 8.733109e-01 1.061236e+00 1.297462e+00 2.250415e+00 2.040590e+00 2.036442e+00 1.679715e+00 1.966695e+00 1.762094e+00 1.852888e+00 6.364512e-01 1.190114e-01 1.415154e-01 1.495663e-01 2.043070e-01 2.249682e-01 4.379888e-01 4.033450e-01 3.658498e-01 3.465219e-01 3.991925e-01 3.538967e-01 3.616845e-01 9.335957e-02
<GCONST> 9.877340e+01
~s "ST_l_4_1"
<MEAN> 39
 -4.726393e+00 -3.133042e-01 -5.872054e+00 -1.756760e+00 -3.433057e+00 -3.966937e+00 -2.949924e+00 1.653908e+00 -4.394008e-01 -8.090622e-01 -3.017606e+00 -1.210120e-01 4.900089e+01 8.607555e-03 3.380683e-02 1.705390e-03 -1.393930e-02 3.190218e-02 1.939498e-02 3.319534e-02 -5.583604e-03 -2.054462e-02 1.132564e-02 3.864501e-02 1.897109e-02 -4.581808e-02 -2.669176e-02 -3.682250e-02 -1.387044e-02 -2.840864e-02 1.203352e-03 -3.715080e-02 -5.897069e-02 1.503311e-02 -2.137916e-02 -5.817701e-03 -9.635666e-03 3.922172e-03 3.197319e-02
<VARIANCE> 39
 5.489456e+00 5.471519e+00 7.349232e+00 9.263371e+00 1.249992e+01 1.606293e+01 1.477015e+01 1.840126e+01 1.929367e+01 1.930422e+01 1.470461e+01 1.445142e+01 5.058105e+00 1.912694e-01 3.761634e-01 5.159292e-01 6.385763e-01 9.168386e-01 1.116729e+00 1.119742e+00 1.344386e+00 1.414838e+00 1.465483e+00 1.234083e+00 1.095591e+00 1.481500e-01 3.618653e-02 7.579426e-02 9.743979e-02 1.205900e-01 1.951498e-01 2.203035e-01 2.241582e-01 2.751654e-01 2.946622e-01 3.204769e-01 2.577499e-01 2.285622e-01 2.410145e-02
<GCONST> 7.372710e+01
~s "ST_y_2_1"
<MEAN> 39
 -5.308817e+00 3.871505e+00 1.538537e+00 -7.783567e+00 -7.155617e+00 -5.825233e+00 -1.292190e+01 -3.344967e+00 -6.075370e+00 1.133597e+00 -2.619914e+00 -6.924998e-01 6.505704e+01 9.702273e-02 1.481956e-02 1.764330e+00 -5.598229e-02 -1.452192e+00 -5.652939e-02 -2.955234e-01 -3.467544e-01 -7.862656e-01 3.716560e-02 1.204606e-01 1.421678e-02 9.527273e-01 1.259675e-01 -8.873613e-03 2.394930e-02 -1.104407e-01 -1.923351e-01 1.041615e-01 -1.693622e-01 -4.130796e-03 4.626295e-02 -5.810075e-02 -1.111564e-01 -8.928418e-02 -4.141060e-02
<VARIANCE> 39
 9.373405e+01 2.919392e+01 8.136803e+01 4.173768e+01 6.095851e+01 2.978164e+01 6.739429e+01 5.361002e+01 3.117982e+01 3.838572e+01 1.392224e+01 1.492007e+01 4.877295e+01 9.060407e+00 2.578081e+00 9.612080e+00 4.135731e+00 8.487131e+00 3.320318e+00 5.661751e+00 2.855249e+00 4.974960e+00 4.329864e+00 1.980578e+00 1.931774e+00 4.416853e+00 1.333886e+00 4.691903e-01 1.370590e+00 8.320688e-01 1.171222e+00 5.044662e-01 9.641462e-01 4.887384e-01 7.784483e-01 6.546777e-01 3.829328e-01 4.987586e-01 6.649885e-01
<GCONST> 1.342281e+02
~s "ST_y_3_1"
<MEAN> 39
 -1.708650e+00 4.186458e+00 1.474651e+01 -9.807085e+00 -2.051209e+01 -4.131716e+00 -1.442324e+01 -2.542792e+00 -1.150714e+01 1.549971e+00 -3.718755e+00 -2.435252e+00 7.128451e+01 1.078094e-01 3.465432e-01 3.942179e-01 -8.468131e-01 -3.107699e-01 1.275230e+00 -4.602140e-01 -1.313022e-01 -5.539843e-01 9.370998e-01 -5.780300e-01 -3.882222e-01 -6.543286e-02 -3.217551e-01 1.702128e-01 -6.556299e-01 1.715815e-01 9.048009e-01 -1.028138e-01 4.529993e-01 6.370229e-02 3.220108e-01 -2.902915e-02 -9.766654e-02 1.109068e-01 -3.845643e-01
<VARIANCE> 39
 1.304849e+01 1.896173e+01 5.772459e+01 6.453861e+01 4.913120e+01 4.536037e+01 4.559991e+01 6.248299e+01 3.191405e+01 5.961711e+01 4.623842e+01 1.696469e+01 1.375146e+01 6.532591e-01 8.542675e-01 1.910582e+00 1.310097e+00 3.238189e+00 1.667349e+00 2.848224e+00 1.463961e+00 1.905110e+00 2.502433e+00 2.212751e+00 1.476485e+00 5.240111e-01 2.822193e-01 1.733419e-01 5.312847e-01 2.528145e-01 7.527977e-01 3.310614e-01 6.290478e-01 3.768714e-01 3.662964e-01 5.802721e-01 3.894642e-01 2.250314e-01 9.729199e-02
<GCONST> 1.092930e+02
~s "ST_y_4_1"
<MEAN> 39
 -9.162912e-01 5.819639e+00 1.766754e+01 -8.619523e+00 -2.130643e+01 -2.467927e-01 -1.427582e+01 -7.262098e+00 -3.852489e+00 -4.897203e-01 -3.382393e+00 -2.986370e+00 6.818164e+01 5.536818e-02 4.141185e-01 -5.227266e-01 5.612946e-02 6.649072e-01 1.022208e-01 1.162311e-01 -1.340945e-01 3.075658e-01 6.965327e-02 -2.822731e-01 1.498913e-02 -3.499291e-01 1.908606e-02 1.078268e-02 -7.474232e-02 1.238293e-01 1.144990e-01 -1.199459e-01 5.457529e-02 8.401524e-02 7.231800e-03 -3.350224e-02 1.219864e-02 6.966376e-02 -6.388146e-02
<VARIANCE> 39
 1.084403e+01 2.140202e+01 6.762881e+01 2.144268e+01 5.873904e+01 2.162362e+01 1.853465e+01 4.383327e+01 8.246564e+01 3.720260e+01 2.466047e+01 8.291588e+00 1.252393e+01 3.143238e-01 5.453502e-01 8.803332e-01 7.023017e-01 1.725785e+00 1.019563e+00 5.789679e-01 1.179048e+00 2.954785e+00 1.124671e+00 1.057931e+00 9.278074e-01 3.750303e-01 3.227152e-02 9.031075e-02 1.415180e-01 1.189151e-01 2.438020e-01 2.481412e-01 1.629885e-01 3.049224e-01 6.797225e-01 2.266982e-01 2.110713e-01 1.606602e-01 5.522907e-02
<GCONST> 8.838762e+01
~s "ST_b_2_1"
<MEAN> 39
 1.872464e+00 4.488640e+00 1.255219e+01 -4.623890e+00 -1.696021e+01 -4.424864e-01 -9.847500e+00 -7.584997e+00 -4.132015e+00 5.119871e+00 -6.437487e+00 -3.027767e+00 6.385642e+01 -7.854208e-02 4.704330e-01 -6.920620e-01 4.299625e-01 1.217372e+00 1.129795e-01 3.294662e-01 5.855391e-02 -1.942806e-01 -3.119375e-01 -1.811706e-01 -2.147993e-01 -7.413151e-01 -1.611167e-02 4.829480e-02 -1.553245e-01 9.176553e-02 1.704423e-01 1.127883e-02 2.646679e-03 3.777835e-02 7.331695e-02 -1.475552e-01 3.493764e-02 6.193453e-02 -1.184114e-01
<VARIANCE> 39
 6.232179e+00 1.402765e+01 1.018179e+02 2.994504e+01 1.143098e+02 2.738308e+01 1.933099e+01 6.859071e+01 4.093893e+01 1.339816e+01 2.899337e+01 2.772462e+01 1.662402e+01 3.807822e-01 7.349439e-01 1.939565e+00 1.303789e+00 1.757833e+00 1.944272e+00 8.027102e-01 1.473318e+00 2.649255e+00 1.193419e+00 8.160408e-01 1.263728e+00 5.512756e-01 6.331307e-02 1.432237e-01 3.497227e-01 2.743422e-01 2.332586e-01 4.471174e-01 1.279473e-01 2.667229e-01 6.690368e-01 2.587996e-01 1.668056e-01 3.429123e-01 8.654594e-02
<GCONST> 9.710684e+01
~s "ST_b_3_1"
<MEAN> 39
 3.653847e+00 7.818130e+00 2.598677e+00 1.133067e+00 -7.154518e+00 -5.451752e+00 -1.154258e+01 -9.793653e+00 -7.349704e+00 -1.315691e+00 -8.022107e+00 -1.160236e+00 5.821202e+01 -5.933908e-01 1.471338e-01 -3.543308e-02 6.586701e-01 1.005353e+00 3.630246e-01 4.433162e-01 2.125152e-01 -3.168445e-02 -1.093052e+00 1.739827e-01 8.484377e-02 -8.511682e-01 -1.350183e-01 -2.909957e-01 -1.426576e-01 -1.102242e-01 -8.255781e-02 1.540498e-01 2.341596e-01 2.423330e-01 -2.806351e-02 8.924155e-02 -1.500690e-02 -4.688523e-02 3.219003e-02
<VARIANCE> 39
 7.718239e+00 1.172610e+01 1.801177e+01 8.668839e+00 4.319883e+01 2.322938e+01 4.782504e+01 6.345658e+01 3.863064e+01 2.754777e+01 1.863569e+01 1.986824e+01 6.489502e+00 1.712590e-01 6.827854e-01 8.520717e-01 9.987465e-01 1.184776e+00 1.568709e+00 1.874815e+00 1.274353e+00 8.312594e-01 1.361971e+00 7.532637e-01 2.241422e+00 2.613978e-01 4.405267e-02 7.409107e-02 1.718684e-01 1.131295e-01 2.255065e-01 2.053520e-01 3.303276e-01 2.692877e-01 1.564654e-01 2.530702e-01 1.495092e-01 2.029906e-01 3.075452e-02
<GCONST> 8.404341e+01
~s "ST_b_4_1"
<MEAN> 39
 -6.516120e-01 4.058353e+00 1.148628e+00 3.485049e+00 -1.401551e+00 -2.884853e-01 -2.098957e+00 -2.383060e-01 -3.621887e+00 -2.748324e+00 -6.765560e+00 -3.789559e+00 5.461375e+01 -6.428891e-01 -6.507775e-01 -6.930326e-01 5.685426e-03 3.512934e-01 2.163907e-01 7.471727e-01 1.031692e+00 2.362755e-02 -4.661090e-01 2.694497e-01 2.302217e-02 -5.580125e-01 -1.615155e-02 -8.746061e-02 -2.085944e-02 -2.509602e-01 -2.920732e-01 -1.841608e-01 -3.447943e-01 -1.947325e-01 -9.356220e-02 6.593412e-02 1.196984e-01 8.995603e-02 1.114334e-01
<VARIANCE> 39
 6.389202e+00 1.239265e+01 1.350723e+01 1.107489e+01 1.975981e+01 1.008187e+01 3.021573e+01 5.044989e+01 2.649846e+01 4.103277e+01 1.296622e+01 2.616687e+01 3.556885e+00 4.392101e-01 6.980226e-01 1.226693e+00 7.492591e-01 1.630688e+00 1.639251e+00 3.010347e+00 2.613885e+00 2.024655e+00 1.968249e+00 1.101972e+00 2.280942e+00 2.214296e-01 2.635193e-02 9.632330e-02 2.109747e-01 1.835219e-01 2.090448e-01 3.069778e-01 4.484002e-01 5.323478e-01 3.400436e-01 2.784125e-01 1.879081e-01 7.107345e-01 3.503201e-02
<GCONST> 8.921535e+01
~s "ST_r_2_1"
<MEAN> 39
 6.373629e+00 4.752156e+00 -3.263219e+00 -1.479134e+01 -1.143602e+01 1.676059e+00 -1.734897e+01 -3.978348e+00 -6.335423e+00 -2.895299e+00 -2.112127e+00 3.018931e+00 6.804789e+01 -6.500331e-02 -3.690520e-01 -5.325899e-01 -3.235171e-01 4.678367e-01 9.415927e-02 -1.352885e-01 4.476047e-01 4.139908e-01 4.372244e-01 -2.495566e-01 -2.760427e-01 2.945270e-01 -9.595520e-02 -1.594565e-01 -4.791266e-02 7.963481e-02 2.059812e-01 -2.883521e-02 -9.289225e-03 -1.464909e-02 2.063573e-01 2.124525e-01 -7.068262e-02 -2.302489e-01 5.000250e-02
<VARIANCE> 39
 2.075658e+01 4.081929e+01 4.771442e+01 1.191529e+02 3.718416e+01 8.801512e+01 4.628561e+01 9.306607e+01 4.576977e+01 3.427394e+01 4.351624e+01 3.550765e+01 3.912012e+01 3.258552e-01 1.268876e+00 1.023596e+00 1.804234e+00 1.347518e+00 1.340892e+00 1.796078e+00 2.146820e+00 1.635775e+00 2.577053e+00 1.791265e+00 1.225958e+00 5.767760e-01 4.758897e-02 1.683701e-01 1.837507e-01 2.293776e-01 1.723070e-01 2.336139e-01 3.325253e-01 3.045634e-01 3.120642e-01 2.752847e-01 2.633950e-01 2.151845e-01 6.924550e-02
<GCONST> 1.037498e+02
~s "ST_r_3_1"
<MEAN> 39
 3.518084e+00 -2.717698e+00 -7.075856e+00 -1.411318e+01 -5.452600e+00 -1.580786e+00 -1.645788e+01 6.176413e+00 -1.975935e+00 5.269011e+00 -8.760595e+00 -2.354322e+00 7.399657e+01 -3.369750e-01 -8.961409e-01 -7.528282e-01 -2.614627e-01 9.179449e-01 1.535576e-01 6.783265e-02 8.706633e-01 9.639543e-01 9.000682e-02 -1.590451e+00 -1.182811e+00 5.752059e-01 -8.930334e-04 1.250453e-01 1.198272e-01 1.187162e-01 -1.371035e-01 -8.988527e-02 1.951774e-01 -9.854561e-02 -1.053096e-01 -3.345464e-01 1.342330e-01 7.892936e-02 -1.314830e-01
<VARIANCE> 39
 1.293088e+01 3.200416e+01 3.226501e+01 9.154001e+01 3.080105e+01 7.558278e+01 5.740384e+01 1.383107e+02 5.605844e+01 4.807595e+01 7.704218e+01 2.869859e+01 5.812646e+01 3.053670e-01 9.793075e-01 1.135573e+00 2.013945e+00 1.724682e+00 2.414357e+00 2.180625e+00 1.954958e+00 1.960438e+00 1.970863e+00 1.814583e+00 1.923463e+00 5.092834e-01 4.871071e-02 1.126529e-01 1.078444e-01 1.818277e-01 1.589965e-01 3.345069e-01 3.212508e-01 2.862616e-01 2.959274e-01 2.420232e-01 3.963899e-01 3.312428e-01 5.765413e-02
<GCONST> 1.045349e+02
~s "ST_r_4_1"
<MEAN> 39
 4.589607e+00 -8.292081e+00 -1.119545e+01 -1.213135e+01 -5.463472e+00 8.635331e-01 -1.801823e+01 1.035308e+01 2.020658e+00 3.396298e+00 -1.071951e+01 -8.373493e+00 7.714068e+01 -9.824894e-03 3.064545e-02 -2.697091e-02 -9.256027e-03 -6.998267e-04 -6.722315e-02 8.032528e-02 -3.420655e-02 1.506902e-01 -7.827870e-02 -1.262201e-01 -2.548872e-02 -1.085202e-01 1.199208e-02 7.920035e-02 8.633535e-02 4.338798e-02 -5.287776e-02 -6.501830e-02 -2.665438e-02 -5.760762e-02 -2.438668e-02 3.972455e-02 1.054772e-01 1.001576e-01 -7.537629e-02
<VARIANCE> 39
 7.718977e+00 1.505493e+01 3.174810e+01 4.488823e+01 3.413715e+01 3.516246e+01 3.528906e+01 5.291319e+01 8.367889e+01 2.077063e+01 4.949728e+01 3.443187e+01 2.518604e+01 2.761704e-01 4.425076e-01 6.052438e-01 7.889164e-01 7.717777e-01 8.316917e-01 1.258353e+00 1.169176e+00 7.240573e-01 6.217564e-01 1.097880e+00 1.131212e+00 4.158063e-01 3.869541e-02 6.678186e-02 9.642030e-02 1.153542e-01 1.332920e-01 1.361547e-01 1.897289e-01 2.192658e-01 1.382408e-01 1.065287e-01 1.955083e-01 1.472580e-01 8.237191e-02
<GCONST> 8.417919e+01
~s "ST_h_2_1"
<MEAN> 39
 -1.814610e+01 3.404575e+00 -5.568514e+00 -8.009379e+00 1.439111e+00 -5.082079e+00 -8.986557e+00 7.376544e+00 -5.744408e+00 -3.077134e-01 -3.226680e+00 1.051686e+00 6.033703e+01 -4.508386e-01 -1.491353e-01 1.133653e-01 -5.026914e-01 -2.613074e-01 2.183392e-01 -9.417418e-01 2.704953e-02 -1.156676e-01 -2.527306e-01 -2.090804e-01 2.019275e-01 1.688756e+00 5.723392e-01 -2.809432e-01 -1.066951e-02 1.092530e-01 -2.053013e-01 4.541395e-03 -1.639227e-01 -2.102468e-01 1.546017e-01 -1.406278e-02 -5.709809e-02 -7.317993e-02 -3.324298e-02
<VARIANCE> 39
 6.612012e+01 1.975252e+01 5.838172e+01 3.546385e+01 3.478452e+01 3.501602e+01 4.767180e+01 5.009952e+01 2.320168e+01 3.514157e+01 2.431058e+01 3.150257e+01 2.641187e+01 4.317147e+00 3.035401e+00 2.243596e+00 2.517709e+00 4.399010e+00 4.224098e+00 4.279140e+00 3.099979e+00 2.799387e+00 2.531062e+00 2.090246e+00 2.540822e+00 2.474419e+00 4.104228e-01 3.335736e-01 3.360242e-01 4.524690e-01 5.342947e-01 5.799215e-01 7.610899e-01 5.494983e-01 4.569150e-01 5.655489e-01 3.845076e-01 4.659068e-01 3.612630e-01
<GCONST> 1.223283e+02
~s "ST_h_3_1"
<MEAN> 39
 -1.322427e+00 -2.293159e+00 -5.921867e+00 -9.544585e+00 -3.602486e+00 -2.482358e+00 -1.770733e+01 4.279134e-02 -4.827394e+00 -1.883200e-01 -5.699566e+00 2.119938e-02 6.677206e+01 3.302292e+00 -9.859501e-02 -1.465823e-01 -1.696702e+00 -5.218102e-01 1.059180e+00 -1.972504e+00 -8.449478e-01 -9.212041e-01 -9.717293e-03 -2.386514e-01 -3.417093e-01 2.103005e+00 -3.274336e-01 3.146776e-01 -6.444541e-02 -1.713022e-01 -1.345069e-01 1.241764e-01 4.852002e-01 2.195367e-01 -1.424316e-01 -9.594858e-02 2.211845e-01 9.825553e-02 -3.001525e-01
<VARIANCE> 39
 8.818067e+01 5.435419e+01 3.547922e+01 5.021716e+01 4.818479e+01 1.155693e+02 8.970917e+01 7.421326e+01 5.426575e+01 6.992868e+01 4.410008e+01 2.819724e+01 3.485547e+01 6.219431e+00 3.975585e+00 2.850393e+00 7.177479e+00 3.549852e+00 7.021424e+00 8.843398e+00 6.270620e+00 5.751300e+00 5.400388e+00 3.702674e+00 3.073764e+00 7.577322e+00 1.206423e+00 7.320033e-01 4.615646e-01 1.235190e+00 6.424896e-01 1.132114e+00 1.674149e+00 1.003332e+00 9.856916e-01 8.903000e-01 6.175861e-01 5.744663e-01 7.484776e-01
<GCONST> 1.433923e+02
~s "ST_h_4_1"
<MEAN> 39
 6.499053e+00 -5.688375e+00 -1.009510e+01 -2.005257e+01 -6.374697e+00 -6.465274e-01 -1.672594e+01 2.843615e+00 -5.198282e+00 -3.943604e+00 -6.393556e+00 -3.777387e-01 7.395639e+01 -1.237758e-01 -4.280242e-01 -3.103676e-01 -1.426558e-01 1.457832e-01 -1.026995e-01 1.784343e-01 4.955092e-01 2.730387e-01 2.578343e-04 -3.456522e-01 -3.456391e-01 3.982087e-01 -6.721363e-02 -1.000244e-02 3.610669e-02 1.365087e-01 3.211720e-02 -8.592107e-02 1.562435e-02 -3.303204e-03 9.410722e-02 4.100438e-02 1.909875e-02 2.539428e-03 -9.724174e-02
<VARIANCE> 39
 1.160859e+01 9.359789e+01 2.437343e+01 3.753369e+01 3.583396e+01 1.436143e+02 4.658630e+01 6.899922e+01 5.036674e+01 1.147320e+02 5.184187e+01 5.372136e+01 2.949951e+01 3.815418e-01 1.513910e+00 6.773891e-01 2.043261e+00 1.534371e+00 1.720217e+00 2.197986e+00 1.416214e+00 1.965264e+00 2.256608e+00 1.632200e+00 1.756519e+00 9.460022e-01 6.503480e-02 1.980153e-01 8.834682e-02 2.878879e-01 2.197164e-01 2.468272e-01 4.353158e-01 2.360123e-01 3.255361e-01 3.378038e-01 2.857518e-01 2.856522e-01 2.192125e-01
<GCONST> 1.070111e+02
~s "ST_u_2_1"
<MEAN> 39
 7.285763e-01 -4.548156e+00 -5.666533e+00 -9.909596e+00 -9.400722e+00 -7.677240e+00 -1.058103e+01 3.271204e+00 2.614447e+00 -4.997401e+00 -8.802773e+00 -1.665174e+00 7.111384e+01 5.209842e-02 -2.105561e-01 -7.160742e-01 -2.418489e-01 2.092406e-01 2.138920e-01 2.044395e-03 1.551363e-01 7.225632e-01 8.145441e-02 -3.557372e-01 -2.382298e-02 -2.773442e-01 -1.039685e-01 -3.451948e-02 1.283517e-01 -8.136606e-02 4.962249e-02 -5.341629e-02 -8.071595e-02 9.102352e-03 -2.839862e-01 1.653886e-01 9.798128e-02 2.353026e-02 1.644892e-01
<VARIANCE> 39
 1.396005e+01 6.032524e+01 4.487706e+01 4.192181e+01 3.210997e+01 4.824626e+01 4.925911e+01 5.588745e+01 9.827510e+01 5.422734e+01 2.842358e+01 3.106098e+01 1.200176e+02 1.666720e+00 2.932405e+00 2.160060e+00 2.496716e+00 2.488181e+00 3.061815e+00 3.679797e+00 2.822759e+00 4.048685e+00 2.084073e+00 2.202155e+00 2.650095e+00 5.514490e+00 3.042792e-01 3.754409e-01 2.291647e-01 3.497255e-01 3.416117e-01 4.824551e-01 5.005752e-01 4.380980e-01 4.452279e-01 2.780590e-01 3.126607e-01 3.838921e-01 6.834901e-01
<GCONST> 1.220143e+02
~s "ST_u_3_1"
<MEAN> 39
 2.088458e+00 -3.987732e+00 -5.844490e+00 -1.385715e+01 -3.517414e+00 -4.286072e+00 -1.456914e+01 4.792929e+00 -3.178223e+00 1.251551e+00 -7.346130e+00 -4.900955e+00 7.121063e+01 1.816088e-01 7.421810e-01 5.442958e-01 3.890866e-01 5.374027e-02 -3.983611e-01 -3.184029e-01 -4.331834e-01 -3.624004e-01 2.932579e-01 3.231307e-01 -4.213791e-02 -2.560231e-01 -1.338351e-01 2.370188e-01 -1.507497e-02 3.381209e-01 -2.077240e-01 2.979981e-02 2.412060e-01 -2.047809e-01 9.774742e-02 -1.247962e-01 9.836263e-03 8.204414e-02 -3.823880e-01
<VARIANCE> 39
 5.004142e+01 3.253587e+01 4.650105e+01 6.838737e+01 3.849756e+01 1.302524e+02 7.016092e+01 9.913102e+01 8.460227e+01 6.951991e+01 6.843021e+01 4.788650e+01 5.323828e+01 2.932033e+00 2.517433e+00 2.685818e+00 4.546206e+00 3.625702e+00 3.634968e+00 4.421965e+00 5.420399e+00 4.792397e+00 3.208129e+00 3.944563e+00 2.917176e+00 6.309883e+00 4.868535e-01 3.407645e-01 4.099981e-01 6.037101e-01 5.606406e-01 7.722629e-01 7.722014e-01 7.600191e-01 8.914567e-01 5.499568e-01 7.930767e-01 5.030262e-01 4.619429e-01
<GCONST> 1.355611e+02
~s "ST_u_4_1"
<MEAN> 39
 -2.290910e+00 5.974995e+00 1.817220e+00 -6.259362e+00 -9.704762e+00 -8.153165e+00 -1.015114e+01 -2.212138e+00 -4.961656e+00 -3.042567e+00 -8.600648e+00 -1.248097e+00 6.738833e+01 -7.606050e-02 3.062943e-01 5.001749e-01 1.881473e-01 -3.967721e-01 -2.957024e-02 2.646951e-01 -2.406579e-01 -4.172649e-01 5.605077e-01 -1.064152e-02 6.599130e-02 -2.204488e-02 3.437315e-02 -1.345060e-01 -5.115587e-02 -1.019065e-01 -1.028086e-03 8.404799e-02 -4.027318e-02 6.030818e-02 -2.853257e-02 1.804582e-02 4.234704e-02 -2.080500e-02 9.616074e-03
<VARIANCE> 39
 7.617275e+01 4.062701e+01 5.663624e+01 4.089839e+01 9.430340e+01 6.911756e+01 4.086135e+01 1.080154e+02 4.986767e+01 4.528050e+01 5.935857e+01 3.120669e+01 2.311523e+01 7.450844e+00 2.932182e+00 5.056764e+00 3.844408e+00 8.045245e+00 4.986648e+00 3.698015e+00 5.430344e+00 4.731806e+00 3.784884e+00 3.879417e+00 2.069356e+00 2.408700e+00 1.001731e+00 4.799487e-01 7.442713e-01 5.099512e-01 1.217632e+00 8.588990e-01 6.205690e-01 8.486331e-01 8.242246e-01 6.524293e-01 6.673579e-01 3.981330e-01 3.006073e-01
<GCONST> 1.361692e+02
~s "ST_k_2_1"
<MEAN> 39
 3.094509e+00 -6.674234e+00 -1.043749e+01 -1.427972e+01 -4.810365e+00 -3.628665e+00 -1.318466e+01 9.351771e+00 -7.902814e-01 9.590272e-01 -1.421474e+01 -5.918477e+00 7.101145e+01 -1.892071e-02 -3.846220e-01 9.893073e-02 -2.994494e-03 1.219027e-01 -1.549621e-02 1.734364e-01 6.903758e-01 -3.258886e-01 -4.687660e-01 -4.429287e-01 1.111653e-01 7.515165e-01 -1.907316e-02 1.532007e-01 8.177521e-02 6.273165e-02 -1.489575e-01 -1.207038e-01 -3.293474e-02 -1.133105e-01 -2.537297e-02 -1.975922e-02 1.894212e-01 2.132067e-01 2.261448e-02
<VARIANCE> 39
 1.753491e+01 2.997820e+01 2.361060e+01 2.979935e+01 3.405972e+01 4.631633e+01 5.329565e+01 4.086250e+01 6.268924e+01 9.116593e+01 4.725484e+01 3.355873e+01 7.767236e+01 8.866185e-01 1.581134e+00 1.100201e+00 1.808772e+00 2.968972e+00 3.159132e+00 2.754517e+00 2.078692e+00 1.918980e+00 2.471181e+00 2.470880e+00 2.492644e+00 2.628615e+00 1.437826e-01 2.236776e-01 2.261407e-01 2.211288e-01 3.900598e-01 4.416918e-01 4.753633e-01 3.065253e-01 3.856989e-01 3.536402e-01 3.999689e-01 4.302814e-01 4.691734e-01
<GCONST> 1.146443e+02
~s "ST_k_3_1"
<MEAN> 39
 -9.263399e-01 -1.016859e+00 -1.022753e-01 -1.083783e+01 -1.528154e+01 -1.009260e+01 -9.529552e+00 4.279041e+00 -3.838994e+00 -8.753642e-01 -7.046485e+00 5.730623e-02 7.060398e+01 -1.646218e-01 6.126581e-01 8.296294e-01 -2.850892e-02 -4.222132e-01 -3.803615e-01 4.210226e-02 -8.151333e-01 -4.809884e-01 1.368391e-02 5.387928e-01 6.138383e-01 8.693466e-02 1.449352e-01 -1.719978e-01 -1.143830e-01 -6.955121e-02 2.073703e-01 2.006525e-01 -1.651867e-01 -1.888914e-01 2.235450e-01 4.390240e-02 -1.604847e-02 -1.659299e-01 1.339347e-01
<VARIANCE> 39
 1.338255e+01 2.280828e+01 8.628601e+01 3.845202e+01 7.529488e+01 4.955079e+01 5.764393e+01 1.285660e+02 5.116612e+01 5.196933e+01 5.584138e+01 2.962021e+01 9.092578e+01 1.306742e+00 2.241176e+00 3.891580e+00 2.558187e+00 3.454141e+00 4.877837e+00 3.917357e+00 4.219962e+00 4.721949e+00 2.694526e+00 3.181159e+00 3.329937e+00 4.124603e+00 1.847297e-01 2.695471e-01 4.308430e-01 4.045859e-01 4.446390e-01 8.260599e-01 7.702667e-01 8.195297e-01 6.614041e-01 4.657528e-01 5.426463e-01 5.305037e-01 6.811257e-01
<GCONST> 1.287549e+02
~s "ST_k_4_1"
<MEAN> 39
 -1.105437e+00 3.579519e+00 -3.378106e+00 -1.064546e+01 -6.765004e+00 -6.774919e+00 -1.350872e+01 -2.761661e+00 -6.018525e+00 2.381521e+00 -3.374325e+00 1.728490e-01 6.500406e+01 6.809318e-02 -1.802527e-01 5.834901e-01 -2.297754e-01 -9.509042e-02 6.667811e-03 -3.652597e-01 -2.251728e-01 3.320820e-02 1.841767e-01 3.137901e-02 1.011575e-01 6.043623e-01 4.296429e-03 -8.457217e-02 3.287831e-02 -1.541544e-02 -4.138063e-02 5.853013e-02 5.347830e-02 6.690698e-02 4.929144e-02 -5.189397e-02 -5.482431e-02 -8.127343e-02 -2.998098e-02
<VARIANCE> 39
 8.536159e+01 3.341216e+01 6.128109e+01 5.014732e+01 4.851643e+01 9.321191e+01 6.894112e+01 6.228090e+01 4.935250e+01 5.398300e+01 4.663284e+01 1.966182e+01 5.138574e+01 6.619432e+00 4.206486e+00 5.474824e+00 5.951643e+00 5.307159e+00 6.371231e+00 7.096559e+00 5.917593e+00 3.935778e+00 4.694968e+00 2.988233e+00 2.541527e+00 6.109424e+00 1.112881e+00 8.473036e-01 9.724568e-01 1.141546e+00 9.708969e-01 1.199373e+00 1.218057e+00 1.112826e+00 7.022216e-01 9.388480e-01 5.757849e-01 5.226619e-01 9.227931e-01
<GCONST> 1.427202e+02
~s "ST_a_2_1"
<MEAN> 39
 -1.720604e+00 -1.010970e+00 -7.648813e+00 -7.709779e+00 -3.490329e+00 -2.358386e+00 -7.887985e+00 2.892980e+00 -2.983629e+00 1.066656e+00 -6.108534e+00 -2.573997e+00 5.835876e+01 -2.303796e-01 -1.247994e-03 1.088811e-01 2.371316e-01 3.556974e-01 -3.652507e-03 -1.641147e-01 2.349981e-01 -4.572838e-01 1.917273e-01 -1.909634e-01 3.219327e-01 3.143979e-01 -1.916333e-02 2.693710e-02 4.507711e-02 4.144696e-02 4.252630e-02 -1.486871e-01 -5.619827e-02 -7.069332e-03 -8.951610e-02 1.939270e-02 3.799347e-02 6.909004e-02 2.314645e-01
<VARIANCE> 39
 2.630770e+01 3.926217e+01 2.091156e+01 6.986747e+01 3.701884e+01 2.726509e+01 4.387473e+01 6.307473e+01 6.025562e+01 3.924400e+01 4.563995e+01 2.866612e+01 1.313374e+02 7.066407e-01 1.436630e+00 1.199634e+00 1.514447e+00 2.325369e+00 2.226634e+00 1.903160e+00 2.260509e+00 2.373436e+00 2.019277e+00 2.327864e+00 2.290934e+00 1.115757e+00 2.288573e-01 2.593865e-01 3.046011e-01 3.289331e-01 4.474267e-01 3.890179e-01 4.495234e-01 4.318815e-01 4.233698e-01 5.121965e-01 4.222751e-01 3.948017e-01 3.520361e-01
<GCONST> 1.147594e+02
~s "ST_a_3_1"
<MEAN> 39
 -2.983053e+00 -1.486363e+00 -6.158078e+00 -8.152267e+00 -3.099078e+00 -6.478077e+00 -1.059341e+01 4.600844e-01 -1.480878e+00 -1.670669e+00 -7.432271e+00 -1.122409e+00 6.282988e+01 4.127956e-01 -2.503603e-01 5.601093e-01 -4.434955e-01 2.860542e-02 -2.013332e-01 -8.884673e-01 -1.726128e-02 -3.747152e-01 7.987463e-02 -6.876967e-02 1.701513e-01 1.448080e+00 9.769806e-02 -2.264216e-03 1.481525e-01 -4.021873e-02 -2.516163e-01 6.377083e-02 6.712946e-02 -7.461029e-02 1.292405e-02 -3.970928e-03 7.771699e-02 -1.092330e-01 -6.074279e-02
<VARIANCE> 39
 5.857805e+01 4.886190e+01 4.209477e+01 6.262720e+01 4.206650e+01 7.612378e+01 8.021014e+01 5.722694e+01 6.120487e+01 5.861772e+01 3.517608e+01 3.129008e+01 9.828735e+01 4.421727e+00 3.350579e+00 3.327007e+00 5.188926e+00 4.232598e+00 6.483522e+00 7.450996e+00 4.764404e+00 5.708625e+00 4.012708e+00 3.545995e+00 2.603739e+00 6.356957e+00 8.134295e-01 5.293211e-01 5.054150e-01 8.147994e-01 7.251254e-01 1.084781e+00 1.472839e+00 9.273484e-01 1.129896e+00 6.386345e-01 7.467971e-01 5.103607e-01 8.163983e-01
<GCONST> 1.402716e+02
~s "ST_a_4_1"
<MEAN> 39
 1.504616e-01 1.600941e+00 2.344323e+00 -6.667015e+00 -1.357237e+01 -7.745931e+00 -1.122271e+01 8.773475e-01 -3.534308e+00 -1.319642e+00 -3.553575e+00 -2.503583e+00 6.710120e+01 -3.051187e-01 8.298336e-01 3.563906e-01 5.722917e-01 1.824832e-01 1.879144e-01 1.186114e+00 -8.387138e-01 2.956358e-01 -4.211813e-01 4.157690e-01 -2.782192e-01 -1.551980e+00 -1.673606e-02 -2.862963e-01 -3.879055e-01 -2.106132e-01 1.484512e-01 1.518842e-01 6.250904e-02 2.479844e-01 1.517026e-01 1.284057e-01 -2.409509e-01 -1.607973e-01 1.225041e-01
<VARIANCE> 39
 1.935107e+01 2.500193e+01 1.023081e+02 4.314750e+01 9.506381e+01 4.867760e+01 4.532841e+01 9.266577e+01 6.806298e+01 6.151265e+01 4.793927e+01 3.812611e+01 6.507471e+01 1.543651e+00 1.340682e+00 4.098925e+00 1.915140e+00 3.438757e+00 2.836231e+00 3.089818e+00 5.888593e+00 4.606491e+00 2.661561e+00 3.634602e+00 2.880192e+00 2.840819e+00 1.618068e-01 2.423018e-01 2.811024e-01 4.658444e-01 4.292528e-01 4.761193e-01 5.032280e-01 7.248527e-01 4.911841e-01 4.106497e-01 4.925923e-01 5.609932e-01 3.787027e-01
<GCONST> 1.251994e+02
~s "ST_n_2_1"
<MEAN> 39
 1.961712e+00 2.239873e+00 -7.548229e+00 -9.957791e+00 -3.793553e+00 -7.233236e+00 -1.335504e+01 -4.898114e+00 -5.562037e+00 8.727208e-02 -4.456937e+00 -1.979031e+00 6.393396e+01 -4.745484e-01 -3.028792e-01 4.410200e-01 -8.220588e-02 3.380422e-01 -3.724604e-01 2.647402e-01 -5.514998e-02 -1.172320e-01 1.897313e-01 2.536998e-01 -1.353234e-01 3.960450e-01 -1.789343e-01 -4.116407e-02 1.298166e-01 -2.616813e-01 3.326747e-02 5.774132e-03 -1.018662e-01 4.052982e-02 -7.776622e-02 9.387555e-02 -1.583841e-02 1.486486e-01 2.896382e-01
<VARIANCE> 39
 2.438591e+01 2.670001e+01 5.670305e+01 7.763634e+01 5.634500e+01 4.874421e+01 6.656706e+01 3.561839e+01 7.943604e+01 4.403038e+01 3.888802e+01 3.110645e+01 5.936328e+01 4.031805e+00 2.725668e+00 7.174740e+00 6.342360e+00 3.286043e+00 4.220821e+00 8.793392e+00 4.536910e+00 7.399883e+00 4.631757e+00 3.572884e+00 3.683019e+00 6.665483e+00 5.789313e-01 5.343863e-01 1.029595e+00 1.213276e+00 6.143987e-01 7.654299e-01 1.504470e+00 7.678514e-01 1.213386e+00 9.476439e-01 7.786351e-01 7.008817e-01 1.071535e+00
<GCONST> 1.401579e+02
~s "ST_n_3_1"
<MEAN> 39
 -4.904443e+00 6.275805e+00 6.828241e+00 -8.263734e+00 -5.449790e+00 -1.175385e+01 -1.025736e+01 -1.965884e+00 -1.128060e+01 7.494789e-01 -3.305988e+00 -1.308158e+00 6.839830e+01 -2.685621e-01 3.290722e-01 1.626283e+00 -6.592147e-01 -9.588255e-01 -3.727525e-01 -3.600477e-01 -2.022083e-01 -5.904615e-01 -1.042215e-01 3.818288e-01 3.892422e-01 7.837465e-01 4.534799e-01 1.215835e-03 -3.229432e-01 1.728714e-01 -6.719428e-02 4.395490e-01 -1.091796e-01 -1.119795e-01 3.843297e-01 -9.606494e-02 -6.016066e-02 -1.104022e-01 -3.418439e-01
<VARIANCE> 39
 7.932771e+01 4.200054e+01 6.311589e+01 5.702528e+01 1.024675e+02 3.980327e+01 2.851902e+01 7.112607e+01 9.271405e+01 2.755337e+01 3.332541e+01 2.733733e+01 1.242871e+01 6.712718e+00 2.658737e+00 3.544859e+00 5.199852e+00 5.248510e+00 3.721377e+00 1.961603e+00 3.581297e+00 4.031494e+00 2.765264e+00 3.721897e+00 3.152074e+00 2.059470e+00 9.872880e-01 6.520751e-01 9.778776e-01 6.898552e-01 1.047443e+00 5.844008e-01 5.341614e-01 8.815057e-01 8.836619e-01 4.233020e-01 6.892934e-01 6.029332e-01 3.772759e-01
<GCONST> 1.324850e+02
~s "ST_n_4_1"
<MEAN> 39
 -2.997376e+00 -3.937344e+00 4.840748e+00 -1.534097e+01 -1.099064e+01 -9.792251e+00 -7.451437e+00 -5.332728e+00 -3.688819e+00 -6.401312e+00 -5.043118e+00 -2.056011e+00 7.566026e+01 3.808009e-01 4.659634e-03 1.929502e-01 1.274596e-01 -5.048290e-01 7.651325e-01 -1.406568e-01 -3.023043e-01 5.592072e-02 1.336638e-01 -1.759364e-01 -3.741359e-01 -3.553183e-01 -3.367138e-02 1.988720e-01 -1.973024e-01 2.470021e-01 1.397768e-01 6.672696e-03 1.262416e-01 -7.225875e-02 -2.077254e-02 1.993816e-01 -8.333150e-02 -9.639126e-02 -2.239830e-01
<VARIANCE> 39
 1.043596e+01 7.697285e+01 1.302552e+02 8.420776e+01 7.181410e+01 2.649122e+01 6.837137e+01 2.732867e+01 6.982866e+01 9.270560e+01 4.148668e+01 1.574972e+01 2.715137e+01 7.095944e-01 2.069482e+00 1.722081e+00 1.249017e+00 2.225181e+00 1.395875e+00 2.722390e+00 1.067514e+00 1.963282e+00 4.956992e+00 1.095896e+00 1.872463e+00 7.284617e-01 1.412022e-01 1.460215e-01 2.096201e-01 3.468972e-01 2.821943e-01 1.569751e-01 3.915809e-01 1.852460e-01 3.859061e-01 5.292377e-01 3.171489e-01 1.784650e-01 6.862321e-02
<GCONST> 1.079568e+02
~s "ST_t_2_1"
<MEAN> 39
 -6.632884e-01 -9.181347e-01 -8.445482e+00 -1.277943e+01 -6.276765e+00 -5.440845e+00 -1.251461e+01 2.210620e+00 -3.967469e+00 -1.766565e+00 -5.278360e+00 -6.675454e-01 6.898062e+01 1.306446e+00 -9.394668e-01 -3.758846e-01 -1.199887e+00 -3.519130e-01 6.344764e-01 -1.244405e+00 3.346277e-01 -1.937380e-02 4.868644e-01 -4.141953e-01 -3.372868e-01 1.584293e+00 -1.492425e-01 -7.810845e-02 2.813162e-02 3.363731e-03 4.945768e-02 8.819202e-02 1.416558e-01 1.446718e-01 5.926645e-02 5.322899e-02 -8.219561e-02 -8.664647e-02 -2.042617e-02
<VARIANCE> 39
 9.741567e+01 4.395090e+01 3.981741e+01 6.165550e+01 3.678335e+01 7.499200e+01 7.746078e+01 7.437481e+01 6.453056e+01 7.254665e+01 4.560571e+01 4.081808e+01 5.665625e+01 7.558969e+00 3.575122e+00 2.315555e+00 5.293920e+00 2.938401e+00 5.072832e+00 7.102425e+00 4.826242e+00 4.224656e+00 4.965431e+00 3.962797e+00 3.486264e+00 5.763093e+00 1.254340e+00 4.921140e-01 3.391054e-01 1.018257e+00 5.257494e-01 1.007318e+00 1.292457e+00 7.174684e-01 8.020197e-01 7.905061e-01 7.024411e-01 6.025712e-01 7.801415e-01
<GCONST> 1.400833e+02
~s "ST_t_3_1"
<MEAN> 39
 4.032904e+00 -9.998642e+00 -1.203174e+01 -1.550144e+01 -4.565023e+00 1.025587e+00 -1.683901e+01 1.154777e+01 -4.134331e+00 1.917725e+00 -1.005273e+01 -7.235179e+00 7.819412e+01 -1.326135e-01 -1.533006e-01 2.114523e-01 1.187667e-01 -7.859056e-02 -2.813587e-01 7.446323e-02 3.848363e-01 5.208645e-02 -2.431275e-02 -2.175672e-01 -6.384171e-02 -1.046286e-02 -1.569561e-02 2.370006e-01 1.226569e-01 1.351126e-01 -9.922747e-02 -1.946875e-01 5.494780e-02 -1.657848e-01 -4.892141e-02 -1.960714e-02 1.731436e-01 1.307938e-01 -2.248041e-01
<VARIANCE> 39
 1.002645e+01 2.029456e+01 2.718028e+01 5.098767e+01 3.990972e+01 8.664314e+01 5.228845e+01 6.343886e+01 5.001707e+01 8.407693e+01 5.615605e+01 4.696537e+01 1.099170e+01 3.665872e-01 1.108849e+00 1.098860e+00 1.726286e+00 1.884655e+00 2.902100e+00 1.680406e+00 2.281911e+00 1.701174e+00 1.376418e+00 1.805570e+00 1.805575e+00 8.488681e-01 5.679030e-02 1.836864e-01 1.327557e-01 2.354139e-01 2.591504e-01 2.922592e-01 3.409380e-01 3.307262e-01 3.182721e-01 2.543990e-01 3.683032e-01 2.540557e-01 1.526384e-01
<GCONST> 1.041989e+02
~s "ST_t_4_1"
<MEAN> 39
 1.945519e+00 -1.760767e+00 1.703619e+00 -1.211387e+01 -1.224085e+01 -6.895754e+00 -1.500980e+01 6.123516e+00 -8.462564e+00 2.148137e+00 -6.818524e+00 -3.325969e+00 7.200355e+01 4.046116e-02 1.513208e+00 3.971713e-01 8.886045e-01 -9.164158e-02 -4.255561e-01 8.216147e-01 -1.063227e+00 2.537812e-01 -2.965974e-01 3.280796e-01 -2.518273e-03 -1.961284e+00 -5.544563e-02 -1.238816e-01 -3.147929e-01 -7.948935e-02 1.999697e-01 1.957874e-01 2.283409e-01 4.518794e-02 1.294313e-01 -1.422362e-01 -7.953489e-02 -1.111281e-01 -1.522883e-01
<VARIANCE> 39
 1.992513e+01 4.024680e+01 9.917523e+01 3.762595e+01 8.367390e+01 4.104562e+01 5.611964e+01 8.976177e+01 9.741920e+01 8.622416e+01 5.326848e+01 3.766121e+01 3.656006e+01 1.004582e+00 1.404928e+00 3.560489e+00 2.469469e+00 4.593025e+00 2.041261e+00 4.534340e+00 4.398105e+00 5.577592e+00 3.068741e+00 3.439989e+00 2.893803e+00 4.133226e+00 1.465660e-01 2.528886e-01 3.027218e-01 4.043522e-01 4.719841e-01 3.846164e-01 8.001889e-01 7.527615e-01 7.781211e-01 4.232107e-01 5.365998e-01 5.211198e-01 4.414714e-01
<GCONST> 1.269891e+02
~s "ST_sil_2_1"
<MEAN> 39
 -4.225368e+00 1.765405e-01 -3.523623e+00 -1.341712e+00 -1.629333e+00 -1.650600e+00 -9.959184e-01 9.211749e-01 2.491522e-01 6.281402e-01 -1.297604e+00 -5.483484e-01 3.411575e+01 -7.760000e-01 -5.025270e-01 -8.579108e-01 -6.378285e-01 -8.145583e-01 -6.557103e-01 -7.758911e-01 -3.350162e-01 -3.925893e-01 -1.470700e-01 -4.011021e-01 -1.448500e-01 4.036564e+00 8.235888e-03 -5.677066e-02 -5.989431e-02 -9.116189e-02 -1.258647e-01 -1.493368e-01 -2.169632e-01 -1.507986e-01 -1.296939e-01 -1.405938e-01 -1.202513e-01 -6.396906e-02 1.595352e-01
<VARIANCE> 39
 1.326249e+01 6.035094e+00 1.466071e+01 1.017061e+01 1.109581e+01 1.235408e+01 1.288775e+01 1.282642e+01 1.324347e+01 1.361778e+01 1.161404e+01 9.874338e+00 4.885302e+02 1.838677e+00 9.855523e-01 2.946974e+00 1.671666e+00 2.681776e+00 2.752427e+00 2.788401e+00 1.857111e+00 1.792898e+00 1.562617e+00 1.760185e+00 1.503391e+00 3.567471e+01 1.523778e-01 1.007185e-01 2.176210e-01 1.713415e-01 2.252400e-01 2.491114e-01 2.693758e-01 2.559314e-01 2.450777e-01 2.588147e-01 2.515902e-01 2.161046e-01 6.760453e-01
<GCONST> 9.954939e+01
~s "ST_sil_3_1"
<MEAN> 39
 -7.766520e+00 -3.308682e+00 -8.145580e+00 -5.966948e+00 -7.196222e+00 -6.979331e+00 -6.642281e+00 -1.622430e+00 -2.006821e+00 -1.027960e+00 -3.712135e+00 -2.018203e+00 4.963813e+01 -2.494756e-01 -2.160288e-01 -5.292214e-01 -2.490558e-01 -4.075773e-01 -4.899455e-01 -4.370554e-01 -7.924788e-02 -1.449651e-01 -2.056108e-01 -2.517170e-01 -1.640113e-01 2.825232e+00 3.138959e-01 1.568183e-01 2.717957e-01 2.397212e-01 2.959807e-01 2.872897e-01 3.129405e-01 1.313121e-01 1.214273e-01 1.260819e-02 1.305653e-01 5.643214e-02 -1.527756e+00
<VARIANCE> 39
 1.460603e+01 1.527387e+01 2.224033e+01 1.860366e+01 2.348297e+01 2.819295e+01 2.759763e+01 2.771178e+01 2.745393e+01 2.229267e+01 1.860200e+01 1.842092e+01 3.210059e+01 1.816019e+00 1.147590e+00 2.185654e+00 1.994665e+00 2.279969e+00 2.500248e+00 2.507134e+00 2.244850e+00 1.919812e+00 1.898100e+00 1.903694e+00 1.662119e+00 2.761123e+01 2.934219e-01 2.211608e-01 4.246513e-01 3.400097e-01 4.359278e-01 4.781682e-01 4.540631e-01 4.758048e-01 3.947544e-01 4.205429e-01 4.197437e-01 3.481952e-01 2.645074e+00
<GCONST> 1.128889e+02
~s "ST_sil_4_1"
<MEAN> 39
 -5.386839e+00 -9.807935e-01 -7.080307e+00 -3.140303e+00 -4.271409e+00 -4.395654e+00 -3.851158e+00 3.319305e-01 -1.954314e-01 -4.057243e-01 -3.070292e+00 -1.584932e+00 4.805637e+01 1.449119e-02 2.988245e-02 1.527083e-02 2.250254e-02 2.492348e-02 3.349115e-02 4.707395e-02 2.518820e-02 3.018229e-02 1.895919e-02 -3.812343e-03 2.219875e-03 -6.037043e-02 -2.032710e-02 1.165321e-03 1.212280e-02 2.710564e-04 7.882987e-03 -9.146198e-04 9.218267e-04 3.183068e-03 -5.664071e-03 1.215384e-02 -5.385441e-04 9.644704e-03 1.015219e-02
<VARIANCE> 39
 3.236135e+00 7.792997e+00 9.392700e+00 1.036868e+01 1.330917e+01 1.457796e+01 1.577986e+01 2.023174e+01 2.131870e+01 1.698201e+01 1.604784e+01 1.401399e+01 3.394043e+00 1.802111e-01 3.196867e-01 5.079691e-01 6.856297e-01 9.072264e-01 1.056022e+00 1.204056e+00 1.342977e+00 1.326199e+00 1.387909e+00 1.362416e+00 1.159544e+00 1.229234e-01 3.701622e-02 6.183752e-02 9.832819e-02 1.354101e-01 1.802090e-01 2.086669e-01 2.355898e-01 2.655086e-01 2.632875e-01 2.783422e-01 2.736512e-01 2.367873e-01 2.133044e-02
<GCONST> 7.289853e+01
~s "ST_j_2_1"
<MEAN> 39
 7.367235e-01 6.350035e+00 1.000957e+01 -6.662714e+00 -1.206837e+01 -5.407851e+00 -1.092092e+01 -7.943574e+00 -7.714669e+00 2.975784e+00 -4.675927e+00 -3.053736e+00 6.469340e+01 7.416641e-01 5.821534e-01 -1.404676e+00 1.608815e+00 1.067702e+00 4.320309e-01 6.149692e-01 -9.428606e-01 7.615131e-01 2.095932e-01 -3.893855e-01 -1.519785e-01 -1.226210e+00 -3.074834e-03 -1.689281e-01 -8.649255e-02 1.640259e-01 9.733512e-02 -5.781774e-02 -1.158466e-01 5.896700e-02 1.496116e-01 -3.450859e-01 4.657053e-02 9.313043e-02 5.370785e-02
<VARIANCE> 39
 1.302500e+01 2.174877e+01 4.793694e+01 7.641086e+01 5.263852e+01 4.471806e+01 3.713232e+01 7.826654e+01 9.979266e+01 2.687163e+01 4.964841e+01 3.110192e+01 1.010547e+01 1.383552e+00 1.336651e+00 1.437496e+00 4.016898e+00 3.499668e+00 2.893610e+00 1.747564e+00 2.639916e+00 3.533664e+00 3.359854e+00 2.461388e+00 1.509955e+00 7.135967e-01 2.691066e-01 2.270753e-01 3.689809e-01 6.628534e-01 7.563626e-01 4.919464e-01 2.504603e-01 4.467166e-01 4.067554e-01 3.420069e-01 4.903660e-01 3.186153e-01 1.615652e-01
<GCONST> 1.154456e+02
~s "ST_j_3_1"
<MEAN> 39
 4.012947e+00 6.590383e+00 1.764604e+00 -2.253100e+00 -8.737204e+00 -6.326471e+00 -1.384321e+01 -1.378533e+01 -8.263889e+00 -5.683575e+00 -1.067924e+01 -4.530673e+00 6.056164e+01 -2.421034e-01 -9.683582e-02 4.405244e-02 6.478785e-01 4.436958e-01 4.740109e-01 6.194215e-02 8.286719e-02 1.671164e-01 -7.475547e-01 3.403873e-01 3.311436e-01 -9.037018e-01 -2.625405e-01 -2.617583e-01 8.957389e-02 -2.865437e-01 1.210863e-02 6.984022e-02 1.945756e-01 4.723438e-01 -2.270829e-02 2.235602e-01 2.327462e-01 -1.249947e-04 8.143103e-02
<VARIANCE> 39
 5.896008e+00 2.225540e+01 1.929732e+01 2.264667e+01 2.820589e+01 4.112271e+01 5.649037e+01 5.725319e+01 3.100392e+01 7.189117e+01 4.859015e+01 4.277119e+01 1.150244e+01 5.123033e-01 1.391268e+00 8.447322e-01 1.309873e+00 1.999200e+00 2.201541e+00 1.579174e+00 3.026800e+00 3.638532e+00 2.131028e+00 2.716916e+00 1.850154e+00 4.037866e-01 8.005561e-02 1.278924e-01 1.753269e-01 1.769865e-01 3.687083e-01 4.195889e-01 3.313525e-01 3.256924e-01 5.329036e-01 2.121944e-01 1.970903e-01 3.602884e-01 5.382911e-02
<GCONST> 1.012342e+02
~s "ST_j_4_1"
<MEAN> 39
 1.668892e+00 5.766580e+00 2.887713e+00 1.123178e+00 -3.110193e+00 -1.074144e+00 -7.290610e+00 -6.781968e+00 -2.404804e+00 1.062977e+00 -1.605323e+00 -2.473108e+00 5.815002e+01 -9.396144e-01 -2.062820e-01 -5.770878e-01 3.853638e-01 1.078241e+00 6.009647e-01 7.497785e-01 1.223375e+00 3.876862e-01 -8.355461e-02 -7.133953e-03 -6.878340e-02 -8.332332e-01 -1.228738e-01 -6.151897e-02 -1.309661e-01 -8.708423e-02 -7.607023e-02 -1.326223e-01 2.842922e-02 -7.075623e-02 -5.230968e-02 4.345667e-02 -2.176250e-01 -6.330469e-02 -9.033239e-03
<VARIANCE> 39
 1.047875e+01 2.446096e+01 1.311063e+01 2.158528e+01 2.216156e+01 2.430735e+01 5.268427e+01 5.354160e+01 4.033531e+01 3.156933e+01 3.080594e+01 1.829827e+01 8.148193e+00 2.707841e-01 1.057744e+00 6.708156e-01 5.501410e-01 7.262912e-01 2.025043e+00 1.806114e+00 1.514790e+00 1.213395e+00 1.100789e+00 2.258871e+00 2.122520e+00 2.747542e-01 5.985105e-02 2.051236e-01 1.232844e-01 1.596810e-01 2.198104e-01 3.897468e-01 2.140010e-01 2.712854e-01 3.425110e-01 2.419604e-01 5.021102e-01 4.508452e-01 6.396630e-02
<GCONST> 9.203797e+01
~s "ST_ng_2_1"
<MEAN> 39
 -3.258468e+00 2.695829e+00 -5.133913e-01 1.720716e+00 1.066333e+00 -1.634561e+00 -1.375322e+00 3.808766e+00 1.963007e+00 -9.350331e-01 -2.434926e+00 -7.744329e-01 5.373001e+01 -7.540483e-02 7.696294e-02 -1.999956e-02 -1.244995e-01 1.405859e-02 -5.594232e-02 6.499870e-02 -1.840248e-02 4.866193e-02 1.364589e-01 1.790431e-02 -3.739987e-02 -1.617216e-01 -3.014497e-03 -7.138364e-03 -1.658003e-02 -1.043886e-02 -3.017695e-02 7.177615e-03 -3.566692e-02 -8.572731e-02 -8.472236e-02 -3.540680e-02 -5.702527e-02 -3.129171e-02 4.381416e-04
<VARIANCE> 39
 4.294251e+00 2.650154e+01 2.570300e+01 1.477548e+01 1.325966e+01 1.578171e+01 3.030203e+01 2.589795e+01 2.365971e+01 2.742333e+01 1.588758e+01 1.623930e+01 8.513916e+00 3.355264e-01 7.133582e-01 9.335166e-01 9.821035e-01 9.135558e-01 1.203556e+00 1.520026e+00 1.819902e+00 1.592990e+00 1.458415e+00 1.175347e+00 1.241070e+00 1.834650e-01 6.138769e-02 1.069917e-01 1.775541e-01 1.963364e-01 1.746657e-01 2.218332e-01 3.382051e-01 3.456733e-01 3.172868e-01 3.017404e-01 2.140058e-01 2.623327e-01 2.038290e-02
<GCONST> 8.475242e+01
~s "ST_ng_3_1"
<MEAN> 39
 -5.573561e+00 3.918633e-01 -5.009205e+00 -1.629761e+00 -2.001373e+00 -3.545985e+00 -3.516483e+00 3.952445e-01 -1.682672e+00 -4.166213e-01 -3.577934e+00 -1.919072e+00 5.102257e+01 -6.150072e-03 -5.447444e-02 -1.088466e-01 -6.052510e-02 -1.044853e-01 6.192636e-03 7.765079e-02 5.438518e-02 6.743331e-02 2.797974e-02 7.989890e-02 -3.428394e-02 -1.820017e-01 1.948318e-02 1.464211e-02 4.810386e-03 3.225645e-03 -1.126429e-02 9.515718e-03 -8.277151e-03 -1.284652e-02 -2.467585e-03 -2.086401e-02 -9.640196e-03 6.577026e-03 1.296839e-02
<VARIANCE> 39
 5.131105e+00 6.456873e+00 7.906687e+00 9.288569e+00 1.102740e+01 1.740406e+01 1.856981e+01 2.523654e+01 2.356484e+01 2.701660e+01 1.820687e+01 1.389179e+01 2.876953e+00 1.698507e-01 3.348510e-01 5.334918e-01 8.652304e-01 9.884977e-01 1.287489e+00 1.443925e+00 1.582638e+00 1.428543e+00 1.642976e+00 1.861063e+00 1.326559e+00 9.647939e-02 2.995508e-02 5.820993e-02 1.001502e-01 1.736865e-01 1.978013e-01 2.662495e-01 2.786228e-01 3.001427e-01 2.736829e-01 3.384587e-01 3.867746e-01 2.450921e-01 1.458950e-02
<GCONST> 7.598203e+01
~s "ST_m_2_1"
<MEAN> 39
 4.866908e+00 5.708167e+00 2.765682e+00 -3.256937e+00 -9.971988e+00 -4.738503e+00 -1.220007e+01 -6.488382e+00 -7.377215e+00 3.744085e+00 -6.939202e+00 -3.971149e+00 6.307280e+01 4.068009e-01 -1.393973e-01 -7.253181e-01 1.571336e+00 1.016092e+00 -3.939597e-02 8.459759e-01 -9.131196e-01 5.618238e-01 -7.357426e-01 -1.030280e-01 4.515773e-01 -1.020435e+00 -3.941549e-01 -2.616257e-01 3.578592e-01 -3.080266e-01 -2.645509e-01 1.903921e-01 7.758194e-02 3.289622e-01 1.179669e-01 -2.385888e-01 -1.049651e-01 5.110582e-02 2.553098e-01
<VARIANCE> 39
 9.786835e+00 1.882243e+01 5.592242e+01 2.721000e+01 4.071954e+01 5.123594e+01 5.589909e+01 7.244955e+01 5.839518e+01 4.688081e+01 7.046725e+01 2.954555e+01 1.141113e+01 1.285206e+00 1.511155e+00 3.028954e+00 2.090367e+00 2.608718e+00 2.638740e+00 3.475711e+00 3.866848e+00 3.579635e+00 2.193642e+00 1.680942e+00 1.702111e+00 6.434234e-01 1.071643e-01 2.071088e-01 3.474660e-01 2.832410e-01 4.651303e-01 3.733132e-01 4.159310e-01 5.729391e-01 4.748863e-01 4.675947e-01 4.997211e-01 3.321755e-01 9.997658e-02
<GCONST> 1.129539e+02
~s "ST_ng_4_1"
<MEAN> 39
 -4.881737e+00 8.472031e-01 -5.554789e+00 -1.944729e+00 -3.430595e+00 -3.226776e+00 -3.128899e+00 1.520306e-01 7.160780e-02 -1.490149e-01 -3.321673e+00 -2.539001e+00 4.758776e+01 -4.644993e-03 -5.977085e-03 -3.690691e-03 3.081762e-03 -1.660757e-02 -1.258172e-02 -3.481288e-02 -2.393634e-02 -2.215812e-02 -4.398717e-03 -1.540032e-02 1.050702e-02 -3.665834e-02 -9.476135e-03 5.767353e-03 1.369031e-02 4.144852e-03 5.421775e-03 -6.712421e-03 1.391592e-04 5.075169e-03 3.788400e-03 7.964005e-03 8.222054e-03 9.348548e-03 1.671665e-02
<VARIANCE> 39
 2.105158e+00 4.006035e+00 6.218431e+00 8.525202e+00 1.098020e+01 1.246549e+01 1.331078e+01 1.796529e+01 1.776273e+01 1.395546e+01 1.151844e+01 1.206945e+01 1.616211e+00 1.488294e-01 2.650464e-01 4.275661e-01 6.288761e-01 9.473524e-01 1.075861e+00 1.141110e+00 1.242241e+00 1.444229e+00 1.155737e+00 1.169701e+00 1.129542e+00 5.520218e-02 2.986759e-02 5.224851e-02 8.613238e-02 1.236806e-01 1.997575e-01 2.196052e-01 2.326740e-01 2.525835e-01 3.026699e-01 2.257658e-01 2.363290e-01 2.275217e-01 1.177606e-02
<GCONST> 6.580608e+01
~s "ST_m_3_1"
<MEAN> 39
 2.754101e+00 4.388297e+00 3.053813e+00 -1.019949e+00 -5.745547e+00 -4.273210e-01 -7.200663e+00 -6.248800e+00 -4.614913e+00 1.133186e+00 -5.750569e+00 -4.161417e+00 6.028497e+01 -6.008794e-01 -2.108371e-01 -5.747466e-02 4.596647e-01 4.866281e-01 2.181859e-01 6.799336e-01 4.463387e-01 5.939902e-01 -2.348933e-01 9.362536e-03 2.828951e-01 -7.152336e-01 -8.328620e-02 -7.377718e-02 -1.092768e-01 -1.614009e-01 -6.628827e-02 -1.310107e-01 -7.272983e-02 1.541072e-01 -6.479458e-02 5.278579e-02 8.896293e-02 -9.752203e-03 3.812369e-02
<VARIANCE> 39
 1.148518e+01 1.894956e+01 4.254246e+01 1.702222e+01 5.603635e+01 3.213419e+01 2.171466e+01 4.322142e+01 7.641518e+01 3.775523e+01 3.360325e+01 3.674580e+01 1.695337e+01 3.830799e-01 8.812592e-01 1.065229e+00 6.877775e-01 1.207519e+00 1.353338e+00 1.192978e+00 1.520113e+00 1.423313e+00 1.763388e+00 1.942428e+00 1.746719e+00 2.748352e-01 5.372789e-02 1.888497e-01 1.345340e-01 1.400802e-01 2.307210e-01 2.506320e-01 3.667753e-01 3.624355e-01 2.903346e-01 2.839215e-01 3.302306e-01 3.324795e-01 5.197068e-02
<GCONST> 9.534911e+01
~s "ST_m_4_1"
<MEAN> 39
 -3.682714e+00 1.003276e+00 -1.872731e+00 -3.391873e-01 -1.725856e+00 -1.405753e+00 -1.055151e+00 4.923625e+00 1.045011e+00 -5.703452e-01 -3.754132e+00 -3.482835e-01 5.451449e+01 -2.605852e-01 -2.460250e-01 -2.732027e-01 -1.542376e-01 -1.696453e-02 -1.815042e-01 6.630218e-02 2.334364e-02 1.001826e-01 2.419376e-04 3.417102e-02 -7.660622e-02 -2.696929e-01 2.603809e-02 6.106792e-02 1.877302e-02 -3.219663e-02 -3.133590e-02 -1.945592e-02 -9.284742e-02 -1.057734e-01 -1.065278e-01 2.972026e-02 -8.851177e-03 -4.001330e-02 1.164650e-02
<VARIANCE> 39
 1.584266e+01 1.427054e+01 3.220962e+01 2.004150e+01 3.451215e+01 2.722407e+01 2.751142e+01 4.751873e+01 3.756265e+01 2.633552e+01 2.352565e+01 2.134341e+01 1.511743e+01 5.712915e-01 1.076023e+00 1.502018e+00 1.843236e+00 1.711119e+00 1.636005e+00 1.877954e+00 1.922582e+00 1.891771e+00 2.034319e+00 1.219178e+00 1.378224e+00 1.322094e-01 7.437229e-02 1.365407e-01 2.614390e-01 3.389619e-01 3.095094e-01 2.783953e-01 3.515676e-01 2.554266e-01 3.272718e-01 3.454349e-01 2.454335e-01 3.039568e-01 1.919207e-02
<GCONST> 9.550553e+01
~s "ST_c_2_1"
<MEAN> 39
 -2.110660e+00 3.445056e+00 1.335888e+01 -1.003294e+01 -1.773094e+01 -8.245809e+00 -1.368521e+01 -1.027920e+01 -6.760788e+00 -4.116669e-01 -7.637615e+00 -2.237508e+00 7.025378e+01 2.960352e-01 3.002467e-01 -6.848444e-02 -7.232472e-02 2.200536e-01 2.687128e-01 -3.543727e-02 -1.609830e-01 -7.371053e-02 4.927028e-01 -2.637387e-01 -3.675819e-01 -6.161369e-01 -6.705184e-03 7.973071e-02 -3.958393e-01 2.144931e-01 3.767495e-01 -8.844245e-02 1.885291e-01 -2.000434e-04 7.825502e-02 -6.598336e-02 -2.718147e-02 -1.619156e-03 -1.635662e-01
<VARIANCE> 39
 2.316166e+01 1.668403e+01 6.476231e+01 1.442389e+02 5.180630e+01 5.976720e+01 4.327829e+01 5.585424e+01 5.467410e+01 3.357790e+01 7.489667e+01 1.721698e+01 2.312354e+01 1.610990e+00 2.079671e+00 4.038005e+00 6.089690e+00 4.009134e+00 3.560045e+00 2.830269e+00 1.653528e+00 1.522689e+00 2.920492e+00 1.683454e+00 2.148347e+00 1.292394e+00 2.114752e-01 2.542446e-01 7.089843e-01 8.657841e-01 6.711289e-01 5.790243e-01 4.671515e-01 3.683326e-01 3.463480e-01 5.264372e-01 3.774255e-01 4.105593e-01 1.935434e-01
<GCONST> 1.207451e+02
~s "ST_c_3_1"
<MEAN> 39
 1.965168e+00 3.654878e+00 5.014457e+00 -3.976019e+00 -1.082227e+01 -7.830348e+00 -8.283328e+00 -9.539369e+00 -6.976887e+00 1.578268e+00 -6.455328e+00 -3.914793e+00 6.257299e+01 5.120836e-02 -1.746285e-01 -7.967180e-01 1.127561e+00 6.852680e-01 5.096053e-01 4.436570e-01 -5.257756e-01 6.186770e-01 -4.927166e-01 2.371913e-01 5.552093e-01 -8.223574e-01 -1.260030e-01 4.297760e-03 5.015082e-02 -3.845278e-02 -2.006149e-02 9.058110e-02 4.863656e-02 2.325071e-01 3.342942e-02 -1.762791e-01 1.302401e-01 1.238851e-01 3.011802e-02
<VARIANCE> 39
 3.036002e+01 3.785273e+01 2.259937e+01 4.847901e+01 2.024331e+01 7.249367e+01 6.464102e+01 6.499678e+01 5.969867e+01 7.732343e+01 5.507754e+01 2.526988e+01 8.399658e+00 1.363517e+00 1.922864e+00 1.524136e+00 2.231184e+00 1.956463e+00 4.281497e+00 1.827496e+00 3.552637e+00 3.495305e+00 2.929248e+00 2.586137e+00 1.499132e+00 6.792336e-01 2.041277e-01 3.342050e-01 2.917642e-01 4.305355e-01 3.748884e-01 8.261089e-01 4.908355e-01 5.938302e-01 5.296774e-01 8.267348e-01 4.601585e-01 3.383290e-01 1.304296e-01
<GCONST> 1.167527e+02
~s "ST_c_4_1"
<MEAN> 39
 2.187997e+00 6.060301e+00 3.104816e+00 2.370049e+00 -4.639689e+00 -4.234419e+00 -5.767343e+00 -6.806152e+00 -5.606560e+00 4.741035e-01 -5.976837e+00 -1.211652e+00 5.819598e+01 -6.743368e-01 -2.213154e-01 -2.686186e-01 5.311283e-01 8.340585e-01 3.390621e-01 6.046203e-01 8.388557e-01 1.182177e-01 -5.637488e-01 2.186118e-01 1.426634e-01 -7.594653e-01 -9.249812e-02 -1.015570e-01 -1.077260e-01 -2.061254e-01 -9.211876e-02 -5.766796e-02 -2.415082e-02 1.851220e-01 2.442119e-02 6.710997e-02 -5.114766e-02 -6.403242e-02 1.826820e-02
<VARIANCE> 39
 7.695164e+00 1.525124e+01 1.280649e+01 1.321010e+01 5.031583e+01 2.063722e+01 4.560275e+01 5.924130e+01 2.699199e+01 2.991058e+01 3.236042e+01 1.463832e+01 7.652344e+00 2.262621e-01 1.146104e+00 1.228237e+00 1.234612e+00 1.239917e+00 2.018375e+00 1.631203e+00 1.562780e+00 1.430427e+00 1.567479e+00 1.870913e+00 8.887865e-01 1.904815e-01 3.346198e-02 1.430129e-01 1.871099e-01 1.857220e-01 2.828180e-01 3.086072e-01 2.525974e-01 2.609249e-01 2.883365e-01 2.121763e-01 3.597215e-01 1.448508e-01 2.321712e-02
<GCONST> 8.851611e+01
~s "ST_p_2_1"
<MEAN> 39
 -9.942525e-01 4.158450e+00 2.515102e+00 -2.317823e+00 -6.308731e+00 -2.845817e+00 -7.590565e+00 -4.184432e+00 -6.769464e+00 7.153858e-01 -5.032544e+00 -2.292830e+00 6.191491e+01 -5.227170e-02 -2.895461e-01 -8.032394e-01 8.871614e-01 1.319310e+00 2.600907e-01 5.753663e-01 5.376543e-01 5.524600e-01 -9.073317e-01 -3.920164e-01 1.529791e-01 -4.343556e-01 -6.205186e-02 -6.165161e-02 3.610098e-02 -2.037241e-01 -6.441182e-02 -8.234155e-02 -4.660167e-02 1.766115e-01 3.228206e-02 5.856799e-02 -9.767829e-03 -5.927708e-02 7.833394e-02
<VARIANCE> 39
 4.546928e+01 3.636221e+01 6.004250e+01 5.062687e+01 3.714571e+01 3.938298e+01 3.729486e+01 9.620344e+01 4.369767e+01 3.409177e+01 2.671554e+01 3.481279e+01 4.936133e+01 1.145666e+00 1.103614e+00 2.187710e+00 2.148451e+00 2.634677e+00 3.627495e+00 1.473134e+00 3.559235e+00 3.194638e+00 2.017552e+00 2.128845e+00 1.868695e+00 9.999515e-01 1.677147e-01 2.139827e-01 3.326377e-01 3.369779e-01 3.130744e-01 5.522656e-01 2.757858e-01 4.121660e-01 5.609104e-01 3.420507e-01 3.713069e-01 3.944845e-01 1.036310e-01
<GCONST> 1.142780e+02
~s "ST_p_3_1"
<MEAN> 39
 -3.034273e+00 -8.688074e-01 -2.006378e+00 6.420948e-01 -1.555546e+00 -2.650921e+00 -4.719868e+00 4.355485e+00 -3.699011e+00 -4.525995e+00 -8.399159e+00 8.408641e-02 6.085498e+01 -9.592465e-02 -4.629254e-01 -9.726928e-01 -1.581286e-01 7.292863e-01 -2.169692e-01 -2.594038e-02 5.659828e-01 1.961303e-01 1.475893e-01 -8.008831e-01 -2.306282e-01 1.449609e-01 6.730992e-02 7.388333e-02 -2.756579e-02 -3.158593e-01 -3.581871e-01 -1.443786e-02 -2.216616e-01 -1.431111e-01 -3.108622e-02 4.679605e-01 2.065188e-01 -2.983393e-02 7.478269e-02
<VARIANCE> 39
 2.119056e+01 2.631642e+01 3.909514e+01 4.476993e+01 2.833635e+01 4.892201e+01 1.634609e+01 7.803327e+01 3.284847e+01 4.847368e+01 3.346255e+01 3.682381e+01 8.203418e+01 1.142593e+00 1.389860e+00 1.411286e+00 1.475295e+00 2.338694e+00 1.752078e+00 1.526077e+00 1.908174e+00 1.999286e+00 1.754555e+00 2.386270e+00 1.661471e+00 7.638188e-01 1.317760e-01 1.330315e-01 2.407262e-01 2.508682e-01 3.980550e-01 3.589364e-01 3.199570e-01 3.695336e-01 3.222556e-01 4.299448e-01 3.318254e-01 3.502557e-01 1.079729e-01
<GCONST> 1.075025e+02
~s "ST_p_4_1"
<MEAN> 39
 -8.407101e+00 -3.230434e+00 -4.705263e+00 -2.547005e+00 -3.288781e+00 -7.787441e+00 -4.884366e+00 6.781489e-01 -1.385360e-01 -6.627902e-01 -6.905256e+00 -9.922552e-01 5.883706e+01 6.781942e-02 -2.080698e-01 -2.227866e-01 -3.799827e-01 -8.683506e-02 7.457563e-02 -6.814465e-02 1.675525e-01 7.642003e-02 3.385302e-01 1.509182e-01 2.771909e-03 8.389962e-02 9.539267e-02 -3.059633e-02 9.955907e-03 -7.405858e-02 -1.318556e-01 6.543624e-02 -3.072739e-02 -5.583344e-02 -2.972177e-02 -8.042383e-02 5.960754e-02 -1.064154e-03 -5.309273e-02
<VARIANCE> 39
 3.428712e+01 2.754215e+01 3.062655e+01 3.266886e+01 3.708334e+01 4.548796e+01 2.506387e+01 4.685960e+01 3.651732e+01 2.925072e+01 3.204181e+01 1.796164e+01 4.641187e+01 1.793659e+00 1.520793e+00 1.776831e+00 1.703975e+00 1.849667e+00 1.492345e+00 2.375639e+00 2.908062e+00 2.143878e+00 2.568930e+00 2.542449e+00 1.529294e+00 2.079885e+00 3.140603e-01 3.006321e-01 2.906399e-01 2.859573e-01 4.557941e-01 3.083135e-01 4.408154e-01 5.865986e-01 4.572585e-01 4.629134e-01 5.583962e-01 3.153852e-01 2.726278e-01
<GCONST> 1.132059e+02
~h "a"
<BEGINHMM>
<NUMSTATES> 5
<STATE> 2
~s "ST_a_2_1"
<STATE> 3
~s "ST_a_3_1"
<STATE> 4
~s "ST_a_4_1"
~t "T_a"
<ENDHMM>
~h "b"
<BEGINHMM>
<NUMSTATES> 5
<STATE> 2
~s "ST_b_2_1"
<STATE> 3
~s "ST_b_3_1"
<STATE> 4
~s "ST_b_4_1"
~t "T_b"
<ENDHMM>
~h "c"
<BEGINHMM>
<NUMSTATES> 5
<STATE> 2
~s "ST_c_2_1"
<STATE> 3
~s "ST_c_3_1"
<STATE> 4
~s "ST_c_4_1"
~t "T_c"
<ENDHMM>
~h "h"
<BEGINHMM>
<NUMSTATES> 5
<STATE> 2
~s "ST_h_2_1"
<STATE> 3
~s "ST_h_3_1"
<STATE> 4
~s "ST_h_4_1"
~t "T_h"
<ENDHMM>
~h "i"
<BEGINHMM>
<NUMSTATES> 5
<STATE> 2
~s "ST_i_2_1"
<STATE> 3
~s "ST_i_3_1"
<STATE> 4
~s "ST_i_4_1"
~t "T_i"
<ENDHMM>
~h "j"
<BEGINHMM>
<NUMSTATES> 5
<STATE> 2
~s "ST_j_2_1"
<STATE> 3
~s "ST_j_3_1"
<STATE> 4
~s "ST_j_4_1"
~t "T_j"
<ENDHMM>
~h "k"
<BEGINHMM>
<NUMSTATES> 5
<STATE> 2
~s "ST_k_2_1"
<STATE> 3
~s "ST_k_3_1"
<STATE> 4
~s "ST_k_4_1"
~t "T_k"
<ENDHMM>
~h "l"
<BEGINHMM>
<NUMSTATES> 5
<STATE> 2
~s "ST_l_2_1"
<STATE> 3
~s "ST_l_3_1"
<STATE> 4
~s "ST_l_4_1"
~t "T_l"
<ENDHMM>
~h "m"
<BEGINHMM>
<NUMSTATES> 5
<STATE> 2
~s "ST_m_2_1"
<STATE> 3
~s "ST_m_3_1"
<STATE> 4
~s "ST_m_4_1"
~t "T_m"
<ENDHMM>
~h "n"
<BEGINHMM>
<NUMSTATES> 5
<STATE> 2
~s "ST_n_2_1"
<STATE> 3
~s "ST_n_3_1"
<STATE> 4
~s "ST_n_4_1"
~t "T_n"
<ENDHMM>
~h "p"
<BEGINHMM>
<NUMSTATES> 5
<STATE> 2
~s "ST_p_2_1"
<STATE> 3
~s "ST_p_3_1"
<STATE> 4
~s "ST_p_4_1"
~t "T_p"
<ENDHMM>
~h "r"
<BEGINHMM>
<NUMSTATES> 5
<STATE> 2
~s "ST_r_2_1"
<STATE> 3
~s "ST_r_3_1"
<STATE> 4
~s "ST_r_4_1"
~t "T_r"
<ENDHMM>
~h "s"
<BEGINHMM>
<NUMSTATES> 5
<STATE> 2
~s "ST_s_2_1"
<STATE> 3
~s "ST_s_3_1"
<STATE> 4
~s "ST_s_4_1"
~t "T_s"
<ENDHMM>
~h "t"
<BEGINHMM>
<NUMSTATES> 5
<STATE> 2
~s "ST_t_2_1"
<STATE> 3
~s "ST_t_3_1"
<STATE> 4
~s "ST_t_4_1"
~t "T_t"
<ENDHMM>
~h "u"
<BEGINHMM>
<NUMSTATES> 5
<STATE> 2
~s "ST_u_2_1"
<STATE> 3
~s "ST_u_3_1"
<STATE> 4
~s "ST_u_4_1"
~t "T_u"
<ENDHMM>
~h "y"
<BEGINHMM>
<NUMSTATES> 5
<STATE> 2
~s "ST_y_2_1"
<STATE> 3
~s "ST_y_3_1"
<STATE> 4
~s "ST_y_4_1"
~t "T_y"
<ENDHMM>
~h "ng"
<BEGINHMM>
<NUMSTATES> 5
<STATE> 2
~s "ST_ng_2_1"
<STATE> 3
~s "ST_ng_3_1"
<STATE> 4
~s "ST_ng_4_1"
~t "T_ng"
<ENDHMM>
~h "sp"
<BEGINHMM>
<NUMSTATES> 5
<STATE> 2
~s "ST_sil_3_1"
<STATE> 3
<MEAN> 39
 -2.207374e+00 9.499270e-01 -5.540154e+00 -4.717530e+00 -4.375342e+00 -4.823897e+00 -5.409461e+00 7.525018e-01 -1.400793e-02 -4.665890e-01 -5.336442e+00 -3.170274e+00 5.611682e+01 -4.937547e-01 4.350629e-02 -1.130173e-01 1.305039e-01 8.272911e-02 2.163544e-02 5.922650e-01 7.139593e-02 1.493602e-01 8.072385e-02 2.811436e-01 2.926754e-02 -5.625815e-01 4.694323e-02 -1.039250e-01 3.321833e-02 -5.898638e-02 -3.633349e-02 -2.035892e-02 -1.696753e-01 1.135045e-01 -1.195317e-01 7.486272e-02 -3.376026e-04 5.660953e-02 1.989716e-01
<VARIANCE> 39
 3.305014e+01 2.379494e+01 3.970768e+01 4.544685e+01 3.351100e+01 3.675465e+01 4.809873e+01 3.991912e+01 4.291319e+01 3.826528e+01 3.630913e+01 2.438374e+01 4.504889e+01 1.082498e+00 1.160080e+00 1.834060e+00 1.426607e+00 1.714207e+00 2.437212e+00 2.371389e+00 2.465686e+00 2.258309e+00 2.350444e+00 2.292747e+00 1.749448e+00 1.333507e+00 2.099478e-01 2.393288e-01 3.146634e-01 3.076265e-01 4.090462e-01 4.523921e-01 5.499939e-01 5.622557e-01 4.972114e-01 4.441870e-01 4.591205e-01 3.635717e-01 2.917030e-01
<GCONST> 1.135287e+02
<STATE> 4
<MEAN> 39
 -4.080013e+00 4.470129e-01 -5.226962e+00 -3.464290e+00 -4.054648e+00 -3.882812e+00 -3.185836e+00 1.716067e+00 -4.185297e-01 -1.520906e-01 -3.603701e+00 -1.881308e+00 5.308659e+01 -1.764898e-01 7.930292e-03 -5.739915e-02 -4.670175e-02 1.817936e-02 -5.679784e-03 1.510956e-01 5.463980e-02 -7.531036e-03 2.048217e-02 3.798103e-02 5.575256e-02 -2.129760e-01 9.912358e-03 -2.633840e-02 3.916514e-02 -1.416057e-02 1.499093e-02 -2.093520e-02 -6.250864e-02 7.425385e-03 -7.099366e-02 -9.353161e-03 -5.509859e-02 1.238809e-02 8.420664e-02
<VARIANCE> 39
 1.923212e+01 1.640154e+01 2.183404e+01 3.033522e+01 2.417434e+01 2.507854e+01 2.962679e+01 3.186794e+01 2.983546e+01 2.669923e+01 2.663029e+01 2.020463e+01 2.794274e+01 5.086312e-01 5.681733e-01 8.301890e-01 9.117248e-01 1.133662e+00 1.390258e+00 1.528097e+00 1.587746e+00 1.755560e+00 1.732131e+00 1.732202e+00 1.449548e+00 3.643613e-01 9.981208e-02 1.001827e-01 1.608941e-01 2.003988e-01 2.672106e-01 2.929276e-01 3.306309e-01 3.274109e-01 3.908622e-01 3.251579e-01 3.358591e-01 2.826796e-01 1.105489e-01
<GCONST> 9.489742e+01
<TRANSP> 5
 0.000000e+00 3.193620e-03 9.968064e-01 0.000000e+00 0.000000e+00
 0.000000e+00 6.299812e-01 3.700188e-01 0.000000e+00 0.000000e+00
 0.000000e+00 0.000000e+00 3.185415e-01 6.814585e-01 0.000000e+00
 0.000000e+00 0.000000e+00 0.000000e+00 6.368926e-01 3.631075e-01
 0.000000e+00 0.000000e+00 0.000000e+00 0.000000e+00 0.000000e+00
<ENDHMM>
~h "sil"
<BEGINHMM>
<NUMSTATES> 5
<STATE> 2
~s "ST_sil_2_1"
<STATE> 3
~s "ST_sil_3_1"
<STATE> 4
~s "ST_sil_4_1"
<TRANSP> 5
 0.000000e+00 1.000000e+00 0.000000e+00 0.000000e+00 0.000000e+00
 0.000000e+00 3.792029e-01 3.651394e-01 2.556578e-01 0.000000e+00
 0.000000e+00 0.000000e+00 7.972330e-01 2.027670e-01 0.000000e+00
 0.000000e+00 1.486334e-02 0.000000e+00 9.505331e-01 3.460359e-02
 0.000000e+00 0.000000e+00 0.000000e+00 0.000000e+00 0.000000e+00
<ENDHMM>
