~o
<STREAMINFO> 1 39
<VECSIZE> 39<NULLD><MFCC_D_A_0><DIAGC>
~s "silst"
<MEAN> 39
 -6.730090e+00 -1.175324e+00 -5.590567e+00 -1.433590e+00 -3.199218e+00 -2.163364e+00 -1.550997e+00 4.845366e-02 1.072928e+00 -1.342816e+00 -8.859228e-03 -1.782927e+00 3.962353e+01 -3.201961e-01 -1.262296e-01 -3.304685e-01 -1.623226e-01 -1.957040e-01 -1.554322e-01 -1.169813e-01 -2.988951e-02 -3.885569e-02 -1.205331e-01 -8.941246e-03 -8.000559e-02 1.284444e+00 1.965078e-01 5.522786e-02 1.200810e-01 5.194754e-02 1.288368e-01 1.064472e-01 2.796181e-02 2.534945e-02 9.792640e-03 5.036738e-02 -9.156626e-03 3.987337e-02 -7.582380e-01
<VARIANCE> 39
 1.032626e+01 1.271989e+01 1.448827e+01 1.909367e+01 1.888073e+01 2.168089e+01 2.143800e+01 2.098061e+01 1.942694e+01 1.784920e+01 1.488351e+01 1.253620e+01 1.893580e+01 1.015926e+00 8.683345e-01 1.451366e+00 1.374290e+00 1.614859e+00 1.650846e+00 1.735954e+00 1.773048e+00 1.463086e+00 1.408287e+00 1.170956e+00 9.714759e-01 1.348177e+01 1.556017e-01 1.713747e-01 2.747581e-01 2.849433e-01 2.989415e-01 3.083195e-01 3.573150e-01 3.621968e-01 2.919368e-01 2.881341e-01 2.427640e-01 1.871835e-01 1.512761e+00
<GCONST> 9.868920e+01
~h "a"
<BEGINHMM>
<NUMSTATES> 5
<STATE> 2
<MEAN> 39
 6.608100e-01 -3.733095e+00 -7.853181e+00 -9.707518e+00 -1.296933e+00 1.233610e+00 -7.245114e+00 2.995025e+00 8.092838e-01 2.136098e+00 -3.163155e+00 -2.444529e+00 5.304198e+01 1.019912e+00 -8.774039e-01 -5.512767e-01 -1.425462e+00 7.677369e-02 7.308742e-01 -8.080168e-01 6.088806e-01 1.943047e-01 3.650396e-01 -5.605915e-01 -3.945205e-01 1.907690e+00 -1.971056e-01 7.564892e-02 3.089145e-03 1.584457e-01 -4.899877e-02 -1.111430e-01 1.658962e-01 2.090456e-02 4.465931e-02 -1.098490e-01 1.633343e-02 2.069042e-02 -1.868073e-01
<VARIANCE> 39
 2.799045e+01 2.476625e+01 1.986118e+01 4.118708e+01 2.945527e+01 3.074728e+01 3.705490e+01 3.639680e+01 3.785165e+01 3.861240e+01 2.489060e+01 1.965985e+01 6.149751e+01 2.302505e+00 2.000289e+00 1.568425e+00 3.164230e+00 2.403906e+00 2.248900e+00 2.849528e+00 2.504577e+00 2.314664e+00 2.435688e+00 1.849838e+00 1.403840e+00 3.609583e+00 4.188833e-01 3.369089e-01 3.041267e-01 6.099096e-01 4.281223e-01 3.880412e-01 5.206963e-01 4.224139e-01 4.093058e-01 4.385133e-01 2.923884e-01 2.407526e-01 6.739910e-01
<GCONST> 1.155717e+02
<STATE> 3
<MEAN> 39
 3.312990e+00 -5.903086e+00 -9.024961e+00 -1.286543e+01 -2.383506e+00 1.446314e+00 -9.518817e+00 6.747268e+00 2.608285e+00 3.045499e+00 -5.196024e+00 -3.823067e+00 5.897501e+01 1.592221e-02 3.100091e-01 3.771387e-01 3.608484e-01 -3.352169e-01 -4.307517e-01 5.982955e-02 8.488950e-02 6.749192e-02 -1.867220e-01 1.070180e-01 2.249274e-01 -3.107768e-01 -1.090942e-01 2.962003e-01 2.507266e-01 3.186009e-01 -6.205540e-02 -1.802519e-01 1.285930e-01 -2.114702e-01 -1.308929e-01 -8.137579e-02 2.125662e-01 1.411257e-01 -3.754616e-01
<VARIANCE> 39
 6.189518e+00 1.451320e+01 1.608653e+01 2.568047e+01 2.404615e+01 2.855553e+01 2.994557e+01 3.966212e+01 4.169965e+01 3.646214e+01 2.502327e+01 1.882219e+01 1.437851e+01 4.699217e-01 1.061327e+00 1.187197e+00 1.471995e+00 1.563321e+00 1.680772e+00 1.674421e+00 2.277849e+00 1.945587e+00 1.350480e+00 1.510678e+00 1.043240e+00 9.396327e-01 9.797424e-02 1.478085e-01 1.773334e-01 3.098368e-01 2.576618e-01 2.198750e-01 3.577686e-01 3.287573e-01 4.010127e-01 2.841154e-01 2.208915e-01 1.848132e-01 1.807430e-01
<GCONST> 9.625501e+01
<STATE> 4
<MEAN> 39
 2.440129e+00 -6.554969e-01 -5.861082e+00 -6.780109e+00 -3.364017e+00 -1.870556e+00 -6.720029e+00 3.377796e+00 2.756117e+00 7.881926e-01 -2.570192e+00 -1.781466e+00 5.064917e+01 -6.474186e-01 1.041235e+00 5.480337e-01 1.248086e+00 -1.757454e-01 -4.218776e-01 1.035501e+00 -5.574347e-01 -3.543142e-01 -6.643794e-01 6.655828e-01 1.167309e-01 -1.794215e+00 -1.644244e-01 -2.095845e-01 -9.567475e-02 -1.204719e-01 2.743741e-02 9.503931e-02 5.307376e-02 1.333314e-01 -8.496410e-02 1.514050e-02 -1.018067e-01 -6.236154e-02 1.561696e-01
<VARIANCE> 39
 1.795193e+01 1.967449e+01 2.182891e+01 4.351883e+01 3.367373e+01 4.399141e+01 4.241056e+01 4.409169e+01 3.523263e+01 3.135749e+01 2.899649e+01 1.868919e+01 3.715335e+01 1.513286e+00 1.665823e+00 2.296796e+00 2.699895e+00 2.218262e+00 2.343048e+00 3.144919e+00 2.965798e+00 2.826898e+00 2.207493e+00 1.808901e+00 1.538109e+00 2.508528e+00 2.437983e-01 2.709891e-01 3.036957e-01 4.806453e-01 3.997016e-01 4.408727e-01 6.660101e-01 5.994377e-01 4.764074e-01 3.725315e-01 3.415719e-01 2.454172e-01 3.413020e-01
<GCONST> 1.139785e+02
<TRANSP> 5
 0.000000e+00 1.000000e+00 0.000000e+00 0.000000e+00 0.000000e+00
 0.000000e+00 6.476371e-01 3.523629e-01 0.000000e+00 0.000000e+00
 0.000000e+00 0.000000e+00 7.911333e-01 2.088667e-01 0.000000e+00
 0.000000e+00 0.000000e+00 0.000000e+00 6.638505e-01 3.361495e-01
 0.000000e+00 0.000000e+00 0.000000e+00 0.000000e+00 0.000000e+00
<ENDHMM>
~h "b"
<BEGINHMM>
<NUMSTATES> 5
<STATE> 2
<MEAN> 39
 6.436375e-01 3.682537e+00 1.152529e+01 -3.176440e+00 -1.191822e+01 -3.381167e+00 -8.191334e+00 -2.261563e+00 -5.767839e+00 8.295531e-01 7.096876e-01 -2.540824e+00 5.221292e+01 -5.093018e-01 -2.378135e-01 1.274205e+00 -6.476628e-01 -1.105563e+00 2.966647e-02 -8.528403e-02 -3.658120e-02 -5.903442e-01 4.376590e-01 1.297984e-01 1.630220e-01 3.990704e-01 6.081303e-02 9.500577e-02 -2.083950e-01 -4.304046e-03 2.057402e-01 9.389345e-02 1.025632e-01 -9.394604e-02 8.445670e-02 1.251077e-01 2.531093e-02 -8.866815e-02 -1.201794e-01
<VARIANCE> 39
 1.298453e+01 1.526368e+01 5.560369e+01 3.893206e+01 6.062413e+01 2.905384e+01 2.087697e+01 3.242904e+01 3.414234e+01 2.461293e+01 2.419591e+01 1.440483e+01 1.357156e+01 6.514044e-01 1.816777e+00 3.532145e+00 2.555549e+00 4.400779e+00 2.669790e+00 2.483478e+00 2.390855e+00 2.038644e+00 2.445029e+00 1.507992e+00 1.711610e+00 1.712412e+00 1.247360e-01 3.581325e-01 7.993948e-01 5.656320e-01 1.017637e+00 5.225446e-01 4.393448e-01 4.609070e-01 4.758248e-01 4.900662e-01 3.190938e-01 3.126628e-01 3.646865e-01
<GCONST> 1.126395e+02
<STATE> 3
<MEAN> 39
 3.392614e-01 5.904998e+00 9.297124e+00 -4.854385e+00 -9.036135e+00 -1.665983e+00 -4.886967e+00 -3.574991e+00 -5.776562e+00 5.137342e+00 -1.064512e+00 -3.712192e+00 4.950519e+01 5.991064e-01 4.317411e-01 -2.028059e+00 1.184407e+00 1.708988e+00 -1.163619e-01 4.829107e-01 -1.043522e-01 9.398200e-01 -2.844638e-01 -5.079374e-01 1.327784e-01 -7.991159e-01 4.385595e-02 -9.823495e-02 -2.138995e-02 1.623837e-01 -8.950619e-02 -3.363937e-04 -1.193650e-01 8.453733e-02 1.174722e-01 -2.900787e-01 1.948989e-02 2.243815e-01 1.239306e-01
<VARIANCE> 39
 1.127693e+01 8.247676e+00 3.093734e+01 2.856556e+01 2.958974e+01 2.818192e+01 2.028033e+01 2.227068e+01 3.273888e+01 2.313130e+01 3.443363e+01 1.714124e+01 7.102756e+00 5.550598e-01 7.488784e-01 1.975795e+00 2.258017e+00 2.632737e+00 2.345763e+00 1.894795e+00 2.293156e+00 2.157470e+00 2.211464e+00 1.326278e+00 1.400388e+00 5.259076e-01 1.243941e-01 1.411750e-01 4.817895e-01 3.859177e-01 4.785633e-01 4.428827e-01 3.348752e-01 3.978299e-01 3.578983e-01 3.568925e-01 2.896611e-01 2.259672e-01 8.853152e-02
<GCONST> 9.974999e+01
<STATE> 4
<MEAN> 39
 2.377162e+00 7.258642e+00 2.314496e+00 1.905905e+00 -3.925686e+00 -1.995860e+00 -4.217385e+00 -4.860036e+00 -1.099591e+00 8.621283e-01 -1.548162e+00 -3.372677e-01 4.714429e+01 -3.652889e-01 -6.469992e-02 -5.812564e-02 4.406262e-01 5.749537e-01 5.292672e-01 1.148090e-01 6.908059e-03 4.726215e-01 -4.042320e-01 -8.147951e-02 3.395863e-01 -3.402879e-01 -2.662643e-01 -1.778210e-01 2.389329e-01 -1.595100e-01 -2.920159e-02 6.019716e-02 5.100428e-02 1.679947e-01 -2.258323e-01 6.327680e-02 6.904981e-02 -1.777685e-01 -1.706611e-02
<VARIANCE> 39
 7.381166e+00 6.494921e+00 1.189767e+01 8.589108e+00 1.796233e+01 1.434233e+01 2.067686e+01 2.089148e+01 2.535587e+01 1.632792e+01 2.125712e+01 1.856328e+01 5.049028e+00 4.909948e-01 7.736945e-01 7.801319e-01 7.265379e-01 9.832519e-01 1.028929e+00 1.107045e+00 1.690705e+00 1.443366e+00 1.283726e+00 1.339664e+00 1.189297e+00 2.538077e-01 8.306576e-02 1.727721e-01 3.026348e-01 1.474736e-01 2.377580e-01 2.530470e-01 2.514775e-01 2.962175e-01 2.557127e-01 2.376657e-01 2.003621e-01 2.462908e-01 4.306285e-02
<GCONST> 8.251543e+01
<TRANSP> 5
 0.000000e+00 1.000000e+00 0.000000e+00 0.000000e+00 0.000000e+00
 0.000000e+00 9.009431e-01 9.905694e-02 0.000000e+00 0.000000e+00
 0.000000e+00 0.000000e+00 8.179865e-01 1.820135e-01 0.000000e+00
 0.000000e+00 0.000000e+00 0.000000e+00 7.673747e-01 2.326253e-01
 0.000000e+00 0.000000e+00 0.000000e+00 0.000000e+00 0.000000e+00
<ENDHMM>
~h "c"
<BEGINHMM>
<NUMSTATES> 5
<STATE> 2
<MEAN> 39
 -1.304427e+01 2.778073e+00 5.816995e+00 -6.743028e+00 -4.982274e+00 -4.590294e+00 -4.576182e+00 1.689093e+00 -5.151921e+00 -1.729710e-01 8.631867e-01 5.589896e-01 5.378284e+01 1.481075e+00 1.632231e-01 1.841566e+00 3.742503e-02 -1.553061e+00 -2.469596e-01 -3.768353e-01 -1.430777e-01 -5.592635e-01 1.155345e-01 9.795611e-02 -5.560681e-02 5.613267e-01 4.524398e-01 -5.776322e-02 4.108328e-02 5.224968e-02 -2.111062e-01 3.459766e-02 -1.368236e-02 -1.755471e-01 1.440984e-02 1.063494e-01 1.513247e-02 -1.015412e-01 -2.611891e-01
<VARIANCE> 39
 7.615324e+01 2.140750e+01 4.781832e+01 2.144139e+01 4.723723e+01 3.729451e+01 3.213463e+01 2.363039e+01 2.251222e+01 1.950904e+01 1.360696e+01 1.205234e+01 1.099505e+01 9.053520e+00 1.971208e+00 2.603936e+00 2.685153e+00 3.344262e+00 2.236294e+00 3.278982e+00 1.977187e+00 2.071476e+00 1.853108e+00 1.164018e+00 1.162171e+00 1.211068e+00 1.905669e+00 3.549495e-01 6.557274e-01 5.973926e-01 6.481130e-01 4.766915e-01 6.845757e-01 3.493278e-01 4.241005e-01 3.432002e-01 2.340250e-01 2.005412e-01 2.919478e-01
<GCONST> 1.140909e+02
<STATE> 3
<MEAN> 39
 -1.539782e+00 4.139394e+00 1.445387e+01 -8.002706e+00 -1.426930e+01 -2.416044e+00 -5.768154e+00 -2.992593e+00 -7.639671e+00 5.241702e+00 1.956097e-02 -2.907398e+00 5.300439e+01 3.032180e-01 2.892863e-01 -1.026209e+00 4.799304e-01 8.673891e-01 5.977121e-01 5.427870e-01 -3.286397e-01 3.301313e-01 4.321747e-01 -3.688872e-01 -3.453879e-01 -7.467687e-01 2.624603e-02 3.252618e-02 -4.288482e-01 2.779570e-01 3.703681e-01 -5.082022e-02 -1.214432e-02 8.663701e-03 2.690006e-01 -2.629502e-01 6.257910e-04 1.099695e-01 -1.019630e-01
<VARIANCE> 39
 6.206303e+00 6.801501e+00 1.883953e+01 2.484667e+01 3.115757e+01 4.061782e+01 2.459242e+01 2.860147e+01 2.639410e+01 2.569246e+01 2.559988e+01 1.481824e+01 8.059836e+00 6.119640e-01 4.681462e-01 2.463145e+00 2.080549e+00 2.874543e+00 2.177132e+00 1.754597e+00 1.680433e+00 1.558610e+00 2.264953e+00 1.266340e+00 1.138981e+00 4.586070e-01 1.703437e-01 9.809022e-02 3.082519e-01 3.164909e-01 5.509437e-01 4.684336e-01 3.945207e-01 3.298955e-01 2.805447e-01 4.020568e-01 2.801478e-01 2.428592e-01 7.450061e-02
<GCONST> 9.668020e+01
<STATE> 4
<MEAN> 39
 2.388082e+00 5.787502e+00 3.050174e+00 -5.328084e-01 -5.603613e+00 -8.109129e-01 -4.355869e+00 -5.076953e+00 -1.645961e+00 1.813436e+00 -1.040600e+00 -1.685133e+00 4.789924e+01 6.876291e-02 8.014426e-02 -4.539849e-01 6.996927e-01 6.066515e-01 4.335038e-02 -1.078040e-01 -1.895911e-01 5.672880e-01 -6.110526e-01 1.976673e-01 3.454128e-01 -3.761471e-01 -2.088773e-01 -6.663574e-02 3.360955e-01 -1.537827e-01 -1.295097e-01 6.267305e-02 6.942900e-02 1.390387e-01 -1.621865e-01 8.086201e-02 2.781295e-02 -4.182964e-02 6.185595e-02
<VARIANCE> 39
 1.157406e+01 6.273157e+00 1.359135e+01 1.218988e+01 1.476560e+01 1.894938e+01 2.381394e+01 1.949425e+01 2.101428e+01 2.238494e+01 2.316370e+01 1.573292e+01 5.615245e+00 5.548067e-01 5.220490e-01 1.684081e+00 1.186694e+00 1.672029e+00 1.409045e+00 1.251578e+00 1.834040e+00 1.809077e+00 1.739455e+00 1.346606e+00 7.911270e-01 2.925986e-01 7.952616e-02 9.507602e-02 2.620945e-01 2.194239e-01 3.791747e-01 2.307923e-01 2.269210e-01 3.030405e-01 2.800786e-01 3.037187e-01 2.502620e-01 1.582504e-01 6.496644e-02
<GCONST> 8.646542e+01
<TRANSP> 5
 0.000000e+00 1.000000e+00 0.000000e+00 0.000000e+00 0.000000e+00
 0.000000e+00 8.851507e-01 1.148493e-01 0.000000e+00 0.000000e+00
 0.000000e+00 0.000000e+00 8.773760e-01 1.226240e-01 0.000000e+00
 0.000000e+00 0.000000e+00 0.000000e+00 8.538252e-01 1.461748e-01
 0.000000e+00 0.000000e+00 0.000000e+00 0.000000e+00 0.000000e+00
<ENDHMM>
~h "h"
<BEGINHMM>
<NUMSTATES> 5
<STATE> 2
<MEAN> 39
 -3.495727e-01 1.818756e+00 1.080299e+01 -5.541800e+00 -1.330822e+01 -5.758182e+00 -9.424712e+00 2.905175e+00 -7.728729e+00 4.509321e-02 8.884619e-01 -2.237036e+00 5.514543e+01 -2.880794e-01 4.562646e-02 4.026619e-01 -4.573628e-02 -5.472969e-01 1.885226e-01 3.697061e-01 5.842261e-02 -4.649926e-01 3.036822e-01 3.272437e-01 1.006918e-01 4.803122e-01 -7.678328e-02 3.607372e-02 -1.694068e-01 1.436163e-01 2.373129e-01 9.230526e-02 1.547505e-01 -3.048404e-02 2.145038e-01 2.928510e-02 -3.874546e-02 7.897721e-02 -1.920259e-01
<VARIANCE> 39
 8.041776e+00 9.979037e+00 1.568606e+01 2.672485e+01 4.719013e+01 4.707263e+01 2.644894e+01 2.814847e+01 3.123253e+01 2.239727e+01 1.919050e+01 1.324903e+01 1.124606e+01 4.658728e-01 7.955225e-01 1.303519e+00 1.806034e+00 3.225918e+00 2.351212e+00 2.324840e+00 1.788729e+00 2.531425e+00 1.436197e+00 1.177663e+00 1.508965e+00 8.317555e-01 1.083824e-01 1.451868e-01 1.670416e-01 3.257091e-01 4.657158e-01 4.819269e-01 4.940424e-01 3.949827e-01 3.486882e-01 2.996809e-01 2.380657e-01 2.424757e-01 1.182867e-01
<GCONST> 9.848786e+01
<STATE> 3
<MEAN> 39
 -3.022667e+00 1.067319e+00 5.650538e+00 -2.271216e+00 -6.385185e+00 -3.683005e+00 -2.936856e+00 6.078324e+00 -2.477247e+00 9.220833e-01 -6.678946e-01 2.721881e+00 5.547105e+01 3.370883e-01 -6.421885e-01 -1.612277e+00 -1.511080e-01 1.418614e+00 -5.226245e-02 9.366791e-02 8.792456e-01 1.045040e+00 -1.260351e-01 -9.726081e-01 3.799742e-01 3.947400e-01 1.650720e-01 -1.659030e-01 -1.168675e-01 -3.115632e-01 -1.724165e-01 2.670862e-03 -3.112986e-01 -2.271497e-03 -7.324480e-02 3.959638e-02 -1.410807e-01 -2.532717e-01 2.075988e-01
<VARIANCE> 39
 8.310415e+00 1.268725e+01 2.180710e+01 2.173820e+01 3.366203e+01 2.889955e+01 3.309634e+01 3.520703e+01 2.673683e+01 2.215199e+01 2.656466e+01 1.279901e+01 1.104449e+01 5.157223e-01 6.874434e-01 6.936282e-01 2.340967e+00 2.089894e+00 1.862923e+00 2.410756e+00 1.557771e+00 1.396710e+00 1.805763e+00 1.302038e+00 1.337656e+00 7.974433e-01 7.098850e-02 1.227876e-01 1.288267e-01 3.043150e-01 3.629261e-01 3.349713e-01 2.883978e-01 3.359019e-01 2.419696e-01 3.333288e-01 2.426620e-01 2.180335e-01 7.346556e-02
<GCONST> 9.394534e+01
<STATE> 4
<MEAN> 39
 2.281850e+00 -6.020501e+00 -7.178721e+00 -8.947185e+00 -2.829402e+00 -3.040582e+00 -8.390592e+00 9.990182e+00 1.710164e+00 2.091770e+00 -7.041475e+00 -1.503422e+00 6.131451e+01 3.485688e-01 -3.647135e-01 -7.111086e-01 -5.172339e-01 -1.549636e-02 1.328491e-01 -2.920311e-01 9.683267e-02 3.638155e-01 -5.674857e-02 -2.752165e-01 -3.534401e-01 1.759505e-01 -5.317967e-02 1.540987e-01 1.565015e-01 1.079345e-01 -3.981102e-02 -3.151182e-02 1.395310e-02 -7.306828e-02 -2.593927e-02 -3.490143e-02 1.010406e-01 8.486719e-02 -1.232199e-01
<VARIANCE> 39
 6.157407e+00 8.947051e+00 2.229628e+01 2.857099e+01 1.542100e+01 1.697743e+01 2.407655e+01 2.855222e+01 3.236232e+01 2.679782e+01 2.797549e+01 2.071775e+01 8.392658e+00 3.956907e-01 9.691281e-01 9.774540e-01 9.065082e-01 8.151916e-01 8.356655e-01 9.535064e-01 1.189806e+00 1.018300e+00 7.475258e-01 7.400714e-01 9.089064e-01 4.780566e-01 5.056137e-02 1.118480e-01 1.087773e-01 1.176514e-01 1.437973e-01 1.477568e-01 1.726637e-01 1.907470e-01 1.760782e-01 1.227847e-01 1.053795e-01 1.324480e-01 6.350388e-02
<GCONST> 7.909312e+01
<TRANSP> 5
 0.000000e+00 1.000000e+00 0.000000e+00 0.000000e+00 0.000000e+00
 0.000000e+00 9.132515e-01 8.674853e-02 0.000000e+00 0.000000e+00
 0.000000e+00 0.000000e+00 8.529052e-01 1.470949e-01 0.000000e+00
 0.000000e+00 0.000000e+00 0.000000e+00 9.085305e-01 9.146953e-02
 0.000000e+00 0.000000e+00 0.000000e+00 0.000000e+00 0.000000e+00
<ENDHMM>
~h "i"
<BEGINHMM>
<NUMSTATES> 5
<STATE> 2
<MEAN> 39
 -1.448168e+00 3.482028e+00 1.060134e+01 -6.873568e+00 -1.107016e+01 -4.838540e+00 -7.883006e+00 -2.580314e-01 -5.236378e+00 2.492951e+00 -1.186192e-02 -1.359411e+00 5.301459e+01 2.933001e-02 6.055460e-01 3.273316e-01 2.836484e-01 3.454932e-01 1.625019e-01 7.663822e-02 -4.528342e-01 -1.629778e-01 -9.499362e-02 1.274186e-01 -5.456147e-02 -3.400935e-01 -3.498821e-02 -1.179966e-01 -4.469502e-01 1.086514e-01 2.553173e-01 1.034174e-01 1.463872e-01 1.184010e-01 2.735449e-01 -1.238832e-01 -8.543321e-02 -5.075385e-02 -1.946641e-01
<VARIANCE> 39
 8.909435e+00 1.732095e+01 3.354589e+01 3.388219e+01 3.499591e+01 3.642174e+01 2.594287e+01 4.102433e+01 3.903909e+01 2.034016e+01 1.404268e+01 1.368480e+01 2.624550e+01 7.470677e-01 9.497263e-01 3.150112e+00 1.992642e+00 2.527943e+00 1.897046e+00 2.386997e+00 2.131092e+00 2.910832e+00 1.619190e+00 1.120032e+00 9.979600e-01 1.616738e+00 1.109309e-01 1.491405e-01 3.214474e-01 2.745541e-01 3.730428e-01 3.776774e-01 3.812949e-01 3.339345e-01 3.923098e-01 2.685781e-01 2.055502e-01 2.107408e-01 1.813673e-01
<GCONST> 1.022590e+02
<STATE> 3
<MEAN> 39
 -8.516705e-01 5.806964e+00 3.816763e+00 8.733892e-02 -2.860099e+00 -1.657042e+00 -4.062529e+00 -1.495813e+00 -8.488882e-01 -4.708374e-01 -9.716800e-01 -1.815750e+00 4.526044e+01 -4.225239e-01 -5.123191e-01 -1.391914e+00 3.803570e-01 7.613306e-01 4.635826e-01 7.378575e-01 3.494443e-01 7.079970e-01 -6.478552e-01 -3.895774e-02 -3.266481e-01 -9.140381e-01 -1.807483e-01 -3.461694e-01 -2.379021e-02 -4.245816e-01 -4.560965e-01 -1.947695e-01 -1.492227e-01 1.154007e-01 -1.906482e-01 1.349109e-01 1.032315e-01 1.284372e-02 2.374540e-01
<VARIANCE> 39
 1.432618e+01 1.006789e+01 1.894708e+01 2.153070e+01 2.415858e+01 3.104506e+01 3.258810e+01 2.848162e+01 2.105993e+01 1.642887e+01 1.356214e+01 1.374965e+01 1.050585e+01 1.544413e+00 1.319634e+00 3.153743e+00 1.923847e+00 2.464373e+00 3.046020e+00 3.288134e+00 2.318756e+00 3.033134e+00 1.441054e+00 1.287976e+00 1.417438e+00 3.343489e+00 1.418168e-01 1.648094e-01 2.453756e-01 2.683084e-01 3.345939e-01 4.280686e-01 4.643513e-01 4.092626e-01 3.626366e-01 2.460660e-01 2.388724e-01 2.436002e-01 1.386406e-01
<GCONST> 1.020686e+02
<STATE> 4
<MEAN> 39
 -3.737794e+00 1.814965e+00 -1.354603e+00 -1.214597e+00 -3.619693e+00 -1.745245e+00 -2.328490e+00 2.178084e-01 1.012948e+00 -1.163691e+00 3.570258e-03 -2.323398e+00 4.328542e+01 -3.300163e-01 -5.139189e-01 -5.609246e-01 -1.963483e-01 -2.785981e-02 -2.494501e-01 1.980499e-02 2.501780e-01 7.119085e-02 -1.142505e-01 8.764370e-02 1.329034e-01 -1.483942e-01 3.842471e-02 4.427096e-02 2.506410e-01 -1.022723e-01 -7.371839e-02 -1.330760e-01 -1.239563e-01 -2.137964e-02 -1.974074e-01 5.163982e-02 -3.809687e-02 8.804004e-02 2.661237e-01
<VARIANCE> 39
 1.366747e+01 1.355050e+01 2.317303e+01 2.065809e+01 2.280932e+01 2.766910e+01 2.821238e+01 2.460233e+01 2.140625e+01 1.783803e+01 1.782545e+01 1.108263e+01 1.151558e+01 7.062013e-01 8.174897e-01 1.437131e+00 1.362033e+00 1.627075e+00 2.045968e+00 2.051114e+00 1.981910e+00 1.588836e+00 1.539662e+00 1.211066e+00 1.015682e+00 9.775850e-01 1.401984e-01 1.708700e-01 2.703912e-01 2.785992e-01 3.144957e-01 4.351028e-01 3.997732e-01 3.658555e-01 3.337630e-01 2.867405e-01 2.400635e-01 2.171676e-01 1.921329e-01
<GCONST> 9.636213e+01
<TRANSP> 5
 0.000000e+00 1.000000e+00 0.000000e+00 0.000000e+00 0.000000e+00
 0.000000e+00 8.154617e-01 1.845383e-01 0.000000e+00 0.000000e+00
 0.000000e+00 0.000000e+00 5.128460e-01 4.871540e-01 0.000000e+00
 0.000000e+00 0.000000e+00 0.000000e+00 6.501963e-01 3.498038e-01
 0.000000e+00 0.000000e+00 0.000000e+00 0.000000e+00 0.000000e+00
<ENDHMM>
~h "j"
<BEGINHMM>
<NUMSTATES> 5
<STATE> 2
<MEAN> 39
 -2.249880e+00 4.866100e+00 1.459701e+01 -6.383184e+00 -1.331453e+01 -2.171304e+00 -6.959608e+00 -2.008984e+00 -6.783509e+00 1.773716e-01 1.051769e+00 -3.097605e+00 5.331504e+01 2.742234e-01 -2.488324e-02 1.243548e-01 -4.833793e-01 -6.513023e-01 1.028998e+00 8.774430e-02 -3.291909e-01 8.597291e-02 7.772715e-01 -1.765661e-02 -6.843168e-01 -4.193377e-01 -7.630740e-02 1.998761e-01 -5.353347e-01 1.289884e-01 5.412592e-01 -1.518734e-01 2.662145e-01 -1.720027e-02 2.218230e-01 1.026066e-01 -1.329438e-01 5.374270e-02 -1.315867e-01
<VARIANCE> 39
 6.299191e+00 7.738012e+00 1.868444e+01 3.761564e+01 2.588307e+01 2.050794e+01 2.115140e+01 1.960919e+01 2.773184e+01 1.406210e+01 1.527576e+01 1.103215e+01 4.762598e+00 4.090876e-01 6.586816e-01 1.029269e+00 1.135016e+00 1.858896e+00 1.522792e+00 2.544767e+00 1.276678e+00 1.416848e+00 1.340754e+00 9.040830e-01 1.102262e+00 4.634559e-01 1.415126e-01 1.015982e-01 2.960010e-01 2.790173e-01 4.656995e-01 2.378148e-01 4.267530e-01 2.428239e-01 2.808805e-01 2.862892e-01 1.634432e-01 1.931639e-01 4.573556e-02
<GCONST> 8.774266e+01
<STATE> 3
<MEAN> 39
 1.438563e+00 6.133785e+00 8.691787e+00 -5.799104e+00 -9.949441e+00 -3.530057e-01 -3.893572e+00 -3.956966e+00 -4.409966e+00 5.642610e+00 -2.026612e+00 -4.245649e+00 5.006391e+01 8.525231e-01 2.484716e-01 -2.151350e+00 1.194751e+00 1.354025e+00 -2.275916e-01 3.121791e-01 -3.033619e-01 9.348406e-01 -2.906464e-01 -2.936179e-01 7.110959e-02 -7.748798e-01 -2.147218e-02 -6.661788e-02 1.744874e-03 3.105551e-01 -3.299864e-02 -1.758493e-01 -2.063198e-01 -1.962261e-02 1.189463e-01 -4.033854e-01 1.744751e-01 2.487939e-01 1.042646e-01
<VARIANCE> 39
 1.479550e+01 6.935045e+00 3.137312e+01 2.899122e+01 2.817406e+01 3.559135e+01 2.017055e+01 2.863098e+01 4.125422e+01 2.287444e+01 2.872691e+01 1.765449e+01 5.359958e+00 6.013330e-01 8.569660e-01 2.222630e+00 1.944005e+00 2.544629e+00 2.678591e+00 2.014245e+00 2.337407e+00 1.791921e+00 2.683622e+00 1.347557e+00 1.213039e+00 4.008147e-01 1.224963e-01 1.326368e-01 5.163089e-01 3.193161e-01 4.995988e-01 5.269763e-01 3.735503e-01 3.779246e-01 2.546056e-01 4.548750e-01 2.461480e-01 2.191762e-01 7.639879e-02
<GCONST> 9.970249e+01
<STATE> 4
<MEAN> 39
 2.587281e+00 7.171251e+00 2.518736e+00 5.478874e-01 -5.906187e+00 -1.046863e+00 -4.784585e+00 -5.486901e+00 8.504778e-03 -5.263194e-03 6.023794e-03 -1.855585e+00 4.728986e+01 -2.366755e-01 2.749003e-04 -3.133222e-02 5.464731e-01 4.295153e-01 2.019981e-01 1.597311e-01 5.467096e-02 2.297169e-01 -3.030299e-01 1.602942e-01 2.888930e-01 -3.632852e-01 -1.582234e-01 -5.782118e-02 1.580752e-01 -1.566073e-01 9.099351e-03 6.178141e-02 1.415967e-01 1.239982e-01 -1.493718e-01 1.409774e-01 -5.026464e-02 -7.576462e-02 -1.747088e-02
<VARIANCE> 39
 1.136526e+01 6.045197e+00 1.440939e+01 1.681313e+01 1.362891e+01 2.066378e+01 1.968358e+01 2.429649e+01 1.386108e+01 1.469305e+01 1.679805e+01 1.541931e+01 5.217973e+00 3.570311e-01 5.789104e-01 8.082984e-01 1.135956e+00 1.241863e+00 1.782235e+00 1.368996e+00 1.365400e+00 1.080649e+00 1.474299e+00 1.222656e+00 9.407507e-01 2.475315e-01 7.445141e-02 1.314964e-01 2.856914e-01 2.082116e-01 2.600698e-01 3.706487e-01 2.531580e-01 2.728471e-01 2.009608e-01 2.733945e-01 2.387148e-01 1.818648e-01 3.528430e-02
<GCONST> 8.285770e+01
<TRANSP> 5
 0.000000e+00 1.000000e+00 0.000000e+00 0.000000e+00 0.000000e+00
 0.000000e+00 8.037800e-01 1.962200e-01 0.000000e+00 0.000000e+00
 0.000000e+00 0.000000e+00 7.967202e-01 2.032798e-01 0.000000e+00
 0.000000e+00 0.000000e+00 0.000000e+00 8.579497e-01 1.420503e-01
 0.000000e+00 0.000000e+00 0.000000e+00 0.000000e+00 0.000000e+00
<ENDHMM>
~h "k"
<BEGINHMM>
<NUMSTATES> 5
<STATE> 2
<MEAN> 39
 -3.924646e+00 -2.187683e-01 -7.884556e+00 -4.000790e+00 -2.992448e+00 -2.357033e+00 -2.713211e+00 4.677350e-01 4.954255e-01 -4.300379e-01 -4.334682e-01 -1.405714e+00 4.359063e+01 -3.483875e-01 -7.441155e-01 -7.788656e-01 -4.427400e-01 8.700882e-01 -7.139208e-02 -6.077850e-01 2.021496e-01 -2.486536e-02 9.191047e-01 -5.149695e-01 -2.045266e-02 1.148255e+00 3.734736e-01 1.568567e-01 1.601741e-01 -2.351281e-01 6.674428e-02 2.054263e-01 -2.399778e-01 -5.212617e-02 -2.526418e-01 1.512883e-01 -3.923563e-02 5.753200e-03 4.200836e-01
<VARIANCE> 39
 1.376992e+01 2.060048e+01 2.346113e+01 2.904879e+01 2.256782e+01 2.310869e+01 3.208406e+01 2.546107e+01 2.412097e+01 2.814209e+01 1.815662e+01 1.251395e+01 2.890572e+01 1.119991e+00 1.577715e+00 2.421676e+00 3.874234e+00 2.548249e+00 3.051055e+00 3.394206e+00 3.536338e+00 3.947712e+00 3.207918e+00 1.937994e+00 1.592737e+00 3.643668e+00 2.089226e-01 2.910798e-01 6.485001e-01 7.821034e-01 5.690907e-01 4.827350e-01 5.901845e-01 6.690924e-01 5.691782e-01 5.405605e-01 3.590393e-01 2.787820e-01 5.192239e-01
<GCONST> 1.145891e+02
<STATE> 3
<MEAN> 39
 -1.712621e+00 1.169096e+00 -7.462335e+00 -6.355545e+00 2.251639e-01 7.726381e-01 -5.450026e+00 -8.817862e-01 -3.322598e+00 2.128557e+00 -1.092436e+00 -4.743995e-01 4.858986e+01 2.240419e+00 1.005429e+00 1.688282e+00 -7.103570e-01 -7.512625e-01 7.402900e-01 -1.540055e+00 -6.987856e-01 -7.402189e-01 2.917567e-01 3.927608e-01 -1.376634e-01 1.741255e+00 3.140950e-01 -9.215206e-02 2.503154e-01 -1.731229e-01 -6.428359e-01 -1.084683e-01 -2.386758e-01 -5.998127e-03 3.172369e-01 -1.009236e-01 1.349611e-01 -2.441093e-01 4.300429e-02
<VARIANCE> 39
 3.211964e+01 2.825286e+01 3.042287e+01 3.573634e+01 3.007295e+01 3.988804e+01 3.893336e+01 3.842170e+01 4.086347e+01 4.271284e+01 2.785577e+01 1.388656e+01 1.775834e+01 1.346167e+00 1.686932e+00 2.230609e+00 3.719658e+00 2.526588e+00 2.262210e+00 3.793745e+00 4.055050e+00 2.737655e+00 2.441148e+00 1.899530e+00 1.243482e+00 2.196697e+00 5.383009e-01 4.930676e-01 8.215279e-01 8.249208e-01 5.076436e-01 5.773844e-01 7.224541e-01 6.297593e-01 5.984980e-01 6.851563e-01 4.385557e-01 2.155934e-01 2.802858e-01
<GCONST> 1.188854e+02
<STATE> 4
<MEAN> 39
 4.274347e+00 2.690587e+00 -1.408376e-01 -7.131715e+00 -5.175817e+00 -8.944966e-01 -1.367788e+01 -4.003607e+00 -2.430151e+00 2.795415e+00 5.645365e-02 -1.034861e+00 5.317749e+01 -2.055471e-01 -1.897672e-01 9.427520e-01 8.248876e-01 -3.925291e-01 -9.148024e-01 5.501384e-02 5.744030e-01 9.674981e-01 -2.096255e-01 -3.716844e-01 -1.815680e-01 -1.153307e-01 -4.763767e-01 -1.832380e-02 -4.489850e-01 2.049214e-01 2.497237e-01 6.452880e-02 7.727925e-01 2.049814e-01 1.349713e-02 -2.665488e-01 -1.207625e-02 3.020696e-02 -6.127742e-01
<VARIANCE> 39
 1.164546e+01 1.640677e+01 2.886835e+01 3.333898e+01 2.214824e+01 4.654044e+01 3.286475e+01 5.134537e+01 3.292897e+01 3.014790e+01 2.063709e+01 1.478234e+01 1.229767e+01 3.023839e+00 1.974508e+00 2.962694e+00 5.272761e+00 2.544582e+00 3.267507e+00 6.314423e+00 2.944724e+00 2.600859e+00 3.660300e+00 1.587582e+00 1.543101e+00 3.755950e+00 2.317525e-01 4.664254e-01 5.875912e-01 7.674329e-01 3.482896e-01 7.201205e-01 7.036636e-01 7.345468e-01 5.153175e-01 6.188304e-01 4.098852e-01 2.424438e-01 2.033595e-01
<GCONST> 1.172391e+02
<TRANSP> 5
 0.000000e+00 1.000000e+00 0.000000e+00 0.000000e+00 0.000000e+00
 0.000000e+00 7.708663e-01 2.291337e-01 0.000000e+00 0.000000e+00
 0.000000e+00 0.000000e+00 6.291319e-01 3.708681e-01 0.000000e+00
 0.000000e+00 0.000000e+00 0.000000e+00 7.135858e-01 2.864142e-01
 0.000000e+00 0.000000e+00 0.000000e+00 0.000000e+00 0.000000e+00
<ENDHMM>
~h "l"
<BEGINHMM>
<NUMSTATES> 5
<STATE> 2
<MEAN> 39
 -5.768836e+00 -2.083871e+00 -3.657641e+00 -2.297927e+00 -3.906604e+00 -5.320181e+00 -3.650988e+00 -1.023957e+00 6.993483e-01 -1.270609e+00 -2.203419e+00 -3.334491e-01 4.406499e+01 -8.599605e-02 -2.098513e-01 3.111643e-01 -6.382811e-02 -1.427485e-01 -2.270131e-01 -1.709506e-03 1.114201e-01 1.219049e-01 5.871048e-02 -6.440748e-02 7.014406e-02 2.592270e-01 3.313981e-02 6.410232e-02 5.316390e-02 -5.963304e-02 -1.661416e-02 1.440800e-01 6.119123e-02 3.274504e-02 -2.188855e-02 2.876556e-03 1.630059e-02 1.008545e-02 -1.047475e-02
<VARIANCE> 39
 4.246158e+01 1.935889e+01 2.359459e+01 2.500245e+01 2.621929e+01 3.449408e+01 3.873860e+01 3.078480e+01 2.712773e+01 2.765530e+01 1.735689e+01 1.323710e+01 5.327801e+01 1.396246e+00 1.236844e+00 1.481480e+00 1.538441e+00 2.143606e+00 3.299843e+00 2.626211e+00 2.415423e+00 2.041668e+00 2.069905e+00 1.382339e+00 1.265565e+00 1.445485e+00 2.606142e-01 2.324531e-01 2.609937e-01 3.791484e-01 4.502961e-01 5.706073e-01 4.962882e-01 4.345486e-01 4.385784e-01 4.080222e-01 2.649894e-01 2.274958e-01 2.138356e-01
<GCONST> 1.081543e+02
<STATE> 3
<MEAN> 39
 -6.402513e+00 -4.929453e-01 -5.518063e+00 -9.796214e-01 -3.161159e+00 -6.358886e-01 -1.316197e+00 -1.986442e-01 1.702029e+00 -1.728540e+00 8.989276e-01 -2.405055e+00 4.091603e+01 -3.517049e-02 5.887594e-03 1.624710e-01 6.648350e-02 -1.336842e-02 1.244811e-01 5.094093e-02 -1.234934e-02 -5.647055e-02 3.403408e-02 -3.837832e-02 9.204358e-03 -4.329713e-02 8.500455e-02 9.774446e-02 8.162549e-02 -3.508502e-02 2.010455e-02 1.374269e-02 -6.611080e-02 -5.277798e-03 -4.822191e-02 1.392355e-02 -3.965487e-02 2.994944e-02 7.842919e-02
<VARIANCE> 39
 1.394598e+01 9.713789e+00 9.801897e+00 1.698840e+01 1.974072e+01 2.078059e+01 2.342614e+01 1.972374e+01 1.908387e+01 1.732842e+01 1.437876e+01 1.279989e+01 1.341758e+01 3.404093e-01 4.190387e-01 7.996523e-01 1.168480e+00 1.529491e+00 1.530921e+00 1.424761e+00 1.573960e+00 1.723224e+00 1.494355e+00 1.118195e+00 9.684352e-01 1.676009e-01 7.995999e-02 1.077556e-01 1.544768e-01 2.748933e-01 3.186492e-01 3.393854e-01 2.945570e-01 3.148780e-01 3.369596e-01 2.679349e-01 2.210082e-01 1.856586e-01 4.623935e-02
<GCONST> 8.516142e+01
<STATE> 4
<MEAN> 39
 -4.247116e+00 -9.324349e-01 -2.429064e+00 -9.711937e-01 -3.055510e+00 -2.833951e+00 -3.415759e+00 1.811692e-02 2.590992e-01 -1.138944e+00 -1.545469e+00 -5.405412e-01 4.094976e+01 4.159746e-01 4.389638e-01 5.892541e-01 -1.662203e-01 -3.385830e-02 3.412848e-02 -3.456790e-01 2.018037e-02 -4.096054e-02 1.619122e-01 -1.259398e-01 2.517331e-02 3.465412e-01 1.556649e-01 8.447521e-02 9.411692e-02 -1.178526e-01 -7.432975e-02 -1.108113e-01 -1.785032e-01 5.568057e-03 -4.556542e-02 1.838074e-02 5.336656e-03 1.455287e-02 1.991544e-01
<VARIANCE> 39
 1.908040e+01 1.981161e+01 1.810704e+01 1.895071e+01 2.981274e+01 3.446236e+01 2.365522e+01 2.582882e+01 2.133528e+01 2.029531e+01 1.587220e+01 1.499008e+01 2.007018e+01 9.749636e-01 1.299032e+00 1.760495e+00 1.697698e+00 1.652507e+00 2.160038e+00 2.063919e+00 1.771261e+00 1.994959e+00 1.826248e+00 1.340344e+00 1.158862e+00 7.804735e-01 1.737170e-01 1.930235e-01 2.486685e-01 3.056858e-01 2.858600e-01 4.530752e-01 4.237626e-01 2.996255e-01 4.079542e-01 3.860026e-01 2.678563e-01 2.124403e-01 1.306436e-01
<GCONST> 9.989732e+01
<TRANSP> 5
 0.000000e+00 1.000000e+00 0.000000e+00 0.000000e+00 0.000000e+00
 0.000000e+00 7.400818e-01 2.599182e-01 0.000000e+00 0.000000e+00
 0.000000e+00 0.000000e+00 7.861298e-01 2.138702e-01 0.000000e+00
 0.000000e+00 0.000000e+00 0.000000e+00 7.977192e-01 2.022808e-01
 0.000000e+00 0.000000e+00 0.000000e+00 0.000000e+00 0.000000e+00
<ENDHMM>
~h "m"
<BEGINHMM>
<NUMSTATES> 5
<STATE> 2
<MEAN> 39
 3.909728e+00 3.228630e+00 -1.969903e+00 -3.221683e+00 -1.643313e+00 2.417982e+00 -6.931295e+00 -3.005124e+00 -2.227200e+00 6.630565e-01 1.603426e+00 -2.746924e+00 4.935738e+01 -6.444516e-01 1.206558e+00 1.974653e+00 2.166591e+00 6.098200e-01 -6.548045e-01 6.468858e-01 -9.845994e-01 -1.087094e+00 -4.753608e-01 5.689754e-02 1.298452e-01 -1.016885e+00 -9.342936e-02 -4.387870e-01 -1.967011e-01 -3.826547e-01 -3.960943e-02 -8.873222e-03 -1.571343e-01 4.938908e-01 3.492211e-01 1.426398e-01 -2.844716e-01 -1.554849e-01 4.462071e-01
<VARIANCE> 39
 1.030063e+01 9.602342e+00 1.928458e+01 2.165830e+01 2.022917e+01 2.260034e+01 1.816112e+01 2.052950e+01 2.731900e+01 2.369672e+01 2.981900e+01 9.948110e+00 8.010036e+00 3.998922e-01 8.952089e-01 9.144046e-01 1.621800e+00 2.332040e+00 1.373785e+00 1.852868e+00 2.281879e+00 1.590173e+00 2.480933e+00 1.520931e+00 1.168370e+00 5.979432e-01 1.120790e-01 7.842757e-02 3.060153e-01 3.622873e-01 2.768976e-01 2.990332e-01 3.197814e-01 3.660447e-01 2.718859e-01 3.497603e-01 2.793213e-01 2.027364e-01 5.522259e-02
<GCONST> 9.231400e+01
<STATE> 3
<MEAN> 39
 3.156805e+00 4.763465e+00 6.452945e-01 -9.722028e-01 -1.414907e+00 1.027689e+00 -7.058059e+00 -3.521086e+00 -2.542770e+00 2.819363e-01 1.923921e+00 -3.415458e+00 4.894616e+01 -9.304100e-02 5.480771e-01 1.887397e-01 3.451096e-01 -1.399448e-01 -3.936139e-01 3.762075e-01 1.460954e-01 1.212199e-01 -2.885424e-01 -8.060276e-02 -9.426083e-02 -3.870870e-01 9.723186e-03 -7.825457e-02 -1.972312e-01 -1.451203e-01 -3.700122e-02 1.066807e-02 7.832050e-02 1.633868e-01 8.652317e-02 -6.833381e-02 -9.067728e-02 3.115378e-02 -3.773367e-03
<VARIANCE> 39
 8.246032e+00 8.840198e+00 1.240856e+01 1.246479e+01 2.210340e+01 2.591808e+01 1.461364e+01 1.927626e+01 1.895482e+01 2.514840e+01 3.364615e+01 1.152789e+01 6.645065e+00 2.366899e-01 4.152415e-01 6.048923e-01 6.941966e-01 1.066120e+00 1.099431e+00 1.040416e+00 1.208357e+00 1.030553e+00 1.017835e+00 9.555577e-01 7.496215e-01 2.434181e-01 5.305163e-02 7.999803e-02 1.623042e-01 1.849139e-01 2.409205e-01 1.953880e-01 2.092891e-01 2.477388e-01 2.112671e-01 2.179934e-01 1.690948e-01 1.416132e-01 4.778946e-02
<GCONST> 7.768700e+01
<STATE> 4
<MEAN> 39
 -1.696193e+00 4.486563e+00 -5.516347e-01 1.202533e+00 -1.617597e-01 3.002578e-01 -2.151295e+00 -3.919726e-01 -3.252132e-01 -1.708908e+00 4.896046e-01 -2.300790e+00 4.488680e+01 -4.522179e-01 -2.407088e-01 -2.341524e-01 6.475434e-02 -6.925628e-02 -1.687182e-01 3.117094e-01 2.486910e-01 2.227549e-01 -3.770893e-02 3.636219e-02 1.073297e-02 -3.572961e-01 -2.563618e-02 -1.129651e-01 -3.731669e-02 -8.851419e-02 -9.318408e-02 -2.233763e-02 -1.122459e-01 -5.261688e-02 -1.745582e-02 5.082582e-02 2.747141e-02 6.010291e-04 4.451168e-02
<VARIANCE> 39
 1.744266e+01 1.118803e+01 1.124429e+01 1.268332e+01 2.189719e+01 2.114140e+01 1.956093e+01 1.862233e+01 1.911878e+01 1.627478e+01 2.305625e+01 1.188931e+01 8.493721e+00 3.783869e-01 6.728064e-01 1.001738e+00 1.134061e+00 1.424333e+00 1.401495e+00 1.361571e+00 1.478072e+00 1.197319e+00 1.235229e+00 1.422745e+00 9.876449e-01 2.027056e-01 6.843165e-02 1.326941e-01 2.318028e-01 2.288851e-01 3.036137e-01 2.657216e-01 2.703342e-01 2.925594e-01 2.384381e-01 2.217423e-01 2.495172e-01 2.113255e-01 4.254886e-02
<GCONST> 8.499321e+01
<TRANSP> 5
 0.000000e+00 1.000000e+00 0.000000e+00 0.000000e+00 0.000000e+00
 0.000000e+00 6.221436e-01 3.778564e-01 0.000000e+00 0.000000e+00
 0.000000e+00 0.000000e+00 7.942787e-01 2.057213e-01 0.000000e+00
 0.000000e+00 0.000000e+00 0.000000e+00 8.401448e-01 1.598552e-01
 0.000000e+00 0.000000e+00 0.000000e+00 0.000000e+00 0.000000e+00
<ENDHMM>
~h "n"
<BEGINHMM>
<NUMSTATES> 5
<STATE> 2
<MEAN> 39
 2.463494e+00 2.520344e+00 1.003131e+00 -3.115253e+00 -4.077697e+00 -4.916814e+00 -7.197702e+00 5.327764e+00 -2.094358e-01 -4.421529e+00 -1.606378e+00 2.169746e+00 5.374212e+01 3.157815e-01 1.429409e+00 9.060365e-01 6.439586e-01 -2.090133e-01 6.573446e-01 6.672012e-01 -1.964260e+00 -1.231030e-03 -1.376955e-01 7.998941e-01 -1.731745e-01 -1.281792e+00 1.724670e-02 -1.328469e-01 -1.767803e-01 -1.825731e-01 5.666550e-02 3.293103e-01 -7.625345e-02 -1.033849e-01 2.376652e-01 2.251417e-01 -1.467351e-01 -2.738929e-01 2.346661e-02
<VARIANCE> 39
 5.540347e+00 1.583528e+01 1.292650e+01 3.073370e+01 2.333136e+01 4.010063e+01 3.112498e+01 7.096222e+01 3.353218e+01 2.044277e+01 2.626203e+01 1.273971e+01 1.254764e+01 3.293159e-01 9.421787e-01 1.459834e+00 1.893412e+00 1.522739e+00 5.115287e+00 2.860440e+00 4.329451e+00 3.358930e+00 1.717400e+00 1.451022e+00 1.600372e+00 5.210723e-01 6.274168e-02 1.723922e-01 2.052937e-01 2.806617e-01 3.202805e-01 1.076132e+00 4.252630e-01 1.103075e+00 5.621843e-01 2.284725e-01 1.950338e-01 2.497564e-01 1.166813e-01
<GCONST> 1.014835e+02
<STATE> 3
<MEAN> 39
 -5.723132e-01 8.609396e+00 3.129528e+00 -1.894121e+00 -2.798577e+00 -2.789005e+00 -3.941453e+00 -6.060883e-01 9.303285e-02 -1.935110e+00 -1.225090e+00 -8.719608e-01 4.924766e+01 -1.344290e+00 4.121388e-01 2.102177e-01 2.165946e-02 4.356089e-01 -6.865035e-01 1.532843e-01 1.645954e-01 -4.903587e-01 1.955348e-01 -6.576639e-02 5.242354e-02 3.047187e-01 -4.863260e-02 -9.489390e-02 1.071600e-01 -6.278173e-02 -1.556046e-01 -1.513534e-01 -8.218224e-02 5.319149e-02 -1.076780e-01 -3.372644e-02 4.263015e-02 8.113463e-02 1.968147e-01
<VARIANCE> 39
 4.326271e+01 1.478653e+01 1.619712e+01 1.466277e+01 3.386054e+01 2.202707e+01 2.324236e+01 3.142270e+01 2.717276e+01 1.342889e+01 2.326148e+01 1.249874e+01 9.003695e+00 3.123688e+00 1.417948e+00 1.470836e+00 1.348675e+00 1.986314e+00 2.573793e+00 2.221661e+00 2.465170e+00 2.426420e+00 1.287617e+00 1.627363e+00 1.057926e+00 1.291049e+00 7.739196e-01 2.991809e-01 3.006026e-01 2.519332e-01 5.025048e-01 4.234050e-01 3.688565e-01 5.275117e-01 4.072945e-01 2.470035e-01 3.234165e-01 2.141591e-01 1.806016e-01
<GCONST> 1.041234e+02
<STATE> 4
<MEAN> 39
 -6.411746e+00 8.064895e+00 9.915952e+00 -3.899005e+00 -6.356788e+00 -8.784853e+00 -5.461667e+00 -1.071646e+00 -4.641005e+00 -6.121461e-01 1.438576e-01 1.308994e+00 5.548755e+01 1.505957e+00 -9.759741e-01 1.728851e+00 -6.291051e-01 -2.141561e+00 4.966299e-01 -5.140852e-01 -4.526210e-01 -5.404041e-01 1.596160e-01 2.788019e-01 -3.086160e-01 2.438196e-01 2.641999e-01 -1.206466e-01 -4.806414e-02 -4.740210e-02 -5.745320e-02 4.904090e-01 2.404131e-02 3.191669e-02 -1.778318e-03 4.311690e-02 -7.237200e-02 -2.101007e-01 -2.825065e-01
<VARIANCE> 39
 2.006398e+01 1.915786e+01 1.980895e+01 2.980353e+01 4.110201e+01 2.441758e+01 1.984033e+01 2.409695e+01 2.369275e+01 1.852685e+01 1.132137e+01 8.387802e+00 7.692158e+00 1.166372e+00 1.283890e+00 1.241503e+00 1.434716e+00 2.430978e+00 2.331403e+00 1.477436e+00 1.328937e+00 1.414154e+00 1.337263e+00 1.127119e+00 8.922451e-01 4.248626e-01 5.796968e-01 3.394350e-01 2.631665e-01 1.961271e-01 4.272849e-01 4.489522e-01 3.129638e-01 2.413012e-01 2.779769e-01 2.317522e-01 2.316021e-01 1.506424e-01 5.909127e-02
<GCONST> 9.519541e+01
<TRANSP> 5
 0.000000e+00 1.000000e+00 0.000000e+00 0.000000e+00 0.000000e+00
 0.000000e+00 8.342894e-01 1.657106e-01 0.000000e+00 0.000000e+00
 0.000000e+00 0.000000e+00 8.998394e-01 1.001606e-01 0.000000e+00
 0.000000e+00 0.000000e+00 0.000000e+00 7.882972e-01 2.117027e-01
 0.000000e+00 0.000000e+00 0.000000e+00 0.000000e+00 0.000000e+00
<ENDHMM>
~h "p"
<BEGINHMM>
<NUMSTATES> 5
<STATE> 2
<MEAN> 39
 -2.137590e+00 1.311919e+00 -8.728526e+00 -5.325693e+00 -2.676606e+00 1.748081e-01 -8.342544e-01 1.572714e+00 2.348733e+00 -1.061087e+00 -5.087538e-01 -4.112990e+00 4.266984e+01 -1.141923e+00 -3.853765e-01 -2.082926e-01 6.924169e-02 -3.965129e-01 -4.020345e-01 6.156343e-01 4.715614e-01 9.518217e-02 -2.552290e-01 -1.690542e-01 9.253707e-02 -7.328085e-01 2.805909e-01 -1.454445e-01 5.951662e-02 -2.299630e-01 6.869029e-03 1.034194e-01 -2.944431e-01 -1.099616e-01 -7.480042e-02 2.082638e-01 3.261152e-02 1.132224e-01 4.962456e-01
<VARIANCE> 39
 2.177217e+01 1.087722e+01 1.298143e+01 1.951726e+01 1.891998e+01 1.714643e+01 1.802628e+01 2.310008e+01 1.867312e+01 2.219767e+01 1.499776e+01 1.107798e+01 5.053216e+00 6.038768e-01 6.235832e-01 1.022034e+00 1.392963e+00 1.379177e+00 1.393098e+00 1.783362e+00 2.427297e+00 1.857057e+00 1.365915e+00 1.030041e+00 1.030604e+00 3.588842e-01 1.318967e-01 2.175569e-01 2.798981e-01 4.036629e-01 3.149611e-01 2.917033e-01 3.777383e-01 5.720897e-01 4.373224e-01 3.163207e-01 1.973659e-01 2.293218e-01 1.140804e-01
<GCONST> 9.181852e+01
<STATE> 3
<MEAN> 39
 -5.722209e+00 6.542124e-01 -7.089904e+00 -2.895356e+00 -3.613813e+00 -2.202017e-01 3.790919e-01 1.196575e+00 2.507801e+00 -2.339164e+00 6.407728e-01 -3.011552e+00 4.184892e+01 -2.978356e-01 -1.188321e-01 3.985523e-01 4.090120e-01 1.532481e-01 -1.524090e-01 -1.368040e-01 -5.232191e-02 -9.365772e-02 1.129128e-01 -3.149751e-02 2.847460e-01 1.888498e-01 1.890811e-01 -4.316252e-02 2.004178e-01 -2.968351e-02 2.271736e-02 1.739376e-02 -2.075471e-01 -4.034302e-02 -1.322872e-01 1.330775e-01 4.014230e-03 -3.397101e-02 3.660564e-01
<VARIANCE> 39
 9.731705e+00 8.485321e+00 1.141272e+01 2.142355e+01 1.543198e+01 1.518199e+01 1.904366e+01 1.949942e+01 1.668373e+01 1.570785e+01 1.204766e+01 9.871095e+00 4.418335e+00 3.431474e-01 5.520692e-01 6.239474e-01 1.100252e+00 1.269398e+00 1.386141e+00 1.560694e+00 1.788031e+00 1.412380e+00 1.218860e+00 1.145632e+00 1.035549e+00 4.081716e-01 1.389879e-01 1.221302e-01 2.626248e-01 2.931944e-01 2.849593e-01 2.923666e-01 3.731976e-01 3.609992e-01 3.134798e-01 2.561428e-01 2.231206e-01 2.022086e-01 1.288321e-01
<GCONST> 8.536670e+01
<STATE> 4
<MEAN> 39
 -5.698706e+00 -5.439110e-01 -4.903023e+00 -2.309438e+00 -2.652305e+00 -1.745896e+00 -1.476899e+00 1.627143e+00 6.485543e-01 -2.789554e-01 -4.654260e-01 -1.869373e+00 4.528064e+01 1.470937e+00 -3.030171e-01 1.587694e+00 -8.599870e-01 -8.476940e-01 2.474604e-01 -1.510131e+00 -3.326374e-01 -1.076192e+00 9.303470e-01 2.288989e-01 -1.340340e-01 2.615710e+00 7.166103e-01 -2.204593e-02 3.212205e-02 -8.268538e-01 -3.633832e-01 3.281794e-01 -4.606970e-01 -8.262377e-02 -1.142752e-01 2.456900e-01 2.253872e-02 -2.825043e-01 6.477638e-01
<VARIANCE> 39
 1.769179e+01 1.513101e+01 2.256982e+01 2.383290e+01 1.747916e+01 2.395118e+01 2.115111e+01 2.011372e+01 1.691704e+01 1.799085e+01 1.438899e+01 1.230092e+01 1.518419e+01 3.715316e+00 1.495658e+00 6.789125e+00 4.526217e+00 3.325186e+00 2.744101e+00 3.082345e+00 2.263935e+00 2.707947e+00 2.199457e+00 1.315862e+00 1.298633e+00 1.835815e+00 3.080428e-01 3.733260e-01 7.494714e-01 3.852661e-01 4.736119e-01 4.084855e-01 4.509370e-01 4.457441e-01 4.733074e-01 3.244005e-01 2.836734e-01 2.159442e-01 2.846989e-01
<GCONST> 1.089062e+02
<TRANSP> 5
 0.000000e+00 1.000000e+00 0.000000e+00 0.000000e+00 0.000000e+00
 0.000000e+00 7.126165e-01 2.873836e-01 0.000000e+00 0.000000e+00
 0.000000e+00 0.000000e+00 7.623914e-01 2.376086e-01 0.000000e+00
 0.000000e+00 0.000000e+00 0.000000e+00 6.628003e-01 3.371997e-01
 0.000000e+00 0.000000e+00 0.000000e+00 0.000000e+00 0.000000e+00
<ENDHMM>
~h "r"
<BEGINHMM>
<NUMSTATES> 5
<STATE> 2
<MEAN> 39
 5.478809e+00 5.677510e+00 -3.766229e+00 -1.355922e+01 -7.737959e+00 1.489525e+00 -9.683527e+00 -2.897613e+00 -5.813241e+00 -5.174548e-01 1.863954e+00 2.121478e+00 5.206602e+01 -3.036127e-02 -6.462315e-01 -5.420411e-01 -3.909924e-01 5.176566e-01 1.669740e-01 -5.119050e-01 1.512714e-01 2.432602e-01 9.286341e-01 1.827544e-01 -2.664787e-01 4.667726e-01 -8.516818e-02 -1.815473e-01 -8.483385e-02 1.663025e-02 1.752961e-01 -7.976511e-03 -3.512748e-02 9.996567e-02 1.933252e-01 2.381701e-01 -7.456858e-02 -1.643360e-01 6.703916e-02
<VARIANCE> 39
 8.509765e+00 1.636674e+01 1.321688e+01 4.475217e+01 2.139993e+01 3.166203e+01 3.149845e+01 3.453113e+01 3.998298e+01 2.224869e+01 1.434755e+01 1.520755e+01 8.181006e+00 3.579794e-01 7.402973e-01 7.635266e-01 1.937369e+00 1.691162e+00 1.282884e+00 1.676997e+00 2.037428e+00 1.778245e+00 1.822200e+00 1.047039e+00 1.225725e+00 3.706130e-01 5.189170e-02 7.146893e-02 1.314478e-01 2.939765e-01 2.680544e-01 2.679614e-01 3.081869e-01 3.218099e-01 3.006499e-01 2.313679e-01 2.230320e-01 1.968051e-01 5.089593e-02
<GCONST> 8.971953e+01
<STATE> 3
<MEAN> 39
 3.993822e+00 -2.717345e+00 -9.218195e+00 -1.396740e+01 -2.073588e+00 6.834618e-01 -1.203402e+01 4.399436e+00 4.238066e-01 7.892735e+00 -2.464528e+00 -3.131440e+00 5.775393e+01 -1.334475e-01 -6.317028e-01 -1.847305e-01 2.879510e-01 1.437850e-01 -2.342257e-01 1.010821e-01 7.821753e-01 8.806191e-01 -6.879672e-02 -8.540441e-01 -3.219194e-01 2.933247e-01 2.051017e-02 1.170249e-01 1.467327e-01 1.288765e-01 -1.183019e-01 1.658424e-02 1.038786e-01 -1.316181e-01 -7.447930e-02 -2.716911e-01 3.502867e-02 1.533755e-01 -1.207214e-01
<VARIANCE> 39
 7.320620e+00 1.162564e+01 1.607476e+01 6.040621e+01 1.918454e+01 2.139875e+01 2.774931e+01 4.118567e+01 4.444809e+01 3.513773e+01 3.044438e+01 1.449515e+01 1.193160e+01 4.025470e-01 6.531726e-01 1.171282e+00 2.488765e+00 1.546966e+00 1.897406e+00 2.709425e+00 2.230937e+00 2.737236e+00 3.245830e+00 1.553704e+00 1.448620e+00 6.324288e-01 8.208488e-02 1.188797e-01 2.179119e-01 3.895304e-01 2.898708e-01 3.060643e-01 5.527004e-01 4.137336e-01 5.310328e-01 5.146654e-01 2.998872e-01 2.100101e-01 1.127207e-01
<GCONST> 9.988921e+01
<STATE> 4
<MEAN> 39
 4.021912e+00 -5.723313e+00 -7.443822e+00 -9.404913e+00 -3.746773e+00 -2.346888e-01 -1.058375e+01 6.868725e+00 4.436294e+00 8.188975e-01 -4.405546e+00 -2.227377e+00 5.702027e+01 -1.276412e-01 7.254581e-02 1.077343e-01 1.245929e-01 8.495009e-02 1.095136e-01 1.582187e-01 -7.177313e-02 -9.732807e-02 -1.134042e-01 7.088429e-02 -1.249049e-02 -1.765506e-01 -2.261557e-02 3.015239e-02 -7.374492e-04 -8.462806e-03 2.443680e-02 -1.253876e-03 1.743482e-03 -1.896991e-02 -1.699889e-02 3.578030e-02 3.220299e-02 -1.802703e-02 -3.630928e-02
<VARIANCE> 39
 7.546967e+00 1.314996e+01 1.673958e+01 4.393739e+01 2.112398e+01 2.330581e+01 3.522511e+01 2.705538e+01 3.623539e+01 2.270457e+01 2.232440e+01 1.630042e+01 2.029881e+01 5.259789e-01 6.325453e-01 9.018374e-01 1.853820e+00 1.257827e+00 1.086456e+00 1.907624e+00 1.549917e+00 1.578602e+00 9.756097e-01 1.087177e+00 7.642135e-01 7.956106e-01 9.941719e-02 1.123596e-01 1.569696e-01 2.697866e-01 2.156849e-01 1.854796e-01 3.747697e-01 2.814198e-01 2.923910e-01 1.619969e-01 1.786022e-01 1.215769e-01 1.306558e-01
<GCONST> 9.034258e+01
<TRANSP> 5
 0.000000e+00 1.000000e+00 0.000000e+00 0.000000e+00 0.000000e+00
 0.000000e+00 8.296868e-01 1.703133e-01 0.000000e+00 0.000000e+00
 0.000000e+00 0.000000e+00 8.570109e-01 1.429891e-01 0.000000e+00
 0.000000e+00 0.000000e+00 0.000000e+00 9.428174e-01 5.718261e-02
 0.000000e+00 0.000000e+00 0.000000e+00 0.000000e+00 0.000000e+00
<ENDHMM>
~h "s"
<BEGINHMM>
<NUMSTATES> 5
<STATE> 2
<MEAN> 39
 -7.050643e+00 -1.245316e+00 -3.374791e+00 -8.086684e-01 -2.186474e+00 -1.964927e+00 -1.813079e+00 1.604558e+00 1.261975e+00 -5.974771e-01 -7.676640e-01 -6.846011e-01 4.118394e+01 -5.409104e-01 4.114376e-02 1.401417e-01 -3.089610e-01 2.016665e-01 -1.917628e-01 -3.527190e-02 2.139396e-01 -1.498923e-01 1.016533e-01 -2.581461e-02 1.402871e-01 2.965528e-01 -2.134057e-01 7.488845e-02 6.414489e-02 -1.481092e-01 6.695445e-02 -3.325690e-02 -4.813767e-02 1.023459e-01 -3.875559e-02 2.456945e-02 -4.358733e-02 4.804457e-02 1.647589e-01
<VARIANCE> 39
 1.356556e+01 1.612370e+01 1.818857e+01 1.977954e+01 2.262430e+01 2.883392e+01 2.403912e+01 2.319336e+01 1.800406e+01 1.851049e+01 1.908967e+01 1.677178e+01 1.663797e+01 1.794735e+00 1.141958e+00 1.405879e+00 1.721907e+00 1.930291e+00 2.249924e+00 1.966480e+00 2.055411e+00 2.033126e+00 1.689277e+00 1.342590e+00 1.182840e+00 9.393242e-01 2.328893e-01 1.970892e-01 2.395290e-01 2.874049e-01 3.261116e-01 3.848169e-01 3.052085e-01 2.924180e-01 3.450743e-01 3.208914e-01 2.525720e-01 2.066352e-01 1.286123e-01
<GCONST> 9.879132e+01
<STATE> 3
<MEAN> 39
 -1.362078e+01 2.010382e-01 -1.078674e+00 -6.531223e+00 -1.470101e+00 -2.328138e+00 -4.663904e+00 3.071254e+00 5.318777e-01 4.672784e-02 -1.703379e+00 4.301580e-01 4.512906e+01 -2.120131e+00 7.286022e-01 5.489465e-01 -7.101309e-01 5.401986e-01 2.110873e-01 -2.332373e-01 4.816272e-01 -3.130392e-01 1.911410e-01 -1.987484e-01 1.738940e-01 1.224516e+00 9.648141e-02 1.566167e-02 -1.744874e-01 2.085465e-01 -1.363830e-01 2.521255e-01 7.781868e-02 -1.648131e-01 2.926329e-02 -4.201613e-02 8.557419e-02 -1.009929e-01 -4.730415e-02
<VARIANCE> 39
 1.746570e+01 2.096333e+01 2.622985e+01 2.135470e+01 4.710015e+01 4.966863e+01 4.043256e+01 3.962144e+01 3.002700e+01 2.346564e+01 1.683903e+01 1.611348e+01 1.199647e+01 1.953183e+00 1.080415e+00 1.489882e+00 1.771226e+00 2.173906e+00 3.058287e+00 2.716660e+00 2.251379e+00 1.873232e+00 1.622773e+00 1.525087e+00 1.334968e+00 6.613984e-01 1.679035e-01 1.990346e-01 2.272472e-01 2.603494e-01 3.386557e-01 5.425830e-01 4.249891e-01 3.912205e-01 3.581776e-01 3.224708e-01 2.851709e-01 2.138468e-01 5.956079e-02
<GCONST> 1.030317e+02
<STATE> 4
<MEAN> 39
 -1.922493e+01 2.355320e+00 -2.489257e+00 -6.608873e+00 -5.401552e-01 -1.910018e+00 -4.780560e+00 3.838572e+00 -5.198593e-01 6.343400e-01 -1.645509e+00 7.207232e-01 5.079663e+01 2.878267e-01 -6.067157e-01 -1.668622e-01 3.187509e-01 -4.590738e-01 -5.758642e-02 -2.313029e-01 -1.130330e-01 2.623338e-01 4.810394e-02 -1.250600e-01 1.199881e-02 4.030910e-01 7.438782e-01 -1.969271e-01 -4.184189e-02 1.070110e-01 -4.828781e-02 -4.997633e-02 -1.994990e-01 -7.428994e-02 1.391660e-01 3.825180e-02 -5.209872e-02 -4.095782e-02 -1.371455e-01
<VARIANCE> 39
 9.884367e+00 2.130167e+01 3.025207e+01 2.028197e+01 4.058842e+01 4.989236e+01 3.539122e+01 3.461738e+01 2.605450e+01 1.940087e+01 1.557295e+01 1.471776e+01 1.110842e+01 4.150009e+00 1.343506e+00 1.418689e+00 1.539928e+00 1.927683e+00 2.334093e+00 2.469382e+00 2.047843e+00 2.052430e+00 1.880909e+00 1.348023e+00 1.256726e+00 5.310796e-01 2.878146e-01 2.598461e-01 2.616934e-01 3.252249e-01 4.169924e-01 4.728931e-01 4.306451e-01 4.174989e-01 3.493139e-01 3.642868e-01 2.607631e-01 2.403464e-01 1.268167e-01
<GCONST> 1.038150e+02
<TRANSP> 5
 0.000000e+00 1.000000e+00 0.000000e+00 0.000000e+00 0.000000e+00
 0.000000e+00 8.472399e-01 1.527601e-01 0.000000e+00 0.000000e+00
 0.000000e+00 0.000000e+00 7.105286e-01 2.894714e-01 0.000000e+00
 0.000000e+00 0.000000e+00 0.000000e+00 8.700752e-01 1.299248e-01
 0.000000e+00 0.000000e+00 0.000000e+00 0.000000e+00 0.000000e+00
<ENDHMM>
~h "t"
<BEGINHMM>
<NUMSTATES> 5
<STATE> 2
<MEAN> 39
 -3.664728e+00 1.555113e+00 -6.549859e+00 -4.030418e+00 -4.506695e+00 -2.943579e+00 -1.056515e+00 2.795761e+00 2.794530e+00 -2.630989e+00 -1.348654e+00 -2.293819e+00 4.259898e+01 -7.743599e-01 -7.136455e-01 -6.268921e-02 -5.087953e-01 1.275331e-01 -2.685392e-01 2.164608e-02 1.478911e-01 -3.382510e-01 4.795025e-02 -4.692847e-02 1.971452e-01 5.216354e-01 1.049876e-01 -1.528769e-01 9.199006e-02 -1.683062e-01 9.044430e-02 -2.123316e-01 -3.467898e-01 1.003067e-01 6.598244e-02 1.770904e-01 -1.881515e-01 7.386778e-02 5.137250e-01
<VARIANCE> 39
 1.850476e+01 1.199421e+01 1.325602e+01 2.262275e+01 2.165408e+01 2.614813e+01 2.505483e+01 2.285299e+01 1.951882e+01 1.801240e+01 1.945326e+01 1.227823e+01 1.379235e+01 1.299065e+00 1.283404e+00 1.285246e+00 2.297001e+00 1.889077e+00 2.741635e+00 3.242306e+00 2.327217e+00 2.305453e+00 1.618276e+00 1.481598e+00 1.138342e+00 4.628765e+00 2.262869e-01 2.161066e-01 2.102313e-01 3.439053e-01 3.623613e-01 4.590505e-01 5.429714e-01 4.545923e-01 4.052631e-01 3.491327e-01 2.873258e-01 1.977948e-01 3.375045e-01
<GCONST> 1.033185e+02
<STATE> 3
<MEAN> 39
 -4.528434e+00 -1.891664e+00 -5.852097e+00 -7.843460e+00 -2.874387e+00 -4.897388e+00 -3.211333e+00 3.863961e+00 2.090425e+00 -1.193703e+00 -2.769320e+00 -1.015143e+00 4.733051e+01 -5.932596e-01 -8.599160e-01 2.347455e-01 -3.709392e-01 8.197004e-01 -8.113084e-01 -5.613723e-01 3.570065e-01 -9.971349e-02 4.715081e-01 -4.367963e-01 3.204220e-01 1.572326e+00 4.848398e-01 3.775062e-01 2.798644e-01 3.126760e-01 -1.546499e-02 1.715696e-01 -3.871497e-01 -3.507710e-01 -3.158586e-02 2.114293e-01 6.757135e-02 -9.746497e-02 6.706254e-02
<VARIANCE> 39
 2.800241e+01 3.228623e+01 2.222165e+01 2.668584e+01 2.460476e+01 3.451501e+01 4.253827e+01 3.370823e+01 3.638128e+01 2.699836e+01 2.574940e+01 1.711074e+01 4.284023e+01 1.656868e+00 1.139703e+00 1.676134e+00 2.083439e+00 2.849504e+00 3.347755e+00 3.581020e+00 2.799385e+00 2.509595e+00 1.529600e+00 2.354276e+00 1.118357e+00 4.617935e+00 5.321419e-01 3.656766e-01 2.680010e-01 4.217698e-01 5.123569e-01 5.397682e-01 9.241928e-01 5.383533e-01 5.316014e-01 3.541791e-01 3.320718e-01 2.451447e-01 6.683266e-01
<GCONST> 1.155257e+02
<STATE> 4
<MEAN> 39
 -5.291443e+00 -1.768229e+00 -5.626255e+00 -7.399379e+00 -3.448415e+00 -8.541586e+00 -5.106219e+00 3.486078e+00 1.444388e+00 -2.419209e-01 -2.876543e+00 -5.304070e-01 4.966972e+01 2.606149e-01 2.389935e-01 7.763847e-01 4.710376e-01 4.580424e-01 -2.052435e-01 -9.141759e-01 -4.505674e-01 -2.898671e-01 5.906183e-01 -6.190667e-02 1.857899e-03 8.593857e-01 6.462277e-01 4.885932e-01 8.088697e-02 1.346584e-01 -1.311845e-01 6.854092e-01 -2.288125e-01 -3.666699e-01 -7.081524e-03 6.703224e-02 1.753197e-01 -1.853407e-01 -2.853502e-01
<VARIANCE> 39
 2.961941e+01 2.269380e+01 1.820170e+01 2.546363e+01 2.779265e+01 3.923111e+01 3.585311e+01 3.122122e+01 3.524763e+01 1.894596e+01 2.599460e+01 1.308230e+01 4.406150e+01 2.400020e+00 1.459265e+00 1.196894e+00 2.197267e+00 2.850112e+00 2.636031e+00 4.536944e+00 2.140056e+00 2.253535e+00 2.108718e+00 1.486799e+00 9.905937e-01 3.949085e+00 7.379375e-01 3.380990e-01 2.977568e-01 4.344527e-01 5.310603e-01 8.071709e-01 7.829388e-01 5.869433e-01 5.128655e-01 3.746599e-01 3.904207e-01 2.624137e-01 5.967837e-01
<GCONST> 1.147872e+02
<TRANSP> 5
 0.000000e+00 1.000000e+00 0.000000e+00 0.000000e+00 0.000000e+00
 0.000000e+00 6.300820e-01 3.699181e-01 0.000000e+00 0.000000e+00
 0.000000e+00 0.000000e+00 2.004227e-01 7.995772e-01 0.000000e+00
 0.000000e+00 0.000000e+00 0.000000e+00 1.315991e-01 8.684009e-01
 0.000000e+00 0.000000e+00 0.000000e+00 0.000000e+00 0.000000e+00
<ENDHMM>
~h "u"
<BEGINHMM>
<NUMSTATES> 5
<STATE> 2
<MEAN> 39
 -6.447976e+00 6.341856e-01 -2.775613e+00 -1.885646e+00 -2.965542e+00 -3.817394e+00 -5.666432e+00 -3.194156e-01 9.168795e-01 -3.266184e-01 -5.857310e-01 -9.189293e-01 4.597436e+01 1.068982e+00 -5.071625e-03 -2.791554e-01 3.153254e-01 3.853194e-01 2.221374e-01 -3.606528e-01 -3.014812e-01 8.510759e-02 3.705095e-01 1.942712e-01 -1.076162e-01 -3.022895e-01 3.026448e-01 2.882642e-01 1.630232e-01 -5.187308e-01 -9.603500e-02 3.770661e-01 -2.945573e-01 -2.144163e-01 -2.786568e-01 1.732978e-01 1.335796e-01 7.096152e-02 3.423536e-01
<VARIANCE> 39
 3.971266e+01 2.643095e+01 1.553617e+01 2.309211e+01 2.875915e+01 3.155095e+01 2.886485e+01 3.135565e+01 2.082483e+01 2.391678e+01 1.709289e+01 1.628437e+01 2.169567e+01 7.063412e+00 2.277664e+00 2.202543e+00 2.859092e+00 2.724622e+00 2.454324e+00 5.446286e+00 3.213086e+00 1.848370e+00 2.138311e+00 1.536266e+00 1.309834e+00 2.531135e+00 5.808043e-01 5.379707e-01 3.617179e-01 4.068382e-01 5.364853e-01 5.848928e-01 6.008680e-01 6.382461e-01 4.212463e-01 3.960376e-01 3.191769e-01 3.088808e-01 4.235953e-01
<GCONST> 1.152706e+02
<STATE> 3
<MEAN> 39
 -1.352376e-01 1.587151e+00 -1.200122e+00 -4.564077e+00 -2.195870e+00 -1.517765e+00 -1.220275e+01 -2.604433e+00 4.638004e-01 3.563504e+00 -7.269027e-01 -4.419151e-01 5.051025e+01 2.704821e+00 1.505638e+00 3.100107e-01 -1.821380e+00 -6.046706e-01 1.599965e+00 -1.454258e+00 -1.723839e+00 -1.417117e+00 6.659684e-01 8.683015e-01 3.750986e-01 8.454241e-01 -5.912308e-01 1.203966e-01 -2.166169e-01 -5.757369e-01 -2.964833e-01 1.077388e-01 5.885696e-01 1.766295e-01 -4.844104e-01 -4.236198e-01 1.369520e-01 2.173777e-01 -2.814069e-02
<VARIANCE> 39
 3.819323e+01 2.487585e+01 1.434458e+01 3.589852e+01 2.812939e+01 3.465134e+01 4.628396e+01 3.291077e+01 2.817352e+01 2.086613e+01 1.662613e+01 1.444366e+01 2.295185e+01 7.179667e+00 2.131263e+00 1.629384e+00 2.934652e+00 2.822579e+00 3.682908e+00 4.189246e+00 4.382091e+00 3.401947e+00 2.453025e+00 1.766580e+00 1.843120e+00 1.839609e+00 5.423856e-01 5.037485e-01 3.164499e-01 6.095368e-01 4.989658e-01 5.270718e-01 8.296832e-01 6.435245e-01 5.003894e-01 4.294127e-01 3.387122e-01 2.673180e-01 3.886561e-01
<GCONST> 1.176447e+02
<STATE> 4
<MEAN> 39
 4.412935e+00 5.347227e+00 -3.927912e+00 -1.268787e+01 -5.072207e+00 2.712061e+00 -1.078297e+01 -4.835646e+00 -5.524925e+00 7.414190e-01 2.206325e+00 2.070079e+00 5.199231e+01 -9.983055e-02 -1.149552e-02 -4.032820e-01 -3.202565e-01 -7.743159e-02 3.345370e-02 4.849747e-01 2.772153e-01 -9.877917e-02 -2.383233e-01 5.991001e-02 1.012837e-01 1.778251e-02 -3.215358e-01 -2.488448e-01 -1.513880e-02 3.375673e-01 1.437544e-01 -2.781131e-01 1.474057e-01 2.938853e-01 3.408159e-01 -4.803600e-03 -2.026597e-01 -1.701297e-01 -7.724867e-02
<VARIANCE> 39
 2.106964e+01 1.394074e+01 1.188456e+01 2.749733e+01 2.102842e+01 3.128358e+01 3.194056e+01 3.220405e+01 3.390150e+01 3.045523e+01 1.520405e+01 1.937844e+01 1.176402e+01 1.582037e+00 1.510187e+00 8.299311e-01 3.747055e+00 1.928099e+00 2.223343e+00 2.539759e+00 2.691323e+00 2.994462e+00 2.601525e+00 1.428864e+00 1.658981e+00 1.509781e+00 2.593320e-01 1.866483e-01 1.588033e-01 4.080846e-01 3.283993e-01 3.880590e-01 4.995326e-01 5.596018e-01 3.842416e-01 4.178395e-01 2.750892e-01 2.662800e-01 1.347956e-01
<GCONST> 1.048294e+02
<TRANSP> 5
 0.000000e+00 1.000000e+00 0.000000e+00 0.000000e+00 0.000000e+00
 0.000000e+00 5.794545e-01 4.205454e-01 0.000000e+00 0.000000e+00
 0.000000e+00 0.000000e+00 5.247519e-01 4.752481e-01 0.000000e+00
 0.000000e+00 0.000000e+00 0.000000e+00 7.918212e-01 2.081788e-01
 0.000000e+00 0.000000e+00 0.000000e+00 0.000000e+00 0.000000e+00
<ENDHMM>
~h "y"
<BEGINHMM>
<NUMSTATES> 5
<STATE> 2
<MEAN> 39
 -1.011309e+00 1.036159e+00 7.731716e+00 -8.457017e+00 -1.293764e+01 -4.914752e+00 -7.401762e+00 3.835295e+00 -4.774405e+00 -5.732207e-02 3.769991e-01 4.256117e-01 5.680919e+01 -2.635651e-01 8.489270e-01 1.368809e+00 5.148575e-02 -6.624395e-01 -1.137470e-01 -2.423902e-01 -8.958257e-01 -8.173596e-01 1.749839e-01 7.663488e-01 1.901958e-02 -3.848065e-01 5.877283e-02 -2.291332e-01 -3.958254e-01 -9.390233e-02 1.938623e-01 6.407977e-02 7.387007e-02 1.578560e-01 2.345173e-01 -1.237113e-02 -1.720568e-01 -5.292903e-02 8.758159e-02
<VARIANCE> 39
 5.802780e+00 2.057322e+01 3.017670e+01 4.108685e+01 2.606191e+01 2.545439e+01 3.115492e+01 3.633171e+01 2.433460e+01 2.231120e+01 2.210893e+01 1.345334e+01 1.587226e+01 2.462095e-01 1.191386e+00 2.258402e+00 1.242850e+00 1.555984e+00 1.338133e+00 1.278948e+00 2.085176e+00 2.215341e+00 9.966384e-01 1.262217e+00 1.157570e+00 2.880438e-01 4.357432e-02 1.358779e-01 1.980413e-01 1.945772e-01 2.795908e-01 3.065699e-01 2.922854e-01 4.069555e-01 2.913075e-01 1.706889e-01 1.635620e-01 2.492734e-01 4.474197e-02
<GCONST> 9.103536e+01
<STATE> 3
<MEAN> 39
 -5.946372e-01 -1.394384e-01 4.511747e+00 -9.598141e+00 -1.379797e+01 -6.545763e+00 -6.058971e+00 6.622690e+00 -1.633776e+00 4.797304e-01 -1.548868e-01 1.930605e+00 5.702027e+01 3.782862e-01 -9.924031e-01 -2.012028e+00 -2.364505e-01 6.639023e-01 8.126353e-02 5.394537e-01 1.361201e+00 1.607484e+00 8.258586e-02 -1.023963e+00 9.619500e-02 2.599756e-01 3.120627e-02 -4.997201e-03 -1.448094e-01 4.058120e-02 2.819435e-01 2.581295e-01 -1.114947e-01 -5.920877e-02 7.498197e-02 3.959284e-02 -1.381663e-01 -2.340308e-01 -6.585535e-02
<VARIANCE> 39
 8.882513e+00 1.335592e+01 2.700874e+01 2.390863e+01 2.660070e+01 2.993783e+01 4.662371e+01 3.283917e+01 4.035642e+01 1.992509e+01 2.527825e+01 1.141130e+01 1.020503e+01 5.585157e-01 5.575066e-01 1.079849e+00 1.449661e+00 2.858069e+00 2.551991e+00 2.856946e+00 1.789824e+00 2.291355e+00 1.782616e+00 1.313192e+00 1.058775e+00 4.425128e-01 1.152127e-01 1.261128e-01 2.436916e-01 2.374381e-01 5.754262e-01 4.614842e-01 5.097198e-01 4.844180e-01 4.686061e-01 2.739291e-01 2.693295e-01 1.751611e-01 6.999578e-02
<GCONST> 9.786442e+01
<STATE> 4
<MEAN> 39
 1.626505e+00 -4.437642e+00 -5.297403e+00 -1.111674e+01 -5.808831e+00 -2.031862e+00 -4.265451e+00 9.853410e+00 4.922558e+00 4.614045e-01 -6.160432e+00 -2.204039e+00 5.687852e+01 3.377036e-01 -1.655440e-01 -8.691561e-01 6.286068e-02 1.263845e+00 1.050495e+00 -3.768263e-01 -7.719219e-01 5.067435e-02 2.007878e-01 -8.242920e-03 -9.073927e-01 -2.355511e-01 6.225306e-02 2.295947e-01 2.488176e-01 -1.294404e-02 -2.060393e-01 -2.613385e-03 -1.379508e-01 -4.313973e-01 -2.649381e-01 2.415471e-02 4.329913e-01 8.881624e-02 -1.113232e-01
<VARIANCE> 39
 5.712629e+00 1.016702e+01 2.007147e+01 2.197890e+01 2.423857e+01 1.617822e+01 3.148627e+01 2.782489e+01 4.094629e+01 2.800611e+01 2.053253e+01 1.696546e+01 1.247436e+01 2.930706e-01 7.028230e-01 1.180205e+00 9.881740e-01 1.784751e+00 1.401481e+00 1.675005e+00 1.605755e+00 2.021885e+00 1.348316e+00 1.748696e+00 1.069467e+00 2.882504e-01 7.249968e-02 1.249005e-01 2.219479e-01 2.203914e-01 3.492090e-01 2.187826e-01 3.374840e-01 3.451142e-01 4.548047e-01 2.285622e-01 3.377648e-01 2.140211e-01 6.352281e-02
<GCONST> 9.077084e+01
<TRANSP> 5
 0.000000e+00 1.000000e+00 0.000000e+00 0.000000e+00 0.000000e+00
 0.000000e+00 8.901837e-01 1.098162e-01 0.000000e+00 0.000000e+00
 0.000000e+00 0.000000e+00 8.400586e-01 1.599414e-01 0.000000e+00
 0.000000e+00 0.000000e+00 0.000000e+00 8.096591e-01 1.903409e-01
 0.000000e+00 0.000000e+00 0.000000e+00 0.000000e+00 0.000000e+00
<ENDHMM>
~h "ng"
<BEGINHMM>
<NUMSTATES> 5
<STATE> 2
<MEAN> 39
 -3.109394e+00 3.034261e+00 1.351121e-01 1.631086e+00 -1.058121e-01 -3.160899e-01 -7.504134e-01 8.069375e-01 3.327196e-01 -1.352090e+00 -1.057941e+00 -4.649844e-01 4.147479e+01 -3.078341e-01 -2.742043e-01 -3.533933e-01 -1.473797e-01 4.249431e-02 -2.463407e-02 1.201973e-01 1.976197e-01 9.555221e-02 7.322421e-03 1.110989e-01 -2.004815e-02 -2.414120e-01 2.055668e-02 5.760663e-03 -1.967601e-02 -4.404926e-02 -7.495616e-02 -3.551044e-02 -3.008334e-02 -3.920178e-02 2.496165e-03 5.056469e-02 3.052632e-02 -3.262082e-03 1.453666e-02
<VARIANCE> 39
 5.743308e+00 1.072219e+01 1.131153e+01 1.309171e+01 1.409546e+01 1.666890e+01 1.616510e+01 2.191478e+01 1.605124e+01 1.868401e+01 1.288658e+01 1.279688e+01 1.150731e+01 3.687693e-01 6.515108e-01 9.198085e-01 1.187485e+00 1.311004e+00 1.341406e+00 1.480463e+00 1.417549e+00 1.419420e+00 1.281620e+00 1.076759e+00 9.552738e-01 1.183662e-01 5.912799e-02 1.065571e-01 1.553573e-01 2.197773e-01 2.521942e-01 2.504678e-01 2.973654e-01 2.733910e-01 2.620463e-01 2.355364e-01 1.977784e-01 1.935494e-01 1.740446e-02
<GCONST> 8.002231e+01
<STATE> 3
<MEAN> 39
 -6.587570e+00 -3.789765e-01 -5.310629e+00 -9.966478e-02 -2.629280e+00 1.360211e-02 2.171738e-01 3.124563e-01 2.567116e+00 -1.918261e+00 1.565775e+00 -2.196447e+00 4.299759e+01 -6.771512e-02 -1.031371e-01 -1.123533e-01 -7.394965e-02 -8.588399e-02 -6.394622e-02 -3.622877e-02 -2.455776e-03 2.418280e-02 -1.648697e-02 -3.083250e-03 -2.611956e-02 -1.177760e-01 2.948401e-02 4.097075e-02 5.115220e-02 2.649263e-02 2.195150e-02 2.240835e-02 3.411382e-03 -7.565629e-03 -1.938454e-02 -8.272390e-03 -2.537306e-02 -7.382371e-03 1.050111e-02
<VARIANCE> 39
 2.822620e+00 8.355042e+00 8.607162e+00 1.639392e+01 1.640529e+01 1.864701e+01 1.919395e+01 1.779985e+01 1.953257e+01 1.506332e+01 1.366801e+01 1.149987e+01 3.731978e+00 1.872886e-01 4.093518e-01 6.829160e-01 9.388447e-01 1.299227e+00 1.375577e+00 1.524611e+00 1.481728e+00 1.423195e+00 1.226810e+00 1.135482e+00 1.021068e+00 7.429221e-02 3.737219e-02 7.929765e-02 1.353538e-01 1.848786e-01 2.575046e-01 2.688637e-01 3.076271e-01 2.942490e-01 2.857555e-01 2.389230e-01 2.224116e-01 2.048660e-01 1.230693e-02
<GCONST> 7.513912e+01
<STATE> 4
<MEAN> 39
 -6.163873e+00 1.214540e+00 -4.638559e+00 1.239484e-01 -1.737726e+00 -4.368256e-01 -4.052069e-01 -6.055088e-01 4.048991e-01 -1.448611e+00 2.125350e-01 -1.944081e+00 3.859436e+01 1.720884e-02 1.711746e-02 1.873545e-02 1.650761e-02 1.501679e-03 2.258823e-02 3.059643e-02 1.649574e-02 -2.950315e-03 -8.669937e-03 8.843604e-03 7.796062e-03 -7.036459e-02 -7.200785e-04 -8.423753e-03 -1.450855e-03 -3.755588e-03 -3.935126e-03 -1.240161e-02 -1.440071e-02 -7.775548e-03 8.270498e-03 5.037585e-03 8.816125e-03 8.744885e-03 2.228220e-04
<VARIANCE> 39
 4.155209e+00 5.055951e+00 6.972026e+00 1.068180e+01 1.285572e+01 1.522373e+01 1.525323e+01 1.714317e+01 1.745476e+01 1.710444e+01 1.442455e+01 1.010349e+01 5.089963e+00 1.527131e-01 3.392749e-01 5.703033e-01 8.525499e-01 1.064948e+00 1.182060e+00 1.318722e+00 1.406919e+00 1.314717e+00 1.251795e+00 1.090416e+00 8.685131e-01 6.219712e-02 2.920072e-02 6.232942e-02 1.096515e-01 1.680410e-01 2.127174e-01 2.242827e-01 2.551616e-01 2.697810e-01 2.575401e-01 2.498932e-01 2.106520e-01 1.717711e-01 1.447622e-02
<GCONST> 7.069778e+01
<TRANSP> 5
 0.000000e+00 1.000000e+00 0.000000e+00 0.000000e+00 0.000000e+00
 0.000000e+00 8.673466e-01 1.326534e-01 0.000000e+00 0.000000e+00
 0.000000e+00 0.000000e+00 9.313496e-01 6.865036e-02 0.000000e+00
 0.000000e+00 0.000000e+00 0.000000e+00 9.471058e-01 5.289426e-02
 0.000000e+00 0.000000e+00 0.000000e+00 0.000000e+00 0.000000e+00
<ENDHMM>
~h "sp"
<BEGINHMM>
<NUMSTATES> 3
<STATE> 2
~s "silst"
<TRANSP> 3
 0.000000e+00 1.806254e-01 8.193746e-01
 0.000000e+00 8.948790e-01 1.051210e-01
 0.000000e+00 0.000000e+00 0.000000e+00
<ENDHMM>
~h "sil"
<BEGINHMM>
<NUMSTATES> 5
<STATE> 2
<MEAN> 39
 -1.905492e+00 2.980669e-01 -1.390887e+00 2.374250e-01 -4.963131e-01 -1.450353e-01 -2.038123e-01 3.160229e-02 2.723151e-01 -2.970655e-01 1.396996e-01 -3.049928e-01 1.503638e+01 -9.242504e-01 -3.104692e-01 -9.218615e-01 -4.066879e-01 -6.081933e-01 -4.565665e-01 -3.396171e-01 -1.673858e-01 -3.423545e-02 -1.896094e-01 -4.697831e-02 -2.054353e-01 3.918531e+00 -2.598896e-01 -8.651710e-02 -2.873828e-01 -1.392823e-01 -2.223031e-01 -1.778930e-01 -1.636090e-01 -5.935553e-02 -7.289513e-03 -9.943707e-02 -4.517531e-02 -1.112375e-01 1.454470e+00
<VARIANCE> 39
 8.889709e+00 3.098098e+00 6.699856e+00 4.316638e+00 4.205114e+00 5.238036e+00 3.545305e+00 4.705034e+00 4.057063e+00 4.084910e+00 3.566501e+00 2.770177e+00 3.593953e+02 1.029900e+00 5.499296e-01 1.366071e+00 9.343663e-01 1.169103e+00 1.051385e+00 1.163098e+00 9.736343e-01 9.161426e-01 9.214092e-01 6.666153e-01 5.872867e-01 2.251291e+01 1.162746e-01 7.436842e-02 1.483554e-01 1.260112e-01 1.320542e-01 1.633416e-01 1.479637e-01 1.444718e-01 1.252446e-01 1.262037e-01 1.087686e-01 8.965693e-02 1.988979e+00
<GCONST> 7.275779e+01
<STATE> 3
~s "silst"
<STATE> 4
<MEAN> 39
 -5.386635e+00 -1.826635e-01 -5.360333e+00 -1.176902e+00 -2.936606e+00 -2.014234e+00 -1.602496e+00 1.958091e-01 8.547754e-01 -9.759201e-01 -3.078984e-01 -1.431381e+00 3.738599e+01 4.756077e-03 2.353610e-02 1.136182e-02 2.238362e-02 1.519326e-02 2.012367e-02 9.969860e-03 6.420981e-03 1.272393e-02 1.147331e-02 -2.504713e-04 -5.780241e-04 -7.000393e-02 -3.585682e-03 -5.311282e-03 7.658510e-03 -5.469224e-03 6.588269e-03 4.992796e-04 -6.763043e-03 5.087504e-03 -1.874371e-04 7.785762e-03 -3.192820e-03 -1.348064e-03 2.820384e-03
<VARIANCE> 39
 6.296980e+00 7.750704e+00 1.049317e+01 1.365396e+01 1.539689e+01 1.783365e+01 1.764876e+01 1.900111e+01 1.777329e+01 1.733785e+01 1.424588e+01 1.160433e+01 9.408536e+00 2.193565e-01 4.293104e-01 6.751264e-01 9.267826e-01 1.191854e+00 1.305357e+00 1.416378e+00 1.484386e+00 1.406546e+00 1.289991e+00 1.095198e+00 8.868725e-01 1.926114e-01 4.229989e-02 8.164152e-02 1.287071e-01 1.783022e-01 2.335538e-01 2.514183e-01 2.704013e-01 2.884972e-01 2.724835e-01 2.516586e-01 2.144101e-01 1.706316e-01 2.504472e-02
<GCONST> 7.780959e+01
<TRANSP> 5
 0.000000e+00 1.000000e+00 0.000000e+00 0.000000e+00 0.000000e+00
 0.000000e+00 4.186729e-01 4.426869e-01 1.386402e-01 0.000000e+00
 0.000000e+00 0.000000e+00 7.727549e-01 2.272451e-01 0.000000e+00
 0.000000e+00 9.315233e-03 0.000000e+00 9.621646e-01 2.852015e-02
 0.000000e+00 0.000000e+00 0.000000e+00 0.000000e+00 0.000000e+00
<ENDHMM>
