~o
<STREAMINFO> 1 39
<VECSIZE> 39<NULLD><MFCC_D_A_0><DIAGC>
~s "silst"
<MEAN> 39
 -7.081195e+00 -3.448513e+00 -9.161250e+00 -6.088941e+00 -7.745626e+00 -7.729380e+00 -7.532878e+00 -2.488603e+00 -2.814909e+00 -1.601686e+00 -4.364836e+00 -2.353029e+00 4.849956e+01 -4.256874e-01 -3.024765e-01 -7.539816e-01 -5.073189e-01 -6.499233e-01 -7.949965e-01 -6.990779e-01 -1.655772e-01 -2.893232e-01 -2.543290e-01 -2.792879e-01 -2.170793e-01 4.607976e+00 4.040265e-01 2.228920e-01 4.472244e-01 3.261112e-01 4.126389e-01 4.369355e-01 4.770288e-01 1.930884e-01 2.083438e-01 4.667763e-02 2.537845e-01 9.334379e-02 -2.424569e+00
<VARIANCE> 39
 8.924228e+00 8.560942e+00 1.312356e+01 1.708217e+01 2.022338e+01 2.619044e+01 2.071404e+01 2.021478e+01 2.299314e+01 1.999711e+01 1.463887e+01 1.740046e+01 2.872247e+01 1.165321e+00 7.025478e-01 1.872265e+00 1.871141e+00 2.204704e+00 2.362582e+00 2.418311e+00 1.732474e+00 1.815926e+00 1.680051e+00 1.460119e+00 1.453690e+00 3.471014e+01 1.393971e-01 1.363378e-01 2.646624e-01 3.387078e-01 3.971822e-01 4.156298e-01 3.745566e-01 3.669817e-01 3.352848e-01 3.624710e-01 2.719246e-01 3.048460e-01 2.232180e+00
<GCONST> 1.043599e+02
~h "a"
<BEGINHMM>
<NUMSTATES> 5
<STATE> 2
<MEAN> 39
 2.753966e+00 -5.154825e+00 -9.174969e+00 -1.400829e+01 -4.983340e+00 -3.751802e+00 -1.252116e+01 4.153553e+00 -4.948211e+00 -2.012282e+00 -6.720582e+00 -4.137778e+00 7.201051e+01 3.525800e-02 4.561731e-02 5.448284e-02 1.342384e-01 -1.757509e-01 -1.030881e-01 4.311474e-02 -1.035845e-03 1.061363e-02 -1.915081e-01 1.141715e-01 -8.613741e-03 -2.802585e-02 -2.759029e-02 8.318486e-02 5.918575e-02 1.473790e-01 -2.225829e-02 -7.208470e-02 -4.909912e-02 -3.938681e-02 -5.921301e-03 -9.754745e-03 6.171668e-02 6.685887e-02 -7.945643e-02
<VARIANCE> 39
 1.669552e+01 8.034373e+01 4.950215e+01 5.503774e+01 3.322054e+01 8.359563e+01 5.764493e+01 7.623534e+01 6.221205e+01 1.110492e+02 6.027345e+01 4.893393e+01 7.881301e+01 7.163196e-01 1.525547e+00 1.276557e+00 1.860399e+00 1.559836e+00 2.167319e+00 1.963889e+00 1.961205e+00 1.762895e+00 2.434471e+00 2.104357e+00 2.038033e+00 1.291973e+00 1.248116e-01 2.153693e-01 2.107926e-01 2.915508e-01 2.672463e-01 3.342066e-01 3.380161e-01 3.593059e-01 2.946438e-01 3.551362e-01 3.020554e-01 3.039802e-01 2.566992e-01
<GCONST> 1.140574e+02
<STATE> 3
<MEAN> 39
 1.193445e+00 -2.232157e+00 -6.989450e+00 -9.438191e+00 -4.323642e+00 -6.704322e+00 -1.292429e+01 4.343887e+00 -3.923309e+00 -7.435700e-01 -7.792778e+00 -3.044566e+00 6.678497e+01 1.465727e-02 5.480744e-01 6.934386e-01 4.776050e-01 -2.187858e-01 -4.313939e-01 2.991296e-02 -5.352093e-01 -3.029332e-01 -1.538956e-01 3.859447e-01 1.452218e-01 -2.882271e-01 -5.283902e-02 5.296766e-03 5.761400e-02 -7.411723e-02 -8.653881e-02 8.971356e-02 1.590347e-01 -1.098436e-01 1.964614e-03 2.617876e-02 -1.480442e-02 -9.567152e-02 -2.350035e-02
<VARIANCE> 39
 3.779785e+01 4.745194e+01 5.464909e+01 6.093804e+01 4.882025e+01 7.245555e+01 6.136351e+01 1.031577e+02 5.876630e+01 7.029665e+01 6.346590e+01 4.273927e+01 8.653132e+01 2.330624e+00 3.336353e+00 4.249850e+00 4.412535e+00 4.361358e+00 4.677651e+00 5.719570e+00 5.548158e+00 4.520555e+00 3.780279e+00 3.508863e+00 3.371493e+00 6.931407e+00 4.996023e-01 3.992289e-01 5.068064e-01 6.956779e-01 8.286616e-01 7.753536e-01 9.823246e-01 8.377573e-01 6.972412e-01 6.307739e-01 6.388289e-01 5.986457e-01 5.622684e-01
<GCONST> 1.379467e+02
<STATE> 4
<MEAN> 39
 -1.990140e-01 3.858269e+00 6.655838e+00 -7.451066e+00 -1.211180e+01 -7.691351e+00 -1.192463e+01 -3.775960e+00 -7.889359e+00 9.249868e-01 -3.625138e+00 -2.401014e+00 6.735332e+01 -5.578955e-02 2.970268e-01 -1.184418e-02 1.612173e-01 -1.063967e-01 2.246293e-01 3.657324e-01 -4.034056e-01 3.675832e-02 5.690209e-03 -5.245534e-02 -4.335733e-02 -2.751192e-01 -1.152859e-02 -1.447141e-01 -2.589929e-01 -2.345517e-02 1.841789e-01 4.486694e-02 1.858653e-02 1.669566e-01 1.119952e-01 -1.565826e-02 -1.223450e-01 1.604611e-02 3.511879e-02
<VARIANCE> 39
 2.810028e+01 2.552211e+01 9.194151e+01 7.379627e+01 7.170043e+01 7.617327e+01 5.011211e+01 9.562012e+01 7.609093e+01 4.168444e+01 3.925082e+01 3.318295e+01 4.964664e+01 1.795046e+00 1.892067e+00 3.645154e+00 3.363281e+00 4.780982e+00 3.485869e+00 3.137528e+00 3.267066e+00 3.001647e+00 3.413833e+00 2.211940e+00 2.365653e+00 2.299619e+00 2.171344e-01 3.158354e-01 4.161153e-01 5.859175e-01 7.008101e-01 6.126228e-01 4.902660e-01 5.762151e-01 5.531982e-01 5.311136e-01 3.730842e-01 4.248179e-01 2.879334e-01
<GCONST> 1.264659e+02
<TRANSP> 5
 0.000000e+00 1.000000e+00 0.000000e+00 0.000000e+00 0.000000e+00
 0.000000e+00 7.588667e-01 2.411333e-01 0.000000e+00 0.000000e+00
 0.000000e+00 0.000000e+00 7.194840e-01 2.805160e-01 0.000000e+00
 0.000000e+00 0.000000e+00 0.000000e+00 7.477733e-01 2.522267e-01
 0.000000e+00 0.000000e+00 0.000000e+00 0.000000e+00 0.000000e+00
<ENDHMM>
~h "b"
<BEGINHMM>
<NUMSTATES> 5
<STATE> 2
<MEAN> 39
 2.891453e+00 4.656353e+00 1.206826e+01 -6.736018e+00 -1.663184e+01 -1.473397e+00 -1.097833e+01 -6.812187e+00 -6.631274e+00 6.386106e+00 -4.628688e+00 -4.148053e+00 6.456577e+01 5.211865e-02 3.355550e-01 -8.547099e-01 4.723647e-01 8.139635e-01 3.399665e-02 4.022940e-01 -2.332661e-01 4.438420e-02 -1.201361e-02 -2.134157e-01 -1.562606e-01 -6.499379e-01 -2.649551e-02 7.244457e-02 -1.055809e-01 1.178997e-01 1.850759e-01 -4.288386e-02 3.325849e-02 -6.704438e-03 3.757082e-02 -1.850838e-01 -2.174933e-02 8.166707e-02 -9.653465e-02
<VARIANCE> 39
 1.139919e+01 1.380808e+01 9.268835e+01 4.218487e+01 9.550743e+01 2.843275e+01 2.206271e+01 6.139563e+01 9.179029e+01 2.179232e+01 4.371301e+01 3.166776e+01 1.607986e+01 5.004802e-01 7.687628e-01 1.670489e+00 1.415898e+00 2.041048e+00 1.981394e+00 9.580879e-01 1.539939e+00 2.313519e+00 1.336919e+00 1.184389e+00 1.400039e+00 4.671218e-01 6.201072e-02 1.566063e-01 2.929590e-01 2.535865e-01 2.697550e-01 4.101139e-01 1.716637e-01 2.329977e-01 5.856011e-01 2.454393e-01 2.040349e-01 3.145718e-01 7.911480e-02
<GCONST> 1.004250e+02
<STATE> 3
<MEAN> 39
 3.819684e+00 7.193638e+00 2.448911e+00 7.319776e-01 -7.026817e+00 -5.177120e+00 -1.083038e+01 -9.676353e+00 -7.103312e+00 -5.926248e-01 -7.957587e+00 -1.253224e+00 5.872932e+01 -5.506577e-01 2.715927e-01 -5.029058e-02 8.005641e-01 1.158047e+00 2.463569e-01 4.306895e-01 1.503697e-01 -4.232500e-02 -9.893965e-01 1.524573e-01 1.700965e-01 -8.811739e-01 -1.336553e-01 -2.140857e-01 -1.095713e-01 -7.670897e-02 -5.105925e-02 1.302896e-01 2.296563e-01 2.829259e-01 -4.087521e-02 6.449828e-02 -1.680614e-02 -1.100686e-01 4.130037e-03
<VARIANCE> 39
 8.809054e+00 1.331934e+01 2.023401e+01 9.133004e+00 3.522443e+01 2.705547e+01 4.324585e+01 6.722659e+01 4.687286e+01 2.782746e+01 1.836731e+01 2.041274e+01 7.074175e+00 1.578807e-01 6.674306e-01 8.557212e-01 9.712633e-01 1.105963e+00 1.704707e+00 1.999085e+00 1.408698e+00 7.985099e-01 1.112335e+00 8.393316e-01 2.396850e+00 2.856780e-01 4.352000e-02 6.480299e-02 1.865094e-01 1.077664e-01 1.809949e-01 2.238528e-01 3.433848e-01 2.415734e-01 1.528871e-01 2.656200e-01 1.570754e-01 1.990125e-01 2.547757e-02
<GCONST> 8.430185e+01
<STATE> 4
<MEAN> 39
 -3.094056e-01 4.766733e+00 1.858293e+00 3.405274e+00 -1.516101e+00 -6.355923e-01 -2.155935e+00 -7.020446e-01 -3.110574e+00 -7.154806e-01 -6.064325e+00 -3.577590e+00 5.505122e+01 -6.530404e-01 -4.822362e-01 -6.338723e-01 1.574123e-01 5.568644e-01 3.546566e-01 1.110435e+00 1.214913e+00 1.442664e-01 -5.490431e-01 1.979789e-01 2.479912e-02 -6.353340e-01 -2.282077e-02 -1.617299e-01 -9.288400e-02 -2.588912e-01 -3.076522e-01 -1.503512e-01 -3.161964e-01 -1.286751e-01 -7.176912e-02 -3.241798e-02 6.036517e-02 2.243098e-02 1.161854e-01
<VARIANCE> 39
 7.444072e+00 1.399003e+01 1.388880e+01 1.196762e+01 2.170547e+01 1.060145e+01 3.400179e+01 5.791605e+01 3.172706e+01 2.892436e+01 1.345156e+01 2.803798e+01 3.810607e+00 4.419262e-01 7.356680e-01 1.283196e+00 7.891785e-01 1.553100e+00 1.733295e+00 2.764699e+00 2.610809e+00 2.037123e+00 1.938430e+00 1.213390e+00 2.422924e+00 2.463211e-01 3.147005e-02 1.137919e-01 2.381498e-01 1.632740e-01 2.293188e-01 3.288674e-01 4.622515e-01 6.057013e-01 3.213593e-01 1.994559e-01 1.993145e-01 6.385587e-01 3.962809e-02
<GCONST> 9.068508e+01
<TRANSP> 5
 0.000000e+00 1.000000e+00 0.000000e+00 0.000000e+00 0.000000e+00
 0.000000e+00 7.950524e-01 2.049476e-01 0.000000e+00 0.000000e+00
 0.000000e+00 0.000000e+00 6.824402e-01 3.175597e-01 0.000000e+00
 0.000000e+00 0.000000e+00 0.000000e+00 6.903022e-01 3.096977e-01
 0.000000e+00 0.000000e+00 0.000000e+00 0.000000e+00 0.000000e+00
<ENDHMM>
~h "c"
<BEGINHMM>
<NUMSTATES> 5
<STATE> 2
<MEAN> 39
 -7.659842e-01 2.854324e+00 1.746363e+01 -9.150943e+00 -2.007880e+01 -4.557363e+00 -1.308326e+01 -7.394777e+00 -7.340629e+00 4.381732e+00 -3.959572e+00 -2.284724e+00 6.977700e+01 6.216837e-01 -1.347153e-02 1.280311e-01 -1.606763e-01 -2.120217e-01 6.669732e-01 -3.308089e-01 -3.073708e-01 5.850264e-02 5.845516e-01 -7.268758e-02 -3.468890e-01 -4.061868e-01 -9.987968e-02 1.092686e-01 -4.664592e-01 2.154635e-01 4.210795e-01 2.417951e-02 1.587035e-01 6.377042e-02 9.574540e-02 -2.980190e-02 -2.725494e-02 -2.655942e-02 -1.531912e-01
<VARIANCE> 39
 1.757808e+01 2.287914e+01 7.699474e+01 7.597540e+01 7.758303e+01 5.673901e+01 2.434491e+01 7.422482e+01 6.742222e+01 2.992211e+01 4.754467e+01 1.737151e+01 1.791648e+01 1.277490e+00 2.120562e+00 4.895746e+00 2.835569e+00 5.267116e+00 2.108922e+00 2.348881e+00 1.689914e+00 1.554850e+00 2.142470e+00 1.200362e+00 1.721850e+00 1.195470e+00 2.864158e-01 3.162633e-01 4.640056e-01 3.118179e-01 6.167599e-01 5.018476e-01 3.978790e-01 4.142481e-01 3.848348e-01 3.515417e-01 2.488595e-01 3.664991e-01 1.534646e-01
<GCONST> 1.153910e+02
<STATE> 3
<MEAN> 39
 4.400738e+00 4.647676e+00 6.681242e+00 -4.275755e+00 -1.217577e+01 -2.103294e+00 -1.051486e+01 -7.323637e+00 -4.281100e+00 6.907450e+00 -6.699236e+00 -5.055312e+00 6.363275e+01 1.307918e-01 2.741222e-02 -6.928417e-01 1.025303e+00 9.050253e-01 5.771246e-02 5.904990e-01 -2.957571e-01 3.304032e-01 -5.184213e-01 -4.200040e-01 2.347164e-01 -7.150188e-01 -1.862987e-01 1.295081e-02 1.498950e-01 -6.557699e-02 -3.793446e-02 1.717494e-02 4.087344e-02 1.207863e-01 -6.828623e-02 -2.264355e-01 -2.928330e-03 1.261932e-01 2.683662e-02
<VARIANCE> 39
 8.928847e+00 1.461835e+01 4.247101e+01 3.033138e+01 3.798478e+01 4.002515e+01 3.119293e+01 5.069286e+01 9.038417e+01 2.419520e+01 4.168497e+01 3.197319e+01 6.867959e+00 9.696108e-01 1.258626e+00 2.667333e+00 1.907281e+00 2.824874e+00 2.173090e+00 1.785439e+00 2.624997e+00 4.217032e+00 1.664226e+00 1.470228e+00 2.074147e+00 4.864488e-01 9.894188e-02 2.468790e-01 4.950918e-01 3.284171e-01 4.637260e-01 4.496001e-01 3.143592e-01 3.970022e-01 7.083787e-01 3.521035e-01 2.502244e-01 4.097479e-01 1.146997e-01
<GCONST> 1.077336e+02
<STATE> 4
<MEAN> 39
 3.680872e+00 7.050459e+00 2.417951e+00 1.070836e+00 -6.081322e+00 -4.752150e+00 -1.048644e+01 -8.119768e+00 -6.790576e+00 -1.002915e+00 -8.119994e+00 -1.366811e+00 5.855062e+01 -6.033515e-01 -1.188727e-02 -1.501542e-01 6.664444e-01 8.769839e-01 5.179725e-01 6.880215e-01 4.778731e-01 2.388202e-01 -9.474431e-01 1.342235e-01 1.854250e-02 -8.598498e-01 -1.108699e-01 -2.321121e-01 -1.666749e-01 -1.879541e-01 -1.810943e-01 1.663223e-02 1.239604e-01 1.724865e-01 -1.458021e-02 1.272890e-01 5.808189e-02 -6.340570e-02 4.130505e-02
<VARIANCE> 39
 5.931707e+00 1.151660e+01 1.373357e+01 1.394065e+01 5.369013e+01 3.376733e+01 4.916171e+01 6.806480e+01 3.765901e+01 2.561603e+01 1.994219e+01 2.648981e+01 9.138537e+00 2.462155e-01 8.343886e-01 9.020625e-01 9.875633e-01 1.307963e+00 1.524291e+00 2.204774e+00 1.669964e+00 8.172970e-01 1.478126e+00 8.603746e-01 1.891518e+00 2.197898e-01 3.337144e-02 8.755105e-02 1.520557e-01 1.299371e-01 2.411625e-01 2.211030e-01 3.247409e-01 2.944992e-01 1.706984e-01 1.959777e-01 1.526199e-01 2.747055e-01 3.367259e-02
<GCONST> 8.658537e+01
<TRANSP> 5
 0.000000e+00 1.000000e+00 0.000000e+00 0.000000e+00 0.000000e+00
 0.000000e+00 8.478627e-01 1.521374e-01 0.000000e+00 0.000000e+00
 0.000000e+00 0.000000e+00 8.155646e-01 1.844355e-01 0.000000e+00
 0.000000e+00 0.000000e+00 0.000000e+00 8.168641e-01 1.831359e-01
 0.000000e+00 0.000000e+00 0.000000e+00 0.000000e+00 0.000000e+00
<ENDHMM>
~h "h"
<BEGINHMM>
<NUMSTATES> 5
<STATE> 2
<MEAN> 39
 -1.655529e+01 3.058117e+00 -3.719662e+00 -7.934464e+00 6.582463e-01 -4.455693e+00 -6.805692e+00 6.492669e+00 -6.595684e+00 -1.083243e+00 -3.573424e+00 5.146532e-01 5.944312e+01 -1.470205e-01 -2.334959e-01 -1.368394e-01 -3.429521e-01 6.070083e-02 4.719544e-01 -8.693044e-01 3.989448e-01 -4.255886e-01 -1.246790e-01 -4.690881e-01 3.050049e-01 1.517327e+00 5.436034e-01 -3.980736e-01 -2.574183e-01 4.514921e-02 -1.792707e-02 7.891119e-02 -3.272173e-01 -3.911270e-02 3.443319e-02 9.503624e-02 -2.126374e-01 -6.681065e-02 1.501314e-01
<VARIANCE> 39
 7.843172e+01 1.981962e+01 6.040290e+01 3.210611e+01 2.954152e+01 2.234127e+01 3.616495e+01 4.892501e+01 2.796346e+01 4.030210e+01 2.452543e+01 3.095318e+01 3.681174e+01 3.872161e+00 2.898443e+00 2.504189e+00 2.303995e+00 4.109514e+00 3.478636e+00 4.255864e+00 4.220957e+00 3.559363e+00 2.604367e+00 1.880534e+00 1.634777e+00 1.686303e+00 2.406986e-01 1.999553e-01 3.772165e-01 5.137624e-01 5.877324e-01 5.328403e-01 6.432220e-01 6.584715e-01 6.382803e-01 6.166393e-01 3.120145e-01 3.475244e-01 5.975652e-01
<GCONST> 1.210595e+02
<STATE> 3
<MEAN> 39
 -2.883141e+00 -3.569161e+00 -8.021342e+00 -8.104476e+00 -8.776453e-01 -1.285462e+00 -1.378946e+01 2.225459e+00 -5.806000e+00 1.825272e+00 -7.007332e+00 2.210235e-01 6.323045e+01 3.163524e+00 -6.404886e-01 -5.349692e-01 -2.179041e+00 6.645399e-02 1.522681e+00 -2.603635e+00 -3.350549e-01 -1.430781e+00 2.210564e-01 -1.151632e+00 -3.543871e-01 3.238138e+00 -7.083307e-02 2.420031e-01 1.278011e-01 -3.186710e-01 -2.676142e-01 1.493416e-01 2.474253e-01 -3.462172e-02 -8.875430e-02 -1.580941e-01 2.042181e-01 -1.250406e-01 9.595476e-02
<VARIANCE> 39
 6.534044e+01 4.389912e+01 4.655975e+01 3.825143e+01 4.431440e+01 8.504453e+01 6.246609e+01 6.025338e+01 4.065157e+01 6.002015e+01 3.719374e+01 1.616647e+01 5.885133e+01 3.836603e+00 4.433839e+00 3.326276e+00 6.439777e+00 5.560576e+00 9.512175e+00 5.295414e+00 8.887250e+00 4.677855e+00 6.214541e+00 4.564764e+00 2.969878e+00 9.331149e+00 8.662086e-01 7.661020e-01 4.817336e-01 1.056321e+00 5.651957e-01 8.821813e-01 1.046606e+00 1.005429e+00 7.891353e-01 7.118115e-01 5.908132e-01 4.706598e-01 1.006202e+00
<GCONST> 1.402120e+02
<STATE> 4
<MEAN> 39
 7.481875e+00 -2.959980e+00 -9.614333e+00 -2.108425e+01 -3.756881e+00 5.404229e+00 -1.883858e+01 4.437576e+00 -7.911874e+00 3.637259e+00 -6.857606e+00 -3.739033e+00 7.223395e+01 1.786525e-01 -6.558600e-02 -2.014415e-01 -3.866600e-01 -9.843704e-02 -6.496143e-02 6.573909e-02 3.533933e-01 3.839400e-01 1.581708e-01 -2.016263e-01 -3.692034e-01 3.137298e-01 -1.609628e-01 9.683893e-02 7.139252e-02 2.696335e-01 -3.395877e-03 -2.719122e-01 2.933966e-01 -8.672369e-02 2.537820e-01 -4.594119e-02 1.738956e-01 4.455102e-02 -3.677048e-01
<VARIANCE> 39
 1.058263e+01 5.386446e+01 2.334010e+01 5.540955e+01 5.603079e+01 7.425151e+01 3.268835e+01 1.028277e+02 4.879960e+01 4.396701e+01 7.769403e+01 5.245214e+01 3.162609e+01 4.663472e-01 1.697777e+00 5.804028e-01 3.419052e+00 1.758219e+00 1.818199e+00 2.689709e+00 1.468465e+00 2.977710e+00 2.707095e+00 1.981670e+00 1.892157e+00 2.336138e+00 1.032188e-01 2.996541e-01 1.142036e-01 6.038377e-01 3.420678e-01 4.820460e-01 5.665271e-01 3.434913e-01 4.904906e-01 4.968266e-01 4.791179e-01 2.705126e-01 5.507959e-01
<GCONST> 1.146829e+02
<TRANSP> 5
 0.000000e+00 1.000000e+00 0.000000e+00 0.000000e+00 0.000000e+00
 0.000000e+00 6.614971e-01 3.385029e-01 0.000000e+00 0.000000e+00
 0.000000e+00 0.000000e+00 6.960001e-01 3.040000e-01 0.000000e+00
 0.000000e+00 0.000000e+00 0.000000e+00 8.712529e-01 1.287471e-01
 0.000000e+00 0.000000e+00 0.000000e+00 0.000000e+00 0.000000e+00
<ENDHMM>
~h "i"
<BEGINHMM>
<NUMSTATES> 5
<STATE> 2
<MEAN> 39
 -2.840377e+00 1.368623e+00 -2.761250e+00 3.327615e-01 -2.195018e+00 -1.410028e+00 -3.041490e+00 -5.420239e-01 -2.182934e+00 -1.627926e+00 -4.451716e+00 -1.497935e+00 5.280951e+01 -5.541335e-01 -3.084666e-01 -4.706345e-01 -4.535980e-01 1.098620e-01 -2.091953e-01 6.873552e-02 2.202126e-01 -9.558902e-02 -7.606930e-02 1.473435e-01 2.070085e-01 -2.702471e-01 -3.932770e-02 1.306330e-02 4.184785e-02 -1.482587e-01 -4.045968e-02 -2.411670e-01 -2.083841e-01 -5.363837e-03 -7.662865e-02 9.683252e-02 -1.862787e-02 -3.722545e-02 1.789459e-01
<VARIANCE> 39
 8.770526e+00 1.729660e+01 2.839143e+01 1.961973e+01 1.941877e+01 1.854144e+01 1.992762e+01 3.107266e+01 2.241404e+01 3.987440e+01 2.380265e+01 2.754098e+01 1.074993e+01 5.768220e-01 9.806893e-01 1.438143e+00 1.302743e+00 1.514856e+00 1.433037e+00 1.845730e+00 2.315729e+00 1.993345e+00 2.270161e+00 1.494536e+00 2.138644e+00 3.895409e-01 1.249146e-01 1.577123e-01 2.373953e-01 3.559375e-01 2.708690e-01 2.567701e-01 4.344805e-01 4.545264e-01 4.642668e-01 4.128286e-01 3.976233e-01 5.600140e-01 8.042268e-02
<GCONST> 9.864642e+01
<STATE> 3
<MEAN> 39
 -5.190411e+00 9.408899e-01 -4.965962e+00 -1.029821e+00 -1.765658e+00 -2.899175e+00 -3.686136e+00 -1.310076e+00 -1.953788e+00 -5.402492e-01 -4.114907e+00 -1.653679e+00 5.197055e+01 -6.365434e-01 -3.210640e-01 -2.744217e-01 -3.827019e-01 9.567016e-02 -4.935732e-01 -8.045630e-02 2.608832e-01 -2.239907e-01 3.059510e-01 -9.178605e-02 -1.181012e-01 1.795735e-01 9.870869e-02 -6.072406e-02 4.899130e-02 -1.409553e-01 5.133312e-02 -4.731464e-02 -1.866253e-01 9.537166e-02 -7.992809e-02 -3.874752e-03 1.347511e-02 2.434803e-02 3.386421e-01
<VARIANCE> 39
 1.160892e+01 1.066508e+01 1.363291e+01 1.505203e+01 1.440937e+01 1.285360e+01 1.497014e+01 3.289079e+01 2.736069e+01 2.678218e+01 1.644580e+01 1.430681e+01 9.146391e+00 9.458471e-01 1.022078e+00 1.582269e+00 1.926670e+00 1.809637e+00 1.324634e+00 1.647777e+00 2.975918e+00 3.045949e+00 1.858536e+00 1.714895e+00 1.823078e+00 6.469708e-01 2.517291e-01 1.588019e-01 3.136825e-01 2.228831e-01 3.421047e-01 3.233846e-01 3.480456e-01 4.715991e-01 4.941905e-01 3.550071e-01 2.635392e-01 3.039972e-01 1.680108e-01
<GCONST> 9.755776e+01
<STATE> 4
<MEAN> 39
 -7.206115e+00 -8.686140e-03 -5.234785e+00 -3.101898e+00 1.913440e-01 -5.195446e+00 -4.307667e+00 1.297179e+00 -1.508684e+00 8.105739e-01 -3.772432e+00 -1.878038e+00 5.426617e+01 -2.615574e-01 -1.120569e-01 2.606925e-02 -5.968863e-01 2.026449e-01 -3.496242e-01 -7.156201e-01 3.923816e-01 -9.060953e-02 5.234966e-02 7.731526e-02 -3.838911e-02 9.390233e-01 3.025841e-01 2.355069e-02 7.770695e-02 -6.793148e-02 -1.829478e-01 1.721059e-01 -2.124341e-01 6.865934e-02 3.802605e-02 -9.187636e-02 -5.657038e-03 -3.453578e-02 1.953702e-01
<VARIANCE> 39
 3.374871e+01 3.529228e+01 3.277267e+01 3.693768e+01 2.859035e+01 3.432956e+01 3.064850e+01 4.156143e+01 4.320152e+01 2.998041e+01 2.100976e+01 1.648188e+01 1.613913e+01 3.125697e+00 2.580963e+00 3.406529e+00 2.263952e+00 2.104489e+00 2.492110e+00 2.829813e+00 2.813782e+00 2.799130e+00 2.364755e+00 1.959180e+00 1.868937e+00 1.961840e+00 3.233208e-01 4.957869e-01 5.696478e-01 4.638135e-01 4.766251e-01 5.889623e-01 5.929318e-01 7.128453e-01 6.883011e-01 5.544690e-01 3.348846e-01 3.848309e-01 4.388933e-01
<GCONST> 1.182877e+02
<TRANSP> 5
 0.000000e+00 1.000000e+00 0.000000e+00 0.000000e+00 0.000000e+00
 0.000000e+00 4.213302e-01 5.786699e-01 0.000000e+00 0.000000e+00
 0.000000e+00 0.000000e+00 3.722587e-01 6.277413e-01 0.000000e+00
 0.000000e+00 0.000000e+00 0.000000e+00 5.383251e-01 4.616749e-01
 0.000000e+00 0.000000e+00 0.000000e+00 0.000000e+00 0.000000e+00
<ENDHMM>
~h "j"
<BEGINHMM>
<NUMSTATES> 5
<STATE> 2
<MEAN> 39
 6.751960e-01 6.831286e+00 9.802114e+00 -5.425289e+00 -1.094589e+01 -5.701934e+00 -9.925446e+00 -5.123366e+00 -9.562903e+00 2.666231e+00 -2.903428e+00 -3.489449e+00 6.465388e+01 6.309881e-01 6.418295e-01 -1.041617e+00 9.024999e-01 1.039577e+00 6.119574e-01 7.366369e-01 -1.019406e+00 7.298271e-01 3.868793e-01 -5.245133e-01 -1.543695e-01 -1.167974e+00 4.247325e-02 -1.946774e-01 -2.223427e-01 1.047411e-01 2.080092e-01 9.978434e-02 -1.651172e-01 6.939939e-02 1.878454e-01 -2.826481e-01 -1.968072e-02 8.759030e-02 3.826159e-02
<VARIANCE> 39
 1.366393e+01 2.138227e+01 4.540087e+01 5.250555e+01 4.945724e+01 5.041252e+01 3.282365e+01 5.184318e+01 1.093448e+02 2.651255e+01 3.725748e+01 2.989636e+01 7.566063e+00 1.431725e+00 1.287459e+00 1.321710e+00 2.140798e+00 4.255270e+00 2.597655e+00 1.415668e+00 2.404672e+00 3.494891e+00 3.291216e+00 2.329772e+00 1.596709e+00 6.952318e-01 2.331808e-01 2.092555e-01 3.181888e-01 4.109352e-01 7.723504e-01 4.101746e-01 2.745646e-01 4.762821e-01 5.018794e-01 3.830031e-01 5.232949e-01 3.032639e-01 1.590350e-01
<GCONST> 1.125084e+02
<STATE> 3
<MEAN> 39
 3.997797e+00 6.724066e+00 1.767354e+00 -2.320410e+00 -8.616529e+00 -6.435744e+00 -1.355638e+01 -1.407087e+01 -8.431168e+00 -5.796845e+00 -1.027559e+01 -4.708913e+00 6.053697e+01 -2.024375e-01 -1.066595e-01 1.562259e-02 6.844081e-01 4.148206e-01 5.869086e-01 -1.301608e-02 4.826801e-02 2.038504e-01 -7.547262e-01 3.594013e-01 3.981312e-01 -8.879298e-01 -2.598363e-01 -2.836406e-01 8.395740e-02 -2.405664e-01 -2.795255e-03 5.774823e-02 1.473923e-01 5.178212e-01 -2.163605e-02 2.480252e-01 2.108391e-01 1.711577e-02 8.149969e-02
<VARIANCE> 39
 6.042530e+00 2.198358e+01 1.903708e+01 2.312605e+01 2.774322e+01 3.990634e+01 5.917745e+01 5.432997e+01 3.056478e+01 7.231507e+01 4.688521e+01 4.288570e+01 1.127961e+01 6.056231e-01 1.411751e+00 9.016076e-01 1.428501e+00 2.077409e+00 2.018152e+00 1.477230e+00 3.228945e+00 3.923913e+00 2.024138e+00 2.707670e+00 1.908653e+00 4.441823e-01 8.875668e-02 1.229124e-01 1.649256e-01 1.531803e-01 3.797547e-01 4.195059e-01 3.382834e-01 3.114870e-01 5.182672e-01 2.203938e-01 1.938346e-01 3.576203e-01 5.756788e-02
<GCONST> 1.014870e+02
<STATE> 4
<MEAN> 39
 1.712955e+00 5.086285e+00 2.166008e+00 1.725155e+00 -2.168270e+00 -9.044777e-01 -7.013242e+00 -5.252944e+00 -2.364007e+00 1.301984e+00 -1.741353e+00 -1.774859e+00 5.837133e+01 -8.409000e-01 -2.176134e-01 -5.555624e-01 3.901021e-01 1.002051e+00 6.430472e-01 7.108393e-01 1.007554e+00 3.768556e-01 -2.064699e-02 1.138138e-01 -1.319690e-01 -8.262745e-01 -1.302384e-01 -4.539276e-02 -1.073911e-01 -1.300269e-01 -1.054845e-01 -1.602509e-01 3.992313e-02 -8.829335e-02 -6.634270e-02 -3.252089e-03 -1.829873e-01 -8.881629e-02 -1.133134e-02
<VARIANCE> 39
 9.438951e+00 2.840132e+01 1.814061e+01 2.541832e+01 2.740940e+01 2.636759e+01 4.791615e+01 6.069445e+01 3.538737e+01 3.227394e+01 3.187074e+01 1.900611e+01 8.787241e+00 3.362601e-01 9.794955e-01 7.059119e-01 8.020757e-01 7.329977e-01 2.201382e+00 1.745624e+00 2.006549e+00 1.246528e+00 1.208203e+00 2.006286e+00 1.902033e+00 2.461164e-01 6.090533e-02 1.803976e-01 1.373644e-01 1.733290e-01 2.082068e-01 3.828878e-01 2.205993e-01 3.045107e-01 3.335749e-01 2.523363e-01 4.736167e-01 3.955966e-01 5.754533e-02
<GCONST> 9.349696e+01
<TRANSP> 5
 0.000000e+00 1.000000e+00 0.000000e+00 0.000000e+00 0.000000e+00
 0.000000e+00 7.756114e-01 2.243886e-01 0.000000e+00 0.000000e+00
 0.000000e+00 0.000000e+00 7.268235e-01 2.731765e-01 0.000000e+00
 0.000000e+00 0.000000e+00 0.000000e+00 7.863140e-01 2.136860e-01
 0.000000e+00 0.000000e+00 0.000000e+00 0.000000e+00 0.000000e+00
<ENDHMM>
~h "k"
<BEGINHMM>
<NUMSTATES> 5
<STATE> 2
<MEAN> 39
 5.186613e+00 -4.895324e+00 -9.337779e+00 -1.590730e+01 -6.290362e+00 2.194212e+00 -1.570316e+01 1.087872e+01 -5.728637e+00 6.866264e+00 -1.224620e+01 -3.534986e+00 7.297722e+01 -5.421395e-02 -3.414204e-01 -9.371880e-02 9.436845e-02 2.580647e-01 -1.272097e-01 1.042714e-01 4.670905e-01 -1.802485e-02 5.488782e-02 -5.588585e-01 -4.645542e-02 3.610383e-01 -1.762267e-02 8.393669e-02 4.232563e-02 1.133072e-01 -8.581080e-02 -8.954459e-02 2.599220e-02 -1.100846e-01 2.577960e-02 -2.752119e-02 9.593585e-02 1.290368e-01 -7.993270e-02
<VARIANCE> 39
 1.230923e+01 4.318593e+01 2.289816e+01 6.176394e+01 4.287398e+01 9.012040e+01 7.524165e+01 5.550311e+01 6.125869e+01 4.600089e+01 5.953803e+01 3.769351e+01 3.760524e+01 5.159903e-01 1.507467e+00 1.307508e+00 3.873280e+00 2.694703e+00 4.693655e+00 3.147399e+00 2.971367e+00 2.717512e+00 2.539344e+00 2.739379e+00 2.387278e+00 1.620367e+00 5.878409e-02 2.068661e-01 2.006876e-01 5.931636e-01 4.233428e-01 6.131458e-01 4.569990e-01 4.476281e-01 3.768540e-01 3.361350e-01 4.504659e-01 3.783797e-01 1.711296e-01
<GCONST> 1.164530e+02
<STATE> 3
<MEAN> 39
 1.148282e+00 -1.084689e+00 -2.890569e+00 -9.983956e+00 -1.032540e+01 -1.023786e+01 -1.105388e+01 9.701602e+00 -4.883177e+00 2.084530e+00 -1.185244e+01 5.822978e-01 7.006490e+01 -4.576941e-01 1.209308e+00 1.118823e+00 7.640873e-01 -4.925684e-01 -1.621084e-01 1.873680e-01 -1.747401e+00 3.496122e-02 -7.809681e-01 1.570596e+00 6.594687e-01 -9.194375e-01 1.304883e-01 -9.054436e-02 3.610409e-02 -1.888067e-01 3.756081e-01 3.004815e-01 -1.254066e-01 -1.250270e-01 4.301670e-02 3.002243e-02 1.622332e-01 -4.336738e-01 3.042445e-02
<VARIANCE> 39
 2.976665e+01 2.577254e+01 5.734184e+01 4.042615e+01 6.975778e+01 5.200941e+01 4.018433e+01 9.645042e+01 5.985662e+01 4.162729e+01 4.751587e+01 3.255709e+01 5.906008e+01 1.115995e+00 1.889567e+00 3.151299e+00 2.231589e+00 3.692280e+00 4.268955e+00 2.408375e+00 5.581221e+00 4.784515e+00 4.250567e+00 3.399567e+00 4.118074e+00 2.000647e+00 3.649409e-01 3.232585e-01 3.563296e-01 3.089612e-01 4.480551e-01 4.889416e-01 4.445300e-01 1.237021e+00 6.279895e-01 7.006099e-01 7.188858e-01 5.432099e-01 4.476926e-01
<GCONST> 1.271431e+02
<STATE> 4
<MEAN> 39
 -1.185507e+00 4.447369e+00 -3.100910e+00 -9.784218e+00 -6.211051e+00 -6.524640e+00 -1.333777e+01 -3.233933e+00 -6.225316e+00 1.845021e+00 -3.320831e+00 1.549100e-01 6.408727e+01 1.076614e-02 3.823116e-03 3.757774e-01 -1.059511e-01 -8.785948e-02 -1.976016e-01 -8.926330e-02 1.121621e-02 -5.157664e-02 1.065305e-01 8.456956e-03 1.266092e-01 3.237208e-01 -3.348602e-03 -5.729217e-02 3.729522e-02 -3.105617e-02 -5.963617e-02 1.536832e-02 1.600908e-02 6.570651e-02 3.481457e-02 -6.408911e-03 -4.719409e-02 -2.416736e-02 1.558307e-02
<VARIANCE> 39
 6.949723e+01 3.637186e+01 6.640600e+01 5.005775e+01 5.844924e+01 9.026542e+01 6.793951e+01 6.212974e+01 4.107865e+01 4.988037e+01 4.892743e+01 1.954001e+01 5.376886e+01 6.439673e+00 4.216846e+00 5.523403e+00 5.484920e+00 4.971863e+00 5.737258e+00 7.373427e+00 5.961695e+00 3.549572e+00 4.506929e+00 3.085310e+00 2.299924e+00 5.654026e+00 1.065820e+00 8.430537e-01 9.883981e-01 1.056907e+00 9.020335e-01 1.055084e+00 1.280573e+00 1.139247e+00 6.864792e-01 9.097216e-01 5.760659e-01 4.719633e-01 9.406112e-01
<GCONST> 1.417540e+02
<TRANSP> 5
 0.000000e+00 1.000000e+00 0.000000e+00 0.000000e+00 0.000000e+00
 0.000000e+00 9.153678e-01 8.463225e-02 0.000000e+00 0.000000e+00
 0.000000e+00 0.000000e+00 6.635253e-01 3.364747e-01 0.000000e+00
 0.000000e+00 0.000000e+00 0.000000e+00 9.313926e-01 6.860749e-02
 0.000000e+00 0.000000e+00 0.000000e+00 0.000000e+00 0.000000e+00
<ENDHMM>
~h "l"
<BEGINHMM>
<NUMSTATES> 5
<STATE> 2
<MEAN> 39
 -7.498804e+00 -2.062712e+00 -7.371484e+00 -6.921861e+00 -4.353734e+00 -6.435009e+00 -6.607137e+00 -5.853041e-02 -3.459982e+00 -6.838335e-01 -3.368693e+00 -8.291364e-01 5.253467e+01 -2.271356e-02 2.698484e-01 2.645250e-01 2.428173e-01 3.350918e-01 3.014132e-01 1.594119e-01 4.886914e-01 2.051837e-01 -1.958831e-01 1.756712e-01 3.713412e-01 1.121183e-01 1.071794e-01 8.832569e-02 1.606592e-02 1.616826e-01 2.981998e-02 1.854806e-01 1.560606e-01 -5.455343e-02 5.712317e-02 1.993953e-02 4.054958e-02 -5.537070e-02 -7.388073e-02
<VARIANCE> 39
 4.003883e+01 2.138319e+01 3.263129e+01 1.966982e+01 2.131847e+01 2.773647e+01 2.672661e+01 4.183457e+01 3.261586e+01 2.504981e+01 2.694995e+01 2.493645e+01 3.098071e+01 2.843317e+00 1.146509e+00 2.464904e+00 1.729803e+00 2.203388e+00 2.335657e+00 1.484092e+00 4.052299e+00 1.737115e+00 2.109617e+00 1.899650e+00 1.174499e+00 1.502598e+00 5.887899e-01 2.585967e-01 5.921689e-01 3.196158e-01 5.375121e-01 4.895184e-01 3.497029e-01 1.061082e+00 2.768330e-01 5.046827e-01 3.653182e-01 2.962222e-01 3.185232e-01
<GCONST> 1.123086e+02
<STATE> 3
<MEAN> 39
 -5.220538e+00 -3.356502e+00 -4.586712e+00 -4.721488e+00 -5.481706e+00 -3.877959e+00 -5.145805e+00 1.615756e+00 -4.440674e+00 -2.649693e+00 -8.076024e-01 -8.960567e-01 5.280380e+01 2.293558e-01 3.119587e-01 1.589337e-02 2.887507e-01 1.574918e-01 2.651747e-01 5.428077e-01 -7.886263e-02 1.762764e-01 2.036852e-02 5.632791e-02 8.107200e-02 -2.597795e-01 -1.761247e-02 1.880232e-02 -2.029152e-02 2.080001e-03 5.652118e-03 -6.402753e-02 6.543306e-02 -4.536645e-03 3.153279e-02 8.965053e-02 -2.825602e-02 -5.125407e-02 -3.437854e-02
<VARIANCE> 39
 1.677240e+01 2.645445e+01 1.528851e+01 2.111595e+01 2.115916e+01 3.118251e+01 2.606572e+01 1.992273e+01 2.895887e+01 2.024106e+01 3.271665e+01 2.437589e+01 1.813752e+01 4.263173e-01 9.003096e-01 8.852891e-01 9.864756e-01 1.166500e+00 3.251286e+00 1.926012e+00 1.672386e+00 1.703703e+00 1.626615e+00 2.122061e+00 2.576989e+00 3.271236e-01 8.029268e-02 1.372668e-01 1.353817e-01 1.776800e-01 1.674065e-01 6.760364e-01 4.091951e-01 3.433481e-01 3.396578e-01 2.987328e-01 4.525430e-01 5.647202e-01 4.676456e-02
<GCONST> 9.616587e+01
<STATE> 4
<MEAN> 39
 -5.457589e+00 -2.508274e-01 -5.365171e+00 -1.242285e+00 -2.426611e+00 -3.421527e+00 -2.927727e+00 1.638973e+00 -1.914173e+00 -1.480230e+00 -2.699187e+00 9.353043e-01 4.919939e+01 1.529142e-02 2.158995e-02 -1.375725e-02 5.276122e-02 5.733064e-02 -3.172011e-02 -1.740510e-02 -5.599282e-02 -3.562964e-02 -1.254698e-02 -5.397007e-02 -6.864221e-02 -3.170197e-02 -2.064677e-02 -4.200510e-02 -8.334267e-03 -4.278020e-02 -8.096905e-03 -5.429144e-02 -3.636660e-02 -1.061181e-02 -1.169736e-02 8.824559e-03 -2.092432e-02 8.302416e-03 2.950449e-02
<VARIANCE> 39
 9.632816e+00 5.935933e+00 1.247351e+01 1.116366e+01 1.202190e+01 1.901177e+01 1.881301e+01 1.923658e+01 1.641822e+01 2.050608e+01 1.365028e+01 1.324481e+01 9.307446e+00 3.605537e-01 3.419605e-01 5.502428e-01 7.890185e-01 1.033387e+00 1.235052e+00 1.175251e+00 1.673884e+00 1.433837e+00 1.519101e+00 1.096908e+00 9.766668e-01 2.079555e-01 7.082710e-02 7.875536e-02 1.041222e-01 1.603502e-01 2.337127e-01 2.738414e-01 2.507106e-01 3.510467e-01 2.858164e-01 3.206675e-01 1.955338e-01 1.987332e-01 3.488084e-02
<GCONST> 7.904604e+01
<TRANSP> 5
 0.000000e+00 1.000000e+00 0.000000e+00 0.000000e+00 0.000000e+00
 0.000000e+00 6.391976e-01 3.608024e-01 0.000000e+00 0.000000e+00
 0.000000e+00 0.000000e+00 7.198749e-01 2.801251e-01 0.000000e+00
 0.000000e+00 0.000000e+00 0.000000e+00 9.213870e-01 7.861309e-02
 0.000000e+00 0.000000e+00 0.000000e+00 0.000000e+00 0.000000e+00
<ENDHMM>
~h "m"
<BEGINHMM>
<NUMSTATES> 5
<STATE> 2
<MEAN> 39
 4.475212e+00 4.618897e+00 2.934716e+00 -2.257036e+00 -1.113359e+01 -6.497758e+00 -1.323992e+01 -1.131114e+01 -6.064254e+00 4.366875e-01 -8.422648e+00 -3.626315e+00 6.275974e+01 2.094666e-01 -2.805615e-02 -2.648607e-01 9.988069e-01 3.158889e-01 3.967434e-01 -1.702481e-02 -4.217486e-01 4.530324e-01 -9.375769e-01 1.832723e-01 4.448788e-01 -7.975649e-01 -3.570172e-01 -1.462404e-01 2.678301e-01 -3.760317e-01 5.258019e-02 1.702264e-01 7.154167e-02 2.992857e-01 -1.072704e-01 -7.322906e-02 9.328942e-02 -1.602247e-02 1.044544e-01
<VARIANCE> 39
 6.138898e+00 1.722119e+01 4.141714e+01 2.565910e+01 4.284017e+01 3.947531e+01 5.602335e+01 8.336375e+01 7.457230e+01 7.921255e+01 5.313748e+01 2.962583e+01 1.073088e+01 1.096898e+00 1.581527e+00 1.471106e+00 2.226328e+00 2.099995e+00 2.067814e+00 2.231751e+00 3.285873e+00 3.465061e+00 2.080122e+00 2.804426e+00 1.954341e+00 5.619611e-01 1.193792e-01 1.833404e-01 3.913733e-01 3.027862e-01 5.010834e-01 3.865839e-01 3.962012e-01 4.935087e-01 5.910102e-01 3.488306e-01 3.493347e-01 3.542921e-01 9.968989e-02
<GCONST> 1.107032e+02
<STATE> 3
<MEAN> 39
 2.960496e+00 6.177605e+00 3.034284e+00 -2.528541e-01 -3.773561e+00 -1.103617e+00 -8.179704e+00 -5.477321e+00 -4.559675e+00 8.846921e-02 -4.704228e+00 -1.728612e+00 5.975779e+01 -6.864292e-01 -1.058733e-01 -2.410956e-01 4.835123e-01 8.395726e-01 6.193584e-01 4.863546e-01 7.480560e-01 3.033864e-01 -2.436816e-01 -9.610805e-02 1.663989e-01 -7.841625e-01 -1.334954e-01 -1.025660e-01 -1.246394e-01 -9.309966e-02 -1.131952e-01 -1.379401e-01 9.674849e-02 9.298111e-02 2.295240e-02 1.385411e-01 6.448366e-02 -8.880343e-02 4.706481e-03
<VARIANCE> 39
 6.119497e+00 2.167042e+01 3.517142e+01 3.134212e+01 4.673960e+01 4.534452e+01 4.365263e+01 7.687981e+01 5.334647e+01 3.113619e+01 3.980134e+01 2.050799e+01 1.384766e+01 4.297489e-01 7.797866e-01 9.635653e-01 8.849603e-01 1.171488e+00 1.963706e+00 1.288836e+00 1.312531e+00 1.429542e+00 1.642482e+00 1.646481e+00 1.709837e+00 2.295465e-01 3.974810e-02 1.842226e-01 1.161823e-01 1.371188e-01 2.363044e-01 3.810515e-01 2.945730e-01 1.961343e-01 2.765210e-01 2.253564e-01 3.829910e-01 3.321770e-01 5.378177e-02
<GCONST> 9.454321e+01
<STATE> 4
<MEAN> 39
 -2.139840e+00 3.323569e+00 3.989149e-01 4.285624e-01 -1.402704e+00 -2.424791e+00 -5.655966e+00 -7.748816e-01 -4.385280e-01 -1.174243e+00 -2.782300e+00 -9.692986e-01 5.478230e+01 -4.106811e-01 -3.489542e-01 -4.716721e-01 -2.301284e-01 7.732536e-02 -1.199553e-01 2.959816e-01 2.841085e-01 1.477123e-01 6.335963e-02 -7.069137e-02 -9.569384e-02 -3.823645e-01 5.332153e-02 3.641200e-02 5.024760e-03 -3.287628e-02 -4.662696e-02 -6.227212e-02 4.344441e-04 -7.723050e-02 -5.151095e-02 4.743702e-02 -3.306504e-02 3.248586e-03 3.023877e-02
<VARIANCE> 39
 7.648097e+00 1.864076e+01 3.477810e+01 2.396235e+01 3.481712e+01 1.832368e+01 3.765142e+01 4.793711e+01 3.803277e+01 3.512341e+01 2.778921e+01 1.969818e+01 1.415906e+01 4.171089e-01 6.980278e-01 1.364458e+00 1.262951e+00 1.042504e+00 1.802907e+00 1.985184e+00 2.058155e+00 1.875665e+00 1.721962e+00 1.300050e+00 1.358972e+00 2.176892e-01 4.817722e-02 9.141674e-02 1.986136e-01 2.171413e-01 1.567056e-01 2.381744e-01 2.682543e-01 3.302543e-01 3.258962e-01 2.715450e-01 2.908122e-01 2.659644e-01 2.375785e-02
<GCONST> 9.203287e+01
<TRANSP> 5
 0.000000e+00 1.000000e+00 0.000000e+00 0.000000e+00 0.000000e+00
 0.000000e+00 6.625594e-01 3.374406e-01 0.000000e+00 0.000000e+00
 0.000000e+00 0.000000e+00 6.637155e-01 3.362845e-01 0.000000e+00
 0.000000e+00 0.000000e+00 0.000000e+00 8.026664e-01 1.973335e-01
 0.000000e+00 0.000000e+00 0.000000e+00 0.000000e+00 0.000000e+00
<ENDHMM>
~h "n"
<BEGINHMM>
<NUMSTATES> 5
<STATE> 2
<MEAN> 39
 2.988084e-01 3.078016e+00 -6.391197e+00 -1.003291e+01 -5.053763e+00 -8.876250e+00 -1.409481e+01 -6.318021e+00 -5.882889e+00 -5.195655e-01 -4.432581e+00 -1.700053e-01 6.597105e+01 -3.460347e-01 -2.777984e-01 5.508401e-01 -3.419251e-01 1.740689e-01 -3.342926e-01 -1.978827e-01 2.894554e-01 -1.418050e-01 6.488030e-01 9.662776e-02 3.770699e-02 7.355523e-01 4.037932e-02 -3.604585e-02 7.956307e-02 -2.156908e-01 -5.732223e-02 1.500363e-01 -1.030968e-02 1.292992e-01 3.471427e-03 1.445126e-03 5.334452e-03 -5.270760e-02 3.938136e-02
<VARIANCE> 39
 7.804877e+01 3.204217e+01 7.754391e+01 7.496715e+01 6.808456e+01 6.100948e+01 6.822328e+01 4.001361e+01 7.390939e+01 3.691111e+01 4.264090e+01 3.266708e+01 5.382765e+01 5.862318e+00 2.966429e+00 6.811900e+00 8.039315e+00 4.959354e+00 7.382617e+00 8.116294e+00 4.645725e+00 7.563092e+00 4.883659e+00 3.894995e+00 3.691933e+00 6.166018e+00 9.343974e-01 6.329294e-01 1.093822e+00 1.328273e+00 1.069407e+00 1.383932e+00 1.448539e+00 8.564810e-01 1.327006e+00 9.961495e-01 7.012553e-01 6.517698e-01 1.062521e+00
<GCONST> 1.457455e+02
<STATE> 3
<MEAN> 39
 1.220274e+00 -8.947626e-01 1.382758e+00 -1.359868e+01 -6.440506e+00 -5.420899e+00 -1.465740e+01 9.815786e-01 -5.335345e+00 5.012839e+00 -6.968446e+00 -3.969424e+00 7.271179e+01 3.722034e-02 -2.110070e-02 1.386522e-01 5.596035e-01 -2.158603e-02 -1.263144e-01 1.122854e-01 2.858702e-02 -1.512044e-01 -4.318273e-01 1.081112e-01 -8.688587e-02 -2.256927e-01 3.454978e-02 1.198396e-01 -9.942653e-02 2.939152e-01 -2.048487e-02 -2.311772e-02 6.076464e-02 -2.016343e-01 2.899133e-02 -2.182567e-01 7.830150e-02 5.732017e-02 -1.939596e-01
<VARIANCE> 39
 2.490779e+01 3.913337e+01 1.088197e+02 8.795894e+01 8.185786e+01 7.386562e+01 3.238181e+01 1.730934e+02 1.461767e+02 2.151849e+01 4.083482e+01 3.247520e+01 3.034720e+01 1.406098e+00 1.772452e+00 2.728698e+00 4.790884e+00 2.758734e+00 3.227038e+00 2.923905e+00 4.078395e+00 3.476751e+00 2.438650e+00 3.404357e+00 3.007205e+00 1.802419e+00 2.690188e-01 2.570316e-01 5.240681e-01 6.173713e-01 4.779053e-01 6.493679e-01 5.618899e-01 6.520954e-01 7.651681e-01 3.392671e-01 5.731071e-01 5.961052e-01 2.991908e-01
<GCONST> 1.273191e+02
<STATE> 4
<MEAN> 39
 -2.893687e+00 -4.223838e+00 3.648257e+00 -1.297911e+01 -1.015534e+01 -9.753813e+00 -7.089896e+00 -4.185309e+00 -3.630117e+00 -7.499456e+00 -4.123306e+00 -1.811392e+00 7.542222e+01 4.022413e-01 5.969277e-02 4.592843e-01 1.491742e-01 -7.811569e-01 5.092563e-01 -7.930540e-02 -5.277560e-01 -1.859256e-02 -2.508065e-02 -2.751448e-02 -3.127270e-01 -3.139972e-01 2.868747e-02 1.918178e-01 -1.138270e-01 5.751480e-02 1.322608e-01 1.067615e-01 8.647148e-02 -7.256100e-02 6.171951e-02 2.966579e-01 -1.929580e-01 -1.326109e-01 -2.199933e-01
<VARIANCE> 39
 1.194720e+01 8.227155e+01 1.259535e+02 8.570676e+01 7.275127e+01 2.423500e+01 6.743627e+01 2.617763e+01 7.247775e+01 8.280359e+01 4.515559e+01 1.614917e+01 2.986211e+01 1.098986e+00 2.183332e+00 2.079604e+00 1.608743e+00 2.317863e+00 1.638148e+00 3.461758e+00 1.525380e+00 1.737115e+00 4.940742e+00 1.177768e+00 2.008241e+00 8.158219e-01 2.609226e-01 1.622501e-01 2.332446e-01 4.152494e-01 3.248610e-01 2.627890e-01 4.450954e-01 1.729781e-01 4.662257e-01 5.880122e-01 3.639593e-01 1.968504e-01 9.119557e-02
<GCONST> 1.125356e+02
<TRANSP> 5
 0.000000e+00 1.000000e+00 0.000000e+00 0.000000e+00 0.000000e+00
 0.000000e+00 8.783626e-01 1.216374e-01 0.000000e+00 0.000000e+00
 0.000000e+00 0.000000e+00 8.618053e-01 1.381947e-01 0.000000e+00
 0.000000e+00 0.000000e+00 0.000000e+00 7.749950e-01 2.250050e-01
 0.000000e+00 0.000000e+00 0.000000e+00 0.000000e+00 0.000000e+00
<ENDHMM>
~h "p"
<BEGINHMM>
<NUMSTATES> 5
<STATE> 2
<MEAN> 39
 -9.131129e-01 3.795915e+00 -6.952943e-01 -9.350045e-01 -5.652145e+00 -5.598451e+00 -7.202467e+00 -4.421271e+00 -7.571460e+00 5.772945e-01 -3.134619e+00 -3.188530e+00 5.964668e+01 -2.455979e-01 -2.177600e-01 -6.074539e-01 3.483028e-01 9.189811e-01 2.678092e-01 3.754724e-01 5.067076e-01 8.793245e-01 -2.385365e-01 -1.670267e-01 3.283987e-01 -2.452765e-01 -1.031265e-01 -1.633343e-01 7.160369e-02 -9.541519e-02 3.211433e-02 1.413013e-01 5.885279e-02 3.189168e-01 1.058367e-01 3.215589e-02 -8.926945e-02 2.722896e-02 3.463232e-02
<VARIANCE> 39
 3.345787e+01 3.624538e+01 5.413841e+01 4.688957e+01 2.442446e+01 5.098642e+01 3.018885e+01 6.792197e+01 5.131061e+01 3.561197e+01 2.993204e+01 2.225888e+01 6.582327e+01 9.559506e-01 9.152156e-01 2.065924e+00 2.034160e+00 1.786165e+00 1.610001e+00 1.013120e+00 3.055476e+00 2.051768e+00 2.005915e+00 2.541851e+00 2.008740e+00 1.020273e+00 1.204924e-01 1.895036e-01 3.203140e-01 3.006072e-01 2.055968e-01 4.229154e-01 2.682454e-01 3.232714e-01 3.240417e-01 3.015249e-01 4.233878e-01 3.310963e-01 1.036546e-01
<GCONST> 1.085582e+02
<STATE> 3
<MEAN> 39
 -5.304686e+00 -2.307671e+00 -3.063984e+00 -9.160936e-01 -5.417570e+00 -4.204122e+00 -5.667120e+00 -7.087734e-01 1.729881e-01 -1.298018e+00 -4.910676e+00 -7.310941e-01 5.339856e+01 -1.793275e-01 -2.429591e-01 -1.199454e-01 1.387170e-01 4.156897e-01 2.079957e-01 1.995607e-01 3.276133e-01 4.825766e-02 -1.799272e-01 -3.849999e-01 8.521397e-04 9.439427e-02 1.041293e-04 5.971728e-02 3.458308e-02 -4.853603e-02 -1.046539e-01 -2.955540e-02 -2.535133e-02 -8.993382e-02 -4.411457e-02 1.169608e-01 1.333268e-01 6.594091e-03 9.894268e-03
<VARIANCE> 39
 1.269809e+01 1.715787e+01 2.705126e+01 4.374485e+01 3.042212e+01 3.611488e+01 1.339367e+01 2.086363e+01 2.796045e+01 4.562615e+01 1.650010e+01 2.742485e+01 3.952472e+01 4.306201e-01 7.828538e-01 1.119978e+00 1.254676e+00 1.077311e+00 1.251059e+00 1.436129e+00 1.757928e+00 1.753163e+00 1.556201e+00 1.419368e+00 1.736401e+00 5.092496e-01 8.673438e-02 1.110280e-01 1.574979e-01 2.278302e-01 2.287486e-01 2.402981e-01 2.119091e-01 3.437899e-01 2.839112e-01 3.150409e-01 3.736663e-01 4.487557e-01 8.432665e-02
<GCONST> 9.525958e+01
<STATE> 4
<MEAN> 39
 -1.129787e+01 -3.419374e+00 -2.411789e+00 -3.201982e+00 -5.796310e+00 -8.199259e+00 -3.193124e+00 -1.796179e-01 6.579866e-01 2.314257e-01 -6.072811e+00 -1.549149e-01 6.022922e+01 -5.068306e-02 -2.430010e-01 -1.991635e-02 -2.065782e-01 -8.247358e-02 -1.663749e-01 8.638797e-02 3.235787e-01 2.163641e-01 7.174125e-02 1.022953e-01 1.410169e-01 8.685931e-02 7.175796e-02 1.262294e-02 -3.465942e-02 -4.796998e-03 -5.719051e-02 2.554701e-02 -9.407972e-02 1.268949e-04 -3.170614e-02 -6.632081e-02 4.086787e-02 -3.386381e-02 -7.425715e-02
<VARIANCE> 39
 3.071234e+01 2.268178e+01 2.255764e+01 3.470157e+01 2.756264e+01 3.525870e+01 3.662523e+01 4.329960e+01 2.861045e+01 3.113929e+01 2.088947e+01 1.727378e+01 4.918532e+01 1.921722e+00 1.131496e+00 1.438015e+00 1.941800e+00 1.630384e+00 2.462045e+00 2.957101e+00 3.847399e+00 2.972696e+00 2.651565e+00 2.517330e+00 1.662244e+00 2.246259e+00 3.902905e-01 2.219114e-01 2.511213e-01 3.034374e-01 3.743567e-01 4.862811e-01 5.703114e-01 7.916180e-01 6.865208e-01 5.083379e-01 5.583093e-01 3.707576e-01 3.075989e-01
<GCONST> 1.143147e+02
<TRANSP> 5
 0.000000e+00 1.000000e+00 0.000000e+00 0.000000e+00 0.000000e+00
 0.000000e+00 5.678135e-01 4.321865e-01 0.000000e+00 0.000000e+00
 0.000000e+00 0.000000e+00 6.968114e-01 3.031886e-01 0.000000e+00
 0.000000e+00 0.000000e+00 0.000000e+00 8.051696e-01 1.948304e-01
 0.000000e+00 0.000000e+00 0.000000e+00 0.000000e+00 0.000000e+00
<ENDHMM>
~h "r"
<BEGINHMM>
<NUMSTATES> 5
<STATE> 2
<MEAN> 39
 5.826050e+00 5.478491e+00 1.049170e+00 -1.530312e+01 -1.358445e+01 6.561717e-01 -1.650483e+01 -4.061479e-01 -1.126872e+01 -9.802177e-01 -1.885084e+00 3.009417e+00 6.791820e+01 2.062035e-02 -3.730946e-01 -7.475553e-01 -3.925359e-01 5.240859e-01 2.366573e-01 -2.850880e-02 3.990926e-01 4.756572e-01 4.143378e-01 -1.377578e-01 3.558476e-02 2.607429e-01 -1.222642e-01 -2.014226e-01 -1.006076e-01 1.050965e-01 3.258702e-01 -8.241919e-02 -1.368089e-01 1.083799e-01 1.631884e-01 2.967171e-01 -3.719546e-02 -2.049893e-01 8.322226e-02
<VARIANCE> 39
 1.925075e+01 2.307685e+01 9.450858e+01 7.334823e+01 3.109166e+01 1.273100e+02 4.929076e+01 8.313063e+01 5.463188e+01 3.060290e+01 5.015677e+01 2.708798e+01 2.565758e+01 2.805613e-01 9.803761e-01 7.522383e-01 1.245885e+00 1.463778e+00 1.405519e+00 1.546211e+00 1.796227e+00 1.279463e+00 2.270765e+00 1.465275e+00 1.149098e+00 6.057764e-01 3.364420e-02 1.469655e-01 1.169113e-01 1.705637e-01 1.928371e-01 2.467310e-01 3.454074e-01 2.537953e-01 1.893445e-01 3.303109e-01 1.626530e-01 1.807802e-01 8.269023e-02
<GCONST> 9.907837e+01
<STATE> 3
<MEAN> 39
 3.938799e+00 -1.782434e+00 -7.153176e+00 -1.713412e+01 -5.045166e+00 -1.517939e+00 -1.756701e+01 6.568437e+00 -4.108971e+00 6.431669e+00 -7.819036e+00 -1.119346e+00 7.423427e+01 -4.170285e-01 -1.003212e+00 -8.766071e-01 -1.125100e-01 9.537771e-01 -1.172749e-01 1.596438e-01 1.320036e+00 9.253424e-01 2.261381e-01 -1.680133e+00 -1.051634e+00 7.127694e-01 3.036574e-02 8.883211e-02 8.434541e-02 1.640455e-01 -1.840415e-01 -1.067841e-01 1.792584e-01 -8.597097e-02 -1.391784e-01 -2.792565e-01 -1.857035e-02 1.953458e-02 -1.092794e-01
<VARIANCE> 39
 1.066596e+01 2.459459e+01 3.686412e+01 6.036999e+01 3.400600e+01 7.544432e+01 4.279871e+01 1.509865e+02 5.156214e+01 3.506275e+01 1.255645e+02 2.726772e+01 3.515994e+01 3.161187e-01 7.352445e-01 8.127191e-01 1.824736e+00 1.453704e+00 2.589303e+00 2.302388e+00 1.694222e+00 1.267572e+00 2.070859e+00 1.998888e+00 2.316485e+00 4.354315e-01 3.687438e-02 7.830336e-02 6.629533e-02 1.624305e-01 1.436396e-01 3.537640e-01 2.827029e-01 2.922120e-01 2.374393e-01 1.761012e-01 4.799443e-01 2.865917e-01 5.398503e-02
<GCONST> 1.001352e+02
<STATE> 4
<MEAN> 39
 4.289039e+00 -9.036539e+00 -1.104723e+01 -1.206501e+01 -5.389215e+00 -2.804298e-01 -1.869609e+01 1.175178e+01 1.086248e+00 3.651728e+00 -1.006164e+01 -8.639514e+00 7.753170e+01 9.466839e-03 -9.448647e-02 -2.395418e-02 1.400939e-01 -5.043554e-02 -1.555913e-01 9.367216e-02 8.416579e-02 1.330964e-01 -1.328061e-01 -1.379212e-01 -3.679531e-02 -7.747185e-02 1.072866e-02 6.524281e-02 6.989960e-02 9.849348e-03 -3.029643e-02 -5.166921e-02 -1.230431e-02 -5.791281e-02 -3.221811e-02 4.058594e-02 1.019941e-01 7.038745e-02 -6.728093e-02
<VARIANCE> 39
 7.944823e+00 1.572476e+01 3.033180e+01 3.063047e+01 3.399843e+01 3.282755e+01 3.449449e+01 4.754751e+01 8.170922e+01 2.143590e+01 6.475343e+01 4.219339e+01 1.844029e+01 3.129542e-01 4.259185e-01 5.768886e-01 8.429553e-01 7.741894e-01 9.187573e-01 1.511070e+00 1.809943e+00 1.067446e+00 7.543452e-01 1.077553e+00 1.479154e+00 5.555134e-01 4.416741e-02 5.690004e-02 9.612671e-02 1.038466e-01 1.363815e-01 1.491834e-01 2.582471e-01 3.777495e-01 1.713165e-01 9.655451e-02 1.943412e-01 2.055973e-01 1.175828e-01
<GCONST> 8.736797e+01
<TRANSP> 5
 0.000000e+00 1.000000e+00 0.000000e+00 0.000000e+00 0.000000e+00
 0.000000e+00 7.620621e-01 2.379379e-01 0.000000e+00 0.000000e+00
 0.000000e+00 0.000000e+00 7.860284e-01 2.139716e-01 0.000000e+00
 0.000000e+00 0.000000e+00 0.000000e+00 9.241041e-01 7.589589e-02
 0.000000e+00 0.000000e+00 0.000000e+00 0.000000e+00 0.000000e+00
<ENDHMM>
~h "s"
<BEGINHMM>
<NUMSTATES> 5
<STATE> 2
<MEAN> 39
 -1.059267e+01 -1.274303e+00 -5.992887e+00 -5.319283e+00 -6.575746e+00 -5.010554e+00 -3.938658e+00 -8.613735e-01 -1.417394e+00 1.193430e+00 -5.241582e+00 -1.422287e+00 5.436007e+01 -1.265337e+00 1.403671e-01 4.667601e-01 -6.889284e-02 4.251760e-02 -4.084238e-01 2.693300e-01 4.543601e-01 -2.212919e-01 3.670694e-01 -1.218727e-01 4.999912e-01 1.103405e+00 -4.850068e-02 2.854446e-02 2.225115e-02 6.332731e-02 1.836446e-01 -1.348208e-01 -2.440576e-02 5.649142e-02 -3.526910e-02 -2.013639e-02 -2.904594e-02 -1.981255e-02 1.242606e-01
<VARIANCE> 39
 4.686477e+01 1.466391e+01 2.163585e+01 4.072161e+01 3.168726e+01 2.012340e+01 3.661077e+01 4.003772e+01 3.525269e+01 2.264885e+01 2.146616e+01 2.067166e+01 3.836827e+01 3.240013e+00 2.115420e+00 1.839506e+00 3.318482e+00 4.181962e+00 2.976294e+00 2.130737e+00 2.536672e+00 3.259546e+00 1.775045e+00 2.223782e+00 2.270906e+00 2.718657e+00 7.680043e-01 4.378338e-01 3.734607e-01 7.116111e-01 7.129647e-01 5.427575e-01 3.388834e-01 4.710363e-01 5.020415e-01 4.148897e-01 4.720586e-01 4.390036e-01 5.865481e-01
<GCONST> 1.186060e+02
<STATE> 3
<MEAN> 39
 -1.442339e+01 -1.572038e+00 -5.120873e+00 -4.314543e+00 -3.118316e+00 -1.091828e+01 -2.665731e+00 2.714233e+00 -1.836367e+00 1.581591e+00 -7.537547e+00 1.745291e+00 5.930488e+01 3.616242e-01 -2.239131e-02 -1.433330e-01 3.487725e-01 5.411131e-01 -5.865649e-02 -1.584269e-01 2.084658e-01 1.443762e-01 2.674792e-02 8.535620e-02 2.068683e-01 -2.174252e-01 4.941300e-01 -4.080495e-02 -5.649481e-02 -6.931881e-02 -1.602819e-01 2.066254e-01 -2.693337e-01 -8.807969e-02 7.829616e-02 7.854850e-03 7.342470e-02 -1.847931e-01 -1.730355e-01
<VARIANCE> 39
 5.363783e+01 6.185514e+01 4.484052e+01 2.365499e+01 3.124813e+01 4.423383e+01 4.078950e+01 3.628765e+01 4.880490e+01 2.579584e+01 2.982674e+01 1.584673e+01 2.668267e+01 4.801586e+00 2.056731e+00 1.761315e+00 1.607730e+00 1.837525e+00 4.204101e+00 2.450628e+00 3.183709e+00 2.709091e+00 2.635807e+00 1.494847e+00 8.014255e-01 2.185578e+00 6.383103e-01 3.592508e-01 4.589442e-01 3.414355e-01 5.492740e-01 1.059691e+00 4.540963e-01 6.000772e-01 5.410120e-01 5.419888e-01 2.898239e-01 2.479028e-01 4.844609e-01
<GCONST> 1.184688e+02
<STATE> 4
<MEAN> 39
 -5.782564e+00 -6.893717e-01 -5.301178e+00 -2.375579e+00 -2.418341e+00 -4.893485e+00 -4.123922e+00 1.144552e+00 -6.078184e-01 1.196500e+00 -3.365419e+00 -1.559162e+00 5.124458e+01 2.502070e-01 1.050237e-01 -5.557582e-03 -7.911950e-02 2.322008e-02 1.930112e-01 -1.823082e-01 -7.022399e-03 -1.802274e-02 -4.051114e-02 -7.092106e-03 -1.442712e-01 1.125621e-02 -6.961103e-02 -9.202851e-03 5.559049e-02 -6.661935e-02 5.128758e-03 -3.556784e-02 -5.140338e-02 4.813187e-02 -5.969697e-02 2.193955e-02 -2.471543e-02 -4.274419e-04 1.535539e-01
<VARIANCE> 39
 1.274571e+01 8.656447e+00 1.648360e+01 1.446828e+01 1.442137e+01 2.501299e+01 2.724211e+01 3.192412e+01 2.660350e+01 2.102732e+01 1.794143e+01 1.439600e+01 2.352588e+01 9.920937e-01 7.369652e-01 1.047739e+00 1.080849e+00 1.193841e+00 2.644805e+00 1.963726e+00 2.449462e+00 2.097478e+00 1.930529e+00 1.667575e+00 1.258564e+00 8.542871e-01 2.042946e-01 1.108519e-01 1.861214e-01 2.548283e-01 2.210159e-01 4.629568e-01 4.021011e-01 4.556266e-01 4.391120e-01 3.871830e-01 3.247277e-01 2.384712e-01 1.918901e-01
<GCONST> 9.727037e+01
<TRANSP> 5
 0.000000e+00 1.000000e+00 0.000000e+00 0.000000e+00 0.000000e+00
 0.000000e+00 7.728871e-01 2.271129e-01 0.000000e+00 0.000000e+00
 0.000000e+00 0.000000e+00 7.477446e-01 2.522554e-01 0.000000e+00
 0.000000e+00 0.000000e+00 0.000000e+00 8.857136e-01 1.142863e-01
 0.000000e+00 0.000000e+00 0.000000e+00 0.000000e+00 0.000000e+00
<ENDHMM>
~h "t"
<BEGINHMM>
<NUMSTATES> 5
<STATE> 2
<MEAN> 39
 -1.821504e+00 -6.291758e-01 -1.088872e+01 -1.339675e+01 -3.157624e+00 -3.200273e+00 -8.815276e+00 3.278841e+00 -3.256691e+00 -7.808261e-01 -5.453054e+00 -3.975561e+00 6.651793e+01 7.392602e-01 -7.259242e-01 -9.587667e-02 -8.678153e-01 -3.742840e-01 3.126618e-01 -1.127843e+00 3.655161e-01 3.152385e-02 3.852786e-01 -4.068673e-02 -2.601480e-01 1.350602e+00 4.666834e-02 -1.752301e-01 2.642936e-02 -8.585861e-03 1.169611e-02 8.971642e-02 -9.624398e-02 1.099595e-01 6.343789e-03 5.984500e-02 -1.474787e-01 -4.543201e-02 8.026933e-02
<VARIANCE> 39
 9.786619e+01 4.073152e+01 3.376799e+01 6.349944e+01 2.446234e+01 5.622212e+01 6.886723e+01 4.750200e+01 6.164347e+01 5.886813e+01 3.853850e+01 4.888573e+01 7.007494e+01 7.234821e+00 3.508514e+00 2.109438e+00 4.977330e+00 2.030577e+00 4.025906e+00 7.050388e+00 4.024732e+00 3.261464e+00 4.439542e+00 3.359054e+00 2.834209e+00 7.550061e+00 1.103967e+00 4.955707e-01 3.733585e-01 9.780248e-01 3.531770e-01 7.138591e-01 1.207306e+00 5.997172e-01 5.855914e-01 6.577795e-01 6.247759e-01 5.091543e-01 9.262109e-01
<GCONST> 1.354375e+02
<STATE> 3
<MEAN> 39
 2.956290e+00 -9.273462e+00 -1.171971e+01 -1.627822e+01 -4.038760e+00 -4.307424e+00 -1.521072e+01 9.758102e+00 -2.352265e+00 1.513692e+00 -9.156910e+00 -8.110582e+00 7.842042e+01 -2.359509e-01 -1.911469e-01 5.464603e-01 4.081324e-01 -3.595383e-01 -7.735018e-01 -4.504970e-02 9.209074e-01 1.523785e-01 -1.572005e-01 -3.262534e-01 2.674220e-01 1.425375e-01 -6.184365e-02 3.663064e-01 2.267859e-01 2.014648e-01 -1.883887e-01 -2.593480e-01 1.423579e-01 -1.953911e-01 -1.256735e-01 8.716928e-04 2.606331e-01 2.318915e-01 -3.348331e-01
<VARIANCE> 39
 1.686814e+01 1.982940e+01 2.982922e+01 3.667332e+01 4.425318e+01 8.475024e+01 6.598755e+01 1.105820e+02 4.780682e+01 1.068468e+02 4.742846e+01 5.458136e+01 1.480887e+01 4.025987e-01 1.301939e+00 1.396099e+00 1.937635e+00 2.032860e+00 3.180340e+00 2.157328e+00 2.604087e+00 1.525207e+00 1.829784e+00 2.669225e+00 2.674657e+00 6.952584e-01 9.984629e-02 1.862921e-01 1.302507e-01 3.753098e-01 2.854047e-01 4.116538e-01 5.243679e-01 3.837317e-01 3.512507e-01 3.563128e-01 4.851273e-01 3.293927e-01 1.723404e-01
<GCONST> 1.108569e+02
<STATE> 4
<MEAN> 39
 -1.870174e-01 -2.763879e-01 4.720634e+00 -9.544104e+00 -1.479668e+01 -1.098589e+01 -1.548992e+01 8.476310e+00 -8.774785e+00 7.919071e-01 -3.332591e+00 -2.117061e+00 7.399117e+01 -7.160683e-02 8.825241e-01 2.327939e-01 6.276060e-01 8.795479e-02 -1.763604e-01 8.704884e-01 -7.207938e-01 5.316597e-02 -2.191335e-01 2.536203e-01 6.302777e-02 -9.599491e-01 4.457823e-02 -9.819331e-02 -3.155415e-01 -7.035694e-02 2.383808e-01 2.055492e-01 1.050031e-01 -1.062863e-02 2.260911e-01 -3.151743e-02 -1.139129e-01 -1.774024e-01 -1.519696e-01
<VARIANCE> 39
 1.673232e+01 2.695930e+01 7.105544e+01 4.679634e+01 8.642089e+01 5.549730e+01 5.304945e+01 1.000216e+02 7.159615e+01 4.838080e+01 8.260976e+01 2.264423e+01 2.750879e+01 1.070195e+00 1.596558e+00 3.279591e+00 2.357242e+00 5.673250e+00 2.876180e+00 4.058775e+00 3.666559e+00 5.364595e+00 2.073736e+00 4.352702e+00 2.590611e+00 3.664505e+00 1.746342e-01 2.148137e-01 2.141221e-01 3.883719e-01 5.661945e-01 5.089418e-01 8.256648e-01 5.718794e-01 6.452789e-01 3.973058e-01 6.331457e-01 4.897183e-01 3.028784e-01
<GCONST> 1.246616e+02
<TRANSP> 5
 0.000000e+00 1.000000e+00 0.000000e+00 0.000000e+00 0.000000e+00
 0.000000e+00 8.859547e-01 1.140453e-01 0.000000e+00 0.000000e+00
 0.000000e+00 0.000000e+00 8.693786e-01 1.306215e-01 0.000000e+00
 0.000000e+00 0.000000e+00 0.000000e+00 8.956639e-01 1.043362e-01
 0.000000e+00 0.000000e+00 0.000000e+00 0.000000e+00 0.000000e+00
<ENDHMM>
~h "u"
<BEGINHMM>
<NUMSTATES> 5
<STATE> 2
<MEAN> 39
 -1.742340e+00 -1.673611e+00 -5.388445e+00 -8.809830e+00 -7.172106e+00 -7.518181e+00 -1.118462e+01 5.115616e+00 5.451118e+00 -2.337384e-01 -9.570175e+00 -2.359004e+00 6.741776e+01 4.775532e-02 -4.436843e-01 -2.062199e-01 -6.105387e-01 2.316726e-01 1.419127e-01 -4.994802e-01 2.049219e-01 -5.649184e-02 2.303098e-01 -1.998336e-01 -1.992582e-01 6.216433e-01 6.578575e-03 -3.628626e-02 6.800411e-02 -1.032520e-01 2.601065e-02 -4.216422e-03 -1.557614e-01 1.369439e-02 -2.137961e-01 7.271819e-02 7.332581e-02 1.844850e-02 2.461993e-01
<VARIANCE> 39
 6.587729e+01 4.112428e+01 3.090359e+01 2.951515e+01 4.092607e+01 4.935407e+01 5.117030e+01 3.672495e+01 8.787490e+01 3.050650e+01 3.510448e+01 3.440889e+01 1.083117e+02 6.216732e+00 2.790999e+00 2.172483e+00 2.720088e+00 3.070436e+00 3.804699e+00 4.563887e+00 3.059171e+00 3.957051e+00 2.800739e+00 2.904369e+00 3.422177e+00 5.976858e+00 8.040499e-01 4.552712e-01 3.372037e-01 3.960656e-01 5.455998e-01 5.570621e-01 7.140034e-01 5.471776e-01 6.054313e-01 4.842061e-01 4.811268e-01 5.587553e-01 7.107680e-01
<GCONST> 1.294054e+02
<STATE> 3
<MEAN> 39
 2.482153e-01 -5.118742e+00 -7.396347e+00 -1.379931e+01 -1.274281e+00 -5.257786e+00 -1.319712e+01 1.084300e+01 -5.889585e+00 4.185897e+00 -1.100989e+01 -4.472329e+00 7.255863e+01 2.762591e-01 3.822942e-01 1.053444e-01 -1.807004e-02 5.100838e-02 1.864667e-01 -5.724001e-01 -3.657675e-01 -6.025872e-01 -5.236764e-02 4.381499e-01 2.651453e-02 4.228145e-01 9.649152e-02 4.835463e-01 1.242562e-01 4.593062e-01 -3.972027e-01 4.894185e-02 2.183725e-01 -6.466285e-01 1.080980e-01 -1.715750e-01 3.025592e-01 8.000376e-02 -5.953858e-01
<VARIANCE> 39
 8.180535e+01 2.638353e+01 4.928295e+01 5.910574e+01 2.983875e+01 1.428777e+02 5.397189e+01 6.311801e+01 5.211003e+01 4.062614e+01 6.993565e+01 5.812659e+01 4.012993e+01 3.784171e+00 3.011053e+00 1.734506e+00 3.759914e+00 4.298568e+00 4.082758e+00 5.343213e+00 5.578277e+00 3.535190e+00 2.659917e+00 3.831180e+00 2.417843e+00 5.591279e+00 7.920093e-01 2.652764e-01 3.866210e-01 6.626823e-01 8.214225e-01 8.241591e-01 1.005490e+00 6.850006e-01 4.953539e-01 5.904241e-01 5.657690e-01 5.350068e-01 3.476640e-01
<GCONST> 1.330730e+02
<STATE> 4
<MEAN> 39
 -3.419412e+00 2.413382e+00 -2.212831e+00 -9.121634e+00 -5.051221e+00 -4.732687e+00 -1.450533e+01 1.388416e+00 -3.639186e+00 1.468298e+00 -3.904453e+00 -1.289589e+00 6.706759e+01 1.143790e+00 4.176472e-01 3.874797e-01 1.701884e-02 -7.049662e-01 5.810665e-01 -4.672320e-01 -1.148659e+00 -4.101392e-01 2.573426e-01 3.476710e-01 1.078604e-01 -9.490706e-02 7.908911e-03 -8.948153e-02 -6.013958e-02 -2.069849e-01 -6.074487e-02 1.116473e-01 1.305847e-01 1.702441e-01 2.007934e-02 -9.633653e-03 -4.628808e-02 3.151446e-02 -1.712801e-02
<VARIANCE> 39
 1.200832e+02 3.967714e+01 6.007495e+01 4.993387e+01 5.029834e+01 7.737817e+01 8.221619e+01 9.158685e+01 7.140312e+01 4.504714e+01 5.262268e+01 2.707523e+01 2.683324e+01 7.910179e+00 3.460173e+00 3.725530e+00 5.956515e+00 4.026695e+00 6.197861e+00 8.091321e+00 6.207389e+00 5.105100e+00 3.949700e+00 3.719746e+00 2.675873e+00 2.746989e+00 1.068708e+00 5.135309e-01 5.030884e-01 9.003246e-01 7.224960e-01 9.308528e-01 1.339452e+00 9.366999e-01 8.364471e-01 6.810670e-01 6.803443e-01 5.233565e-01 2.637638e-01
<GCONST> 1.393385e+02
<TRANSP> 5
 0.000000e+00 1.000000e+00 0.000000e+00 0.000000e+00 0.000000e+00
 0.000000e+00 8.279280e-01 1.720720e-01 0.000000e+00 0.000000e+00
 0.000000e+00 0.000000e+00 6.610702e-01 3.389298e-01 0.000000e+00
 0.000000e+00 0.000000e+00 0.000000e+00 8.242074e-01 1.757926e-01
 0.000000e+00 0.000000e+00 0.000000e+00 0.000000e+00 0.000000e+00
<ENDHMM>
~h "y"
<BEGINHMM>
<NUMSTATES> 5
<STATE> 2
<MEAN> 39
 -6.301150e-01 2.309716e+00 -4.173862e+00 -8.478250e+00 -5.517146e+00 -9.071093e+00 -1.399022e+01 -5.655381e+00 -7.078689e+00 -6.389253e-01 -3.403056e+00 -5.823621e-01 6.653065e+01 -3.159028e-02 -2.223630e-01 1.195609e+00 -7.370125e-01 -1.843835e-01 -6.560813e-02 -8.371103e-01 -4.797168e-02 -4.443471e-01 6.593536e-01 3.145889e-01 5.324212e-02 1.281709e+00 1.128935e-01 1.075657e-01 -2.678349e-02 -3.150302e-01 -9.194259e-02 2.143874e-01 -1.090901e-01 7.977973e-02 6.461918e-02 2.188283e-02 -3.578523e-02 -9.502250e-02 -1.017665e-01
<VARIANCE> 39
 8.720544e+01 2.707110e+01 9.693981e+01 6.308410e+01 7.679649e+01 5.472542e+01 7.587314e+01 4.456408e+01 7.269753e+01 2.978027e+01 4.156144e+01 2.882236e+01 4.899971e+01 6.963556e+00 3.126436e+00 7.392133e+00 8.374319e+00 7.005115e+00 7.005469e+00 9.165761e+00 4.510855e+00 7.454914e+00 4.382419e+00 3.610079e+00 2.714917e+00 5.213411e+00 1.124133e+00 6.829479e-01 1.285769e+00 1.251661e+00 1.270139e+00 1.286693e+00 1.641035e+00 9.033928e-01 1.284794e+00 7.332548e-01 6.435136e-01 5.117661e-01 9.528924e-01
<GCONST> 1.454118e+02
<STATE> 3
<MEAN> 39
 -3.874020e-02 1.626390e+00 1.207601e+01 -1.482046e+01 -1.484575e+01 -8.367874e+00 -1.680001e+01 -1.838051e+00 -1.104385e+01 2.032046e+00 -1.643171e+00 -6.161538e-01 7.259496e+01 1.133229e-01 5.338120e-02 1.129401e-01 -8.705761e-01 -5.726827e-01 1.221780e+00 -1.196585e-01 1.599935e-01 1.485806e-01 4.870182e-01 1.306969e-01 -4.543095e-01 1.008171e-01 -2.323030e-01 4.046583e-01 -6.740333e-01 7.255213e-01 4.539673e-01 -2.103825e-02 5.935927e-01 -2.354293e-01 4.792586e-01 -2.593873e-01 -2.019391e-01 -2.525450e-02 -4.777322e-01
<VARIANCE> 39
 1.119811e+01 1.061834e+01 9.837424e+01 5.091499e+01 6.895357e+01 8.715951e+01 4.385207e+01 9.420181e+01 1.046501e+02 5.421402e+01 4.852070e+01 2.102333e+01 6.513550e+00 4.866267e-01 2.418825e+00 1.997578e+00 2.307491e+00 2.918422e+00 2.812790e+00 2.091762e+00 4.904042e+00 3.147786e+00 1.880784e+00 2.582175e+00 2.291277e+00 7.861277e-01 2.856565e-01 9.496965e-02 2.617975e-01 2.817494e-01 5.190015e-01 5.318930e-01 5.485097e-01 4.824307e-01 7.640516e-01 5.692441e-01 4.940788e-01 1.819433e-01 1.094633e-01
<GCONST> 1.146023e+02
<STATE> 4
<MEAN> 39
 1.498698e+00 6.602314e+00 5.125435e+00 -1.500569e+01 -1.418431e+01 -1.044322e+00 -1.691512e+01 -2.048936e+00 -1.092610e+01 8.684707e-01 -1.271586e+00 -7.003706e-01 7.056841e+01 1.279949e-01 4.695197e-01 -6.963722e-01 1.600687e-01 9.059399e-01 1.037219e-01 7.829916e-01 1.255883e-01 3.137397e-01 -7.720272e-02 -3.954420e-01 1.285921e-01 -5.455254e-01 3.987843e-02 -2.192639e-01 -1.270093e-01 3.135870e-01 3.077510e-01 -1.463789e-01 7.911436e-02 -1.075550e-01 5.540521e-02 8.774921e-05 -1.588820e-01 -1.426770e-01 -9.326871e-02
<VARIANCE> 39
 1.453360e+01 2.170061e+01 1.203867e+02 6.419254e+01 8.975371e+01 7.565352e+01 3.196168e+01 1.040573e+02 7.112097e+01 1.909449e+01 4.282386e+01 2.346441e+01 1.599558e+01 2.204122e-01 1.319218e+00 8.274575e-01 8.961284e-01 3.618101e+00 1.654291e+00 1.655584e+00 2.743146e+00 1.283414e+00 2.623303e+00 1.988530e+00 1.603406e+00 4.382713e-01 7.114156e-02 8.976465e-02 1.280678e-01 2.857203e-01 3.475723e-01 4.408639e-01 3.218679e-01 3.846128e-01 4.719176e-01 4.673895e-01 2.305139e-01 2.747335e-01 6.610823e-02
<GCONST> 1.042179e+02
<TRANSP> 5
 0.000000e+00 1.000000e+00 0.000000e+00 0.000000e+00 0.000000e+00
 0.000000e+00 8.516014e-01 1.483987e-01 0.000000e+00 0.000000e+00
 0.000000e+00 0.000000e+00 6.091440e-01 3.908560e-01 0.000000e+00
 0.000000e+00 0.000000e+00 0.000000e+00 7.272612e-01 2.727388e-01
 0.000000e+00 0.000000e+00 0.000000e+00 0.000000e+00 0.000000e+00
<ENDHMM>
~h "ng"
<BEGINHMM>
<NUMSTATES> 5
<STATE> 2
<MEAN> 39
 -3.528940e+00 -5.942073e-01 -3.940167e+00 -4.423273e-01 -3.304871e-01 -2.845064e+00 -3.305557e+00 3.570516e+00 1.018048e+00 -2.341330e+00 -3.691516e+00 -1.003124e+00 5.364633e+01 -1.653045e-01 2.672677e-02 -7.840473e-02 -2.369803e-01 -3.623008e-02 -1.179446e-02 1.272001e-01 3.776575e-02 1.474176e-01 3.341231e-01 1.331133e-01 -1.234123e-01 -2.636147e-01 1.442542e-02 5.362264e-02 3.472034e-02 3.278552e-02 2.572120e-02 5.117535e-02 3.757313e-02 -1.242103e-02 -5.623876e-02 -2.523419e-02 -2.274095e-02 7.152453e-03 -7.681849e-04
<VARIANCE> 39
 4.032466e+00 2.759323e+01 2.559190e+01 3.147804e+01 1.656194e+01 1.808455e+01 2.619096e+01 3.515036e+01 2.477401e+01 2.432621e+01 1.897047e+01 1.704586e+01 9.142021e+00 3.542597e-01 6.714177e-01 7.390391e-01 1.065115e+00 9.083165e-01 1.022177e+00 1.296444e+00 2.230136e+00 1.708963e+00 1.168446e+00 1.329132e+00 1.150847e+00 1.886671e-01 6.184061e-02 9.730689e-02 1.479965e-01 1.990256e-01 1.792568e-01 1.939272e-01 2.973982e-01 4.681695e-01 3.287038e-01 2.322164e-01 2.628402e-01 2.671173e-01 2.174076e-02
<GCONST> 8.573550e+01
<STATE> 3
<MEAN> 39
 -5.691401e+00 6.643409e-01 -4.857343e+00 -1.534830e+00 -1.842138e+00 -3.463387e+00 -3.295102e+00 5.702522e-02 -2.704637e+00 -1.355435e+00 -4.244824e+00 -1.905040e+00 5.134396e+01 -6.564021e-03 -6.364785e-02 -5.992155e-02 -1.447572e-02 -4.463525e-02 -6.074302e-03 1.152834e-01 1.124776e-01 3.327698e-02 2.399523e-02 6.743941e-02 7.099570e-02 -1.824826e-01 1.569467e-02 1.324311e-02 3.720645e-03 1.527636e-02 -1.656226e-02 2.468089e-03 -1.679043e-02 -2.224826e-02 2.054307e-02 -2.344171e-02 -8.059691e-03 -6.906097e-03 7.818645e-03
<VARIANCE> 39
 5.655431e+00 5.579345e+00 7.393131e+00 1.038382e+01 1.105244e+01 1.922919e+01 1.599282e+01 2.393682e+01 2.309658e+01 3.047954e+01 1.813750e+01 1.446766e+01 2.021694e+00 1.591683e-01 3.203172e-01 4.615647e-01 8.969188e-01 8.884435e-01 1.128942e+00 1.400692e+00 1.520240e+00 1.422831e+00 1.494062e+00 1.619097e+00 1.240773e+00 7.677127e-02 2.480448e-02 4.659764e-02 8.343565e-02 1.795853e-01 1.799854e-01 2.390754e-01 2.605639e-01 2.779259e-01 2.469963e-01 3.055659e-01 3.223777e-01 2.214433e-01 1.020283e-02
<GCONST> 7.284880e+01
<STATE> 4
<MEAN> 39
 -5.050761e+00 7.007944e-01 -5.410538e+00 -2.104811e+00 -3.061890e+00 -2.997287e+00 -3.030396e+00 2.149017e-01 -9.615910e-02 -3.497235e-01 -3.177172e+00 -2.371492e+00 4.752565e+01 -2.137763e-02 -1.210214e-02 -6.666151e-03 1.186919e-02 -2.004460e-02 -2.101074e-02 -1.909463e-02 -3.873794e-02 -1.725986e-02 1.473781e-02 2.300523e-02 1.766462e-02 -4.047952e-02 -9.445804e-03 7.446617e-04 7.000308e-03 -2.104288e-03 2.634652e-03 -2.840688e-03 3.734441e-03 1.104165e-02 1.422691e-04 1.064775e-02 3.393207e-03 5.906031e-03 1.826256e-02
<VARIANCE> 39
 1.891424e+00 3.628532e+00 5.803754e+00 9.432285e+00 1.061099e+01 1.274010e+01 1.292051e+01 1.913242e+01 1.831573e+01 1.551122e+01 1.139343e+01 1.232678e+01 1.594298e+00 1.538157e-01 2.619416e-01 4.631424e-01 6.375465e-01 9.065398e-01 1.001934e+00 1.061426e+00 1.269999e+00 1.389115e+00 1.157680e+00 1.126919e+00 1.105099e+00 6.029314e-02 3.230311e-02 5.219972e-02 9.427065e-02 1.279860e-01 1.909875e-01 1.997667e-01 2.081335e-01 2.658039e-01 2.983759e-01 2.212396e-01 2.236896e-01 2.200893e-01 1.282773e-02
<GCONST> 6.569164e+01
<TRANSP> 5
 0.000000e+00 1.000000e+00 0.000000e+00 0.000000e+00 0.000000e+00
 0.000000e+00 8.776363e-01 1.223638e-01 0.000000e+00 0.000000e+00
 0.000000e+00 0.000000e+00 9.211780e-01 7.882195e-02 0.000000e+00
 0.000000e+00 0.000000e+00 0.000000e+00 9.658036e-01 3.419650e-02
 0.000000e+00 0.000000e+00 0.000000e+00 0.000000e+00 0.000000e+00
<ENDHMM>
~h "sp"
<BEGINHMM>
<NUMSTATES> 5
<STATE> 2
~s "silst"
<STATE> 3
<MEAN> 39
 -3.503542e+00 6.094637e-01 -4.407776e+00 -3.874329e+00 -4.200235e+00 -4.487373e+00 -4.469192e+00 4.799029e-01 -1.007113e+00 7.229356e-01 -3.563179e+00 -2.359349e+00 5.500974e+01 -3.334038e-01 2.684884e-02 -1.065885e-01 6.872160e-02 8.205041e-02 1.867016e-01 4.222767e-01 1.137874e-01 7.018051e-02 6.157347e-02 2.337857e-01 9.880597e-04 -3.469684e-01 5.011615e-02 -5.013623e-02 -1.097502e-02 -1.022421e-02 -2.550911e-02 -4.609200e-02 -1.519179e-01 -1.455801e-02 -1.080772e-01 -2.501226e-02 -8.931417e-02 2.253132e-02 8.255764e-02
<VARIANCE> 39
 3.365508e+01 2.369284e+01 3.182440e+01 3.875317e+01 2.871083e+01 3.640841e+01 4.886416e+01 3.774909e+01 3.945959e+01 3.521616e+01 3.447526e+01 2.222836e+01 4.163416e+01 1.389162e+00 1.257154e+00 2.004532e+00 1.547346e+00 2.076577e+00 2.224435e+00 2.625533e+00 2.637191e+00 2.078180e+00 1.960887e+00 2.225526e+00 1.748140e+00 1.325675e+00 2.531009e-01 2.530030e-01 3.703264e-01 3.099872e-01 4.658903e-01 4.236462e-01 5.798427e-01 5.608712e-01 4.379743e-01 3.512782e-01 4.490067e-01 3.393012e-01 2.713289e-01
<GCONST> 1.130389e+02
<STATE> 4
<MEAN> 39
 -4.275749e+00 6.015961e-01 -5.426111e+00 -2.254221e+00 -3.303757e+00 -3.284059e+00 -3.449341e+00 6.888101e-01 -3.468393e-01 -3.516717e-02 -3.403375e+00 -1.706245e+00 5.013569e+01 -5.097337e-02 1.852091e-03 -5.313669e-02 -3.769302e-02 1.022015e-02 2.122672e-02 4.616342e-02 1.236365e-03 -1.159969e-02 -1.595259e-03 -4.200471e-03 2.284856e-02 -1.016002e-01 -1.959473e-02 -7.437118e-03 3.031023e-02 -2.045514e-02 1.782227e-02 -1.617514e-02 -2.218777e-02 7.492511e-03 -2.615404e-02 4.981986e-03 -1.236703e-02 4.833066e-03 4.816190e-02
<VARIANCE> 39
 8.958412e+00 9.385563e+00 1.146293e+01 1.765300e+01 1.502915e+01 1.769560e+01 2.234671e+01 2.542756e+01 2.141820e+01 2.173467e+01 1.782269e+01 1.568457e+01 1.496310e+01 3.721008e-01 4.283344e-01 6.597518e-01 8.750960e-01 1.061796e+00 1.111441e+00 1.327561e+00 1.536206e+00 1.583431e+00 1.434655e+00 1.533072e+00 1.261032e+00 2.346788e-01 7.471610e-02 8.101818e-02 1.323740e-01 1.687616e-01 2.254659e-01 2.226619e-01 2.737530e-01 3.082605e-01 3.373736e-01 2.895749e-01 3.098093e-01 2.564771e-01 6.554823e-02
<GCONST> 8.439345e+01
<TRANSP> 5
 0.000000e+00 2.695305e-05 9.999730e-01 0.000000e+00 0.000000e+00
 0.000000e+00 3.474405e-02 9.652560e-01 0.000000e+00 0.000000e+00
 0.000000e+00 0.000000e+00 4.954094e-01 5.045906e-01 0.000000e+00
 0.000000e+00 0.000000e+00 0.000000e+00 8.348780e-01 1.651220e-01
 0.000000e+00 0.000000e+00 0.000000e+00 0.000000e+00 0.000000e+00
<ENDHMM>
~h "sil"
<BEGINHMM>
<NUMSTATES> 5
<STATE> 2
<MEAN> 39
 -3.125581e+00 -1.316680e-01 -3.252724e+00 -9.585758e-01 -1.604050e+00 -1.538068e+00 -1.510600e+00 5.350411e-02 -5.816451e-01 5.281739e-02 -1.490922e+00 -4.911024e-01 2.561021e+01 -1.030949e+00 -6.785730e-01 -1.532752e+00 -8.614210e-01 -1.292888e+00 -1.047992e+00 -1.220087e+00 -5.825961e-01 -6.049062e-01 -3.297719e-01 -6.508277e-01 -2.721564e-01 6.464906e+00 2.989791e-02 -7.350305e-04 1.675593e-02 -6.211197e-02 -4.552440e-02 -1.484124e-01 -1.153103e-01 -5.403720e-02 -4.583990e-02 -6.507337e-02 -3.656096e-02 -9.090696e-02 1.269019e-01
<VARIANCE> 39
 1.101311e+01 4.948853e+00 1.510104e+01 9.636834e+00 1.017066e+01 1.102606e+01 1.415336e+01 8.349863e+00 8.714262e+00 1.304725e+01 9.703797e+00 1.002651e+01 5.456469e+02 1.695629e+00 7.535932e-01 2.158067e+00 1.407483e+00 2.093988e+00 2.646526e+00 2.056115e+00 1.668313e+00 1.692331e+00 1.615627e+00 1.532164e+00 1.339680e+00 4.345797e+01 6.454619e-02 6.714534e-02 1.363396e-01 1.364972e-01 1.755340e-01 2.176348e-01 2.787843e-01 2.205617e-01 2.282695e-01 2.486133e-01 1.783584e-01 1.548975e-01 1.199974e+00
<GCONST> 9.380405e+01
<STATE> 3
~s "silst"
<STATE> 4
<MEAN> 39
 -5.848638e+00 -1.664618e+00 -7.621586e+00 -3.554715e+00 -5.170885e+00 -5.465148e+00 -4.138507e+00 1.572535e-01 -7.880988e-01 -6.372051e-01 -3.389717e+00 -1.646803e+00 4.863345e+01 2.145113e-02 3.417566e-02 3.759527e-02 4.307014e-02 4.248365e-02 5.130993e-02 7.099151e-02 6.608984e-02 2.391706e-02 1.898613e-02 -9.695209e-04 -3.295491e-03 -7.655399e-02 -1.642777e-02 5.966417e-03 1.651130e-02 1.120216e-02 1.188353e-02 -4.446337e-03 -5.094368e-03 4.448413e-03 -1.307646e-02 1.230109e-02 -2.927540e-03 1.473351e-02 1.626611e-03
<VARIANCE> 39
 3.952627e+00 7.106395e+00 9.972054e+00 1.188815e+01 1.384206e+01 1.521776e+01 1.653841e+01 2.228580e+01 2.147848e+01 1.757372e+01 1.523778e+01 1.442872e+01 4.697116e+00 1.940331e-01 3.158058e-01 4.966426e-01 7.446323e-01 9.227663e-01 1.110546e+00 1.300981e+00 1.456638e+00 1.325837e+00 1.423851e+00 1.399978e+00 1.213757e+00 1.682060e-01 4.136585e-02 6.134914e-02 9.737978e-02 1.356217e-01 1.824833e-01 2.185526e-01 2.462780e-01 2.873460e-01 2.625652e-01 2.777962e-01 2.848395e-01 2.468291e-01 2.737592e-02
<GCONST> 7.513598e+01
<TRANSP> 5
 0.000000e+00 1.000000e+00 0.000000e+00 0.000000e+00 0.000000e+00
 0.000000e+00 2.820803e-01 4.023371e-01 3.155825e-01 0.000000e+00
 0.000000e+00 0.000000e+00 7.540025e-01 2.459975e-01 0.000000e+00
 0.000000e+00 5.092072e-03 0.000000e+00 9.459317e-01 4.897621e-02
 0.000000e+00 0.000000e+00 0.000000e+00 0.000000e+00 0.000000e+00
<ENDHMM>
