~h "a"
<BEGINHMM>
<NUMSTATES> 5
<STATE> 2
<MEAN> 39
 -2.952335e+00 1.442309e-02 -3.455399e+00 -4.008419e+00 -3.622314e+00 -1.501104e+00 -4.183538e+00 1.134754e+00 2.522424e-01 5.587182e-03 -9.143953e-01 -1.517293e+00 4.487704e+01 -2.437470e-02 2.800004e-03 -2.160376e-02 -1.797324e-03 -1.090484e-02 -5.036504e-03 -4.188015e-03 -4.139338e-04 4.900723e-03 -5.071034e-03 1.444993e-03 -8.874178e-03 1.382168e-01 2.728614e-03 1.043475e-03 2.090134e-03 1.020255e-03 1.849843e-03 6.167828e-04 1.146657e-04 -1.168025e-04 2.695811e-04 1.052482e-03 6.291577e-04 -3.061457e-04 -1.941305e-02
<VARIANCE> 39
 3.188733e+01 2.129312e+01 4.198116e+01 4.123853e+01 2.955753e+01 2.805572e+01 3.745815e+01 3.468682e+01 3.146465e+01 2.481458e+01 2.130174e+01 1.517080e+01 9.919434e+01 1.216587e+00 1.029499e+00 1.545840e+00 1.805461e+00 1.819291e+00 1.821033e+00 2.098516e+00 2.008310e+00 1.915002e+00 1.622979e+00 1.325300e+00 1.089772e+00 2.758552e+00 1.769354e-01 1.680940e-01 2.348486e-01 3.077025e-01 3.211402e-01 3.324122e-01 3.827105e-01 3.635032e-01 3.423403e-01 2.976265e-01 2.419320e-01 2.014177e-01 3.432823e-01
<GCONST> 1.062574e+02
<STATE> 3
<MEAN> 39
 -2.952335e+00 1.442309e-02 -3.455399e+00 -4.008419e+00 -3.622314e+00 -1.501104e+00 -4.183538e+00 1.134754e+00 2.522424e-01 5.587182e-03 -9.143953e-01 -1.517293e+00 4.487704e+01 -2.437470e-02 2.800004e-03 -2.160376e-02 -1.797324e-03 -1.090484e-02 -5.036504e-03 -4.188015e-03 -4.139338e-04 4.900723e-03 -5.071034e-03 1.444993e-03 -8.874178e-03 1.382168e-01 2.728614e-03 1.043475e-03 2.090134e-03 1.020255e-03 1.849843e-03 6.167828e-04 1.146657e-04 -1.168025e-04 2.695811e-04 1.052482e-03 6.291577e-04 -3.061457e-04 -1.941305e-02
<VARIANCE> 39
 3.188733e+01 2.129312e+01 4.198116e+01 4.123853e+01 2.955753e+01 2.805572e+01 3.745815e+01 3.468682e+01 3.146465e+01 2.481458e+01 2.130174e+01 1.517080e+01 9.919434e+01 1.216587e+00 1.029499e+00 1.545840e+00 1.805461e+00 1.819291e+00 1.821033e+00 2.098516e+00 2.008310e+00 1.915002e+00 1.622979e+00 1.325300e+00 1.089772e+00 2.758552e+00 1.769354e-01 1.680940e-01 2.348486e-01 3.077025e-01 3.211402e-01 3.324122e-01 3.827105e-01 3.635032e-01 3.423403e-01 2.976265e-01 2.419320e-01 2.014177e-01 3.432823e-01
<GCONST> 1.062574e+02
<STATE> 4
<MEAN> 39
 -2.952335e+00 1.442309e-02 -3.455399e+00 -4.008419e+00 -3.622314e+00 -1.501104e+00 -4.183538e+00 1.134754e+00 2.522424e-01 5.587182e-03 -9.143953e-01 -1.517293e+00 4.487704e+01 -2.437470e-02 2.800004e-03 -2.160376e-02 -1.797324e-03 -1.090484e-02 -5.036504e-03 -4.188015e-03 -4.139338e-04 4.900723e-03 -5.071034e-03 1.444993e-03 -8.874178e-03 1.382168e-01 2.728614e-03 1.043475e-03 2.090134e-03 1.020255e-03 1.849843e-03 6.167828e-04 1.146657e-04 -1.168025e-04 2.695811e-04 1.052482e-03 6.291577e-04 -3.061457e-04 -1.941305e-02
<VARIANCE> 39
 3.188733e+01 2.129312e+01 4.198116e+01 4.123853e+01 2.955753e+01 2.805572e+01 3.745815e+01 3.468682e+01 3.146465e+01 2.481458e+01 2.130174e+01 1.517080e+01 9.919434e+01 1.216587e+00 1.029499e+00 1.545840e+00 1.805461e+00 1.819291e+00 1.821033e+00 2.098516e+00 2.008310e+00 1.915002e+00 1.622979e+00 1.325300e+00 1.089772e+00 2.758552e+00 1.769354e-01 1.680940e-01 2.348486e-01 3.077025e-01 3.211402e-01 3.324122e-01 3.827105e-01 3.635032e-01 3.423403e-01 2.976265e-01 2.419320e-01 2.014177e-01 3.432823e-01
<GCONST> 1.062574e+02
<TRANSP> 5
 0.000000e+00 1.000000e+00 0.000000e+00 0.000000e+00 0.000000e+00
 0.000000e+00 6.000000e-01 4.000000e-01 0.000000e+00 0.000000e+00
 0.000000e+00 0.000000e+00 6.000000e-01 4.000000e-01 0.000000e+00
 0.000000e+00 0.000000e+00 0.000000e+00 7.000000e-01 3.000000e-01
 0.000000e+00 0.000000e+00 0.000000e+00 0.000000e+00 0.000000e+00
<ENDHMM>
~h "n"
<BEGINHMM>
<NUMSTATES> 5
<STATE> 2
<MEAN> 39
 -2.952335e+00 1.442309e-02 -3.455399e+00 -4.008419e+00 -3.622314e+00 -1.501104e+00 -4.183538e+00 1.134754e+00 2.522424e-01 5.587182e-03 -9.143953e-01 -1.517293e+00 4.487704e+01 -2.437470e-02 2.800004e-03 -2.160376e-02 -1.797324e-03 -1.090484e-02 -5.036504e-03 -4.188015e-03 -4.139338e-04 4.900723e-03 -5.071034e-03 1.444993e-03 -8.874178e-03 1.382168e-01 2.728614e-03 1.043475e-03 2.090134e-03 1.020255e-03 1.849843e-03 6.167828e-04 1.146657e-04 -1.168025e-04 2.695811e-04 1.052482e-03 6.291577e-04 -3.061457e-04 -1.941305e-02
<VARIANCE> 39
 3.188733e+01 2.129312e+01 4.198116e+01 4.123853e+01 2.955753e+01 2.805572e+01 3.745815e+01 3.468682e+01 3.146465e+01 2.481458e+01 2.130174e+01 1.517080e+01 9.919434e+01 1.216587e+00 1.029499e+00 1.545840e+00 1.805461e+00 1.819291e+00 1.821033e+00 2.098516e+00 2.008310e+00 1.915002e+00 1.622979e+00 1.325300e+00 1.089772e+00 2.758552e+00 1.769354e-01 1.680940e-01 2.348486e-01 3.077025e-01 3.211402e-01 3.324122e-01 3.827105e-01 3.635032e-01 3.423403e-01 2.976265e-01 2.419320e-01 2.014177e-01 3.432823e-01
<GCONST> 1.062574e+02
<STATE> 3
<MEAN> 39
 -2.952335e+00 1.442309e-02 -3.455399e+00 -4.008419e+00 -3.622314e+00 -1.501104e+00 -4.183538e+00 1.134754e+00 2.522424e-01 5.587182e-03 -9.143953e-01 -1.517293e+00 4.487704e+01 -2.437470e-02 2.800004e-03 -2.160376e-02 -1.797324e-03 -1.090484e-02 -5.036504e-03 -4.188015e-03 -4.139338e-04 4.900723e-03 -5.071034e-03 1.444993e-03 -8.874178e-03 1.382168e-01 2.728614e-03 1.043475e-03 2.090134e-03 1.020255e-03 1.849843e-03 6.167828e-04 1.146657e-04 -1.168025e-04 2.695811e-04 1.052482e-03 6.291577e-04 -3.061457e-04 -1.941305e-02
<VARIANCE> 39
 3.188733e+01 2.129312e+01 4.198116e+01 4.123853e+01 2.955753e+01 2.805572e+01 3.745815e+01 3.468682e+01 3.146465e+01 2.481458e+01 2.130174e+01 1.517080e+01 9.919434e+01 1.216587e+00 1.029499e+00 1.545840e+00 1.805461e+00 1.819291e+00 1.821033e+00 2.098516e+00 2.008310e+00 1.915002e+00 1.622979e+00 1.325300e+00 1.089772e+00 2.758552e+00 1.769354e-01 1.680940e-01 2.348486e-01 3.077025e-01 3.211402e-01 3.324122e-01 3.827105e-01 3.635032e-01 3.423403e-01 2.976265e-01 2.419320e-01 2.014177e-01 3.432823e-01
<GCONST> 1.062574e+02
<STATE> 4
<MEAN> 39
 -2.952335e+00 1.442309e-02 -3.455399e+00 -4.008419e+00 -3.622314e+00 -1.501104e+00 -4.183538e+00 1.134754e+00 2.522424e-01 5.587182e-03 -9.143953e-01 -1.517293e+00 4.487704e+01 -2.437470e-02 2.800004e-03 -2.160376e-02 -1.797324e-03 -1.090484e-02 -5.036504e-03 -4.188015e-03 -4.139338e-04 4.900723e-03 -5.071034e-03 1.444993e-03 -8.874178e-03 1.382168e-01 2.728614e-03 1.043475e-03 2.090134e-03 1.020255e-03 1.849843e-03 6.167828e-04 1.146657e-04 -1.168025e-04 2.695811e-04 1.052482e-03 6.291577e-04 -3.061457e-04 -1.941305e-02
<VARIANCE> 39
 3.188733e+01 2.129312e+01 4.198116e+01 4.123853e+01 2.955753e+01 2.805572e+01 3.745815e+01 3.468682e+01 3.146465e+01 2.481458e+01 2.130174e+01 1.517080e+01 9.919434e+01 1.216587e+00 1.029499e+00 1.545840e+00 1.805461e+00 1.819291e+00 1.821033e+00 2.098516e+00 2.008310e+00 1.915002e+00 1.622979e+00 1.325300e+00 1.089772e+00 2.758552e+00 1.769354e-01 1.680940e-01 2.348486e-01 3.077025e-01 3.211402e-01 3.324122e-01 3.827105e-01 3.635032e-01 3.423403e-01 2.976265e-01 2.419320e-01 2.014177e-01 3.432823e-01
<GCONST> 1.062574e+02
<TRANSP> 5
 0.000000e+00 1.000000e+00 0.000000e+00 0.000000e+00 0.000000e+00
 0.000000e+00 6.000000e-01 4.000000e-01 0.000000e+00 0.000000e+00
 0.000000e+00 0.000000e+00 6.000000e-01 4.000000e-01 0.000000e+00
 0.000000e+00 0.000000e+00 0.000000e+00 7.000000e-01 3.000000e-01
 0.000000e+00 0.000000e+00 0.000000e+00 0.000000e+00 0.000000e+00
<ENDHMM>
~h "j"
<BEGINHMM>
<NUMSTATES> 5
<STATE> 2
<MEAN> 39
 -2.952335e+00 1.442309e-02 -3.455399e+00 -4.008419e+00 -3.622314e+00 -1.501104e+00 -4.183538e+00 1.134754e+00 2.522424e-01 5.587182e-03 -9.143953e-01 -1.517293e+00 4.487704e+01 -2.437470e-02 2.800004e-03 -2.160376e-02 -1.797324e-03 -1.090484e-02 -5.036504e-03 -4.188015e-03 -4.139338e-04 4.900723e-03 -5.071034e-03 1.444993e-03 -8.874178e-03 1.382168e-01 2.728614e-03 1.043475e-03 2.090134e-03 1.020255e-03 1.849843e-03 6.167828e-04 1.146657e-04 -1.168025e-04 2.695811e-04 1.052482e-03 6.291577e-04 -3.061457e-04 -1.941305e-02
<VARIANCE> 39
 3.188733e+01 2.129312e+01 4.198116e+01 4.123853e+01 2.955753e+01 2.805572e+01 3.745815e+01 3.468682e+01 3.146465e+01 2.481458e+01 2.130174e+01 1.517080e+01 9.919434e+01 1.216587e+00 1.029499e+00 1.545840e+00 1.805461e+00 1.819291e+00 1.821033e+00 2.098516e+00 2.008310e+00 1.915002e+00 1.622979e+00 1.325300e+00 1.089772e+00 2.758552e+00 1.769354e-01 1.680940e-01 2.348486e-01 3.077025e-01 3.211402e-01 3.324122e-01 3.827105e-01 3.635032e-01 3.423403e-01 2.976265e-01 2.419320e-01 2.014177e-01 3.432823e-01
<GCONST> 1.062574e+02
<STATE> 3
<MEAN> 39
 -2.952335e+00 1.442309e-02 -3.455399e+00 -4.008419e+00 -3.622314e+00 -1.501104e+00 -4.183538e+00 1.134754e+00 2.522424e-01 5.587182e-03 -9.143953e-01 -1.517293e+00 4.487704e+01 -2.437470e-02 2.800004e-03 -2.160376e-02 -1.797324e-03 -1.090484e-02 -5.036504e-03 -4.188015e-03 -4.139338e-04 4.900723e-03 -5.071034e-03 1.444993e-03 -8.874178e-03 1.382168e-01 2.728614e-03 1.043475e-03 2.090134e-03 1.020255e-03 1.849843e-03 6.167828e-04 1.146657e-04 -1.168025e-04 2.695811e-04 1.052482e-03 6.291577e-04 -3.061457e-04 -1.941305e-02
<VARIANCE> 39
 3.188733e+01 2.129312e+01 4.198116e+01 4.123853e+01 2.955753e+01 2.805572e+01 3.745815e+01 3.468682e+01 3.146465e+01 2.481458e+01 2.130174e+01 1.517080e+01 9.919434e+01 1.216587e+00 1.029499e+00 1.545840e+00 1.805461e+00 1.819291e+00 1.821033e+00 2.098516e+00 2.008310e+00 1.915002e+00 1.622979e+00 1.325300e+00 1.089772e+00 2.758552e+00 1.769354e-01 1.680940e-01 2.348486e-01 3.077025e-01 3.211402e-01 3.324122e-01 3.827105e-01 3.635032e-01 3.423403e-01 2.976265e-01 2.419320e-01 2.014177e-01 3.432823e-01
<GCONST> 1.062574e+02
<STATE> 4
<MEAN> 39
 -2.952335e+00 1.442309e-02 -3.455399e+00 -4.008419e+00 -3.622314e+00 -1.501104e+00 -4.183538e+00 1.134754e+00 2.522424e-01 5.587182e-03 -9.143953e-01 -1.517293e+00 4.487704e+01 -2.437470e-02 2.800004e-03 -2.160376e-02 -1.797324e-03 -1.090484e-02 -5.036504e-03 -4.188015e-03 -4.139338e-04 4.900723e-03 -5.071034e-03 1.444993e-03 -8.874178e-03 1.382168e-01 2.728614e-03 1.043475e-03 2.090134e-03 1.020255e-03 1.849843e-03 6.167828e-04 1.146657e-04 -1.168025e-04 2.695811e-04 1.052482e-03 6.291577e-04 -3.061457e-04 -1.941305e-02
<VARIANCE> 39
 3.188733e+01 2.129312e+01 4.198116e+01 4.123853e+01 2.955753e+01 2.805572e+01 3.745815e+01 3.468682e+01 3.146465e+01 2.481458e+01 2.130174e+01 1.517080e+01 9.919434e+01 1.216587e+00 1.029499e+00 1.545840e+00 1.805461e+00 1.819291e+00 1.821033e+00 2.098516e+00 2.008310e+00 1.915002e+00 1.622979e+00 1.325300e+00 1.089772e+00 2.758552e+00 1.769354e-01 1.680940e-01 2.348486e-01 3.077025e-01 3.211402e-01 3.324122e-01 3.827105e-01 3.635032e-01 3.423403e-01 2.976265e-01 2.419320e-01 2.014177e-01 3.432823e-01
<GCONST> 1.062574e+02
<TRANSP> 5
 0.000000e+00 1.000000e+00 0.000000e+00 0.000000e+00 0.000000e+00
 0.000000e+00 6.000000e-01 4.000000e-01 0.000000e+00 0.000000e+00
 0.000000e+00 0.000000e+00 6.000000e-01 4.000000e-01 0.000000e+00
 0.000000e+00 0.000000e+00 0.000000e+00 7.000000e-01 3.000000e-01
 0.000000e+00 0.000000e+00 0.000000e+00 0.000000e+00 0.000000e+00
<ENDHMM>
~h "i"
<BEGINHMM>
<NUMSTATES> 5
<STATE> 2
<MEAN> 39
 -2.952335e+00 1.442309e-02 -3.455399e+00 -4.008419e+00 -3.622314e+00 -1.501104e+00 -4.183538e+00 1.134754e+00 2.522424e-01 5.587182e-03 -9.143953e-01 -1.517293e+00 4.487704e+01 -2.437470e-02 2.800004e-03 -2.160376e-02 -1.797324e-03 -1.090484e-02 -5.036504e-03 -4.188015e-03 -4.139338e-04 4.900723e-03 -5.071034e-03 1.444993e-03 -8.874178e-03 1.382168e-01 2.728614e-03 1.043475e-03 2.090134e-03 1.020255e-03 1.849843e-03 6.167828e-04 1.146657e-04 -1.168025e-04 2.695811e-04 1.052482e-03 6.291577e-04 -3.061457e-04 -1.941305e-02
<VARIANCE> 39
 3.188733e+01 2.129312e+01 4.198116e+01 4.123853e+01 2.955753e+01 2.805572e+01 3.745815e+01 3.468682e+01 3.146465e+01 2.481458e+01 2.130174e+01 1.517080e+01 9.919434e+01 1.216587e+00 1.029499e+00 1.545840e+00 1.805461e+00 1.819291e+00 1.821033e+00 2.098516e+00 2.008310e+00 1.915002e+00 1.622979e+00 1.325300e+00 1.089772e+00 2.758552e+00 1.769354e-01 1.680940e-01 2.348486e-01 3.077025e-01 3.211402e-01 3.324122e-01 3.827105e-01 3.635032e-01 3.423403e-01 2.976265e-01 2.419320e-01 2.014177e-01 3.432823e-01
<GCONST> 1.062574e+02
<STATE> 3
<MEAN> 39
 -2.952335e+00 1.442309e-02 -3.455399e+00 -4.008419e+00 -3.622314e+00 -1.501104e+00 -4.183538e+00 1.134754e+00 2.522424e-01 5.587182e-03 -9.143953e-01 -1.517293e+00 4.487704e+01 -2.437470e-02 2.800004e-03 -2.160376e-02 -1.797324e-03 -1.090484e-02 -5.036504e-03 -4.188015e-03 -4.139338e-04 4.900723e-03 -5.071034e-03 1.444993e-03 -8.874178e-03 1.382168e-01 2.728614e-03 1.043475e-03 2.090134e-03 1.020255e-03 1.849843e-03 6.167828e-04 1.146657e-04 -1.168025e-04 2.695811e-04 1.052482e-03 6.291577e-04 -3.061457e-04 -1.941305e-02
<VARIANCE> 39
 3.188733e+01 2.129312e+01 4.198116e+01 4.123853e+01 2.955753e+01 2.805572e+01 3.745815e+01 3.468682e+01 3.146465e+01 2.481458e+01 2.130174e+01 1.517080e+01 9.919434e+01 1.216587e+00 1.029499e+00 1.545840e+00 1.805461e+00 1.819291e+00 1.821033e+00 2.098516e+00 2.008310e+00 1.915002e+00 1.622979e+00 1.325300e+00 1.089772e+00 2.758552e+00 1.769354e-01 1.680940e-01 2.348486e-01 3.077025e-01 3.211402e-01 3.324122e-01 3.827105e-01 3.635032e-01 3.423403e-01 2.976265e-01 2.419320e-01 2.014177e-01 3.432823e-01
<GCONST> 1.062574e+02
<STATE> 4
<MEAN> 39
 -2.952335e+00 1.442309e-02 -3.455399e+00 -4.008419e+00 -3.622314e+00 -1.501104e+00 -4.183538e+00 1.134754e+00 2.522424e-01 5.587182e-03 -9.143953e-01 -1.517293e+00 4.487704e+01 -2.437470e-02 2.800004e-03 -2.160376e-02 -1.797324e-03 -1.090484e-02 -5.036504e-03 -4.188015e-03 -4.139338e-04 4.900723e-03 -5.071034e-03 1.444993e-03 -8.874178e-03 1.382168e-01 2.728614e-03 1.043475e-03 2.090134e-03 1.020255e-03 1.849843e-03 6.167828e-04 1.146657e-04 -1.168025e-04 2.695811e-04 1.052482e-03 6.291577e-04 -3.061457e-04 -1.941305e-02
<VARIANCE> 39
 3.188733e+01 2.129312e+01 4.198116e+01 4.123853e+01 2.955753e+01 2.805572e+01 3.745815e+01 3.468682e+01 3.146465e+01 2.481458e+01 2.130174e+01 1.517080e+01 9.919434e+01 1.216587e+00 1.029499e+00 1.545840e+00 1.805461e+00 1.819291e+00 1.821033e+00 2.098516e+00 2.008310e+00 1.915002e+00 1.622979e+00 1.325300e+00 1.089772e+00 2.758552e+00 1.769354e-01 1.680940e-01 2.348486e-01 3.077025e-01 3.211402e-01 3.324122e-01 3.827105e-01 3.635032e-01 3.423403e-01 2.976265e-01 2.419320e-01 2.014177e-01 3.432823e-01
<GCONST> 1.062574e+02
<TRANSP> 5
 0.000000e+00 1.000000e+00 0.000000e+00 0.000000e+00 0.000000e+00
 0.000000e+00 6.000000e-01 4.000000e-01 0.000000e+00 0.000000e+00
 0.000000e+00 0.000000e+00 6.000000e-01 4.000000e-01 0.000000e+00
 0.000000e+00 0.000000e+00 0.000000e+00 7.000000e-01 3.000000e-01
 0.000000e+00 0.000000e+00 0.000000e+00 0.000000e+00 0.000000e+00
<ENDHMM>
~h "ng"
<BEGINHMM>
<NUMSTATES> 5
<STATE> 2
<MEAN> 39
 -2.952335e+00 1.442309e-02 -3.455399e+00 -4.008419e+00 -3.622314e+00 -1.501104e+00 -4.183538e+00 1.134754e+00 2.522424e-01 5.587182e-03 -9.143953e-01 -1.517293e+00 4.487704e+01 -2.437470e-02 2.800004e-03 -2.160376e-02 -1.797324e-03 -1.090484e-02 -5.036504e-03 -4.188015e-03 -4.139338e-04 4.900723e-03 -5.071034e-03 1.444993e-03 -8.874178e-03 1.382168e-01 2.728614e-03 1.043475e-03 2.090134e-03 1.020255e-03 1.849843e-03 6.167828e-04 1.146657e-04 -1.168025e-04 2.695811e-04 1.052482e-03 6.291577e-04 -3.061457e-04 -1.941305e-02
<VARIANCE> 39
 3.188733e+01 2.129312e+01 4.198116e+01 4.123853e+01 2.955753e+01 2.805572e+01 3.745815e+01 3.468682e+01 3.146465e+01 2.481458e+01 2.130174e+01 1.517080e+01 9.919434e+01 1.216587e+00 1.029499e+00 1.545840e+00 1.805461e+00 1.819291e+00 1.821033e+00 2.098516e+00 2.008310e+00 1.915002e+00 1.622979e+00 1.325300e+00 1.089772e+00 2.758552e+00 1.769354e-01 1.680940e-01 2.348486e-01 3.077025e-01 3.211402e-01 3.324122e-01 3.827105e-01 3.635032e-01 3.423403e-01 2.976265e-01 2.419320e-01 2.014177e-01 3.432823e-01
<GCONST> 1.062574e+02
<STATE> 3
<MEAN> 39
 -2.952335e+00 1.442309e-02 -3.455399e+00 -4.008419e+00 -3.622314e+00 -1.501104e+00 -4.183538e+00 1.134754e+00 2.522424e-01 5.587182e-03 -9.143953e-01 -1.517293e+00 4.487704e+01 -2.437470e-02 2.800004e-03 -2.160376e-02 -1.797324e-03 -1.090484e-02 -5.036504e-03 -4.188015e-03 -4.139338e-04 4.900723e-03 -5.071034e-03 1.444993e-03 -8.874178e-03 1.382168e-01 2.728614e-03 1.043475e-03 2.090134e-03 1.020255e-03 1.849843e-03 6.167828e-04 1.146657e-04 -1.168025e-04 2.695811e-04 1.052482e-03 6.291577e-04 -3.061457e-04 -1.941305e-02
<VARIANCE> 39
 3.188733e+01 2.129312e+01 4.198116e+01 4.123853e+01 2.955753e+01 2.805572e+01 3.745815e+01 3.468682e+01 3.146465e+01 2.481458e+01 2.130174e+01 1.517080e+01 9.919434e+01 1.216587e+00 1.029499e+00 1.545840e+00 1.805461e+00 1.819291e+00 1.821033e+00 2.098516e+00 2.008310e+00 1.915002e+00 1.622979e+00 1.325300e+00 1.089772e+00 2.758552e+00 1.769354e-01 1.680940e-01 2.348486e-01 3.077025e-01 3.211402e-01 3.324122e-01 3.827105e-01 3.635032e-01 3.423403e-01 2.976265e-01 2.419320e-01 2.014177e-01 3.432823e-01
<GCONST> 1.062574e+02
<STATE> 4
<MEAN> 39
 -2.952335e+00 1.442309e-02 -3.455399e+00 -4.008419e+00 -3.622314e+00 -1.501104e+00 -4.183538e+00 1.134754e+00 2.522424e-01 5.587182e-03 -9.143953e-01 -1.517293e+00 4.487704e+01 -2.437470e-02 2.800004e-03 -2.160376e-02 -1.797324e-03 -1.090484e-02 -5.036504e-03 -4.188015e-03 -4.139338e-04 4.900723e-03 -5.071034e-03 1.444993e-03 -8.874178e-03 1.382168e-01 2.728614e-03 1.043475e-03 2.090134e-03 1.020255e-03 1.849843e-03 6.167828e-04 1.146657e-04 -1.168025e-04 2.695811e-04 1.052482e-03 6.291577e-04 -3.061457e-04 -1.941305e-02
<VARIANCE> 39
 3.188733e+01 2.129312e+01 4.198116e+01 4.123853e+01 2.955753e+01 2.805572e+01 3.745815e+01 3.468682e+01 3.146465e+01 2.481458e+01 2.130174e+01 1.517080e+01 9.919434e+01 1.216587e+00 1.029499e+00 1.545840e+00 1.805461e+00 1.819291e+00 1.821033e+00 2.098516e+00 2.008310e+00 1.915002e+00 1.622979e+00 1.325300e+00 1.089772e+00 2.758552e+00 1.769354e-01 1.680940e-01 2.348486e-01 3.077025e-01 3.211402e-01 3.324122e-01 3.827105e-01 3.635032e-01 3.423403e-01 2.976265e-01 2.419320e-01 2.014177e-01 3.432823e-01
<GCONST> 1.062574e+02
<TRANSP> 5
 0.000000e+00 1.000000e+00 0.000000e+00 0.000000e+00 0.000000e+00
 0.000000e+00 6.000000e-01 4.000000e-01 0.000000e+00 0.000000e+00
 0.000000e+00 0.000000e+00 6.000000e-01 4.000000e-01 0.000000e+00
 0.000000e+00 0.000000e+00 0.000000e+00 7.000000e-01 3.000000e-01
 0.000000e+00 0.000000e+00 0.000000e+00 0.000000e+00 0.000000e+00
<ENDHMM>
~h "p"
<BEGINHMM>
<NUMSTATES> 5
<STATE> 2
<MEAN> 39
 -2.952335e+00 1.442309e-02 -3.455399e+00 -4.008419e+00 -3.622314e+00 -1.501104e+00 -4.183538e+00 1.134754e+00 2.522424e-01 5.587182e-03 -9.143953e-01 -1.517293e+00 4.487704e+01 -2.437470e-02 2.800004e-03 -2.160376e-02 -1.797324e-03 -1.090484e-02 -5.036504e-03 -4.188015e-03 -4.139338e-04 4.900723e-03 -5.071034e-03 1.444993e-03 -8.874178e-03 1.382168e-01 2.728614e-03 1.043475e-03 2.090134e-03 1.020255e-03 1.849843e-03 6.167828e-04 1.146657e-04 -1.168025e-04 2.695811e-04 1.052482e-03 6.291577e-04 -3.061457e-04 -1.941305e-02
<VARIANCE> 39
 3.188733e+01 2.129312e+01 4.198116e+01 4.123853e+01 2.955753e+01 2.805572e+01 3.745815e+01 3.468682e+01 3.146465e+01 2.481458e+01 2.130174e+01 1.517080e+01 9.919434e+01 1.216587e+00 1.029499e+00 1.545840e+00 1.805461e+00 1.819291e+00 1.821033e+00 2.098516e+00 2.008310e+00 1.915002e+00 1.622979e+00 1.325300e+00 1.089772e+00 2.758552e+00 1.769354e-01 1.680940e-01 2.348486e-01 3.077025e-01 3.211402e-01 3.324122e-01 3.827105e-01 3.635032e-01 3.423403e-01 2.976265e-01 2.419320e-01 2.014177e-01 3.432823e-01
<GCONST> 1.062574e+02
<STATE> 3
<MEAN> 39
 -2.952335e+00 1.442309e-02 -3.455399e+00 -4.008419e+00 -3.622314e+00 -1.501104e+00 -4.183538e+00 1.134754e+00 2.522424e-01 5.587182e-03 -9.143953e-01 -1.517293e+00 4.487704e+01 -2.437470e-02 2.800004e-03 -2.160376e-02 -1.797324e-03 -1.090484e-02 -5.036504e-03 -4.188015e-03 -4.139338e-04 4.900723e-03 -5.071034e-03 1.444993e-03 -8.874178e-03 1.382168e-01 2.728614e-03 1.043475e-03 2.090134e-03 1.020255e-03 1.849843e-03 6.167828e-04 1.146657e-04 -1.168025e-04 2.695811e-04 1.052482e-03 6.291577e-04 -3.061457e-04 -1.941305e-02
<VARIANCE> 39
 3.188733e+01 2.129312e+01 4.198116e+01 4.123853e+01 2.955753e+01 2.805572e+01 3.745815e+01 3.468682e+01 3.146465e+01 2.481458e+01 2.130174e+01 1.517080e+01 9.919434e+01 1.216587e+00 1.029499e+00 1.545840e+00 1.805461e+00 1.819291e+00 1.821033e+00 2.098516e+00 2.008310e+00 1.915002e+00 1.622979e+00 1.325300e+00 1.089772e+00 2.758552e+00 1.769354e-01 1.680940e-01 2.348486e-01 3.077025e-01 3.211402e-01 3.324122e-01 3.827105e-01 3.635032e-01 3.423403e-01 2.976265e-01 2.419320e-01 2.014177e-01 3.432823e-01
<GCONST> 1.062574e+02
<STATE> 4
<MEAN> 39
 -2.952335e+00 1.442309e-02 -3.455399e+00 -4.008419e+00 -3.622314e+00 -1.501104e+00 -4.183538e+00 1.134754e+00 2.522424e-01 5.587182e-03 -9.143953e-01 -1.517293e+00 4.487704e+01 -2.437470e-02 2.800004e-03 -2.160376e-02 -1.797324e-03 -1.090484e-02 -5.036504e-03 -4.188015e-03 -4.139338e-04 4.900723e-03 -5.071034e-03 1.444993e-03 -8.874178e-03 1.382168e-01 2.728614e-03 1.043475e-03 2.090134e-03 1.020255e-03 1.849843e-03 6.167828e-04 1.146657e-04 -1.168025e-04 2.695811e-04 1.052482e-03 6.291577e-04 -3.061457e-04 -1.941305e-02
<VARIANCE> 39
 3.188733e+01 2.129312e+01 4.198116e+01 4.123853e+01 2.955753e+01 2.805572e+01 3.745815e+01 3.468682e+01 3.146465e+01 2.481458e+01 2.130174e+01 1.517080e+01 9.919434e+01 1.216587e+00 1.029499e+00 1.545840e+00 1.805461e+00 1.819291e+00 1.821033e+00 2.098516e+00 2.008310e+00 1.915002e+00 1.622979e+00 1.325300e+00 1.089772e+00 2.758552e+00 1.769354e-01 1.680940e-01 2.348486e-01 3.077025e-01 3.211402e-01 3.324122e-01 3.827105e-01 3.635032e-01 3.423403e-01 2.976265e-01 2.419320e-01 2.014177e-01 3.432823e-01
<GCONST> 1.062574e+02
<TRANSP> 5
 0.000000e+00 1.000000e+00 0.000000e+00 0.000000e+00 0.000000e+00
 0.000000e+00 6.000000e-01 4.000000e-01 0.000000e+00 0.000000e+00
 0.000000e+00 0.000000e+00 6.000000e-01 4.000000e-01 0.000000e+00
 0.000000e+00 0.000000e+00 0.000000e+00 7.000000e-01 3.000000e-01
 0.000000e+00 0.000000e+00 0.000000e+00 0.000000e+00 0.000000e+00
<ENDHMM>
~h "y"
<BEGINHMM>
<NUMSTATES> 5
<STATE> 2
<MEAN> 39
 -2.952335e+00 1.442309e-02 -3.455399e+00 -4.008419e+00 -3.622314e+00 -1.501104e+00 -4.183538e+00 1.134754e+00 2.522424e-01 5.587182e-03 -9.143953e-01 -1.517293e+00 4.487704e+01 -2.437470e-02 2.800004e-03 -2.160376e-02 -1.797324e-03 -1.090484e-02 -5.036504e-03 -4.188015e-03 -4.139338e-04 4.900723e-03 -5.071034e-03 1.444993e-03 -8.874178e-03 1.382168e-01 2.728614e-03 1.043475e-03 2.090134e-03 1.020255e-03 1.849843e-03 6.167828e-04 1.146657e-04 -1.168025e-04 2.695811e-04 1.052482e-03 6.291577e-04 -3.061457e-04 -1.941305e-02
<VARIANCE> 39
 3.188733e+01 2.129312e+01 4.198116e+01 4.123853e+01 2.955753e+01 2.805572e+01 3.745815e+01 3.468682e+01 3.146465e+01 2.481458e+01 2.130174e+01 1.517080e+01 9.919434e+01 1.216587e+00 1.029499e+00 1.545840e+00 1.805461e+00 1.819291e+00 1.821033e+00 2.098516e+00 2.008310e+00 1.915002e+00 1.622979e+00 1.325300e+00 1.089772e+00 2.758552e+00 1.769354e-01 1.680940e-01 2.348486e-01 3.077025e-01 3.211402e-01 3.324122e-01 3.827105e-01 3.635032e-01 3.423403e-01 2.976265e-01 2.419320e-01 2.014177e-01 3.432823e-01
<GCONST> 1.062574e+02
<STATE> 3
<MEAN> 39
 -2.952335e+00 1.442309e-02 -3.455399e+00 -4.008419e+00 -3.622314e+00 -1.501104e+00 -4.183538e+00 1.134754e+00 2.522424e-01 5.587182e-03 -9.143953e-01 -1.517293e+00 4.487704e+01 -2.437470e-02 2.800004e-03 -2.160376e-02 -1.797324e-03 -1.090484e-02 -5.036504e-03 -4.188015e-03 -4.139338e-04 4.900723e-03 -5.071034e-03 1.444993e-03 -8.874178e-03 1.382168e-01 2.728614e-03 1.043475e-03 2.090134e-03 1.020255e-03 1.849843e-03 6.167828e-04 1.146657e-04 -1.168025e-04 2.695811e-04 1.052482e-03 6.291577e-04 -3.061457e-04 -1.941305e-02
<VARIANCE> 39
 3.188733e+01 2.129312e+01 4.198116e+01 4.123853e+01 2.955753e+01 2.805572e+01 3.745815e+01 3.468682e+01 3.146465e+01 2.481458e+01 2.130174e+01 1.517080e+01 9.919434e+01 1.216587e+00 1.029499e+00 1.545840e+00 1.805461e+00 1.819291e+00 1.821033e+00 2.098516e+00 2.008310e+00 1.915002e+00 1.622979e+00 1.325300e+00 1.089772e+00 2.758552e+00 1.769354e-01 1.680940e-01 2.348486e-01 3.077025e-01 3.211402e-01 3.324122e-01 3.827105e-01 3.635032e-01 3.423403e-01 2.976265e-01 2.419320e-01 2.014177e-01 3.432823e-01
<GCONST> 1.062574e+02
<STATE> 4
<MEAN> 39
 -2.952335e+00 1.442309e-02 -3.455399e+00 -4.008419e+00 -3.622314e+00 -1.501104e+00 -4.183538e+00 1.134754e+00 2.522424e-01 5.587182e-03 -9.143953e-01 -1.517293e+00 4.487704e+01 -2.437470e-02 2.800004e-03 -2.160376e-02 -1.797324e-03 -1.090484e-02 -5.036504e-03 -4.188015e-03 -4.139338e-04 4.900723e-03 -5.071034e-03 1.444993e-03 -8.874178e-03 1.382168e-01 2.728614e-03 1.043475e-03 2.090134e-03 1.020255e-03 1.849843e-03 6.167828e-04 1.146657e-04 -1.168025e-04 2.695811e-04 1.052482e-03 6.291577e-04 -3.061457e-04 -1.941305e-02
<VARIANCE> 39
 3.188733e+01 2.129312e+01 4.198116e+01 4.123853e+01 2.955753e+01 2.805572e+01 3.745815e+01 3.468682e+01 3.146465e+01 2.481458e+01 2.130174e+01 1.517080e+01 9.919434e+01 1.216587e+00 1.029499e+00 1.545840e+00 1.805461e+00 1.819291e+00 1.821033e+00 2.098516e+00 2.008310e+00 1.915002e+00 1.622979e+00 1.325300e+00 1.089772e+00 2.758552e+00 1.769354e-01 1.680940e-01 2.348486e-01 3.077025e-01 3.211402e-01 3.324122e-01 3.827105e-01 3.635032e-01 3.423403e-01 2.976265e-01 2.419320e-01 2.014177e-01 3.432823e-01
<GCONST> 1.062574e+02
<TRANSP> 5
 0.000000e+00 1.000000e+00 0.000000e+00 0.000000e+00 0.000000e+00
 0.000000e+00 6.000000e-01 4.000000e-01 0.000000e+00 0.000000e+00
 0.000000e+00 0.000000e+00 6.000000e-01 4.000000e-01 0.000000e+00
 0.000000e+00 0.000000e+00 0.000000e+00 7.000000e-01 3.000000e-01
 0.000000e+00 0.000000e+00 0.000000e+00 0.000000e+00 0.000000e+00
<ENDHMM>
~h "m"
<BEGINHMM>
<NUMSTATES> 5
<STATE> 2
<MEAN> 39
 -2.952335e+00 1.442309e-02 -3.455399e+00 -4.008419e+00 -3.622314e+00 -1.501104e+00 -4.183538e+00 1.134754e+00 2.522424e-01 5.587182e-03 -9.143953e-01 -1.517293e+00 4.487704e+01 -2.437470e-02 2.800004e-03 -2.160376e-02 -1.797324e-03 -1.090484e-02 -5.036504e-03 -4.188015e-03 -4.139338e-04 4.900723e-03 -5.071034e-03 1.444993e-03 -8.874178e-03 1.382168e-01 2.728614e-03 1.043475e-03 2.090134e-03 1.020255e-03 1.849843e-03 6.167828e-04 1.146657e-04 -1.168025e-04 2.695811e-04 1.052482e-03 6.291577e-04 -3.061457e-04 -1.941305e-02
<VARIANCE> 39
 3.188733e+01 2.129312e+01 4.198116e+01 4.123853e+01 2.955753e+01 2.805572e+01 3.745815e+01 3.468682e+01 3.146465e+01 2.481458e+01 2.130174e+01 1.517080e+01 9.919434e+01 1.216587e+00 1.029499e+00 1.545840e+00 1.805461e+00 1.819291e+00 1.821033e+00 2.098516e+00 2.008310e+00 1.915002e+00 1.622979e+00 1.325300e+00 1.089772e+00 2.758552e+00 1.769354e-01 1.680940e-01 2.348486e-01 3.077025e-01 3.211402e-01 3.324122e-01 3.827105e-01 3.635032e-01 3.423403e-01 2.976265e-01 2.419320e-01 2.014177e-01 3.432823e-01
<GCONST> 1.062574e+02
<STATE> 3
<MEAN> 39
 -2.952335e+00 1.442309e-02 -3.455399e+00 -4.008419e+00 -3.622314e+00 -1.501104e+00 -4.183538e+00 1.134754e+00 2.522424e-01 5.587182e-03 -9.143953e-01 -1.517293e+00 4.487704e+01 -2.437470e-02 2.800004e-03 -2.160376e-02 -1.797324e-03 -1.090484e-02 -5.036504e-03 -4.188015e-03 -4.139338e-04 4.900723e-03 -5.071034e-03 1.444993e-03 -8.874178e-03 1.382168e-01 2.728614e-03 1.043475e-03 2.090134e-03 1.020255e-03 1.849843e-03 6.167828e-04 1.146657e-04 -1.168025e-04 2.695811e-04 1.052482e-03 6.291577e-04 -3.061457e-04 -1.941305e-02
<VARIANCE> 39
 3.188733e+01 2.129312e+01 4.198116e+01 4.123853e+01 2.955753e+01 2.805572e+01 3.745815e+01 3.468682e+01 3.146465e+01 2.481458e+01 2.130174e+01 1.517080e+01 9.919434e+01 1.216587e+00 1.029499e+00 1.545840e+00 1.805461e+00 1.819291e+00 1.821033e+00 2.098516e+00 2.008310e+00 1.915002e+00 1.622979e+00 1.325300e+00 1.089772e+00 2.758552e+00 1.769354e-01 1.680940e-01 2.348486e-01 3.077025e-01 3.211402e-01 3.324122e-01 3.827105e-01 3.635032e-01 3.423403e-01 2.976265e-01 2.419320e-01 2.014177e-01 3.432823e-01
<GCONST> 1.062574e+02
<STATE> 4
<MEAN> 39
 -2.952335e+00 1.442309e-02 -3.455399e+00 -4.008419e+00 -3.622314e+00 -1.501104e+00 -4.183538e+00 1.134754e+00 2.522424e-01 5.587182e-03 -9.143953e-01 -1.517293e+00 4.487704e+01 -2.437470e-02 2.800004e-03 -2.160376e-02 -1.797324e-03 -1.090484e-02 -5.036504e-03 -4.188015e-03 -4.139338e-04 4.900723e-03 -5.071034e-03 1.444993e-03 -8.874178e-03 1.382168e-01 2.728614e-03 1.043475e-03 2.090134e-03 1.020255e-03 1.849843e-03 6.167828e-04 1.146657e-04 -1.168025e-04 2.695811e-04 1.052482e-03 6.291577e-04 -3.061457e-04 -1.941305e-02
<VARIANCE> 39
 3.188733e+01 2.129312e+01 4.198116e+01 4.123853e+01 2.955753e+01 2.805572e+01 3.745815e+01 3.468682e+01 3.146465e+01 2.481458e+01 2.130174e+01 1.517080e+01 9.919434e+01 1.216587e+00 1.029499e+00 1.545840e+00 1.805461e+00 1.819291e+00 1.821033e+00 2.098516e+00 2.008310e+00 1.915002e+00 1.622979e+00 1.325300e+00 1.089772e+00 2.758552e+00 1.769354e-01 1.680940e-01 2.348486e-01 3.077025e-01 3.211402e-01 3.324122e-01 3.827105e-01 3.635032e-01 3.423403e-01 2.976265e-01 2.419320e-01 2.014177e-01 3.432823e-01
<GCONST> 1.062574e+02
<TRANSP> 5
 0.000000e+00 1.000000e+00 0.000000e+00 0.000000e+00 0.000000e+00
 0.000000e+00 6.000000e-01 4.000000e-01 0.000000e+00 0.000000e+00
 0.000000e+00 0.000000e+00 6.000000e-01 4.000000e-01 0.000000e+00
 0.000000e+00 0.000000e+00 0.000000e+00 7.000000e-01 3.000000e-01
 0.000000e+00 0.000000e+00 0.000000e+00 0.000000e+00 0.000000e+00
<ENDHMM>
~h "t"
<BEGINHMM>
<NUMSTATES> 5
<STATE> 2
<MEAN> 39
 -2.952335e+00 1.442309e-02 -3.455399e+00 -4.008419e+00 -3.622314e+00 -1.501104e+00 -4.183538e+00 1.134754e+00 2.522424e-01 5.587182e-03 -9.143953e-01 -1.517293e+00 4.487704e+01 -2.437470e-02 2.800004e-03 -2.160376e-02 -1.797324e-03 -1.090484e-02 -5.036504e-03 -4.188015e-03 -4.139338e-04 4.900723e-03 -5.071034e-03 1.444993e-03 -8.874178e-03 1.382168e-01 2.728614e-03 1.043475e-03 2.090134e-03 1.020255e-03 1.849843e-03 6.167828e-04 1.146657e-04 -1.168025e-04 2.695811e-04 1.052482e-03 6.291577e-04 -3.061457e-04 -1.941305e-02
<VARIANCE> 39
 3.188733e+01 2.129312e+01 4.198116e+01 4.123853e+01 2.955753e+01 2.805572e+01 3.745815e+01 3.468682e+01 3.146465e+01 2.481458e+01 2.130174e+01 1.517080e+01 9.919434e+01 1.216587e+00 1.029499e+00 1.545840e+00 1.805461e+00 1.819291e+00 1.821033e+00 2.098516e+00 2.008310e+00 1.915002e+00 1.622979e+00 1.325300e+00 1.089772e+00 2.758552e+00 1.769354e-01 1.680940e-01 2.348486e-01 3.077025e-01 3.211402e-01 3.324122e-01 3.827105e-01 3.635032e-01 3.423403e-01 2.976265e-01 2.419320e-01 2.014177e-01 3.432823e-01
<GCONST> 1.062574e+02
<STATE> 3
<MEAN> 39
 -2.952335e+00 1.442309e-02 -3.455399e+00 -4.008419e+00 -3.622314e+00 -1.501104e+00 -4.183538e+00 1.134754e+00 2.522424e-01 5.587182e-03 -9.143953e-01 -1.517293e+00 4.487704e+01 -2.437470e-02 2.800004e-03 -2.160376e-02 -1.797324e-03 -1.090484e-02 -5.036504e-03 -4.188015e-03 -4.139338e-04 4.900723e-03 -5.071034e-03 1.444993e-03 -8.874178e-03 1.382168e-01 2.728614e-03 1.043475e-03 2.090134e-03 1.020255e-03 1.849843e-03 6.167828e-04 1.146657e-04 -1.168025e-04 2.695811e-04 1.052482e-03 6.291577e-04 -3.061457e-04 -1.941305e-02
<VARIANCE> 39
 3.188733e+01 2.129312e+01 4.198116e+01 4.123853e+01 2.955753e+01 2.805572e+01 3.745815e+01 3.468682e+01 3.146465e+01 2.481458e+01 2.130174e+01 1.517080e+01 9.919434e+01 1.216587e+00 1.029499e+00 1.545840e+00 1.805461e+00 1.819291e+00 1.821033e+00 2.098516e+00 2.008310e+00 1.915002e+00 1.622979e+00 1.325300e+00 1.089772e+00 2.758552e+00 1.769354e-01 1.680940e-01 2.348486e-01 3.077025e-01 3.211402e-01 3.324122e-01 3.827105e-01 3.635032e-01 3.423403e-01 2.976265e-01 2.419320e-01 2.014177e-01 3.432823e-01
<GCONST> 1.062574e+02
<STATE> 4
<MEAN> 39
 -2.952335e+00 1.442309e-02 -3.455399e+00 -4.008419e+00 -3.622314e+00 -1.501104e+00 -4.183538e+00 1.134754e+00 2.522424e-01 5.587182e-03 -9.143953e-01 -1.517293e+00 4.487704e+01 -2.437470e-02 2.800004e-03 -2.160376e-02 -1.797324e-03 -1.090484e-02 -5.036504e-03 -4.188015e-03 -4.139338e-04 4.900723e-03 -5.071034e-03 1.444993e-03 -8.874178e-03 1.382168e-01 2.728614e-03 1.043475e-03 2.090134e-03 1.020255e-03 1.849843e-03 6.167828e-04 1.146657e-04 -1.168025e-04 2.695811e-04 1.052482e-03 6.291577e-04 -3.061457e-04 -1.941305e-02
<VARIANCE> 39
 3.188733e+01 2.129312e+01 4.198116e+01 4.123853e+01 2.955753e+01 2.805572e+01 3.745815e+01 3.468682e+01 3.146465e+01 2.481458e+01 2.130174e+01 1.517080e+01 9.919434e+01 1.216587e+00 1.029499e+00 1.545840e+00 1.805461e+00 1.819291e+00 1.821033e+00 2.098516e+00 2.008310e+00 1.915002e+00 1.622979e+00 1.325300e+00 1.089772e+00 2.758552e+00 1.769354e-01 1.680940e-01 2.348486e-01 3.077025e-01 3.211402e-01 3.324122e-01 3.827105e-01 3.635032e-01 3.423403e-01 2.976265e-01 2.419320e-01 2.014177e-01 3.432823e-01
<GCONST> 1.062574e+02
<TRANSP> 5
 0.000000e+00 1.000000e+00 0.000000e+00 0.000000e+00 0.000000e+00
 0.000000e+00 6.000000e-01 4.000000e-01 0.000000e+00 0.000000e+00
 0.000000e+00 0.000000e+00 6.000000e-01 4.000000e-01 0.000000e+00
 0.000000e+00 0.000000e+00 0.000000e+00 7.000000e-01 3.000000e-01
 0.000000e+00 0.000000e+00 0.000000e+00 0.000000e+00 0.000000e+00
<ENDHMM>
~h "u"
<BEGINHMM>
<NUMSTATES> 5
<STATE> 2
<MEAN> 39
 -2.952335e+00 1.442309e-02 -3.455399e+00 -4.008419e+00 -3.622314e+00 -1.501104e+00 -4.183538e+00 1.134754e+00 2.522424e-01 5.587182e-03 -9.143953e-01 -1.517293e+00 4.487704e+01 -2.437470e-02 2.800004e-03 -2.160376e-02 -1.797324e-03 -1.090484e-02 -5.036504e-03 -4.188015e-03 -4.139338e-04 4.900723e-03 -5.071034e-03 1.444993e-03 -8.874178e-03 1.382168e-01 2.728614e-03 1.043475e-03 2.090134e-03 1.020255e-03 1.849843e-03 6.167828e-04 1.146657e-04 -1.168025e-04 2.695811e-04 1.052482e-03 6.291577e-04 -3.061457e-04 -1.941305e-02
<VARIANCE> 39
 3.188733e+01 2.129312e+01 4.198116e+01 4.123853e+01 2.955753e+01 2.805572e+01 3.745815e+01 3.468682e+01 3.146465e+01 2.481458e+01 2.130174e+01 1.517080e+01 9.919434e+01 1.216587e+00 1.029499e+00 1.545840e+00 1.805461e+00 1.819291e+00 1.821033e+00 2.098516e+00 2.008310e+00 1.915002e+00 1.622979e+00 1.325300e+00 1.089772e+00 2.758552e+00 1.769354e-01 1.680940e-01 2.348486e-01 3.077025e-01 3.211402e-01 3.324122e-01 3.827105e-01 3.635032e-01 3.423403e-01 2.976265e-01 2.419320e-01 2.014177e-01 3.432823e-01
<GCONST> 1.062574e+02
<STATE> 3
<MEAN> 39
 -2.952335e+00 1.442309e-02 -3.455399e+00 -4.008419e+00 -3.622314e+00 -1.501104e+00 -4.183538e+00 1.134754e+00 2.522424e-01 5.587182e-03 -9.143953e-01 -1.517293e+00 4.487704e+01 -2.437470e-02 2.800004e-03 -2.160376e-02 -1.797324e-03 -1.090484e-02 -5.036504e-03 -4.188015e-03 -4.139338e-04 4.900723e-03 -5.071034e-03 1.444993e-03 -8.874178e-03 1.382168e-01 2.728614e-03 1.043475e-03 2.090134e-03 1.020255e-03 1.849843e-03 6.167828e-04 1.146657e-04 -1.168025e-04 2.695811e-04 1.052482e-03 6.291577e-04 -3.061457e-04 -1.941305e-02
<VARIANCE> 39
 3.188733e+01 2.129312e+01 4.198116e+01 4.123853e+01 2.955753e+01 2.805572e+01 3.745815e+01 3.468682e+01 3.146465e+01 2.481458e+01 2.130174e+01 1.517080e+01 9.919434e+01 1.216587e+00 1.029499e+00 1.545840e+00 1.805461e+00 1.819291e+00 1.821033e+00 2.098516e+00 2.008310e+00 1.915002e+00 1.622979e+00 1.325300e+00 1.089772e+00 2.758552e+00 1.769354e-01 1.680940e-01 2.348486e-01 3.077025e-01 3.211402e-01 3.324122e-01 3.827105e-01 3.635032e-01 3.423403e-01 2.976265e-01 2.419320e-01 2.014177e-01 3.432823e-01
<GCONST> 1.062574e+02
<STATE> 4
<MEAN> 39
 -2.952335e+00 1.442309e-02 -3.455399e+00 -4.008419e+00 -3.622314e+00 -1.501104e+00 -4.183538e+00 1.134754e+00 2.522424e-01 5.587182e-03 -9.143953e-01 -1.517293e+00 4.487704e+01 -2.437470e-02 2.800004e-03 -2.160376e-02 -1.797324e-03 -1.090484e-02 -5.036504e-03 -4.188015e-03 -4.139338e-04 4.900723e-03 -5.071034e-03 1.444993e-03 -8.874178e-03 1.382168e-01 2.728614e-03 1.043475e-03 2.090134e-03 1.020255e-03 1.849843e-03 6.167828e-04 1.146657e-04 -1.168025e-04 2.695811e-04 1.052482e-03 6.291577e-04 -3.061457e-04 -1.941305e-02
<VARIANCE> 39
 3.188733e+01 2.129312e+01 4.198116e+01 4.123853e+01 2.955753e+01 2.805572e+01 3.745815e+01 3.468682e+01 3.146465e+01 2.481458e+01 2.130174e+01 1.517080e+01 9.919434e+01 1.216587e+00 1.029499e+00 1.545840e+00 1.805461e+00 1.819291e+00 1.821033e+00 2.098516e+00 2.008310e+00 1.915002e+00 1.622979e+00 1.325300e+00 1.089772e+00 2.758552e+00 1.769354e-01 1.680940e-01 2.348486e-01 3.077025e-01 3.211402e-01 3.324122e-01 3.827105e-01 3.635032e-01 3.423403e-01 2.976265e-01 2.419320e-01 2.014177e-01 3.432823e-01
<GCONST> 1.062574e+02
<TRANSP> 5
 0.000000e+00 1.000000e+00 0.000000e+00 0.000000e+00 0.000000e+00
 0.000000e+00 6.000000e-01 4.000000e-01 0.000000e+00 0.000000e+00
 0.000000e+00 0.000000e+00 6.000000e-01 4.000000e-01 0.000000e+00
 0.000000e+00 0.000000e+00 0.000000e+00 7.000000e-01 3.000000e-01
 0.000000e+00 0.000000e+00 0.000000e+00 0.000000e+00 0.000000e+00
<ENDHMM>
~h "k"
<BEGINHMM>
<NUMSTATES> 5
<STATE> 2
<MEAN> 39
 -2.952335e+00 1.442309e-02 -3.455399e+00 -4.008419e+00 -3.622314e+00 -1.501104e+00 -4.183538e+00 1.134754e+00 2.522424e-01 5.587182e-03 -9.143953e-01 -1.517293e+00 4.487704e+01 -2.437470e-02 2.800004e-03 -2.160376e-02 -1.797324e-03 -1.090484e-02 -5.036504e-03 -4.188015e-03 -4.139338e-04 4.900723e-03 -5.071034e-03 1.444993e-03 -8.874178e-03 1.382168e-01 2.728614e-03 1.043475e-03 2.090134e-03 1.020255e-03 1.849843e-03 6.167828e-04 1.146657e-04 -1.168025e-04 2.695811e-04 1.052482e-03 6.291577e-04 -3.061457e-04 -1.941305e-02
<VARIANCE> 39
 3.188733e+01 2.129312e+01 4.198116e+01 4.123853e+01 2.955753e+01 2.805572e+01 3.745815e+01 3.468682e+01 3.146465e+01 2.481458e+01 2.130174e+01 1.517080e+01 9.919434e+01 1.216587e+00 1.029499e+00 1.545840e+00 1.805461e+00 1.819291e+00 1.821033e+00 2.098516e+00 2.008310e+00 1.915002e+00 1.622979e+00 1.325300e+00 1.089772e+00 2.758552e+00 1.769354e-01 1.680940e-01 2.348486e-01 3.077025e-01 3.211402e-01 3.324122e-01 3.827105e-01 3.635032e-01 3.423403e-01 2.976265e-01 2.419320e-01 2.014177e-01 3.432823e-01
<GCONST> 1.062574e+02
<STATE> 3
<MEAN> 39
 -2.952335e+00 1.442309e-02 -3.455399e+00 -4.008419e+00 -3.622314e+00 -1.501104e+00 -4.183538e+00 1.134754e+00 2.522424e-01 5.587182e-03 -9.143953e-01 -1.517293e+00 4.487704e+01 -2.437470e-02 2.800004e-03 -2.160376e-02 -1.797324e-03 -1.090484e-02 -5.036504e-03 -4.188015e-03 -4.139338e-04 4.900723e-03 -5.071034e-03 1.444993e-03 -8.874178e-03 1.382168e-01 2.728614e-03 1.043475e-03 2.090134e-03 1.020255e-03 1.849843e-03 6.167828e-04 1.146657e-04 -1.168025e-04 2.695811e-04 1.052482e-03 6.291577e-04 -3.061457e-04 -1.941305e-02
<VARIANCE> 39
 3.188733e+01 2.129312e+01 4.198116e+01 4.123853e+01 2.955753e+01 2.805572e+01 3.745815e+01 3.468682e+01 3.146465e+01 2.481458e+01 2.130174e+01 1.517080e+01 9.919434e+01 1.216587e+00 1.029499e+00 1.545840e+00 1.805461e+00 1.819291e+00 1.821033e+00 2.098516e+00 2.008310e+00 1.915002e+00 1.622979e+00 1.325300e+00 1.089772e+00 2.758552e+00 1.769354e-01 1.680940e-01 2.348486e-01 3.077025e-01 3.211402e-01 3.324122e-01 3.827105e-01 3.635032e-01 3.423403e-01 2.976265e-01 2.419320e-01 2.014177e-01 3.432823e-01
<GCONST> 1.062574e+02
<STATE> 4
<MEAN> 39
 -2.952335e+00 1.442309e-02 -3.455399e+00 -4.008419e+00 -3.622314e+00 -1.501104e+00 -4.183538e+00 1.134754e+00 2.522424e-01 5.587182e-03 -9.143953e-01 -1.517293e+00 4.487704e+01 -2.437470e-02 2.800004e-03 -2.160376e-02 -1.797324e-03 -1.090484e-02 -5.036504e-03 -4.188015e-03 -4.139338e-04 4.900723e-03 -5.071034e-03 1.444993e-03 -8.874178e-03 1.382168e-01 2.728614e-03 1.043475e-03 2.090134e-03 1.020255e-03 1.849843e-03 6.167828e-04 1.146657e-04 -1.168025e-04 2.695811e-04 1.052482e-03 6.291577e-04 -3.061457e-04 -1.941305e-02
<VARIANCE> 39
 3.188733e+01 2.129312e+01 4.198116e+01 4.123853e+01 2.955753e+01 2.805572e+01 3.745815e+01 3.468682e+01 3.146465e+01 2.481458e+01 2.130174e+01 1.517080e+01 9.919434e+01 1.216587e+00 1.029499e+00 1.545840e+00 1.805461e+00 1.819291e+00 1.821033e+00 2.098516e+00 2.008310e+00 1.915002e+00 1.622979e+00 1.325300e+00 1.089772e+00 2.758552e+00 1.769354e-01 1.680940e-01 2.348486e-01 3.077025e-01 3.211402e-01 3.324122e-01 3.827105e-01 3.635032e-01 3.423403e-01 2.976265e-01 2.419320e-01 2.014177e-01 3.432823e-01
<GCONST> 1.062574e+02
<TRANSP> 5
 0.000000e+00 1.000000e+00 0.000000e+00 0.000000e+00 0.000000e+00
 0.000000e+00 6.000000e-01 4.000000e-01 0.000000e+00 0.000000e+00
 0.000000e+00 0.000000e+00 6.000000e-01 4.000000e-01 0.000000e+00
 0.000000e+00 0.000000e+00 0.000000e+00 7.000000e-01 3.000000e-01
 0.000000e+00 0.000000e+00 0.000000e+00 0.000000e+00 0.000000e+00
<ENDHMM>
~h "b"
<BEGINHMM>
<NUMSTATES> 5
<STATE> 2
<MEAN> 39
 -2.952335e+00 1.442309e-02 -3.455399e+00 -4.008419e+00 -3.622314e+00 -1.501104e+00 -4.183538e+00 1.134754e+00 2.522424e-01 5.587182e-03 -9.143953e-01 -1.517293e+00 4.487704e+01 -2.437470e-02 2.800004e-03 -2.160376e-02 -1.797324e-03 -1.090484e-02 -5.036504e-03 -4.188015e-03 -4.139338e-04 4.900723e-03 -5.071034e-03 1.444993e-03 -8.874178e-03 1.382168e-01 2.728614e-03 1.043475e-03 2.090134e-03 1.020255e-03 1.849843e-03 6.167828e-04 1.146657e-04 -1.168025e-04 2.695811e-04 1.052482e-03 6.291577e-04 -3.061457e-04 -1.941305e-02
<VARIANCE> 39
 3.188733e+01 2.129312e+01 4.198116e+01 4.123853e+01 2.955753e+01 2.805572e+01 3.745815e+01 3.468682e+01 3.146465e+01 2.481458e+01 2.130174e+01 1.517080e+01 9.919434e+01 1.216587e+00 1.029499e+00 1.545840e+00 1.805461e+00 1.819291e+00 1.821033e+00 2.098516e+00 2.008310e+00 1.915002e+00 1.622979e+00 1.325300e+00 1.089772e+00 2.758552e+00 1.769354e-01 1.680940e-01 2.348486e-01 3.077025e-01 3.211402e-01 3.324122e-01 3.827105e-01 3.635032e-01 3.423403e-01 2.976265e-01 2.419320e-01 2.014177e-01 3.432823e-01
<GCONST> 1.062574e+02
<STATE> 3
<MEAN> 39
 -2.952335e+00 1.442309e-02 -3.455399e+00 -4.008419e+00 -3.622314e+00 -1.501104e+00 -4.183538e+00 1.134754e+00 2.522424e-01 5.587182e-03 -9.143953e-01 -1.517293e+00 4.487704e+01 -2.437470e-02 2.800004e-03 -2.160376e-02 -1.797324e-03 -1.090484e-02 -5.036504e-03 -4.188015e-03 -4.139338e-04 4.900723e-03 -5.071034e-03 1.444993e-03 -8.874178e-03 1.382168e-01 2.728614e-03 1.043475e-03 2.090134e-03 1.020255e-03 1.849843e-03 6.167828e-04 1.146657e-04 -1.168025e-04 2.695811e-04 1.052482e-03 6.291577e-04 -3.061457e-04 -1.941305e-02
<VARIANCE> 39
 3.188733e+01 2.129312e+01 4.198116e+01 4.123853e+01 2.955753e+01 2.805572e+01 3.745815e+01 3.468682e+01 3.146465e+01 2.481458e+01 2.130174e+01 1.517080e+01 9.919434e+01 1.216587e+00 1.029499e+00 1.545840e+00 1.805461e+00 1.819291e+00 1.821033e+00 2.098516e+00 2.008310e+00 1.915002e+00 1.622979e+00 1.325300e+00 1.089772e+00 2.758552e+00 1.769354e-01 1.680940e-01 2.348486e-01 3.077025e-01 3.211402e-01 3.324122e-01 3.827105e-01 3.635032e-01 3.423403e-01 2.976265e-01 2.419320e-01 2.014177e-01 3.432823e-01
<GCONST> 1.062574e+02
<STATE> 4
<MEAN> 39
 -2.952335e+00 1.442309e-02 -3.455399e+00 -4.008419e+00 -3.622314e+00 -1.501104e+00 -4.183538e+00 1.134754e+00 2.522424e-01 5.587182e-03 -9.143953e-01 -1.517293e+00 4.487704e+01 -2.437470e-02 2.800004e-03 -2.160376e-02 -1.797324e-03 -1.090484e-02 -5.036504e-03 -4.188015e-03 -4.139338e-04 4.900723e-03 -5.071034e-03 1.444993e-03 -8.874178e-03 1.382168e-01 2.728614e-03 1.043475e-03 2.090134e-03 1.020255e-03 1.849843e-03 6.167828e-04 1.146657e-04 -1.168025e-04 2.695811e-04 1.052482e-03 6.291577e-04 -3.061457e-04 -1.941305e-02
<VARIANCE> 39
 3.188733e+01 2.129312e+01 4.198116e+01 4.123853e+01 2.955753e+01 2.805572e+01 3.745815e+01 3.468682e+01 3.146465e+01 2.481458e+01 2.130174e+01 1.517080e+01 9.919434e+01 1.216587e+00 1.029499e+00 1.545840e+00 1.805461e+00 1.819291e+00 1.821033e+00 2.098516e+00 2.008310e+00 1.915002e+00 1.622979e+00 1.325300e+00 1.089772e+00 2.758552e+00 1.769354e-01 1.680940e-01 2.348486e-01 3.077025e-01 3.211402e-01 3.324122e-01 3.827105e-01 3.635032e-01 3.423403e-01 2.976265e-01 2.419320e-01 2.014177e-01 3.432823e-01
<GCONST> 1.062574e+02
<TRANSP> 5
 0.000000e+00 1.000000e+00 0.000000e+00 0.000000e+00 0.000000e+00
 0.000000e+00 6.000000e-01 4.000000e-01 0.000000e+00 0.000000e+00
 0.000000e+00 0.000000e+00 6.000000e-01 4.000000e-01 0.000000e+00
 0.000000e+00 0.000000e+00 0.000000e+00 7.000000e-01 3.000000e-01
 0.000000e+00 0.000000e+00 0.000000e+00 0.000000e+00 0.000000e+00
<ENDHMM>
~h "c"
<BEGINHMM>
<NUMSTATES> 5
<STATE> 2
<MEAN> 39
 -2.952335e+00 1.442309e-02 -3.455399e+00 -4.008419e+00 -3.622314e+00 -1.501104e+00 -4.183538e+00 1.134754e+00 2.522424e-01 5.587182e-03 -9.143953e-01 -1.517293e+00 4.487704e+01 -2.437470e-02 2.800004e-03 -2.160376e-02 -1.797324e-03 -1.090484e-02 -5.036504e-03 -4.188015e-03 -4.139338e-04 4.900723e-03 -5.071034e-03 1.444993e-03 -8.874178e-03 1.382168e-01 2.728614e-03 1.043475e-03 2.090134e-03 1.020255e-03 1.849843e-03 6.167828e-04 1.146657e-04 -1.168025e-04 2.695811e-04 1.052482e-03 6.291577e-04 -3.061457e-04 -1.941305e-02
<VARIANCE> 39
 3.188733e+01 2.129312e+01 4.198116e+01 4.123853e+01 2.955753e+01 2.805572e+01 3.745815e+01 3.468682e+01 3.146465e+01 2.481458e+01 2.130174e+01 1.517080e+01 9.919434e+01 1.216587e+00 1.029499e+00 1.545840e+00 1.805461e+00 1.819291e+00 1.821033e+00 2.098516e+00 2.008310e+00 1.915002e+00 1.622979e+00 1.325300e+00 1.089772e+00 2.758552e+00 1.769354e-01 1.680940e-01 2.348486e-01 3.077025e-01 3.211402e-01 3.324122e-01 3.827105e-01 3.635032e-01 3.423403e-01 2.976265e-01 2.419320e-01 2.014177e-01 3.432823e-01
<GCONST> 1.062574e+02
<STATE> 3
<MEAN> 39
 -2.952335e+00 1.442309e-02 -3.455399e+00 -4.008419e+00 -3.622314e+00 -1.501104e+00 -4.183538e+00 1.134754e+00 2.522424e-01 5.587182e-03 -9.143953e-01 -1.517293e+00 4.487704e+01 -2.437470e-02 2.800004e-03 -2.160376e-02 -1.797324e-03 -1.090484e-02 -5.036504e-03 -4.188015e-03 -4.139338e-04 4.900723e-03 -5.071034e-03 1.444993e-03 -8.874178e-03 1.382168e-01 2.728614e-03 1.043475e-03 2.090134e-03 1.020255e-03 1.849843e-03 6.167828e-04 1.146657e-04 -1.168025e-04 2.695811e-04 1.052482e-03 6.291577e-04 -3.061457e-04 -1.941305e-02
<VARIANCE> 39
 3.188733e+01 2.129312e+01 4.198116e+01 4.123853e+01 2.955753e+01 2.805572e+01 3.745815e+01 3.468682e+01 3.146465e+01 2.481458e+01 2.130174e+01 1.517080e+01 9.919434e+01 1.216587e+00 1.029499e+00 1.545840e+00 1.805461e+00 1.819291e+00 1.821033e+00 2.098516e+00 2.008310e+00 1.915002e+00 1.622979e+00 1.325300e+00 1.089772e+00 2.758552e+00 1.769354e-01 1.680940e-01 2.348486e-01 3.077025e-01 3.211402e-01 3.324122e-01 3.827105e-01 3.635032e-01 3.423403e-01 2.976265e-01 2.419320e-01 2.014177e-01 3.432823e-01
<GCONST> 1.062574e+02
<STATE> 4
<MEAN> 39
 -2.952335e+00 1.442309e-02 -3.455399e+00 -4.008419e+00 -3.622314e+00 -1.501104e+00 -4.183538e+00 1.134754e+00 2.522424e-01 5.587182e-03 -9.143953e-01 -1.517293e+00 4.487704e+01 -2.437470e-02 2.800004e-03 -2.160376e-02 -1.797324e-03 -1.090484e-02 -5.036504e-03 -4.188015e-03 -4.139338e-04 4.900723e-03 -5.071034e-03 1.444993e-03 -8.874178e-03 1.382168e-01 2.728614e-03 1.043475e-03 2.090134e-03 1.020255e-03 1.849843e-03 6.167828e-04 1.146657e-04 -1.168025e-04 2.695811e-04 1.052482e-03 6.291577e-04 -3.061457e-04 -1.941305e-02
<VARIANCE> 39
 3.188733e+01 2.129312e+01 4.198116e+01 4.123853e+01 2.955753e+01 2.805572e+01 3.745815e+01 3.468682e+01 3.146465e+01 2.481458e+01 2.130174e+01 1.517080e+01 9.919434e+01 1.216587e+00 1.029499e+00 1.545840e+00 1.805461e+00 1.819291e+00 1.821033e+00 2.098516e+00 2.008310e+00 1.915002e+00 1.622979e+00 1.325300e+00 1.089772e+00 2.758552e+00 1.769354e-01 1.680940e-01 2.348486e-01 3.077025e-01 3.211402e-01 3.324122e-01 3.827105e-01 3.635032e-01 3.423403e-01 2.976265e-01 2.419320e-01 2.014177e-01 3.432823e-01
<GCONST> 1.062574e+02
<TRANSP> 5
 0.000000e+00 1.000000e+00 0.000000e+00 0.000000e+00 0.000000e+00
 0.000000e+00 6.000000e-01 4.000000e-01 0.000000e+00 0.000000e+00
 0.000000e+00 0.000000e+00 6.000000e-01 4.000000e-01 0.000000e+00
 0.000000e+00 0.000000e+00 0.000000e+00 7.000000e-01 3.000000e-01
 0.000000e+00 0.000000e+00 0.000000e+00 0.000000e+00 0.000000e+00
<ENDHMM>
~h "l"
<BEGINHMM>
<NUMSTATES> 5
<STATE> 2
<MEAN> 39
 -2.952335e+00 1.442309e-02 -3.455399e+00 -4.008419e+00 -3.622314e+00 -1.501104e+00 -4.183538e+00 1.134754e+00 2.522424e-01 5.587182e-03 -9.143953e-01 -1.517293e+00 4.487704e+01 -2.437470e-02 2.800004e-03 -2.160376e-02 -1.797324e-03 -1.090484e-02 -5.036504e-03 -4.188015e-03 -4.139338e-04 4.900723e-03 -5.071034e-03 1.444993e-03 -8.874178e-03 1.382168e-01 2.728614e-03 1.043475e-03 2.090134e-03 1.020255e-03 1.849843e-03 6.167828e-04 1.146657e-04 -1.168025e-04 2.695811e-04 1.052482e-03 6.291577e-04 -3.061457e-04 -1.941305e-02
<VARIANCE> 39
 3.188733e+01 2.129312e+01 4.198116e+01 4.123853e+01 2.955753e+01 2.805572e+01 3.745815e+01 3.468682e+01 3.146465e+01 2.481458e+01 2.130174e+01 1.517080e+01 9.919434e+01 1.216587e+00 1.029499e+00 1.545840e+00 1.805461e+00 1.819291e+00 1.821033e+00 2.098516e+00 2.008310e+00 1.915002e+00 1.622979e+00 1.325300e+00 1.089772e+00 2.758552e+00 1.769354e-01 1.680940e-01 2.348486e-01 3.077025e-01 3.211402e-01 3.324122e-01 3.827105e-01 3.635032e-01 3.423403e-01 2.976265e-01 2.419320e-01 2.014177e-01 3.432823e-01
<GCONST> 1.062574e+02
<STATE> 3
<MEAN> 39
 -2.952335e+00 1.442309e-02 -3.455399e+00 -4.008419e+00 -3.622314e+00 -1.501104e+00 -4.183538e+00 1.134754e+00 2.522424e-01 5.587182e-03 -9.143953e-01 -1.517293e+00 4.487704e+01 -2.437470e-02 2.800004e-03 -2.160376e-02 -1.797324e-03 -1.090484e-02 -5.036504e-03 -4.188015e-03 -4.139338e-04 4.900723e-03 -5.071034e-03 1.444993e-03 -8.874178e-03 1.382168e-01 2.728614e-03 1.043475e-03 2.090134e-03 1.020255e-03 1.849843e-03 6.167828e-04 1.146657e-04 -1.168025e-04 2.695811e-04 1.052482e-03 6.291577e-04 -3.061457e-04 -1.941305e-02
<VARIANCE> 39
 3.188733e+01 2.129312e+01 4.198116e+01 4.123853e+01 2.955753e+01 2.805572e+01 3.745815e+01 3.468682e+01 3.146465e+01 2.481458e+01 2.130174e+01 1.517080e+01 9.919434e+01 1.216587e+00 1.029499e+00 1.545840e+00 1.805461e+00 1.819291e+00 1.821033e+00 2.098516e+00 2.008310e+00 1.915002e+00 1.622979e+00 1.325300e+00 1.089772e+00 2.758552e+00 1.769354e-01 1.680940e-01 2.348486e-01 3.077025e-01 3.211402e-01 3.324122e-01 3.827105e-01 3.635032e-01 3.423403e-01 2.976265e-01 2.419320e-01 2.014177e-01 3.432823e-01
<GCONST> 1.062574e+02
<STATE> 4
<MEAN> 39
 -2.952335e+00 1.442309e-02 -3.455399e+00 -4.008419e+00 -3.622314e+00 -1.501104e+00 -4.183538e+00 1.134754e+00 2.522424e-01 5.587182e-03 -9.143953e-01 -1.517293e+00 4.487704e+01 -2.437470e-02 2.800004e-03 -2.160376e-02 -1.797324e-03 -1.090484e-02 -5.036504e-03 -4.188015e-03 -4.139338e-04 4.900723e-03 -5.071034e-03 1.444993e-03 -8.874178e-03 1.382168e-01 2.728614e-03 1.043475e-03 2.090134e-03 1.020255e-03 1.849843e-03 6.167828e-04 1.146657e-04 -1.168025e-04 2.695811e-04 1.052482e-03 6.291577e-04 -3.061457e-04 -1.941305e-02
<VARIANCE> 39
 3.188733e+01 2.129312e+01 4.198116e+01 4.123853e+01 2.955753e+01 2.805572e+01 3.745815e+01 3.468682e+01 3.146465e+01 2.481458e+01 2.130174e+01 1.517080e+01 9.919434e+01 1.216587e+00 1.029499e+00 1.545840e+00 1.805461e+00 1.819291e+00 1.821033e+00 2.098516e+00 2.008310e+00 1.915002e+00 1.622979e+00 1.325300e+00 1.089772e+00 2.758552e+00 1.769354e-01 1.680940e-01 2.348486e-01 3.077025e-01 3.211402e-01 3.324122e-01 3.827105e-01 3.635032e-01 3.423403e-01 2.976265e-01 2.419320e-01 2.014177e-01 3.432823e-01
<GCONST> 1.062574e+02
<TRANSP> 5
 0.000000e+00 1.000000e+00 0.000000e+00 0.000000e+00 0.000000e+00
 0.000000e+00 6.000000e-01 4.000000e-01 0.000000e+00 0.000000e+00
 0.000000e+00 0.000000e+00 6.000000e-01 4.000000e-01 0.000000e+00
 0.000000e+00 0.000000e+00 0.000000e+00 7.000000e-01 3.000000e-01
 0.000000e+00 0.000000e+00 0.000000e+00 0.000000e+00 0.000000e+00
<ENDHMM>
~h "h"
<BEGINHMM>
<NUMSTATES> 5
<STATE> 2
<MEAN> 39
 -2.952335e+00 1.442309e-02 -3.455399e+00 -4.008419e+00 -3.622314e+00 -1.501104e+00 -4.183538e+00 1.134754e+00 2.522424e-01 5.587182e-03 -9.143953e-01 -1.517293e+00 4.487704e+01 -2.437470e-02 2.800004e-03 -2.160376e-02 -1.797324e-03 -1.090484e-02 -5.036504e-03 -4.188015e-03 -4.139338e-04 4.900723e-03 -5.071034e-03 1.444993e-03 -8.874178e-03 1.382168e-01 2.728614e-03 1.043475e-03 2.090134e-03 1.020255e-03 1.849843e-03 6.167828e-04 1.146657e-04 -1.168025e-04 2.695811e-04 1.052482e-03 6.291577e-04 -3.061457e-04 -1.941305e-02
<VARIANCE> 39
 3.188733e+01 2.129312e+01 4.198116e+01 4.123853e+01 2.955753e+01 2.805572e+01 3.745815e+01 3.468682e+01 3.146465e+01 2.481458e+01 2.130174e+01 1.517080e+01 9.919434e+01 1.216587e+00 1.029499e+00 1.545840e+00 1.805461e+00 1.819291e+00 1.821033e+00 2.098516e+00 2.008310e+00 1.915002e+00 1.622979e+00 1.325300e+00 1.089772e+00 2.758552e+00 1.769354e-01 1.680940e-01 2.348486e-01 3.077025e-01 3.211402e-01 3.324122e-01 3.827105e-01 3.635032e-01 3.423403e-01 2.976265e-01 2.419320e-01 2.014177e-01 3.432823e-01
<GCONST> 1.062574e+02
<STATE> 3
<MEAN> 39
 -2.952335e+00 1.442309e-02 -3.455399e+00 -4.008419e+00 -3.622314e+00 -1.501104e+00 -4.183538e+00 1.134754e+00 2.522424e-01 5.587182e-03 -9.143953e-01 -1.517293e+00 4.487704e+01 -2.437470e-02 2.800004e-03 -2.160376e-02 -1.797324e-03 -1.090484e-02 -5.036504e-03 -4.188015e-03 -4.139338e-04 4.900723e-03 -5.071034e-03 1.444993e-03 -8.874178e-03 1.382168e-01 2.728614e-03 1.043475e-03 2.090134e-03 1.020255e-03 1.849843e-03 6.167828e-04 1.146657e-04 -1.168025e-04 2.695811e-04 1.052482e-03 6.291577e-04 -3.061457e-04 -1.941305e-02
<VARIANCE> 39
 3.188733e+01 2.129312e+01 4.198116e+01 4.123853e+01 2.955753e+01 2.805572e+01 3.745815e+01 3.468682e+01 3.146465e+01 2.481458e+01 2.130174e+01 1.517080e+01 9.919434e+01 1.216587e+00 1.029499e+00 1.545840e+00 1.805461e+00 1.819291e+00 1.821033e+00 2.098516e+00 2.008310e+00 1.915002e+00 1.622979e+00 1.325300e+00 1.089772e+00 2.758552e+00 1.769354e-01 1.680940e-01 2.348486e-01 3.077025e-01 3.211402e-01 3.324122e-01 3.827105e-01 3.635032e-01 3.423403e-01 2.976265e-01 2.419320e-01 2.014177e-01 3.432823e-01
<GCONST> 1.062574e+02
<STATE> 4
<MEAN> 39
 -2.952335e+00 1.442309e-02 -3.455399e+00 -4.008419e+00 -3.622314e+00 -1.501104e+00 -4.183538e+00 1.134754e+00 2.522424e-01 5.587182e-03 -9.143953e-01 -1.517293e+00 4.487704e+01 -2.437470e-02 2.800004e-03 -2.160376e-02 -1.797324e-03 -1.090484e-02 -5.036504e-03 -4.188015e-03 -4.139338e-04 4.900723e-03 -5.071034e-03 1.444993e-03 -8.874178e-03 1.382168e-01 2.728614e-03 1.043475e-03 2.090134e-03 1.020255e-03 1.849843e-03 6.167828e-04 1.146657e-04 -1.168025e-04 2.695811e-04 1.052482e-03 6.291577e-04 -3.061457e-04 -1.941305e-02
<VARIANCE> 39
 3.188733e+01 2.129312e+01 4.198116e+01 4.123853e+01 2.955753e+01 2.805572e+01 3.745815e+01 3.468682e+01 3.146465e+01 2.481458e+01 2.130174e+01 1.517080e+01 9.919434e+01 1.216587e+00 1.029499e+00 1.545840e+00 1.805461e+00 1.819291e+00 1.821033e+00 2.098516e+00 2.008310e+00 1.915002e+00 1.622979e+00 1.325300e+00 1.089772e+00 2.758552e+00 1.769354e-01 1.680940e-01 2.348486e-01 3.077025e-01 3.211402e-01 3.324122e-01 3.827105e-01 3.635032e-01 3.423403e-01 2.976265e-01 2.419320e-01 2.014177e-01 3.432823e-01
<GCONST> 1.062574e+02
<TRANSP> 5
 0.000000e+00 1.000000e+00 0.000000e+00 0.000000e+00 0.000000e+00
 0.000000e+00 6.000000e-01 4.000000e-01 0.000000e+00 0.000000e+00
 0.000000e+00 0.000000e+00 6.000000e-01 4.000000e-01 0.000000e+00
 0.000000e+00 0.000000e+00 0.000000e+00 7.000000e-01 3.000000e-01
 0.000000e+00 0.000000e+00 0.000000e+00 0.000000e+00 0.000000e+00
<ENDHMM>
~h "s"
<BEGINHMM>
<NUMSTATES> 5
<STATE> 2
<MEAN> 39
 -2.952335e+00 1.442309e-02 -3.455399e+00 -4.008419e+00 -3.622314e+00 -1.501104e+00 -4.183538e+00 1.134754e+00 2.522424e-01 5.587182e-03 -9.143953e-01 -1.517293e+00 4.487704e+01 -2.437470e-02 2.800004e-03 -2.160376e-02 -1.797324e-03 -1.090484e-02 -5.036504e-03 -4.188015e-03 -4.139338e-04 4.900723e-03 -5.071034e-03 1.444993e-03 -8.874178e-03 1.382168e-01 2.728614e-03 1.043475e-03 2.090134e-03 1.020255e-03 1.849843e-03 6.167828e-04 1.146657e-04 -1.168025e-04 2.695811e-04 1.052482e-03 6.291577e-04 -3.061457e-04 -1.941305e-02
<VARIANCE> 39
 3.188733e+01 2.129312e+01 4.198116e+01 4.123853e+01 2.955753e+01 2.805572e+01 3.745815e+01 3.468682e+01 3.146465e+01 2.481458e+01 2.130174e+01 1.517080e+01 9.919434e+01 1.216587e+00 1.029499e+00 1.545840e+00 1.805461e+00 1.819291e+00 1.821033e+00 2.098516e+00 2.008310e+00 1.915002e+00 1.622979e+00 1.325300e+00 1.089772e+00 2.758552e+00 1.769354e-01 1.680940e-01 2.348486e-01 3.077025e-01 3.211402e-01 3.324122e-01 3.827105e-01 3.635032e-01 3.423403e-01 2.976265e-01 2.419320e-01 2.014177e-01 3.432823e-01
<GCONST> 1.062574e+02
<STATE> 3
<MEAN> 39
 -2.952335e+00 1.442309e-02 -3.455399e+00 -4.008419e+00 -3.622314e+00 -1.501104e+00 -4.183538e+00 1.134754e+00 2.522424e-01 5.587182e-03 -9.143953e-01 -1.517293e+00 4.487704e+01 -2.437470e-02 2.800004e-03 -2.160376e-02 -1.797324e-03 -1.090484e-02 -5.036504e-03 -4.188015e-03 -4.139338e-04 4.900723e-03 -5.071034e-03 1.444993e-03 -8.874178e-03 1.382168e-01 2.728614e-03 1.043475e-03 2.090134e-03 1.020255e-03 1.849843e-03 6.167828e-04 1.146657e-04 -1.168025e-04 2.695811e-04 1.052482e-03 6.291577e-04 -3.061457e-04 -1.941305e-02
<VARIANCE> 39
 3.188733e+01 2.129312e+01 4.198116e+01 4.123853e+01 2.955753e+01 2.805572e+01 3.745815e+01 3.468682e+01 3.146465e+01 2.481458e+01 2.130174e+01 1.517080e+01 9.919434e+01 1.216587e+00 1.029499e+00 1.545840e+00 1.805461e+00 1.819291e+00 1.821033e+00 2.098516e+00 2.008310e+00 1.915002e+00 1.622979e+00 1.325300e+00 1.089772e+00 2.758552e+00 1.769354e-01 1.680940e-01 2.348486e-01 3.077025e-01 3.211402e-01 3.324122e-01 3.827105e-01 3.635032e-01 3.423403e-01 2.976265e-01 2.419320e-01 2.014177e-01 3.432823e-01
<GCONST> 1.062574e+02
<STATE> 4
<MEAN> 39
 -2.952335e+00 1.442309e-02 -3.455399e+00 -4.008419e+00 -3.622314e+00 -1.501104e+00 -4.183538e+00 1.134754e+00 2.522424e-01 5.587182e-03 -9.143953e-01 -1.517293e+00 4.487704e+01 -2.437470e-02 2.800004e-03 -2.160376e-02 -1.797324e-03 -1.090484e-02 -5.036504e-03 -4.188015e-03 -4.139338e-04 4.900723e-03 -5.071034e-03 1.444993e-03 -8.874178e-03 1.382168e-01 2.728614e-03 1.043475e-03 2.090134e-03 1.020255e-03 1.849843e-03 6.167828e-04 1.146657e-04 -1.168025e-04 2.695811e-04 1.052482e-03 6.291577e-04 -3.061457e-04 -1.941305e-02
<VARIANCE> 39
 3.188733e+01 2.129312e+01 4.198116e+01 4.123853e+01 2.955753e+01 2.805572e+01 3.745815e+01 3.468682e+01 3.146465e+01 2.481458e+01 2.130174e+01 1.517080e+01 9.919434e+01 1.216587e+00 1.029499e+00 1.545840e+00 1.805461e+00 1.819291e+00 1.821033e+00 2.098516e+00 2.008310e+00 1.915002e+00 1.622979e+00 1.325300e+00 1.089772e+00 2.758552e+00 1.769354e-01 1.680940e-01 2.348486e-01 3.077025e-01 3.211402e-01 3.324122e-01 3.827105e-01 3.635032e-01 3.423403e-01 2.976265e-01 2.419320e-01 2.014177e-01 3.432823e-01
<GCONST> 1.062574e+02
<TRANSP> 5
 0.000000e+00 1.000000e+00 0.000000e+00 0.000000e+00 0.000000e+00
 0.000000e+00 6.000000e-01 4.000000e-01 0.000000e+00 0.000000e+00
 0.000000e+00 0.000000e+00 6.000000e-01 4.000000e-01 0.000000e+00
 0.000000e+00 0.000000e+00 0.000000e+00 7.000000e-01 3.000000e-01
 0.000000e+00 0.000000e+00 0.000000e+00 0.000000e+00 0.000000e+00
<ENDHMM>
~h "sil"
<BEGINHMM>
<NUMSTATES> 5
<STATE> 2
<MEAN> 39
 -2.952335e+00 1.442309e-02 -3.455399e+00 -4.008419e+00 -3.622314e+00 -1.501104e+00 -4.183538e+00 1.134754e+00 2.522424e-01 5.587182e-03 -9.143953e-01 -1.517293e+00 4.487704e+01 -2.437470e-02 2.800004e-03 -2.160376e-02 -1.797324e-03 -1.090484e-02 -5.036504e-03 -4.188015e-03 -4.139338e-04 4.900723e-03 -5.071034e-03 1.444993e-03 -8.874178e-03 1.382168e-01 2.728614e-03 1.043475e-03 2.090134e-03 1.020255e-03 1.849843e-03 6.167828e-04 1.146657e-04 -1.168025e-04 2.695811e-04 1.052482e-03 6.291577e-04 -3.061457e-04 -1.941305e-02
<VARIANCE> 39
 3.188733e+01 2.129312e+01 4.198116e+01 4.123853e+01 2.955753e+01 2.805572e+01 3.745815e+01 3.468682e+01 3.146465e+01 2.481458e+01 2.130174e+01 1.517080e+01 9.919434e+01 1.216587e+00 1.029499e+00 1.545840e+00 1.805461e+00 1.819291e+00 1.821033e+00 2.098516e+00 2.008310e+00 1.915002e+00 1.622979e+00 1.325300e+00 1.089772e+00 2.758552e+00 1.769354e-01 1.680940e-01 2.348486e-01 3.077025e-01 3.211402e-01 3.324122e-01 3.827105e-01 3.635032e-01 3.423403e-01 2.976265e-01 2.419320e-01 2.014177e-01 3.432823e-01
<GCONST> 1.062574e+02
<STATE> 3
<MEAN> 39
 -2.952335e+00 1.442309e-02 -3.455399e+00 -4.008419e+00 -3.622314e+00 -1.501104e+00 -4.183538e+00 1.134754e+00 2.522424e-01 5.587182e-03 -9.143953e-01 -1.517293e+00 4.487704e+01 -2.437470e-02 2.800004e-03 -2.160376e-02 -1.797324e-03 -1.090484e-02 -5.036504e-03 -4.188015e-03 -4.139338e-04 4.900723e-03 -5.071034e-03 1.444993e-03 -8.874178e-03 1.382168e-01 2.728614e-03 1.043475e-03 2.090134e-03 1.020255e-03 1.849843e-03 6.167828e-04 1.146657e-04 -1.168025e-04 2.695811e-04 1.052482e-03 6.291577e-04 -3.061457e-04 -1.941305e-02
<VARIANCE> 39
 3.188733e+01 2.129312e+01 4.198116e+01 4.123853e+01 2.955753e+01 2.805572e+01 3.745815e+01 3.468682e+01 3.146465e+01 2.481458e+01 2.130174e+01 1.517080e+01 9.919434e+01 1.216587e+00 1.029499e+00 1.545840e+00 1.805461e+00 1.819291e+00 1.821033e+00 2.098516e+00 2.008310e+00 1.915002e+00 1.622979e+00 1.325300e+00 1.089772e+00 2.758552e+00 1.769354e-01 1.680940e-01 2.348486e-01 3.077025e-01 3.211402e-01 3.324122e-01 3.827105e-01 3.635032e-01 3.423403e-01 2.976265e-01 2.419320e-01 2.014177e-01 3.432823e-01
<GCONST> 1.062574e+02
<STATE> 4
<MEAN> 39
 -2.952335e+00 1.442309e-02 -3.455399e+00 -4.008419e+00 -3.622314e+00 -1.501104e+00 -4.183538e+00 1.134754e+00 2.522424e-01 5.587182e-03 -9.143953e-01 -1.517293e+00 4.487704e+01 -2.437470e-02 2.800004e-03 -2.160376e-02 -1.797324e-03 -1.090484e-02 -5.036504e-03 -4.188015e-03 -4.139338e-04 4.900723e-03 -5.071034e-03 1.444993e-03 -8.874178e-03 1.382168e-01 2.728614e-03 1.043475e-03 2.090134e-03 1.020255e-03 1.849843e-03 6.167828e-04 1.146657e-04 -1.168025e-04 2.695811e-04 1.052482e-03 6.291577e-04 -3.061457e-04 -1.941305e-02
<VARIANCE> 39
 3.188733e+01 2.129312e+01 4.198116e+01 4.123853e+01 2.955753e+01 2.805572e+01 3.745815e+01 3.468682e+01 3.146465e+01 2.481458e+01 2.130174e+01 1.517080e+01 9.919434e+01 1.216587e+00 1.029499e+00 1.545840e+00 1.805461e+00 1.819291e+00 1.821033e+00 2.098516e+00 2.008310e+00 1.915002e+00 1.622979e+00 1.325300e+00 1.089772e+00 2.758552e+00 1.769354e-01 1.680940e-01 2.348486e-01 3.077025e-01 3.211402e-01 3.324122e-01 3.827105e-01 3.635032e-01 3.423403e-01 2.976265e-01 2.419320e-01 2.014177e-01 3.432823e-01
<GCONST> 1.062574e+02
<TRANSP> 5
 0.000000e+00 1.000000e+00 0.000000e+00 0.000000e+00 0.000000e+00
 0.000000e+00 6.000000e-01 4.000000e-01 0.000000e+00 0.000000e+00
 0.000000e+00 0.000000e+00 6.000000e-01 4.000000e-01 0.000000e+00
 0.000000e+00 0.000000e+00 0.000000e+00 7.000000e-01 3.000000e-01
 0.000000e+00 0.000000e+00 0.000000e+00 0.000000e+00 0.000000e+00
<ENDHMM>
~h "r"
<BEGINHMM>
<NUMSTATES> 5
<STATE> 2
<MEAN> 39
 -2.952335e+00 1.442309e-02 -3.455399e+00 -4.008419e+00 -3.622314e+00 -1.501104e+00 -4.183538e+00 1.134754e+00 2.522424e-01 5.587182e-03 -9.143953e-01 -1.517293e+00 4.487704e+01 -2.437470e-02 2.800004e-03 -2.160376e-02 -1.797324e-03 -1.090484e-02 -5.036504e-03 -4.188015e-03 -4.139338e-04 4.900723e-03 -5.071034e-03 1.444993e-03 -8.874178e-03 1.382168e-01 2.728614e-03 1.043475e-03 2.090134e-03 1.020255e-03 1.849843e-03 6.167828e-04 1.146657e-04 -1.168025e-04 2.695811e-04 1.052482e-03 6.291577e-04 -3.061457e-04 -1.941305e-02
<VARIANCE> 39
 3.188733e+01 2.129312e+01 4.198116e+01 4.123853e+01 2.955753e+01 2.805572e+01 3.745815e+01 3.468682e+01 3.146465e+01 2.481458e+01 2.130174e+01 1.517080e+01 9.919434e+01 1.216587e+00 1.029499e+00 1.545840e+00 1.805461e+00 1.819291e+00 1.821033e+00 2.098516e+00 2.008310e+00 1.915002e+00 1.622979e+00 1.325300e+00 1.089772e+00 2.758552e+00 1.769354e-01 1.680940e-01 2.348486e-01 3.077025e-01 3.211402e-01 3.324122e-01 3.827105e-01 3.635032e-01 3.423403e-01 2.976265e-01 2.419320e-01 2.014177e-01 3.432823e-01
<GCONST> 1.062574e+02
<STATE> 3
<MEAN> 39
 -2.952335e+00 1.442309e-02 -3.455399e+00 -4.008419e+00 -3.622314e+00 -1.501104e+00 -4.183538e+00 1.134754e+00 2.522424e-01 5.587182e-03 -9.143953e-01 -1.517293e+00 4.487704e+01 -2.437470e-02 2.800004e-03 -2.160376e-02 -1.797324e-03 -1.090484e-02 -5.036504e-03 -4.188015e-03 -4.139338e-04 4.900723e-03 -5.071034e-03 1.444993e-03 -8.874178e-03 1.382168e-01 2.728614e-03 1.043475e-03 2.090134e-03 1.020255e-03 1.849843e-03 6.167828e-04 1.146657e-04 -1.168025e-04 2.695811e-04 1.052482e-03 6.291577e-04 -3.061457e-04 -1.941305e-02
<VARIANCE> 39
 3.188733e+01 2.129312e+01 4.198116e+01 4.123853e+01 2.955753e+01 2.805572e+01 3.745815e+01 3.468682e+01 3.146465e+01 2.481458e+01 2.130174e+01 1.517080e+01 9.919434e+01 1.216587e+00 1.029499e+00 1.545840e+00 1.805461e+00 1.819291e+00 1.821033e+00 2.098516e+00 2.008310e+00 1.915002e+00 1.622979e+00 1.325300e+00 1.089772e+00 2.758552e+00 1.769354e-01 1.680940e-01 2.348486e-01 3.077025e-01 3.211402e-01 3.324122e-01 3.827105e-01 3.635032e-01 3.423403e-01 2.976265e-01 2.419320e-01 2.014177e-01 3.432823e-01
<GCONST> 1.062574e+02
<STATE> 4
<MEAN> 39
 -2.952335e+00 1.442309e-02 -3.455399e+00 -4.008419e+00 -3.622314e+00 -1.501104e+00 -4.183538e+00 1.134754e+00 2.522424e-01 5.587182e-03 -9.143953e-01 -1.517293e+00 4.487704e+01 -2.437470e-02 2.800004e-03 -2.160376e-02 -1.797324e-03 -1.090484e-02 -5.036504e-03 -4.188015e-03 -4.139338e-04 4.900723e-03 -5.071034e-03 1.444993e-03 -8.874178e-03 1.382168e-01 2.728614e-03 1.043475e-03 2.090134e-03 1.020255e-03 1.849843e-03 6.167828e-04 1.146657e-04 -1.168025e-04 2.695811e-04 1.052482e-03 6.291577e-04 -3.061457e-04 -1.941305e-02
<VARIANCE> 39
 3.188733e+01 2.129312e+01 4.198116e+01 4.123853e+01 2.955753e+01 2.805572e+01 3.745815e+01 3.468682e+01 3.146465e+01 2.481458e+01 2.130174e+01 1.517080e+01 9.919434e+01 1.216587e+00 1.029499e+00 1.545840e+00 1.805461e+00 1.819291e+00 1.821033e+00 2.098516e+00 2.008310e+00 1.915002e+00 1.622979e+00 1.325300e+00 1.089772e+00 2.758552e+00 1.769354e-01 1.680940e-01 2.348486e-01 3.077025e-01 3.211402e-01 3.324122e-01 3.827105e-01 3.635032e-01 3.423403e-01 2.976265e-01 2.419320e-01 2.014177e-01 3.432823e-01
<GCONST> 1.062574e+02
<TRANSP> 5
 0.000000e+00 1.000000e+00 0.000000e+00 0.000000e+00 0.000000e+00
 0.000000e+00 6.000000e-01 4.000000e-01 0.000000e+00 0.000000e+00
 0.000000e+00 0.000000e+00 6.000000e-01 4.000000e-01 0.000000e+00
 0.000000e+00 0.000000e+00 0.000000e+00 7.000000e-01 3.000000e-01
 0.000000e+00 0.000000e+00 0.000000e+00 0.000000e+00 0.000000e+00
<ENDHMM>
