~o
<STREAMINFO> 1 39
<VECSIZE> 39<NULLD><MFCC_D_A_0><DIAGC>
~h "a"
<BEGINHMM>
<NUMSTATES> 5
<STATE> 2
<MEAN> 39
 -1.701917e+00 -1.358720e+00 -5.274800e+00 -7.937013e+00 -5.464717e+00 -4.874426e+00 -9.565021e+00 1.902834e+00 -2.963573e+00 2.529310e-01 -5.301619e+00 -2.706131e+00 6.209034e+01 2.319304e-02 2.005063e-02 3.260772e-02 -1.539647e-03 2.857469e-03 8.314785e-03 -7.203175e-03 3.531112e-03 -1.273268e-02 1.248925e-02 -6.958430e-03 -6.038832e-03 5.520527e-02 7.112091e-05 4.832773e-05 5.715070e-04 1.675989e-03 1.181888e-03 5.668285e-04 1.086836e-03 1.427014e-03 1.964079e-03 7.966214e-05 -1.603814e-04 8.439860e-04 -5.249824e-03
<VARIANCE> 39
 4.692353e+01 4.122548e+01 6.575251e+01 6.670770e+01 4.564674e+01 5.811534e+01 6.777927e+01 7.832864e+01 6.001154e+01 4.716604e+01 4.419385e+01 3.442463e+01 1.377130e+02 1.933030e+00 1.647853e+00 1.950773e+00 2.485749e+00 2.356907e+00 2.694865e+00 3.110028e+00 3.045050e+00 2.647881e+00 2.461617e+00 2.322269e+00 2.064992e+00 2.395018e+00 2.872000e-01 2.482131e-01 2.876587e-01 4.205763e-01 4.086479e-01 4.641092e-01 5.425304e-01 5.106339e-01 4.641100e-01 4.270299e-01 4.143323e-01 3.702481e-01 3.040909e-01
<GCONST> 1.230592e+02
<STATE> 3
<MEAN> 39
 -1.589126e+00 -1.268692e+00 -5.110641e+00 -7.912474e+00 -5.445101e+00 -4.836259e+00 -9.584110e+00 1.932266e+00 -2.998590e+00 3.074016e-01 -5.333399e+00 -2.730107e+00 6.230887e+01 2.239140e-02 2.075118e-02 3.397295e-02 7.961101e-03 7.017777e-03 8.510692e-03 -1.226174e-03 9.215937e-03 -4.114648e-03 1.262079e-02 -7.187959e-03 -3.978413e-03 4.245267e-02 -6.674509e-05 1.278936e-04 2.907617e-04 2.027895e-03 8.718171e-04 6.407080e-05 1.290480e-03 1.300464e-03 1.882249e-03 2.004858e-05 2.455548e-05 3.895736e-04 -2.714075e-03
<VARIANCE> 39
 4.632905e+01 4.189894e+01 6.692063e+01 6.792039e+01 4.629104e+01 5.883147e+01 6.823744e+01 7.938141e+01 6.015665e+01 4.771714e+01 4.438205e+01 3.453827e+01 1.364073e+02 1.955250e+00 1.672983e+00 1.988237e+00 2.509438e+00 2.396497e+00 2.711111e+00 3.140232e+00 3.052229e+00 2.675691e+00 2.483302e+00 2.342523e+00 2.072006e+00 2.420744e+00 2.914675e-01 2.517695e-01 2.933644e-01 4.233875e-01 4.143619e-01 4.663600e-01 5.483566e-01 5.111219e-01 4.690810e-01 4.303804e-01 4.182400e-01 3.718851e-01 3.009798e-01
<GCONST> 1.233960e+02
<STATE> 4
<MEAN> 39
 -1.310905e+00 -1.043063e+00 -4.647196e+00 -7.807791e+00 -5.522066e+00 -4.499087e+00 -9.684635e+00 2.109451e+00 -2.807577e+00 3.483286e-01 -5.460003e+00 -2.681688e+00 6.267738e+01 1.600045e-02 2.084315e-02 3.286560e-02 2.123606e-02 5.553401e-03 1.493205e-03 6.270315e-03 4.667448e-03 1.587412e-03 1.062344e-02 -4.707244e-03 -3.949472e-03 1.550618e-02 -6.582490e-04 2.376921e-05 -4.237136e-04 1.028621e-03 -1.061959e-04 -5.804403e-04 7.636882e-04 -3.742018e-04 6.343551e-04 -2.331516e-04 3.048242e-04 1.402015e-04 -2.690490e-03
<VARIANCE> 39
 4.513047e+01 4.378951e+01 6.884061e+01 6.939571e+01 4.911027e+01 5.998765e+01 6.922880e+01 7.902050e+01 6.098852e+01 4.773051e+01 4.506921e+01 3.373560e+01 1.329678e+02 2.009429e+00 1.722121e+00 2.017270e+00 2.517439e+00 2.512199e+00 2.742586e+00 3.165677e+00 2.996129e+00 2.685826e+00 2.475565e+00 2.403707e+00 2.055326e+00 2.453892e+00 3.009882e-01 2.572611e-01 2.959165e-01 4.230561e-01 4.280341e-01 4.698124e-01 5.530310e-01 5.024721e-01 4.706887e-01 4.274081e-01 4.286956e-01 3.709070e-01 3.046775e-01
<GCONST> 1.238102e+02
<TRANSP> 5
 0.000000e+00 1.000000e+00 0.000000e+00 0.000000e+00 0.000000e+00
 0.000000e+00 7.819257e-01 2.180743e-01 0.000000e+00 0.000000e+00
 0.000000e+00 0.000000e+00 7.819273e-01 2.180727e-01 0.000000e+00
 0.000000e+00 0.000000e+00 0.000000e+00 9.118161e-01 8.818392e-02
 0.000000e+00 0.000000e+00 0.000000e+00 0.000000e+00 0.000000e+00
<ENDHMM>
~h "b"
<BEGINHMM>
<NUMSTATES> 5
<STATE> 2
<MEAN> 39
 -1.511018e+00 2.083983e+00 -9.257813e-01 -4.756750e+00 -5.720945e+00 -4.387784e+00 -7.667095e+00 3.793530e-01 -4.264271e+00 9.180512e-01 -6.193564e+00 -1.638655e+00 5.929456e+01 -6.901382e-02 -2.686379e-02 -9.348390e-02 1.651122e-01 1.127826e-01 6.763307e-02 1.465892e-01 -1.385115e-02 5.278373e-02 -9.689044e-02 4.712541e-02 -1.981756e-03 -2.620080e-01 -1.450154e-03 -3.192730e-03 -4.209035e-03 -3.502612e-03 2.515282e-03 1.755968e-03 2.725822e-03 3.020208e-03 2.571221e-03 -3.104082e-04 1.424647e-03 -1.288366e-03 -9.801686e-04
<VARIANCE> 39
 3.710799e+01 2.742917e+01 7.049702e+01 6.956231e+01 5.862172e+01 5.059751e+01 5.711176e+01 8.750630e+01 5.263262e+01 4.489997e+01 4.992017e+01 2.281951e+01 9.329086e+01 1.737424e+00 1.438027e+00 2.141047e+00 2.349426e+00 2.380896e+00 2.183988e+00 2.487388e+00 2.697367e+00 2.320831e+00 2.217008e+00 1.960191e+00 1.832363e+00 1.268989e+00 2.679665e-01 2.490912e-01 3.306406e-01 3.666541e-01 3.831306e-01 3.852127e-01 4.374702e-01 4.715677e-01 4.349126e-01 3.736317e-01 3.606595e-01 3.568652e-01 1.780910e-01
<GCONST> 1.182905e+02
<STATE> 3
<MEAN> 39
 -1.827048e+00 1.935510e+00 -1.393516e+00 -4.056596e+00 -5.193035e+00 -4.095553e+00 -6.996166e+00 3.495247e-01 -4.015318e+00 4.828092e-01 -5.981584e+00 -1.653752e+00 5.812405e+01 -7.531483e-02 -3.990953e-02 -1.094156e-01 1.474278e-01 1.207672e-01 7.286000e-02 1.563209e-01 -1.566885e-03 6.432212e-02 -9.541251e-02 5.298975e-02 -7.213720e-03 -2.635455e-01 -1.496409e-03 -2.541458e-03 -2.846323e-03 -5.073490e-03 1.067896e-03 1.454060e-04 1.262922e-03 2.669028e-03 2.305881e-03 1.720626e-03 1.119566e-03 -8.192165e-04 7.152185e-04
<VARIANCE> 39
 3.390578e+01 2.515319e+01 6.250464e+01 6.340484e+01 5.336220e+01 4.584810e+01 5.427458e+01 8.231331e+01 4.953072e+01 4.241579e+01 4.581289e+01 2.214091e+01 8.967937e+01 1.464200e+00 1.297683e+00 1.901478e+00 2.107977e+00 2.158497e+00 2.016888e+00 2.300350e+00 2.577062e+00 2.189300e+00 2.052442e+00 1.865148e+00 1.766220e+00 1.058881e+00 2.232799e-01 2.209853e-01 2.963975e-01 3.309055e-01 3.492920e-01 3.574329e-01 4.052463e-01 4.545485e-01 4.118755e-01 3.449101e-01 3.439491e-01 3.439508e-01 1.468028e-01
<GCONST> 1.149109e+02
<STATE> 4
<MEAN> 39
 -2.422047e+00 1.636864e+00 -2.120220e+00 -3.091605e+00 -4.307101e+00 -3.538559e+00 -5.830190e+00 5.686435e-01 -3.330044e+00 -1.263170e-01 -5.643707e+00 -1.673638e+00 5.621310e+01 -8.003962e-02 -5.113951e-02 -1.215982e-01 1.078365e-01 1.159641e-01 5.834761e-02 1.507986e-01 1.242315e-02 7.428813e-02 -7.631990e-02 5.587178e-02 -9.694644e-03 -2.455928e-01 -1.043383e-03 -1.132244e-03 -4.934510e-04 -5.894974e-03 -1.489652e-03 -1.860761e-03 -1.404599e-03 1.571242e-03 1.377646e-03 3.816371e-03 9.243980e-04 -4.441827e-05 2.727538e-03
<VARIANCE> 39
 2.779713e+01 2.195479e+01 5.103997e+01 5.330113e+01 4.573019e+01 3.815210e+01 4.780820e+01 7.155660e+01 4.470433e+01 3.804086e+01 3.869462e+01 2.077892e+01 8.110058e+01 1.048917e+00 1.102538e+00 1.558022e+00 1.750521e+00 1.863163e+00 1.795870e+00 1.973180e+00 2.370236e+00 2.032484e+00 1.821414e+00 1.694981e+00 1.629345e+00 7.697358e-01 1.578467e-01 1.831824e-01 2.479836e-01 2.784144e-01 3.064430e-01 3.227577e-01 3.495108e-01 4.288968e-01 3.856720e-01 3.071480e-01 3.133276e-01 3.171449e-01 1.034306e-01
<GCONST> 1.089492e+02
<TRANSP> 5
 0.000000e+00 1.000000e+00 0.000000e+00 0.000000e+00 0.000000e+00
 0.000000e+00 7.787141e-01 2.212859e-01 0.000000e+00 0.000000e+00
 0.000000e+00 0.000000e+00 7.787140e-01 2.212859e-01 0.000000e+00
 0.000000e+00 0.000000e+00 0.000000e+00 9.077908e-01 9.220922e-02
 0.000000e+00 0.000000e+00 0.000000e+00 0.000000e+00 0.000000e+00
<ENDHMM>
~h "c"
<BEGINHMM>
<NUMSTATES> 5
<STATE> 2
<MEAN> 39
 -1.121212e+00 2.067308e+00 -5.789533e-01 -5.805094e+00 -6.328745e+00 -4.680988e+00 -8.484646e+00 5.696133e-01 -4.460422e+00 1.385573e+00 -6.395810e+00 -1.683013e+00 6.084526e+01 -6.402405e-02 -1.260295e-03 -5.420631e-02 1.670294e-01 9.083313e-02 5.228718e-02 1.278851e-01 -3.495008e-02 3.632800e-02 -7.808067e-02 3.943883e-02 5.202454e-03 -2.455052e-01 -9.893090e-04 -3.678946e-03 -5.426599e-03 -9.246115e-04 3.341040e-03 2.481349e-03 3.072519e-03 3.138003e-03 2.389159e-03 -2.183352e-03 1.342882e-03 -1.232264e-03 -2.542809e-03
<VARIANCE> 39
 4.045585e+01 3.164140e+01 8.060436e+01 7.467591e+01 6.386990e+01 5.642580e+01 5.969069e+01 9.364575e+01 5.638167e+01 4.768020e+01 5.403638e+01 2.405723e+01 9.645957e+01 2.070377e+00 1.660511e+00 2.470629e+00 2.659538e+00 2.678575e+00 2.454188e+00 2.756788e+00 2.927097e+00 2.486093e+00 2.436374e+00 2.093170e+00 1.909845e+00 1.589876e+00 3.243836e-01 2.928089e-01 3.800288e-01 4.189739e-01 4.331515e-01 4.315225e-01 4.845534e-01 5.085986e-01 4.621482e-01 4.165539e-01 3.824855e-01 3.711090e-01 2.255290e-01
<GCONST> 1.223696e+02
<STATE> 3
<MEAN> 39
 -1.425049e+00 2.027621e+00 -8.940353e-01 -5.048008e+00 -5.868226e+00 -4.435373e+00 -7.864295e+00 4.445343e-01 -4.279522e+00 1.006600e+00 -6.210270e+00 -1.666903e+00 5.968632e+01 -6.871718e-02 -1.783978e-02 -7.790224e-02 1.599734e-01 1.045100e-01 6.218787e-02 1.407931e-01 -2.077449e-02 4.779142e-02 -8.614156e-02 4.538918e-02 -3.943732e-04 -2.545855e-01 -1.204133e-03 -3.253029e-03 -4.444103e-03 -2.752458e-03 2.502517e-03 1.575697e-03 2.369941e-03 3.018054e-03 2.359815e-03 -5.472083e-04 1.236330e-03 -1.090287e-03 -1.148723e-03
<VARIANCE> 39
 3.789172e+01 2.875536e+01 7.334511e+01 7.039941e+01 5.992158e+01 5.199189e+01 5.790236e+01 8.888040e+01 5.350431e+01 4.551303e+01 5.061571e+01 2.320113e+01 9.501105e+01 1.819111e+00 1.504082e+00 2.232461e+00 2.422912e+00 2.460711e+00 2.265522e+00 2.566191e+00 2.774378e+00 2.358153e+00 2.270445e+00 1.995676e+00 1.848071e+00 1.362375e+00 2.818698e-01 2.619287e-01 3.447014e-01 3.810574e-01 3.974679e-01 3.998574e-01 4.513142e-01 4.844881e-01 4.404164e-01 3.855397e-01 3.662667e-01 3.594533e-01 1.918452e-01
<GCONST> 1.194512e+02
<STATE> 4
<MEAN> 39
 -2.028164e+00 1.842597e+00 -1.475186e+00 -3.852952e+00 -4.983789e+00 -3.822491e+00 -6.662303e+00 5.323846e-01 -3.650254e+00 3.608267e-01 -5.873337e+00 -1.655907e+00 5.762084e+01 -7.380223e-02 -3.743371e-02 -1.061454e-01 1.294418e-01 1.134535e-01 5.739967e-02 1.464205e-01 4.640829e-04 6.077299e-02 -8.145413e-02 4.911875e-02 -5.529171e-03 -2.483121e-01 -1.092207e-03 -2.088427e-03 -2.240042e-03 -4.449252e-03 2.106624e-04 -3.172127e-04 2.823919e-04 2.155388e-03 1.922970e-03 1.780431e-03 1.055579e-03 -5.268550e-04 1.042716e-03
<VARIANCE> 39
 3.190783e+01 2.471060e+01 6.222932e+01 6.131065e+01 5.382669e+01 4.369787e+01 5.295845e+01 7.801402e+01 4.841870e+01 4.133636e+01 4.357627e+01 2.155447e+01 8.940408e+01 1.357959e+00 1.265371e+00 1.844654e+00 2.015171e+00 2.144616e+00 1.984852e+00 2.201180e+00 2.507696e+00 2.181635e+00 2.010242e+00 1.809226e+00 1.709295e+00 1.007716e+00 2.067799e-01 2.150973e-01 2.884752e-01 3.182157e-01 3.476738e-01 3.542163e-01 3.880428e-01 4.471791e-01 4.120980e-01 3.397436e-01 3.335709e-01 3.329362e-01 1.386336e-01
<GCONST> 1.137632e+02
<TRANSP> 5
 0.000000e+00 1.000000e+00 0.000000e+00 0.000000e+00 0.000000e+00
 0.000000e+00 7.871880e-01 2.128120e-01 0.000000e+00 0.000000e+00
 0.000000e+00 0.000000e+00 7.871884e-01 2.128116e-01 0.000000e+00
 0.000000e+00 0.000000e+00 0.000000e+00 9.173627e-01 8.263723e-02
 0.000000e+00 0.000000e+00 0.000000e+00 0.000000e+00 0.000000e+00
<ENDHMM>
~h "h"
<BEGINHMM>
<NUMSTATES> 5
<STATE> 2
<MEAN> 39
 -3.275457e+00 -1.379972e+00 -6.233726e+00 -7.280704e+00 -3.896429e+00 -3.803556e+00 -8.085324e+00 1.951580e+00 -3.723082e+00 -9.698071e-01 -4.168976e+00 -9.228212e-01 5.808924e+01 1.099126e-01 -2.439108e-02 -5.383588e-03 -2.176070e-01 -4.761077e-02 2.357301e-03 -1.819024e-01 3.297612e-02 -8.273298e-02 8.482001e-03 -6.669292e-02 -7.951002e-02 3.972656e-01 5.625673e-04 -2.921689e-03 -2.800310e-03 -3.983997e-03 -3.624849e-03 -2.389754e-03 -3.155647e-04 4.039221e-03 7.886545e-04 -4.064931e-04 -4.209618e-04 -3.122533e-03 5.427394e-03
<VARIANCE> 39
 4.688523e+01 2.845227e+01 4.385751e+01 6.756187e+01 4.388081e+01 5.352237e+01 6.923308e+01 5.825965e+01 4.221729e+01 4.523875e+01 3.357886e+01 2.887975e+01 1.383717e+02 2.029421e+00 1.505072e+00 1.428455e+00 2.481597e+00 1.945284e+00 2.676673e+00 3.255582e+00 3.145035e+00 2.542356e+00 2.659445e+00 2.228160e+00 1.838391e+00 2.767890e+00 2.585621e-01 2.443556e-01 2.109416e-01 4.225376e-01 3.281447e-01 4.727154e-01 5.493680e-01 5.284047e-01 4.558242e-01 4.624823e-01 4.160345e-01 3.377490e-01 3.338994e-01
<GCONST> 1.200945e+02
<STATE> 3
<MEAN> 39
 -2.741629e+00 -1.539372e+00 -6.298753e+00 -8.324261e+00 -4.161985e+00 -3.784414e+00 -8.913086e+00 2.181418e+00 -4.086563e+00 -9.310677e-01 -4.472200e+00 -1.328252e+00 5.996998e+01 1.110922e-01 -3.522999e-02 -1.476173e-02 -2.238072e-01 -6.021476e-02 -5.932717e-03 -1.744678e-01 5.609483e-02 -7.238954e-02 7.950278e-03 -6.422928e-02 -8.827048e-02 4.087223e-01 -3.526835e-04 -2.115678e-03 -2.398781e-03 -1.372807e-04 -2.063250e-03 -1.680787e-03 2.724460e-03 5.296169e-03 2.804114e-03 -2.528205e-04 7.472582e-04 -1.376010e-03 5.649589e-04
<VARIANCE> 39
 5.044896e+01 3.248247e+01 4.950378e+01 7.329703e+01 4.784919e+01 6.050046e+01 7.350043e+01 6.643585e+01 4.527780e+01 5.098060e+01 3.606640e+01 3.126884e+01 1.502421e+02 2.213747e+00 1.682325e+00 1.543772e+00 2.726150e+00 2.029612e+00 2.866837e+00 3.514289e+00 3.295856e+00 2.698416e+00 2.835515e+00 2.375683e+00 1.921102e+00 3.114045e+00 2.874487e-01 2.658916e-01 2.192216e-01 4.629554e-01 3.373255e-01 4.980839e-01 5.864764e-01 5.376772e-01 4.749479e-01 4.830865e-01 4.396839e-01 3.477446e-01 3.752657e-01
<GCONST> 1.230485e+02
<STATE> 4
<MEAN> 39
 -1.722701e+00 -1.869808e+00 -6.492817e+00 -1.010459e+01 -4.821501e+00 -3.367102e+00 -1.017727e+01 3.187505e+00 -4.377853e+00 -7.362445e-01 -4.997618e+00 -1.943361e+00 6.307494e+01 9.781370e-02 -3.496672e-02 -1.188557e-02 -1.812470e-01 -7.275105e-02 -1.022769e-02 -1.375416e-01 8.679025e-02 -4.164852e-02 1.408908e-02 -5.331777e-02 -7.240392e-02 3.522785e-01 -2.417339e-03 6.683941e-04 -3.908416e-04 5.037885e-03 -2.196431e-04 -1.673586e-03 4.500491e-03 2.825674e-03 3.694194e-03 3.090184e-04 1.028542e-03 1.902014e-03 -7.167738e-03
<VARIANCE> 39
 5.567639e+01 4.143801e+01 5.434899e+01 7.686124e+01 5.336514e+01 7.248978e+01 7.592702e+01 7.361835e+01 5.032529e+01 5.846167e+01 4.095333e+01 3.301884e+01 1.543870e+02 2.636487e+00 2.048077e+00 1.716073e+00 3.001443e+00 2.285112e+00 3.249708e+00 3.782465e+00 3.326007e+00 2.868945e+00 3.003350e+00 2.583750e+00 1.975924e+00 3.443903e+00 3.585170e-01 3.072214e-01 2.322024e-01 5.044473e-01 3.679743e-01 5.448753e-01 6.279821e-01 5.183396e-01 4.900339e-01 4.985912e-01 4.665862e-01 3.505873e-01 4.191705e-01
<GCONST> 1.265978e+02
<TRANSP> 5
 0.000000e+00 1.000000e+00 0.000000e+00 0.000000e+00 0.000000e+00
 0.000000e+00 7.875338e-01 2.124662e-01 0.000000e+00 0.000000e+00
 0.000000e+00 0.000000e+00 7.875340e-01 2.124660e-01 0.000000e+00
 0.000000e+00 0.000000e+00 0.000000e+00 9.189755e-01 8.102453e-02
 0.000000e+00 0.000000e+00 0.000000e+00 0.000000e+00 0.000000e+00
<ENDHMM>
~h "i"
<BEGINHMM>
<NUMSTATES> 5
<STATE> 2
<MEAN> 39
 -3.266670e+00 -1.598532e-01 -4.449648e+00 -4.235884e+00 -4.127565e+00 -4.087333e+00 -6.375825e+00 8.994580e-01 -2.682203e+00 -1.302148e-01 -4.227823e+00 -1.930771e+00 5.613777e+01 6.363356e-03 -1.262313e-02 -4.758102e-02 -1.226495e-02 3.723433e-02 4.200771e-02 6.023284e-03 4.877348e-02 2.902144e-02 -4.608859e-03 1.428690e-02 -1.238743e-03 -1.135564e-02 9.918218e-04 -1.473362e-03 -7.895902e-04 -5.419070e-03 -3.702609e-03 -3.695851e-03 -4.574904e-03 1.771186e-04 -9.489352e-04 3.247491e-04 -1.232624e-03 -1.029363e-03 4.728757e-03
<VARIANCE> 39
 3.022692e+01 2.354829e+01 4.532541e+01 4.703010e+01 3.700308e+01 3.919211e+01 5.234528e+01 5.800548e+01 4.402094e+01 3.453843e+01 3.209283e+01 2.649892e+01 1.032892e+02 1.183293e+00 1.093810e+00 1.412289e+00 1.865788e+00 1.813856e+00 2.036657e+00 2.321294e+00 2.429235e+00 2.149784e+00 1.880185e+00 1.929104e+00 1.689473e+00 1.511089e+00 1.714788e-01 1.799377e-01 2.222569e-01 3.161900e-01 3.153355e-01 3.639045e-01 4.132016e-01 4.335305e-01 3.882721e-01 3.346306e-01 3.601450e-01 3.224630e-01 1.791185e-01
<GCONST> 1.112400e+02
<STATE> 3
<MEAN> 39
 -3.232555e+00 -2.330511e-01 -4.678544e+00 -4.346914e+00 -4.005600e+00 -3.937978e+00 -6.405260e+00 1.102028e+00 -2.576303e+00 -1.547342e-01 -4.183347e+00 -1.952622e+00 5.613504e+01 9.926379e-03 -1.846812e-02 -5.010678e-02 -3.747506e-02 1.944429e-02 2.418351e-02 -1.433606e-02 4.786039e-02 2.401355e-02 -2.146663e-03 8.060917e-03 -5.964607e-03 1.159525e-02 8.659619e-04 -9.520904e-04 2.244199e-04 -4.950688e-03 -3.848232e-03 -3.887230e-03 -4.313402e-03 -3.887021e-04 -1.335405e-03 5.131908e-04 -1.355744e-03 -1.036888e-03 5.062692e-03
<VARIANCE> 39
 2.926135e+01 2.293196e+01 4.315614e+01 4.763752e+01 3.661828e+01 3.907219e+01 5.461171e+01 5.743421e+01 4.326769e+01 3.444773e+01 3.159645e+01 2.657092e+01 1.077114e+02 1.143297e+00 1.082250e+00 1.355140e+00 1.840518e+00 1.778400e+00 2.025254e+00 2.370286e+00 2.437391e+00 2.131083e+00 1.859747e+00 1.929264e+00 1.689341e+00 1.557410e+00 1.643038e-01 1.777159e-01 2.133827e-01 3.137462e-01 3.083632e-01 3.610245e-01 4.212981e-01 4.354375e-01 3.852682e-01 3.318780e-01 3.575636e-01 3.215795e-01 1.827320e-01
<GCONST> 1.109662e+02
<STATE> 4
<MEAN> 39
 -3.122665e+00 -3.552938e-01 -4.955934e+00 -4.771254e+00 -4.028399e+00 -3.709553e+00 -6.683789e+00 1.575263e+00 -2.337836e+00 -2.082990e-01 -4.255455e+00 -1.965323e+00 5.637946e+01 1.570521e-02 -2.299805e-02 -4.606918e-02 -6.861720e-02 -5.391828e-03 4.276123e-03 -3.612774e-02 4.305276e-02 1.448295e-02 4.868000e-03 4.107133e-04 -1.336408e-02 4.897944e-02 8.542645e-04 -1.064914e-04 1.321943e-03 -2.900169e-03 -2.580404e-03 -2.202709e-03 -2.006371e-03 -1.847162e-04 -9.569330e-04 8.580124e-04 -5.822692e-04 -6.073078e-04 4.183110e-03
<VARIANCE> 39
 2.972843e+01 2.345022e+01 4.089679e+01 5.067524e+01 3.791547e+01 4.070228e+01 5.915661e+01 5.671344e+01 4.398457e+01 3.468445e+01 3.242050e+01 2.604626e+01 1.175915e+02 1.168198e+00 1.101361e+00 1.285987e+00 1.827766e+00 1.772737e+00 2.062809e+00 2.484921e+00 2.457735e+00 2.123350e+00 1.887461e+00 1.951744e+00 1.687128e+00 1.645897e+00 1.673041e-01 1.789366e-01 2.013157e-01 3.126389e-01 3.040136e-01 3.630219e-01 4.366811e-01 4.341368e-01 3.820911e-01 3.372160e-01 3.559485e-01 3.183026e-01 1.921283e-01
<GCONST> 1.114299e+02
<TRANSP> 5
 0.000000e+00 1.000000e+00 0.000000e+00 0.000000e+00 0.000000e+00
 0.000000e+00 7.812819e-01 2.187181e-01 0.000000e+00 0.000000e+00
 0.000000e+00 0.000000e+00 7.812814e-01 2.187187e-01 0.000000e+00
 0.000000e+00 0.000000e+00 0.000000e+00 9.114664e-01 8.853364e-02
 0.000000e+00 0.000000e+00 0.000000e+00 0.000000e+00 0.000000e+00
<ENDHMM>
~h "j"
<BEGINHMM>
<NUMSTATES> 5
<STATE> 2
<MEAN> 39
 -8.210061e-01 1.294124e+00 -2.080441e+00 -6.261795e+00 -4.941651e+00 -5.092244e+00 -8.773090e+00 -2.013159e+00 -4.118907e+00 -7.257968e-01 -5.340781e+00 -2.824607e+00 6.144606e+01 -9.038370e-02 3.405181e-02 2.753255e-02 1.939956e-01 1.306146e-02 3.330713e-02 1.161623e-01 -1.004624e-01 3.754301e-02 -1.690659e-02 1.381171e-02 1.530659e-02 -2.990437e-01 -4.084865e-04 -2.874964e-03 -8.084858e-03 -3.172095e-03 2.163470e-03 2.044863e-03 8.272883e-04 5.444660e-03 3.453597e-03 1.247993e-03 9.374430e-04 1.154431e-04 -4.472163e-03
<VARIANCE> 39
 3.265979e+01 4.486252e+01 6.593451e+01 7.540257e+01 4.561212e+01 4.604222e+01 6.018181e+01 7.960108e+01 6.605678e+01 5.529937e+01 4.488415e+01 2.729457e+01 1.061415e+02 1.709025e+00 1.691255e+00 2.540223e+00 2.809482e+00 2.433111e+00 2.729156e+00 2.774301e+00 2.858422e+00 2.955499e+00 2.709249e+00 2.442962e+00 2.075436e+00 1.792026e+00 2.658122e-01 2.498463e-01 3.795609e-01 4.547327e-01 4.300523e-01 4.774136e-01 4.785275e-01 4.762402e-01 5.353037e-01 4.298852e-01 4.466727e-01 3.701178e-01 2.376034e-01
<GCONST> 1.226220e+02
<STATE> 3
<MEAN> 39
 -1.232386e+00 1.414004e+00 -2.041848e+00 -5.417999e+00 -4.859526e+00 -4.930824e+00 -8.237989e+00 -2.420422e+00 -3.925961e+00 -7.911450e-01 -5.270412e+00 -2.773189e+00 6.005579e+01 -9.170806e-02 2.171347e-02 -8.340569e-03 1.773762e-01 2.186922e-02 4.153081e-02 1.192533e-01 -7.507129e-02 5.238230e-02 -1.102637e-02 1.866704e-02 1.709539e-02 -3.154885e-01 -2.274835e-04 -2.687203e-03 -7.683033e-03 -4.667122e-03 1.998028e-03 1.168141e-03 6.366000e-04 6.598272e-03 3.222538e-03 1.536230e-03 1.565291e-03 4.008833e-04 -2.418872e-03
<VARIANCE> 39
 3.044129e+01 4.017326e+01 5.963963e+01 6.957899e+01 4.347176e+01 4.230955e+01 5.764769e+01 7.389653e+01 6.154729e+01 5.289707e+01 4.341346e+01 2.554057e+01 1.028950e+02 1.518376e+00 1.530582e+00 2.353912e+00 2.633948e+00 2.227233e+00 2.502707e+00 2.543339e+00 2.653219e+00 2.731607e+00 2.567355e+00 2.317023e+00 1.946711e+00 1.505013e+00 2.349017e-01 2.276428e-01 3.556031e-01 4.227844e-01 3.941911e-01 4.391521e-01 4.436290e-01 4.412112e-01 4.961129e-01 4.067038e-01 4.245363e-01 3.508060e-01 1.981082e-01
<GCONST> 1.195502e+02
<STATE> 4
<MEAN> 39
 -1.990919e+00 1.553544e+00 -2.257162e+00 -4.238559e+00 -4.500494e+00 -4.418138e+00 -7.268702e+00 -2.486679e+00 -3.262613e+00 -8.518764e-01 -5.045353e+00 -2.672568e+00 5.749456e+01 -8.926756e-02 2.037665e-03 -5.723992e-02 1.371156e-01 2.978043e-02 4.120753e-02 1.165876e-01 -3.342427e-02 6.493817e-02 -7.956335e-04 2.795776e-02 1.673139e-02 -3.093123e-01 2.516117e-04 -1.950943e-03 -5.187580e-03 -5.698758e-03 8.751550e-04 -5.666208e-04 -4.669926e-04 6.616946e-03 2.093887e-03 1.616321e-03 1.791609e-03 6.370677e-04 1.594950e-03
<VARIANCE> 39
 2.581909e+01 3.168467e+01 4.958158e+01 5.699891e+01 3.880161e+01 3.593557e+01 5.197493e+01 6.401492e+01 5.322847e+01 4.636839e+01 3.930968e+01 2.231733e+01 9.233102e+01 1.186478e+00 1.238965e+00 1.969139e+00 2.247263e+00 1.911224e+00 2.128550e+00 2.178324e+00 2.298972e+00 2.340575e+00 2.289370e+00 2.111140e+00 1.730360e+00 1.074779e+00 1.825750e-01 1.874768e-01 3.039115e-01 3.581982e-01 3.397621e-01 3.786264e-01 3.882137e-01 3.832136e-01 4.265409e-01 3.684623e-01 3.907567e-01 3.182538e-01 1.391061e-01
<GCONST> 1.132714e+02
<TRANSP> 5
 0.000000e+00 1.000000e+00 0.000000e+00 0.000000e+00 0.000000e+00
 0.000000e+00 7.817807e-01 2.182193e-01 0.000000e+00 0.000000e+00
 0.000000e+00 0.000000e+00 7.817808e-01 2.182192e-01 0.000000e+00
 0.000000e+00 0.000000e+00 0.000000e+00 9.110267e-01 8.897327e-02
 0.000000e+00 0.000000e+00 0.000000e+00 0.000000e+00 0.000000e+00
<ENDHMM>
~h "k"
<BEGINHMM>
<NUMSTATES> 5
<STATE> 2
<MEAN> 39
 1.173224e+00 -1.347394e+00 -3.227118e+00 -1.079202e+01 -8.036998e+00 -5.239049e+00 -1.254574e+01 4.063175e+00 -4.057747e+00 2.086740e+00 -7.445893e+00 -2.522089e+00 6.819736e+01 -6.193204e-03 8.426595e-02 8.596039e-02 3.972839e-02 9.226925e-03 -1.236286e-02 5.539590e-02 -6.559367e-02 -3.408400e-02 8.030954e-03 2.187707e-03 2.649346e-02 -4.594395e-02 -3.004174e-03 2.220636e-03 1.014060e-03 2.620217e-03 1.141483e-03 2.265151e-03 1.259935e-03 -3.466049e-03 8.005924e-04 5.138375e-04 1.299264e-03 -4.170951e-04 -5.098712e-03
<VARIANCE> 39
 3.620602e+01 5.333753e+01 8.497921e+01 5.676419e+01 6.218387e+01 8.422757e+01 6.667398e+01 9.859831e+01 7.249628e+01 6.177703e+01 5.587455e+01 3.903038e+01 8.682004e+01 2.275798e+00 2.204092e+00 2.639221e+00 3.035345e+00 3.383070e+00 3.499930e+00 3.946593e+00 3.904174e+00 2.994853e+00 2.976847e+00 2.670853e+00 2.537441e+00 3.265494e+00 3.831958e-01 3.495376e-01 3.865811e-01 5.352516e-01 5.649762e-01 5.775485e-01 6.910141e-01 6.450301e-01 5.064237e-01 5.238085e-01 4.362847e-01 4.497567e-01 4.484714e-01
<GCONST> 1.305506e+02
<STATE> 3
<MEAN> 39
 1.104216e+00 -9.375734e-01 -2.814646e+00 -1.057348e+01 -7.982208e+00 -5.280463e+00 -1.227175e+01 3.736554e+00 -4.200531e+00 2.115746e+00 -7.415523e+00 -2.403327e+00 6.792309e+01 -1.938113e-02 9.266409e-02 9.028572e-02 5.124471e-02 1.288702e-02 -3.496426e-03 6.004991e-02 -7.916046e-02 -3.000649e-02 9.509302e-03 8.249616e-03 2.440064e-02 -6.848808e-02 -2.770151e-03 1.344807e-03 8.824756e-04 2.672501e-03 4.828870e-04 1.614089e-03 7.469682e-04 -2.521238e-03 1.067026e-03 6.090503e-05 1.199145e-03 -4.557348e-04 -4.604653e-03
<VARIANCE> 39
 3.724958e+01 5.416597e+01 8.841859e+01 5.855951e+01 6.333590e+01 8.233123e+01 6.523914e+01 1.010320e+02 7.226762e+01 6.184971e+01 5.764603e+01 3.778542e+01 8.500120e+01 2.360420e+00 2.266600e+00 2.779379e+00 3.148917e+00 3.453296e+00 3.534881e+00 3.911444e+00 3.927090e+00 2.988226e+00 3.019762e+00 2.659507e+00 2.487872e+00 3.177545e+00 3.966725e-01 3.686158e-01 4.150978e-01 5.531581e-01 5.800694e-01 5.864756e-01 6.865095e-01 6.558181e-01 5.109652e-01 5.344442e-01 4.382383e-01 4.467178e-01 4.407924e-01
<GCONST> 1.310333e+02
<STATE> 4
<MEAN> 39
 7.714062e-01 -1.722549e-01 -1.845258e+00 -9.782399e+00 -7.978059e+00 -4.890000e+00 -1.174905e+01 2.944725e+00 -4.012752e+00 2.131622e+00 -7.188471e+00 -2.172095e+00 6.699884e+01 -3.984665e-02 9.656353e-02 9.416462e-02 7.366107e-02 1.662954e-02 3.392380e-03 7.025344e-02 -8.633637e-02 -2.173886e-02 4.309926e-03 1.847946e-02 2.110409e-02 -1.095592e-01 -1.945459e-03 -1.632764e-04 -3.131265e-04 2.836833e-03 3.215764e-04 8.653388e-04 7.308628e-04 -9.277957e-04 1.121737e-03 -5.300780e-04 8.526733e-04 -3.486413e-04 -4.425686e-03
<VARIANCE> 39
 3.990200e+01 5.313935e+01 9.625227e+01 6.159064e+01 6.804929e+01 7.711706e+01 6.400686e+01 1.025965e+02 7.089115e+01 5.886640e+01 5.884536e+01 3.439473e+01 8.574402e+01 2.478313e+00 2.302149e+00 2.961714e+00 3.176989e+00 3.558237e+00 3.524155e+00 3.819192e+00 3.805888e+00 2.933994e+00 3.001837e+00 2.610748e+00 2.326958e+00 2.917926e+00 4.054202e-01 3.868698e-01 4.496439e-01 5.533095e-01 5.941042e-01 5.954808e-01 6.683744e-01 6.443116e-01 5.106381e-01 5.369306e-01 4.405944e-01 4.265180e-01 4.072917e-01
<GCONST> 1.310301e+02
<TRANSP> 5
 0.000000e+00 1.000000e+00 0.000000e+00 0.000000e+00 0.000000e+00
 0.000000e+00 7.830534e-01 2.169465e-01 0.000000e+00 0.000000e+00
 0.000000e+00 0.000000e+00 7.830533e-01 2.169466e-01 0.000000e+00
 0.000000e+00 0.000000e+00 0.000000e+00 9.128876e-01 8.711234e-02
 0.000000e+00 0.000000e+00 0.000000e+00 0.000000e+00 0.000000e+00
<ENDHMM>
~h "l"
<BEGINHMM>
<NUMSTATES> 5
<STATE> 2
<MEAN> 39
 -4.118455e+00 -1.759422e+00 -6.361721e+00 -5.594967e+00 -6.279584e+00 -6.033205e+00 -7.170146e+00 3.735489e-01 -2.755348e+00 -8.958440e-01 -4.301282e+00 -1.817489e+00 5.492990e+01 2.516396e-02 6.789833e-02 1.162084e-01 1.066374e-01 8.039828e-02 6.101967e-02 9.159892e-02 2.949265e-02 3.286988e-03 4.297807e-02 4.151385e-02 6.415068e-02 -4.240219e-02 4.577870e-04 4.874405e-03 4.206371e-03 8.922305e-03 9.351063e-03 1.006695e-02 5.248148e-03 5.012321e-03 7.571177e-03 3.496884e-03 2.745172e-03 2.380046e-03 -1.645599e-02
<VARIANCE> 39
 3.024642e+01 2.560968e+01 5.190570e+01 3.169379e+01 3.211497e+01 3.586615e+01 4.150609e+01 4.766415e+01 4.058570e+01 3.153687e+01 3.568609e+01 2.429119e+01 9.965351e+01 1.129793e+00 9.480811e-01 1.605864e+00 1.483035e+00 2.050716e+00 2.262199e+00 2.300366e+00 2.663787e+00 1.899187e+00 1.886662e+00 1.800379e+00 1.556382e+00 1.202644e+00 1.917248e-01 1.556351e-01 2.558666e-01 2.609437e-01 3.878905e-01 4.183499e-01 4.339060e-01 4.736728e-01 3.448260e-01 3.483191e-01 3.275146e-01 2.980110e-01 2.091776e-01
<GCONST> 1.100404e+02
<STATE> 3
<MEAN> 39
 -3.993782e+00 -1.399601e+00 -5.790048e+00 -5.009918e+00 -5.808792e+00 -5.674436e+00 -6.710328e+00 5.944614e-01 -2.671968e+00 -7.129639e-01 -4.086720e+00 -1.507498e+00 5.474272e+01 2.265809e-02 7.951042e-02 1.181492e-01 1.304768e-01 1.070050e-01 8.636789e-02 1.059750e-01 4.338505e-02 2.143508e-02 4.175190e-02 4.647002e-02 6.378996e-02 -5.355485e-02 -5.237889e-04 2.022316e-03 -3.087409e-04 4.227153e-03 5.528588e-03 5.240333e-03 3.046101e-03 3.153534e-03 4.206088e-03 -4.479224e-04 8.251604e-04 -2.109777e-04 -2.479412e-03
<VARIANCE> 39
 2.957510e+01 2.542838e+01 5.263710e+01 3.219057e+01 3.342466e+01 3.527285e+01 4.131570e+01 4.709886e+01 4.052325e+01 3.102793e+01 3.495722e+01 2.419535e+01 9.290641e+01 1.140413e+00 9.501745e-01 1.603601e+00 1.507662e+00 2.072820e+00 2.292965e+00 2.221488e+00 2.710704e+00 1.875927e+00 1.897306e+00 1.822279e+00 1.571175e+00 1.126437e+00 1.917738e-01 1.585787e-01 2.558232e-01 2.651867e-01 3.905680e-01 4.269491e-01 4.126388e-01 4.819235e-01 3.384777e-01 3.496605e-01 3.355732e-01 3.043249e-01 1.605885e-01
<GCONST> 1.097129e+02
<STATE> 4
<MEAN> 39
 -3.833824e+00 -6.622916e-01 -4.963451e+00 -4.154249e+00 -4.825607e+00 -4.753144e+00 -6.026960e+00 1.312261e+00 -2.310546e+00 -4.607755e-01 -3.814910e+00 -8.728056e-01 5.444857e+01 1.357421e-02 5.618365e-02 7.081300e-02 8.202309e-02 9.766317e-02 7.828512e-02 6.549535e-02 2.386913e-02 3.014229e-03 1.608284e-02 2.847401e-02 3.548370e-02 -2.375871e-02 -1.008671e-03 -2.238434e-03 -5.144936e-03 -5.542223e-03 -9.431718e-04 -3.190166e-04 -4.028177e-03 -1.790387e-03 -8.196824e-04 -1.470706e-03 -1.679550e-03 -2.442444e-03 2.351083e-03
<VARIANCE> 39
 3.033760e+01 2.419143e+01 4.938196e+01 3.417558e+01 3.498602e+01 3.442437e+01 4.242415e+01 4.502677e+01 3.990085e+01 3.086642e+01 3.303331e+01 2.359474e+01 8.273573e+01 1.214492e+00 9.613806e-01 1.541701e+00 1.582692e+00 2.058521e+00 2.222515e+00 2.184900e+00 2.645916e+00 1.880519e+00 1.941995e+00 1.812088e+00 1.567307e+00 1.163303e+00 1.857566e-01 1.626587e-01 2.474636e-01 2.729997e-01 3.798038e-01 4.095089e-01 3.968482e-01 4.720038e-01 3.406464e-01 3.563986e-01 3.395053e-01 3.057895e-01 1.524891e-01
<GCONST> 1.093737e+02
<TRANSP> 5
 0.000000e+00 1.000000e+00 0.000000e+00 0.000000e+00 0.000000e+00
 0.000000e+00 7.843049e-01 2.156951e-01 0.000000e+00 0.000000e+00
 0.000000e+00 0.000000e+00 7.843058e-01 2.156942e-01 0.000000e+00
 0.000000e+00 0.000000e+00 0.000000e+00 9.155087e-01 8.449125e-02
 0.000000e+00 0.000000e+00 0.000000e+00 0.000000e+00 0.000000e+00
<ENDHMM>
~h "m"
<BEGINHMM>
<NUMSTATES> 5
<STATE> 2
<MEAN> 39
 -2.111102e+00 1.468832e+00 -2.323489e+00 -5.112683e+00 -5.658081e+00 -4.583649e+00 -7.456812e+00 -5.570613e-01 -3.145079e+00 7.903354e-01 -5.339784e+00 -1.996044e+00 5.753083e+01 -5.622302e-02 1.873234e-02 -1.478431e-02 8.022721e-02 2.840843e-02 9.898782e-03 7.674376e-02 -1.581673e-03 3.970795e-02 -1.783464e-03 4.395111e-02 1.711842e-02 -1.811795e-01 1.071638e-03 -1.836491e-03 -1.020033e-03 1.747772e-03 1.894249e-03 1.162173e-03 4.981030e-04 1.225738e-03 -5.729749e-04 -2.514108e-03 -1.001572e-04 -3.408566e-04 1.724489e-03
<VARIANCE> 39
 3.055205e+01 2.728126e+01 6.421763e+01 5.858353e+01 4.933070e+01 4.399776e+01 5.168484e+01 7.186177e+01 4.715939e+01 4.204720e+01 4.405930e+01 2.243409e+01 9.905314e+01 1.515388e+00 1.351568e+00 2.038754e+00 2.244590e+00 2.274024e+00 2.210620e+00 2.489936e+00 2.617427e+00 2.259838e+00 2.269377e+00 1.979407e+00 1.741205e+00 1.242538e+00 2.460884e-01 2.405166e-01 3.292885e-01 3.694071e-01 3.916505e-01 3.975736e-01 4.584528e-01 4.657057e-01 4.306487e-01 4.039505e-01 3.678692e-01 3.426892e-01 1.764753e-01
<GCONST> 1.165466e+02
<STATE> 3
<MEAN> 39
 -2.361987e+00 1.536358e+00 -2.413556e+00 -4.747829e+00 -5.510115e+00 -4.538871e+00 -7.101886e+00 -5.446538e-01 -2.972367e+00 7.686551e-01 -5.138393e+00 -1.921612e+00 5.670904e+01 -5.146477e-02 1.052847e-02 -1.931397e-02 8.827218e-02 3.847723e-02 1.615749e-02 8.018526e-02 4.292464e-03 3.662586e-02 -1.357684e-02 4.271704e-02 1.575930e-02 -1.723580e-01 7.466911e-04 -1.702914e-03 -1.104820e-03 2.297311e-03 2.920233e-03 2.095422e-03 1.723399e-03 1.658824e-03 -6.011364e-04 -2.407515e-03 -3.320263e-04 1.359747e-04 1.377288e-03
<VARIANCE> 39
 2.918293e+01 2.481074e+01 6.111118e+01 5.544735e+01 4.736352e+01 4.179295e+01 4.912941e+01 6.718204e+01 4.535609e+01 3.920672e+01 4.252702e+01 2.178077e+01 9.412729e+01 1.429185e+00 1.241844e+00 1.898679e+00 2.088856e+00 2.166256e+00 2.093704e+00 2.382881e+00 2.520566e+00 2.212522e+00 2.183093e+00 1.926654e+00 1.708424e+00 1.114775e+00 2.318929e-01 2.224602e-01 3.077350e-01 3.431111e-01 3.717804e-01 3.798529e-01 4.425230e-01 4.559926e-01 4.268523e-01 3.918317e-01 3.624890e-01 3.379341e-01 1.592401e-01
<GCONST> 1.145770e+02
<STATE> 4
<MEAN> 39
 -2.864508e+00 1.537733e+00 -2.601153e+00 -3.925638e+00 -5.080065e+00 -4.181021e+00 -6.380318e+00 -4.718602e-01 -2.507512e+00 5.284143e-01 -4.778742e+00 -1.863594e+00 5.507135e+01 -4.585722e-02 -9.183218e-04 -2.873578e-02 9.145989e-02 5.542830e-02 2.337168e-02 8.767912e-02 1.898963e-02 3.098832e-02 -2.548573e-02 3.739824e-02 1.532792e-02 -1.546737e-01 6.928509e-04 -1.297505e-03 -1.147256e-03 1.135866e-03 2.355499e-03 1.893810e-03 1.851296e-03 2.460770e-03 4.080689e-04 -9.758492e-04 4.467857e-05 5.829339e-04 1.049507e-03
<VARIANCE> 39
 2.513224e+01 2.075774e+01 5.417132e+01 4.821650e+01 4.338693e+01 3.596768e+01 4.346514e+01 5.750565e+01 4.089830e+01 3.426204e+01 3.798859e+01 2.024694e+01 8.257637e+01 1.171424e+00 1.025690e+00 1.604600e+00 1.769853e+00 1.950850e+00 1.855588e+00 2.119700e+00 2.278231e+00 2.083231e+00 2.013145e+00 1.808883e+00 1.617609e+00 8.689010e-01 1.890518e-01 1.835622e-01 2.617663e-01 2.925150e-01 3.344322e-01 3.436981e-01 3.973210e-01 4.233694e-01 4.079227e-01 3.668067e-01 3.469215e-01 3.212227e-01 1.243256e-01
<GCONST> 1.096831e+02
<TRANSP> 5
 0.000000e+00 1.000000e+00 0.000000e+00 0.000000e+00 0.000000e+00
 0.000000e+00 7.848160e-01 2.151840e-01 0.000000e+00 0.000000e+00
 0.000000e+00 0.000000e+00 7.848162e-01 2.151837e-01 0.000000e+00
 0.000000e+00 0.000000e+00 0.000000e+00 9.148772e-01 8.512280e-02
 0.000000e+00 0.000000e+00 0.000000e+00 0.000000e+00 0.000000e+00
<ENDHMM>
~h "n"
<BEGINHMM>
<NUMSTATES> 5
<STATE> 2
<MEAN> 39
 8.302908e-01 1.240184e-01 -3.839400e+00 -1.017178e+01 -5.107486e+00 -5.350954e+00 -1.102392e+01 5.104291e-01 -4.310801e+00 -3.662050e-01 -5.820080e+00 -3.056785e+00 6.647139e+01 -6.948896e-02 8.737686e-02 1.372877e-01 1.837275e-01 -5.868206e-03 4.634432e-03 9.985401e-02 -1.537853e-01 -8.989792e-03 -2.104150e-02 2.898003e-02 2.877876e-02 -2.010900e-01 -1.848986e-03 -2.120545e-03 -1.464086e-03 3.748436e-03 1.926022e-04 3.613150e-04 1.203589e-03 1.245241e-03 1.054268e-03 -2.613722e-04 -1.196152e-03 -8.324466e-04 -4.240252e-03
<VARIANCE> 39
 3.654000e+01 6.096123e+01 9.085561e+01 8.283448e+01 5.309599e+01 5.785408e+01 6.600735e+01 1.029633e+02 7.526668e+01 6.345385e+01 5.107665e+01 3.770820e+01 9.498166e+01 2.272578e+00 2.273318e+00 2.949566e+00 3.310568e+00 3.047614e+00 3.422843e+00 3.741730e+00 3.577419e+00 3.598191e+00 3.196373e+00 2.707556e+00 2.646003e+00 2.928725e+00 3.595654e-01 3.200981e-01 4.285860e-01 5.432570e-01 5.408893e-01 5.950203e-01 6.250285e-01 5.890619e-01 6.481486e-01 5.217071e-01 4.886129e-01 4.623733e-01 3.904221e-01
<GCONST> 1.308358e+02
<STATE> 3
<MEAN> 39
 4.977422e-01 4.899495e-01 -3.247838e+00 -9.311964e+00 -5.109331e+00 -5.329606e+00 -1.055097e+01 -1.542943e-01 -4.338961e+00 -4.543403e-01 -5.686801e+00 -2.956339e+00 6.550609e+01 -7.705631e-02 7.658281e-02 1.255503e-01 1.974599e-01 -4.302962e-03 7.204944e-03 1.048499e-01 -1.465906e-01 -2.712168e-03 -2.196974e-02 2.329791e-02 2.405306e-02 -2.214704e-01 -1.481860e-03 -2.511230e-03 -3.776707e-03 2.293102e-03 8.435864e-04 1.021611e-03 1.059477e-03 2.086934e-03 1.923468e-03 2.987505e-05 -1.059121e-03 -9.687564e-04 -5.128071e-03
<VARIANCE> 39
 3.644511e+01 5.814183e+01 8.692205e+01 8.378724e+01 5.172009e+01 5.571368e+01 6.541574e+01 9.840294e+01 7.448525e+01 6.176698e+01 4.964067e+01 3.500689e+01 9.911501e+01 2.199497e+00 2.178092e+00 2.928800e+00 3.250757e+00 2.981055e+00 3.336681e+00 3.561732e+00 3.474457e+00 3.524603e+00 3.107510e+00 2.698460e+00 2.529879e+00 2.718285e+00 3.469693e-01 3.111827e-01 4.285145e-01 5.341786e-01 5.284917e-01 5.810869e-01 5.979981e-01 5.759314e-01 6.354405e-01 5.030818e-01 4.892436e-01 4.435307e-01 3.630214e-01
<GCONST> 1.297748e+02
<STATE> 4
<MEAN> 39
 -2.256284e-01 1.104676e+00 -2.307898e+00 -7.668247e+00 -4.950319e+00 -4.976217e+00 -9.627193e+00 -8.499782e-01 -4.013005e+00 -6.370867e-01 -5.495347e+00 -2.742728e+00 6.333181e+01 -8.430973e-02 5.194573e-02 7.631199e-02 1.963428e-01 8.927622e-03 1.554259e-02 1.126444e-01 -1.201065e-01 1.412257e-02 -1.813259e-02 2.062732e-02 1.012210e-02 -2.586020e-01 -8.440870e-04 -2.750807e-03 -6.393321e-03 -2.745911e-04 1.236699e-03 1.741686e-03 7.539103e-04 3.055663e-03 2.677813e-03 3.711827e-04 -5.463546e-04 -5.741904e-04 -5.120829e-03
<VARIANCE> 39
 3.484124e+01 5.148104e+01 7.777007e+01 8.067939e+01 4.952399e+01 5.078925e+01 6.252633e+01 8.896497e+01 7.129900e+01 5.614412e+01 4.710946e+01 2.975956e+01 1.060940e+02 1.992907e+00 1.945484e+00 2.734161e+00 2.975097e+00 2.779666e+00 3.041609e+00 3.120802e+00 3.153020e+00 3.190721e+00 2.857090e+00 2.622132e+00 2.273627e+00 2.245590e+00 3.126470e-01 2.837127e-01 4.000352e-01 4.866663e-01 4.849009e-01 5.301059e-01 5.302042e-01 5.269181e-01 5.695232e-01 4.612298e-01 4.794062e-01 4.026677e-01 2.980579e-01
<GCONST> 1.263643e+02
<TRANSP> 5
 0.000000e+00 1.000000e+00 0.000000e+00 0.000000e+00 0.000000e+00
 0.000000e+00 7.817906e-01 2.182094e-01 0.000000e+00 0.000000e+00
 0.000000e+00 0.000000e+00 7.817906e-01 2.182093e-01 0.000000e+00
 0.000000e+00 0.000000e+00 0.000000e+00 9.110509e-01 8.894908e-02
 0.000000e+00 0.000000e+00 0.000000e+00 0.000000e+00 0.000000e+00
<ENDHMM>
~h "p"
<BEGINHMM>
<NUMSTATES> 5
<STATE> 2
<MEAN> 39
 -4.140821e+00 -6.556672e-01 -4.522534e+00 -3.161380e+00 -4.595047e+00 -5.082823e+00 -5.736865e+00 7.578557e-01 -1.729797e+00 2.088637e-01 -4.420513e+00 -2.229485e+00 5.535439e+01 -4.451714e-03 3.738941e-02 7.498637e-02 7.248551e-02 1.014743e-01 4.871156e-02 7.253683e-02 4.150270e-02 1.849538e-02 4.535744e-02 3.854305e-02 -2.837575e-03 1.595345e-02 -9.778365e-04 -2.599226e-03 -6.609688e-03 -9.581156e-03 -4.058417e-03 -2.439398e-03 -5.210114e-03 -2.869186e-03 -1.726630e-03 -7.435359e-04 1.130475e-03 -1.056661e-03 5.249556e-03
<VARIANCE> 39
 2.967807e+01 2.345864e+01 5.118630e+01 3.432705e+01 3.392715e+01 3.771312e+01 3.984973e+01 4.669134e+01 4.540357e+01 3.014879e+01 2.963741e+01 2.508584e+01 7.829873e+01 1.128994e+00 9.881223e-01 1.537062e+00 1.645956e+00 2.040890e+00 2.107940e+00 2.244668e+00 2.453238e+00 2.250928e+00 2.023965e+00 2.113195e+00 1.605856e+00 1.431818e+00 1.911966e-01 1.667298e-01 2.417701e-01 2.886039e-01 3.676261e-01 3.720731e-01 4.199407e-01 4.294742e-01 4.135185e-01 3.781394e-01 4.176985e-01 3.134928e-01 1.726182e-01
<GCONST> 1.104149e+02
<STATE> 3
<MEAN> 39
 -4.188633e+00 -5.538244e-01 -4.311201e+00 -2.992550e+00 -4.220305e+00 -4.915466e+00 -5.501580e+00 8.615184e-01 -1.692713e+00 3.768629e-01 -4.259709e+00 -2.273412e+00 5.546489e+01 -9.144254e-03 2.333437e-02 3.839359e-02 2.268276e-02 7.783791e-02 3.763790e-02 4.289760e-02 2.737056e-02 8.538770e-03 4.042628e-02 3.834378e-02 -6.951252e-03 3.757090e-02 -5.837758e-04 -3.391675e-03 -8.257931e-03 -1.186381e-02 -6.315858e-03 -3.292609e-03 -7.284418e-03 -3.455170e-03 -2.822739e-03 -1.554355e-03 -4.095782e-04 -8.426863e-04 6.103754e-03
<VARIANCE> 39
 3.057702e+01 2.263027e+01 4.795073e+01 3.436876e+01 3.340469e+01 3.867763e+01 3.946481e+01 4.566377e+01 4.632147e+01 2.961917e+01 2.800039e+01 2.585308e+01 7.724488e+01 1.176041e+00 9.801590e-01 1.471210e+00 1.694236e+00 2.014008e+00 2.084285e+00 2.210620e+00 2.383382e+00 2.336311e+00 1.972127e+00 2.103493e+00 1.621006e+00 1.528111e+00 1.931126e-01 1.647754e-01 2.291224e-01 2.965949e-01 3.607818e-01 3.679381e-01 4.135919e-01 4.211486e-01 4.299506e-01 3.691336e-01 4.188834e-01 3.166651e-01 1.797968e-01
<GCONST> 1.102903e+02
<STATE> 4
<MEAN> 39
 -4.186475e+00 -5.905364e-01 -4.279362e+00 -3.360121e+00 -3.972331e+00 -4.597114e+00 -5.627698e+00 1.127105e+00 -1.630592e+00 4.940155e-01 -4.217997e+00 -2.373632e+00 5.613361e+01 7.231198e-04 -1.422870e-03 -2.026684e-02 -5.663951e-02 3.150158e-02 3.012604e-02 -1.847693e-02 1.791181e-02 -7.254594e-03 3.074779e-02 2.691661e-02 -1.743427e-02 6.620105e-02 2.223814e-03 -2.388518e-03 -5.820756e-03 -9.292910e-03 -5.666623e-03 -1.521313e-03 -7.446593e-03 -1.502373e-04 -2.156940e-03 -1.093979e-03 -1.764784e-03 -8.134528e-04 5.864646e-03
<VARIANCE> 39
 3.463340e+01 2.326499e+01 4.573770e+01 3.810510e+01 3.374065e+01 4.231356e+01 4.195926e+01 4.611982e+01 4.668991e+01 2.989095e+01 2.697887e+01 2.664771e+01 8.485692e+01 1.328533e+00 1.071286e+00 1.426149e+00 1.854887e+00 1.990229e+00 2.089334e+00 2.234725e+00 2.384563e+00 2.433392e+00 1.904826e+00 2.107391e+00 1.649922e+00 1.836038e+00 2.060082e-01 1.776706e-01 2.219720e-01 3.240554e-01 3.548060e-01 3.630427e-01 4.144986e-01 4.298580e-01 4.467627e-01 3.527752e-01 4.199485e-01 3.215407e-01 2.149356e-01
<GCONST> 1.116338e+02
<TRANSP> 5
 0.000000e+00 1.000000e+00 0.000000e+00 0.000000e+00 0.000000e+00
 0.000000e+00 7.755191e-01 2.244809e-01 0.000000e+00 0.000000e+00
 0.000000e+00 0.000000e+00 7.755184e-01 2.244816e-01 0.000000e+00
 0.000000e+00 0.000000e+00 0.000000e+00 9.048017e-01 9.519834e-02
 0.000000e+00 0.000000e+00 0.000000e+00 0.000000e+00 0.000000e+00
<ENDHMM>
~h "r"
<BEGINHMM>
<NUMSTATES> 5
<STATE> 2
<MEAN> 39
 -1.609625e+00 -1.676474e+00 -5.360464e+00 -6.836330e+00 -4.576297e+00 -3.580751e+00 -9.180717e+00 2.535004e+00 -2.162289e+00 9.972936e-01 -4.735238e+00 -2.933518e+00 6.128986e+01 5.336013e-02 -6.521237e-02 -4.451672e-02 -8.297793e-02 -2.955366e-02 -3.779264e-02 -4.514320e-02 6.956416e-02 1.800944e-02 1.140827e-02 -5.880626e-02 -3.017329e-02 1.141071e-01 3.284132e-04 7.629604e-05 2.029518e-03 -1.242231e-03 -2.445375e-03 -3.692173e-03 1.262546e-03 -1.858016e-04 -1.087731e-04 -1.120367e-03 -1.666354e-03 2.524245e-04 1.199462e-03
<VARIANCE> 39
 4.845594e+01 3.810548e+01 4.752196e+01 6.379568e+01 3.569419e+01 5.568653e+01 8.487477e+01 7.045980e+01 6.023108e+01 3.704233e+01 3.778704e+01 3.606367e+01 1.445696e+02 1.778262e+00 1.293821e+00 1.405049e+00 2.091774e+00 1.893201e+00 2.151652e+00 2.803299e+00 2.576348e+00 2.294710e+00 2.047715e+00 2.045851e+00 2.125288e+00 1.792949e+00 2.342465e-01 1.907090e-01 2.098320e-01 3.577590e-01 3.354349e-01 3.787591e-01 4.824800e-01 4.601857e-01 4.081672e-01 3.727506e-01 3.525498e-01 3.754929e-01 2.077651e-01
<GCONST> 1.175590e+02
<STATE> 3
<MEAN> 39
 -1.371957e+00 -1.966721e+00 -5.533706e+00 -7.205792e+00 -4.726000e+00 -3.782407e+00 -9.360478e+00 2.833958e+00 -2.073684e+00 1.043035e+00 -5.013538e+00 -3.065536e+00 6.179752e+01 5.191366e-02 -6.089368e-02 -3.349608e-02 -8.541168e-02 -3.843086e-02 -5.162571e-02 -3.690171e-02 6.618395e-02 1.744548e-02 5.657165e-03 -6.345195e-02 -2.695477e-02 1.128822e-01 -4.523634e-04 1.312404e-03 3.086135e-03 3.617443e-04 -1.182100e-03 -2.213781e-03 2.350714e-03 -8.928503e-04 -1.158026e-04 -1.435109e-03 -9.291414e-04 5.585661e-04 -5.288720e-04
<VARIANCE> 39
 4.585786e+01 3.930742e+01 4.752866e+01 6.375420e+01 3.685763e+01 5.730321e+01 8.493228e+01 7.263560e+01 6.091986e+01 3.787821e+01 3.868750e+01 3.715225e+01 1.516584e+02 1.683465e+00 1.286753e+00 1.408405e+00 2.064456e+00 1.923262e+00 2.101462e+00 2.843544e+00 2.584888e+00 2.251964e+00 2.011909e+00 2.046334e+00 2.111874e+00 1.824784e+00 2.281256e-01 1.877793e-01 2.089857e-01 3.573162e-01 3.394029e-01 3.699414e-01 4.911831e-01 4.649011e-01 4.028473e-01 3.650797e-01 3.471207e-01 3.743143e-01 2.146615e-01
<GCONST> 1.176239e+02
<STATE> 4
<MEAN> 39
 -8.683437e-01 -2.318087e+00 -5.523055e+00 -7.897910e+00 -5.258129e+00 -3.992894e+00 -9.758062e+00 3.261862e+00 -1.664793e+00 9.825422e-01 -5.529360e+00 -3.181501e+00 6.280628e+01 3.626179e-02 -3.079151e-02 -5.657983e-03 -6.388842e-02 -3.838980e-02 -5.564492e-02 -1.130190e-02 4.124155e-02 1.690478e-02 -2.427639e-03 -5.144438e-02 -1.216281e-02 7.621267e-02 -1.198542e-03 3.450994e-03 3.057064e-03 2.758941e-03 2.813172e-04 1.938585e-04 3.076070e-03 -2.214948e-03 -1.056755e-04 -1.530849e-03 1.059246e-03 1.490681e-03 -3.755901e-03
<VARIANCE> 39
 4.149367e+01 4.298024e+01 5.128735e+01 6.366167e+01 4.109879e+01 5.974972e+01 8.233675e+01 7.573815e+01 6.206324e+01 3.994899e+01 4.105510e+01 3.818936e+01 1.578343e+02 1.558599e+00 1.331563e+00 1.495932e+00 2.075025e+00 2.061570e+00 2.152045e+00 2.892997e+00 2.662742e+00 2.204617e+00 1.982431e+00 2.082686e+00 2.068233e+00 1.930711e+00 2.245169e-01 1.908557e-01 2.200335e-01 3.651966e-01 3.589972e-01 3.808443e-01 5.030053e-01 4.753510e-01 3.948226e-01 3.539926e-01 3.468111e-01 3.694571e-01 2.359474e-01
<GCONST> 1.184624e+02
<TRANSP> 5
 0.000000e+00 1.000000e+00 0.000000e+00 0.000000e+00 0.000000e+00
 0.000000e+00 7.823232e-01 2.176769e-01 0.000000e+00 0.000000e+00
 0.000000e+00 0.000000e+00 7.823223e-01 2.176777e-01 0.000000e+00
 0.000000e+00 0.000000e+00 0.000000e+00 9.116801e-01 8.831993e-02
 0.000000e+00 0.000000e+00 0.000000e+00 0.000000e+00 0.000000e+00
<ENDHMM>
~h "s"
<BEGINHMM>
<NUMSTATES> 5
<STATE> 2
<MEAN> 39
 -5.244929e+00 -1.749840e+00 -6.486872e+00 -6.205556e+00 -6.038108e+00 -6.363625e+00 -7.815743e+00 1.264489e+00 -2.110168e+00 2.461879e-01 -5.185028e+00 -1.873828e+00 5.724345e+01 5.666560e-03 4.916255e-02 9.844284e-02 9.037276e-02 5.117001e-02 4.236288e-02 5.760178e-02 6.500734e-03 5.556864e-02 4.640497e-02 1.483215e-02 3.727644e-02 4.299401e-02 7.797286e-03 4.413487e-03 5.173021e-03 8.630796e-03 7.451274e-03 5.555833e-03 5.293941e-03 6.730778e-04 5.065872e-03 2.247598e-03 7.918773e-03 1.852513e-03 -1.725170e-02
<VARIANCE> 39
 4.680499e+01 2.780217e+01 4.194561e+01 4.201144e+01 3.398056e+01 4.469127e+01 5.109223e+01 5.916043e+01 4.318990e+01 3.199008e+01 3.908105e+01 2.628458e+01 1.099457e+02 2.035249e+00 1.235487e+00 1.697564e+00 1.893198e+00 2.237655e+00 2.699729e+00 2.485364e+00 2.802726e+00 2.279299e+00 2.146822e+00 2.060060e+00 1.658619e+00 1.834274e+00 3.367264e-01 1.909119e-01 2.890801e-01 3.444804e-01 4.154364e-01 5.072775e-01 4.503083e-01 4.959555e-01 4.144966e-01 3.996728e-01 3.767541e-01 3.153130e-01 3.024689e-01
<GCONST> 1.165487e+02
<STATE> 3
<MEAN> 39
 -5.083438e+00 -1.442180e+00 -6.010820e+00 -5.732707e+00 -5.685743e+00 -6.054007e+00 -7.495925e+00 1.322433e+00 -1.811529e+00 4.802453e-01 -5.025150e+00 -1.725477e+00 5.734503e+01 3.836780e-02 6.870880e-02 1.096427e-01 1.079372e-01 7.997292e-02 7.282235e-02 7.378383e-02 1.056469e-02 5.854192e-02 5.028680e-02 4.016279e-02 2.934634e-02 1.755397e-02 6.427047e-03 4.144567e-03 2.115455e-03 2.859263e-03 6.079778e-03 7.004576e-03 3.033183e-03 9.998577e-04 6.139308e-05 7.852096e-04 5.029731e-03 -1.814938e-03 -5.777691e-03
<VARIANCE> 39
 4.706977e+01 2.832927e+01 4.465237e+01 4.317124e+01 3.437268e+01 4.513229e+01 5.291228e+01 5.820639e+01 4.393456e+01 3.180086e+01 4.026336e+01 2.614468e+01 1.065247e+02 1.976492e+00 1.254897e+00 1.751069e+00 1.846988e+00 2.197166e+00 2.741193e+00 2.471996e+00 2.852008e+00 2.308896e+00 2.127650e+00 2.082264e+00 1.660431e+00 1.746086e+00 3.205723e-01 1.945785e-01 2.913975e-01 3.286657e-01 4.017696e-01 5.087005e-01 4.420437e-01 4.980898e-01 4.141812e-01 3.923206e-01 3.773350e-01 3.154536e-01 2.584222e-01
<GCONST> 1.163863e+02
<STATE> 4
<MEAN> 39
 -4.542572e+00 -5.958939e-01 -5.092257e+00 -5.244550e+00 -5.013993e+00 -4.808759e+00 -7.140621e+00 1.787394e+00 -1.380943e+00 7.702236e-01 -4.574092e+00 -1.451698e+00 5.754331e+01 6.311497e-02 6.857228e-02 8.623077e-02 5.673609e-02 6.614009e-02 9.297276e-02 3.575202e-02 1.191332e-02 1.100813e-02 1.990219e-02 5.026850e-02 5.733932e-03 2.265902e-02 1.218589e-03 -7.007734e-04 -2.209276e-03 -4.764076e-03 -1.403920e-03 1.603330e-03 -3.689040e-03 -9.009719e-05 -5.038357e-03 -2.528327e-03 7.465075e-04 -1.957271e-03 -2.512895e-04
<VARIANCE> 39
 5.056222e+01 2.847455e+01 4.698056e+01 4.591110e+01 3.536664e+01 4.532745e+01 5.865327e+01 5.559145e+01 4.623432e+01 3.145371e+01 4.150733e+01 2.552510e+01 1.026131e+02 2.025452e+00 1.279735e+00 1.722990e+00 1.909278e+00 2.180523e+00 2.683289e+00 2.474857e+00 2.833964e+00 2.393522e+00 2.089927e+00 2.106648e+00 1.703178e+00 1.619205e+00 2.956083e-01 2.008482e-01 2.761027e-01 3.249255e-01 3.926003e-01 4.847793e-01 4.429755e-01 4.806994e-01 4.249272e-01 3.746381e-01 3.776648e-01 3.223201e-01 2.231372e-01
<GCONST> 1.163167e+02
<TRANSP> 5
 0.000000e+00 1.000000e+00 0.000000e+00 0.000000e+00 0.000000e+00
 0.000000e+00 7.823349e-01 2.176651e-01 0.000000e+00 0.000000e+00
 0.000000e+00 0.000000e+00 7.823347e-01 2.176652e-01 0.000000e+00
 0.000000e+00 0.000000e+00 0.000000e+00 9.117177e-01 8.828233e-02
 0.000000e+00 0.000000e+00 0.000000e+00 0.000000e+00 0.000000e+00
<ENDHMM>
~h "t"
<BEGINHMM>
<NUMSTATES> 5
<STATE> 2
<MEAN> 39
 1.181777e-01 -1.856461e+00 -5.909279e+00 -1.129290e+01 -6.465127e+00 -4.886826e+00 -1.289741e+01 4.923716e+00 -3.951918e+00 4.890993e-01 -5.811134e+00 -3.346388e+00 6.862749e+01 5.098006e-02 3.289792e-02 9.988006e-04 -3.736665e-02 -2.586585e-02 -2.667330e-02 -5.147478e-02 3.217029e-02 1.853673e-02 1.649264e-02 -3.631589e-02 6.896134e-03 5.849198e-02 -2.293575e-03 3.752702e-03 2.728175e-03 3.874741e-03 2.295514e-03 1.002103e-03 3.939657e-03 -6.688185e-03 -4.888076e-04 1.094813e-03 1.621645e-03 2.124037e-03 -1.030028e-02
<VARIANCE> 39
 4.554910e+01 4.892732e+01 7.642876e+01 6.424081e+01 6.271793e+01 8.012170e+01 7.165599e+01 8.765919e+01 7.231636e+01 6.174512e+01 5.326917e+01 4.012872e+01 1.092911e+02 2.806125e+00 2.363322e+00 2.213334e+00 3.113355e+00 3.067114e+00 3.505187e+00 4.437859e+00 3.512389e+00 3.274419e+00 2.824910e+00 2.921340e+00 2.406649e+00 3.960072e+00 4.333197e-01 3.357267e-01 2.919355e-01 5.157350e-01 5.026889e-01 5.618116e-01 7.657985e-01 5.507796e-01 5.449104e-01 4.717805e-01 4.930235e-01 4.203727e-01 4.879892e-01
<GCONST> 1.308147e+02
<STATE> 3
<MEAN> 39
 3.170025e-01 -1.654473e+00 -5.857573e+00 -1.141395e+01 -6.559067e+00 -4.994805e+00 -1.309187e+01 4.983732e+00 -3.883386e+00 5.786898e-01 -5.963759e+00 -3.286864e+00 6.879848e+01 4.164829e-02 4.882803e-02 1.358076e-02 -2.240941e-02 -1.466035e-02 -1.988604e-02 -3.413749e-02 3.839245e-04 1.350993e-02 2.071707e-02 -2.847095e-02 1.394815e-02 1.760872e-02 -1.847421e-03 3.389274e-03 3.543589e-03 3.177685e-03 2.033282e-03 1.654259e-03 3.458926e-03 -7.378689e-03 -1.764778e-03 9.357160e-04 2.056872e-03 1.202316e-03 -7.641047e-03
<VARIANCE> 39
 4.457064e+01 5.080755e+01 7.695328e+01 6.268794e+01 6.291641e+01 7.991501e+01 7.084779e+01 8.867157e+01 7.478532e+01 6.164544e+01 5.512133e+01 4.028616e+01 1.023995e+02 2.857829e+00 2.409440e+00 2.299056e+00 3.115826e+00 3.185009e+00 3.550371e+00 4.515677e+00 3.572073e+00 3.319292e+00 2.857620e+00 2.897091e+00 2.467789e+00 3.959887e+00 4.463125e-01 3.424505e-01 3.071849e-01 5.147290e-01 5.288122e-01 5.667002e-01 7.811211e-01 5.641931e-01 5.571440e-01 4.810689e-01 4.836392e-01 4.319869e-01 4.945725e-01
<GCONST> 1.312864e+02
<STATE> 4
<MEAN> 39
 5.462010e-01 -1.006757e+00 -5.258714e+00 -1.130279e+01 -6.813040e+00 -4.653245e+00 -1.328726e+01 4.782743e+00 -3.799942e+00 7.745856e-01 -6.275682e+00 -2.908686e+00 6.864364e+01 2.619618e-02 7.083724e-02 4.463074e-02 4.749113e-03 1.681305e-03 -3.230019e-03 -5.848976e-03 -5.025679e-02 -1.953799e-03 2.151046e-02 -1.554397e-02 1.813078e-02 -2.673107e-02 -1.343638e-03 1.991635e-03 4.172020e-03 3.062855e-03 1.098190e-03 1.918159e-03 3.063091e-03 -6.096017e-03 -2.191835e-03 -3.845860e-06 2.042223e-03 -1.304108e-05 -4.035268e-03
<VARIANCE> 39
 4.418998e+01 5.473895e+01 7.946230e+01 6.000546e+01 6.576038e+01 7.808983e+01 6.824829e+01 8.869778e+01 7.801555e+01 5.865726e+01 5.873790e+01 3.879788e+01 9.090127e+01 2.966577e+00 2.501722e+00 2.491417e+00 3.092788e+00 3.500149e+00 3.633913e+00 4.568434e+00 3.636480e+00 3.305521e+00 2.903961e+00 2.884779e+00 2.524276e+00 3.751808e+00 4.645799e-01 3.568498e-01 3.390001e-01 5.110270e-01 5.839406e-01 5.755356e-01 7.866867e-01 5.849112e-01 5.592409e-01 4.962254e-01 4.738671e-01 4.458418e-01 4.780945e-01
<GCONST> 1.318378e+02
<TRANSP> 5
 0.000000e+00 1.000000e+00 0.000000e+00 0.000000e+00 0.000000e+00
 0.000000e+00 7.812083e-01 2.187917e-01 0.000000e+00 0.000000e+00
 0.000000e+00 0.000000e+00 7.812086e-01 2.187914e-01 0.000000e+00
 0.000000e+00 0.000000e+00 0.000000e+00 9.118447e-01 8.815529e-02
 0.000000e+00 0.000000e+00 0.000000e+00 0.000000e+00 0.000000e+00
<ENDHMM>
~h "u"
<BEGINHMM>
<NUMSTATES> 5
<STATE> 2
<MEAN> 39
 -1.557183e+00 -7.163229e-01 -4.894710e+00 -8.245291e+00 -5.840417e+00 -4.915606e+00 -1.023606e+01 3.238285e+00 -2.219885e+00 1.271734e+00 -5.414755e+00 -2.369583e+00 6.336271e+01 4.280905e-02 5.025458e-02 3.948011e-02 4.579786e-03 2.764411e-02 4.698117e-02 5.125107e-03 -2.154422e-02 -9.209069e-04 1.003721e-02 9.519756e-03 6.548453e-03 2.254657e-02 -2.306057e-04 -1.827071e-03 2.448484e-04 7.882249e-06 -2.088789e-03 -4.177862e-04 -1.288618e-03 -2.123022e-03 -4.117921e-03 -1.951396e-03 5.460647e-05 -9.376549e-04 7.026270e-04
<VARIANCE> 39
 5.107249e+01 3.840928e+01 6.533856e+01 6.537212e+01 5.051249e+01 6.290218e+01 7.521185e+01 8.361481e+01 6.916583e+01 4.474244e+01 5.670318e+01 3.527323e+01 1.298568e+02 2.198954e+00 1.692963e+00 1.968280e+00 2.547623e+00 2.564670e+00 3.127061e+00 3.337748e+00 3.318021e+00 2.764002e+00 2.432175e+00 2.452775e+00 2.240338e+00 2.426008e+00 3.335998e-01 2.602187e-01 2.927483e-01 4.228450e-01 4.388952e-01 5.311969e-01 5.829394e-01 5.427071e-01 4.794621e-01 4.278888e-01 4.131857e-01 4.008756e-01 3.156676e-01
<GCONST> 1.251672e+02
<STATE> 3
<MEAN> 39
 -1.365710e+00 -5.109007e-01 -4.735925e+00 -8.257570e+00 -5.753389e+00 -4.716414e+00 -1.025379e+01 3.114648e+00 -2.273409e+00 1.295548e+00 -5.386047e+00 -2.356446e+00 6.348464e+01 4.119103e-02 3.949447e-02 3.884698e-02 5.307825e-03 1.697054e-02 4.181912e-02 -1.796315e-03 -3.098058e-02 -1.733684e-02 2.567964e-03 7.755114e-03 1.883646e-03 2.707309e-02 -4.541031e-04 -2.459658e-03 -1.661098e-04 6.290134e-04 -2.174337e-03 -1.087808e-03 -1.227080e-03 -1.808493e-03 -3.322358e-03 -1.531760e-03 -5.653719e-04 -9.871419e-04 7.269233e-04
<VARIANCE> 39
 5.166962e+01 3.874980e+01 6.707606e+01 6.705892e+01 5.059242e+01 6.280407e+01 7.587857e+01 8.430350e+01 7.006818e+01 4.508936e+01 5.784289e+01 3.560003e+01 1.272305e+02 2.225689e+00 1.697589e+00 2.021594e+00 2.581140e+00 2.569435e+00 3.131776e+00 3.304600e+00 3.369034e+00 2.781379e+00 2.452775e+00 2.445731e+00 2.287532e+00 2.366966e+00 3.313522e-01 2.591210e-01 2.977319e-01 4.249387e-01 4.418097e-01 5.300387e-01 5.763804e-01 5.474072e-01 4.834305e-01 4.280602e-01 4.128678e-01 4.066235e-01 3.063287e-01
<GCONST> 1.253618e+02
<STATE> 4
<MEAN> 39
 -1.042732e+00 -2.224938e-01 -4.312830e+00 -8.279369e+00 -5.899392e+00 -4.111916e+00 -1.045456e+01 2.901747e+00 -2.230982e+00 1.297815e+00 -5.485215e+00 -2.271410e+00 6.375858e+01 4.150077e-02 1.566320e-02 3.003025e-02 1.252080e-02 6.782840e-03 2.848610e-02 -5.871174e-03 -3.781216e-02 -2.534105e-02 -3.356976e-03 -4.629091e-03 -8.410763e-03 3.091222e-02 -5.193604e-04 -2.723953e-03 -3.953446e-04 2.315153e-03 -5.050497e-04 -1.213654e-03 8.252594e-04 -4.376668e-04 -7.479289e-04 -6.533790e-04 -9.940928e-04 -9.080484e-04 -7.395260e-04
<VARIANCE> 39
 5.363096e+01 3.979576e+01 7.123342e+01 6.883018e+01 5.197869e+01 6.309781e+01 7.688780e+01 8.332434e+01 7.198376e+01 4.470346e+01 5.884921e+01 3.539482e+01 1.228932e+02 2.306982e+00 1.711857e+00 2.096124e+00 2.601804e+00 2.626658e+00 3.120610e+00 3.260604e+00 3.365269e+00 2.749361e+00 2.486313e+00 2.483169e+00 2.321679e+00 2.258437e+00 3.312921e-01 2.578425e-01 3.041604e-01 4.235861e-01 4.523342e-01 5.256321e-01 5.664372e-01 5.458537e-01 4.752584e-01 4.296325e-01 4.210051e-01 4.095444e-01 2.873130e-01
<GCONST> 1.255749e+02
<TRANSP> 5
 0.000000e+00 1.000000e+00 0.000000e+00 0.000000e+00 0.000000e+00
 0.000000e+00 7.806287e-01 2.193713e-01 0.000000e+00 0.000000e+00
 0.000000e+00 0.000000e+00 7.806283e-01 2.193717e-01 0.000000e+00
 0.000000e+00 0.000000e+00 0.000000e+00 9.101508e-01 8.984919e-02
 0.000000e+00 0.000000e+00 0.000000e+00 0.000000e+00 0.000000e+00
<ENDHMM>
~h "y"
<BEGINHMM>
<NUMSTATES> 5
<STATE> 2
<MEAN> 39
 -2.177646e-01 9.341971e-01 -2.590433e+00 -7.644296e+00 -5.024739e+00 -5.222398e+00 -9.572650e+00 -1.203339e+00 -4.236369e+00 -6.135728e-01 -5.486708e+00 -2.875661e+00 6.331750e+01 -8.521779e-02 5.326698e-02 7.321522e-02 1.975647e-01 4.827352e-03 2.091249e-02 1.108757e-01 -1.228091e-01 1.885595e-02 -2.036527e-02 1.722827e-02 1.897359e-02 -2.642264e-01 -8.536605e-04 -2.759612e-03 -6.298792e-03 -7.495298e-04 1.588912e-03 1.713775e-03 8.851239e-04 3.858756e-03 2.858127e-03 6.778646e-04 -7.582596e-06 -4.604741e-04 -4.982661e-03
<VARIANCE> 39
 3.485032e+01 5.125598e+01 7.575806e+01 8.151478e+01 4.837479e+01 5.054263e+01 6.343198e+01 8.842877e+01 7.022945e+01 5.832663e+01 4.686160e+01 3.070580e+01 1.068403e+02 1.934897e+00 1.915355e+00 2.729304e+00 3.019433e+00 2.686987e+00 3.010528e+00 3.141611e+00 3.138983e+00 3.230508e+00 2.893719e+00 2.561545e+00 2.279944e+00 2.222798e+00 3.032468e-01 2.784173e-01 4.036348e-01 4.927307e-01 4.757943e-01 5.254532e-01 5.345694e-01 5.223568e-01 5.840043e-01 4.634998e-01 4.667540e-01 4.031513e-01 2.959873e-01
<GCONST> 1.262417e+02
<STATE> 3
<MEAN> 39
 -6.274009e-01 1.149953e+00 -2.319725e+00 -6.725354e+00 -4.976868e+00 -5.113197e+00 -9.036547e+00 -1.739108e+00 -4.124454e+00 -6.997752e-01 -5.401779e+00 -2.811692e+00 6.201964e+01 -8.844859e-02 4.035426e-02 4.155178e-02 1.910468e-01 1.204442e-02 2.917215e-02 1.144639e-01 -1.035557e-01 3.254078e-02 -1.676739e-02 1.771902e-02 1.754635e-02 -2.861290e-01 -5.630273e-04 -2.789756e-03 -7.051505e-03 -2.417660e-03 1.790439e-03 1.577599e-03 7.752129e-04 5.003560e-03 3.080664e-03 1.048463e-03 6.059867e-04 -1.959169e-04 -4.088286e-03
<VARIANCE> 39
 3.336124e+01 4.695793e+01 6.942097e+01 7.785014e+01 4.653130e+01 4.719417e+01 6.146862e+01 8.266060e+01 6.693889e+01 5.616349e+01 4.553185e+01 2.847123e+01 1.073195e+02 1.776132e+00 1.767922e+00 2.590804e+00 2.873783e+00 2.510499e+00 2.810395e+00 2.902598e+00 2.947271e+00 3.036580e+00 2.763210e+00 2.467641e+00 2.144441e+00 1.936975e+00 2.770586e-01 2.593364e-01 3.859766e-01 4.663032e-01 4.439380e-01 4.912431e-01 4.982676e-01 4.909445e-01 5.495767e-01 4.403233e-01 4.506125e-01 3.820593e-01 2.569440e-01
<GCONST> 1.238221e+02
<STATE> 4
<MEAN> 39
 -1.440911e+00 1.457493e+00 -2.143689e+00 -5.254421e+00 -4.661129e+00 -4.618057e+00 -8.008993e+00 -2.063677e+00 -3.530155e+00 -8.199596e-01 -5.187564e+00 -2.688869e+00 5.936147e+01 -8.864127e-02 1.664336e-02 -1.662122e-02 1.601183e-01 2.357528e-02 3.510125e-02 1.157367e-01 -6.361311e-02 4.972889e-02 -7.441503e-03 2.323825e-02 1.244320e-02 -2.993720e-01 -5.625468e-05 -2.306307e-03 -6.174138e-03 -4.207927e-03 1.183600e-03 5.404465e-04 5.070958e-05 5.657931e-03 2.492594e-03 1.327380e-03 1.127630e-03 3.633542e-04 -1.006722e-03
<VARIANCE> 39
 2.935449e+01 3.813902e+01 5.824461e+01 6.664944e+01 4.250584e+01 4.073779e+01 5.635258e+01 7.187667e+01 5.963956e+01 4.966182e+01 4.195009e+01 2.438157e+01 1.032098e+02 1.450233e+00 1.465980e+00 2.230668e+00 2.489545e+00 2.188264e+00 2.413193e+00 2.462601e+00 2.558514e+00 2.610623e+00 2.472487e+00 2.279392e+00 1.891933e+00 1.435722e+00 2.248386e-01 2.189092e-01 3.363997e-01 4.004009e-01 3.848663e-01 4.254974e-01 4.308999e-01 4.272603e-01 4.712546e-01 3.971232e-01 4.200376e-01 3.430183e-01 1.881175e-01
<GCONST> 1.181456e+02
<TRANSP> 5
 0.000000e+00 1.000000e+00 0.000000e+00 0.000000e+00 0.000000e+00
 0.000000e+00 7.906132e-01 2.093868e-01 0.000000e+00 0.000000e+00
 0.000000e+00 0.000000e+00 7.906131e-01 2.093870e-01 0.000000e+00
 0.000000e+00 0.000000e+00 0.000000e+00 9.210232e-01 7.897674e-02
 0.000000e+00 0.000000e+00 0.000000e+00 0.000000e+00 0.000000e+00
<ENDHMM>
~h "ng"
<BEGINHMM>
<NUMSTATES> 5
<STATE> 2
<MEAN> 39
 -4.371909e+00 5.621334e-01 -4.800700e+00 -2.183316e+00 -2.920844e+00 -3.373258e+00 -3.655391e+00 -1.143538e-01 -1.603550e+00 -6.057109e-01 -3.821164e+00 -1.884922e+00 5.107176e+01 -6.412572e-02 -3.396250e-02 -5.392358e-02 -7.442061e-03 1.237079e-02 -9.147502e-03 4.681777e-02 2.891489e-02 4.832216e-02 3.018453e-02 7.369535e-02 1.397887e-02 -1.259533e-01 2.096460e-03 1.289656e-03 5.699878e-03 8.272170e-04 -1.863130e-03 3.958726e-05 -1.755680e-03 -1.303629e-03 -3.294084e-03 7.221946e-04 -1.186154e-03 9.023625e-04 6.537843e-03
<VARIANCE> 39
 1.005870e+01 1.206234e+01 1.697600e+01 2.014372e+01 1.874209e+01 2.116696e+01 2.396217e+01 3.627289e+01 2.687938e+01 2.400279e+01 1.972277e+01 1.692970e+01 2.766835e+01 3.541039e-01 6.095169e-01 8.693054e-01 1.023215e+00 1.146729e+00 1.373208e+00 1.514872e+00 1.895047e+00 1.530662e+00 1.365210e+00 1.352140e+00 1.315643e+00 2.770854e-01 5.865001e-02 1.035093e-01 1.595405e-01 1.848375e-01 2.199264e-01 2.692512e-01 2.915412e-01 3.774264e-01 3.018289e-01 2.565332e-01 2.611076e-01 2.595097e-01 3.517474e-02
<GCONST> 8.829060e+01
<STATE> 3
<MEAN> 39
 -4.652581e+00 4.118963e-01 -5.009483e+00 -2.220880e+00 -2.886583e+00 -3.420992e+00 -3.464542e+00 -3.529191e-03 -1.417407e+00 -4.640805e-01 -3.491346e+00 -1.818547e+00 5.054577e+01 -5.549112e-02 -2.839196e-02 -2.754782e-02 -1.326992e-03 5.640951e-03 -6.726113e-03 4.130460e-02 2.390016e-02 3.410647e-02 3.277804e-02 6.749529e-02 1.832516e-02 -9.628803e-02 1.784297e-03 1.912235e-03 6.477143e-03 3.102554e-03 -1.100963e-04 1.535825e-03 3.028763e-04 3.244828e-04 -1.859175e-03 3.930923e-05 -2.463792e-03 1.140150e-03 6.393977e-03
<VARIANCE> 39
 8.281096e+00 1.083156e+01 1.459549e+01 1.716381e+01 1.691700e+01 1.954778e+01 2.126757e+01 3.195157e+01 2.516959e+01 2.233617e+01 1.821270e+01 1.663557e+01 2.147400e+01 3.218189e-01 5.582808e-01 7.982272e-01 9.366222e-01 1.092808e+00 1.323918e+00 1.481256e+00 1.825399e+00 1.505183e+00 1.343654e+00 1.336240e+00 1.288924e+00 2.515438e-01 5.650241e-02 9.704308e-02 1.493071e-01 1.732030e-01 2.122485e-01 2.614086e-01 2.877066e-01 3.700368e-01 3.005058e-01 2.579150e-01 2.613736e-01 2.552400e-01 3.373479e-02
<GCONST> 8.570974e+01
<STATE> 4
<MEAN> 39
 -5.019294e+00 2.407535e-01 -5.023507e+00 -2.194009e+00 -2.873627e+00 -3.416879e+00 -3.259686e+00 1.884483e-01 -1.192624e+00 -2.785449e-01 -3.149449e+00 -1.695506e+00 4.996675e+01 -4.761231e-02 -2.089006e-02 8.977961e-03 1.301015e-02 1.721117e-03 2.857899e-03 3.939325e-02 2.122747e-02 1.992611e-02 3.430620e-02 5.432105e-02 2.287653e-02 -5.396825e-02 1.972657e-03 2.408840e-03 5.088727e-03 3.403792e-03 9.643706e-04 1.160183e-03 5.773781e-05 2.061085e-03 1.039165e-03 -2.269843e-04 -3.259210e-03 3.617749e-04 4.843105e-03
<VARIANCE> 39
 6.732430e+00 9.543013e+00 1.281486e+01 1.462078e+01 1.527810e+01 1.768871e+01 1.839768e+01 2.742470e+01 2.366167e+01 2.030473e+01 1.691563e+01 1.604226e+01 1.573997e+01 3.061065e-01 5.166141e-01 7.297006e-01 8.563150e-01 1.042378e+00 1.268402e+00 1.425871e+00 1.719777e+00 1.481726e+00 1.330015e+00 1.332778e+00 1.248215e+00 2.428787e-01 5.814533e-02 9.316699e-02 1.396512e-01 1.613197e-01 2.050006e-01 2.527156e-01 2.774140e-01 3.519628e-01 2.972137e-01 2.595312e-01 2.645068e-01 2.490447e-01 3.591041e-02
<GCONST> 8.315754e+01
<TRANSP> 5
 0.000000e+00 1.000000e+00 0.000000e+00 0.000000e+00 0.000000e+00
 0.000000e+00 7.825828e-01 2.174172e-01 0.000000e+00 0.000000e+00
 0.000000e+00 0.000000e+00 7.825823e-01 2.174177e-01 0.000000e+00
 0.000000e+00 0.000000e+00 0.000000e+00 9.121408e-01 8.785916e-02
 0.000000e+00 0.000000e+00 0.000000e+00 0.000000e+00 0.000000e+00
<ENDHMM>
~h "sil"
<BEGINHMM>
<NUMSTATES> 5
<STATE> 2
<MEAN> 39
 -5.060267e+00 -1.030678e+00 -5.730720e+00 -2.911719e+00 -4.101420e+00 -4.107018e+00 -3.743897e+00 -6.098344e-01 -1.141368e+00 -4.065952e-01 -2.782886e+00 -1.726306e+00 4.162407e+01 -4.865827e-01 -2.569583e-01 -6.466686e-01 -3.733028e-01 -5.611733e-01 -5.153629e-01 -4.308107e-01 -1.313579e-01 -1.801391e-01 -1.201862e-01 -2.971602e-01 -1.640671e-01 3.493348e+00 1.050024e-01 6.605168e-02 1.292933e-01 6.261921e-02 1.142956e-01 6.676141e-02 7.539193e-02 3.200109e-02 1.402577e-02 4.337579e-03 5.388705e-02 1.797456e-02 -5.622692e-01
<VARIANCE> 39
 1.121228e+01 1.098586e+01 2.015712e+01 1.602479e+01 2.011669e+01 2.147351e+01 2.225016e+01 2.136098e+01 2.069508e+01 1.801606e+01 1.500616e+01 1.427123e+01 3.011288e+02 1.096790e+00 7.373940e-01 1.957153e+00 1.482177e+00 2.048937e+00 2.174630e+00 2.304698e+00 1.686514e+00 1.702106e+00 1.441824e+00 1.559298e+00 1.302413e+00 3.219003e+01 1.288493e-01 1.132576e-01 2.225222e-01 2.179593e-01 2.913150e-01 3.214360e-01 3.578949e-01 3.251908e-01 3.068374e-01 2.801089e-01 2.822545e-01 2.438096e-01 2.194297e+00
<GCONST> 1.041616e+02
<STATE> 3
<MEAN> 39
 -6.016565e+00 -1.423920e+00 -6.894123e+00 -3.659869e+00 -5.106841e+00 -5.176239e+00 -4.426173e+00 -7.160029e-01 -1.526777e+00 -6.644772e-01 -3.353862e+00 -2.049274e+00 4.855479e+01 -1.381635e-01 -4.846402e-02 -1.814125e-01 -1.169556e-01 -1.520253e-01 -1.763906e-01 -1.047126e-01 -5.434051e-03 -7.632457e-02 -5.478477e-02 -8.837399e-02 -5.248240e-02 1.035651e+00 6.459723e-02 3.844417e-02 8.988339e-02 5.303583e-02 7.894031e-02 7.144669e-02 6.620713e-02 2.254456e-02 1.834716e-02 1.458298e-02 4.180057e-02 2.330314e-02 -5.141090e-01
<VARIANCE> 39
 8.861939e+00 1.140326e+01 1.731968e+01 1.604309e+01 1.948623e+01 2.038975e+01 2.177621e+01 2.283428e+01 2.342320e+01 2.026102e+01 1.606149e+01 1.514971e+01 3.666249e+01 7.123409e-01 5.657205e-01 1.133229e+00 1.120400e+00 1.436196e+00 1.606442e+00 1.849690e+00 1.610813e+00 1.618464e+00 1.495907e+00 1.484146e+00 1.260156e+00 1.237384e+01 1.396691e-01 1.135816e-01 2.077885e-01 2.230133e-01 2.888907e-01 3.155956e-01 3.662222e-01 3.332285e-01 3.273780e-01 3.018908e-01 3.020622e-01 2.520365e-01 1.546001e+00
<GCONST> 9.848805e+01
<STATE> 4
<MEAN> 39
 -6.240376e+00 -1.192213e+00 -6.555195e+00 -3.483319e+00 -4.891265e+00 -5.069180e+00 -4.176662e+00 -1.220084e-01 -1.257252e+00 -4.085592e-01 -3.287652e+00 -1.640279e+00 4.927579e+01 -1.041398e-02 2.293603e-02 8.842671e-03 2.987882e-02 1.826895e-02 4.726565e-04 1.018705e-02 3.341668e-02 -2.129049e-02 1.542923e-03 4.376061e-03 2.767068e-02 -6.856045e-02 6.975514e-03 5.797213e-03 1.873122e-02 2.005868e-02 1.573240e-02 1.313761e-02 1.084363e-02 1.757966e-03 6.050379e-04 6.568808e-03 5.117089e-03 2.667937e-03 -1.068396e-01
<VARIANCE> 39
 1.065315e+01 1.173190e+01 1.697404e+01 1.598514e+01 1.892030e+01 2.009425e+01 2.080894e+01 2.411609e+01 2.345643e+01 1.991101e+01 1.694551e+01 1.518995e+01 1.229134e+01 6.789294e-01 5.389398e-01 8.220193e-01 1.000854e+00 1.229215e+00 1.423220e+00 1.647548e+00 1.736166e+00 1.590422e+00 1.603719e+00 1.472679e+00 1.235794e+00 1.249334e+00 1.351693e-01 1.047727e-01 1.662667e-01 1.941489e-01 2.488880e-01 2.884973e-01 3.137964e-01 3.339441e-01 3.078950e-01 3.034882e-01 2.936546e-01 2.409250e-01 3.107610e-01
<GCONST> 9.187323e+01
<TRANSP> 5
 0.000000e+00 1.000000e+00 0.000000e+00 0.000000e+00 0.000000e+00
 0.000000e+00 7.823253e-01 2.176747e-01 0.000000e+00 0.000000e+00
 0.000000e+00 0.000000e+00 7.823256e-01 2.176744e-01 0.000000e+00
 0.000000e+00 0.000000e+00 0.000000e+00 9.123111e-01 8.768886e-02
 0.000000e+00 0.000000e+00 0.000000e+00 0.000000e+00 0.000000e+00
<ENDHMM>
