~o
<STREAMINFO> 1 39
<VECSIZE> 39<NULLD><MFCC_D_A_0><DIAGC>
~h "a"
<BEGINHMM>
<NUMSTATES> 5
<STATE> 2
<MEAN> 39
 -1.949730e+00 -1.338633e+00 -5.342989e+00 -7.702826e+00 -5.647846e+00 -4.361656e+00 -9.317176e+00 2.204002e+00 -2.559980e+00 2.591405e-01 -5.040232e+00 -2.529203e+00 6.161665e+01 2.753405e-02 1.986195e-02 3.051106e-02 -4.605123e-03 -3.510201e-04 1.210088e-02 -7.212896e-03 6.163176e-03 -7.083361e-03 5.706300e-03 -5.963694e-03 -7.573806e-03 5.621023e-02 2.184510e-05 5.408877e-04 1.557816e-03 1.663769e-03 1.246031e-03 8.438467e-04 1.309881e-03 5.286761e-04 1.531549e-03 1.844525e-04 2.022584e-04 1.031902e-03 -5.019400e-03
<VARIANCE> 39
 4.714774e+01 3.852991e+01 6.887636e+01 6.399685e+01 4.744366e+01 5.595391e+01 6.943674e+01 7.157774e+01 6.057420e+01 4.556372e+01 4.248549e+01 3.298938e+01 1.430881e+02 1.980040e+00 1.552951e+00 1.924292e+00 2.341164e+00 2.354147e+00 2.607231e+00 3.059055e+00 2.888205e+00 2.686296e+00 2.437169e+00 2.258455e+00 1.966125e+00 2.319751e+00 2.906286e-01 2.391914e-01 2.822931e-01 3.941111e-01 4.018153e-01 4.484726e-01 5.382976e-01 4.942554e-01 4.669505e-01 4.319161e-01 4.074304e-01 3.554209e-01 2.931783e-01
<GCONST> 1.222728e+02
<STATE> 3
<MEAN> 39
 -1.818748e+00 -1.241905e+00 -5.182519e+00 -7.695523e+00 -5.641219e+00 -4.301838e+00 -9.331310e+00 2.238322e+00 -2.571198e+00 2.883544e-01 -5.064193e+00 -2.552402e+00 6.183915e+01 2.678173e-02 2.188180e-02 3.494908e-02 3.882573e-03 3.494435e-03 1.330307e-02 -7.841415e-04 7.469554e-03 -8.786747e-04 6.600932e-03 -4.831750e-03 -3.635218e-03 4.452853e-02 -8.520531e-05 2.935468e-04 7.349970e-04 1.876785e-03 9.463690e-04 3.346596e-04 1.468461e-03 3.482519e-04 1.447674e-03 2.288727e-04 2.536192e-04 8.305280e-04 -2.662156e-03
<VARIANCE> 39
 4.657482e+01 3.918343e+01 7.060256e+01 6.506115e+01 4.833230e+01 5.667964e+01 6.987694e+01 7.254680e+01 6.103848e+01 4.607625e+01 4.287350e+01 3.310876e+01 1.422711e+02 1.995889e+00 1.573064e+00 1.968422e+00 2.365000e+00 2.391934e+00 2.641760e+00 3.090395e+00 2.907669e+00 2.702456e+00 2.454829e+00 2.282806e+00 1.973001e+00 2.355015e+00 2.938131e-01 2.420046e-01 2.884782e-01 3.970707e-01 4.065889e-01 4.532279e-01 5.433240e-01 4.958992e-01 4.693977e-01 4.344038e-01 4.123697e-01 3.565660e-01 2.912866e-01
<GCONST> 1.226443e+02
<STATE> 4
<MEAN> 39
 -1.572259e+00 -9.485532e-01 -4.659105e+00 -7.602139e+00 -5.772412e+00 -3.943791e+00 -9.349279e+00 2.365893e+00 -2.307743e+00 3.318970e-01 -5.182835e+00 -2.486029e+00 6.199953e+01 2.101919e-02 2.031800e-02 3.125444e-02 1.490950e-02 2.923061e-03 7.655900e-03 7.479913e-03 3.712289e-04 1.509120e-03 2.880456e-03 -5.375053e-03 -1.652996e-03 1.862143e-02 -7.000882e-04 -2.947475e-04 -6.496636e-04 1.052883e-03 1.807688e-04 -4.494316e-04 9.161900e-04 -7.100573e-04 3.989690e-04 -3.712036e-04 -3.907993e-05 2.261071e-04 -2.667598e-03
<VARIANCE> 39
 4.513280e+01 4.013257e+01 7.413303e+01 6.498796e+01 5.171394e+01 5.745702e+01 7.032974e+01 7.235969e+01 6.162247e+01 4.541102e+01 4.340954e+01 3.211801e+01 1.400114e+02 2.031633e+00 1.604619e+00 2.028438e+00 2.358095e+00 2.493519e+00 2.668276e+00 3.098328e+00 2.879619e+00 2.700379e+00 2.445833e+00 2.307826e+00 1.948674e+00 2.384169e+00 3.005069e-01 2.454607e-01 2.969794e-01 3.949488e-01 4.182811e-01 4.550834e-01 5.439355e-01 4.900769e-01 4.691333e-01 4.328221e-01 4.168830e-01 3.536816e-01 2.945122e-01
<GCONST> 1.229378e+02
<TRANSP> 5
 0.000000e+00 1.000000e+00 0.000000e+00 0.000000e+00 0.000000e+00
 0.000000e+00 7.833565e-01 2.166435e-01 0.000000e+00 0.000000e+00
 0.000000e+00 0.000000e+00 7.833582e-01 2.166417e-01 0.000000e+00
 0.000000e+00 0.000000e+00 0.000000e+00 9.140192e-01 8.598087e-02
 0.000000e+00 0.000000e+00 0.000000e+00 0.000000e+00 0.000000e+00
<ENDHMM>
~h "b"
<BEGINHMM>
<NUMSTATES> 5
<STATE> 2
<MEAN> 39
 -1.511018e+00 2.083983e+00 -9.257813e-01 -4.756750e+00 -5.720945e+00 -4.387784e+00 -7.667095e+00 3.793530e-01 -4.264271e+00 9.180512e-01 -6.193564e+00 -1.638655e+00 5.929456e+01 -6.901382e-02 -2.686379e-02 -9.348390e-02 1.651122e-01 1.127826e-01 6.763307e-02 1.465892e-01 -1.385115e-02 5.278373e-02 -9.689044e-02 4.712541e-02 -1.981756e-03 -2.620080e-01 -1.450154e-03 -3.192730e-03 -4.209035e-03 -3.502612e-03 2.515282e-03 1.755968e-03 2.725822e-03 3.020208e-03 2.571221e-03 -3.104082e-04 1.424647e-03 -1.288366e-03 -9.801686e-04
<VARIANCE> 39
 3.710799e+01 2.742917e+01 7.049702e+01 6.956231e+01 5.862172e+01 5.059751e+01 5.711176e+01 8.750630e+01 5.263262e+01 4.489997e+01 4.992017e+01 2.281951e+01 9.329086e+01 1.737424e+00 1.438027e+00 2.141047e+00 2.349426e+00 2.380896e+00 2.183988e+00 2.487388e+00 2.697367e+00 2.320831e+00 2.217008e+00 1.960191e+00 1.832363e+00 1.268989e+00 2.679665e-01 2.490912e-01 3.306406e-01 3.666541e-01 3.831306e-01 3.852127e-01 4.374702e-01 4.715677e-01 4.349126e-01 3.736317e-01 3.606595e-01 3.568652e-01 1.780910e-01
<GCONST> 1.182905e+02
<STATE> 3
<MEAN> 39
 -1.827048e+00 1.935510e+00 -1.393516e+00 -4.056596e+00 -5.193035e+00 -4.095553e+00 -6.996166e+00 3.495247e-01 -4.015318e+00 4.828092e-01 -5.981584e+00 -1.653752e+00 5.812405e+01 -7.531483e-02 -3.990953e-02 -1.094156e-01 1.474278e-01 1.207672e-01 7.286000e-02 1.563209e-01 -1.566885e-03 6.432212e-02 -9.541251e-02 5.298975e-02 -7.213720e-03 -2.635455e-01 -1.496409e-03 -2.541458e-03 -2.846323e-03 -5.073490e-03 1.067896e-03 1.454060e-04 1.262922e-03 2.669028e-03 2.305881e-03 1.720626e-03 1.119566e-03 -8.192165e-04 7.152185e-04
<VARIANCE> 39
 3.390578e+01 2.515319e+01 6.250464e+01 6.340484e+01 5.336220e+01 4.584810e+01 5.427458e+01 8.231331e+01 4.953072e+01 4.241579e+01 4.581289e+01 2.214091e+01 8.967937e+01 1.464200e+00 1.297683e+00 1.901478e+00 2.107977e+00 2.158497e+00 2.016888e+00 2.300350e+00 2.577062e+00 2.189300e+00 2.052442e+00 1.865148e+00 1.766220e+00 1.058881e+00 2.232799e-01 2.209853e-01 2.963975e-01 3.309055e-01 3.492920e-01 3.574329e-01 4.052463e-01 4.545485e-01 4.118755e-01 3.449101e-01 3.439491e-01 3.439508e-01 1.468028e-01
<GCONST> 1.149109e+02
<STATE> 4
<MEAN> 39
 -2.422047e+00 1.636864e+00 -2.120220e+00 -3.091605e+00 -4.307101e+00 -3.538559e+00 -5.830190e+00 5.686435e-01 -3.330044e+00 -1.263170e-01 -5.643707e+00 -1.673638e+00 5.621310e+01 -8.003962e-02 -5.113951e-02 -1.215982e-01 1.078365e-01 1.159641e-01 5.834761e-02 1.507986e-01 1.242315e-02 7.428813e-02 -7.631990e-02 5.587178e-02 -9.694644e-03 -2.455928e-01 -1.043383e-03 -1.132244e-03 -4.934510e-04 -5.894974e-03 -1.489652e-03 -1.860761e-03 -1.404599e-03 1.571242e-03 1.377646e-03 3.816371e-03 9.243980e-04 -4.441827e-05 2.727538e-03
<VARIANCE> 39
 2.779713e+01 2.195479e+01 5.103997e+01 5.330113e+01 4.573019e+01 3.815210e+01 4.780820e+01 7.155660e+01 4.470433e+01 3.804086e+01 3.869462e+01 2.077892e+01 8.110058e+01 1.048917e+00 1.102538e+00 1.558022e+00 1.750521e+00 1.863163e+00 1.795870e+00 1.973180e+00 2.370236e+00 2.032484e+00 1.821414e+00 1.694981e+00 1.629345e+00 7.697358e-01 1.578467e-01 1.831824e-01 2.479836e-01 2.784144e-01 3.064430e-01 3.227577e-01 3.495108e-01 4.288968e-01 3.856720e-01 3.071480e-01 3.133276e-01 3.171449e-01 1.034306e-01
<GCONST> 1.089492e+02
<TRANSP> 5
 0.000000e+00 1.000000e+00 0.000000e+00 0.000000e+00 0.000000e+00
 0.000000e+00 7.787141e-01 2.212859e-01 0.000000e+00 0.000000e+00
 0.000000e+00 0.000000e+00 7.787140e-01 2.212859e-01 0.000000e+00
 0.000000e+00 0.000000e+00 0.000000e+00 9.077908e-01 9.220922e-02
 0.000000e+00 0.000000e+00 0.000000e+00 0.000000e+00 0.000000e+00
<ENDHMM>
~h "c"
<BEGINHMM>
<NUMSTATES> 5
<STATE> 2
<MEAN> 39
 -1.327603e+00 1.268719e+00 1.131601e-01 -5.507067e+00 -7.378819e+00 -5.053397e+00 -7.837892e+00 -2.793105e+00 -3.210295e+00 -1.007082e+00 -6.571804e+00 -2.534542e+00 6.221627e+01 -8.599561e-02 5.548181e-02 1.047373e-02 2.040960e-01 1.034767e-01 5.355525e-02 1.549774e-01 8.296441e-03 2.172449e-02 4.972616e-02 8.325581e-02 2.612368e-02 -3.459986e-01 -7.138001e-04 -5.918336e-03 -1.294409e-02 9.608814e-04 7.269261e-03 3.691735e-03 2.342990e-03 1.113704e-02 6.110955e-03 -3.108128e-03 2.924431e-03 5.757025e-04 -5.133279e-03
<VARIANCE> 39
 3.445914e+01 4.303244e+01 8.078603e+01 7.692262e+01 6.319333e+01 6.197939e+01 7.284563e+01 8.444758e+01 5.259361e+01 5.247272e+01 5.410555e+01 2.539627e+01 1.010975e+02 1.937532e+00 1.739268e+00 2.786176e+00 2.801690e+00 3.024068e+00 3.024617e+00 2.763226e+00 2.911672e+00 2.610013e+00 2.785745e+00 2.345039e+00 1.802615e+00 1.676858e+00 2.875960e-01 2.597396e-01 4.241914e-01 4.163126e-01 4.898684e-01 5.201272e-01 4.847251e-01 4.712600e-01 4.653735e-01 4.936015e-01 4.449458e-01 3.305062e-01 2.125944e-01
<GCONST> 1.238779e+02
<STATE> 3
<MEAN> 39
 -1.728980e+00 1.472229e+00 5.605507e-02 -4.610793e+00 -6.856595e+00 -4.818822e+00 -7.120507e+00 -2.685314e+00 -3.075449e+00 -8.231191e-01 -6.199254e+00 -2.420480e+00 6.063337e+01 -8.922569e-02 3.110380e-02 -4.300603e-02 2.031647e-01 1.324767e-01 6.754786e-02 1.609201e-01 5.483644e-02 4.723857e-02 3.695075e-02 9.412728e-02 2.740518e-02 -3.624472e-01 -6.649517e-04 -5.211297e-03 -1.063741e-02 -1.788819e-03 5.709935e-03 2.738846e-03 1.383519e-03 1.013209e-02 5.146611e-03 -2.746376e-03 2.356373e-03 -2.380303e-04 -1.555916e-03
<VARIANCE> 39
 3.123995e+01 3.792856e+01 7.325197e+01 7.056208e+01 6.105742e+01 5.584310e+01 6.836357e+01 7.798375e+01 4.850901e+01 4.737948e+01 5.158725e+01 2.372987e+01 9.914460e+01 1.685572e+00 1.594234e+00 2.542528e+00 2.612751e+00 2.793464e+00 2.814775e+00 2.572727e+00 2.699363e+00 2.429380e+00 2.605026e+00 2.258992e+00 1.742447e+00 1.381893e+00 2.494632e-01 2.389247e-01 3.880642e-01 3.901340e-01 4.538260e-01 4.875362e-01 4.572181e-01 4.400872e-01 4.393281e-01 4.637132e-01 4.299404e-01 3.254041e-01 1.757842e-01
<GCONST> 1.207722e+02
<STATE> 4
<MEAN> 39
 -2.409782e+00 1.542572e+00 -4.869623e-01 -3.258143e+00 -5.671464e+00 -4.134087e+00 -5.796387e+00 -1.839651e+00 -2.425618e+00 -5.220162e-01 -5.467885e+00 -2.238647e+00 5.797975e+01 -9.397365e-02 5.706345e-03 -9.533562e-02 1.685809e-01 1.524784e-01 6.374313e-02 1.529842e-01 9.687094e-02 6.915805e-02 2.165883e-02 9.469293e-02 2.206380e-02 -3.496985e-01 1.314203e-04 -3.390492e-03 -5.696761e-03 -5.616284e-03 1.503794e-03 7.862439e-04 -1.153393e-03 6.404919e-03 3.288921e-03 -1.234315e-03 1.030731e-03 -9.608194e-04 3.974449e-03
<VARIANCE> 39
 2.561282e+01 3.061289e+01 6.309551e+01 5.535166e+01 5.667906e+01 4.590192e+01 6.017981e+01 6.706728e+01 4.373849e+01 3.946389e+01 4.482013e+01 2.129315e+01 9.143494e+01 1.257766e+00 1.363612e+00 2.123746e+00 2.156757e+00 2.464126e+00 2.503643e+00 2.319035e+00 2.396843e+00 2.175305e+00 2.275285e+00 2.084473e+00 1.664890e+00 1.022259e+00 1.859200e-01 2.059572e-01 3.257254e-01 3.330368e-01 4.009232e-01 4.400065e-01 4.195351e-01 3.975745e-01 4.016017e-01 4.116011e-01 3.993145e-01 3.191297e-01 1.307441e-01
<GCONST> 1.150547e+02
<TRANSP> 5
 0.000000e+00 1.000000e+00 0.000000e+00 0.000000e+00 0.000000e+00
 0.000000e+00 7.768735e-01 2.231265e-01 0.000000e+00 0.000000e+00
 0.000000e+00 0.000000e+00 7.768735e-01 2.231266e-01 0.000000e+00
 0.000000e+00 0.000000e+00 0.000000e+00 9.058742e-01 9.412581e-02
 0.000000e+00 0.000000e+00 0.000000e+00 0.000000e+00 0.000000e+00
<ENDHMM>
~h "h"
<BEGINHMM>
<NUMSTATES> 5
<STATE> 2
<MEAN> 39
 -3.030029e+00 -1.619004e+00 -6.250294e+00 -7.912411e+00 -4.828757e+00 -4.532254e+00 -9.366897e+00 1.586074e+00 -3.115174e+00 -1.112212e+00 -4.187661e+00 -9.472959e-01 5.989902e+01 1.250660e-01 -4.869226e-02 -1.916561e-02 -2.096700e-01 -4.602147e-02 1.340599e-02 -1.778555e-01 3.536819e-02 -7.709721e-02 -2.109504e-02 -6.264178e-02 -6.955606e-02 3.895709e-01 1.196347e-03 -4.415208e-03 -3.707754e-03 -2.027442e-03 -2.053392e-03 -3.171405e-04 1.700867e-03 4.814671e-03 1.853832e-03 -2.620463e-04 -1.717098e-03 -3.850636e-03 2.159789e-03
<VARIANCE> 39
 5.658972e+01 3.422572e+01 4.503247e+01 7.138730e+01 4.596287e+01 6.313149e+01 7.727293e+01 6.453598e+01 4.503605e+01 4.816463e+01 3.408109e+01 3.468047e+01 1.480403e+02 2.343094e+00 1.585068e+00 1.425303e+00 2.418955e+00 2.062475e+00 2.682343e+00 3.473148e+00 3.068826e+00 2.601895e+00 2.639005e+00 2.107168e+00 2.007500e+00 2.582930e+00 2.935407e-01 2.508691e-01 2.063299e-01 4.075246e-01 3.387366e-01 4.658111e-01 6.070926e-01 5.263363e-01 4.544947e-01 4.632396e-01 3.895856e-01 3.718067e-01 3.065305e-01
<GCONST> 1.217637e+02
<STATE> 3
<MEAN> 39
 -2.419386e+00 -1.903240e+00 -6.390121e+00 -8.880331e+00 -5.060680e+00 -4.442312e+00 -1.015175e+01 1.843289e+00 -3.435532e+00 -1.199196e+00 -4.493087e+00 -1.316047e+00 6.168502e+01 1.280630e-01 -6.495613e-02 -3.168442e-02 -2.071965e-01 -5.104526e-02 1.309007e-02 -1.609008e-01 6.166922e-02 -6.273641e-02 -1.985135e-02 -6.667451e-02 -8.202738e-02 3.862267e-01 8.590892e-05 -3.152467e-03 -2.892864e-03 1.374739e-03 -7.521771e-04 4.375121e-05 4.466611e-03 5.904331e-03 3.553631e-03 1.751585e-04 -5.692146e-04 -2.246323e-03 -2.282172e-03
<VARIANCE> 39
 5.867204e+01 3.843650e+01 4.988216e+01 7.535595e+01 4.854723e+01 6.936962e+01 7.989508e+01 7.179414e+01 4.790147e+01 5.401368e+01 3.648333e+01 3.717229e+01 1.554561e+02 2.426876e+00 1.684820e+00 1.513369e+00 2.643972e+00 2.124444e+00 2.847639e+00 3.647545e+00 3.183366e+00 2.737719e+00 2.744223e+00 2.211487e+00 2.056324e+00 2.858271e+00 3.091131e-01 2.609676e-01 2.149484e-01 4.466539e-01 3.434803e-01 4.878313e-01 6.330248e-01 5.348844e-01 4.741729e-01 4.728957e-01 4.047609e-01 3.755929e-01 3.387454e-01
<GCONST> 1.239607e+02
<STATE> 4
<MEAN> 39
 -1.218954e+00 -2.513828e+00 -6.697030e+00 -1.038766e+01 -5.618885e+00 -3.799001e+00 -1.144671e+01 2.964850e+00 -3.663719e+00 -1.073910e+00 -5.077544e+00 -2.001237e+00 6.454633e+01 1.141149e-01 -6.558917e-02 -2.829676e-02 -1.552549e-01 -5.348909e-02 1.267140e-02 -1.131193e-01 9.544771e-02 -3.109805e-02 -8.184254e-03 -6.403499e-02 -7.696212e-02 3.142914e-01 -2.374175e-03 4.331465e-04 -9.797048e-05 5.173714e-03 3.578048e-05 -1.057290e-03 5.425165e-03 2.846925e-03 3.547921e-03 6.180792e-04 3.508269e-04 9.659158e-04 -7.990729e-03
<VARIANCE> 39
 5.950475e+01 4.597906e+01 5.515007e+01 7.628569e+01 5.208970e+01 8.109631e+01 8.140261e+01 7.970011e+01 5.260238e+01 6.110943e+01 4.135536e+01 3.903435e+01 1.534564e+02 2.565340e+00 1.841563e+00 1.649196e+00 2.930627e+00 2.287586e+00 3.139402e+00 3.790960e+00 3.212808e+00 2.899180e+00 2.801590e+00 2.384886e+00 2.070971e+00 3.186347e+00 3.435099e-01 2.748426e-01 2.321214e-01 4.953001e-01 3.625452e-01 5.241188e-01 6.556348e-01 5.229222e-01 5.005333e-01 4.748439e-01 4.259124e-01 3.706500e-01 3.831819e-01
<GCONST> 1.265115e+02
<TRANSP> 5
 0.000000e+00 1.000000e+00 0.000000e+00 0.000000e+00 0.000000e+00
 0.000000e+00 7.864495e-01 2.135505e-01 0.000000e+00 0.000000e+00
 0.000000e+00 0.000000e+00 7.864500e-01 2.135500e-01 0.000000e+00
 0.000000e+00 0.000000e+00 0.000000e+00 9.175041e-01 8.249587e-02
 0.000000e+00 0.000000e+00 0.000000e+00 0.000000e+00 0.000000e+00
<ENDHMM>
~h "i"
<BEGINHMM>
<NUMSTATES> 5
<STATE> 2
<MEAN> 39
 -3.381556e+00 -8.789653e-02 -4.345175e+00 -4.280602e+00 -4.473251e+00 -4.118191e+00 -6.272913e+00 5.229380e-01 -2.389440e+00 -2.249131e-01 -4.213846e+00 -1.772066e+00 5.618739e+01 -2.111187e-04 -2.739002e-03 -3.461466e-02 -1.746256e-02 3.009927e-02 3.530845e-02 -3.540087e-03 5.115044e-02 2.012236e-02 -4.661103e-03 1.985869e-02 1.109527e-02 -1.684323e-03 1.186300e-03 -1.594692e-03 -7.673195e-04 -6.201786e-03 -3.655263e-03 -3.577769e-03 -4.298247e-03 -9.838841e-05 -1.488179e-03 -5.744832e-04 -1.415589e-03 -1.067062e-03 6.408297e-03
<VARIANCE> 39
 3.095529e+01 2.557320e+01 4.598640e+01 4.809195e+01 4.093116e+01 4.039446e+01 5.257475e+01 5.672072e+01 4.268519e+01 3.481718e+01 3.266509e+01 2.616516e+01 1.012654e+02 1.311691e+00 1.186570e+00 1.458707e+00 1.865251e+00 1.924729e+00 2.073092e+00 2.411365e+00 2.397473e+00 2.188117e+00 2.024615e+00 1.930132e+00 1.722708e+00 1.589328e+00 1.846616e-01 1.912362e-01 2.226808e-01 3.099970e-01 3.250595e-01 3.670695e-01 4.328953e-01 4.291487e-01 3.988244e-01 3.678482e-01 3.615740e-01 3.322704e-01 1.849159e-01
<GCONST> 1.123190e+02
<STATE> 3
<MEAN> 39
 -3.367993e+00 -1.211819e-01 -4.519189e+00 -4.429615e+00 -4.386498e+00 -3.994270e+00 -6.352812e+00 7.345744e-01 -2.331848e+00 -2.589507e-01 -4.150817e+00 -1.739398e+00 5.625316e+01 5.647596e-03 -1.057182e-02 -3.826220e-02 -4.445755e-02 1.303125e-02 1.972803e-02 -2.203782e-02 4.975529e-02 1.362309e-02 -6.771208e-03 1.223464e-02 5.125143e-03 2.689064e-02 1.410164e-03 -1.461620e-03 -1.592822e-04 -5.374294e-03 -3.721470e-03 -3.394921e-03 -3.793150e-03 -5.776305e-04 -1.528494e-03 -5.231081e-04 -1.832629e-03 -1.497903e-03 6.349958e-03
<VARIANCE> 39
 3.093076e+01 2.522032e+01 4.391115e+01 4.934290e+01 4.090310e+01 4.079828e+01 5.474116e+01 5.632560e+01 4.221394e+01 3.479770e+01 3.204104e+01 2.634385e+01 1.057575e+02 1.309338e+00 1.181730e+00 1.408675e+00 1.843565e+00 1.898191e+00 2.070848e+00 2.465600e+00 2.415515e+00 2.182970e+00 2.000056e+00 1.926597e+00 1.732694e+00 1.612030e+00 1.819261e-01 1.895832e-01 2.138434e-01 3.084983e-01 3.184841e-01 3.666985e-01 4.432210e-01 4.330051e-01 3.972383e-01 3.628536e-01 3.590998e-01 3.339324e-01 1.861642e-01
<GCONST> 1.122409e+02
<STATE> 4
<MEAN> 39
 -3.199387e+00 -2.546336e-01 -4.774782e+00 -5.031976e+00 -4.474695e+00 -3.740674e+00 -6.804197e+00 1.280455e+00 -2.223555e+00 -3.405184e-01 -4.234877e+00 -1.690207e+00 5.682262e+01 1.806823e-02 -2.144106e-02 -4.096242e-02 -7.208431e-02 -7.712467e-03 5.958797e-03 -4.072512e-02 4.746368e-02 6.125299e-03 -5.421324e-03 -1.834217e-03 -7.000178e-03 6.455762e-02 1.400966e-03 -8.835176e-04 4.518051e-04 -2.403711e-03 -2.127999e-03 -1.692513e-03 -1.242616e-03 -5.160109e-06 -4.912995e-04 3.353402e-05 -1.303960e-03 -1.325435e-03 4.160665e-03
<VARIANCE> 39
 3.323989e+01 2.695967e+01 4.234905e+01 5.385326e+01 4.275921e+01 4.361294e+01 5.992723e+01 5.697041e+01 4.295414e+01 3.544814e+01 3.317526e+01 2.680575e+01 1.179948e+02 1.392126e+00 1.223854e+00 1.357207e+00 1.865734e+00 1.921201e+00 2.124135e+00 2.568306e+00 2.449109e+00 2.204712e+00 2.002351e+00 1.964973e+00 1.755482e+00 1.669620e+00 1.915925e-01 1.930581e-01 2.040159e-01 3.151775e-01 3.160766e-01 3.744202e-01 4.601909e-01 4.360045e-01 3.990847e-01 3.616702e-01 3.611457e-01 3.351516e-01 1.928292e-01
<GCONST> 1.132314e+02
<TRANSP> 5
 0.000000e+00 1.000000e+00 0.000000e+00 0.000000e+00 0.000000e+00
 0.000000e+00 7.805604e-01 2.194397e-01 0.000000e+00 0.000000e+00
 0.000000e+00 0.000000e+00 7.805599e-01 2.194401e-01 0.000000e+00
 0.000000e+00 0.000000e+00 0.000000e+00 9.106188e-01 8.938120e-02
 0.000000e+00 0.000000e+00 0.000000e+00 0.000000e+00 0.000000e+00
<ENDHMM>
~h "j"
<BEGINHMM>
<NUMSTATES> 5
<STATE> 2
<MEAN> 39
 -8.210061e-01 1.294124e+00 -2.080441e+00 -6.261795e+00 -4.941651e+00 -5.092244e+00 -8.773090e+00 -2.013159e+00 -4.118907e+00 -7.257968e-01 -5.340781e+00 -2.824607e+00 6.144606e+01 -9.038370e-02 3.405181e-02 2.753255e-02 1.939956e-01 1.306146e-02 3.330713e-02 1.161623e-01 -1.004624e-01 3.754301e-02 -1.690659e-02 1.381171e-02 1.530659e-02 -2.990437e-01 -4.084865e-04 -2.874964e-03 -8.084858e-03 -3.172095e-03 2.163470e-03 2.044863e-03 8.272883e-04 5.444660e-03 3.453597e-03 1.247993e-03 9.374430e-04 1.154431e-04 -4.472163e-03
<VARIANCE> 39
 3.265979e+01 4.486252e+01 6.593451e+01 7.540257e+01 4.561212e+01 4.604222e+01 6.018181e+01 7.960108e+01 6.605678e+01 5.529937e+01 4.488415e+01 2.729457e+01 1.061415e+02 1.709025e+00 1.691255e+00 2.540223e+00 2.809482e+00 2.433111e+00 2.729156e+00 2.774301e+00 2.858422e+00 2.955499e+00 2.709249e+00 2.442962e+00 2.075436e+00 1.792026e+00 2.658122e-01 2.498463e-01 3.795609e-01 4.547327e-01 4.300523e-01 4.774136e-01 4.785275e-01 4.762402e-01 5.353037e-01 4.298852e-01 4.466727e-01 3.701178e-01 2.376034e-01
<GCONST> 1.226220e+02
<STATE> 3
<MEAN> 39
 -1.232386e+00 1.414004e+00 -2.041848e+00 -5.417999e+00 -4.859526e+00 -4.930824e+00 -8.237989e+00 -2.420422e+00 -3.925961e+00 -7.911450e-01 -5.270412e+00 -2.773189e+00 6.005579e+01 -9.170806e-02 2.171347e-02 -8.340569e-03 1.773762e-01 2.186922e-02 4.153081e-02 1.192533e-01 -7.507129e-02 5.238230e-02 -1.102637e-02 1.866704e-02 1.709539e-02 -3.154885e-01 -2.274835e-04 -2.687203e-03 -7.683033e-03 -4.667122e-03 1.998028e-03 1.168141e-03 6.366000e-04 6.598272e-03 3.222538e-03 1.536230e-03 1.565291e-03 4.008833e-04 -2.418872e-03
<VARIANCE> 39
 3.044129e+01 4.017326e+01 5.963963e+01 6.957899e+01 4.347176e+01 4.230955e+01 5.764769e+01 7.389653e+01 6.154729e+01 5.289707e+01 4.341346e+01 2.554057e+01 1.028950e+02 1.518376e+00 1.530582e+00 2.353912e+00 2.633948e+00 2.227233e+00 2.502707e+00 2.543339e+00 2.653219e+00 2.731607e+00 2.567355e+00 2.317023e+00 1.946711e+00 1.505013e+00 2.349017e-01 2.276428e-01 3.556031e-01 4.227844e-01 3.941911e-01 4.391521e-01 4.436290e-01 4.412112e-01 4.961129e-01 4.067038e-01 4.245363e-01 3.508060e-01 1.981082e-01
<GCONST> 1.195502e+02
<STATE> 4
<MEAN> 39
 -1.990919e+00 1.553544e+00 -2.257162e+00 -4.238559e+00 -4.500494e+00 -4.418138e+00 -7.268702e+00 -2.486679e+00 -3.262613e+00 -8.518764e-01 -5.045353e+00 -2.672568e+00 5.749456e+01 -8.926756e-02 2.037665e-03 -5.723992e-02 1.371156e-01 2.978043e-02 4.120753e-02 1.165876e-01 -3.342427e-02 6.493817e-02 -7.956335e-04 2.795776e-02 1.673139e-02 -3.093123e-01 2.516117e-04 -1.950943e-03 -5.187580e-03 -5.698758e-03 8.751550e-04 -5.666208e-04 -4.669926e-04 6.616946e-03 2.093887e-03 1.616321e-03 1.791609e-03 6.370677e-04 1.594950e-03
<VARIANCE> 39
 2.581909e+01 3.168467e+01 4.958158e+01 5.699891e+01 3.880161e+01 3.593557e+01 5.197493e+01 6.401492e+01 5.322847e+01 4.636839e+01 3.930968e+01 2.231733e+01 9.233102e+01 1.186478e+00 1.238965e+00 1.969139e+00 2.247263e+00 1.911224e+00 2.128550e+00 2.178324e+00 2.298972e+00 2.340575e+00 2.289370e+00 2.111140e+00 1.730360e+00 1.074779e+00 1.825750e-01 1.874768e-01 3.039115e-01 3.581982e-01 3.397621e-01 3.786264e-01 3.882137e-01 3.832136e-01 4.265409e-01 3.684623e-01 3.907567e-01 3.182538e-01 1.391061e-01
<GCONST> 1.132714e+02
<TRANSP> 5
 0.000000e+00 1.000000e+00 0.000000e+00 0.000000e+00 0.000000e+00
 0.000000e+00 7.817807e-01 2.182193e-01 0.000000e+00 0.000000e+00
 0.000000e+00 0.000000e+00 7.817808e-01 2.182192e-01 0.000000e+00
 0.000000e+00 0.000000e+00 0.000000e+00 9.110267e-01 8.897327e-02
 0.000000e+00 0.000000e+00 0.000000e+00 0.000000e+00 0.000000e+00
<ENDHMM>
~h "k"
<BEGINHMM>
<NUMSTATES> 5
<STATE> 2
<MEAN> 39
 1.181802e+00 -2.421988e+00 -5.010418e+00 -1.117403e+01 -8.009191e+00 -4.906965e+00 -1.249379e+01 3.186499e+00 -2.300958e+00 -2.879209e-01 -7.897908e+00 -2.700094e+00 6.929028e+01 -3.017287e-03 7.858802e-02 1.141014e-01 5.727934e-02 -2.385701e-03 -2.737371e-02 3.842673e-02 -8.525924e-02 -5.267953e-02 3.779861e-03 -7.214364e-03 1.251970e-02 -4.495867e-02 -3.161466e-03 4.490904e-03 5.839074e-03 2.990552e-03 -3.503216e-04 1.408495e-03 2.003979e-03 -6.349513e-03 -2.011816e-03 2.116439e-03 2.338443e-03 -9.997853e-05 -4.719619e-03
<VARIANCE> 39
 3.922738e+01 5.433340e+01 7.886297e+01 6.263932e+01 5.780557e+01 8.795142e+01 7.389180e+01 1.015814e+02 7.457597e+01 7.405525e+01 5.012877e+01 3.785965e+01 8.418769e+01 2.279706e+00 2.253230e+00 2.459274e+00 3.057831e+00 3.102182e+00 3.790852e+00 4.029936e+00 4.005678e+00 3.273655e+00 3.053949e+00 2.664351e+00 2.478390e+00 3.638006e+00 3.625481e-01 3.360625e-01 3.684769e-01 5.020275e-01 5.078728e-01 6.461493e-01 6.901749e-01 6.579037e-01 5.482804e-01 5.158335e-01 4.591850e-01 4.284636e-01 4.815359e-01
<GCONST> 1.309680e+02
<STATE> 3
<MEAN> 39
 1.127114e+00 -2.031402e+00 -4.447530e+00 -1.087916e+01 -8.012647e+00 -5.024266e+00 -1.227857e+01 2.756626e+00 -2.547400e+00 -2.627352e-01 -7.891319e+00 -2.638973e+00 6.902985e+01 -1.697423e-02 9.679273e-02 1.375776e-01 6.999175e-02 -4.255606e-03 -2.157699e-02 4.807421e-02 -1.093676e-01 -5.977778e-02 1.272420e-02 3.420657e-03 1.167949e-02 -6.665519e-02 -3.105518e-03 3.645731e-03 4.710211e-03 2.774827e-03 -5.311714e-04 1.266561e-03 1.913463e-03 -4.548232e-03 -1.106303e-03 2.195020e-03 2.194330e-03 -2.083018e-04 -4.747991e-03
<VARIANCE> 39
 3.918832e+01 5.604476e+01 8.317805e+01 6.431353e+01 5.889906e+01 8.619060e+01 7.295955e+01 1.044714e+02 7.469812e+01 7.411356e+01 5.180905e+01 3.696606e+01 8.243798e+01 2.333346e+00 2.287243e+00 2.598312e+00 3.113719e+00 3.207482e+00 3.800416e+00 3.984713e+00 4.032228e+00 3.291995e+00 3.113930e+00 2.657989e+00 2.434716e+00 3.532015e+00 3.714541e-01 3.461454e-01 3.959908e-01 5.127855e-01 5.279285e-01 6.465424e-01 6.828122e-01 6.635417e-01 5.544763e-01 5.314988e-01 4.609554e-01 4.239178e-01 4.698949e-01
<GCONST> 1.313939e+02
<STATE> 4
<MEAN> 39
 8.978734e-01 -1.278209e+00 -3.218835e+00 -1.003932e+01 -8.076443e+00 -4.689017e+00 -1.186787e+01 2.035188e+00 -2.600074e+00 2.384441e-02 -7.638427e+00 -2.485690e+00 6.824263e+01 -4.017840e-02 1.124324e-01 1.557390e-01 9.258254e-02 -9.380905e-04 -1.499399e-02 7.403123e-02 -1.225315e-01 -5.883209e-02 2.095762e-02 2.396146e-02 1.132759e-02 -1.126132e-01 -2.528122e-03 1.540877e-03 1.503913e-03 2.752898e-03 1.156330e-04 1.251570e-03 2.152158e-03 -1.206530e-03 4.826310e-04 1.698255e-03 1.800755e-03 -7.773505e-05 -5.517993e-03
<VARIANCE> 39
 4.007804e+01 5.673780e+01 9.144308e+01 6.643886e+01 6.333054e+01 8.238454e+01 7.259842e+01 1.055629e+02 7.442323e+01 6.986026e+01 5.389648e+01 3.454439e+01 8.396054e+01 2.394291e+00 2.270998e+00 2.815658e+00 3.070421e+00 3.371126e+00 3.753870e+00 3.887990e+00 3.943513e+00 3.221952e+00 3.077281e+00 2.637005e+00 2.299494e+00 3.228127e+00 3.751004e-01 3.521372e-01 4.325796e-01 5.082633e-01 5.532667e-01 6.349620e-01 6.627775e-01 6.486216e-01 5.460915e-01 5.342791e-01 4.638070e-01 4.064346e-01 4.307530e-01
<GCONST> 1.313530e+02
<TRANSP> 5
 0.000000e+00 1.000000e+00 0.000000e+00 0.000000e+00 0.000000e+00
 0.000000e+00 7.778172e-01 2.221828e-01 0.000000e+00 0.000000e+00
 0.000000e+00 0.000000e+00 7.778177e-01 2.221823e-01 0.000000e+00
 0.000000e+00 0.000000e+00 0.000000e+00 9.068925e-01 9.310756e-02
 0.000000e+00 0.000000e+00 0.000000e+00 0.000000e+00 0.000000e+00
<ENDHMM>
~h "l"
<BEGINHMM>
<NUMSTATES> 5
<STATE> 2
<MEAN> 39
 -4.471078e+00 -1.989016e+00 -6.374973e+00 -5.626969e+00 -6.204974e+00 -6.411333e+00 -6.497237e+00 4.542733e-01 -2.180860e+00 -5.884320e-01 -4.730413e+00 -1.911710e+00 5.440169e+01 3.079391e-02 4.661385e-02 7.867400e-02 1.092874e-01 7.788594e-02 5.595189e-02 8.170349e-02 4.222802e-02 5.410432e-02 4.904737e-02 4.761580e-02 4.344415e-02 -4.223222e-02 2.565409e-03 4.880008e-03 5.084883e-03 7.285226e-03 5.951682e-03 9.396076e-03 3.084767e-03 5.261496e-03 3.676076e-03 2.790751e-03 3.539914e-03 2.959720e-03 -1.432202e-02
<VARIANCE> 39
 3.115497e+01 2.655620e+01 4.229102e+01 3.110929e+01 3.265653e+01 3.118917e+01 3.419406e+01 4.121807e+01 4.262395e+01 3.375835e+01 2.801707e+01 2.431255e+01 8.714354e+01 1.097136e+00 1.096947e+00 1.300231e+00 1.475314e+00 1.806770e+00 2.026709e+00 1.986082e+00 2.253452e+00 2.199200e+00 2.176883e+00 1.740888e+00 1.605032e+00 1.270329e+00 1.778892e-01 1.830637e-01 2.145580e-01 2.619502e-01 3.248034e-01 3.871734e-01 3.715026e-01 4.310112e-01 4.209139e-01 4.207697e-01 3.271838e-01 3.101683e-01 2.181002e-01
<GCONST> 1.087334e+02
<STATE> 3
<MEAN> 39
 -4.328577e+00 -1.682482e+00 -5.954472e+00 -5.068770e+00 -5.762526e+00 -6.077790e+00 -6.100774e+00 7.035677e-01 -1.907451e+00 -3.447546e-01 -4.449455e+00 -1.680117e+00 5.419472e+01 2.980630e-02 6.692971e-02 9.053227e-02 1.206910e-01 9.532762e-02 7.500152e-02 8.532660e-02 5.500202e-02 5.701265e-02 4.849184e-02 5.821003e-02 5.230489e-02 -4.120468e-02 -4.434236e-04 4.317394e-03 2.574024e-03 1.737023e-03 3.603444e-03 3.381329e-03 6.487831e-04 2.158654e-03 1.839364e-04 -5.244720e-04 2.195444e-03 2.048110e-03 6.606579e-04
<VARIANCE> 39
 3.023549e+01 2.568712e+01 4.262084e+01 3.170802e+01 3.338522e+01 3.056789e+01 3.489803e+01 3.972909e+01 4.289413e+01 3.329066e+01 2.798112e+01 2.451615e+01 8.269729e+01 1.109639e+00 1.068916e+00 1.295620e+00 1.462188e+00 1.816875e+00 2.025523e+00 1.946835e+00 2.238534e+00 2.158705e+00 2.153231e+00 1.757512e+00 1.609352e+00 1.170139e+00 1.750975e-01 1.784304e-01 2.095205e-01 2.552408e-01 3.280717e-01 3.874382e-01 3.592113e-01 4.275379e-01 4.086241e-01 4.109349e-01 3.316826e-01 3.112842e-01 1.658291e-01
<GCONST> 1.080492e+02
<STATE> 4
<MEAN> 39
 -4.079494e+00 -9.051685e-01 -5.019075e+00 -4.482525e+00 -4.936061e+00 -5.324763e+00 -5.759092e+00 1.290115e+00 -1.489520e+00 7.745731e-02 -3.945171e+00 -1.130565e+00 5.437858e+01 1.921088e-02 6.142664e-02 5.703911e-02 5.592607e-02 6.897209e-02 5.654610e-02 2.813187e-02 2.030648e-02 1.817369e-02 2.133490e-02 4.823751e-02 3.844327e-02 1.875252e-03 -6.336072e-04 -9.153814e-04 -2.790812e-03 -6.443812e-03 -2.372994e-03 -1.759693e-03 -5.646442e-03 -3.023119e-03 -3.860692e-03 -2.922226e-03 -1.583689e-03 -8.455503e-04 5.470395e-03
<VARIANCE> 39
 3.310342e+01 2.442365e+01 4.231239e+01 3.547971e+01 3.508688e+01 3.307125e+01 4.037217e+01 3.996349e+01 4.391339e+01 3.349117e+01 2.837446e+01 2.529739e+01 8.307004e+01 1.324451e+00 1.072777e+00 1.316553e+00 1.508135e+00 1.834096e+00 2.016049e+00 2.065119e+00 2.261050e+00 2.137665e+00 2.178517e+00 1.796332e+00 1.646812e+00 1.271411e+00 1.895653e-01 1.777908e-01 2.058560e-01 2.550961e-01 3.283627e-01 3.809552e-01 3.716420e-01 4.214187e-01 3.956530e-01 4.066041e-01 3.408243e-01 3.165602e-01 1.636454e-01
<GCONST> 1.090340e+02
<TRANSP> 5
 0.000000e+00 1.000000e+00 0.000000e+00 0.000000e+00 0.000000e+00
 0.000000e+00 7.884822e-01 2.115178e-01 0.000000e+00 0.000000e+00
 0.000000e+00 0.000000e+00 7.884823e-01 2.115177e-01 0.000000e+00
 0.000000e+00 0.000000e+00 0.000000e+00 9.198047e-01 8.019525e-02
 0.000000e+00 0.000000e+00 0.000000e+00 0.000000e+00 0.000000e+00
<ENDHMM>
~h "m"
<BEGINHMM>
<NUMSTATES> 5
<STATE> 2
<MEAN> 39
 -2.386912e+00 1.419328e+00 -2.313978e+00 -4.985956e+00 -5.168581e+00 -3.767846e+00 -6.776333e+00 1.044708e+00 -2.705091e+00 7.552097e-01 -4.964029e+00 -1.849368e+00 5.731916e+01 -5.551021e-02 1.288170e-04 -2.043598e-02 8.297680e-02 4.871511e-02 -3.023446e-03 8.469836e-02 -2.059040e-02 5.236298e-02 -6.869281e-03 2.851025e-02 2.294596e-02 -1.703609e-01 9.202533e-04 -2.857757e-03 -1.572168e-03 1.746367e-03 -1.806142e-04 -2.825279e-04 -5.156067e-04 -2.124116e-04 -1.032348e-03 -2.443495e-03 -1.491076e-03 -9.446708e-04 1.038719e-03
<VARIANCE> 39
 2.992558e+01 2.721499e+01 6.942767e+01 5.362774e+01 5.123152e+01 4.479771e+01 5.521300e+01 6.919583e+01 5.514722e+01 3.800469e+01 4.271307e+01 2.152108e+01 1.019824e+02 1.465440e+00 1.361836e+00 2.011272e+00 2.104312e+00 2.364992e+00 2.246579e+00 2.413991e+00 2.478539e+00 2.267636e+00 2.288300e+00 1.900971e+00 1.664948e+00 1.233986e+00 2.361833e-01 2.391599e-01 3.102089e-01 3.566199e-01 4.148615e-01 4.057594e-01 4.307599e-01 4.324783e-01 4.139633e-01 4.215385e-01 3.563252e-01 3.238170e-01 1.725030e-01
<GCONST> 1.160863e+02
<STATE> 3
<MEAN> 39
 -2.632674e+00 1.397557e+00 -2.435499e+00 -4.608566e+00 -4.933043e+00 -3.787595e+00 -6.397210e+00 9.658581e-01 -2.475936e+00 7.089239e-01 -4.842875e+00 -1.752113e+00 5.655055e+01 -5.183405e-02 -1.225066e-02 -2.650861e-02 9.083105e-02 4.845684e-02 -3.238033e-03 8.335523e-02 -2.200285e-02 4.664909e-02 -1.780510e-02 2.158576e-02 1.797604e-02 -1.644593e-01 2.293899e-04 -1.863073e-03 -1.088966e-03 1.565290e-03 -5.419273e-05 1.176242e-03 4.196027e-04 -5.544564e-04 -1.889462e-03 -2.080714e-03 -1.035579e-03 -1.319659e-03 1.029428e-03
<VARIANCE> 39
 2.871019e+01 2.516929e+01 6.504284e+01 5.163852e+01 4.914690e+01 4.284098e+01 5.298324e+01 6.666072e+01 5.309054e+01 3.611369e+01 4.168115e+01 2.031017e+01 9.667973e+01 1.377118e+00 1.259528e+00 1.880005e+00 1.975702e+00 2.234971e+00 2.114433e+00 2.291429e+00 2.353732e+00 2.196093e+00 2.190707e+00 1.850644e+00 1.601116e+00 1.104010e+00 2.211980e-01 2.222811e-01 2.931705e-01 3.313854e-01 3.911789e-01 3.839818e-01 4.108391e-01 4.133860e-01 4.068237e-01 4.039470e-01 3.490613e-01 3.116911e-01 1.548444e-01
<GCONST> 1.140277e+02
<STATE> 4
<MEAN> 39
 -3.118515e+00 1.238532e+00 -2.829435e+00 -3.897248e+00 -4.547448e+00 -3.615433e+00 -5.685073e+00 8.438730e-01 -1.873949e+00 3.658876e-01 -4.695567e+00 -1.635161e+00 5.485931e+01 -4.986844e-02 -2.412924e-02 -3.334689e-02 9.065683e-02 5.245908e-02 1.065323e-03 8.224671e-02 -1.757763e-02 3.322522e-02 -2.786861e-02 1.310656e-02 9.323908e-03 -1.452605e-01 -1.541525e-04 -3.787919e-04 -5.312394e-04 1.882063e-04 -3.270796e-04 2.397636e-03 1.117979e-03 2.477550e-04 -1.682155e-03 -1.004084e-03 -2.987736e-04 -1.026111e-03 9.810328e-04
<VARIANCE> 39
 2.458541e+01 2.124257e+01 5.686478e+01 4.451385e+01 4.448782e+01 3.662147e+01 4.687945e+01 5.843338e+01 4.713542e+01 3.252723e+01 3.741343e+01 1.847223e+01 8.496841e+01 1.118041e+00 1.045029e+00 1.603451e+00 1.659259e+00 2.003752e+00 1.884831e+00 2.053907e+00 2.100325e+00 2.043852e+00 1.995295e+00 1.753602e+00 1.500660e+00 8.525414e-01 1.784890e-01 1.844981e-01 2.556979e-01 2.777005e-01 3.513691e-01 3.474058e-01 3.733908e-01 3.751384e-01 3.872100e-01 3.711824e-01 3.362412e-01 2.936118e-01 1.190858e-01
<GCONST> 1.090271e+02
<TRANSP> 5
 0.000000e+00 1.000000e+00 0.000000e+00 0.000000e+00 0.000000e+00
 0.000000e+00 7.842549e-01 2.157451e-01 0.000000e+00 0.000000e+00
 0.000000e+00 0.000000e+00 7.842550e-01 2.157450e-01 0.000000e+00
 0.000000e+00 0.000000e+00 0.000000e+00 9.149935e-01 8.500651e-02
 0.000000e+00 0.000000e+00 0.000000e+00 0.000000e+00 0.000000e+00
<ENDHMM>
~h "n"
<BEGINHMM>
<NUMSTATES> 5
<STATE> 2
<MEAN> 39
 8.302908e-01 1.240184e-01 -3.839400e+00 -1.017178e+01 -5.107486e+00 -5.350954e+00 -1.102392e+01 5.104291e-01 -4.310801e+00 -3.662050e-01 -5.820080e+00 -3.056785e+00 6.647139e+01 -6.948896e-02 8.737686e-02 1.372877e-01 1.837275e-01 -5.868206e-03 4.634432e-03 9.985401e-02 -1.537853e-01 -8.989792e-03 -2.104150e-02 2.898003e-02 2.877876e-02 -2.010900e-01 -1.848986e-03 -2.120545e-03 -1.464086e-03 3.748436e-03 1.926022e-04 3.613150e-04 1.203589e-03 1.245241e-03 1.054268e-03 -2.613722e-04 -1.196152e-03 -8.324466e-04 -4.240252e-03
<VARIANCE> 39
 3.654000e+01 6.096123e+01 9.085561e+01 8.283448e+01 5.309599e+01 5.785408e+01 6.600735e+01 1.029633e+02 7.526668e+01 6.345385e+01 5.107665e+01 3.770820e+01 9.498166e+01 2.272578e+00 2.273318e+00 2.949566e+00 3.310568e+00 3.047614e+00 3.422843e+00 3.741730e+00 3.577419e+00 3.598191e+00 3.196373e+00 2.707556e+00 2.646003e+00 2.928725e+00 3.595654e-01 3.200981e-01 4.285860e-01 5.432570e-01 5.408893e-01 5.950203e-01 6.250285e-01 5.890619e-01 6.481486e-01 5.217071e-01 4.886129e-01 4.623733e-01 3.904221e-01
<GCONST> 1.308358e+02
<STATE> 3
<MEAN> 39
 4.977422e-01 4.899495e-01 -3.247838e+00 -9.311964e+00 -5.109331e+00 -5.329606e+00 -1.055097e+01 -1.542943e-01 -4.338961e+00 -4.543403e-01 -5.686801e+00 -2.956339e+00 6.550609e+01 -7.705631e-02 7.658281e-02 1.255503e-01 1.974599e-01 -4.302962e-03 7.204944e-03 1.048499e-01 -1.465906e-01 -2.712168e-03 -2.196974e-02 2.329791e-02 2.405306e-02 -2.214704e-01 -1.481860e-03 -2.511230e-03 -3.776707e-03 2.293102e-03 8.435864e-04 1.021611e-03 1.059477e-03 2.086934e-03 1.923468e-03 2.987505e-05 -1.059121e-03 -9.687564e-04 -5.128071e-03
<VARIANCE> 39
 3.644511e+01 5.814183e+01 8.692205e+01 8.378724e+01 5.172009e+01 5.571368e+01 6.541574e+01 9.840294e+01 7.448525e+01 6.176698e+01 4.964067e+01 3.500689e+01 9.911501e+01 2.199497e+00 2.178092e+00 2.928800e+00 3.250757e+00 2.981055e+00 3.336681e+00 3.561732e+00 3.474457e+00 3.524603e+00 3.107510e+00 2.698460e+00 2.529879e+00 2.718285e+00 3.469693e-01 3.111827e-01 4.285145e-01 5.341786e-01 5.284917e-01 5.810869e-01 5.979981e-01 5.759314e-01 6.354405e-01 5.030818e-01 4.892436e-01 4.435307e-01 3.630214e-01
<GCONST> 1.297748e+02
<STATE> 4
<MEAN> 39
 -2.256284e-01 1.104676e+00 -2.307898e+00 -7.668247e+00 -4.950319e+00 -4.976217e+00 -9.627193e+00 -8.499782e-01 -4.013005e+00 -6.370867e-01 -5.495347e+00 -2.742728e+00 6.333181e+01 -8.430973e-02 5.194573e-02 7.631199e-02 1.963428e-01 8.927622e-03 1.554259e-02 1.126444e-01 -1.201065e-01 1.412257e-02 -1.813259e-02 2.062732e-02 1.012210e-02 -2.586020e-01 -8.440870e-04 -2.750807e-03 -6.393321e-03 -2.745911e-04 1.236699e-03 1.741686e-03 7.539103e-04 3.055663e-03 2.677813e-03 3.711827e-04 -5.463546e-04 -5.741904e-04 -5.120829e-03
<VARIANCE> 39
 3.484124e+01 5.148104e+01 7.777007e+01 8.067939e+01 4.952399e+01 5.078925e+01 6.252633e+01 8.896497e+01 7.129900e+01 5.614412e+01 4.710946e+01 2.975956e+01 1.060940e+02 1.992907e+00 1.945484e+00 2.734161e+00 2.975097e+00 2.779666e+00 3.041609e+00 3.120802e+00 3.153020e+00 3.190721e+00 2.857090e+00 2.622132e+00 2.273627e+00 2.245590e+00 3.126470e-01 2.837127e-01 4.000352e-01 4.866663e-01 4.849009e-01 5.301059e-01 5.302042e-01 5.269181e-01 5.695232e-01 4.612298e-01 4.794062e-01 4.026677e-01 2.980579e-01
<GCONST> 1.263643e+02
<TRANSP> 5
 0.000000e+00 1.000000e+00 0.000000e+00 0.000000e+00 0.000000e+00
 0.000000e+00 7.817906e-01 2.182094e-01 0.000000e+00 0.000000e+00
 0.000000e+00 0.000000e+00 7.817906e-01 2.182093e-01 0.000000e+00
 0.000000e+00 0.000000e+00 0.000000e+00 9.110509e-01 8.894908e-02
 0.000000e+00 0.000000e+00 0.000000e+00 0.000000e+00 0.000000e+00
<ENDHMM>
~h "p"
<BEGINHMM>
<NUMSTATES> 5
<STATE> 2
<MEAN> 39
 -3.927704e+00 -6.180636e-01 -4.846317e+00 -3.227127e+00 -4.334090e+00 -4.389179e+00 -5.125710e+00 8.575292e-01 -1.674768e+00 4.830494e-01 -3.638949e+00 -1.721749e+00 5.460778e+01 4.358526e-03 4.191439e-02 5.017651e-02 6.791911e-02 1.009563e-01 7.211372e-02 8.585707e-02 4.665974e-02 3.233220e-02 4.604272e-02 4.403501e-02 3.624086e-03 -1.902789e-02 -1.191230e-03 -2.865449e-03 -7.536327e-03 -8.537991e-03 -4.742653e-03 -3.505243e-03 -5.707555e-03 -1.354368e-03 -1.592491e-03 -2.299277e-03 -1.329267e-03 -1.956858e-03 4.216518e-03
<VARIANCE> 39
 2.645170e+01 2.373432e+01 4.933384e+01 3.236372e+01 3.417517e+01 3.397148e+01 3.863063e+01 4.540946e+01 4.316590e+01 2.990328e+01 3.261364e+01 2.524232e+01 7.822383e+01 1.036888e+00 9.656001e-01 1.533167e+00 1.589363e+00 1.996918e+00 1.918346e+00 2.121969e+00 2.324049e+00 2.074184e+00 1.957364e+00 2.035613e+00 1.572535e+00 1.395757e+00 1.776039e-01 1.651266e-01 2.477283e-01 2.759304e-01 3.590329e-01 3.371626e-01 3.945489e-01 4.066094e-01 3.811339e-01 3.666040e-01 3.995078e-01 3.044702e-01 1.713759e-01
<GCONST> 1.089941e+02
<STATE> 3
<MEAN> 39
 -3.933592e+00 -4.942435e-01 -4.741975e+00 -3.060774e+00 -3.975541e+00 -4.139349e+00 -4.846745e+00 1.000544e+00 -1.580256e+00 6.267630e-01 -3.481788e+00 -1.753271e+00 5.456963e+01 -2.006612e-03 2.685028e-02 1.314630e-02 2.347894e-02 7.356057e-02 5.503941e-02 5.297348e-02 3.606809e-02 2.185885e-02 3.273077e-02 3.412817e-02 -5.381107e-03 8.195490e-04 -9.993440e-04 -3.485370e-03 -7.908015e-03 -1.058914e-02 -7.200666e-03 -4.708073e-03 -8.065531e-03 -2.715697e-03 -2.896820e-03 -3.325932e-03 -2.429476e-03 -1.949291e-03 5.755432e-03
<VARIANCE> 39
 2.661258e+01 2.248577e+01 4.574376e+01 3.222816e+01 3.329929e+01 3.410995e+01 3.782436e+01 4.386002e+01 4.332185e+01 2.980324e+01 3.079278e+01 2.557150e+01 7.635091e+01 1.066086e+00 9.570412e-01 1.449407e+00 1.612406e+00 1.960491e+00 1.880195e+00 2.088206e+00 2.242650e+00 2.142437e+00 1.953641e+00 1.987581e+00 1.570485e+00 1.513052e+00 1.770221e-01 1.641086e-01 2.344352e-01 2.796085e-01 3.514123e-01 3.313639e-01 3.867708e-01 3.974645e-01 3.952179e-01 3.688436e-01 3.911060e-01 3.051474e-01 1.816068e-01
<GCONST> 1.086415e+02
<STATE> 4
<MEAN> 39
 -3.865181e+00 -4.220291e-01 -4.827764e+00 -3.435668e+00 -3.830476e+00 -3.777571e+00 -4.958060e+00 1.338441e+00 -1.420624e+00 6.003981e-01 -3.498765e+00 -1.839662e+00 5.493454e+01 1.642853e-04 1.689325e-03 -3.038199e-02 -5.036373e-02 1.796885e-02 3.065822e-02 -1.512637e-02 1.872820e-02 -6.702158e-04 1.011022e-02 1.098932e-02 -1.698981e-02 4.567628e-02 1.111664e-03 -2.350398e-03 -3.856593e-03 -8.506002e-03 -6.550690e-03 -3.176208e-03 -7.882150e-03 -1.082669e-03 -2.646841e-03 -2.126530e-03 -2.673609e-03 -8.353500e-04 6.961882e-03
<VARIANCE> 39
 2.923015e+01 2.220898e+01 4.272696e+01 3.603767e+01 3.382372e+01 3.676081e+01 3.989820e+01 4.331272e+01 4.303673e+01 3.046191e+01 2.938601e+01 2.594646e+01 8.430857e+01 1.216452e+00 1.034593e+00 1.380291e+00 1.733228e+00 1.949818e+00 1.897925e+00 2.153160e+00 2.243920e+00 2.223420e+00 1.951412e+00 1.957948e+00 1.599813e+00 1.829740e+00 1.905912e-01 1.751176e-01 2.230149e-01 3.008776e-01 3.459387e-01 3.304136e-01 3.959514e-01 4.105698e-01 4.118175e-01 3.686107e-01 3.829246e-01 3.126268e-01 2.159644e-01
<GCONST> 1.098941e+02
<TRANSP> 5
 0.000000e+00 1.000000e+00 0.000000e+00 0.000000e+00 0.000000e+00
 0.000000e+00 7.779223e-01 2.220778e-01 0.000000e+00 0.000000e+00
 0.000000e+00 0.000000e+00 7.779215e-01 2.220784e-01 0.000000e+00
 0.000000e+00 0.000000e+00 0.000000e+00 9.078959e-01 9.210406e-02
 0.000000e+00 0.000000e+00 0.000000e+00 0.000000e+00 0.000000e+00
<ENDHMM>
~h "r"
<BEGINHMM>
<NUMSTATES> 5
<STATE> 2
<MEAN> 39
 -1.844581e+00 -1.383097e+00 -5.317988e+00 -6.685035e+00 -5.041998e+00 -3.359942e+00 -9.033463e+00 2.434581e+00 -1.588090e+00 7.647006e-01 -4.401601e+00 -2.757728e+00 6.070456e+01 6.852914e-02 -5.794396e-02 -6.370994e-02 -8.832471e-02 -1.915457e-02 -7.130289e-03 -8.227371e-02 4.835204e-02 1.413066e-02 2.043143e-03 -6.800257e-02 -3.148843e-02 1.397110e-01 -1.038383e-03 -8.468900e-04 -3.667464e-04 -3.146324e-04 -2.031717e-04 -2.549646e-03 2.047305e-03 4.975160e-05 1.792103e-03 1.246041e-04 -2.368174e-03 -1.887180e-04 -2.222907e-03
<VARIANCE> 39
 5.021535e+01 3.092151e+01 5.754153e+01 6.640596e+01 3.669267e+01 5.385680e+01 7.694782e+01 6.099881e+01 6.766822e+01 3.651646e+01 3.785070e+01 3.201789e+01 1.503912e+02 1.925161e+00 1.291850e+00 1.505369e+00 2.060746e+00 1.819254e+00 2.320549e+00 2.835196e+00 2.449309e+00 2.520195e+00 2.240777e+00 2.092050e+00 1.916594e+00 1.812876e+00 2.519200e-01 1.939277e-01 2.150045e-01 3.429184e-01 3.095212e-01 4.038269e-01 5.062201e-01 4.267475e-01 4.188767e-01 4.037501e-01 3.712664e-01 3.320947e-01 2.135246e-01
<GCONST> 1.177254e+02
<STATE> 3
<MEAN> 39
 -1.549798e+00 -1.653291e+00 -5.609756e+00 -7.065988e+00 -5.129566e+00 -3.417238e+00 -9.373363e+00 2.638860e+00 -1.500543e+00 7.653248e-01 -4.737679e+00 -2.898415e+00 6.128205e+01 6.000322e-02 -5.788679e-02 -6.076867e-02 -8.637558e-02 -2.022868e-02 -1.915474e-02 -7.086672e-02 4.654031e-02 2.079037e-02 8.775026e-04 -7.537125e-02 -3.074992e-02 1.254959e-01 -2.261099e-03 1.004690e-03 1.488237e-03 9.576990e-04 -4.470069e-04 -2.278638e-03 2.921171e-03 -9.064800e-04 1.310868e-03 -2.231921e-04 -1.071509e-03 4.679653e-04 -3.442261e-03
<VARIANCE> 39
 4.790060e+01 3.197037e+01 5.678155e+01 6.724627e+01 3.715294e+01 5.492701e+01 7.744096e+01 6.360395e+01 6.813715e+01 3.704560e+01 3.863268e+01 3.295543e+01 1.577211e+02 1.843742e+00 1.296172e+00 1.506203e+00 2.059634e+00 1.842648e+00 2.313685e+00 2.885000e+00 2.476556e+00 2.486176e+00 2.214654e+00 2.089654e+00 1.917245e+00 1.858165e+00 2.458260e-01 1.923618e-01 2.161216e-01 3.441071e-01 3.134756e-01 4.024939e-01 5.142070e-01 4.330212e-01 4.121473e-01 3.988957e-01 3.677012e-01 3.308397e-01 2.208644e-01
<GCONST> 1.179141e+02
<STATE> 4
<MEAN> 39
 -1.235223e+00 -1.879509e+00 -5.802779e+00 -7.571285e+00 -5.427348e+00 -3.483890e+00 -9.668591e+00 2.815771e+00 -1.000790e+00 7.051871e-01 -5.366845e+00 -2.993474e+00 6.161019e+01 2.824398e-02 -3.374820e-02 -3.387304e-02 -5.795659e-02 -1.998332e-02 -3.187189e-02 -3.779747e-02 2.605345e-02 2.129041e-02 -8.599503e-03 -6.277315e-02 -1.702920e-02 7.438902e-02 -3.118773e-03 3.313180e-03 3.619394e-03 2.508550e-03 -3.521889e-04 -9.128032e-04 3.634007e-03 -2.136189e-03 -3.479188e-06 -3.947470e-04 1.908535e-03 1.866925e-03 -4.463099e-03
<VARIANCE> 39
 4.343868e+01 3.341410e+01 5.564661e+01 6.396307e+01 3.909682e+01 5.498680e+01 7.579195e+01 6.563280e+01 6.623499e+01 3.674472e+01 3.921164e+01 3.243241e+01 1.641474e+02 1.733439e+00 1.309016e+00 1.554440e+00 2.024026e+00 1.922576e+00 2.317746e+00 2.892667e+00 2.513999e+00 2.413223e+00 2.175946e+00 2.092213e+00 1.857212e+00 1.926859e+00 2.432342e-01 1.929666e-01 2.274141e-01 3.425574e-01 3.301411e-01 4.033886e-01 5.109598e-01 4.414194e-01 4.058244e-01 3.941267e-01 3.674260e-01 3.233738e-01 2.345307e-01
<GCONST> 1.179518e+02
<TRANSP> 5
 0.000000e+00 1.000000e+00 0.000000e+00 0.000000e+00 0.000000e+00
 0.000000e+00 7.870647e-01 2.129353e-01 0.000000e+00 0.000000e+00
 0.000000e+00 0.000000e+00 7.870646e-01 2.129355e-01 0.000000e+00
 0.000000e+00 0.000000e+00 0.000000e+00 9.180061e-01 8.199392e-02
 0.000000e+00 0.000000e+00 0.000000e+00 0.000000e+00 0.000000e+00
<ENDHMM>
~h "s"
<BEGINHMM>
<NUMSTATES> 5
<STATE> 2
<MEAN> 39
 -4.979506e+00 -1.962884e+00 -6.471657e+00 -6.214225e+00 -5.945748e+00 -5.897942e+00 -7.898379e+00 9.363202e-01 -1.925310e+00 -1.608615e-01 -4.999602e+00 -2.145303e+00 5.690495e+01 1.043689e-02 3.997360e-02 9.859516e-02 1.003633e-01 5.512368e-02 4.169401e-02 5.720366e-02 2.561414e-02 3.269780e-02 5.126867e-02 1.540005e-02 4.025504e-02 5.204523e-02 5.037584e-03 3.687326e-03 4.934111e-03 8.516854e-03 6.509626e-03 5.343080e-03 6.025135e-03 4.647678e-03 3.235240e-03 2.593135e-03 7.601127e-03 3.251652e-03 -1.387981e-02
<VARIANCE> 39
 4.263950e+01 2.909704e+01 4.119262e+01 4.107187e+01 3.280810e+01 4.281734e+01 4.964264e+01 5.805249e+01 4.394585e+01 3.352653e+01 3.879176e+01 2.576639e+01 1.121892e+02 1.812437e+00 1.255368e+00 1.608595e+00 1.831897e+00 2.150001e+00 2.505603e+00 2.542800e+00 2.611911e+00 2.271792e+00 2.087024e+00 2.009428e+00 1.627412e+00 1.724124e+00 2.988956e-01 1.956910e-01 2.647757e-01 3.335551e-01 3.984752e-01 4.631978e-01 4.707009e-01 4.543757e-01 4.270447e-01 3.913890e-01 3.680248e-01 3.082159e-01 2.796387e-01
<GCONST> 1.153993e+02
<STATE> 3
<MEAN> 39
 -4.844336e+00 -1.707501e+00 -5.981428e+00 -5.690828e+00 -5.591668e+00 -5.616725e+00 -7.553602e+00 1.123722e+00 -1.740401e+00 9.756683e-02 -4.846671e+00 -1.945768e+00 5.708161e+01 3.257397e-02 5.650678e-02 1.120185e-01 1.191146e-01 7.983057e-02 6.430723e-02 7.936812e-02 3.763736e-02 3.488453e-02 5.623497e-02 3.879131e-02 4.224085e-02 3.419921e-02 4.650818e-03 3.806522e-03 2.755127e-03 3.263109e-03 5.439631e-03 5.301906e-03 4.582637e-03 2.053688e-03 1.405908e-04 1.181581e-03 4.736976e-03 2.159037e-04 -4.646517e-03
<VARIANCE> 39
 4.294000e+01 2.965568e+01 4.428815e+01 4.223292e+01 3.391665e+01 4.309612e+01 5.135092e+01 5.689463e+01 4.496496e+01 3.338380e+01 4.009399e+01 2.582350e+01 1.079770e+02 1.775527e+00 1.270505e+00 1.696333e+00 1.817872e+00 2.179872e+00 2.549618e+00 2.543575e+00 2.674986e+00 2.320315e+00 2.071411e+00 2.011434e+00 1.632886e+00 1.677682e+00 2.894339e-01 1.984473e-01 2.736423e-01 3.259700e-01 3.999286e-01 4.657659e-01 4.646996e-01 4.603859e-01 4.312451e-01 3.860052e-01 3.644250e-01 3.084470e-01 2.428420e-01
<GCONST> 1.155246e+02
<STATE> 4
<MEAN> 39
 -4.472928e+00 -8.948012e-01 -4.947370e+00 -5.012770e+00 -4.968652e+00 -4.565312e+00 -6.964743e+00 1.725514e+00 -1.375916e+00 5.104459e-01 -4.449039e+00 -1.578240e+00 5.720912e+01 4.812836e-02 6.238832e-02 9.758827e-02 7.309452e-02 6.400117e-02 7.431501e-02 5.117109e-02 2.348397e-02 1.558399e-03 2.962880e-02 4.355640e-02 1.757231e-02 2.989286e-02 9.804466e-04 4.036571e-04 -1.271179e-03 -4.208179e-03 -1.535069e-03 1.199170e-03 -2.972963e-03 -1.998095e-03 -3.527450e-03 -2.053599e-03 5.736300e-04 -2.408715e-03 -1.030341e-03
<VARIANCE> 39
 4.531917e+01 2.951177e+01 4.772770e+01 4.325050e+01 3.573291e+01 4.290304e+01 5.576979e+01 5.368719e+01 4.657703e+01 3.216241e+01 4.097351e+01 2.484098e+01 1.010277e+02 1.815574e+00 1.278906e+00 1.716444e+00 1.840470e+00 2.238220e+00 2.517059e+00 2.568249e+00 2.679850e+00 2.372707e+00 2.075024e+00 2.035366e+00 1.635393e+00 1.585910e+00 2.757627e-01 2.038194e-01 2.674335e-01 3.193043e-01 4.076658e-01 4.491208e-01 4.691904e-01 4.531502e-01 4.302768e-01 3.853216e-01 3.671738e-01 3.100735e-01 2.172745e-01
<GCONST> 1.155268e+02
<TRANSP> 5
 0.000000e+00 1.000000e+00 0.000000e+00 0.000000e+00 0.000000e+00
 0.000000e+00 7.820899e-01 2.179101e-01 0.000000e+00 0.000000e+00
 0.000000e+00 0.000000e+00 7.820899e-01 2.179101e-01 0.000000e+00
 0.000000e+00 0.000000e+00 0.000000e+00 9.124468e-01 8.755317e-02
 0.000000e+00 0.000000e+00 0.000000e+00 0.000000e+00 0.000000e+00
<ENDHMM>
~h "t"
<BEGINHMM>
<NUMSTATES> 5
<STATE> 2
<MEAN> 39
 1.788483e-01 -2.391521e+00 -5.894567e+00 -1.129052e+01 -6.950513e+00 -4.463192e+00 -1.236797e+01 4.357533e+00 -3.947556e+00 -6.354094e-01 -6.212758e+00 -2.802072e+00 6.863992e+01 4.222891e-02 1.877541e-02 1.429155e-02 -3.559545e-02 -2.434033e-02 -2.166210e-02 -3.487092e-02 2.578860e-02 4.739896e-04 -5.137721e-03 -5.321030e-02 2.202303e-03 8.204366e-02 -2.574379e-03 3.411798e-03 1.326527e-03 4.397055e-03 3.082093e-03 5.157688e-04 3.806105e-03 -4.679156e-03 4.225591e-04 1.388106e-03 1.458383e-03 1.668256e-03 -9.731062e-03
<VARIANCE> 39
 4.556526e+01 5.379159e+01 7.806612e+01 6.448035e+01 6.391998e+01 8.120844e+01 7.121942e+01 9.163194e+01 6.675577e+01 6.744058e+01 5.397783e+01 4.010228e+01 1.093593e+02 2.552183e+00 2.245889e+00 2.194426e+00 3.087632e+00 3.037852e+00 3.420274e+00 4.148030e+00 3.570458e+00 3.310990e+00 2.786870e+00 2.777665e+00 2.327664e+00 3.860506e+00 3.842304e-01 3.187149e-01 2.949111e-01 5.080348e-01 4.692236e-01 5.657027e-01 7.236071e-01 5.800159e-01 5.647821e-01 4.682895e-01 4.726241e-01 4.140145e-01 4.708506e-01
<GCONST> 1.303582e+02
<STATE> 3
<MEAN> 39
 3.348851e-01 -2.261008e+00 -5.797618e+00 -1.139731e+01 -7.029911e+00 -4.553832e+00 -1.248451e+01 4.412533e+00 -3.947245e+00 -6.375726e-01 -6.442015e+00 -2.769255e+00 6.891891e+01 3.105109e-02 3.361226e-02 2.080420e-02 -1.768053e-02 -9.969147e-03 -1.813746e-02 -1.874116e-02 3.125363e-03 7.204546e-04 1.500345e-03 -4.589044e-02 7.855730e-03 4.179332e-02 -2.238103e-03 3.252731e-03 2.006047e-03 3.925832e-03 2.867969e-03 9.558452e-04 3.179702e-03 -5.205112e-03 -4.759639e-04 1.622643e-03 1.817100e-03 9.830425e-04 -8.069776e-03
<VARIANCE> 39
 4.483535e+01 5.574634e+01 7.874539e+01 6.339647e+01 6.421832e+01 8.055107e+01 6.995733e+01 9.323068e+01 6.823557e+01 6.833681e+01 5.574728e+01 3.953084e+01 1.013407e+02 2.597863e+00 2.311968e+00 2.258569e+00 3.094389e+00 3.136893e+00 3.441291e+00 4.184168e+00 3.631748e+00 3.359684e+00 2.838795e+00 2.786313e+00 2.360694e+00 3.857964e+00 3.954964e-01 3.272733e-01 3.068874e-01 5.063784e-01 4.888686e-01 5.703952e-01 7.303094e-01 5.902476e-01 5.742109e-01 4.776599e-01 4.707607e-01 4.196215e-01 4.764878e-01
<GCONST> 1.307592e+02
<STATE> 4
<MEAN> 39
 4.935086e-01 -1.750209e+00 -5.203193e+00 -1.121572e+01 -7.152709e+00 -4.220080e+00 -1.256356e+01 4.426024e+00 -3.881771e+00 -4.529560e-01 -6.851370e+00 -2.487136e+00 6.891940e+01 1.295965e-02 5.484787e-02 4.092219e-02 1.279697e-02 1.043593e-02 -9.448715e-03 7.725184e-03 -3.403189e-02 -2.211524e-03 1.274469e-02 -3.076801e-02 1.091311e-02 -1.235677e-02 -1.557912e-03 2.365235e-03 2.792860e-03 3.540241e-03 1.821093e-03 1.156488e-03 2.569582e-03 -4.481881e-03 -9.313319e-04 1.327048e-03 2.011770e-03 -6.658060e-05 -5.802758e-03
<VARIANCE> 39
 4.515922e+01 5.946756e+01 8.116788e+01 6.132836e+01 6.747517e+01 7.674800e+01 6.656644e+01 9.372163e+01 7.011620e+01 6.628479e+01 5.908020e+01 3.741237e+01 8.941733e+01 2.701479e+00 2.403408e+00 2.378399e+00 3.049170e+00 3.401617e+00 3.405657e+00 4.136539e+00 3.673850e+00 3.343649e+00 2.883188e+00 2.818419e+00 2.365646e+00 3.633801e+00 4.126319e-01 3.393989e-01 3.303395e-01 4.968137e-01 5.310692e-01 5.635351e-01 7.187588e-01 6.013329e-01 5.728632e-01 4.878917e-01 4.711689e-01 4.217215e-01 4.583786e-01
<GCONST> 1.310020e+02
<TRANSP> 5
 0.000000e+00 1.000000e+00 0.000000e+00 0.000000e+00 0.000000e+00
 0.000000e+00 7.823609e-01 2.176391e-01 0.000000e+00 0.000000e+00
 0.000000e+00 0.000000e+00 7.823608e-01 2.176392e-01 0.000000e+00
 0.000000e+00 0.000000e+00 0.000000e+00 9.130296e-01 8.697036e-02
 0.000000e+00 0.000000e+00 0.000000e+00 0.000000e+00 0.000000e+00
<ENDHMM>
~h "u"
<BEGINHMM>
<NUMSTATES> 5
<STATE> 2
<MEAN> 39
 -1.862055e+00 -1.346587e+00 -4.909114e+00 -7.920026e+00 -5.898983e+00 -4.580000e+00 -9.249534e+00 2.593924e+00 -2.418829e+00 -3.472780e-01 -5.903522e+00 -2.047228e+00 6.314909e+01 2.078683e-02 6.354948e-02 6.230805e-02 1.844051e-02 3.235291e-02 2.937232e-02 1.878676e-02 -1.788738e-02 -3.621546e-03 2.857800e-02 1.586374e-02 6.528306e-04 2.287343e-03 1.156749e-05 -7.948482e-04 -4.352247e-04 -7.494991e-04 -2.002666e-03 2.513574e-04 -1.936396e-03 -1.720988e-03 -1.815510e-03 -3.410693e-04 5.394509e-04 -1.569212e-03 -6.736293e-04
<VARIANCE> 39
 4.993070e+01 4.397041e+01 6.102120e+01 6.310537e+01 5.274070e+01 5.844696e+01 6.835173e+01 7.935371e+01 6.369869e+01 5.101676e+01 5.151566e+01 3.162272e+01 1.263717e+02 2.121081e+00 1.764130e+00 1.940048e+00 2.442640e+00 2.625557e+00 2.873933e+00 3.148882e+00 3.025548e+00 2.855645e+00 2.610500e+00 2.393090e+00 2.059212e+00 2.495600e+00 3.132436e-01 2.601941e-01 2.861749e-01 3.985900e-01 4.230269e-01 5.000824e-01 5.483014e-01 5.015380e-01 5.007759e-01 4.712328e-01 4.182146e-01 3.722396e-01 3.182547e-01
<GCONST> 1.242783e+02
<STATE> 3
<MEAN> 39
 -1.775220e+00 -1.075791e+00 -4.644706e+00 -7.869725e+00 -5.793244e+00 -4.459449e+00 -9.205485e+00 2.488877e+00 -2.459163e+00 -2.323729e-01 -5.834593e+00 -2.072829e+00 6.316481e+01 2.042763e-02 5.682348e-02 5.883879e-02 1.510458e-02 2.090388e-02 2.774050e-02 7.394212e-03 -2.452960e-02 -1.058247e-02 2.665597e-02 1.653513e-02 -6.685022e-03 1.842648e-03 -1.904136e-05 -1.810569e-03 -8.596219e-04 -3.417563e-04 -2.563390e-03 -4.631723e-04 -2.410726e-03 -9.399229e-04 -1.350028e-03 -6.028381e-04 -9.492738e-06 -1.487414e-03 1.422316e-04
<VARIANCE> 39
 5.070369e+01 4.388440e+01 6.260019e+01 6.418818e+01 5.318778e+01 5.797572e+01 6.917577e+01 7.943764e+01 6.445319e+01 5.098262e+01 5.210294e+01 3.173995e+01 1.234435e+02 2.183775e+00 1.770910e+00 1.985650e+00 2.483914e+00 2.647762e+00 2.879409e+00 3.127779e+00 3.025337e+00 2.871695e+00 2.652767e+00 2.402097e+00 2.080821e+00 2.433908e+00 3.175711e-01 2.610466e-01 2.911080e-01 4.027880e-01 4.304133e-01 5.002017e-01 5.453817e-01 5.009321e-01 5.034246e-01 4.775012e-01 4.205815e-01 3.751873e-01 3.085161e-01
<GCONST> 1.244941e+02
<STATE> 4
<MEAN> 39
 -1.627398e+00 -6.969387e-01 -4.124018e+00 -7.832013e+00 -5.800991e+00 -3.973805e+00 -9.243975e+00 2.609550e+00 -2.338194e+00 -1.595842e-02 -5.802608e+00 -2.068060e+00 6.317714e+01 2.241979e-02 3.755679e-02 4.654616e-02 1.612798e-02 5.494091e-03 1.963090e-02 -5.305213e-03 -2.674692e-02 -9.433630e-03 2.450747e-02 1.369722e-02 -1.610887e-02 2.948344e-04 2.581188e-04 -2.154981e-03 -1.174254e-03 1.194470e-03 -1.208470e-03 -5.758000e-04 -7.224358e-04 4.950693e-04 1.644415e-04 -2.184329e-04 -2.946837e-04 -6.089041e-04 -4.580319e-04
<VARIANCE> 39
 5.315393e+01 4.363398e+01 6.584576e+01 6.421568e+01 5.401572e+01 5.753868e+01 7.005395e+01 7.712427e+01 6.641956e+01 4.945344e+01 5.171854e+01 3.148120e+01 1.197792e+02 2.282741e+00 1.775474e+00 2.066412e+00 2.500944e+00 2.695727e+00 2.850596e+00 3.071750e+00 2.999924e+00 2.847761e+00 2.708230e+00 2.444308e+00 2.088913e+00 2.308127e+00 3.221016e-01 2.616220e-01 2.980331e-01 4.042522e-01 4.390688e-01 4.922593e-01 5.359896e-01 4.963596e-01 4.967551e-01 4.858458e-01 4.302444e-01 3.753880e-01 2.878985e-01
<GCONST> 1.245659e+02
<TRANSP> 5
 0.000000e+00 1.000000e+00 0.000000e+00 0.000000e+00 0.000000e+00
 0.000000e+00 7.824941e-01 2.175059e-01 0.000000e+00 0.000000e+00
 0.000000e+00 0.000000e+00 7.824936e-01 2.175064e-01 0.000000e+00
 0.000000e+00 0.000000e+00 0.000000e+00 9.130268e-01 8.697324e-02
 0.000000e+00 0.000000e+00 0.000000e+00 0.000000e+00 0.000000e+00
<ENDHMM>
~h "y"
<BEGINHMM>
<NUMSTATES> 5
<STATE> 2
<MEAN> 39
 -1.598755e+00 1.648895e+00 -1.141957e+00 -6.724012e+00 -6.635355e+00 -3.428432e+00 -9.937545e+00 9.472559e-01 -4.058769e+00 2.066291e-01 -5.904122e+00 -2.717242e+00 6.293108e+01 -3.664584e-02 4.659009e-02 3.529684e-02 1.957135e-01 3.771399e-02 2.880447e-02 1.501765e-01 -7.482317e-02 3.324009e-02 -3.243776e-02 5.202642e-02 5.316818e-03 -3.158640e-01 -1.944738e-03 -3.182250e-03 -6.560554e-03 -1.290612e-03 4.127543e-03 1.842186e-03 3.355163e-03 2.416637e-03 3.504830e-03 -1.051956e-03 2.472112e-03 -2.559758e-04 -3.915031e-03
<VARIANCE> 39
 4.082497e+01 3.499363e+01 1.032931e+02 5.657815e+01 7.390842e+01 4.168986e+01 6.250893e+01 7.908200e+01 5.549197e+01 4.260326e+01 3.613424e+01 2.500201e+01 1.102758e+02 2.261081e+00 1.539601e+00 2.801941e+00 2.179058e+00 3.122446e+00 2.581929e+00 2.968912e+00 2.745650e+00 2.808100e+00 2.549042e+00 2.261037e+00 1.726665e+00 1.630643e+00 3.274179e-01 2.321176e-01 3.874134e-01 3.372428e-01 5.051819e-01 4.385878e-01 5.197005e-01 4.696773e-01 4.720982e-01 4.493598e-01 4.237879e-01 3.188781e-01 1.986192e-01
<GCONST> 1.217944e+02
<STATE> 3
<MEAN> 39
 -1.787774e+00 1.822462e+00 -1.072824e+00 -5.825917e+00 -6.406306e+00 -3.280370e+00 -9.202646e+00 6.225664e-01 -3.870500e+00 4.008701e-02 -5.645581e+00 -2.693278e+00 6.140244e+01 -4.680885e-02 3.070189e-02 3.018614e-03 1.854861e-01 5.713225e-02 3.584115e-02 1.639433e-01 -6.081336e-02 4.935497e-02 -3.601208e-02 6.219163e-02 5.316688e-03 -3.292729e-01 -2.379142e-03 -3.259749e-03 -6.347470e-03 -3.101169e-03 3.783680e-03 1.014064e-03 2.525083e-03 3.546280e-03 3.631870e-03 -2.049203e-05 1.882693e-03 3.999799e-04 -1.484547e-03
<VARIANCE> 39
 3.670313e+01 3.110589e+01 9.676381e+01 5.155050e+01 6.923376e+01 3.867617e+01 6.155215e+01 7.357133e+01 5.447537e+01 3.928833e+01 3.450040e+01 2.450007e+01 1.098631e+02 1.968855e+00 1.404227e+00 2.632788e+00 2.032754e+00 2.908544e+00 2.462187e+00 2.793716e+00 2.625413e+00 2.652977e+00 2.442396e+00 2.161821e+00 1.700315e+00 1.442757e+00 2.845158e-01 2.119320e-01 3.636896e-01 3.180059e-01 4.777921e-01 4.204601e-01 4.922690e-01 4.464915e-01 4.443271e-01 4.356217e-01 4.082238e-01 3.180093e-01 1.741814e-01
<GCONST> 1.193262e+02
<STATE> 4
<MEAN> 39
 -2.302555e+00 2.024048e+00 -1.050668e+00 -4.594254e+00 -6.187208e+00 -2.972783e+00 -7.805780e+00 4.610729e-02 -2.915034e+00 -3.142064e-01 -5.254543e+00 -2.602425e+00 5.843879e+01 -6.069542e-02 -2.140000e-04 -5.967863e-02 1.437326e-01 8.421365e-02 3.430510e-02 1.652995e-01 -2.571557e-02 6.441978e-02 -3.387535e-02 6.494316e-02 1.109136e-02 -3.177866e-01 -1.933745e-03 -2.647294e-03 -4.785454e-03 -4.871656e-03 2.180509e-03 -3.235494e-04 1.377049e-04 4.206524e-03 2.611435e-03 1.349418e-03 7.556701e-04 1.038329e-03 2.327174e-03
<VARIANCE> 39
 2.881097e+01 2.464034e+01 9.042420e+01 4.033831e+01 6.339605e+01 3.230677e+01 5.590544e+01 6.208366e+01 5.193361e+01 3.404856e+01 3.014397e+01 2.233049e+01 1.027234e+02 1.480845e+00 1.176252e+00 2.310761e+00 1.762789e+00 2.557028e+00 2.151504e+00 2.434081e+00 2.356098e+00 2.374165e+00 2.215824e+00 1.937172e+00 1.621508e+00 1.145122e+00 2.164660e-01 1.813460e-01 3.190060e-01 2.864640e-01 4.335858e-01 3.721014e-01 4.346399e-01 4.025553e-01 3.978686e-01 4.020521e-01 3.742265e-01 3.097532e-01 1.364343e-01
<GCONST> 1.140167e+02
<TRANSP> 5
 0.000000e+00 1.000000e+00 0.000000e+00 0.000000e+00 0.000000e+00
 0.000000e+00 7.895488e-01 2.104512e-01 0.000000e+00 0.000000e+00
 0.000000e+00 0.000000e+00 7.895489e-01 2.104510e-01 0.000000e+00
 0.000000e+00 0.000000e+00 0.000000e+00 9.212292e-01 7.877080e-02
 0.000000e+00 0.000000e+00 0.000000e+00 0.000000e+00 0.000000e+00
<ENDHMM>
~h "ng"
<BEGINHMM>
<NUMSTATES> 5
<STATE> 2
<MEAN> 39
 -4.398058e+00 8.387032e-01 -4.368805e+00 -1.904891e+00 -3.044570e+00 -3.413198e+00 -3.601430e+00 -4.718697e-02 -1.132999e+00 -4.074433e-01 -3.558265e+00 -1.989155e+00 5.102054e+01 -5.178821e-02 -2.475150e-02 -5.775336e-02 -1.284643e-02 4.871842e-03 -6.740188e-03 4.716958e-02 5.446724e-02 5.671133e-02 2.564769e-02 6.694266e-02 5.327258e-03 -1.074133e-01 1.935630e-03 4.937800e-04 5.386783e-03 1.783748e-04 -3.358147e-03 -1.708978e-03 -2.488121e-03 -3.222795e-03 -3.687693e-03 -4.139010e-04 -2.154473e-03 5.435323e-04 8.599281e-03
<VARIANCE> 39
 9.219481e+00 1.288271e+01 2.056390e+01 1.991005e+01 2.130729e+01 2.005736e+01 2.392390e+01 3.327073e+01 2.652051e+01 2.379310e+01 1.985363e+01 1.627533e+01 2.424289e+01 3.376873e-01 6.002379e-01 8.445564e-01 1.042665e+00 1.212342e+00 1.427647e+00 1.552828e+00 1.779138e+00 1.610685e+00 1.503865e+00 1.444369e+00 1.342928e+00 2.579578e-01 5.592231e-02 1.006200e-01 1.531733e-01 1.890807e-01 2.288655e-01 2.800863e-01 3.075585e-01 3.483831e-01 3.188584e-01 2.869405e-01 2.838945e-01 2.683836e-01 3.451044e-02
<GCONST> 8.861843e+01
<STATE> 3
<MEAN> 39
 -4.619615e+00 7.303950e-01 -4.591835e+00 -1.965822e+00 -3.053472e+00 -3.458929e+00 -3.421231e+00 1.612239e-01 -9.116641e-01 -2.951167e-01 -3.274012e+00 -1.963705e+00 5.059117e+01 -4.445835e-02 -2.325848e-02 -3.353256e-02 -8.732470e-03 -6.992283e-03 -1.168702e-02 3.916661e-02 4.215025e-02 4.101274e-02 2.363260e-02 5.724004e-02 8.964909e-03 -7.025371e-02 9.463546e-04 2.499332e-04 5.793627e-03 2.612844e-03 -6.480617e-04 -2.169283e-05 -1.737089e-04 -1.215938e-03 -2.614743e-03 -3.150880e-04 -2.548285e-03 1.610455e-03 7.621229e-03
<VARIANCE> 39
 8.123222e+00 1.220401e+01 1.908389e+01 1.798660e+01 1.954346e+01 1.869813e+01 2.147063e+01 2.954943e+01 2.536481e+01 2.226022e+01 1.824555e+01 1.624172e+01 1.908756e+01 3.099345e-01 5.527921e-01 7.755353e-01 9.490109e-01 1.150482e+00 1.390141e+00 1.521867e+00 1.747566e+00 1.600420e+00 1.470134e+00 1.425397e+00 1.336327e+00 2.463273e-01 5.416090e-02 9.455881e-02 1.433991e-01 1.758407e-01 2.204625e-01 2.752265e-01 3.053003e-01 3.498208e-01 3.203824e-01 2.854519e-01 2.819842e-01 2.680251e-01 3.613191e-02
<GCONST> 8.662993e+01
<STATE> 4
<MEAN> 39
 -4.939208e+00 5.740375e-01 -4.690862e+00 -1.985333e+00 -3.088860e+00 -3.499861e+00 -3.261616e+00 3.828197e-01 -6.499515e-01 -1.446859e-01 -3.019407e+00 -1.901663e+00 5.008411e+01 -4.052316e-02 -2.225911e-02 -1.294412e-03 6.254242e-03 -1.013148e-02 -7.794965e-03 3.610569e-02 3.381667e-02 2.500527e-02 2.178811e-02 4.203938e-02 1.857396e-02 -2.925330e-02 1.000142e-03 6.491644e-04 4.079598e-03 2.718795e-03 1.425177e-03 1.014427e-03 5.769916e-04 1.446182e-03 1.665555e-04 3.380433e-04 -2.433809e-03 1.768164e-03 4.227199e-03
<VARIANCE> 39
 7.335436e+00 1.165465e+01 1.742710e+01 1.616457e+01 1.771414e+01 1.706737e+01 1.893952e+01 2.553107e+01 2.428125e+01 2.033727e+01 1.687240e+01 1.608258e+01 1.470036e+01 3.031420e-01 5.194497e-01 7.225499e-01 8.682282e-01 1.090441e+00 1.348292e+00 1.479949e+00 1.684966e+00 1.577305e+00 1.421482e+00 1.419214e+00 1.331029e+00 2.630507e-01 5.657807e-02 9.169186e-02 1.376960e-01 1.644635e-01 2.135188e-01 2.705401e-01 2.986806e-01 3.425146e-01 3.182050e-01 2.797546e-01 2.819380e-01 2.682821e-01 4.395058e-02
<GCONST> 8.493923e+01
<TRANSP> 5
 0.000000e+00 1.000000e+00 0.000000e+00 0.000000e+00 0.000000e+00
 0.000000e+00 7.791053e-01 2.208947e-01 0.000000e+00 0.000000e+00
 0.000000e+00 0.000000e+00 7.791048e-01 2.208951e-01 0.000000e+00
 0.000000e+00 0.000000e+00 0.000000e+00 9.081768e-01 9.182321e-02
 0.000000e+00 0.000000e+00 0.000000e+00 0.000000e+00 0.000000e+00
<ENDHMM>
~h "sil"
<BEGINHMM>
<NUMSTATES> 5
<STATE> 2
<MEAN> 39
 -5.160357e+00 -1.107066e+00 -5.818780e+00 -2.928282e+00 -4.172324e+00 -4.154716e+00 -3.709616e+00 -3.705900e-01 -8.614269e-01 -5.229821e-01 -2.841351e+00 -1.714767e+00 4.178218e+01 -4.990104e-01 -2.647319e-01 -6.451194e-01 -3.998231e-01 -5.451094e-01 -5.127990e-01 -4.393450e-01 -1.208830e-01 -1.701170e-01 -1.089266e-01 -3.009987e-01 -1.691958e-01 3.420946e+00 1.000118e-01 5.955219e-02 1.298662e-01 6.255861e-02 1.104078e-01 7.456461e-02 7.657523e-02 1.697049e-02 1.080313e-02 -7.360160e-03 4.382499e-02 2.700064e-02 -5.434458e-01
<VARIANCE> 39
 1.208622e+01 1.216734e+01 2.205270e+01 1.697863e+01 2.056283e+01 2.154653e+01 2.182917e+01 2.150828e+01 2.136499e+01 1.737170e+01 1.608989e+01 1.340370e+01 2.956533e+02 1.194324e+00 7.658363e-01 2.039655e+00 1.443970e+00 2.031810e+00 2.210954e+00 2.203326e+00 1.679732e+00 1.722617e+00 1.488343e+00 1.642311e+00 1.340639e+00 3.098729e+01 1.396942e-01 1.109633e-01 2.369191e-01 2.156202e-01 2.965137e-01 3.329135e-01 3.492049e-01 3.239628e-01 3.203402e-01 3.024956e-01 3.111241e-01 2.503335e-01 2.121289e+00
<GCONST> 1.050141e+02
<STATE> 3
<MEAN> 39
 -6.156981e+00 -1.582466e+00 -6.961043e+00 -3.727378e+00 -5.152564e+00 -5.230498e+00 -4.438198e+00 -5.820813e-01 -1.248579e+00 -8.074439e-01 -3.465439e+00 -2.002041e+00 4.862712e+01 -1.446060e-01 -6.545375e-02 -1.782342e-01 -1.292384e-01 -1.513741e-01 -1.732374e-01 -1.086334e-01 -3.362472e-02 -6.809563e-02 -5.214993e-02 -1.027168e-01 -4.353835e-02 1.024935e+00 6.763015e-02 3.725085e-02 8.862108e-02 5.398804e-02 7.612299e-02 7.075287e-02 6.537125e-02 1.597262e-02 2.032377e-02 1.379847e-02 3.736117e-02 2.296292e-02 -5.009016e-01
<VARIANCE> 39
 9.927344e+00 1.298763e+01 1.850852e+01 1.757662e+01 1.977184e+01 2.098757e+01 2.186054e+01 2.391875e+01 2.371680e+01 1.910918e+01 1.658115e+01 1.458011e+01 3.808300e+01 7.708836e-01 6.097501e-01 1.172514e+00 1.114287e+00 1.413681e+00 1.653897e+00 1.822620e+00 1.665624e+00 1.654472e+00 1.561003e+00 1.592073e+00 1.308815e+00 1.208867e+01 1.452301e-01 1.173062e-01 2.178511e-01 2.160409e-01 2.802268e-01 3.206813e-01 3.577443e-01 3.365989e-01 3.393888e-01 3.251275e-01 3.281128e-01 2.677925e-01 1.491583e+00
<GCONST> 9.960923e+01
<STATE> 4
<MEAN> 39
 -6.298270e+00 -1.454281e+00 -6.663825e+00 -3.542302e+00 -4.914176e+00 -5.062931e+00 -4.192724e+00 -1.575850e-01 -9.785060e-01 -5.927755e-01 -3.496079e+00 -1.655799e+00 4.934435e+01 -3.138241e-03 1.095460e-02 -2.969756e-03 1.460548e-02 1.536444e-02 1.980538e-02 1.655670e-02 1.923454e-02 -9.543023e-03 7.290164e-03 -2.388479e-02 1.285606e-02 -5.478443e-02 8.073260e-03 3.052491e-03 1.179508e-02 1.429159e-02 1.612450e-02 1.631619e-02 9.475057e-03 1.469800e-03 -3.181848e-03 -1.578576e-04 -3.742278e-03 -1.605033e-03 -1.012081e-01
<VARIANCE> 39
 1.054719e+01 1.340330e+01 1.736767e+01 1.649438e+01 1.901940e+01 2.020445e+01 2.078127e+01 2.482293e+01 2.361888e+01 1.916918e+01 1.747200e+01 1.547135e+01 1.359691e+01 6.269685e-01 5.957888e-01 8.372734e-01 9.607871e-01 1.215760e+00 1.413391e+00 1.630733e+00 1.714311e+00 1.606938e+00 1.606980e+00 1.560253e+00 1.294247e+00 1.242368e+00 1.252463e-01 1.145549e-01 1.659302e-01 1.872757e-01 2.398839e-01 2.822467e-01 3.138246e-01 3.279602e-01 3.154798e-01 3.170939e-01 3.130527e-01 2.536482e-01 3.020993e-01
<GCONST> 9.232939e+01
<TRANSP> 5
 0.000000e+00 1.000000e+00 0.000000e+00 0.000000e+00 0.000000e+00
 0.000000e+00 7.829652e-01 2.170347e-01 0.000000e+00 0.000000e+00
 0.000000e+00 0.000000e+00 7.829654e-01 2.170347e-01 0.000000e+00
 0.000000e+00 0.000000e+00 0.000000e+00 9.134471e-01 8.655292e-02
 0.000000e+00 0.000000e+00 0.000000e+00 0.000000e+00 0.000000e+00
<ENDHMM>
