~o
<STREAMINFO> 1 39
<VECSIZE> 39<NULLD><MFCC_D_A_0><DIAGC>
~s "silst"
<MEAN> 39
 -6.513139e+00 -1.210440e+00 -5.475513e+00 -1.329607e+00 -3.040982e+00 -2.164798e+00 -1.579124e+00 1.747363e-01 1.104954e+00 -1.261858e+00 -9.153788e-02 -1.683848e+00 3.978222e+01 -2.986417e-01 -9.658122e-02 -3.044845e-01 -1.376889e-01 -1.873642e-01 -1.334429e-01 -7.574455e-02 -3.128109e-02 -4.573368e-02 -1.148257e-01 4.122248e-03 -7.864953e-02 1.110597e+00 1.771617e-01 4.309455e-02 1.078283e-01 4.632469e-02 1.185731e-01 9.959679e-02 2.789839e-02 2.188846e-02 9.124166e-03 4.614446e-02 -9.952021e-03 3.491997e-02 -6.989790e-01
<VARIANCE> 39
 1.122199e+01 1.295888e+01 1.500028e+01 1.970117e+01 2.002170e+01 2.292752e+01 2.221134e+01 2.201261e+01 2.006839e+01 1.830911e+01 1.544119e+01 1.273630e+01 1.954802e+01 1.010729e+00 9.015477e-01 1.458278e+00 1.404447e+00 1.663439e+00 1.734365e+00 1.804836e+00 1.817140e+00 1.481217e+00 1.429254e+00 1.184841e+00 9.768295e-01 1.261759e+01 1.591009e-01 1.752554e-01 2.762486e-01 2.866367e-01 3.093579e-01 3.227918e-01 3.644696e-01 3.715532e-01 2.915834e-01 2.937903e-01 2.405885e-01 1.882685e-01 1.428568e+00
<GCONST> 9.951608e+01
~h "a"
<BEGINHMM>
<NUMSTATES> 5
<STATE> 2
<MEAN> 39
 5.960907e-01 -3.615326e+00 -7.770617e+00 -9.496496e+00 -1.397243e+00 1.039494e+00 -7.250180e+00 2.821634e+00 8.922927e-01 2.146281e+00 -3.075763e+00 -2.372117e+00 5.284694e+01 1.033844e+00 -8.825381e-01 -5.163514e-01 -1.407040e+00 8.739720e-02 7.410723e-01 -8.329587e-01 6.202127e-01 2.040303e-01 3.698571e-01 -5.748965e-01 -3.879018e-01 1.903070e+00 -1.810676e-01 5.611841e-02 -1.183957e-02 1.200783e-01 -4.165110e-02 -9.264533e-02 1.484840e-01 4.376896e-02 4.511920e-02 -1.083564e-01 -1.142409e-03 1.424337e-02 -1.472822e-01
<VARIANCE> 39
 2.885582e+01 2.476678e+01 1.972773e+01 4.135228e+01 2.949274e+01 3.172630e+01 3.735719e+01 3.703268e+01 3.801772e+01 3.818821e+01 2.522825e+01 1.968231e+01 6.075243e+01 2.477180e+00 1.958210e+00 1.633092e+00 3.257102e+00 2.485778e+00 2.304697e+00 3.003567e+00 2.528456e+00 2.360137e+00 2.483900e+00 1.836469e+00 1.416299e+00 3.624258e+00 4.227732e-01 3.317125e-01 3.095807e-01 6.281856e-01 4.424387e-01 4.065912e-01 5.505157e-01 4.275025e-01 4.205312e-01 4.391563e-01 2.976650e-01 2.457346e-01 6.841425e-01
<GCONST> 1.162094e+02
<STATE> 3
<MEAN> 39
 3.278218e+00 -5.911527e+00 -8.937327e+00 -1.302689e+01 -2.365821e+00 1.359414e+00 -9.557295e+00 6.907726e+00 2.731330e+00 2.995270e+00 -5.312695e+00 -3.814348e+00 5.894829e+01 6.542540e-03 2.624851e-01 3.586466e-01 3.200701e-01 -3.164044e-01 -4.104116e-01 5.638970e-02 1.305273e-01 5.801257e-02 -1.718504e-01 8.029565e-02 2.076684e-01 -2.589160e-01 -1.029976e-01 2.889555e-01 2.431216e-01 3.129579e-01 -6.228489e-02 -1.708508e-01 1.248487e-01 -2.166788e-01 -1.280125e-01 -7.252233e-02 2.147614e-01 1.375473e-01 -3.667686e-01
<VARIANCE> 39
 6.023006e+00 1.396705e+01 1.601137e+01 2.588890e+01 2.394529e+01 2.886549e+01 2.977251e+01 3.899405e+01 4.153152e+01 3.543792e+01 2.463403e+01 1.819929e+01 1.370277e+01 4.649865e-01 1.010877e+00 1.198383e+00 1.491783e+00 1.564943e+00 1.660765e+00 1.661878e+00 2.188867e+00 1.959912e+00 1.333246e+00 1.463949e+00 1.060648e+00 8.492914e-01 9.519908e-02 1.501962e-01 1.774000e-01 3.095465e-01 2.547556e-01 2.202267e-01 3.552587e-01 3.281760e-01 4.037269e-01 2.778555e-01 2.160747e-01 1.813780e-01 1.794629e-01
<GCONST> 9.573503e+01
<STATE> 4
<MEAN> 39
 2.779814e+00 -9.150240e-01 -5.624430e+00 -7.117312e+00 -3.357555e+00 -1.778629e+00 -7.483783e+00 3.640816e+00 2.602630e+00 9.665257e-01 -2.652323e+00 -1.534410e+00 5.166929e+01 -6.027564e-01 1.196494e+00 6.408789e-01 1.389092e+00 -1.538611e-01 -4.639073e-01 1.077816e+00 -6.722207e-01 -3.916658e-01 -7.175061e-01 7.508833e-01 1.377344e-01 -1.946328e+00 -1.960551e-01 -1.974297e-01 -1.236570e-01 -1.104821e-01 2.516757e-02 1.096934e-01 1.126647e-01 1.243509e-01 -7.668325e-02 -2.921999e-03 -1.036591e-01 -9.429517e-02 1.090986e-01
<VARIANCE> 39
 1.670473e+01 2.023660e+01 2.219595e+01 4.332221e+01 3.378115e+01 4.522364e+01 4.089779e+01 4.721679e+01 3.695774e+01 3.235612e+01 3.008792e+01 1.922952e+01 3.278112e+01 1.561628e+00 1.632492e+00 2.353794e+00 2.693377e+00 2.278452e+00 2.367793e+00 3.203684e+00 3.041533e+00 2.930809e+00 2.234293e+00 1.875076e+00 1.587703e+00 2.512340e+00 2.494206e-01 2.834519e-01 3.015305e-01 5.063785e-01 4.179135e-01 4.490386e-01 6.808047e-01 6.220800e-01 4.840968e-01 3.893694e-01 3.522207e-01 2.537469e-01 3.624341e-01
<GCONST> 1.146799e+02
<TRANSP> 5
 0.000000e+00 1.000000e+00 0.000000e+00 0.000000e+00 0.000000e+00
 0.000000e+00 6.535004e-01 3.464996e-01 0.000000e+00 0.000000e+00
 0.000000e+00 0.000000e+00 8.034070e-01 1.965930e-01 0.000000e+00
 0.000000e+00 0.000000e+00 0.000000e+00 6.410022e-01 3.589979e-01
 0.000000e+00 0.000000e+00 0.000000e+00 0.000000e+00 0.000000e+00
<ENDHMM>
~h "b"
<BEGINHMM>
<NUMSTATES> 5
<STATE> 2
<MEAN> 39
 6.296570e-01 3.567225e+00 1.161822e+01 -3.159879e+00 -1.192645e+01 -3.455408e+00 -8.258978e+00 -2.184361e+00 -5.725226e+00 7.456645e-01 6.787676e-01 -2.433065e+00 5.231601e+01 -5.267021e-01 -2.732733e-01 1.378085e+00 -6.835174e-01 -1.220116e+00 2.898554e-02 -1.333327e-01 -3.532875e-02 -6.406056e-01 4.306835e-01 1.708452e-01 1.983480e-01 4.587356e-01 6.250019e-02 1.118590e-01 -2.146583e-01 -1.457753e-02 2.073600e-01 1.130000e-01 1.160602e-01 -1.075862e-01 8.388708e-02 1.343895e-01 2.753306e-02 -1.045939e-01 -1.363393e-01
<VARIANCE> 39
 1.267537e+01 1.520195e+01 5.494275e+01 3.845979e+01 6.045154e+01 2.954123e+01 2.065731e+01 3.243106e+01 3.413797e+01 2.426685e+01 2.404986e+01 1.416124e+01 1.367832e+01 6.444863e-01 1.848718e+00 3.455079e+00 2.564385e+00 4.277803e+00 2.725160e+00 2.443283e+00 2.443742e+00 2.041214e+00 2.427455e+00 1.484000e+00 1.711112e+00 1.687755e+00 1.242269e-01 3.577559e-01 7.955145e-01 5.664288e-01 1.028146e+00 5.303653e-01 4.413981e-01 4.638632e-01 4.797435e-01 4.845085e-01 3.232298e-01 3.149614e-01 3.677553e-01
<GCONST> 1.125630e+02
<STATE> 3
<MEAN> 39
 4.712290e-02 5.730156e+00 9.967968e+00 -5.244977e+00 -9.674138e+00 -1.533172e+00 -5.076023e+00 -3.622680e+00 -6.142881e+00 5.179532e+00 -7.922119e-01 -3.786404e+00 4.975597e+01 5.792169e-01 4.551405e-01 -2.028034e+00 1.100451e+00 1.743427e+00 -1.034802e-01 5.394629e-01 -1.056220e-01 9.006553e-01 -1.711385e-01 -5.020885e-01 4.517268e-02 -8.270677e-01 7.696109e-02 -8.220935e-02 -9.680581e-02 2.156672e-01 -3.306248e-02 -4.087459e-02 -1.156475e-01 1.042628e-01 1.494876e-01 -3.021463e-01 4.811804e-03 2.213344e-01 1.070989e-01
<VARIANCE> 39
 1.055558e+01 8.579113e+00 3.120957e+01 2.921735e+01 3.249207e+01 2.855218e+01 2.060567e+01 2.281286e+01 3.290065e+01 2.305475e+01 3.493360e+01 1.702999e+01 6.904422e+00 5.695865e-01 7.611750e-01 1.956301e+00 2.432389e+00 2.600105e+00 2.331637e+00 1.947471e+00 2.225058e+00 2.094197e+00 2.371302e+00 1.324576e+00 1.438453e+00 5.340869e-01 1.173672e-01 1.404427e-01 4.851346e-01 3.730582e-01 5.176902e-01 4.252256e-01 3.324924e-01 3.969038e-01 3.596715e-01 3.474400e-01 2.912333e-01 2.264341e-01 9.108028e-02
<GCONST> 1.000008e+02
<STATE> 4
<MEAN> 39
 2.605943e+00 7.253176e+00 2.314172e+00 1.792236e+00 -4.270195e+00 -2.221526e+00 -4.357943e+00 -4.931389e+00 -1.085758e+00 1.052920e+00 -1.560930e+00 -5.256256e-01 4.721630e+01 -2.659292e-01 2.739802e-03 -9.747793e-02 4.881215e-01 5.519438e-01 5.062127e-01 1.042913e-01 -5.387584e-02 5.445008e-01 -4.293665e-01 -9.454672e-02 4.129589e-01 -3.415736e-01 -2.821738e-01 -1.610777e-01 3.006522e-01 -1.807383e-01 -3.155560e-02 1.042263e-01 4.733788e-02 1.455215e-01 -2.382945e-01 5.606269e-02 6.382115e-02 -1.508009e-01 -2.968388e-03
<VARIANCE> 39
 7.508466e+00 6.536816e+00 1.253850e+01 8.417328e+00 1.792860e+01 1.422661e+01 2.133046e+01 2.040249e+01 2.548939e+01 1.707191e+01 2.176689e+01 1.850355e+01 5.331860e+00 5.120379e-01 6.839043e-01 8.654738e-01 8.054509e-01 1.042575e+00 1.072672e+00 1.147545e+00 1.714405e+00 1.458260e+00 1.242617e+00 1.368193e+00 1.159913e+00 2.665578e-01 8.143449e-02 1.638707e-01 3.049492e-01 1.588350e-01 2.449920e-01 2.678234e-01 2.597173e-01 3.122504e-01 2.473773e-01 2.491224e-01 1.974903e-01 2.488513e-01 4.908288e-02
<GCONST> 8.331332e+01
<TRANSP> 5
 0.000000e+00 1.000000e+00 0.000000e+00 0.000000e+00 0.000000e+00
 0.000000e+00 8.956032e-01 1.043967e-01 0.000000e+00 0.000000e+00
 0.000000e+00 0.000000e+00 8.185747e-01 1.814253e-01 0.000000e+00
 0.000000e+00 0.000000e+00 0.000000e+00 7.663952e-01 2.336048e-01
 0.000000e+00 0.000000e+00 0.000000e+00 0.000000e+00 0.000000e+00
<ENDHMM>
~h "c"
<BEGINHMM>
<NUMSTATES> 5
<STATE> 2
<MEAN> 39
 -1.344371e+01 2.644690e+00 5.051225e+00 -6.894444e+00 -4.373463e+00 -4.544743e+00 -4.452734e+00 1.753990e+00 -4.992762e+00 -1.174732e-01 7.913600e-01 4.875019e-01 5.357397e+01 1.139714e+00 2.251031e-01 1.785675e+00 -3.813493e-02 -1.422537e+00 -2.857478e-01 -3.802603e-01 -1.549795e-02 -5.897298e-01 1.020483e-01 6.824933e-02 -3.363628e-02 7.294101e-01 4.937560e-01 -3.530560e-02 6.731980e-02 8.011310e-02 -2.685678e-01 2.453206e-02 -3.350747e-02 -1.821665e-01 1.791297e-02 8.048339e-02 2.091835e-02 -8.576909e-02 -2.662904e-01
<VARIANCE> 39
 7.024218e+01 2.340147e+01 4.616300e+01 2.146070e+01 4.537030e+01 3.602379e+01 3.157016e+01 2.317828e+01 2.140718e+01 1.848768e+01 1.336188e+01 1.219422e+01 1.135744e+01 1.083629e+01 1.966855e+00 2.659538e+00 2.741844e+00 3.658577e+00 2.225298e+00 3.247763e+00 2.243381e+00 2.072891e+00 1.809980e+00 1.185120e+00 1.129685e+00 1.488896e+00 1.801284e+00 3.670422e-01 6.087496e-01 5.996853e-01 6.113142e-01 4.557652e-01 6.468151e-01 3.523426e-01 4.181575e-01 3.481957e-01 2.376229e-01 1.977030e-01 2.929984e-01
<GCONST> 1.142292e+02
<STATE> 3
<MEAN> 39
 -1.597148e+00 4.043777e+00 1.474164e+01 -8.071351e+00 -1.450921e+01 -2.750553e+00 -5.868943e+00 -2.894138e+00 -7.715116e+00 5.079953e+00 2.331863e-01 -2.813073e+00 5.319519e+01 2.884831e-01 2.744204e-01 -9.086956e-01 3.915755e-01 7.671858e-01 6.484776e-01 5.586780e-01 -3.444535e-01 2.578621e-01 5.240726e-01 -3.625297e-01 -3.853890e-01 -7.213086e-01 -5.726825e-03 3.855152e-02 -4.698044e-01 2.877967e-01 4.206843e-01 -2.068344e-02 1.572442e-02 7.703915e-03 2.693793e-01 -2.478874e-01 -1.535866e-02 1.013578e-01 -1.211851e-01
<VARIANCE> 39
 5.793318e+00 7.073123e+00 1.716479e+01 2.501424e+01 2.874794e+01 4.244653e+01 2.455480e+01 2.892688e+01 2.672232e+01 2.630830e+01 2.406423e+01 1.442578e+01 7.971530e+00 6.030492e-01 4.714307e-01 2.446108e+00 1.984738e+00 2.853629e+00 1.990260e+00 1.751663e+00 1.629079e+00 1.527777e+00 2.100483e+00 1.250908e+00 1.097338e+00 4.699853e-01 2.062602e-01 1.035300e-01 3.004904e-01 3.157637e-01 5.192459e-01 4.871724e-01 4.160272e-01 3.300058e-01 2.797431e-01 4.122508e-01 2.728216e-01 2.406694e-01 7.561452e-02
<GCONST> 9.641420e+01
<STATE> 4
<MEAN> 39
 2.337173e+00 5.667751e+00 3.164833e+00 -7.303010e-01 -5.763524e+00 -7.410375e-01 -4.347415e+00 -5.068402e+00 -1.727005e+00 2.004037e+00 -1.081143e+00 -1.884226e+00 4.803661e+01 1.292393e-01 9.545580e-02 -5.568170e-01 7.523915e-01 6.488689e-01 3.114043e-02 -1.476371e-01 -2.035896e-01 6.182852e-01 -6.430849e-01 1.855604e-01 3.629958e-01 -3.852383e-01 -1.972474e-01 -5.302599e-02 3.557252e-01 -1.526388e-01 -1.465124e-01 4.188241e-02 5.958807e-02 1.344495e-01 -1.567860e-01 7.207627e-02 4.903659e-02 -2.664647e-02 7.359874e-02
<VARIANCE> 39
 1.186373e+01 6.128732e+00 1.386649e+01 1.297184e+01 1.480443e+01 1.961795e+01 2.354245e+01 1.947350e+01 2.113397e+01 2.351463e+01 2.339953e+01 1.572305e+01 5.462554e+00 5.517381e-01 5.209945e-01 1.913157e+00 1.277521e+00 1.814308e+00 1.424382e+00 1.289106e+00 1.868624e+00 1.882065e+00 1.800587e+00 1.397052e+00 7.576230e-01 2.959777e-01 8.256941e-02 9.318131e-02 2.524740e-01 2.318514e-01 4.006885e-01 2.320536e-01 2.305169e-01 3.031518e-01 2.889910e-01 3.146591e-01 2.513381e-01 1.554061e-01 6.761650e-02
<GCONST> 8.722887e+01
<TRANSP> 5
 0.000000e+00 1.000000e+00 0.000000e+00 0.000000e+00 0.000000e+00
 0.000000e+00 8.891949e-01 1.108050e-01 0.000000e+00 0.000000e+00
 0.000000e+00 0.000000e+00 8.775401e-01 1.224599e-01 0.000000e+00
 0.000000e+00 0.000000e+00 0.000000e+00 8.512173e-01 1.487827e-01
 0.000000e+00 0.000000e+00 0.000000e+00 0.000000e+00 0.000000e+00
<ENDHMM>
~h "h"
<BEGINHMM>
<NUMSTATES> 5
<STATE> 2
<MEAN> 39
 -5.123360e-01 1.849813e+00 1.089129e+01 -5.285067e+00 -1.366394e+01 -5.274513e+00 -9.179045e+00 2.901498e+00 -8.172101e+00 3.848640e-02 1.190965e+00 -2.466643e+00 5.521918e+01 -2.960685e-01 4.077648e-02 3.143228e-01 3.322846e-02 -4.563239e-01 1.630504e-01 3.852936e-01 1.065509e-01 -3.943999e-01 3.149624e-01 3.246797e-01 1.414804e-01 4.050062e-01 -5.580616e-02 3.176931e-02 -1.686714e-01 1.410278e-01 2.467970e-01 6.420799e-02 1.376433e-01 -1.139576e-02 2.383644e-01 9.873947e-03 -5.638565e-02 9.569663e-02 -1.737976e-01
<VARIANCE> 39
 7.990776e+00 9.775201e+00 1.437677e+01 2.545150e+01 4.496035e+01 4.557496e+01 2.671651e+01 2.706845e+01 2.810176e+01 2.118137e+01 1.862084e+01 1.158811e+01 1.031661e+01 4.430358e-01 7.579699e-01 1.249215e+00 1.761462e+00 3.293896e+00 2.304906e+00 2.238966e+00 1.753458e+00 2.556666e+00 1.332914e+00 1.171289e+00 1.478917e+00 7.564025e-01 9.859358e-02 1.458428e-01 1.634172e-01 3.232102e-01 4.700058e-01 4.686191e-01 4.613084e-01 3.838363e-01 3.298484e-01 2.917033e-01 2.310290e-01 2.212834e-01 1.104815e-01
<GCONST> 9.688730e+01
<STATE> 3
<MEAN> 39
 -2.861038e+00 7.648077e-01 5.012513e+00 -2.153259e+00 -5.895795e+00 -3.706036e+00 -2.857825e+00 6.597929e+00 -2.231287e+00 8.030334e-01 -1.079746e+00 2.923831e+00 5.560649e+01 4.057268e-01 -6.950467e-01 -1.665437e+00 -3.133314e-01 1.356569e+00 -6.208386e-02 -2.436896e-02 8.655818e-01 1.033058e+00 -9.257180e-02 -1.038116e+00 3.139069e-01 4.891972e-01 1.557303e-01 -1.620291e-01 -1.016871e-01 -3.281073e-01 -1.885516e-01 1.963281e-02 -3.319106e-01 -2.410784e-02 -8.612567e-02 6.223690e-02 -1.262394e-01 -2.672827e-01 2.066676e-01
<VARIANCE> 39
 8.821795e+00 1.177608e+01 2.167216e+01 2.103196e+01 3.292790e+01 2.861398e+01 3.286590e+01 3.406778e+01 2.670416e+01 2.213230e+01 2.873782e+01 1.243547e+01 1.121151e+01 5.098750e-01 6.703615e-01 6.574777e-01 2.293266e+00 2.183069e+00 1.856125e+00 2.369199e+00 1.644967e+00 1.387555e+00 1.832901e+00 1.205632e+00 1.326896e+00 7.580659e-01 7.144025e-02 1.210052e-01 1.315429e-01 2.931633e-01 3.515858e-01 3.280513e-01 2.727738e-01 3.440107e-01 2.396860e-01 3.211888e-01 2.474515e-01 2.178165e-01 6.946624e-02
<GCONST> 9.352800e+01
<STATE> 4
<MEAN> 39
 2.294154e+00 -6.122305e+00 -7.269349e+00 -8.968972e+00 -2.842586e+00 -3.035525e+00 -8.497622e+00 9.915644e+00 1.723911e+00 2.130406e+00 -6.972393e+00 -1.617766e+00 6.141638e+01 3.405116e-01 -3.548493e-01 -7.007003e-01 -4.950310e-01 -1.486974e-02 1.290899e-01 -2.837527e-01 9.799300e-02 3.714564e-01 -7.356858e-02 -2.662393e-01 -3.657641e-01 1.613195e-01 -5.328895e-02 1.631668e-01 1.552592e-01 1.115282e-01 -3.406020e-02 -3.607276e-02 1.814724e-02 -6.730696e-02 -2.372628e-02 -3.565614e-02 9.774816e-02 9.158792e-02 -1.282743e-01
<VARIANCE> 39
 6.049269e+00 8.443720e+00 2.210497e+01 2.824798e+01 1.545997e+01 1.678420e+01 2.350892e+01 2.815216e+01 3.209587e+01 2.663607e+01 2.772010e+01 2.052343e+01 7.989215e+00 3.868916e-01 9.737325e-01 9.579467e-01 8.952294e-01 8.172727e-01 7.999617e-01 9.222943e-01 1.177716e+00 1.014101e+00 7.031859e-01 7.329811e-01 9.068490e-01 4.659924e-01 5.041907e-02 1.066536e-01 1.079428e-01 1.130157e-01 1.416413e-01 1.434661e-01 1.715521e-01 1.845054e-01 1.747312e-01 1.198350e-01 1.042606e-01 1.282369e-01 6.355388e-02
<GCONST> 7.837383e+01
<TRANSP> 5
 0.000000e+00 1.000000e+00 0.000000e+00 0.000000e+00 0.000000e+00
 0.000000e+00 9.090883e-01 9.091166e-02 0.000000e+00 0.000000e+00
 0.000000e+00 0.000000e+00 8.485929e-01 1.514071e-01 0.000000e+00
 0.000000e+00 0.000000e+00 0.000000e+00 9.057117e-01 9.428831e-02
 0.000000e+00 0.000000e+00 0.000000e+00 0.000000e+00 0.000000e+00
<ENDHMM>
~h "i"
<BEGINHMM>
<NUMSTATES> 5
<STATE> 2
<MEAN> 39
 -1.303165e+00 3.475125e+00 1.078780e+01 -7.103805e+00 -1.123710e+01 -5.127870e+00 -8.089629e+00 -2.050662e-01 -5.207851e+00 2.556811e+00 -4.995564e-02 -1.296485e+00 5.334426e+01 1.022041e-02 6.034799e-01 3.588205e-01 2.576479e-01 3.094388e-01 1.679892e-01 8.722799e-02 -4.624222e-01 -1.865726e-01 -7.334288e-02 1.346063e-01 -5.145735e-02 -3.041357e-01 -4.775434e-02 -1.168782e-01 -4.539365e-01 1.219336e-01 2.684734e-01 1.179365e-01 1.712966e-01 1.165252e-01 2.679954e-01 -1.198538e-01 -8.603133e-02 -5.146732e-02 -2.134168e-01
<VARIANCE> 39
 8.875849e+00 1.728702e+01 3.213982e+01 3.366593e+01 3.334389e+01 3.694497e+01 2.584892e+01 4.168757e+01 3.920059e+01 2.083679e+01 1.418826e+01 1.410837e+01 2.391814e+01 7.053800e-01 8.883371e-01 3.016877e+00 2.011486e+00 2.522611e+00 1.919211e+00 2.374577e+00 2.132724e+00 2.877997e+00 1.646487e+00 1.115729e+00 1.024187e+00 1.659259e+00 1.089075e-01 1.550090e-01 3.133475e-01 2.731246e-01 3.671515e-01 3.705457e-01 3.824021e-01 3.362888e-01 3.949704e-01 2.703704e-01 2.091938e-01 2.175036e-01 1.709861e-01
<GCONST> 1.020270e+02
<STATE> 3
<MEAN> 39
 -5.195528e-01 6.065153e+00 4.251897e+00 -1.006056e-01 -3.122171e+00 -1.991302e+00 -4.317417e+00 -1.598142e+00 -1.081839e+00 -3.080835e-01 -9.866772e-01 -1.606108e+00 4.572361e+01 -4.924746e-01 -5.088810e-01 -1.442512e+00 4.728230e-01 8.586922e-01 5.911865e-01 8.904818e-01 3.189197e-01 7.563770e-01 -6.939770e-01 -5.265342e-02 -3.451326e-01 -1.062031e+00 -2.106677e-01 -3.645709e-01 -5.734127e-02 -4.152435e-01 -4.420346e-01 -1.382813e-01 -1.065571e-01 1.163452e-01 -1.789688e-01 1.318146e-01 1.015701e-01 -1.427847e-02 1.994330e-01
<VARIANCE> 39
 1.418069e+01 9.939468e+00 1.904980e+01 2.203004e+01 2.385471e+01 3.259440e+01 3.329904e+01 3.127538e+01 2.152160e+01 1.658099e+01 1.413262e+01 1.458136e+01 1.053056e+01 1.264798e+00 1.274413e+00 2.885060e+00 1.888674e+00 2.597842e+00 2.901525e+00 2.858000e+00 2.260796e+00 3.128886e+00 1.501336e+00 1.262762e+00 1.414921e+00 2.989433e+00 1.342876e-01 1.456852e-01 2.296636e-01 2.607236e-01 3.304451e-01 4.436486e-01 4.715984e-01 4.259985e-01 3.603764e-01 2.426804e-01 2.336363e-01 2.526956e-01 1.420365e-01
<GCONST> 1.016181e+02
<STATE> 4
<MEAN> 39
 -3.800528e+00 2.100833e+00 -8.389585e-01 -1.266384e+00 -3.527898e+00 -1.548372e+00 -2.485458e+00 -5.610889e-02 7.602276e-01 -1.155435e+00 2.703226e-02 -2.362401e+00 4.365706e+01 -3.890417e-01 -5.667594e-01 -6.661612e-01 -1.825202e-01 -4.871898e-02 -2.105386e-01 1.124620e-01 2.374631e-01 5.323546e-02 -1.343971e-01 9.014084e-02 1.084513e-01 -2.282664e-01 5.610983e-02 5.615113e-02 2.519235e-01 -9.933686e-02 -1.056479e-01 -1.366136e-01 -1.388943e-01 -2.235271e-02 -2.007899e-01 5.983663e-02 -2.638868e-02 9.043883e-02 2.298451e-01
<VARIANCE> 39
 1.391387e+01 1.346391e+01 2.435189e+01 2.204633e+01 2.255104e+01 2.884623e+01 2.849051e+01 2.476072e+01 2.125830e+01 1.782779e+01 1.764780e+01 1.070053e+01 1.284317e+01 6.502860e-01 8.246267e-01 1.420853e+00 1.438601e+00 1.629360e+00 1.973512e+00 1.991509e+00 1.973035e+00 1.605019e+00 1.462642e+00 1.248040e+00 1.020434e+00 8.045459e-01 1.373451e-01 1.549459e-01 2.719760e-01 2.841084e-01 3.083616e-01 4.392532e-01 4.030235e-01 3.644653e-01 3.325282e-01 2.728782e-01 2.414345e-01 2.119642e-01 1.656468e-01
<GCONST> 9.597185e+01
<TRANSP> 5
 0.000000e+00 1.000000e+00 0.000000e+00 0.000000e+00 0.000000e+00
 0.000000e+00 8.157415e-01 1.842585e-01 0.000000e+00 0.000000e+00
 0.000000e+00 0.000000e+00 5.035661e-01 4.964339e-01 0.000000e+00
 0.000000e+00 0.000000e+00 0.000000e+00 6.441557e-01 3.558443e-01
 0.000000e+00 0.000000e+00 0.000000e+00 0.000000e+00 0.000000e+00
<ENDHMM>
~h "j"
<BEGINHMM>
<NUMSTATES> 5
<STATE> 2
<MEAN> 39
 -2.108638e+00 4.669983e+00 1.474523e+01 -6.304203e+00 -1.358121e+01 -2.393498e+00 -6.877409e+00 -2.187585e+00 -6.661201e+00 3.035046e-01 9.816698e-01 -2.872142e+00 5.352242e+01 2.682258e-01 -3.006783e-02 1.269141e-01 -4.628122e-01 -5.528213e-01 1.010164e+00 1.051488e-01 -2.919798e-01 4.922969e-02 7.755203e-01 -4.402357e-02 -6.536805e-01 -4.505142e-01 -6.175402e-02 2.050824e-01 -5.380601e-01 1.440806e-01 5.302666e-01 -1.563684e-01 2.700892e-01 -2.405285e-02 2.239357e-01 7.787022e-02 -1.220677e-01 4.229086e-02 -1.367063e-01
<VARIANCE> 39
 6.700226e+00 8.607870e+00 1.787816e+01 4.077124e+01 2.792573e+01 2.161659e+01 2.074356e+01 1.957653e+01 2.826689e+01 1.516838e+01 1.537722e+01 1.250173e+01 5.739245e+00 3.667339e-01 6.518177e-01 1.165075e+00 1.122810e+00 1.855875e+00 1.544315e+00 2.526719e+00 1.256863e+00 1.435982e+00 1.354463e+00 8.959382e-01 1.054798e+00 4.375056e-01 1.397565e-01 1.072775e-01 2.987032e-01 2.770797e-01 4.755679e-01 2.463045e-01 4.144559e-01 2.411679e-01 2.617034e-01 2.881776e-01 1.653515e-01 1.928325e-01 4.787029e-02
<GCONST> 8.841915e+01
<STATE> 3
<MEAN> 39
 1.528842e+00 6.158597e+00 8.440188e+00 -5.640468e+00 -9.764791e+00 -3.975340e-01 -3.728478e+00 -3.906838e+00 -4.366898e+00 5.679176e+00 -2.118217e+00 -4.243578e+00 4.999018e+01 8.687626e-01 2.429737e-01 -2.192507e+00 1.237876e+00 1.369940e+00 -2.696104e-01 2.824652e-01 -2.981845e-01 9.532391e-01 -3.534206e-01 -2.721209e-01 8.818111e-02 -7.713060e-01 -3.306611e-02 -7.518986e-02 3.582135e-02 3.023251e-01 -6.527711e-02 -1.617252e-01 -2.246244e-01 -3.016070e-02 1.176444e-01 -4.096834e-01 1.895952e-01 2.481014e-01 1.119115e-01
<VARIANCE> 39
 1.475793e+01 7.066480e+00 3.129606e+01 2.830358e+01 2.823113e+01 3.612661e+01 2.006801e+01 2.862441e+01 4.158808e+01 2.327917e+01 2.865639e+01 1.770311e+01 5.161307e+00 6.064363e-01 8.789978e-01 2.246892e+00 1.965432e+00 2.596537e+00 2.669452e+00 1.943604e+00 2.375399e+00 1.823308e+00 2.662971e+00 1.350672e+00 1.236060e+00 4.059132e-01 1.185743e-01 1.355020e-01 5.063697e-01 3.268161e-01 4.971651e-01 5.364494e-01 3.718354e-01 3.855401e-01 2.574903e-01 4.631309e-01 2.478844e-01 2.156848e-01 7.692828e-02
<GCONST> 9.983627e+01
<STATE> 4
<MEAN> 39
 2.549204e+00 7.133488e+00 2.464006e+00 4.678132e-01 -6.058704e+00 -1.009548e+00 -4.824730e+00 -5.400795e+00 6.439489e-02 -1.066081e-01 3.598431e-02 -1.859216e+00 4.739290e+01 -2.206786e-01 1.602193e-02 -1.047474e-02 5.494983e-01 3.933145e-01 1.625565e-01 1.024425e-01 3.765845e-02 2.310294e-01 -2.930323e-01 1.961035e-01 2.928203e-01 -3.490763e-01 -1.533379e-01 -4.200491e-02 1.696160e-01 -1.573131e-01 1.755944e-02 6.308064e-02 1.472355e-01 1.120018e-01 -1.571784e-01 1.523044e-01 -5.195282e-02 -7.629627e-02 -1.665406e-02
<VARIANCE> 39
 1.148213e+01 5.999269e+00 1.447238e+01 1.686980e+01 1.338425e+01 2.087488e+01 1.984559e+01 2.366411e+01 1.372084e+01 1.475687e+01 1.685193e+01 1.551498e+01 4.974209e+00 3.599125e-01 5.655929e-01 7.917453e-01 1.102942e+00 1.210589e+00 1.751920e+00 1.343340e+00 1.356077e+00 1.078718e+00 1.481717e+00 1.211820e+00 9.351891e-01 2.464637e-01 7.577122e-02 1.247400e-01 2.869490e-01 2.060294e-01 2.546046e-01 3.738703e-01 2.545995e-01 2.615500e-01 2.055879e-01 2.815420e-01 2.412752e-01 1.820654e-01 3.578348e-02
<GCONST> 8.263529e+01
<TRANSP> 5
 0.000000e+00 1.000000e+00 0.000000e+00 0.000000e+00 0.000000e+00
 0.000000e+00 8.182602e-01 1.817399e-01 0.000000e+00 0.000000e+00
 0.000000e+00 0.000000e+00 7.885654e-01 2.114346e-01 0.000000e+00
 0.000000e+00 0.000000e+00 0.000000e+00 8.517771e-01 1.482229e-01
 0.000000e+00 0.000000e+00 0.000000e+00 0.000000e+00 0.000000e+00
<ENDHMM>
~h "k"
<BEGINHMM>
<NUMSTATES> 5
<STATE> 2
<MEAN> 39
 -3.728489e+00 1.149079e-01 -7.600694e+00 -3.754889e+00 -3.271248e+00 -2.231827e+00 -2.502703e+00 4.131139e-01 7.531197e-01 -6.942296e-01 -2.450267e-01 -1.424152e+00 4.310154e+01 -4.150273e-01 -7.147328e-01 -7.145900e-01 -3.682396e-01 7.464851e-01 -3.194437e-02 -4.149433e-01 2.071228e-01 3.652577e-02 7.658702e-01 -4.135029e-01 -3.930021e-02 8.802723e-01 3.311854e-01 1.220281e-01 1.250370e-01 -2.584638e-01 9.905167e-02 1.783566e-01 -2.695647e-01 -5.926710e-02 -2.534993e-01 1.670397e-01 -6.814723e-02 1.609740e-02 4.522974e-01
<VARIANCE> 39
 1.330051e+01 1.849624e+01 2.049711e+01 2.686234e+01 2.008543e+01 2.243579e+01 2.817245e+01 2.491914e+01 2.257644e+01 2.568757e+01 1.800529e+01 1.252781e+01 2.420420e+01 1.088734e+00 1.541126e+00 2.334129e+00 3.922477e+00 2.422342e+00 2.933850e+00 3.310388e+00 3.348332e+00 3.738037e+00 3.095012e+00 1.881293e+00 1.451159e+00 3.609828e+00 2.002546e-01 2.696486e-01 5.813370e-01 7.283669e-01 4.854800e-01 4.851504e-01 5.201039e-01 6.523719e-01 5.288132e-01 4.964688e-01 3.619500e-01 2.644482e-01 4.369056e-01
<GCONST> 1.121444e+02
<STATE> 3
<MEAN> 39
 -2.282998e+00 6.683555e-01 -7.923608e+00 -6.065763e+00 5.788996e-01 2.593079e-01 -5.371156e+00 -3.977940e-01 -2.871700e+00 2.375419e+00 -1.548628e+00 -5.010974e-01 4.860107e+01 2.270878e+00 1.031678e+00 1.653448e+00 -7.614037e-01 -7.066520e-01 7.401567e-01 -1.388296e+00 -4.938468e-01 -7.857243e-01 3.012747e-01 2.766916e-01 -1.305694e-01 1.816774e+00 3.983025e-01 -3.022163e-02 2.995303e-01 -2.187854e-01 -7.152587e-01 -3.929818e-02 -2.258810e-01 -5.609065e-02 2.584889e-01 -1.144528e-01 1.919999e-01 -2.584926e-01 4.890805e-02
<VARIANCE> 39
 2.968180e+01 2.962542e+01 3.320317e+01 3.563017e+01 2.947385e+01 3.972111e+01 3.987468e+01 3.614967e+01 4.031004e+01 4.281992e+01 2.684796e+01 1.381041e+01 1.851211e+01 1.308980e+00 1.600759e+00 2.318462e+00 3.613110e+00 2.599105e+00 2.331798e+00 3.473224e+00 4.339100e+00 2.873551e+00 2.421476e+00 2.099609e+00 1.282615e+00 2.309038e+00 4.689443e-01 4.999481e-01 8.436537e-01 7.995248e-01 4.810126e-01 5.371623e-01 7.651230e-01 6.021352e-01 6.134371e-01 7.051611e-01 4.185503e-01 2.254603e-01 2.832192e-01
<GCONST> 1.188732e+02
<STATE> 4
<MEAN> 39
 4.602334e+00 2.580101e+00 -5.802643e-01 -7.772858e+00 -5.146850e+00 -4.536872e-01 -1.378807e+01 -4.233041e+00 -2.980772e+00 2.879316e+00 2.453045e-01 -1.181202e+00 5.351764e+01 -9.236640e-02 -2.769802e-01 1.111373e+00 7.591615e-01 -5.078428e-01 -9.231988e-01 -2.165346e-01 5.064473e-01 9.668502e-01 -1.313302e-01 -3.472198e-01 -1.913521e-01 1.087159e-01 -5.315810e-01 -1.858249e-02 -4.134450e-01 2.955506e-01 2.591572e-01 4.353110e-03 8.164340e-01 2.555688e-01 8.373011e-02 -3.015720e-01 -4.351660e-02 5.232563e-02 -6.523677e-01
<VARIANCE> 39
 1.004537e+01 1.510627e+01 2.825865e+01 3.066595e+01 2.209646e+01 4.790582e+01 3.243723e+01 5.230568e+01 3.421479e+01 3.053674e+01 2.175493e+01 1.407547e+01 9.802198e+00 3.021472e+00 1.843374e+00 2.355247e+00 5.422858e+00 2.328045e+00 3.221266e+00 6.513896e+00 3.149395e+00 2.620422e+00 3.730474e+00 1.662570e+00 1.543554e+00 3.379639e+00 2.126549e-01 4.685519e-01 5.885343e-01 7.244484e-01 3.565499e-01 7.570780e-01 6.278188e-01 7.367912e-01 5.437626e-01 5.989838e-01 4.147016e-01 2.130823e-01 1.666979e-01
<GCONST> 1.159854e+02
<TRANSP> 5
 0.000000e+00 1.000000e+00 0.000000e+00 0.000000e+00 0.000000e+00
 0.000000e+00 7.967196e-01 2.032804e-01 0.000000e+00 0.000000e+00
 0.000000e+00 0.000000e+00 6.234902e-01 3.765098e-01 0.000000e+00
 0.000000e+00 0.000000e+00 0.000000e+00 7.083178e-01 2.916822e-01
 0.000000e+00 0.000000e+00 0.000000e+00 0.000000e+00 0.000000e+00
<ENDHMM>
~h "l"
<BEGINHMM>
<NUMSTATES> 5
<STATE> 2
<MEAN> 39
 -5.128018e+00 -2.466879e+00 -3.494218e+00 -2.254400e+00 -4.401123e+00 -6.288730e+00 -4.072598e+00 -1.003378e+00 5.933345e-01 -1.421907e+00 -1.964061e+00 2.285123e-03 4.446937e+01 -7.880861e-02 -1.868709e-01 1.934534e-01 2.634261e-02 -2.568845e-02 -2.819060e-01 2.923781e-02 1.344700e-01 1.064513e-01 5.417480e-02 -2.520678e-02 3.161309e-02 1.365370e-01 2.628936e-02 7.536137e-02 3.749311e-02 -7.107736e-02 -3.708501e-02 1.868898e-01 1.008337e-01 3.065586e-02 -2.979146e-02 1.584614e-02 2.120862e-02 2.353793e-03 -3.141190e-02
<VARIANCE> 39
 4.464176e+01 1.928074e+01 2.267054e+01 2.381257e+01 3.184240e+01 3.776371e+01 4.203895e+01 3.238189e+01 2.461445e+01 2.683211e+01 1.741795e+01 1.342107e+01 5.284248e+01 1.272992e+00 1.211601e+00 1.312666e+00 1.551031e+00 2.237756e+00 3.359916e+00 2.642820e+00 2.420496e+00 1.934085e+00 2.026379e+00 1.422835e+00 1.211615e+00 1.391166e+00 2.400990e-01 2.194371e-01 2.459045e-01 3.613043e-01 4.560603e-01 5.708746e-01 4.748963e-01 4.200697e-01 3.852866e-01 3.987613e-01 2.762870e-01 2.164524e-01 1.949450e-01
<GCONST> 1.075604e+02
<STATE> 3
<MEAN> 39
 -6.477299e+00 -6.084281e-01 -5.594857e+00 -6.087333e-01 -3.055671e+00 -9.925035e-01 -1.310060e+00 -3.225455e-01 1.275082e+00 -1.785299e+00 8.613579e-01 -2.188039e+00 4.015162e+01 -2.279383e-02 9.742728e-03 1.320586e-01 5.797416e-02 1.508144e-02 1.547395e-01 4.356426e-02 2.560071e-02 -3.506845e-02 4.897981e-02 -6.317063e-02 -1.606618e-02 -3.804559e-02 6.047086e-02 6.109233e-02 7.588277e-02 -4.771942e-02 8.599887e-03 1.084832e-02 -6.257898e-02 -1.407197e-03 -3.913447e-02 -1.552505e-04 -4.837200e-02 2.782859e-02 8.237558e-02
<VARIANCE> 39
 1.342335e+01 8.839525e+00 9.599028e+00 1.406936e+01 1.850301e+01 2.141188e+01 2.061050e+01 1.794858e+01 1.798640e+01 1.796324e+01 1.379295e+01 1.332500e+01 1.297678e+01 3.271694e-01 4.400608e-01 8.277812e-01 1.193633e+00 1.535823e+00 1.609415e+00 1.431156e+00 1.632339e+00 1.705631e+00 1.441341e+00 1.098549e+00 9.821169e-01 1.743052e-01 7.173009e-02 1.008202e-01 1.590189e-01 2.989689e-01 3.089017e-01 3.429665e-01 2.853308e-01 3.065792e-01 3.175344e-01 2.776735e-01 2.147487e-01 1.891235e-01 4.387946e-02
<GCONST> 8.442594e+01
<STATE> 4
<MEAN> 39
 -4.346118e+00 -9.257710e-02 -1.991723e+00 -1.004973e+00 -2.486713e+00 -1.518216e+00 -3.994051e+00 1.902432e-01 1.016692e+00 -1.148465e+00 -1.652406e+00 -1.148860e+00 4.138053e+01 7.857374e-01 6.579452e-01 1.114009e+00 -3.318268e-01 -2.074949e-01 -1.920005e-01 -7.253245e-01 3.706755e-02 -9.865890e-02 1.168613e-01 -1.403367e-01 1.065008e-01 8.463504e-01 2.247920e-01 9.229935e-02 1.502331e-01 -1.842259e-01 -1.350780e-01 -1.796716e-01 -2.662762e-01 8.909181e-03 -7.452425e-02 -4.279453e-03 2.274938e-02 9.589751e-03 3.039154e-01
<VARIANCE> 39
 2.231860e+01 2.301302e+01 2.159460e+01 2.402901e+01 2.924560e+01 2.753906e+01 2.573548e+01 2.868323e+01 2.510543e+01 2.214712e+01 1.640588e+01 1.391750e+01 2.004602e+01 1.400989e+00 1.583221e+00 2.004396e+00 2.113020e+00 1.951130e+00 2.566749e+00 2.548690e+00 1.964708e+00 2.347979e+00 2.002075e+00 1.338098e+00 1.184864e+00 1.174286e+00 2.324856e-01 2.593833e-01 3.012709e-01 3.699484e-01 3.306873e-01 4.815199e-01 4.786424e-01 3.240959e-01 4.992779e-01 4.041503e-01 2.613352e-01 2.094711e-01 1.723576e-01
<GCONST> 1.048796e+02
<TRANSP> 5
 0.000000e+00 1.000000e+00 0.000000e+00 0.000000e+00 0.000000e+00
 0.000000e+00 7.563914e-01 2.436086e-01 0.000000e+00 0.000000e+00
 0.000000e+00 0.000000e+00 8.179287e-01 1.820713e-01 0.000000e+00
 0.000000e+00 0.000000e+00 0.000000e+00 7.517556e-01 2.482444e-01
 0.000000e+00 0.000000e+00 0.000000e+00 0.000000e+00 0.000000e+00
<ENDHMM>
~h "m"
<BEGINHMM>
<NUMSTATES> 5
<STATE> 2
<MEAN> 39
 3.910761e+00 3.165413e+00 -2.141480e+00 -3.261840e+00 -1.725689e+00 2.477224e+00 -6.918519e+00 -2.991170e+00 -2.061676e+00 5.337294e-01 1.695241e+00 -2.717950e+00 4.938529e+01 -6.546925e-01 1.232785e+00 1.986146e+00 2.185421e+00 6.163511e-01 -6.766337e-01 6.605437e-01 -9.839336e-01 -1.124755e+00 -4.754690e-01 7.457700e-02 1.352606e-01 -1.039570e+00 -9.806568e-02 -4.371223e-01 -1.749802e-01 -3.675635e-01 -3.100507e-02 -1.625956e-02 -1.594283e-01 4.837442e-01 3.368299e-01 1.502660e-01 -2.902974e-01 -1.596600e-01 4.485396e-01
<VARIANCE> 39
 1.033931e+01 9.587641e+00 2.008998e+01 2.166824e+01 2.004618e+01 2.231713e+01 1.835233e+01 2.000758e+01 2.688281e+01 2.244081e+01 2.914623e+01 9.807453e+00 7.995776e+00 3.951875e-01 8.940967e-01 8.661319e-01 1.617900e+00 2.277483e+00 1.299616e+00 1.870363e+00 2.187066e+00 1.531164e+00 2.514757e+00 1.538545e+00 1.142596e+00 5.905622e-01 1.170732e-01 7.832896e-02 3.203623e-01 3.692431e-01 2.752452e-01 2.978189e-01 3.155239e-01 3.650405e-01 2.754424e-01 3.445771e-01 2.817867e-01 2.023815e-01 5.377594e-02
<GCONST> 9.204131e+01
<STATE> 3
<MEAN> 39
 3.197798e+00 4.816015e+00 5.938444e-01 -9.582086e-01 -1.560958e+00 9.035232e-01 -7.082781e+00 -3.469081e+00 -2.497984e+00 2.949879e-01 1.949579e+00 -3.463191e+00 4.897528e+01 -8.098616e-02 5.592751e-01 1.797740e-01 3.561057e-01 -1.134840e-01 -3.768227e-01 3.753838e-01 1.199907e-01 1.111796e-01 -2.928007e-01 -7.640125e-02 -9.215344e-02 -3.843630e-01 2.170750e-03 -8.752018e-02 -1.857078e-01 -1.444827e-01 -3.085628e-02 1.841366e-02 7.875492e-02 1.688482e-01 8.159000e-02 -7.300764e-02 -9.497236e-02 3.731076e-02 3.129905e-03
<VARIANCE> 39
 8.423799e+00 8.859298e+00 1.223242e+01 1.299051e+01 2.223086e+01 2.596711e+01 1.459654e+01 1.976864e+01 1.947565e+01 2.554126e+01 3.321530e+01 1.156488e+01 6.354842e+00 2.321237e-01 4.033676e-01 6.010776e-01 7.001500e-01 1.072199e+00 1.140975e+00 1.059918e+00 1.219777e+00 1.019588e+00 1.040890e+00 9.363919e-01 7.455186e-01 2.430790e-01 5.357544e-02 8.346003e-02 1.612276e-01 1.889386e-01 2.383397e-01 1.975540e-01 2.106323e-01 2.594938e-01 2.151091e-01 2.181984e-01 1.681149e-01 1.382423e-01 4.929639e-02
<GCONST> 7.790667e+01
<STATE> 4
<MEAN> 39
 -1.639335e+00 4.597320e+00 -4.727029e-01 1.231039e+00 -1.713023e-02 4.196338e-01 -2.093970e+00 -3.835497e-01 -3.356566e-01 -1.697678e+00 4.981859e-01 -2.329816e+00 4.495691e+01 -4.842093e-01 -2.635539e-01 -2.174796e-01 7.258340e-02 -7.512181e-02 -1.791323e-01 3.201184e-01 2.727610e-01 2.335419e-01 -4.390262e-02 1.176646e-02 1.952987e-02 -3.575293e-01 -2.561575e-02 -1.246034e-01 -3.312175e-02 -9.421032e-02 -1.131989e-01 -3.255793e-02 -1.297328e-01 -5.492625e-02 -1.854844e-02 6.279901e-02 3.925774e-02 4.059497e-03 5.279323e-02
<VARIANCE> 39
 1.792653e+01 1.107628e+01 1.127650e+01 1.223150e+01 2.152246e+01 2.101460e+01 1.953146e+01 1.858565e+01 1.910804e+01 1.643078e+01 2.307123e+01 1.192103e+01 8.026480e+00 3.728539e-01 6.475127e-01 1.009248e+00 1.139109e+00 1.463400e+00 1.419410e+00 1.324351e+00 1.469939e+00 1.219624e+00 1.236040e+00 1.469271e+00 9.948658e-01 2.207558e-01 6.795634e-02 1.360156e-01 2.459194e-01 2.304861e-01 3.142467e-01 2.690739e-01 2.712651e-01 2.883339e-01 2.441490e-01 2.342272e-01 2.498773e-01 2.119904e-01 4.985958e-02
<GCONST> 8.537665e+01
<TRANSP> 5
 0.000000e+00 1.000000e+00 0.000000e+00 0.000000e+00 0.000000e+00
 0.000000e+00 6.167806e-01 3.832194e-01 0.000000e+00 0.000000e+00
 0.000000e+00 0.000000e+00 7.988176e-01 2.011824e-01 0.000000e+00
 0.000000e+00 0.000000e+00 0.000000e+00 8.379248e-01 1.620753e-01
 0.000000e+00 0.000000e+00 0.000000e+00 0.000000e+00 0.000000e+00
<ENDHMM>
~h "n"
<BEGINHMM>
<NUMSTATES> 5
<STATE> 2
<MEAN> 39
 2.461971e+00 2.702794e+00 1.078311e+00 -2.796674e+00 -3.804917e+00 -4.922797e+00 -7.032792e+00 5.092335e+00 -5.352449e-01 -4.464938e+00 -1.458698e+00 2.176559e+00 5.357495e+01 3.417403e-01 1.425791e+00 8.987452e-01 6.145882e-01 -2.074214e-01 7.812440e-01 6.658849e-01 -2.115554e+00 8.960384e-02 -8.630139e-02 7.713268e-01 -2.579744e-01 -1.315292e+00 1.766883e-02 -1.560586e-01 -1.800730e-01 -2.080171e-01 2.701553e-02 3.420349e-01 -9.774561e-02 -7.689221e-02 2.803907e-01 2.253684e-01 -1.628130e-01 -2.714022e-01 4.336966e-02
<VARIANCE> 39
 5.638518e+00 1.535612e+01 1.262192e+01 2.917686e+01 2.208235e+01 4.059092e+01 3.110757e+01 6.864340e+01 3.175033e+01 2.079886e+01 2.435251e+01 1.278272e+01 1.238001e+01 3.210928e-01 9.738794e-01 1.453351e+00 1.934076e+00 1.538428e+00 5.056181e+00 2.932697e+00 4.134273e+00 3.376828e+00 1.778291e+00 1.476154e+00 1.513151e+00 5.124589e-01 6.428400e-02 1.702702e-01 2.064083e-01 2.749701e-01 3.036561e-01 1.104491e+00 4.218166e-01 1.106039e+00 5.467086e-01 2.380382e-01 1.812623e-01 2.565138e-01 1.149177e-01
<GCONST> 1.010970e+02
<STATE> 3
<MEAN> 39
 -2.186823e-01 8.479758e+00 3.101150e+00 -1.958449e+00 -3.000085e+00 -2.622496e+00 -3.988318e+00 -6.778815e-01 3.096962e-01 -1.937288e+00 -1.211879e+00 -9.417441e-01 4.916415e+01 -1.365854e+00 4.191718e-01 1.636858e-01 3.188755e-02 4.784946e-01 -6.817974e-01 1.825739e-01 2.077419e-01 -4.781931e-01 2.061207e-01 -9.013152e-02 4.769909e-02 2.923135e-01 -9.467866e-02 -7.507537e-02 9.735028e-02 -5.699792e-02 -1.281692e-01 -1.768961e-01 -7.619409e-02 6.502307e-02 -1.282164e-01 -3.326380e-02 4.484393e-02 9.387592e-02 2.095672e-01
<VARIANCE> 39
 4.026038e+01 1.441875e+01 1.623764e+01 1.491314e+01 3.429927e+01 2.124219e+01 2.402604e+01 3.166912e+01 2.675594e+01 1.343523e+01 2.401991e+01 1.225871e+01 8.596409e+00 3.129318e+00 1.390582e+00 1.431346e+00 1.361492e+00 1.919928e+00 2.559877e+00 2.201845e+00 2.427656e+00 2.446396e+00 1.264050e+00 1.611220e+00 1.060562e+00 1.296733e+00 7.081147e-01 2.866265e-01 2.950382e-01 2.542183e-01 4.893647e-01 4.030704e-01 3.738013e-01 5.306997e-01 4.061074e-01 2.440789e-01 3.259893e-01 2.084995e-01 1.734215e-01
<GCONST> 1.036302e+02
<STATE> 4
<MEAN> 39
 -7.048996e+00 8.721423e+00 9.201943e+00 -3.846255e+00 -5.320866e+00 -8.653062e+00 -5.423346e+00 -8.476835e-01 -4.659324e+00 -7.260022e-01 9.180531e-02 1.193253e+00 5.518418e+01 1.474367e+00 -9.209167e-01 1.722768e+00 -6.059863e-01 -2.224204e+00 3.871648e-01 -5.463912e-01 -5.054429e-01 -5.281644e-01 1.166139e-01 3.167496e-01 -2.730573e-01 3.262035e-01 3.518093e-01 -1.733400e-01 -4.086234e-03 -6.402516e-02 -1.172194e-01 5.178356e-01 -5.658943e-03 3.006210e-02 -9.249851e-04 5.319327e-02 -7.157089e-02 -2.105045e-01 -2.884881e-01
<VARIANCE> 39
 1.950888e+01 1.678244e+01 1.805918e+01 2.603129e+01 3.350078e+01 2.620998e+01 1.961583e+01 2.396208e+01 2.318646e+01 1.758259e+01 1.141537e+01 9.073312e+00 7.790148e+00 1.358636e+00 1.465549e+00 1.238900e+00 1.426311e+00 2.186056e+00 2.414463e+00 1.535172e+00 1.356104e+00 1.438873e+00 1.360978e+00 1.168261e+00 9.293425e-01 4.066694e-01 6.752015e-01 3.435270e-01 2.667185e-01 1.851900e-01 4.497211e-01 4.441566e-01 3.025633e-01 2.476180e-01 2.986714e-01 2.272681e-01 2.350685e-01 1.665255e-01 5.916158e-02
<GCONST> 9.533572e+01
<TRANSP> 5
 0.000000e+00 1.000000e+00 0.000000e+00 0.000000e+00 0.000000e+00
 0.000000e+00 8.262441e-01 1.737560e-01 0.000000e+00 0.000000e+00
 0.000000e+00 0.000000e+00 8.974871e-01 1.025129e-01 0.000000e+00
 0.000000e+00 0.000000e+00 0.000000e+00 7.906497e-01 2.093503e-01
 0.000000e+00 0.000000e+00 0.000000e+00 0.000000e+00 0.000000e+00
<ENDHMM>
~h "p"
<BEGINHMM>
<NUMSTATES> 5
<STATE> 2
<MEAN> 39
 -1.195220e+00 1.382225e+00 -9.137547e+00 -6.081578e+00 -2.430048e+00 3.577482e-01 -1.234663e+00 1.567209e+00 2.343478e+00 -5.968431e-01 -8.094723e-01 -4.140551e+00 4.301974e+01 -1.235300e+00 -3.730039e-01 -2.762529e-01 1.029701e-01 -4.241970e-01 -4.718010e-01 6.051122e-01 4.429967e-01 1.231458e-01 -2.183635e-01 -1.185692e-01 7.164926e-02 -8.597788e-01 2.621114e-01 -2.016989e-01 7.172636e-02 -2.599488e-01 -3.549818e-03 9.646622e-02 -3.235217e-01 -6.627749e-02 -9.327726e-02 2.182887e-01 3.584606e-02 9.854101e-02 5.393671e-01
<VARIANCE> 39
 2.605950e+01 1.136480e+01 1.395853e+01 2.272277e+01 1.963761e+01 1.744531e+01 1.776207e+01 2.366458e+01 1.932555e+01 2.462777e+01 1.523079e+01 1.127129e+01 5.409717e+00 6.146502e-01 6.399199e-01 1.103006e+00 1.486613e+00 1.320787e+00 1.391999e+00 1.862989e+00 2.728132e+00 1.889143e+00 1.435143e+00 1.078884e+00 9.633492e-01 3.978359e-01 1.502236e-01 2.301985e-01 3.077467e-01 4.339190e-01 3.283789e-01 2.962187e-01 3.880948e-01 5.991459e-01 4.456800e-01 3.215984e-01 2.073888e-01 2.212021e-01 1.181127e-01
<GCONST> 9.358730e+01
<STATE> 3
<MEAN> 39
 -5.584252e+00 6.478522e-01 -7.160317e+00 -2.949994e+00 -3.605028e+00 -1.873606e-01 4.142105e-01 1.238427e+00 2.513678e+00 -2.365368e+00 6.241730e-01 -3.166385e+00 4.180840e+01 -3.198963e-01 -1.172812e-01 3.577732e-01 3.826145e-01 1.296449e-01 -1.414217e-01 -7.648085e-02 -5.032969e-02 -9.346563e-02 5.034108e-02 -4.261629e-02 2.908577e-01 1.348282e-01 1.830623e-01 -2.698561e-02 1.939910e-01 -1.673751e-02 3.014616e-02 1.607991e-02 -2.008639e-01 -5.121345e-02 -1.186674e-01 1.314529e-01 8.275654e-03 -7.436076e-03 3.507979e-01
<VARIANCE> 39
 9.957919e+00 8.614999e+00 1.130384e+01 2.005486e+01 1.550592e+01 1.545235e+01 1.930988e+01 1.982921e+01 1.685625e+01 1.551018e+01 1.193611e+01 1.010492e+01 4.075054e+00 3.483340e-01 5.389857e-01 6.535200e-01 1.110455e+00 1.300720e+00 1.413699e+00 1.595555e+00 1.774022e+00 1.422866e+00 1.259515e+00 1.131417e+00 1.060434e+00 3.881920e-01 1.300937e-01 1.227448e-01 2.438103e-01 2.780671e-01 2.802995e-01 2.917389e-01 3.717529e-01 3.668343e-01 3.152981e-01 2.563076e-01 2.184539e-01 2.101258e-01 1.173897e-01
<GCONST> 8.515510e+01
<STATE> 4
<MEAN> 39
 -5.739793e+00 -5.347869e-01 -4.863798e+00 -2.219564e+00 -2.702362e+00 -1.810059e+00 -1.399902e+00 1.653617e+00 6.748539e-01 -3.418426e-01 -4.756487e-01 -1.824243e+00 4.515752e+01 1.407067e+00 -2.853681e-01 1.626573e+00 -7.810724e-01 -8.474481e-01 2.072947e-01 -1.463942e+00 -3.340998e-01 -1.095137e+00 9.147400e-01 2.218039e-01 -1.090968e-01 2.539659e+00 7.233632e-01 -1.182445e-02 4.550269e-02 -8.311329e-01 -3.678099e-01 3.373752e-01 -4.691407e-01 -8.961516e-02 -1.226841e-01 2.528163e-01 2.966165e-02 -2.862003e-01 6.562462e-01
<VARIANCE> 39
 1.720045e+01 1.510503e+01 2.316635e+01 2.377531e+01 1.750635e+01 2.353040e+01 2.069750e+01 1.988580e+01 1.694015e+01 1.776700e+01 1.428955e+01 1.203551e+01 1.495451e+01 3.712989e+00 1.498877e+00 6.721003e+00 4.409675e+00 3.400052e+00 2.719707e+00 3.044716e+00 2.263029e+00 2.649287e+00 2.189787e+00 1.314830e+00 1.281445e+00 1.769514e+00 3.050997e-01 3.684341e-01 7.550610e-01 3.857568e-01 4.745151e-01 4.050777e-01 4.494112e-01 4.410773e-01 4.730537e-01 3.209542e-01 2.819388e-01 2.140891e-01 2.849956e-01
<GCONST> 1.086250e+02
<TRANSP> 5
 0.000000e+00 1.000000e+00 0.000000e+00 0.000000e+00 0.000000e+00
 0.000000e+00 7.064591e-01 2.935409e-01 0.000000e+00 0.000000e+00
 0.000000e+00 0.000000e+00 7.829450e-01 2.170550e-01 0.000000e+00
 0.000000e+00 0.000000e+00 0.000000e+00 6.641390e-01 3.358609e-01
 0.000000e+00 0.000000e+00 0.000000e+00 0.000000e+00 0.000000e+00
<ENDHMM>
~h "r"
<BEGINHMM>
<NUMSTATES> 5
<STATE> 2
<MEAN> 39
 5.537248e+00 5.889395e+00 -3.649303e+00 -1.363930e+01 -7.797710e+00 1.562346e+00 -9.565617e+00 -2.441850e+00 -6.034502e+00 -6.917567e-01 1.780317e+00 2.218874e+00 5.201303e+01 -6.563637e-03 -6.370215e-01 -5.780088e-01 -4.082365e-01 4.754839e-01 1.814698e-01 -5.040296e-01 1.362550e-01 2.123355e-01 8.840810e-01 2.317185e-01 -1.975932e-01 4.695854e-01 -7.964157e-02 -2.000496e-01 -9.257713e-02 3.217492e-02 1.787947e-01 -1.232043e-02 -5.566608e-02 7.476851e-02 2.084530e-01 2.492503e-01 -7.390782e-02 -1.670749e-01 7.036748e-02
<VARIANCE> 39
 8.682146e+00 1.606225e+01 1.243466e+01 4.491317e+01 2.013394e+01 3.122795e+01 3.094211e+01 3.391684e+01 3.953532e+01 2.076954e+01 1.462842e+01 1.521382e+01 7.935268e+00 3.699637e-01 7.459374e-01 7.239580e-01 1.791562e+00 1.520022e+00 1.196870e+00 1.655598e+00 1.980095e+00 1.753944e+00 1.771438e+00 1.049365e+00 1.200318e+00 3.669932e-01 4.876570e-02 6.573071e-02 1.167078e-01 2.704119e-01 2.337624e-01 2.601168e-01 3.026257e-01 3.065994e-01 3.056763e-01 1.983359e-01 2.193911e-01 2.018927e-01 4.896080e-02
<GCONST> 8.833443e+01
<STATE> 3
<MEAN> 39
 4.095550e+00 -2.563768e+00 -9.088511e+00 -1.387761e+01 -2.059935e+00 3.838084e-01 -1.185909e+01 4.204554e+00 2.926034e-01 7.858132e+00 -2.336124e+00 -2.988341e+00 5.762611e+01 -1.414857e-01 -6.546878e-01 -1.905435e-01 2.844009e-01 1.526195e-01 -2.280929e-01 9.919470e-02 7.719611e-01 9.042587e-01 -8.492760e-03 -8.827133e-01 -3.579201e-01 3.027212e-01 2.057985e-02 1.145197e-01 1.544676e-01 1.228125e-01 -1.180359e-01 1.954837e-02 1.025347e-01 -1.191852e-01 -8.185331e-02 -2.656708e-01 2.460375e-02 1.510956e-01 -1.183528e-01
<VARIANCE> 39
 7.582721e+00 1.239132e+01 1.671643e+01 6.157147e+01 1.846324e+01 1.993790e+01 2.913618e+01 4.579175e+01 4.594243e+01 3.713683e+01 3.275210e+01 1.430037e+01 1.215482e+01 4.227894e-01 6.469299e-01 1.173590e+00 2.430512e+00 1.559272e+00 1.771555e+00 2.637657e+00 2.198077e+00 2.791427e+00 3.327271e+00 1.539082e+00 1.470643e+00 5.981425e-01 8.288621e-02 1.171165e-01 2.097375e-01 3.847138e-01 2.738820e-01 2.777499e-01 5.423253e-01 4.237986e-01 5.344571e-01 5.295758e-01 3.159359e-01 2.070767e-01 1.075014e-01
<GCONST> 9.998930e+01
<STATE> 4
<MEAN> 39
 4.241704e+00 -5.879040e+00 -7.627131e+00 -9.391823e+00 -3.901236e+00 -1.962922e-01 -1.075654e+01 6.915899e+00 4.327014e+00 8.088943e-01 -4.416769e+00 -2.145667e+00 5.741390e+01 -1.271517e-01 6.951983e-02 1.104251e-01 1.125016e-01 7.235141e-02 1.140843e-01 1.555808e-01 -7.954474e-02 -8.625524e-02 -1.066455e-01 5.390975e-02 -1.862529e-02 -1.678130e-01 -2.867023e-02 3.891696e-02 4.790864e-03 -1.343905e-03 2.475189e-02 -2.462076e-03 3.390543e-03 -2.594041e-02 -1.719851e-02 2.849243e-02 3.846065e-02 -2.043265e-02 -4.309242e-02
<VARIANCE> 39
 6.742034e+00 1.287619e+01 1.669074e+01 4.099464e+01 2.002615e+01 2.375887e+01 3.553767e+01 2.485230e+01 3.695748e+01 2.340388e+01 2.202858e+01 1.680301e+01 1.815707e+01 4.774827e-01 6.074366e-01 8.892739e-01 1.779712e+00 1.203103e+00 1.080059e+00 1.768791e+00 1.522302e+00 1.488006e+00 9.418814e-01 1.064492e+00 7.507905e-01 7.728294e-01 8.892214e-02 1.043872e-01 1.536903e-01 2.487880e-01 2.043976e-01 1.849017e-01 3.420513e-01 2.710807e-01 2.750445e-01 1.509524e-01 1.705842e-01 1.171937e-01 1.222799e-01
<GCONST> 8.873010e+01
<TRANSP> 5
 0.000000e+00 1.000000e+00 0.000000e+00 0.000000e+00 0.000000e+00
 0.000000e+00 8.159631e-01 1.840368e-01 0.000000e+00 0.000000e+00
 0.000000e+00 0.000000e+00 8.528782e-01 1.471219e-01 0.000000e+00
 0.000000e+00 0.000000e+00 0.000000e+00 9.365840e-01 6.341605e-02
 0.000000e+00 0.000000e+00 0.000000e+00 0.000000e+00 0.000000e+00
<ENDHMM>
~h "s"
<BEGINHMM>
<NUMSTATES> 5
<STATE> 2
<MEAN> 39
 -7.103893e+00 -1.242316e+00 -3.337117e+00 -8.024307e-01 -2.063587e+00 -1.986336e+00 -1.902157e+00 1.554037e+00 1.195745e+00 -5.517113e-01 -7.597448e-01 -6.129299e-01 4.125502e+01 -5.668340e-01 6.954669e-02 1.480366e-01 -3.331506e-01 1.957195e-01 -1.798944e-01 -4.449167e-02 2.182983e-01 -1.388000e-01 1.059334e-01 -2.564362e-02 1.530115e-01 3.047210e-01 -2.112728e-01 7.079069e-02 6.342543e-02 -1.475426e-01 6.197981e-02 -2.003790e-02 -4.440599e-02 1.041968e-01 -3.126208e-02 1.772109e-02 -4.574656e-02 4.077207e-02 1.561393e-01
<VARIANCE> 39
 1.341488e+01 1.594985e+01 1.815445e+01 1.988382e+01 2.274898e+01 2.930213e+01 2.398962e+01 2.347691e+01 1.780007e+01 1.870710e+01 1.881429e+01 1.648200e+01 1.704670e+01 1.852082e+00 1.157547e+00 1.416599e+00 1.743522e+00 1.962489e+00 2.254662e+00 1.990417e+00 2.105466e+00 2.014590e+00 1.701575e+00 1.351001e+00 1.156859e+00 9.322960e-01 2.269594e-01 1.900104e-01 2.391845e-01 2.876253e-01 3.253796e-01 3.811773e-01 3.050187e-01 3.021673e-01 3.401831e-01 3.214869e-01 2.478086e-01 2.016122e-01 1.232961e-01
<GCONST> 9.874947e+01
<STATE> 3
<MEAN> 39
 -1.408982e+01 6.084208e-01 -8.735825e-01 -6.939162e+00 -7.326129e-01 -2.243455e+00 -5.085498e+00 3.639015e+00 2.003413e-01 -5.322117e-02 -1.674981e+00 4.046704e-01 4.532389e+01 -2.129350e+00 7.719001e-01 5.119533e-01 -6.793005e-01 4.978953e-01 2.775751e-01 -2.668757e-01 4.457939e-01 -3.082217e-01 1.325100e-01 -1.818017e-01 1.595139e-01 1.237425e+00 1.577315e-01 -2.292655e-02 -1.974780e-01 2.406575e-01 -1.914937e-01 2.304720e-01 9.833808e-02 -1.926236e-01 5.001467e-02 -4.017623e-02 9.077173e-02 -9.058866e-02 -7.533225e-02
<VARIANCE> 39
 1.676798e+01 2.138674e+01 2.550990e+01 2.239418e+01 4.791159e+01 5.047166e+01 3.919081e+01 3.960760e+01 3.196916e+01 2.335769e+01 1.749229e+01 1.648528e+01 1.133927e+01 1.901203e+00 1.035169e+00 1.504686e+00 1.739535e+00 2.212470e+00 3.036686e+00 2.770323e+00 2.228140e+00 1.895413e+00 1.722916e+00 1.549574e+00 1.367429e+00 6.529110e-01 1.728888e-01 1.927538e-01 2.358332e-01 2.722964e-01 3.612167e-01 5.646451e-01 4.378004e-01 3.868437e-01 3.807549e-01 3.257059e-01 2.902978e-01 2.259230e-01 6.362431e-02
<GCONST> 1.035471e+02
<STATE> 4
<MEAN> 39
 -1.944179e+01 2.222610e+00 -2.511582e+00 -6.494637e+00 -8.970740e-01 -1.788787e+00 -4.649888e+00 3.593376e+00 -4.809993e-01 7.126751e-01 -1.664936e+00 7.342467e-01 5.097013e+01 3.317773e-01 -6.855676e-01 -1.806315e-01 3.685602e-01 -4.769261e-01 -1.111466e-01 -1.965619e-01 -1.275942e-01 2.681824e-01 7.470652e-02 -1.063009e-01 6.860212e-03 3.633635e-01 7.585210e-01 -1.874659e-01 -2.520236e-02 1.061197e-01 -1.803485e-02 -6.379356e-02 -2.181131e-01 -6.714963e-02 1.363431e-01 4.179339e-02 -5.328574e-02 -3.908814e-02 -1.469778e-01
<VARIANCE> 39
 8.575317e+00 2.207717e+01 3.037350e+01 1.960045e+01 4.130390e+01 4.950640e+01 3.585773e+01 3.526079e+01 2.521851e+01 1.934990e+01 1.554467e+01 1.449069e+01 1.073094e+01 3.679083e+00 1.229573e+00 1.421359e+00 1.481177e+00 1.890303e+00 2.282591e+00 2.404300e+00 2.054332e+00 2.036871e+00 1.811241e+00 1.304591e+00 1.244181e+00 4.981063e-01 2.935945e-01 2.669249e-01 2.558623e-01 3.058353e-01 4.107375e-01 4.541843e-01 4.222601e-01 4.211665e-01 3.441887e-01 3.664253e-01 2.607048e-01 2.352506e-01 1.076201e-01
<GCONST> 1.028704e+02
<TRANSP> 5
 0.000000e+00 1.000000e+00 0.000000e+00 0.000000e+00 0.000000e+00
 0.000000e+00 8.481156e-01 1.518843e-01 0.000000e+00 0.000000e+00
 0.000000e+00 0.000000e+00 7.194369e-01 2.805631e-01 0.000000e+00
 0.000000e+00 0.000000e+00 0.000000e+00 8.640147e-01 1.359853e-01
 0.000000e+00 0.000000e+00 0.000000e+00 0.000000e+00 0.000000e+00
<ENDHMM>
~h "t"
<BEGINHMM>
<NUMSTATES> 5
<STATE> 2
<MEAN> 39
 -3.583438e+00 1.864268e+00 -6.533127e+00 -3.847390e+00 -5.338959e+00 -2.898128e+00 -7.813002e-01 2.612089e+00 3.392248e+00 -2.179366e+00 -1.191629e+00 -2.904349e+00 4.192390e+01 -7.924127e-01 -5.549033e-01 -6.389298e-02 -2.154070e-01 1.446104e-01 -5.930646e-02 2.699244e-01 8.534796e-02 -3.001186e-01 -7.091586e-03 9.152327e-02 1.317014e-01 2.517431e-01 6.904243e-02 -1.612442e-01 8.651233e-02 -1.523460e-01 1.537269e-01 -2.029314e-01 -3.498222e-01 9.637824e-02 2.145343e-02 1.258328e-01 -1.802567e-01 1.111073e-01 5.251223e-01
<VARIANCE> 39
 1.571708e+01 9.697618e+00 1.215062e+01 1.994047e+01 2.079609e+01 2.338014e+01 2.371430e+01 2.029159e+01 1.880759e+01 1.648438e+01 1.931659e+01 1.142146e+01 6.399947e+00 9.785047e-01 1.088118e+00 1.024135e+00 1.922993e+00 1.763418e+00 2.237544e+00 2.826627e+00 1.989395e+00 1.987004e+00 1.505120e+00 1.513046e+00 1.123610e+00 3.024746e+00 1.821818e-01 1.908635e-01 1.863079e-01 3.008368e-01 3.428458e-01 3.968662e-01 4.861266e-01 4.119365e-01 3.823685e-01 3.161613e-01 2.903829e-01 1.916764e-01 2.691301e-01
<GCONST> 9.796210e+01
<STATE> 3
<MEAN> 39
 -5.678877e+00 -1.477481e+00 -5.642146e+00 -6.771115e+00 -3.107280e+00 -4.777904e+00 -2.314354e+00 3.425614e+00 1.128248e+00 -1.873596e+00 -1.886048e+00 -6.945929e-01 4.632264e+01 -7.356246e-01 -1.001689e+00 1.592098e-01 -4.347712e-01 1.038921e+00 -9.353802e-01 -9.068373e-01 3.658763e-01 -1.130494e-01 4.376979e-01 -5.887399e-01 4.249122e-01 1.929840e+00 5.923691e-01 3.829788e-01 2.485327e-01 2.412832e-01 1.296734e-02 2.150182e-01 -5.015225e-01 -3.241912e-01 6.573531e-02 3.281524e-01 2.718697e-02 -1.491641e-01 9.342469e-02
<VARIANCE> 39
 2.490726e+01 3.053739e+01 2.275384e+01 2.626867e+01 2.316076e+01 3.513875e+01 3.840887e+01 3.062159e+01 3.293618e+01 2.637040e+01 1.942347e+01 1.561235e+01 3.800422e+01 1.526467e+00 9.723839e-01 1.435400e+00 1.871982e+00 2.945732e+00 3.489933e+00 3.766521e+00 2.861286e+00 2.707052e+00 1.771929e+00 2.051430e+00 1.185929e+00 3.795590e+00 5.201373e-01 3.648391e-01 3.004956e-01 4.476777e-01 4.447567e-01 5.119551e-01 8.565905e-01 5.163600e-01 5.538010e-01 3.663570e-01 3.136254e-01 2.169250e-01 6.028943e-01
<GCONST> 1.137248e+02
<STATE> 4
<MEAN> 39
 -6.770923e+00 -2.257306e+00 -5.467079e+00 -7.121583e+00 -2.390650e+00 -8.536416e+00 -5.420691e+00 2.810013e+00 1.351180e+00 -5.966328e-01 -2.730366e+00 -6.183439e-01 5.035030e+01 5.149888e-01 3.326602e-02 6.857371e-01 2.654594e-01 7.108219e-01 -1.583585e-01 -1.336023e+00 -2.496916e-01 -3.175735e-04 8.242117e-01 -3.145382e-01 4.967540e-04 1.308786e+00 8.072893e-01 6.125848e-01 1.237214e-01 1.502388e-01 -2.778614e-01 7.609807e-01 -1.767689e-01 -3.817059e-01 -2.741077e-02 1.386033e-01 2.295527e-01 -1.924136e-01 -4.307706e-01
<VARIANCE> 39
 2.479060e+01 2.191607e+01 1.739916e+01 2.359366e+01 2.515501e+01 4.145622e+01 3.360284e+01 2.673368e+01 3.493140e+01 1.790781e+01 2.262766e+01 1.494442e+01 3.931495e+01 2.593946e+00 1.356298e+00 1.333197e+00 2.206960e+00 2.523758e+00 2.516633e+00 4.159777e+00 2.174038e+00 2.124531e+00 1.542097e+00 1.640057e+00 9.904997e-01 3.580372e+00 6.909087e-01 3.349517e-01 2.820853e-01 4.761750e-01 4.517694e-01 7.953434e-01 8.040580e-01 6.157079e-01 5.392652e-01 3.831491e-01 3.706979e-01 2.730364e-01 5.267143e-01
<GCONST> 1.133053e+02
<TRANSP> 5
 0.000000e+00 1.000000e+00 0.000000e+00 0.000000e+00 0.000000e+00
 0.000000e+00 7.556059e-01 2.443941e-01 0.000000e+00 0.000000e+00
 0.000000e+00 0.000000e+00 1.551950e-01 8.448049e-01 0.000000e+00
 0.000000e+00 0.000000e+00 0.000000e+00 1.276650e-01 8.723350e-01
 0.000000e+00 0.000000e+00 0.000000e+00 0.000000e+00 0.000000e+00
<ENDHMM>
~h "u"
<BEGINHMM>
<NUMSTATES> 5
<STATE> 2
<MEAN> 39
 -6.288784e+00 4.765509e-01 -2.612919e+00 -1.666456e+00 -2.812147e+00 -3.533505e+00 -6.049833e+00 -2.004012e-01 1.257586e+00 -9.065667e-02 -6.997626e-01 -8.432896e-01 4.620086e+01 1.426128e+00 1.922651e-01 -3.273235e-01 3.281787e-01 3.246961e-01 3.134271e-01 -4.262234e-01 -5.043064e-01 1.091624e-01 4.404500e-01 2.380065e-01 -1.424436e-01 -4.687943e-01 3.218265e-01 3.063499e-01 1.433023e-01 -5.787882e-01 -1.184310e-01 4.090160e-01 -2.834576e-01 -2.738575e-01 -3.456767e-01 1.566948e-01 1.678697e-01 7.786579e-02 3.168355e-01
<VARIANCE> 39
 3.960818e+01 2.957469e+01 1.720412e+01 2.321343e+01 3.053662e+01 3.119906e+01 3.054806e+01 3.208076e+01 2.145669e+01 2.523652e+01 1.739919e+01 1.612817e+01 2.084426e+01 7.206225e+00 2.417892e+00 2.375102e+00 2.808100e+00 2.486042e+00 2.441162e+00 5.913509e+00 3.296963e+00 1.842618e+00 2.346537e+00 1.540135e+00 1.338676e+00 2.327091e+00 4.727739e-01 5.918703e-01 4.072573e-01 4.328793e-01 5.440375e-01 5.740775e-01 5.906317e-01 5.917557e-01 4.173302e-01 4.053920e-01 3.212313e-01 3.320510e-01 3.994173e-01
<GCONST> 1.158527e+02
<STATE> 3
<MEAN> 39
 8.556248e-01 2.108516e+00 -1.124128e+00 -5.057467e+00 -2.757058e+00 -1.030244e+00 -1.253023e+01 -3.265102e+00 2.064774e-01 3.732724e+00 -5.387757e-01 -5.311875e-01 5.059857e+01 2.537044e+00 1.434043e+00 2.373319e-01 -1.959791e+00 -6.842981e-01 1.607239e+00 -1.338226e+00 -1.744730e+00 -1.532412e+00 5.662007e-01 9.084723e-01 4.520077e-01 8.396173e-01 -7.271086e-01 3.490856e-02 -2.388602e-01 -4.901813e-01 -2.115647e-01 -7.289387e-03 6.645801e-01 2.784874e-01 -4.467334e-01 -4.632582e-01 1.044590e-01 2.289182e-01 -4.233382e-02
<VARIANCE> 39
 2.948991e+01 2.048332e+01 1.417318e+01 3.503276e+01 2.636135e+01 3.366507e+01 4.741624e+01 3.108946e+01 2.787144e+01 2.000615e+01 1.590818e+01 1.451087e+01 2.491737e+01 6.308577e+00 2.272295e+00 1.620359e+00 2.722522e+00 2.650491e+00 3.588602e+00 3.884001e+00 3.937933e+00 3.237996e+00 2.350400e+00 1.677495e+00 1.793773e+00 1.630158e+00 4.402748e-01 4.203225e-01 2.856764e-01 6.059715e-01 4.740415e-01 5.094782e-01 8.285750e-01 6.256055e-01 4.795815e-01 4.144116e-01 3.383559e-01 2.478729e-01 4.266608e-01
<GCONST> 1.156356e+02
<STATE> 4
<MEAN> 39
 4.501719e+00 5.450274e+00 -3.988580e+00 -1.284730e+01 -5.280416e+00 2.776254e+00 -1.066750e+01 -4.951768e+00 -5.634462e+00 4.896574e-01 2.290446e+00 2.213528e+00 5.182256e+01 -9.502148e-02 -2.882653e-02 -3.952863e-01 -3.248526e-01 -3.010557e-02 2.492165e-02 4.629072e-01 2.905548e-01 -1.022632e-01 -2.247906e-01 6.276418e-02 9.353039e-02 3.539713e-02 -3.263344e-01 -2.442995e-01 -8.482973e-03 3.403966e-01 1.527562e-01 -2.711216e-01 1.277391e-01 2.944930e-01 3.486195e-01 1.768511e-02 -2.027417e-01 -1.864751e-01 -5.639695e-02
<VARIANCE> 39
 1.777578e+01 1.284829e+01 1.179302e+01 2.685227e+01 2.178788e+01 3.020460e+01 3.116493e+01 3.080789e+01 3.248886e+01 2.994077e+01 1.436063e+01 1.906738e+01 1.250123e+01 1.500315e+00 1.454501e+00 8.127210e-01 3.606935e+00 1.959456e+00 2.161248e+00 2.460075e+00 2.518798e+00 2.820072e+00 2.664516e+00 1.335679e+00 1.617730e+00 1.507044e+00 2.356529e-01 1.852076e-01 1.524439e-01 3.783728e-01 3.205251e-01 3.736426e-01 4.645643e-01 5.306743e-01 3.666474e-01 4.046941e-01 2.596062e-01 2.526793e-01 1.299206e-01
<GCONST> 1.033814e+02
<TRANSP> 5
 0.000000e+00 1.000000e+00 0.000000e+00 0.000000e+00 0.000000e+00
 0.000000e+00 5.831494e-01 4.168506e-01 0.000000e+00 0.000000e+00
 0.000000e+00 0.000000e+00 5.076603e-01 4.923397e-01 0.000000e+00
 0.000000e+00 0.000000e+00 0.000000e+00 7.891100e-01 2.108900e-01
 0.000000e+00 0.000000e+00 0.000000e+00 0.000000e+00 0.000000e+00
<ENDHMM>
~h "y"
<BEGINHMM>
<NUMSTATES> 5
<STATE> 2
<MEAN> 39
 -1.115444e+00 1.364710e+00 8.206166e+00 -8.423615e+00 -1.308396e+01 -4.916745e+00 -7.456131e+00 3.403349e+00 -4.953578e+00 -3.000768e-02 6.334866e-01 4.261990e-01 5.671629e+01 -2.635066e-01 8.268554e-01 1.313823e+00 2.821840e-02 -5.773057e-01 -7.923460e-02 -2.766341e-01 -9.167700e-01 -7.957340e-01 1.875909e-01 7.149433e-01 -4.103953e-02 -3.858337e-01 6.453319e-02 -2.587443e-01 -4.310737e-01 -9.700728e-02 1.834545e-01 4.435255e-02 8.200471e-02 2.186718e-01 2.556988e-01 -3.130894e-02 -1.919361e-01 -4.754328e-02 9.842562e-02
<VARIANCE> 39
 5.724372e+00 1.878907e+01 2.627879e+01 4.214981e+01 2.486672e+01 2.476727e+01 3.119354e+01 3.091020e+01 2.279350e+01 2.200192e+01 2.085365e+01 1.372223e+01 1.528441e+01 2.471019e-01 1.188666e+00 2.160183e+00 1.246390e+00 1.483898e+00 1.327640e+00 1.228950e+00 2.008646e+00 2.134994e+00 9.760978e-01 1.204868e+00 1.058747e+00 2.872101e-01 4.270198e-02 1.271140e-01 1.750197e-01 1.991870e-01 2.763468e-01 3.013248e-01 2.806759e-01 3.344697e-01 2.538331e-01 1.595219e-01 1.571643e-01 2.514005e-01 4.213424e-02
<GCONST> 8.930905e+01
<STATE> 3
<MEAN> 39
 -7.175174e-01 1.891090e-01 5.102900e+00 -9.462598e+00 -1.415635e+01 -6.609896e+00 -6.330503e+00 6.155031e+00 -2.185511e+00 4.313985e-01 2.934262e-01 1.907425e+00 5.692646e+01 3.767053e-01 -1.004931e+00 -1.989297e+00 -2.450441e-01 5.551914e-01 -3.854457e-02 6.051503e-01 1.407778e+00 1.625921e+00 6.748346e-02 -9.781114e-01 1.929922e-01 2.875112e-01 3.896409e-02 -1.955492e-02 -1.830695e-01 3.252497e-02 3.117526e-01 2.572038e-01 -8.876737e-02 -5.206868e-03 1.318501e-01 5.140625e-02 -1.820274e-01 -2.197544e-01 -6.440964e-02
<VARIANCE> 39
 8.759762e+00 1.260245e+01 2.555605e+01 2.321378e+01 2.694650e+01 3.043389e+01 4.619436e+01 3.110690e+01 3.914065e+01 2.041038e+01 2.389672e+01 1.193166e+01 1.053260e+01 5.673234e-01 5.666538e-01 1.098331e+00 1.418797e+00 2.925887e+00 2.475472e+00 2.900845e+00 1.798251e+00 2.283231e+00 1.795250e+00 1.350495e+00 9.584021e-01 4.381544e-01 1.158020e-01 1.134252e-01 2.406387e-01 2.352800e-01 5.826394e-01 4.778453e-01 5.371644e-01 4.530531e-01 4.522694e-01 2.841943e-01 2.465919e-01 1.825059e-01 7.218002e-02
<GCONST> 9.754440e+01
<STATE> 4
<MEAN> 39
 1.570206e+00 -4.416365e+00 -4.992927e+00 -1.113094e+01 -6.208550e+00 -2.332522e+00 -4.172356e+00 1.009317e+01 4.902944e+00 4.510672e-01 -6.114250e+00 -1.944576e+00 5.687055e+01 3.319432e-01 -2.174962e-01 -9.693116e-01 5.860291e-02 1.315787e+00 1.083151e+00 -3.448756e-01 -6.484103e-01 1.449256e-01 1.979864e-01 -1.232744e-01 -9.390658e-01 -2.212089e-01 5.225775e-02 2.275467e-01 2.529618e-01 1.932100e-03 -1.943386e-01 1.183911e-02 -1.454075e-01 -4.558406e-01 -2.877086e-01 2.356847e-02 4.309072e-01 5.630769e-02 -1.013869e-01
<VARIANCE> 39
 5.788250e+00 1.049306e+01 2.020939e+01 2.245436e+01 2.443801e+01 1.704346e+01 3.223287e+01 2.818447e+01 4.111242e+01 2.731798e+01 2.007683e+01 1.724683e+01 1.235173e+01 2.965939e-01 7.005019e-01 1.272867e+00 1.031512e+00 1.782635e+00 1.424951e+00 1.708863e+00 1.747045e+00 2.140791e+00 1.391118e+00 1.800096e+00 1.039148e+00 2.890280e-01 7.533567e-02 1.362959e-01 2.182835e-01 2.220334e-01 3.528080e-01 2.244174e-01 3.396862e-01 3.625101e-01 4.635486e-01 2.290653e-01 3.278477e-01 2.176034e-01 6.281397e-02
<GCONST> 9.144653e+01
<TRANSP> 5
 0.000000e+00 1.000000e+00 0.000000e+00 0.000000e+00 0.000000e+00
 0.000000e+00 8.827069e-01 1.172931e-01 0.000000e+00 0.000000e+00
 0.000000e+00 0.000000e+00 8.313278e-01 1.686722e-01 0.000000e+00
 0.000000e+00 0.000000e+00 0.000000e+00 8.208867e-01 1.791134e-01
 0.000000e+00 0.000000e+00 0.000000e+00 0.000000e+00 0.000000e+00
<ENDHMM>
~h "ng"
<BEGINHMM>
<NUMSTATES> 5
<STATE> 2
<MEAN> 39
 -3.120294e+00 3.015506e+00 1.169930e-01 1.615919e+00 -1.287113e-01 -2.963810e-01 -7.181556e-01 7.757400e-01 3.057050e-01 -1.305461e+00 -1.066992e+00 -5.115862e-01 4.154808e+01 -3.182185e-01 -2.921916e-01 -3.727962e-01 -1.572613e-01 2.965519e-02 -4.098189e-02 1.095526e-01 2.014375e-01 1.051296e-01 -1.089939e-03 1.167711e-01 -2.154051e-02 -2.465734e-01 2.673536e-02 1.298634e-02 -1.628077e-02 -4.064569e-02 -7.596748e-02 -3.625695e-02 -3.497654e-02 -3.994210e-02 6.183411e-03 5.158525e-02 3.235565e-02 -6.043549e-03 1.539839e-02
<VARIANCE> 39
 5.755105e+00 1.044038e+01 1.148614e+01 1.324101e+01 1.411651e+01 1.674976e+01 1.629434e+01 2.227431e+01 1.640762e+01 1.874628e+01 1.283664e+01 1.298693e+01 1.165715e+01 3.694328e-01 6.485227e-01 9.248542e-01 1.192553e+00 1.313842e+00 1.365285e+00 1.485785e+00 1.431534e+00 1.425377e+00 1.291316e+00 1.080706e+00 9.783828e-01 1.175612e-01 5.888476e-02 1.056143e-01 1.566477e-01 2.206809e-01 2.569866e-01 2.544037e-01 3.002464e-01 2.761662e-01 2.629564e-01 2.378065e-01 1.984232e-01 1.978601e-01 1.739689e-02
<GCONST> 8.026802e+01
<STATE> 3
<MEAN> 39
 -6.611317e+00 -3.726465e-01 -5.352933e+00 -8.385494e-02 -2.621977e+00 -2.663952e-02 1.544048e-01 2.484783e-01 2.504374e+00 -1.955022e+00 1.522453e+00 -2.226964e+00 4.287038e+01 -5.781664e-02 -8.762293e-02 -9.431860e-02 -5.826522e-02 -7.022299e-02 -4.383446e-02 -2.646989e-02 8.341139e-03 2.442987e-02 -1.981332e-02 -7.541432e-03 -3.028589e-02 -1.126822e-01 2.666146e-02 3.832294e-02 4.867255e-02 2.614823e-02 2.187647e-02 2.145159e-02 7.168594e-03 -5.915612e-03 -1.845447e-02 -7.018960e-03 -2.201838e-02 -3.984040e-03 9.978369e-03
<VARIANCE> 39
 2.709737e+00 8.031261e+00 8.397196e+00 1.584218e+01 1.613738e+01 1.835515e+01 1.883405e+01 1.751424e+01 1.932816e+01 1.507314e+01 1.373899e+01 1.132728e+01 3.685880e+00 1.795312e-01 4.013253e-01 6.717456e-01 9.243875e-01 1.285223e+00 1.356876e+00 1.502071e+00 1.461729e+00 1.409244e+00 1.226258e+00 1.139720e+00 1.013893e+00 7.231092e-02 3.617322e-02 7.838261e-02 1.343251e-01 1.815608e-01 2.531673e-01 2.656866e-01 3.015618e-01 2.883468e-01 2.809921e-01 2.400810e-01 2.224438e-01 2.042676e-01 1.204107e-02
<GCONST> 7.453686e+01
<STATE> 4
<MEAN> 39
 -6.508889e+00 1.410293e+00 -4.611922e+00 3.561974e-01 -1.699803e+00 -3.030701e-01 -2.561558e-01 -8.422831e-01 3.774821e-01 -1.677854e+00 5.596541e-01 -2.085157e+00 3.897073e+01 1.905923e-02 2.231675e-02 2.416359e-02 1.701436e-02 2.519148e-04 2.086989e-02 3.311576e-02 1.271071e-02 -6.399156e-03 -1.205403e-02 1.227874e-02 1.622036e-02 -6.996567e-02 -2.664466e-03 -1.124138e-02 -4.024012e-03 -5.877494e-03 -5.907788e-03 -1.729051e-02 -1.820030e-02 -8.321849e-03 6.989434e-03 3.205554e-03 8.486818e-03 9.471019e-03 -3.223839e-03
<VARIANCE> 39
 3.757987e+00 4.755072e+00 6.944063e+00 1.069174e+01 1.281104e+01 1.556547e+01 1.538084e+01 1.716981e+01 1.764698e+01 1.739560e+01 1.423607e+01 1.020624e+01 3.479313e+00 1.529666e-01 3.293220e-01 5.552976e-01 8.492181e-01 1.082852e+00 1.207271e+00 1.339432e+00 1.441811e+00 1.346162e+00 1.264564e+00 1.079292e+00 8.928874e-01 6.072811e-02 2.938795e-02 6.097386e-02 1.060591e-01 1.699487e-01 2.173587e-01 2.283312e-01 2.575913e-01 2.767740e-01 2.651974e-01 2.537415e-01 2.114987e-01 1.776605e-01 1.531006e-02
<GCONST> 7.042753e+01
<TRANSP> 5
 0.000000e+00 1.000000e+00 0.000000e+00 0.000000e+00 0.000000e+00
 0.000000e+00 8.737260e-01 1.262740e-01 0.000000e+00 0.000000e+00
 0.000000e+00 0.000000e+00 9.357358e-01 6.426421e-02 0.000000e+00
 0.000000e+00 0.000000e+00 0.000000e+00 9.340562e-01 6.594390e-02
 0.000000e+00 0.000000e+00 0.000000e+00 0.000000e+00 0.000000e+00
<ENDHMM>
~h "sp"
<BEGINHMM>
<NUMSTATES> 3
<STATE> 2
~s "silst"
<TRANSP> 3
 0.000000e+00 1.889347e-01 8.110653e-01
 0.000000e+00 8.932174e-01 1.067826e-01
 0.000000e+00 0.000000e+00 0.000000e+00
<ENDHMM>
~h "sil"
<BEGINHMM>
<NUMSTATES> 5
<STATE> 2
<MEAN> 39
 -1.971664e+00 2.884281e-01 -1.476806e+00 2.465111e-01 -5.058659e-01 -1.405264e-01 -1.810417e-01 3.599117e-02 3.075974e-01 -3.145447e-01 8.784930e-02 -3.286195e-01 1.557879e+01 -9.070255e-01 -2.933623e-01 -9.006616e-01 -4.041044e-01 -6.045180e-01 -4.563020e-01 -3.459019e-01 -1.597346e-01 -3.906702e-02 -1.935816e-01 -5.534482e-02 -1.945723e-01 3.837365e+00 -2.575423e-01 -8.350579e-02 -2.815019e-01 -1.434901e-01 -2.246348e-01 -1.750804e-01 -1.652877e-01 -5.378680e-02 -1.010612e-02 -9.544101e-02 -4.118531e-02 -1.103372e-01 1.416648e+00
<VARIANCE> 39
 9.206794e+00 3.083996e+00 7.005681e+00 4.480016e+00 4.229661e+00 5.329377e+00 3.751622e+00 4.890777e+00 4.265852e+00 4.134756e+00 4.077600e+00 2.808992e+00 3.634695e+02 1.031942e+00 5.614180e-01 1.384147e+00 9.284101e-01 1.169681e+00 1.047937e+00 1.152607e+00 9.890577e-01 9.116790e-01 9.321966e-01 6.871291e-01 6.037590e-01 2.248988e+01 1.159709e-01 7.470649e-02 1.485267e-01 1.278247e-01 1.336499e-01 1.663585e-01 1.505470e-01 1.475868e-01 1.266732e-01 1.318187e-01 1.103288e-01 9.124152e-02 2.008913e+00
<GCONST> 7.348975e+01
<STATE> 3
~s "silst"
<STATE> 4
<MEAN> 39
 -5.328550e+00 -1.678645e-01 -5.324140e+00 -1.188128e+00 -2.909968e+00 -2.011538e+00 -1.614699e+00 1.910436e-01 8.168501e-01 -9.351329e-01 -3.558159e-01 -1.412885e+00 3.732807e+01 6.670460e-03 2.266425e-02 1.141111e-02 2.215750e-02 1.320167e-02 1.737634e-02 7.341992e-03 5.042430e-03 1.490062e-02 1.160917e-02 5.588134e-04 5.258468e-05 -6.590720e-02 -3.823086e-03 -4.656385e-03 7.913014e-03 -5.357061e-03 5.688920e-03 -6.778520e-04 -6.744620e-03 5.266997e-03 7.849211e-05 7.910042e-03 -2.589766e-03 -5.299669e-04 4.637993e-03
<VARIANCE> 39
 6.205918e+00 7.643514e+00 1.044969e+01 1.350042e+01 1.530063e+01 1.765606e+01 1.746726e+01 1.892483e+01 1.775679e+01 1.724779e+01 1.412398e+01 1.158930e+01 9.325814e+00 2.117831e-01 4.205382e-01 6.660873e-01 9.169702e-01 1.178203e+00 1.290422e+00 1.405701e+00 1.476628e+00 1.404681e+00 1.287027e+00 1.090101e+00 8.847240e-01 1.790554e-01 4.078545e-02 8.016279e-02 1.272617e-01 1.762555e-01 2.308623e-01 2.484387e-01 2.681470e-01 2.862675e-01 2.721550e-01 2.508489e-01 2.134174e-01 1.701315e-01 2.288478e-02
<GCONST> 7.729129e+01
<TRANSP> 5
 0.000000e+00 1.000000e+00 0.000000e+00 0.000000e+00 0.000000e+00
 0.000000e+00 4.112505e-01 4.665917e-01 1.221578e-01 0.000000e+00
 0.000000e+00 0.000000e+00 7.818450e-01 2.181550e-01 0.000000e+00
 0.000000e+00 1.069110e-02 0.000000e+00 9.608886e-01 2.842030e-02
 0.000000e+00 0.000000e+00 0.000000e+00 0.000000e+00 0.000000e+00
<ENDHMM>
