~o
<STREAMINFO> 1 39
<VECSIZE> 39<NULLD><MFCC_D_A_0><DIAGC>
~h "proto"
<BEGINHMM>
<NUMSTATES> 5
<STATE> 2
<MEAN> 39
 -2.724740e+00 -7.037601e-01 -4.908494e+00 -6.151039e+00 -5.112072e+00 -4.530424e+00 -7.848791e+00 1.431930e+00 -2.484624e+00 1.925947e-01 -4.758011e+00 -2.210482e+00 5.813766e+01 -1.599751e-02 4.086153e-03 -1.653056e-02 -3.893787e-03 -1.055736e-02 -1.168371e-02 -7.098847e-03 2.315763e-03 -5.786439e-03 8.707726e-05 -9.006159e-03 -5.134908e-03 1.613127e-01 6.927087e-03 4.249008e-03 9.763144e-03 6.061205e-03 8.461900e-03 6.273441e-03 6.307671e-03 2.150819e-03 1.328338e-03 1.181263e-03 4.106577e-03 1.667019e-03 -5.073298e-02
<VARIANCE> 39
 3.850178e+01 3.210514e+01 5.323381e+01 5.687914e+01 4.124825e+01 4.756469e+01 6.185561e+01 6.471220e+01 5.071791e+01 3.925452e+01 3.887346e+01 2.805187e+01 1.483181e+02 1.609144e+00 1.345913e+00 1.725765e+00 2.084772e+00 2.168068e+00 2.421608e+00 2.731436e+00 2.676220e+00 2.348892e+00 2.163702e+00 2.100691e+00 1.831970e+00 3.965111e+00 2.443437e-01 2.103354e-01 2.602023e-01 3.525164e-01 3.755444e-01 4.212863e-01 4.809645e-01 4.633259e-01 4.210933e-01 3.832521e-01 3.792979e-01 3.380752e-01 4.053346e-01
<GCONST> 1.188474e+02
<STATE> 3
<MEAN> 39
 -2.724740e+00 -7.037601e-01 -4.908494e+00 -6.151039e+00 -5.112072e+00 -4.530424e+00 -7.848791e+00 1.431930e+00 -2.484624e+00 1.925947e-01 -4.758011e+00 -2.210482e+00 5.813766e+01 -1.599751e-02 4.086153e-03 -1.653056e-02 -3.893787e-03 -1.055736e-02 -1.168371e-02 -7.098847e-03 2.315763e-03 -5.786439e-03 8.707726e-05 -9.006159e-03 -5.134908e-03 1.613127e-01 6.927087e-03 4.249008e-03 9.763144e-03 6.061205e-03 8.461900e-03 6.273441e-03 6.307671e-03 2.150819e-03 1.328338e-03 1.181263e-03 4.106577e-03 1.667019e-03 -5.073298e-02
<VARIANCE> 39
 3.850178e+01 3.210514e+01 5.323381e+01 5.687914e+01 4.124825e+01 4.756469e+01 6.185561e+01 6.471220e+01 5.071791e+01 3.925452e+01 3.887346e+01 2.805187e+01 1.483181e+02 1.609144e+00 1.345913e+00 1.725765e+00 2.084772e+00 2.168068e+00 2.421608e+00 2.731436e+00 2.676220e+00 2.348892e+00 2.163702e+00 2.100691e+00 1.831970e+00 3.965111e+00 2.443437e-01 2.103354e-01 2.602023e-01 3.525164e-01 3.755444e-01 4.212863e-01 4.809645e-01 4.633259e-01 4.210933e-01 3.832521e-01 3.792979e-01 3.380752e-01 4.053346e-01
<GCONST> 1.188474e+02
<STATE> 4
<MEAN> 39
 -2.724740e+00 -7.037601e-01 -4.908494e+00 -6.151039e+00 -5.112072e+00 -4.530424e+00 -7.848791e+00 1.431930e+00 -2.484624e+00 1.925947e-01 -4.758011e+00 -2.210482e+00 5.813766e+01 -1.599751e-02 4.086153e-03 -1.653056e-02 -3.893787e-03 -1.055736e-02 -1.168371e-02 -7.098847e-03 2.315763e-03 -5.786439e-03 8.707726e-05 -9.006159e-03 -5.134908e-03 1.613127e-01 6.927087e-03 4.249008e-03 9.763144e-03 6.061205e-03 8.461900e-03 6.273441e-03 6.307671e-03 2.150819e-03 1.328338e-03 1.181263e-03 4.106577e-03 1.667019e-03 -5.073298e-02
<VARIANCE> 39
 3.850178e+01 3.210514e+01 5.323381e+01 5.687914e+01 4.124825e+01 4.756469e+01 6.185561e+01 6.471220e+01 5.071791e+01 3.925452e+01 3.887346e+01 2.805187e+01 1.483181e+02 1.609144e+00 1.345913e+00 1.725765e+00 2.084772e+00 2.168068e+00 2.421608e+00 2.731436e+00 2.676220e+00 2.348892e+00 2.163702e+00 2.100691e+00 1.831970e+00 3.965111e+00 2.443437e-01 2.103354e-01 2.602023e-01 3.525164e-01 3.755444e-01 4.212863e-01 4.809645e-01 4.633259e-01 4.210933e-01 3.832521e-01 3.792979e-01 3.380752e-01 4.053346e-01
<GCONST> 1.188474e+02
<TRANSP> 5
 0.000000e+00 1.000000e+00 0.000000e+00 0.000000e+00 0.000000e+00
 0.000000e+00 6.000000e-01 4.000000e-01 0.000000e+00 0.000000e+00
 0.000000e+00 0.000000e+00 6.000000e-01 4.000000e-01 0.000000e+00
 0.000000e+00 0.000000e+00 0.000000e+00 7.000000e-01 3.000000e-01
 0.000000e+00 0.000000e+00 0.000000e+00 0.000000e+00 0.000000e+00
<ENDHMM>
