~o
<STREAMINFO> 1 39
<VECSIZE> 39<NULLD><MFCC_D_A_0><DIAGC>
~h "proto"
<BEGINHMM>
<NUMSTATES> 5
<STATE> 2
<MEAN> 39
 -2.864375e+00 -8.378630e-01 -4.941063e+00 -6.088979e+00 -5.290488e+00 -4.308276e+00 -7.622110e+00 1.412432e+00 -2.135355e+00 -1.057993e-01 -4.746735e+00 -2.103017e+00 5.801051e+01 -1.581233e-02 2.335153e-03 -1.700266e-02 -6.339933e-03 -1.051535e-02 -9.968253e-03 -7.074588e-03 2.570592e-03 -3.058731e-03 2.166031e-04 -1.236086e-02 -6.359763e-03 1.592277e-01 6.813563e-03 3.692380e-03 9.029835e-03 5.460704e-03 8.150950e-03 6.753688e-03 6.155376e-03 1.230276e-03 8.638276e-04 1.036641e-04 2.675672e-03 1.617966e-03 -4.881596e-02
<VARIANCE> 39
 3.859355e+01 3.264822e+01 5.478109e+01 5.557731e+01 4.289352e+01 4.667625e+01 6.104533e+01 6.171458e+01 5.040446e+01 3.946917e+01 3.781295e+01 2.715209e+01 1.488062e+02 1.618105e+00 1.340015e+00 1.718093e+00 2.012070e+00 2.171849e+00 2.375328e+00 2.682102e+00 2.571171e+00 2.396276e+00 2.212271e+00 2.078857e+00 1.784968e+00 3.869204e+00 2.403838e-01 2.083349e-01 2.572397e-01 3.370848e-01 3.674784e-01 4.147890e-01 4.758515e-01 4.483890e-01 4.292821e-01 4.005050e-01 3.811336e-01 3.311943e-01 3.939980e-01
<GCONST> 1.184970e+02
<STATE> 3
<MEAN> 39
 -2.864375e+00 -8.378630e-01 -4.941063e+00 -6.088979e+00 -5.290488e+00 -4.308276e+00 -7.622110e+00 1.412432e+00 -2.135355e+00 -1.057993e-01 -4.746735e+00 -2.103017e+00 5.801051e+01 -1.581233e-02 2.335153e-03 -1.700266e-02 -6.339933e-03 -1.051535e-02 -9.968253e-03 -7.074588e-03 2.570592e-03 -3.058731e-03 2.166031e-04 -1.236086e-02 -6.359763e-03 1.592277e-01 6.813563e-03 3.692380e-03 9.029835e-03 5.460704e-03 8.150950e-03 6.753688e-03 6.155376e-03 1.230276e-03 8.638276e-04 1.036641e-04 2.675672e-03 1.617966e-03 -4.881596e-02
<VARIANCE> 39
 3.859355e+01 3.264822e+01 5.478109e+01 5.557731e+01 4.289352e+01 4.667625e+01 6.104533e+01 6.171458e+01 5.040446e+01 3.946917e+01 3.781295e+01 2.715209e+01 1.488062e+02 1.618105e+00 1.340015e+00 1.718093e+00 2.012070e+00 2.171849e+00 2.375328e+00 2.682102e+00 2.571171e+00 2.396276e+00 2.212271e+00 2.078857e+00 1.784968e+00 3.869204e+00 2.403838e-01 2.083349e-01 2.572397e-01 3.370848e-01 3.674784e-01 4.147890e-01 4.758515e-01 4.483890e-01 4.292821e-01 4.005050e-01 3.811336e-01 3.311943e-01 3.939980e-01
<GCONST> 1.184970e+02
<STATE> 4
<MEAN> 39
 -2.864375e+00 -8.378630e-01 -4.941063e+00 -6.088979e+00 -5.290488e+00 -4.308276e+00 -7.622110e+00 1.412432e+00 -2.135355e+00 -1.057993e-01 -4.746735e+00 -2.103017e+00 5.801051e+01 -1.581233e-02 2.335153e-03 -1.700266e-02 -6.339933e-03 -1.051535e-02 -9.968253e-03 -7.074588e-03 2.570592e-03 -3.058731e-03 2.166031e-04 -1.236086e-02 -6.359763e-03 1.592277e-01 6.813563e-03 3.692380e-03 9.029835e-03 5.460704e-03 8.150950e-03 6.753688e-03 6.155376e-03 1.230276e-03 8.638276e-04 1.036641e-04 2.675672e-03 1.617966e-03 -4.881596e-02
<VARIANCE> 39
 3.859355e+01 3.264822e+01 5.478109e+01 5.557731e+01 4.289352e+01 4.667625e+01 6.104533e+01 6.171458e+01 5.040446e+01 3.946917e+01 3.781295e+01 2.715209e+01 1.488062e+02 1.618105e+00 1.340015e+00 1.718093e+00 2.012070e+00 2.171849e+00 2.375328e+00 2.682102e+00 2.571171e+00 2.396276e+00 2.212271e+00 2.078857e+00 1.784968e+00 3.869204e+00 2.403838e-01 2.083349e-01 2.572397e-01 3.370848e-01 3.674784e-01 4.147890e-01 4.758515e-01 4.483890e-01 4.292821e-01 4.005050e-01 3.811336e-01 3.311943e-01 3.939980e-01
<GCONST> 1.184970e+02
<TRANSP> 5
 0.000000e+00 1.000000e+00 0.000000e+00 0.000000e+00 0.000000e+00
 0.000000e+00 6.000000e-01 4.000000e-01 0.000000e+00 0.000000e+00
 0.000000e+00 0.000000e+00 6.000000e-01 4.000000e-01 0.000000e+00
 0.000000e+00 0.000000e+00 0.000000e+00 7.000000e-01 3.000000e-01
 0.000000e+00 0.000000e+00 0.000000e+00 0.000000e+00 0.000000e+00
<ENDHMM>
